0.50289580309349,0.05818083451601833,0.1705741421288554,-0.4339560410010986,0.35809528475507657,-0.5992599915447255,-0.1476293586697764,0.5589592676148565,-0.049793412748226094,0.09769614294948008,-0.0603646511903053,0.015123322495250308,0.3767722670000433,0.10499365933755765,-0.1653804885213073,0.04563548060451542,0.008077482053345476,0.13697379287198078,0.2265542446822907,-0.01457777604793637,-0.6739491085505863,-0.07141400830314197,0.04155289470901823,-0.04921190351134238,-0.1552761118080371,0.18874458504479102,-0.03734360549298022,-0.17904228361945934,0.10128852653822298,-0.09523019283092475,-0.4238557431913333,-0.042610170559459336,0.0753298547915743,0.018143985837230547,-0.08521436774147811,-0.028379202010541043,-0.07389716926705504,0.07900430229090814,-0.011528497669868685,0.05033191406674548,-0.16414507743831777,-0.0776560643438232,0.2258529813420351,0.2760845242543963,-0.01472761898001634,0.026757616177913484,-0.06112371212064234,0.29561410155587065,-0.08309008084258733,-0.059022409069240916,0.5943637929720835,0.0372514080216263,-0.2375908812990613,-0.055236588733269816,-0.11099533625311167,-0.019048324154917893,-0.06341142813820647,-0.03203686545269248,0.5301198460103379,-0.07768227099163433,0.1289634683026969,0.38792800680245987,0.02092739027421615,-0.43332955710048054,-0.26964320616810855,-0.002890396451504143,0.3272528889994986,0.10313128946638563,-0.29747657590049015,-0.7418810822316206,-0.32588064818830925,0.11546749745991321,-0.19033240474662366,0.28842049263717334,-0.06284997377503825,-0.6116787822819579,-0.3216886902606014,-0.38896558048081276,0.2643683061845657,0.052635595563188656,0.0354282640951226,-0.03129312455029451,-0.0479106267752978,-0.05925637241710907,0.16820527586698714,0.09139312843665182,0.5558704824771323,0.49942699694592074,0.1314892226871534,-0.05461712083348695,-0.14541193753539153,-0.2775145490352488,-0.21309866011860787,-0.056021442921421416,0.0481663229565074,-0.21547579959315666,-0.08874240705415183,-0.40040750446487205,-0.04840622528428551,0.1632676423191899,-0.0062439008569149836,0.16160187995533862,0.10074022516879916,-0.003457310450034666,-0.1820676124050909,0.4619817623967966,-0.13888895584065955,-0.07119458164380918,0.014170927750850645,0.07565766631259525,0.1196675003307392,-0.02151642136070536,0.4434224194436812,0.2033717264795435,-0.08021380358744508,-0.07063911608383674,-0.03258638700783228,0.04586088240641798,0.14725782411001298,-0.14379059187494012,-0.4407108526758888,-0.2962098723731837,0.37125622732691865,0.10093750318942943,0.3194953806341888,0.14882798291513052,0.02626401252080815,0.09606836520991607,-0.16682191652719297,-0.15243023466734062,0.08897204632732961,-0.06777355507369923,0.016404589688661028,0.05141354455717383,0.09597291711433571,-0.1228400767240245,-0.119747076838821,-0.22553672447504358,-0.15312291562215644,-0.18139933254376153,-0.2456933025183264,0.1542370638793614,-0.292341409207743,-0.1276662982635547,0.2928507439024901,-0.0013259460617038772,0.07054419238829757,0.1517354783323802,0.05187547930139084,0.032457032887397146,0.016666647428602247,-0.13051585148442058,-0.45534885372350087,0.021506552214066606,-0.05298840898397425,0.027167736430255142,0.03360918729616933,0.042565489730165045,0.046461416584054775,-0.6777937305215269,0.15153612588354112,0.09545055069220326,0.031419539481870436,0.09557136368014744,-0.09343811966197343,0.1950675963789825,0.13932832860231925,-0.02764588925675919,-0.19140959286391468,-0.16253850237007872,0.1588027966304736,0.10637346214810246,0.0331572563330507,0.3578468253663108,-0.04360535334743577,-0.10322683834522085,0.028711120256277877,0.12037120859527178,-0.17752316829609682,-0.030321740825069603,0.026164719451283788,0.20280532452351746,-0.098343376010837,-0.14312372186989739,0.08022026822553166,0.10787388117814736,-0.12549680256046947,0.4023249230293095,0.19683334291106547,-0.06826150601042896,-0.046419511390879804,-0.1051621553247911,-0.3657052235391227,0.3119921249826755,0.11766051568891328,0.2569094408536451,-0.02119574356873194,0.04481616838570798,0.07976338500173528,-0.037965415214802144,-0.02602255556676226,-0.03358477095935419,0.04625498075706797,-0.08435834579512148,-0.11653937805701645,-0.01685397602888772,0.012535642111309416,0.09511347188746201,-0.0337397173773028,0.011479301504276571,0.024346562509914012,-0.012008301281991648,0.09488516688937691,-0.11966707343855185,-0.013470087272773464,0.04431602661902813,0.026063101627628607,-0.05307410639243475,0.13040356009238904,-0.0802056828108599,-0.10310334118421524,-0.12311678567120161,0.21013023282925253,-0.042490520898153195,0.08869843332192989,0.07196730118519938,0.0517634205740895,0.08254892922343961,-0.17449804696501056,-0.024143341395080734,0.11254089614825136,0.028738671239149003,-0.1299433392504091,0.09976245242671498,0.03895878703595172,0.05498011063997485,0.055355110540107576,-0.023522345829233456,-0.049540642394811804,-0.03083866841625923,0.05120961162781313,0.028263943979183748,0.08952177953935397,0.03568465084267846,0.03257537593191097,0.10605897663212675,-0.0870814855803744,-0.1253053264169689,0.05689701692835445,-0.07347092585303466,-0.11083887883027266,-0.05832538078613617,-0.10227809459982945,-0.048525543546525746,0.06952049984911794,-0.009843427537661917,-0.03287717983862553,0.01558292037812292,0.05862672238195237,-0.19930705843768348,0.12767222259511274,-0.021659048761497306,-0.008205858681048209,-0.11395143370625782,-0.06254890677563653,-0.10281745182478282,0.2153385240642511,0.07219386220120508,-0.13660474290635577,0.036128352220816846,0.22324597081198605,-0.028163761504610526,-0.24700270112966183,0.18304909162344105,0.039640514641296164,-0.0496056043081437,-0.018691125752665697,-0.06914038103529371,0.0149007756526789,0.05347142819603868,-0.06097920331603855,-0.07603008694541613,0.048427602376558083,-0.14485772166775115,0.05935131304667838,-0.09209032220693766,-0.038257171464781664,0.22799360384623116,0.10539976482282801,0.005461647927702875,-0.07542762723646378,-0.16015903453958594,-0.2468461417252689,0.22744710722003983,0.0625234982854954,-0.03547010329539736,-0.10712515776785128,0.03890383798238049,-0.09108072633837061,0.025353567266190192,-0.08380726497968337,0.005048846808268179,-0.05357816489553537,-0.01737039398935859,-0.06168939308795777,-0.09129274478784483,0.0447712643648933,0.1360547603281171,-0.04336809394308414,0.043502254922041086,-0.05283782864985105,0.05305013382411015,0.08693102929793145,-0.04260640475059647,-0.06590340039961372,-0.05456774841577938,0.10054568628939552,-0.040147379862232234,0.011161662164609017,-0.14350771258055728,-0.0927522681785501,0.04570519264170851,-0.0032894732217432217,0.09035247986399736,-0.11786552408490605,-0.11708066918890607,-0.009659532770008866,-0.040755844828213456,-0.040172663816466114,0.003142238566999543,0.01879143288558472,0.08926563743018574,-0.03088546757558423,0.023827112204136257,-0.04661816699456548,-0.028735427562961748,-0.044356889088372285,0.06705843323925453,-0.04384578165026359,0.06449291572114986,0.055164999656142626,0.0754525934360678,0.0919039232780779,-0.012066490001687717,-0.034098207854043494,0.004418562833560015,0.013641678652678716,0.15810569796717747,-0.037598266201802684,-0.03601847930552297,-0.10204369625691836,-0.03403777021081682,-0.07669814963012972,0.0097029786176302,0.05120622435542632,-0.046145313869298744,0.1473499255302526,0.05268791958296838,-0.06046033819894291,0.027218449641830133,0.048521382353973526,-0.03671072480199977,-0.04436575444421108,0.16614455741152326,0.1204685658796089,0.003944720159074786,0.05336119810004831,-0.05222313916355265,-0.004060585426621352,0.042034925610100055,-0.05879724882157993,-0.017003868086295643,0.038312874991399036,0.023881216401124453,0.01601209453968489,-0.1885871507734419,0.07620475022082983,0.04712212478122172,0.0013840499699361707,0.046110868621883364,-0.022515279478157516,0.019174495953763446,-0.038521303589919474,-0.07984253645060826,-0.009390479055895188,-0.19183384053517158,-0.015303029171205053,-0.02561191370168219,-0.07372945244389825,0.141486039938728,-0.15095120516348118,-0.1220748199357789,-0.09651127627780721,0.025118927223127717,0.018010794718571043,0.04373522136781397,0.06896366526776017,-0.06084792252739935,0.1183931646862301,-0.07881929741528243,0.027620512577495704,0.006478371304622918,0.03039368071538262,0.08444726219056828,-0.13048967820919638,0.05171943603926704,0.08598263750236808,-0.028656454507946832,-0.0954462745823087,-0.018235284042060863,0.012229237861378703,-0.031946936582874896,0.015919283238788193,-0.13455106417472282,0.008803498099617665,0.08292580424221926,-0.18262654694600025,-0.04281402560299738,0.06166990370194282,0.012317674008860613,0.16988518466720678,-0.14467291068774096,-0.007031898239899253,-0.008218626348896618,-0.02119054968309662,-0.045169213936571945,-0.04344778313022367,0.03375066945615304,-0.09701893305418775,0.11560645170171377,0.01564695824930331,0.02437184184546527,0.09467977947734861,-0.05403740082855613,-0.06593550394178856,-0.0717955374782633,0.002020032939781295,-0.1844829894037421,0.22202887108267785,0.025627488678892082,0.06463754977860287,-0.1621495348777476,-0.1689618530475964,-0.0790917908623924,0.06505370138989724,0.03643750816403025,0.08926751710122183,-0.049249432168849215,0.05663812705584237,-0.06816005230232211,-0.02648210592866132,0.06737518166426638,-0.011687635488564491,-0.053824023836781525,0.06111313637721911,-0.0829696224575118,-0.020484694309238834,0.11474090114530489,-0.12617596637483283,0.05959567621440876,0.12089655549749281,-0.1540086215616673,-0.04653305981594581,0.001865795777547835,0.13442349956237343,-0.019935984590655913,-0.08926655905834396,0.042901644229867135,0.01608156024977034,0.15669842069288895,0.022472018551957518,0.033544367402898935,0.041090110674448,0.07731783772490447,-0.12075274665365837,0.1866290316233406,-0.029211311869133325,0.17054207092073054,-0.1961220318465045,0.041691043034207835,-0.07155349817660864,-0.028674225083521507,0.010705816465667109,-0.18607178024582527,0.05100921740706883,0.08541083820853847,-0.07967522336546111,0.15611750317010484,0.02572947533950304,0.04200200781954799,0.0598687701811464,-0.044020933878558925,-0.0567901735582653,-0.0710824626572143,-0.17599589514576972,-0.08987417428232145,-0.16258403626517273,0.03347367906378207,0.1364682710733698,-0.009426674640543175,-0.02126834591041224,0.04442152602711735,-0.03271740248944437,0.06760598916287867,-0.022311748684917417,-0.022703328378723506,0.013109028165726452,0.02411308063769467,0.08341340106460367,-0.07141286517820208,0.02170329249143251,0.0420369373002934,-0.01603252683790159,0.05246985167507464,0.010030508364327161,0.005775809579621389,0.0402036970962841,-0.03945154922643946,0.02116722892450626,-0.0377606030207153,0.11469201174249402,-0.09888337493738851,-0.008303793949121068,0.18021669332424645,-0.06484562363438448,0.013844188814274449,-0.023981797504918637,-0.0904639142964486,0.039024782743072306,0.10848898589999109,-0.09618366142620335,0.02004536380298883,-0.0057219769095160225,-0.09458311196707687,-0.025861517521978374,-0.07279709001216529,0.08741032495041899,0.052397230360028114,0.09835254815949078,-0.02121863197796529,0.03915657478562588,0.20092298118485885,-0.03309137153311974,0.0926249977844236,-0.06484818199865862,0.1558745254209747,0.09187007835010225,-0.055157113706293066,-0.1729017067706727,0.052361605505824,-0.11358494390740742,0.04646282390776745,-0.13418422469108274,0.011773503718629206,0.025014127215397423,0.029916131766158826,0.17043595747797785,-0.0071827992145288575,-0.053171445669496616,-0.0665515662321169,-0.04088282711968333,-0.0046002149735632734,0.025384933916990253,-0.010783337789402592,-0.11385312495376523,-0.08135098106480279,-0.11043109613736711,0.041555477505699795,0.006250411860664541,-0.07577032113152053,0.15495008979446484,0.015646583673183632,-0.01566849789822445,0.10970641591296491,-0.039676748977827046,0.08369963353591607,0.11049144279427395,0.042285703662021425,-0.000160602578952278,-0.0005170510623440042,0.17366986319780947,0.0022062730395546615,-0.07193665000260839,-0.17422345930961636,0.028002751198283896,-0.11248775015198853,-0.04619452183101258,0.05453985759645695,-0.011504092954900624,-0.10107853727328853,0.0911408860033852,0.09741706436325634,-0.15606350445615658,0.08783042045265729,-0.001427018944423974,0.05006634521739577,-0.17780670584925484,0.16154770314803998,0.08907457539586777,-0.035746884944758126,-0.0578947228718451,0.16919851449845688,0.023505554750409288,0.05687316250305885,-0.021549780693390905,-0.11532035857039749,-0.09937022199228925,0.10798927783473734,-0.07167892752553891,-0.11243975897977583,-0.01640064890002912,0.000542692412487816,0.39177379836633885,-0.1092478965246846,-0.05654957014733259,-0.07776585640979161,0.1066513016372228,-0.04260195176542341,0.1183232811363347,0.004068255036835116,-0.33048999112634997,0.033114420706838114,0.17163179866527692,-0.010770756757862663,0.22748788005575393,0.04587927302077073,0.08511769299602018,0.06561853171958915,-0.16006296957032962,-0.0021766672867710056,0.03665325647225142,-0.03003605946371752,0.13787283465513214,0.05258540323410594,-0.07983039665247535,-0.13166169648441053,-0.08517722714421472,-0.15669046460550595,-0.0847680341478647,-0.1087968339719816,0.06954084113440935,0.07724868216328527,-0.1553469429563504,0.006388066492318146,0.12534144153274115,-0.09157724142906956,-0.001318870739394889,0.06252464185380244,-0.12689851703215493,-0.011935181715385353,-0.03583124612662191,0.003728477258412747,-0.03912595939466816,-0.013328828352644668,0.06862980588745016,0.011988693653031639,0.07444435163071489,-0.03808309198212439,0.02473771869741997,-0.04267315192271843,0.07518319351109456,-0.0019765439206061684,0.09861237688742054,-0.009823563686926154,-0.0028868859692438215,-0.10403022142264806,0.051529348443642625,-0.029270435920317146,-0.12474151669671282,0.014524756520956288,0.0341142198472267,-0.02529799336287966,-0.1609426243569482,0.10965576664433728,0.011400308779659472,-0.14972220029905314,0.027562386392978706,0.028126745584401536,-0.16297056550734565,-0.1107799714479431,-0.01012494385389529,0.1001999901538101,-0.08808114800219848,-0.20458995954174422,0.003263795376665982,0.16514024446264733,0.03831074341626327,0.24865270718165253,0.18910568737540573,0.05358648255474054,0.0440675832392968,-0.14399727094621315,-0.07818074361918322,0.09936722322391421,0.14240550818281328,0.21075849152896797,0.018971494901575247,0.020024043274156654,0.05692570506794469,0.13665979944049542,0.05538587334358703,-0.023261328414083658,0.0023448333290880157,0.06133394557709067,-0.0175597590180299,0.08143434817270279,-0.028870062745405618,0.00674127675584833,-0.05113115140015922,-0.017347270912807456,0.04823114059532285,0.038581259432552056,-0.07285028641762797,0.03729431712832247,0.0429178770816027,-0.055044383664062,0.053222535714312624,-0.006413070250310197,-0.010183764205147551,0.010668399243502076,-0.041348854586871514,-0.03219607808255907,0.007989228761351028,0.015227950505629079,-0.013747616996705367,0.030137478596297954,-0.08937000418761328,-0.03610860887859264,-0.017968068304195166,-0.01470092907276976,0.011013896885838462,0.03507432790030147,-0.021358409401295655,-0.007841521495432545,0.006509873910018875,-0.11574167498461609,0.0916914327245163,-0.050510071775502666,-0.021995746093302924,-0.05959437270984585,0.14871778793008295,0.03283847501976263,-0.09214362962725774,0.14532352930630915,0.003332598099505146,0.010413392572305826,0.07486516532352466,0.026306116277982655,0.0471438057516627,-0.09143677764653531,0.03862821888429599,0.034162219947900356,0.061686194949442795,-0.0783097547847201,-0.06028255891355003,-0.007232570843945815,0.0427459570923908,-0.02440070351672638,-0.16644083190151565,0.12489233308688516,0.0157579507291634,-0.03566910382172796,-0.05868773298313343,-0.12412312744640715,-0.0513978512491204,-0.08831124627483705,-0.00577675384827396,0.03794011720272434,0.017635930890697416,-0.11175576521141976,-0.003224190606012224,0.04427776573816905,0.08303558440300401,-0.033324699401400336,0.03355276031038672,-0.048161528816938616,-0.09340534819372659,0.06074645942351261,-0.11097321538141132,-0.04550640658361975,-0.08326372917821337,-0.13860615293484252,-0.09874570390844009,-0.0035780739877486214,0.04113361913637508,0.1037470328394252,0.02022794540637294,-0.042443506930067904,-0.027294561587383862,0.09320723435306741,-0.056755195330344343,-0.04889413198853005,-0.05585990711654293,0.020826985729759433,0.16300599431097185,-0.09016336789757784,-0.008897846494112665,0.16008212707250216,-0.0014544025641369165,-0.02504676892333075,-0.11138315796488803,-0.05476915040433518,0.05807890327939648,-0.04784366074115189,-0.034769414210619264,0.2778021284745925,-0.04696087508329118,0.11668465066974842,-0.11273290798091914,-0.044422268307683886,0.18802730921784233,-0.05759707568400557,0.2791210500270734,-0.06165651566664038,0.09467710504526082,-0.01739120417498841,-0.05357012123431386,0.056158083869221845,0.037157967171249605,-0.06607352636263028,-0.062430456125522345,-0.05211128982480458,0.10959524108942202,-0.015581423460399292,0.026371088134072584,0.09277229935819206,0.002834937975609109,0.15402025922993204,-0.016726809531087055,0.024568437976704213,0.12406083024682349,-0.03470986848569999,0.1009568148388694,0.02268898443931174,-0.046910202897569094,0.02808504471765433,0.05159066643763961,-0.11211021421985441,-0.0702386077611062,0.10258580796671402,0.08463682647931518,-0.04565016757304976,-0.11971262359384172,-0.16766794400283283,0.09957692715868877,0.07652151477860658,-0.02053725894179485,-0.019736276907279925,-0.01369530057887053,0.072662957116773,0.06281483162103457,-0.026224550020964122,-0.21401751239717492,0.04407769312901855,-0.011264613808842854,-0.013534694734620028,-0.08750294623570591,-0.040042825831680964,-0.2161444307234512,-0.1533358906829034,0.07573855292299814,0.01604071485645395,0.1399023157518715,0.04301250111736907,0.015631594114338197,-0.010571853691280816,0.13989458253274736,-0.07423788273970237,-0.023689031038020343,-0.10346699244023996,0.18696988086553906,0.03590614059022957,0.005876725919713527,-0.04576712534318737,-0.06939970730414965,-0.004745256304401617,0.023237571264258558,0.1442449269071665,-0.09645387584593446,0.03670845510905891,0.054068709969965316,-0.10423749202609273,-0.024731404112577876,-0.17532536487229375,0.04434976093582074,0.04688529235584949,-0.11254358374822705,0.1951653640306831,0.019947323620902256,-0.006301477933897107,-0.02511448137042597,-0.16707820018816283,-0.27244197703080303,0.28748976526655184,0.15871958508408954,-0.04146818647895451,-0.0996044524650024,0.10523688835162452,0.0433600059081793,-0.10505996170968546,-0.08309645867222937,0.06182325878344461,0.02830362287321826,-0.07415974022261396,-0.029174677212211154,0.06244963731383942,0.04991009729891901,0.0025339766642758564,0.09511182167719616,-0.1361303918153057,0.05995866416330643,-0.07026356264522735,0.13731002457923414,0.09907613145454229,0.04791415889327756,0.13438651354777725,0.04453354167815674,-0.0006417489578378433,-0.11998878853799295,-0.0029780764482944663,0.15099258961597734,-0.1329949115163977,-0.0028590278482523174,0.02804643716878419,-0.03579437729830773,-0.030340208271453024,0.1055394436062416,0.05542024056119913,-0.043127263570289065,0.032718946266623326,-0.07889305371081051,-0.06364501201948569,0.09540332284650578,0.10665130768721474,0.022622493935032066,0.049091820160652604,0.03707946480798319,-0.06443142881949925,-0.04856922932041491,0.006486534589578703,-0.1174929490957921,0.014254757191691222,0.07093275130868336,0.03119932875092793,-0.0676315500958782,0.1500189583616591,0.10027100712573467,-0.03311712446740074,0.014471012731554277,-0.062144651837908675,0.028633379646661256,-0.14955661385311403,-0.09003340229275984,-0.04981097173277701,0.04324683167734738,-0.02768075604552408,-0.12517371990643755,-0.03521635739630273,0.025793177793212708,-0.05288368262183918,-0.07275928182923877,0.06497899093523499,-0.006715090540074348,-0.09447040108626564,0.001718845517057982,-0.1624944471096381,-0.12133427241407742,0.03502602678774103,-0.1659772280562717,-0.02148289167840646,0.019782473645992497,0.10368620062882182,0.1563363432688051,0.05046075573333421,-0.03311787715940744,0.01690902706700885,-0.1218200948407247,0.0014284237608453844,0.10152342792570075,-0.05226276491711705,0.012784377022123492,0.018855250557489763,0.0819662652610672,-0.023505382880011676,0.03774285472694438,-0.016301242200270825,0.006285421490177818,0.0426983457983167,0.10810478435830052,0.07063418139832477,0.027182570792342445,0.16704216178772952,0.007626629164667981,-0.06352303746188961,-0.08827796241436786,0.06241441140182902,0.020492360479063457,-0.01990317451507619,-0.007257350489005178,0.0180742568808013,-0.09458843746149062,-0.038226386846899274,-0.05061360856688738,-0.07739957193886411,-0.10731120733365021,-0.06632353780723967,0.08607606110638638,-0.03947119954758626,-0.09291048486852611,0.053940091852464074,-0.0034654519323765085,-0.09728518529385148,0.1628239532994313,0.02368704071736501,0.0026979410764678986,0.06810468448557147,-0.011462614163866873,0.03545802819290438,0.1589028949995354,-0.10310937628842821,-0.02113841957103203,0.09107144500541416,0.029871985536731944,0.024776615020322214,-0.06592560757325377,0.02238738465740449,-0.11213729734660441,0.08990599205368739,-0.03982960017199812,0.08769305658958701,-0.0031505985859670797,0.1225129261734681,0.05877255014990314,0.02646356241999211,-0.009102303374044319,0.021327836069678387,0.14249311824376718,-0.08829009865092449,-0.11760314256917291,-0.07631857693075413,0.09268349288399022,-0.09350979909276975,-0.17609691266126337,-0.0012213434164022297,0.02998253398962877,-0.05076824818274487,0.02980005828829662,0.06740552957042907,0.09583557559480153,0.08739984785808563,-0.0428777486150753,0.0975505469264725,-0.029472222908728595,0.01491226446207522,-0.058164223016724595,-0.08587057219805316,-0.04157421440980254,-0.0380333291629809,0.066934364884693,-0.017165199602214826,0.13413724937314178,-0.13519700294942177,0.1454672337670668,-0.048988391037030836,-0.01737970292730312,0.04322647953039204,0.0546374487960861,-0.07321163079492277,0.04747069295870573,0.012552655953908294,0.03490979860067766,-0.11150608917860225,-0.06836122854078082,0.1396895638457023,-0.07039237056752026,0.2577166325350708,0.04408657790152355,0.020607977077911264,-0.18511267580961385,-0.08381027366721003,-0.03932078257766202,0.12089937115250397,0.07829282386767515,-0.11607633986827183,0.08281152096544366,0.004291970078078127,0.001576369026388656,0.029140114123489186,0.07738719556871326,0.037994361674631216,0.034333666614971926,0.015865266087410054,-0.10558721815954347,0.049694325409282536,-0.12816466219995004,0.1794593995649299,-0.017744328345669066,-0.029109391580950224,-0.00799662792968792,-0.1389252205520123,-0.019537712036135576,-0.016126569884032174,0.03226651555767776,-0.035046208373386484,-0.08969875850917404,0.1295313481666207,-0.11215822842764712,0.03888041297997439,-0.1754622834091956,0.1834465010184654,0.030854159163785897,0.04585145866691883,0.09470886442379811,-0.007035861679867227,0.017535514539089192,-0.01273922154162448,0.005731034924392331,0.08550780122193283,0.090513741086843,0.03147545486143409,-0.0952592129182944,0.06412008222615678,-0.019593699353896786,0.01808313998510235,0.14379396654660062,-0.018268854151974264,0.05781201443359079,-0.16223238642609042,0.12712716390467582,0.015573556279971557,0.23220310090449003,-0.11108185989602842,0.13298293070517803,-0.12834217581178403,-0.0652073932104977,-0.12578891581570983,0.11723522291809946,-0.12041627119002384,-0.0736765447388805,0.15101016397874734,0.06939737642940037,0.04432336946306833,-0.05581877796350512,0.044528352496784794,0.05346988130630828,0.03193244035360525,0.038482403065687724,-0.043969603961457784,0.04526441885292881,0.039817036476138094,-0.05893893698085629,0.10975328879916983,-0.0273190970122404,-0.0052551621880160574,-0.06235341367927982,-0.047177831844084694,0.030654163143745087,0.006011698722847197,0.017074026651405443,-0.1710993504668329,-0.056173477552786094,0.05786641346312257,-0.0751847687032245,-0.06919717556692126,-0.11291555653676065,0.03627692452120004,-0.03355389574160242,0.08845054643530569,-0.057844314606802776,0.07681624604593768,0.07782082487737506,-0.1394850881388322,-0.11970160664161915,0.046909892984849474,-0.08343411077233848,0.012597309742667701,0.14764711449638804,0.02748745711749606,-0.07192274401090303,0.03943272480951558,0.02423597605604972,-0.0014457028723952622,-0.02486757483253975,-0.23248634068098947,-0.01874636138180611,0.06219036847882035,0.03610594908600014,0.09081010176489437,0.09513898690755394,-0.0753242623871575,0.0027460025141307696,-0.12812364745813284,-0.06622296812534814,0.06810627261167564,0.03986808083923761,0.04813514100740298,0.08496167430758642,-0.00869996035751486,-0.10473825684772166,-0.14127298604136154,-0.012278926767533158,0.0852868294931197,-0.047500141510098036,0.04046542599653778,-0.04200681039235507,0.10133576098537975,-0.0061646854634669545,0.136537948303409,-0.03736979621246564,-0.0972727560620746,0.21686012463249335,0.0855929453012644,0.01319659517138579,0.007138474332487409,0.05408410771605084,-0.08032671633852928,-0.04362340902793466,-0.09583538050289712,-0.0360376366378132,-0.044716826974314436,-0.06308167731454627,0.03386856104823297,0.2309902697480628,0.07139727198404042,0.029216597031279663,0.11194353783747796,-0.06533304103976133,0.13347734510171633,-0.04734098298260126,0.0696597652069735,-0.028364495703008325,-0.037116439808470535,0.09274660649726359,0.13164496536424555,-0.02741920211957308,0.02471664632349924,-0.058760506644162956,0.014882889881936192,-0.04915552744063494,-0.06563882512947103,-0.08479488153023348,-0.004111985760803254,0.005150242569464082,0.0744943891862282,0.05885374875224963,-0.005693443063685376,-0.03813091566010981,-0.14090316198757682,0.07796381599839,-0.10213600907880642,-0.13569336266949528,-0.1081445287265327,0.14477915778271108,-0.041408570765911035,0.07590360026093071,-0.09064674876745599,0.04008746743333656,0.07052006724993184,-0.11252528041510557,-0.1396538634395984,0.049851458785818474,0.044977323635699985,-0.06015628936005082,0.03485743598031623,0.022090616674390343,-0.006690252363567267,-0.010403849883936044,0.03702618924500361,-0.0407885324156338,-0.0654474900009075,0.04984041469158694,-0.12424695975082797,-0.15259569791137267,-0.031793504284323475,-0.04994709548466533,0.03955260701381276,0.19001795145521866,0.0021868007817825432,-0.14021405569774756,0.10950509052164137,0.050981543606682715,0.03788892368947784,0.038145906562990994,-0.13172708614845471,0.022580455011992694,0.10713182284666414,-0.02182510141018152,0.06721468258449347,0.021360956734003848,-0.015889049285919388,0.07906275176267814,-0.1313328293594881,-0.12697847430294668,0.07989699667632817,0.06383534429047971,-0.1323537878202686,-0.02946989252775743,-0.0117676875924193,0.08454021585824731,0.005162249383260393,0.04109799202287582,-0.041452823676299703,0.004160039874532082,0.04577531866056407,0.05309568622759525,0.052999617170063136,-0.014639298782352605,-0.025174357550008793,0.017748313499531976,0.02761187466115134,0.058672139796186455,0.045166352292856746,0.04190635295765502,-0.04206291856730017,0.02807715861661414,-0.008971162303583328,-0.049295397880079396,-0.08012824526724051,0.07665742758431553,0.003092830529324184,-0.09360769348459275,-0.07492831165462875,0.07624023658037447,-0.0030724476006938404,0.05559821977003219,0.06178460698444166,0.011648501532119356,0.04162845701183156,-0.08206411394945473,-0.06972105388557888,0.11840899719978179,0.04540404135989794,-0.09219860251558139,-0.07843156610114095,-0.005243945550519655,-0.014990813808909959,-0.048996738195559136,0.07928099835776825,-0.014955112517174364,0.039555758578164485,-0.012661378191709313,0.12918827229456348,-0.002925780708959723,-0.08957808083579656,0.13825933410835223,-0.1306301492840594,-0.1408270330257111,-0.0360501231652826,0.010076167760136288,-0.07744157078502012,0.11081096844339397,0.061558723527598266,0.1427437807252597,-0.01278718170019131,0.05484583716685723,0.07221729890250608,-0.03894342252782899,0.15917201867246655,-0.11863148773106147,0.006167098933670719,-0.035172661581647904,0.005729030459054264,-0.19197403844891722,0.06589133694389902,-0.020784532631212806,0.023292077668516924,-0.03801249811709342,0.009283524047894141,-0.10647870641028095,0.017487190458907825,0.07590372186498016,-0.011795391787133493,-0.00612297751377218,0.10550485638989723,-0.0724286919271184,0.02676237576920114,-0.11334237787820178,0.022429159328749802,-0.0847640694793887,0.014232629698356052,0.09222935211247028,0.09264257054015045,-0.028787489538952233,-0.07050304736235621,-0.03891164281115387,-0.20847109625037977,-0.03368802094716382,-0.012035368232638826,0.07295707949125108,0.10096975148354112,0.07484926021576652,-0.021214365669784362,-0.07539005654312117,0.02945099713403966,-0.07733477293940033,0.0174076987631877,-0.15498582654133652,0.03614484384361044,-0.10243966920397493,0.02678739175801512,0.10925369917751453,-0.009986917174982813,-0.012842369381707155,0.07916373616957047,0.08239230310484068,0.04372620373352067,-0.05691162051996395,0.018636628623766763,0.0083228779480095,0.07687686953941587,0.0636245117503877,-0.03995186017132662,-0.007268472249327821,0.0947723733007419,-0.12253834806460394,-0.03493901978469266,0.016222036920015913,0.05283766531384093,0.022965382015467745,0.07060388141902045,0.07636713735387111,-0.016520535087765614,-0.015540177198276668,0.12732377100393621,0.0456029103862009,0.07750257742809843,-0.031212210167872786,0.11188909777712883,-0.008598946731894661,0.06983368678424806,0.006471485044061384,-0.14035432994322813,-0.09989163612763398,0.07891967465203908,-0.0412715167215234,-0.06957832324955976,-0.08038190888502966,-0.17881802927374277,-0.022976451967647277,-0.06188497538317161,0.026829248179410837,0.017531310226506485,-0.09489559001869885,0.03892966624561191,0.08370577005935087,0.03245745377478371,0.05432786053920908,-0.013808888393440978,-0.02771137368684633,-0.03065403453827407,0.0290535543701116,-0.022364666704457876,-0.12924914330254494,-0.028986419462351393,-0.048324181789995674,-0.06850693755679432,0.09089020992985343,0.0604666862706606,-0.08044391357837886,0.1246153428858243,0.022389544934256343,0.028345985444964118,0.05989882910951503,0.01423567425408938,-0.02345934714557448,0.09127931566563131,-0.11284842397716342,0.08174851793330272,-0.08919125851408219,0.011315691709070805,-0.10218358413742847,0.08605820736459469,-0.0326764767090233,0.0626710491930638,-0.058620062544871655,0.07274040833577182,0.04163038577156282,-0.12412303996029016,-0.08161732941384206,-0.037324612296754496,0.09120637788564158,0.029780315056349278,0.16427628483827555,-0.0791376855411679,-0.03902574831123866,0.10635771761563394,0.014860309041482002,0.010213379377089977,0.011780404052783348,-0.09063916256813401,-0.014608684118203931,0.08543293223930903,-0.2155633717373207,0.05751822932039436,0.04180766742965793,-0.035013818803638866,-0.11613789568591572,-0.07155169835595458,-0.008706610766945328,0.032970027083344615,-0.06853628886792504,-0.059859594516723236,0.1600244185729062,0.0417301233521443,0.0038828782262067684,0.03136548497050317,-0.036008872648969015,-0.04728091556205768,-0.15308757561405856,-0.09312376665236834,0.1326763516703862,-0.07823628000294496,0.1398093747911012,-0.05120987605679232,-0.04247408381131873,0.14791625790042337,0.041380136286256385,0.032589753827567285,0.0652112481869027,0.0022884828073577463,-0.005060541388692019,-0.034538936597727714,-0.0027611407991713836,-0.07928201571009595,0.08826689949631253,0.15850500867533665,-0.075807588196672,-0.1269201856556861,-0.11331578410725182,-0.07294365499655756,0.02176477650365427,0.02378629384464616,0.06246940221076622,0.05582110762137915,0.03018790675897924,0.06111154444724478,0.061285696897241865,-0.024044667857037176,-0.05641492076207894,-0.04646049828763068,0.005553818217601175,0.0012278435156488471,0.13307923936880015,-0.0798173705129147,0.043709098311723676,0.002589940966204583,0.047267087294808496,0.05310451019694223,0.0039038748119751055,0.048289772923990115,0.0007550519716433262,0.036583867360949485,0.044465130531189404,0.0849358045193209,0.09145130238968058,0.08268563009112084,0.05004959441379939,-0.010437495702699728,-0.061213165193771776,-0.03632213481424559,0.04233036920806143,0.10307535988951917,-0.06019961734660369,-0.0443302958651144,0.015335818142293886,-0.04452585519997857,-0.059578308218750174,-0.04245141050781849,-0.13707507100980307,0.034430529292651925,-0.012129776593742056,-0.004698914063986876,-0.2533564563158035,-0.01966084245055235,0.015263555965430713,0.0662918342928274,-0.0016981031499867622,0.02744291828189908,-0.26029607218148054,-0.11407693084050649,-0.10636071093380144,-3.958030093001898e-05,-0.01095639991936855,-0.0554021222347155,-0.0773878604861882,-0.019706989971031794,0.019274717428306942,-0.08466892855521187,0.05379725453658396,0.07755746226630045,0.04099163344923935,-0.16242287606629163,0.05439532985838228,-0.007636940379399542,-0.0173133718807486,-0.07140618087141165,-0.06411704581115653,0.03680266197295536,-0.12840910830068955,-0.06307610126308912,-0.0404554402088927,-0.0007648913251695407,0.056242337086335505,0.02574263132328316,-0.02941534730883499,0.051207508556223365,0.015342000882142886,-0.035862593805756626,-0.12526513030249162,-0.08922159627446251,0.19432351274480136,-0.049658969615862664,0.1689504240700049,0.03243407960249992,0.015415744681900004,0.020260411308266908,-0.044794955192864916,-0.03252965515770954,-0.06787359084681668,0.14010509697530973,0.027226520611186016,0.0653143462932869,-0.017799708032685987,0.10108540387912178,0.07325995038744285,0.0015315701261338663,0.03645664234744138,-0.0911060901512925,-0.008926149538698575,-0.1392297011968145,0.25070857943824193,0.08150480021511472,-0.05504684713236663,0.004972819317041299,-0.021374401924728614,-0.05502022224921461,-0.12207020079096167,-0.06386600456372378,-0.13877493261004628,-0.1563849176043541,-0.03588934575406134,0.042392518325165385,0.07275190847425723,-0.1489618667225434,0.12301127832653354,0.08060921528657633,0.10568675918367111,-0.019152808666399915,-0.0781151477971962,0.1228001101805162,-0.032185363126697036,0.03291068157373592,-0.04852692965626792,-0.010011503446345276,-0.04807748066727343,-0.036015140216869426,-0.03262400978994507,0.09370969486492887,-0.15146790149176445,-0.05955927113959836,0.008252271046624505,0.01406067440435649,0.1734971513748572,0.045229939139728635,-0.03898060803711123,-0.11601714644681595,-0.08887933890699976,0.01778931703291005,-0.10374732616237858,0.1326004391977313,0.015430254854733363,-0.07199885075139566,-0.1507004945398599,-0.05758096161971399,0.022330651252703993,-0.121500323009646,0.09932301535616009,0.05817711594736011,-0.17925086544250818,-0.12859724136744025,0.05812504246780087,0.0905907561550386,0.22283311785297338,-0.06179652708327053,-0.02104410541530228,0.024980701626049887,-0.10838759287534452,0.060467105377617965,0.07617304079796168,-0.04219933149479376,0.054463100314237345,-0.05365998247104747,-0.07018848204892428,-0.08000206870277346,0.23377164008907775,0.04121587058357015,0.0014100129973549699,-0.07396335911496316,0.12242575985167331,-0.003935908436014953,-0.12007861034380858,-0.0031802731011351714,-0.0015227997116903718,0.044446059795436865,-0.09022924103752485,0.1363192484778262,-0.16118498651776197,-0.034602997968619854,-0.03733062501134,-0.06366455546497812,-0.04705219822414681,0.034949590239038236,0.1933069392641279,-0.09050075690430176,0.13418510275180592,0.040848362072873595,0.10738648446602392,-0.008786423517005657,0.06330798116778472,-0.07504390394003407,0.09816007866789063,-0.012891349979352859,0.007697840747360526,0.08019041109773616,0.16156668986054137,-0.11913906978791346,0.032722946925152145,0.08316301018788953,-0.10934497770264373,-0.044202636585489063,-0.06683010796361737,-0.05336036913691487,0.002066628700340148,0.06293992512592513,0.04782693553967692,-0.05278674314667481,0.02791429235921654,-0.07135618453638874,-0.15807531469427671,-0.10855046637350585,-0.1269905848382373,-0.003806458953118235,-0.033098579468044606,0.07738785530323934,0.061802085404535086,0.12345979088610443,0.1353807470952069,-0.09381691092899924,-0.01881358675651478,0.04178570978386147,-0.10541940928574593,0.056114039775259784,-0.16732742923952973,0.005592787287963026,0.13868834508595648,0.014645914784427823,-0.05452654868331438,0.015481589094425518,-0.03742724973510277,-0.12959849973488,0.1630691287880699,-0.06625633525987236,0.04825036305242315,0.07697234841000487,-0.005393268426203057,-0.03936702737223292,0.07754217361510882,-0.04957136627078088,-0.20513554939548498,-0.0020313755545862534,0.08650748284112154,0.001057409681822335,0.04823692984612153,0.11877729531197787,-0.09385700335071963,0.0036698303962677745,0.11103786585241375,0.12799573214309864,-0.12590054157697372,0.10735688686790856,0.14772343217401443,0.010102934328608086,0.10164109939458531,0.06460666802321063,-0.01538459596500684,0.0033995865929314956,-0.018713186261256252,0.05317845859299968,0.0064735973070916,0.011129624389285551,-0.22448596704223797,0.09609340882167974,-0.06855274089828917,0.08332308077805171,-0.0356576775295892,0.08624184517219895,0.0049124884439216135,0.015545932445077605,-0.11254834920706995,0.07070856740333079,0.014500788305798236,0.09634191631346285,0.059450200711689036,-0.2183583233557321,0.17048517481947206,0.32180442688573857,-0.21528461322707454,-0.13016063838874614,0.022885763251482994,-0.007969817385555716,0.14948209292118878,0.13676142622686135,0.018135228266072296,0.038086234849952695,0.037422770356302044,0.04865002859632673,-0.10299995566669283,-0.12918466849494614,0.23251882565146495,-0.08907310764287764,-0.0553337708383988,-0.08353268059001163,-0.0901080288576975,-0.08510195390085736,0.17018623053490772,-0.004983979377454185,-0.12418961587357205,0.20486973835067246,-0.025635388531240554,-0.010491669431080805,0.43964204429776627,0.11560999125610208,0.04793133451059246,0.1329652557155454,0.16331857368199565,-0.10326769630434585,0.08906967733185413,0.16016939447837678,-0.036358687297466885,-0.04088821421602118,-0.2776886620918778,-0.029691130890877278,0.4142684443967053,0.10756026625288242,0.058507529989688105,-0.14365049350348136,0.04995711850336508,-0.042462300452285155,-0.0009013164806718848,0.021539100398120865,-0.017824913103289514,-0.051830473388412915,-0.06763099839302268,0.036923518255215414,0.03225230894700704,-0.026797045775055123,-0.0735001937273483,0.11332626396971011,-0.3181484096330223,-0.12517803403579425,0.03208020955104699,0.017901260708722208,0.032753222385591835,-0.1740528148705151,0.38976733215216675,-0.06090186444746648,0.190605143474064,0.031099206739559786,-0.17500767011818147,0.012755209183746195,0.061451235653324554,0.1844796820182181,0.18805299287369,0.035656089565068105,0.21344994702808845,0.046179828938536664,-0.17932374295910938,-0.033382475993824684,0.09338252749576512,0.14710244391109073,-0.10307151829831401,0.31356757196701396,-0.05028338583481033,0.26710567800816687,0.04747313976863845,0.019879064224594917,0.2478525415675528,-0.08869795644667672,-0.10303969926082035,-0.03866889145084125,0.1200026007484815,0.21072593114647428,0.06767805045496761,-0.016069556913350713,-0.14632448111786392,-0.09377362690487451,0.006372876654646027,-0.10260573285730797,-0.1125461764031609,0.19048825126315086,-0.08939528416093187,-0.021276862321676283,0.15146499578794587,0.102869347610235,-0.004746747418634681,0.1746026251749121,-0.16987802434255747,0.18135061589636423,0.10775845422569709,0.07316738559231709,-0.025570410063304527,-0.08010139011094762,0.21191187979993134,0.027993041608903126,0.01586836437662698,0.012719350485504632,0.05241396149992345,0.005197401714273776,0.2709160301966353,0.04303661481952622,-0.02070098137362713,-0.16744977683511686,0.25113553646553893,-0.08491344423561545,0.25239923119221486,0.10464691303632259,-0.11282773415100865,0.14475990783438897,0.01714233648765009,-0.07153977266738648,0.10687958184050912,-0.0066391392412033816,0.04382652149383348,0.020489701168919572,-0.09637946500366197,-0.05033562261482106,0.027804901784313274,0.08956525349910453,0.04054578742356448,-0.04203573842114809,0.052091333477574206,0.029907998385679223,0.021971716044666002,-0.08269036866418003,0.00854054228440295,0.09388173927116465,0.0741088830312064,-0.09491345831237348,0.09970581983045182,0.11317020760580988,0.1208993827588562,0.023450198172430763,-0.08749514248676139,-0.0481233970762958,-0.016643569190446128,0.03019112866614956,0.1093992952452585,-0.014051451853572716,-0.1732125638097712,-0.23836227322081205,-0.07097483966723256,-0.13900049997249658,0.01134149849622167,0.1473172649979357,-0.14623047939819322,-0.09078129666787846,0.15473394675139956,0.12350771221963557,-0.11769956986818456,0.20151294383148693,0.2200560712819576,0.03619432940728997,0.008167640261041366,0.3330615343784565,0.0031130135094954953,0.2773170765598453,0.18391438728747794,-0.10334373350576036,-0.15775633070918432,-0.013566520319135408,0.0005264149743984946,-0.021169690154543768,-0.008033988674981632,-0.1479041354964518,0.008183717403101589,0.10675727566777685,-0.09110958889695996,0.09338315416614096,0.009866066973921018,0.014433357502949435,-0.271543667753667,0.055305685723203935,-0.28870567783814777,0.0831841426386452,0.0849683264129964,-0.08301225866352814,-0.04442200131934597,0.04396690437099127,0.12701134845846257,0.009485829175719248,-0.4271306510414385,0.012869594918850693,-0.13919484850414934,0.28460387295703576,-0.2994955821889158,-0.1273409838049061,-0.08596211825282694,-0.20614016794343468,0.1358194685710883,0.0888812508346307,0.024579538603167972,0.04118833067895938,-0.09458435341330627,-0.06366197525589101,-0.18977556487768368,-0.03122649432618066,0.07150260054249032,0.07910118794886707,0.41989084089677786,-0.021858541721484166,0.2862250317976334,0.21909702084022759,0.23331271435200637,-0.13485145970160145,-0.02537735588850335,0.08900509608484199,0.15242999874992835,-0.09432168984176638,-0.2368291545087279,0.2952173167270005,0.2516846208877188,-0.008166453135955733,0.044196919820230114,-0.08318214134309437,0.047380607953836515,0.11643557630811992,0.1943807141440742,-0.18816643663908916,0.037343514131894746,0.11589911324571323,0.1503063076065792,-0.10011115728823519,-0.6800898508747658,-0.1527650829922502,-0.0384097417557631,-0.0036644919113659534,0.0381545702613403,-0.07738180239919172,0.015835336244101498,-0.08116715930962383,-0.02544324222445602,-0.007723462313042975,0.2900156545676478,-0.048825888643992364,-0.036528835010912065,0.0547733126703262,-0.011655268719070624,-0.042008227341429775,-0.16261707881460205,0.10574470722178489,-0.14809005670460443,-0.2521320515054055,-0.08599203560292255,0.18261968676273377,0.07835235275307437,-0.014147427612991502,0.08796561836890864,0.0011754346796029487,-0.12053245519609718,0.6218834442404063,0.038760559607085104,-0.023063956736254443,-0.09800819673122911,0.04005643684820758,0.1327556926504038,0.37427890279716364,0.23844150143598053,0.3376116172476821,-0.5880817912171892,0.05925510578491029,-0.03191718816056104,-0.4294510278732516,0.059094106791271576,-0.627808057694566,-0.07471566728361229,0.15984647538889385,-0.3918455483989352,0.09655986463198481,0.062065510966934516,0.0171170212901897,-0.039953605114436797,-0.4476716392591047,-0.41623234678321236,0.04088942595678378,0.3247132288710417,0.06709804602332982,-0.1069485035889405,0.03378659743365413,-0.02340540007396328,-0.24167510689513774,0.021004535486954773,0.01160876324938426,0.07032266550543327,0.04390231679583945,-0.0867840885762825,-0.03333956784185185,-0.11619896761866141,-0.06551852362506115,-0.057610246235341174,-0.1008393230992355,-0.07096375821487363,0.0022822625504427103,0.1144177977433328,0.06132507653917588,-0.07163949989154168,0.013287152682914406,0.07756116424249808,-0.08006664744510475,0.056059603442426574,0.10631214881603565,-0.08434371908770348,-0.14592063028726932,-0.032301184132008866,0.014686384387895518,0.06540184204205936,-0.06871806953552133,0.16680058027398031,-0.019053393185354334,-0.08089088077896528,0.0321434674792586,0.14503720228001502,-0.025870709293902328,-0.14859858512133295,-0.00039850891185804453,0.009501083320753322,-0.05947498989426221,0.04793899321965192,-0.15618370000661938,-0.11342519451585607,-0.009087364577054158,-0.0460393278974838,0.18651436369550226,-0.04206744368861681,0.0724161100050325,0.058491109541999146,0.08686001620290174,-0.1774049014804761,-0.03978669409355377,-0.1400934190105124,0.030950560293914825,-0.16970763812574807,0.13076320554002124,-0.07016403884107762,-0.07825118397253183,-0.09419862905415813,-0.09657805316457357,-0.1701390371405833,-0.09017071395658768,-0.14097076270287714,-0.14253426885687792,0.007823996146402046,-0.012554165317632522,-0.0874357872484119,0.00886081031720813,0.037547627338853154,-0.041898138484811394,-0.09399581821428206,0.0004427146746255421,0.02222297548503795,-0.02790907593949498,0.1162519053048095,-0.15283621856218016,-0.1123930001603686,-0.056503663143740133,0.1279707136540539,0.05922803695271998,0.020402403006486422,0.08436033447280514,-0.0734848988344506,-0.05781643155697443,0.07172921504490119,-0.06779126983024267,0.08717202268863393,-0.061678393206210276,-0.024293541383292757,-0.04806820621662748,0.01844409109688558,-0.023527330493678444,-0.032799090189007875,0.023396450189371792,0.045339200781465874,-0.09792628134230888,-0.134390156645303,0.0738235519756189,-0.0022032770539951742,0.15762637501552498,0.04464535364007625,0.004027022319569176,-0.018339824667743844,-0.027660412326398966,-0.057309444809553384,-0.056062047055263985,0.06858971390171759,0.27470546306102467,0.09156639518763365,-0.04178788118283403,-0.3110388781893506,-0.026008888836635633,0.11003108454464058,0.10321767236696322,-0.10216654412829095,-0.06535485760064214,0.27729221889851396,-0.005781195668094408,-0.17471571075777237,0.17722223399402004,0.01615168192674256,0.17867892935263452,0.2990954337092725,-0.07453944391098512,-0.38422894617340614,0.06011637058958655,0.15576917294001766,0.006197289804579834,-0.24110881422668692,0.009158287435913398,0.004664174583814642,-0.22734593747454404,-0.1795118288100738,-0.0975716486365472,-0.28459364915288254,-0.008090486789077677,0.04783474100633858,0.033983152613082414,0.10777690374244314,-0.262695972905539,-0.06266175064141084,-0.1457502374865181,-0.524916179472013,0.012680743967788306,-0.04721395724529059,-0.014913631604707916,0.11064637563058913,-0.052170136245218275,0.07034038702976264,-0.007775144200631802,-0.08888284348808617,0.1469101104186606,0.003952159562942232,-0.019749469198175735,-0.10954323318462202,-0.11451063382369556,0.266356396476385,0.12589165276269926,-0.030657553420824733,-0.026589035722248976,0.043437636008855515,-0.028875630465612815,0.22317277458372412,0.025404597115681455,-0.24919932972739248,0.24122111812485086,0.09335143023015897,-0.28598268172786173,-0.060447252646607864,0.11038514408099952,0.18352684052791846,0.03156342481161889,-0.032606514043877814,-0.33996291696238995,0.0338413813938024,0.1375743535918099,-0.3017482731981938,0.040883899101360005,-0.06968192058069081,-0.034431776421510074,0.16093081860886813,-0.028352487217458002,-0.42221848792516437,-0.057705684432458965,0.007938616085470203,-0.24757368254817022,-0.04838154649609761,-0.5598447965603811,0.087628428642308,0.005655371522407542,0.04578154013885929,0.16403012713946816,0.22263189599370747,-0.041194639948469634,-0.03357488214717211,-0.8129423420062512,-0.36695673675059287,0.3903437464474044,0.7548717796641213,0.25426262729617416,-0.1506945127267527,-0.10448820297589334,-0.0053008341266056105,-0.04287037168373573,0.07741871127301587,-0.015625600689587436,0.20912191377533665,-0.05783307853364094,0.051347968190193403,0.09644645791030691,-0.07994178839761407,0.017318775494845423,-0.13136241844797225,0.05439916037623319,-0.01380949056233439,-0.008654185163422761,0.14083869799389273,0.097838953390226,-0.0380585539192445,0.08204982849607687,-0.21541877493383793,0.009305402519952634,0.02476959314347628,0.13570427176098268,-0.11262906668231593,-0.08130048796868289,0.09639888457798781,0.027236561578891146,0.10506197004463425,0.005175529606442738,-0.14941765153900732,0.022120642279546788,-0.02067366143695072,-0.05801744889680045,-0.19116543228477856,0.009751579168387679,0.05373556212762019,0.047097486524041346,-0.08529132745978271,-0.05880082931873563,0.15114944548595421,-0.24922285112693515,-0.10865679976273436,0.08944455499606548,0.04442661415047677,-0.07920409671517183,0.2549235197784307,0.02924585459491727,0.12550466099597457,0.05856541054354814,-0.00038546782262060967,-0.09274603187636878,-0.05043566377828605,0.04584714031435466,-0.03991216842134327,-0.051288532430569134,-0.06252375627309499,-0.042659938596748895,-0.010327546471775043,0.1231584124533539,0.02100455372586047,0.0961182481379019,0.00406793970441364,-0.13438681532302163,0.004577059687370619,0.07252863669350304,0.045800726596426256,-0.14374595850246125,-0.04356866616244995,0.05275856276017094,0.0991400923488698,-0.043265050692577134,-0.07337191370522561,-0.06051529412886378,0.10313046034494971,-0.07604549665424097,0.11664858249709688,0.07410418127386767,0.06614429438005975,-0.10371062877722288,-0.01771840042619174,0.1310470170214833,-0.34428676222389304,0.05411020043216639,-0.0759327172008146,-0.010950065925598657,0.050497127213052155,-0.20196327757588237,-0.14394917929074882,0.05264064034814697,0.1522550554804296,-0.09876614314949479,0.16184423611510876,-0.04957578967900012,-0.11286566475411344,-0.12854828571444096,-0.09781668634126736,0.035301199334108434,0.39090729121607737,0.03790900219763845,-0.07832865740088198,-0.08933203437741162,-0.07158900137494585,0.13969149248402177,0.28015857831877383,0.13527269265262065,0.3341684665852117,0.07623633524141163,-0.047546216470092065,0.12541912055140866,-0.5477164142081816,0.22058532524119356,0.06996057830985464,0.10793082308934465,-0.03800181207764192,-0.026726024098807373,0.7336845574278652,0.090844571869045,-0.034304671909572614,0.15415332455885758,-0.05538053611933991,0.17940468494044984,0.43489012927795656,-0.041114234726888875,-0.813036123248935,-0.27772623695833076,0.45348396718883993,0.07186136991625579,-0.08456374980934254,0.42656008099295467,0.14113836776632752,0.159989438109158,-0.22532810646425291,-0.25385275576583394,0.0013089116395795242,0.06856910748472045,0.011792240832606214,0.039132003431606645,-0.12031886925040731,-0.39444315433730825,0.07549375048150767,-0.1156532612784655,-0.8447948637152884,-0.022066587658226697,-0.14851369027785913,-0.013853613639286834,0.16139229510147124,0.0016605547965805574,0.5088804487571083,0.07322954333164775,0.10417771795319779,0.1344474106592702,0.03971925179392256,0.055591842425190593,0.19365970272004893,0.012340107124060088,-0.3144020921283734,0.035597130749478116,-0.06121991550988165,0.047458687019395845,0.012857649070444585,-0.09212892348464029,0.26733128455512384,-0.3873628537109147,-0.02264052894517419,0.2776302356638163,0.3189105727345043,-0.19911589736221352,-0.21466585254913603,0.08647425902062372,0.3223973550422268,-0.16659895790302898,-0.1790335071730568,-0.49621065664774067,0.22088514770557766,-0.004101149994559376,-0.09989673544955102,0.5872882455293982,0.0007977644763217305,-0.3916406592245862,-0.04845428132224275,-0.06594148450200996,-0.005526298492109106,0.01189070898332033,0.03447396189832486,0.2874042108070147,0.024761710870456023,0.10905379785080838,0.092655280543341,0.08501545306889714,0.05216309621721027,0.1848563727381769,0.374497563244563,-0.036982813726601116,0.1837273625350893,-0.28111846365190635,-0.5065030895043798,0.3430862254459223,0.8038720473150694,0.20129621243374915,0.05484091636455945,-0.2140283858499512,0.02324181335530133,-0.08238554381917935,-0.1949213707904792,-0.1454321369962248,-0.0011917135245959572,0.11940552425985368,-0.23247393401401653,0.12240556496785641,-0.05092992219789413,-0.08852881710979871,-0.1486514621621346,-0.04269149091993552,-0.05374318535657539,-0.10617708395220268,0.235040117246426,-0.049939896224781656,0.0531391467374557,0.1569758295011781,0.09295660226718279,-0.04753042737452664,0.054232919094935064,0.10042059944428021,-0.13116247303926723,-0.13432857645680696,0.061822934952676864,-0.053485597673628794,0.12561037744764225,0.054247458279252224,-0.01554359617849915,0.1808232372132015,0.018730654733484307,0.03812506628742572,0.15925188086255548,0.007687875418964124,-0.07306971377596304,0.06786842458199367,0.06345110288321461,-0.07181161326923159,0.054231810703287885,-0.159610234729672,-0.08466939723591933,-0.13707485292064822,0.0374033146066075,0.04382198334393192,-0.11634455620065705,-0.09761114298676346,0.1945212009971104,0.009827145787747928,-0.0428456079843008,-0.06969848787636351,0.02924975058601115,0.03789817720444676,-0.026938098358482578,0.006066764434932132,0.1258693652531013,0.04159655437131951,-0.07133320617984625,0.009547447621620232,-0.1265137510624051,-0.07687794133043098,-0.017143893358886417,-0.10337500081757682,0.05742700294741113,0.022303674835580826,0.05335814370250858,0.08871444767616755,0.07221104272399102,0.020565669430669262,0.06530691727748252,0.07766793677805019,-0.06670551763398153,0.031364304561011434,0.13060090018986698,-0.0762274284931177,0.08123788686813357,0.3057892778640572,-0.04113133218619066,0.06972963636847215,-0.002121129257159198,0.06412967323592807,-0.23921203498412613,-0.07349780320047795,0.12808912864237304,-0.02977065390049084,-0.07247699728261064,-0.04564050242100523,-0.11715796206342674,-0.0193542187424382,-0.016265682157221777,-0.10505672544085433,-0.027459119321188146,-0.07055632587124355,0.03610458781253917,-0.09997752883460545,-0.18966864457884652,0.06359176930857102,0.19111950670436617,0.12809633315239022,0.03357671664932285,0.08918656290093269,0.07677390683796607,0.08753430648170883,-0.034489616217805254,0.2500726935723438,0.27083179564134124,-0.30077862920861076,-0.10263752245845144,1.4808200770211375,-0.32499402381532677,0.13161255520941506,-0.02396763893306723,0.06252143900390568,-0.02077243067683446,0.0046206523051199955,-0.3049630047312896,0.09013345345112536,0.49644653577325143,-0.3604236154707966,-0.013112503708200137,-0.1346646723825058,-0.27466457554417034,-0.06748974433820631,-0.7135047813473492,-0.5947045274994165,0.6105939697914453,-0.07504005496852613,0.9372860874485852,-0.005131819007715313,-0.07461601338813302,0.29408888675777367,0.45453929635247786,-0.6278886363068665,0.9973931426796508,-0.04165834553243991,0.031384140233769,0.0343448639043577,-0.016805225517523344,-0.07067900535976741,-0.41000072337117677,0.5652977709734123,0.10016090156407575,0.1554926462732024,-0.6266595183661068,0.21603500167515188,-0.21457388089128707,0.01392416797048849,0.23197064758497407,-0.07327207733369,-0.06478314656337823,-0.29822375088665715,0.0840263376887962,-0.15993233634010312,0.5091495124783321,-0.036249505322927186,-0.8148827450766083,0.11246487195915311,-0.03986923479528213,-0.04299784677434184,0.02097337833324077,-0.04874138423680285,0.15247493951295882,-1.1156209621284259,-0.011657888060506116,-0.3559075150613656,0.2967910862007212,0.6626935961400275,0.029970619903354666,0.011281966689450635,0.12748958606715147,0.02022342478516584,-0.35445549536928056,-0.2211179365876232,0.9764125765617298,0.114144686590751,0.06537349542212009,0.555388887720525,0.04268848823855749,-0.027686237091055253,0.44820561685484106,-0.3738380112101713,0.8047223669575052,0.0010395077491301976,-0.18794516415917867,0.6183129859610129,-0.04711557354050225,0.5048825247253781,-0.005202305378729886,0.11955213469486142,-0.9091176080571541,0.21229501682167595,0.3448149644401132,0.08252224149094037,-0.05699190710425462,1.1952846960657428,-0.2866509789981984,1.1861308417660397,-0.022030755194122204,0.947330519829226,0.17369098558958906,0.3905963708361957,-0.06869109396301984,-0.376096146826475,-0.6487374123993556,0.11953562317208653,-0.4683406067051775,-0.12414593656026796,-1.0296785062407463,1.2264743156666844,-0.35935212411577233,0.05845703590901118,-0.07427640897568495,0.03866105183949783,0.09649540008847284,-0.007573374859011533,-0.6126262798100807,-0.1287981015553283,0.38529637782532794,-0.4086583741552733,0.06147307638404081,0.26159483048758253,0.08021474014920496,0.036969683473539294,-0.4768823522526265,-0.3006187945042705,0.8306096642813184,-0.045329707760762304,0.6909847211097189,0.26485256638764215,-0.23702973410158146,0.09106515460773593,0.3443004198683774,-0.4201515125639325,0.6133927914704216,-0.06380608539510606,-0.022232349677264805,0.08679266694031504,0.0465010378097024,0.08365298517663998,-0.3072120553730754,-0.033647649648830415,0.028906336199656223,0.12522859159272207,0.34322863225884837,-0.1751824570683014,-1.1008146536139611,-0.2501773322616735,-0.25893042229084934,-0.062067289173115374,0.08615322927912258,-0.5309555318982965,-0.0025376457643169824,0.06799979087905221,0.3120327299913523,-0.049271726994157335,-0.22797209990514677,0.039644659891155946,0.03228484795093477,-0.05608699205250875,0.12664117500308966,-0.06436060511315787,0.26134331978614195,-0.5852738908084227,-0.643767816170257,-0.21202931943239903,0.20851538334484918,0.9334143501297294,-0.08133292103815533,-0.015058340305254313,-0.07121404923982345,0.005730343297035653,0.2235435100655941,-0.03923751073847228,1.0829706110363595,-0.030121569841422665,-0.22126788935455294,0.1877226830975335,-0.04379420131228251,0.004131818546568428,0.6903836103552196,0.17738834555375838,0.4677050059336508,0.008060259162104629,0.12538279241079323,-0.13172742137233462,-0.14962867165834803,0.2012189920987523,-0.22916637745767834,0.22345914052447033,-1.7571736410990222,0.4916103515925256,0.41644831625429196,0.09155618196370895,0.14433662870559175,1.1213970394764856,-1.1496265228282934,1.2851813314706,0.3959539467007549,1.148895674126344,0.016618544126842848,0.5944808545861808,0.022913161378539344,-0.6620019426694435,-0.4314082914345835,0.011258382526517797,-0.017490796474972793,0.5462831025662062,-0.5464932088178398,0.7875651984472656,-0.24231245047601602,-0.32465740203084753,0.19502482668587112,-0.06933120918206494,0.01975204845082524,-0.017112716680237432,0.21665407791607097,-0.03419139595406165,0.26052210572245516,-0.05830731715248364,-0.03164493358183534,0.09623913076230102,0.277329931701069,0.14179241515984264,-0.02264916997849125,-0.45276180758319595,0.33245314123942454,0.02697530419901216,0.2703593481669065,0.2057801222218925,0.19555825210591418,0.12564394671914336,-0.31958769999273695,-0.08508412376963695,0.300309227305855,-0.05153430173012494,-0.09372289444210902,0.10700898856568837,0.010959242237912824,-0.06013315638602713,0.015778869447935308,-0.5901637368969733,-0.34734433631726613,0.029778633908543083,0.30209752713595955,0.07797233947454889,-0.7077530751409835,-0.45895026410919687,0.05884201126924448,0.02549525580694216,-0.177629210059314,-0.3737499218385408,-0.06965657495156882,0.08965716330570146,-0.003627456728098685,0.11134842106318983,0.11992415074657709,0.06225452671003611,0.010190439816745821,0.04214850798169311,0.038239435932707365,0.09191209822276362,-0.12851212491770997,-0.2836231495257731,-0.41398837065162913,-0.20977118774456233,0.22714504560705986,0.3935860163974829,-0.009531965782622357,0.04426513903461414,-0.06316667186967549,0.060681971432492196,0.008922704440552723,0.26474488998224904,0.7915147336816029,-0.1348356832812817,-0.17393625751505937,0.15327862256471167,0.024350913570638146,0.22424450450677524,0.6227321174175687,0.326279389336978,-0.5076799373968709,-0.0442584840816052,0.037294107304442166,-0.17045850209637523,-0.030320945429540648,-0.3461529782138655,-0.18302207571005405,0.20752050713654477,-1.0249175546251406,0.16372747519292902,0.20517759231985996,-0.054840669637361304,0.027928093611346197,-0.1352917983851536,-0.5888228645764277,0.7364536761204907,0.7151491369109876,0.6896805654613543,0.11278222899979841,0.19888411234797412,-0.01736427097892796,-0.2930438918862524,-0.34158012717211744,-0.028716496439391514,-0.43883166062979895,0.6479364079649305,-0.5872124006253453,0.47312131196188756,-0.28554102097494005,-0.184656069291344,0.013511310565914444,-0.17637473273224336,0.0314266069977283,0.08825870654653345,0.11147119643000611,0.06812421470607728,0.1920942359879927,0.13761301743277446,0.007768549699931789,0.13789846036688005,0.2486952467065159,0.10474677342373143,-0.025664675538719078,-0.19154154325250594,0.37033063958509516,-0.08050506032244877,0.1395618962980657,0.013255452951969648,0.011985113761799766,-0.05828320751172219,-0.12726488422247786,-0.08752276704596493,0.27150003048251553,0.05103807307873323,0.02312302037834533,-0.08063899895123568,-0.054602370888415644,-0.10392626258374177,0.141479921994014,-0.6088509787982517,-0.2812472660419062,0.06201882227283069,0.44497176103851743,-0.18285139594718033,-0.7560210196830112,-0.44201245098534264,0.12473212284398084,-0.0218042325387241,-0.003692249985449757,-0.2156607228979689,0.011163974511423152,-0.11736060705882463,0.14489671210289035,0.04825248800169369,0.3220712178158297,-0.07877498312120884,-0.002379518911357829,-0.01757331091565344,0.12694966599310445,0.058482304150155894,-0.06153875467682398,-0.11792100096755752,-0.2423920211876492,-0.0532881149593635,0.34256178725222425,0.4985455310792053,0.050717338707304535,-0.07965421451910863,-0.1981177477175061,-0.020856878892920205,0.19159079465885043,0.19757244502894153,0.39992646636150975,-0.10315086506835458,-0.04832379716349471,-0.1733580926885886,0.03615520573396719,0.30117352445638607,0.5337611834814634,0.43998232243955687,-0.7144219640829758,-0.09720671510729702,0.1081427388430039,-0.30582452892142,-0.004716690172067404,-0.48936758046306056,-0.014407775334378,-0.009920248854809742,-0.8003019140882464,-0.13308044516388362,0.19233542731620157,-0.11119469760700167,-0.024833976693353167,-0.2493756222167832,-0.8095813979227039,0.5984282634556243,0.859661090589001,0.6554487878463671,0.0056106463669029225,0.4618730502478326,-0.06510143400184684,-0.23970598067474397,0.10075001600643474,-0.018179253720332033,0.16671420161180034,0.17982899654203707,-0.03732116929126602,0.06435623887392461,-0.18530810863364003,-0.25015865259756725,0.06903601125283881,0.12019310088358683,0.05483585179784905,-0.11392134795168425,-0.06304656939518855,-0.05786578517771646,0.17048935975747756,-0.017652639378734656,-0.023305613342973545,0.3350147230608782,0.06112593871077477,0.012880858226236401,-0.5099019975860142,-0.3532930289549533,0.19256689474314018,-0.01516769940241551,-0.09614982008990246,-0.04529273160293233,-0.08709526937977301,0.02593846801753503,-0.22342805213074776,-0.2123214648463513,-0.3044743155848528,-0.07117175303171155,0.00029750784390180447,-0.044143512066970696,-0.1081194631451706,-0.13539489777279032,-0.2797986285172044,-0.3813951644600756,-0.48924179310797156,-0.026462354865528864,-0.05395216638643134,0.23797338288682238,0.352878935982033,0.24427100368194168,0.1237073871721509,-0.0498654961148373,0.0799411946342547,-0.16977043480993861,0.003649561695679794,-0.028782415311952424,0.12258286521211315,-0.11390940383719461,0.004846052593970502,-0.09758869745107689,-0.06563599340819298,0.09500342172867247,-0.1151714156828794,-0.05135903484274052,0.24904563224299944,-0.2113997409924374,-0.12067449375906823,0.33747491307511623,0.20441757324885246,0.04621870593077477,-0.24710747954855383,-0.10660377804018102,0.19385115223846977,0.011039446002524312,0.1198554281019228,-0.6100082929674058,0.09181019314822807,-0.06616853308051918,-0.08540651155439156,0.3350426843957015,0.05691538738114746,-0.6105116410529133,0.2375493262709962,-0.1934876073763819,-0.3651620410006389,-0.14084054335546306,0.17807181488736298,0.12906590089566186,-0.03952423741170939,-0.30292873296628575,-0.19350073181903243,0.08472164839027771,-0.2652260275676756,0.003154020366898301,0.3493991591096116,0.04280988517640028,-0.0961384256438196,-0.13706524080307045,-0.055364631276824276,0.5717529393862241,0.5059668431100245,0.6096206964831817,0.05269343127082017,-0.2781000938822285,0.013002510514142699,0.01036674452356096,-0.19505237292883032,0.034447735860833245,-0.38819111063206413,0.4805414121967874,-0.6175673047424527,0.6414558557029582,-0.49646384316652764,-0.07065826517702443,0.02483116850615968,-0.01432687841226499,-0.07561319371367975,-0.005619493303169833,0.1545271432472976,0.06223208899944069,0.2439739162867573,0.02922619477562844,0.024851117037492015,0.16834016806231286,0.3583057391677558,0.018448900870628882,-0.3094467380787224,-0.26916652643662653,0.07934169510998172,-0.06598616137674392,0.2967498116966022,0.07242970787029078,0.01505213139317374,0.08707749802554368,-0.09925091617909024,-0.019223129683108034,-0.13562523292419235,0.05435514658915322,-0.026972412002700428,0.036530926265139235,-0.0024919701311166375,-0.2622352142509975,0.17455945657366773,-0.3884683729441291,-0.8025406946375695,0.01174400751788032,0.42538287295644994,-0.25524177461304076,-0.21846944354807116,-0.3504379637365124,0.2971275400148585,-0.06443919534655382,-0.04874285726290519,-0.3376328493589018,-0.04689812496262153,-0.04386943547312281,0.28643473825724436,0.09916429708394166,0.16905126154941494,0.005692665336226612,0.00148858297890761,-0.11609927794016178,-0.025982980359716013,-0.014979708062874946,0.31931857175991407,0.10609276064345693,-0.18047791509182612,0.5077302349238217,-0.01659288505107593,0.27598162741983484,-0.2181981052781223,0.050615800518005426,-0.08524761689062708,0.039699988697760355,0.301855141223478,-0.06232230334613331,0.2109023961958898,-0.16418099359563235,0.10478769715436334,0.10344738212103362,0.06844071329838307,-0.21873384277805571,0.24363117732106834,0.3783913580057727,-0.8750254286145257,0.0037341924484535476,0.1139065998350934,-0.03322233542658269,-0.024254737693374655,-0.30650186448335653,0.10855694613252898,-0.11013586600418945,-0.40877108582272376,0.009637302221987672,0.37577250230145065,0.028118309796063536,-0.049058177257694006,-0.3602705057918586,-0.571891137945629,0.46762019024470314,0.8751474774712894,0.5386058513082901,-0.1385754049245024,0.2710990924311091,0.09364604954527794,-0.03743239823941635,-0.08294203745858682,0.2055567176836025,0.14486258282070494,0.04963893417273388,-0.6217894116809863,0.20716877263179506,-0.07642834104175371,-0.42595894406481083,0.09000795266477424,0.034266150645328036,-0.06931819889707654,-0.09405415113331059,0.4312419873176054,0.03310934872895729,0.12304408022939024,0.013407703513074826,0.1530234469097134,0.009343799175794636,0.22103245746269046,0.03297873005429712,-0.2863378557928282,0.12550554339074216,0.09793554222802321,-0.07101216907523684,0.06563644528092089,0.15387936752458106,-0.062252540652890646,0.1623797227101366,-0.03475294799431273,-0.004620502522418865,0.21035464839071696,0.020182207799060888,0.10104994516962951,0.07072426521339886,-0.09134810524912668,-0.2949627084769873,0.1221668430180625,-0.3784012099771534,-0.18688144005196333,-0.015731129411875072,0.10627549710591788,-0.18558119547691276,0.20270538104718835,-0.21551255134901007,0.15217620943517152,-0.045168200872819655,-0.0364600798661241,-0.08728947867691415,-0.06350269377316704,0.04156138493774081,0.29422145374174863,0.06163731441398629,-0.09884289287978151,-0.07562525480944497,0.0274763289337077,0.00750877511939859,0.09913732677373381,0.04622251640131531,0.03259431115763439,-0.3091503698724456,0.06301731062567098,0.30244937125331195,0.005693334206858622,0.02161277036085657,-0.1486217875450539,0.035565998719401824,-0.13515790056393268,0.09942075775298119,-0.010305950715431165,-0.060989056449129594,0.030945920092156156,-0.038404636875817494,0.2975977440183192,0.3489556689421687,0.0197687585589119,-0.07920061642038873,0.13734188835623937,0.04256328479281278,-0.1883411392845391,-0.13301451804047854,0.20996224807127492,0.190644388592548,-0.07224165355618066,0.464707480110034,0.11909840715326461,0.17844206527947246,-0.1564136872304072,0.22261882141653538,0.20048458028232322,-0.16702084453312313,0.04523699219633327,-0.08855510934591729,-0.6186074139764082,0.10881402173194747,0.26174958373195023,0.20052510923486494,0.05944703509937189,-0.16960595744765114,0.09768272335654361,-0.09228164936854798,-0.20446256222842718,-0.03074964237934562,0.15182019897818727,0.010705608743112603,-0.22631062728156226,0.200759080513026,-0.2305128645490572,-0.16233765107814668,0.12229376041929768,0.01966528046744328,0.0031591643886957764,-0.049856814798803356,0.007525831615088668,0.14603111028242075,0.1920831486078453,-0.18661942587777483,-0.09739689312097796,0.10943374732199762,0.10116512605704961,-0.05632061320706764,-0.24297788622245833,-0.4432442670263796,-0.17377213063231142,-0.19046057459260535,0.17608886443658348,-0.20619336762138984,-0.11889380086090268,0.13653906853666234,0.016606855765571884,-0.07024409905115454,0.24559068351643393,-0.05517482301688785,0.010698145898831451,0.03565605127869113,-0.05424435101430715,-0.07048376870775974,-0.24228161445054672,-0.2839847373422624,-0.22489072097032412,-0.016274302085254464,0.09376638349541377,0.07426514067239069,0.19140349159913608,0.18237097177456868,0.0786823267083354,0.018722336167929572,0.030874650009763215,-0.27079236669410095,0.014770789899669496,0.01698064858256228,0.08426596853721384,-0.01848475802029477,-0.08074243799261502,0.02170675968160691,0.03428390584274315,-0.0826770542953329,0.06736513242473585,-0.016796226430352,0.1556651010613235,-0.2372066156718428,-0.08390749992188845,0.32546354295234126,-0.03681596866945205,0.14869617089442505,-0.05742529424315353,-0.019765996074172707,-0.18281981173440703,-0.21128123471370597,-0.20199826965166792,0.03751215647298522,0.188347405478301,0.06751728891284874,0.06246713565796177,0.03424133531354432,0.020788510916142554,0.14441413335047332,0.2114618352186414,-0.17518328606721556,0.1474380117925479,0.053925573973684464,-0.018423318888947562,0.26531514534801726,-0.16270484941669233,0.5423630485084703,0.0028588680484695193,-0.08634402137043373,-0.15763978008397836,-0.19171998386857655,0.2792095678462759,0.05714396259056639,-0.07195093659377728,0.27234673434255074,-0.38487884899150826,0.5702761639649438,0.3291681955406228,0.3827331538210847,-0.06862332768428121,-0.01863634649973282,-0.0865748313714502,-0.028579202363593542,-0.41201783203878384,0.30534875032562203,-0.16022935218713394,0.10614047638416643,-0.5056420869188967,0.0947350557674661,0.07544998433219792,-0.022768925323371082,-0.062349160746773095,-0.031705428140094916,-0.06389548276701484,0.027451226933413952,-0.4126423102970595,0.08699679276845329,-0.12617492096712374,-0.45981071358380815,0.046156555352691926,-0.17260754736766953,0.7379977998567557,-0.07051519574194146,0.6444081751819525,0.2584308293838565,0.5510512907499165,0.022803420067835246,0.760423887401177,-0.1246703735404547,-0.21038686241797847,0.06666656497764532,0.010525943211358604,0.08068880835136513,0.7524717835796776,-0.06446633522894331,0.0455567134248098,-0.09177187641735947,0.01523674173201835,0.24471525372028888,0.11175724878936522,0.2705187587327137,0.4829067449497866,-0.0172257035877044,0.029497976396843924,0.03291660865245711,-0.6402638965739358,-0.40700997886700996,-0.13899137775166676,-0.12583028653209294,0.0737555127546159,-0.49145745662776735,-0.11743393603480133,0.022937238845153012,-0.05940775691725463,0.02571069732164466,0.4251560344751719,-0.015784448312551366,-0.0003535814510797774,0.10907561720104056,-0.014536988277443295,0.021689001098015696,-0.4014406191372338,-0.13037426246809325,-0.3539735100686246,-0.06710946589471314,0.0793143903153886,0.44091615306273485,0.5043927394162806,-0.06586834935211261,0.14218577373684427,-0.044363793240649714,-0.5958287435763232,1.1546347127904748,0.4153627128945535,-0.15076998182907775,-0.07587205143268069,0.007503229100178557,0.09813479521127859,1.1243456593130292,0.5478692435479056,0.2749683304226119,-0.5010505630042397,-0.11863758048242527,-0.06542948478446733,-0.2536581472610384,-0.05764893155232345,-0.31985584745479767,-0.1520456549385148,0.028722626308839146,-0.23482621572641152,0.03099543472832591,0.09715910560575716,-0.005810963280577202,-0.07513788771120357,-0.16244055128688384,-0.1060615864320386,0.35479499589427343,0.007819783875407365,0.005192910329208968,-0.07626996141649595,0.3305617699984098,0.10203837793167997,0.21062568651433072,-0.38399893787827244,0.1663883450202526,-0.203007219357377,0.0355153642199794,-0.3207483238383175,0.5485607517638345,-0.12287469624355947,-0.2092347430532216,-0.0473155252335441,-0.09544044548234507,0.06133739984709402,0.07868780274942799,-0.30989600137746676,0.12465406779102851,0.14536900549951667,-0.21920441119705333,0.019044477473311474,0.06021028045849353,-0.040920633226556674,-0.007806394335192537,-0.08222386321048201,-0.23398907574162503,0.07806231156324488,0.0009446951418423916,0.09653562206414912,0.07826248382514243,-0.001252851177368501,-0.1351730970552085,0.07121691769388207,-0.19721843073037817,0.3699958701784721,-0.03150538328078833,-0.04297915790168238,-0.051699768842078414,0.02802132312052471,0.06492321746592415,-0.06399901071248801,-0.40554328027858716,-0.15049517751399755,0.01438137144227291,0.09777315418512232,0.02438788973117073,-0.45603466389839653,-0.1814027286072825,-0.10938424583487776,-0.13335837952754429,0.0012277825285096438,-0.28162022267184855,-0.05798139433510604,-0.03526125174604309,0.15847626980871288,-0.003713915680695712,0.18119551647524704,-0.03937647124329979,-0.07389462869795557,-0.08583058044098889,-0.006056615441700041,-0.06376396802243418,0.31542282810214745,-0.2764071253188107,-0.427053247449091,0.08494153019154167,0.10788138376917285,0.46950520518652966,-0.13723005023565887,-0.012510831845968429,-0.20871440747862666,-0.0425232308402258,-0.03778015956939302,0.06874897449672762,0.4975182208954452,-0.1496676138519354,-0.179077872340783,0.05032315854465206,0.021536215006026226,0.1097132733718191,0.3291192553179415,0.12667744359028701,0.02626109618428843,0.08915216532156123,-0.053229586697746224,-0.1854205714241251,-0.06369219201042872,0.09235785755471125,-0.2286219893015255,-0.01486734106895092,-0.8069871370395229,0.14244891027277667,0.16020391244422866,-0.014939978519441231,-0.0760135501491001,0.37535438942407623,-0.48576295022873894,0.5091466630458973,0.3776561169331012,0.5607454728953435,-0.006015289812271782,0.16452707634984773,0.011872095275025028,-0.26565378211744783,-0.0707280941846035,-0.22816660549727197,-0.28317685342560617,0.3276420875983498,0.0999337216626999,-0.527776806518243,-0.0478553090120184,0.09064914630108453,0.02794261347504705,-0.03425042022848687,0.03726615693840641,0.08306672770751941,0.13358705364864423,0.015010815440941176,-0.06816963165953532,0.48963229587964835,-0.08621043944001483,0.23652930150332843,-0.2653906619791406,0.013988438075537147,0.1075904926435128,0.3147020903263445,-0.0712472016769227,0.05971719915510961,-0.47481522674787796,-0.024273430675012097,-0.05748635522716658,0.011087645489206743,0.253102166598993,0.17481715116290028,-0.4753223329270653,0.06702688446682632,-0.042762507081903295,0.01801196617880543,0.1427664793848663,0.20916481428632785,0.07754039599205391,-0.07326834340400497,-0.1485415297512481,0.0011485656510719653,0.4984368629491055,-0.26759969499649333,-0.47767619751991325,-0.2930487220705253,0.032761449484383316,0.04619724898305781,-0.03407193316167616,0.13303693954153936,0.025801440003570365,-0.005779151024845403,0.06391350727956252,0.19894021579908333,0.4797653383989331,0.06608777812225324,-0.07107614015756739,-0.048890200344661516,-0.11631828457377848,0.04948293063969176,0.1416596518004432,0.09998581879633175,-0.04429483525537252,-0.09050111220748053,0.01272207994929585,0.0049491690192069795,-0.034577568468238125,-0.06193131178260285,0.014235637789981215,-0.047787378552461825,0.3134236835773688,0.23535217306016784,-0.03835535106923526,0.12583398850264424,0.05116283349278524,-0.15280231137217118,0.10347997219087587,0.059503254686471656,0.29399366404699484,0.18059694524477363,0.14226349286105236,-0.10658629531753126,-0.009686447571045732,-0.4331800574569627,0.008634806563635626,-0.1043425102928897,-0.04459748643379784,-0.22550992386045912,-0.2952339628926233,0.0597340686570808,-0.0012144738407873262,-0.11838214663150755,-0.025377045946706436,-0.7002171504650416,-0.08686108756290575,-0.012085771091100643,0.30674927601343166,0.0251464265059161,-0.003933279139120039,-0.0657351786848583,0.0652156004254959,-0.18183650180850566,-0.06827984496970012,0.08001489616118755,-0.1166709953420961,0.34636810439975335,-0.23004991268976616,0.15141463709713632,-0.2263978188178804,-0.3115956827243018,0.027015758720141395,-0.09178619214553048,-0.0487971864732691,-0.08229472300293061,-0.0842346428138141,-0.04881115138007972,0.0376767185370308,0.14968184371639426,-0.1733471740837821,-0.014552382967101946,0.03242473115544717,0.013616563225794685,-0.21773632211972477,-0.02757451174938989,0.008815327569311549,0.18960638291591916,-0.06533392431251395,-0.03721811655104671,-0.004748793300909892,0.11706975579724509,0.04758385939629512,0.028982838181547583,-0.07459508213602951,-0.005207547440514368,0.0888868809265003,0.01600229731304186,0.06014603840140269,-0.03142806004813769,-0.11232153415098263,-0.18950384216334512,-0.1047637577014107,0.0017806249084207067,0.1788532300856252,-0.07530436785988937,-0.1882935387243886,-0.14808688018472144,-0.08399597394690926,-0.00807876947724366,0.018289955652735147,-0.13859831063272057,0.07153570181033418,0.08360254151146924,-0.14932738845674084,-0.0998454501420548,0.22673132175336616,0.01426971722965041,-0.02426047119498911,0.03093065167949015,-0.1284880202948154,-0.08358533731115295,0.05736319580520629,-0.05803692604305585,-0.22889493320349885,0.16143610539625258,0.17426020873716042,0.056159217358605205,0.09732101891284309,-0.06736255463711867,-0.01570103285428968,0.02809150068053788,0.17211569395816914,-0.1535014092327896,0.29144788388293524,-0.017852002343819614,0.048235926427856485,-0.0032002589308014937,0.12266275072064434,-0.3026023141932994,0.19631872268674394,0.013142614429451319,-0.04426849930017742,-0.025736923800226515,0.014377345173552021,-0.0999921237004655,-0.07744448359549176,-0.27459373528895314,-0.07796581030738234,-0.022277125708279312,-0.30590901839082424,-0.14360562117380296,0.12755113261773512,-0.005215780242987013,-0.08731313312200933,-0.17514291112108657,-0.3324979618496296,0.1730276473918026,0.3631429162343993,0.12159729526127447,0.1805848128827144,0.1614107505352453,-0.038148047565193105,-0.0029294581796120434,0.575078228306558,-0.024620661480317465,0.39457502851776827,-0.15013933500732257,0.8043334015436958,-0.06725874702471024,-0.4306766807622791,-0.3217029242207171,0.07873599155978361,-0.10898567121818091,-0.0017063412991110438,-0.08476657705518245,0.37741028811280347,0.04752556534362518,-0.051234113367193974,0.10764494426886252,0.06544104196395316,0.28616648451652543,0.16124465537709337,0.08373932833828229,-0.8676281127431298,-0.08888010888385994,0.28708660267801045,0.17485233148881793,-0.26583241649473266,0.14194805466610041,-0.11004964201963775,0.377760040043954,-0.41110166518787244,-0.3434273416483406,-0.6175820568053221,-0.08724229982466675,0.010695538009883725,0.033193765211006504,-0.009836572032254971,-0.20848633420422533,-0.00028940417245247265,-0.32125082252849957,-1.0581354989614933,0.063428547861827,-0.022462379844627574,0.06919017761586095,1.0633666224867122,0.4783400592163362,0.45335887063812197,0.19849809266487536,0.0062230523268968305,0.054282678054637386,-0.04545996118170465,0.10754602967081697,-0.04180917741270275,0.016077915788360694,-0.26508738733417014,0.06757113505020942,0.092942983549714,-0.05229153506048285,0.05419065497799364,-0.07041914370167508,0.0022041906471840273,-0.4030957931318796,0.13834226711045747,0.50695819626423,0.34781811386179423,-0.3347692522430539,-0.20201854068199832,-0.03991506554205848,0.5184955154708613,0.02828787063214714,0.17768886143618967,-0.9250171257279779,-0.12752211634780158,-0.11786046359031543,0.10830948297844147,0.44058602751593096,-0.048200355356614204,-1.1228744480071797,-0.07860042964156194,-0.3489666185002336,-0.6058698962476964,-0.02976473609322577,-0.07848009534926721,0.37010310336099134,-0.0069855705979921644,-0.30564649101503166,-0.13688901052853744,0.019451424608090004,0.17838362924011097,-0.12245273519675288,0.6872097497472093,0.07413396065624575,-0.041673384068153435,-0.17772823120758044,0.243163210798153,0.5054822293524346,0.6273048570326676,0.34884721887241577,-0.14077161259260756,-0.3790328731411027,-0.06801361580215005,0.20696562848424813,-0.005719631426924078,-0.08065951523717527,-0.11317150779027702,0.1440495866182225,-0.21525404424264585,0.03980201525344883,-0.11498998049547796,-0.03613075492103078,0.01606640126659971,0.1485298160994469,-0.004319833487517952,-0.017602836919212477,0.13858392662189167,0.03013538561102717,-0.017101081173370104,0.018051747767317133,0.08740050825401773,0.07970005591355617,0.12058757190976165,0.0753602338399943,-0.274990667902075,-0.06516112177489454,0.007588156522957379,0.08637161174960319,0.023912388563970384,-0.007354890503755862,-0.07567120694649242,-0.07862702963829346,0.10103248452086215,-0.09053237488669227,-0.04108111209975804,0.0006140866711155785,0.12335198550673479,-0.1856998573709362,-0.06539886922815884,-0.11570871020086321,-0.024608957887871177,-0.2636483108734938,-0.1663376633698369,-0.11729641953062862,0.14839636057591732,0.08483170054718334,-0.08344588878482562,-0.08722191125460078,0.052215132479733084,0.011074871240155281,-0.11027335454951712,-0.16639016070351645,-0.0844327189214577,-0.004883246216952102,0.23284706237735406,-0.06082465283642424,0.0869717985368082,0.11652111444444256,-0.03400429531121038,0.04056737972813716,0.029758869288307222,-0.07306378500240492,0.2593023979861871,-0.08856903710527936,-0.22288631880082854,0.37104576922350724,0.10898217573196087,0.09026497729218737,-0.25090525074054976,-0.15799046887936824,0.0074424250779375044,0.01939008545733905,0.07496722069733504,-0.13912545761959574,0.10715674328053672,-0.03964640921975204,5.439375753532435e-05,0.0896553268236101,0.09885223734788186,-0.1405323547266615,0.15346228727304234,-0.007390395405201478,-0.013576801679552396,0.0620526763055831,-0.03109883976224725,-0.07212004174578589,-0.16746684789557204,0.06285502360440262,0.21620505700027062,0.1012903166020274,-0.17175439117955857,-0.03384194943046889,0.15001872804491054,-0.08528382418977361,-0.05586823284730647,0.012517566198542008,-0.2910118637351711,0.26218751855736677,0.4333123600845163,0.1273982804323752,-0.029342319925245667,0.0899130462005419,-0.04150123709233424,-0.047514776484637526,0.0939862596457546,-0.13855069475435286,-0.24976716697430038,0.10674167876999088,0.10864783682008985,0.0013637101997866078,-0.4124669469914802,0.14699093779396838,0.02138052084692443,0.02485564804285967,0.03863327428070425,-0.013665972709493946,0.5100856788383056,-0.1015901478973966,0.07806847457047547,0.25838642369903553,0.0755598434929712,-0.06266354822704912,0.4026268170748167,-0.005309981079886677,-0.6175429424219552,-0.1720894774379275,0.18090634114122361,0.0176336698326383,-0.16413796254464397,-0.12315380711144562,-0.06670607778885475,-0.021372414173272427,-0.10278464029417331,-0.09538483258308464,0.07120833385954427,-0.004987646716992428,-0.0321608832984824,0.015534538942297605,-0.10601545160887224,-0.22718027286424636,-0.1275534507362907,0.0019706147122162676,-0.40399317622079756,0.06468757853455342,0.20274588169227495,-0.010129160165037268,0.300563354325223,-0.1475194770034613,0.15728936310508376,-0.0730603471834559,-0.07239464918056848,0.20760644663676311,0.0397972446543552,-0.03418794706329971,0.3207174998249423,0.08380742955356789,-0.017611342754640436,-0.08825627238207648,-0.04310585297370361,-0.016875110269606537,-0.07056984670024312,-0.023634218649640725,0.3075286994554081,-0.17741444850627483,0.22926915563227418,0.30006996857556906,0.13570363649322367,-0.06252953677398555,-0.20123167702977657,-0.036418805235059,0.04738941051240648,0.05557726939008123,-0.011882376419401193,-0.010560611755498396,0.2516819922361625,-0.016421781225791843,0.22927644768336422,0.11488006376795819,-0.03804195273992212,-0.1830451774617187,0.1821091856907345,-0.025230173334798933,0.0346704461689216,0.18956100686692948,-0.06318488121374312,0.3048787859817298,0.07093477723229626,0.49200331188629515,0.1527190442187322,-0.09753606173849412,-0.039757871339335005,-0.29644455149019827,0.12480366432198164,0.03346347288183788,0.05403938101056878,-0.4092770913041183,-0.3339119565451078,0.2953977516889507,0.6062216727956268,0.1578073495479032,-0.060047047353133,-0.0839126455895009,-0.12709563701859214,-0.08508643449494135,0.013501057935718633,0.025964311906515082,0.01546560659326668,-0.11434567649360972,-0.00443727201259966,0.2644736123328089,-0.11128883583621528,-0.2669845278278121,-0.09984711006495721,0.09885986982461441,-0.10035051678158673,0.047243473857461145,-0.31748151121046897,-0.07762522705616909,0.13012492789189775,-0.21368307890340116,0.020161677424727267,0.09942059080293016,-0.008106629145546721,-0.042583894385736704,-0.11482968858768573,-0.19260151918669996,0.06801150337382197,-0.009871532435043464,0.13309308266934972,-0.10887339736989364,0.03308404702330569,0.06924189820544872,0.2171324379096956,-0.1478430091768841,0.20228424616056417,0.007847435120213646,0.0013365409961658566,0.0500367097355335,-0.13320762660552204,0.031001177595661355,-0.2648820400523393,0.09772666760618035,-0.15278793201666196,0.11590688234383052,0.06851885352118958,-0.010002460843637921,-0.07553252039019683,0.038838891928708645,0.0035132407045833716,0.010079309551923368,-0.06076886274379612,-0.25212069515775987,0.03937655595726671,0.12102148195884875,0.12364560168201702,-0.15775598831106658,0.04706934502713105,-0.09294377541848661,-0.016604474689936605,0.13319840722457357,-0.08899944078619096,0.046475333514338975,0.1745006736066031,-0.25717910090126156,-0.048028947774809025,0.05944090475824262,0.2157022991152191,0.2653098412137366,0.08764955733353727,-0.00037592375966390265,-0.16275251615676573,0.003460627830817856,-0.1325759354965638,-0.053368679306671746,0.31435974143493733,0.06885692168601347,-0.007680300053540113,0.15003507637378483,0.06463218753720218,0.10942284338470976,0.08818095933889646,-0.04762416556698611,-0.05343998938316334,0.12494600276389344,0.15779267312059758,0.0753816106323832,-0.12014211273758889,0.13080451750980543,-0.04863901826882888,-0.10841394861503968,-0.11672009375102094,-0.043769726442283594,0.11265310865015864,0.06616119476389513,-0.03178528900068467,0.3074054288053138,-0.22474300109927683,0.36497324833898814,0.10474824138117325,0.17826740931816842,0.10254054511980161,-0.08441807157805037,-0.07389149592581891,0.11469845319746615,-0.2551999037791681,-0.07003425741005075,0.04038890503991797,0.26876091346229475,-0.20761647156445698,0.1870634572716392,-0.10505299954451502,0.0912245165784022,0.1215894833903609,0.043903868817475815,-0.05805162668355439,-0.08950754878738705,0.03944189929954462,-0.012598010061617742,0.027052541224087224,-0.037298606908230614,0.03439532571654008,-0.15556388244587283,0.1390632540064061,0.009745989997135763,0.08684496503201143,0.11390161799582971,0.10589925654756975,0.14370179749931275,0.177692755997178,-0.028575290860181294,-0.05835815328190469,-0.05736229543341142,0.02327618390022296,0.043971583358534294,0.07063967764441223,-0.016090936164948392,0.030893479093537304,0.015937841251634888,0.062282413781908075,-0.11342140649235659,-0.0533360289821499,-0.26246750645093875,0.0369766828138351,-0.038586932849009575,0.18170253469415495,-0.0011606324520558359,-0.38539021211300806,-0.13631401162495352,0.10764886168444818,-0.05858707377398924,-0.13258695643644933,-0.06367424334756504,-0.11710555248021634,-0.01163835148391453,-0.16463584674418552,0.00749064889042923,-0.06998970766982154,0.04390096911310883,0.028282099051591993,-0.07893995765307898,0.015293063759356127,0.003239424197867873,-0.13456994599675604,0.10542634926395852,0.03587540443822972,-0.12541979941673925,-0.011380037326821505,0.12255636308020854,-0.05243034024687397,-0.04096908848939717,-0.030535442079741765,0.05043133500393467,0.08793929381321927,0.2629482914510248,0.2473079292948356,0.008846962316559744,0.019802288429739252,0.06596302837785241,-0.09272776519641865,0.15834535626808416,0.2677107076402064,0.15920485833117448,-0.36352876919926863,0.09171108930482941,-0.08581240816963977,-0.13591328866622673,0.006249585936695483,-0.3423558208690596,-0.0665953521052085,0.10729631985961113,-0.18176340219565632,-0.009407826263562147,0.033791599284640525,-0.13106528727366767,0.08804984463047551,-0.1837027397609449,-0.2356913593468964,0.2853096105422635,0.12003076967696356,0.06005749327958701,0.0810818294619572,0.07397231358109953,0.012195263297476824,0.002118490159332594,-0.2368674941908706,-0.023426611797320227,-0.06173345880533173,0.11809117035728539,-0.342626367181682,0.16611647835343374,-0.1169260375467501,-0.13510589341874257,-0.029796368273265483,-0.1003767516951671,-0.12543696901279905,-0.05311849303075799,-0.09693749478959184,0.047403683176775825,0.062416332755543966,0.014366198879495246,-0.012055298220160379,-0.022185703334271677,0.09714951216766271,0.029659157540142582,0.069650800806741,-0.06025571236781723,0.1468488140085205,0.1380458794050637,0.09291682886773267,-0.046526889727920774,0.0034075389339527995,0.05891701134896486,0.05158402134996447,-0.09110278103671829,0.13995331347153922,-0.191861015831489,0.004008070107751226,-0.013338769261551727,0.1725247713213503,0.13768879241582185,0.12766812727717686,-0.16047411622368174,-0.16149213453159705,-0.06102548596631505,0.08505974002112131,-0.024850582178403212,-0.3322765851653223,-0.23720363872247757,-0.008942528867125949,-0.11361444132327643,0.03329127834109237,-0.18213023776029594,-0.18972930448382364,-0.17873037977943748,-0.016075872463083302,-0.06255679200243346,0.15425262529831596,-0.07639716803599661,0.10721032903860518,0.02214070789910626,0.08619010959533317,0.11974164416430305,-0.0018034521446221323,-0.062010096885430646,-0.08224063745379592,-0.07204311528813508,0.05758550723812448,0.2698421925373325,0.06083639950831341,0.06810507693370615,-0.13789335222933952,-0.04536717905721283,0.05327076601454268,0.20844352461269453,0.07963080310439666,-0.046044017450973834,-0.20506049216487737,0.07684563821756363,0.06880057913175094,0.25127837160959104,-0.049267468326789035,0.2905181335640143,-0.22691774587058858,-0.0969744654823083,-0.02173102155452849,-0.11196081375791513,-0.09694843051722742,-0.09037901500034785,-0.11832904106789952,-0.058089431526574586,-0.35489851187423366,-0.052066213746441915,-0.0010109050326989218,-0.00823239691772801,-0.022883508669108325,0.042435548089666535,-0.1701600909767338,0.09083526671236447,0.27733937689764826,0.19057546228379701,-0.048566433210009724,0.2152204627537324,0.12405294706093058,-0.1547816331730054,-0.02952859376952407,-0.02521606543267987,-0.13959209468849332,0.2857198949457224,0.006054475101714144,0.14173345591303887,-0.04201969402515956,0.12739868460808573,0.07022957450810878,-0.06081888155160789,-0.030549539829287136,0.07323384110239148,-0.14097200556842895,0.146159609027149,0.11021140210582323,0.16138988851797667,0.06095124284825541,0.06985353891794492,0.07012681626831346,0.06549553284430294,-0.017742106727649556,-0.09051446357189798,0.06911888170345638,-0.10474988169672426,-0.0012878243954862123,0.05651112484358959,-0.09983772110227714,0.08668106998586138,-0.11278397205113783,0.13910195148638294,0.018264055238322717,0.08513863336021804,-0.10364240331872017,0.09686371151754879,0.09385501132969477,-0.14328870688675194,0.013088853943505554,-0.18628693196542762,-0.15487605399918716,0.03868879340681802,0.032901991798548254,-0.017798330469974435,-0.040685881409259834,-0.04886632321022393,0.030723347174298605,0.09759767159323214,-0.07022555573148583,-0.08690018015019216,0.014949935576883634,-0.0853924834563346,-0.13026393785716703,0.005234490862093441,0.05350303431385702,0.018162576519171754,-0.006587052429529171,-0.02950940791976378,0.07390623214569735,-0.11492662911372796,-0.023253416778345543,0.01905791010696938,-0.06862744649292328,0.03688462610411008,0.00904321182270542,0.06451652316823567,0.04314450798430769,0.021308576601185868,-0.047297600917951696,-0.01880956955095359,-0.019096547225453116,0.05469132833136346,0.16766329464220484,-0.02843094218083371,-0.016437223328421298,0.027689940210608992,0.03222135646951272,0.11091762802105738,0.2977390010531078,-0.023752624597839854,-0.21242820770997528,0.037074792522812205,0.02172232742025133,0.020142522911848544,0.05208370714874685,-0.16266856834734972,-0.07869181623350838,0.036200359258393815,-0.23626962411878158,-0.0040759778718202164,0.11652985098078202,-0.03999550396079248,-0.07383547784177297,0.036853886334568986,-0.2967759380180937,0.16702974756889286,0.24213968879748468,0.27319385842358096,-0.006589612618436768,0.03208133542587405,-0.05531354028135324,-0.04324443931542912,-0.10322491373943982,-0.08279886708607373,-0.04261096110465645,0.24412275059023125,-0.09605136690379545,0.15646594512856235,-0.04691197325766914,-0.05968473060218498,0.07009215690154087,-0.12354555160668924,-0.0010230988763464234,0.045154041485234234,0.26970484130146943,-0.02659723356337889,0.021866291299159138,0.11177105490099831,-0.21704725023317073,0.06161736522855745,0.18271412456368674,0.03516638569940818,0.009097477451019248,0.028134274750576234,0.035459907383801344,-0.08419505418111449,0.009293351157938315,0.10540009136758595,0.007664744527636616,0.21428313144857877,-0.10494826897702754,-0.05555630090966324,-0.030764376828417626,-0.046805566890059346,-0.06527730226975487,0.033046129282748436,0.06131623756471743,-0.07202109904002944,-0.10117201449319052,-0.11835783137785866,-0.008220905882783508,-0.017651788759196124,0.0659093914331062,-0.04919451599523618,-0.038826454904470495,-0.1497301130630507,0.13826248147556683,0.07708360805689513,0.06625068262341641,-0.04241767330030445,0.10069144898797949,0.13477999670742252,-0.08185818612485793,-0.08396494365841194,0.026402761840554574,0.05267554567870264,0.04561138654010085,-0.1070007719827977,0.0580309090135346,0.05953313051056666,-0.03232185894805956,-0.21440239242133716,-0.0701206125814091,-0.023903501136239933,0.1670637166687036,-0.0360595005467232,-0.008127872016661975,-0.07305853031899169,0.15549223096128165,0.05674294879719357,-0.07992000529667116,0.08267950702356237,0.01708547491676962,-0.06681274813221198,-0.20932682659940702,-0.024102192046982735,0.10475542913696437,0.005485568931682008,-0.01501940006066292,0.2306291560306412,-0.35270981640813315,0.02857121482265964,-0.006031201266162071,-0.07450476751913464,-0.038973498791042394,-0.2043933914821963,-0.09342825739462225,0.07600981261898411,-0.10703536492007502,0.1948824678752867,0.12305729237308367,0.07797723834886934,-0.05654681960970304,-0.30989808038015776,-0.1380940970680945,0.28630358498792535,0.2780694794777692,0.04447829273244094,-0.02386360648419981,-0.10035790636228809,-0.05800109228487346,-0.06796010376889043,0.006327798841051567,0.12844161719469704,-0.07012217425368845,0.06483661555412808,-0.3979247220287194,0.5186801769323864,-0.1453212866349123,-0.15630692005667687,-0.06512536820103185,-0.0484852956912725,0.0273580879821839,-0.015756543551945987,0.28648728753144975,0.10265089838606047,0.18528267552178626,0.04785289096805115,-0.012989318643424043,-0.21740398663338992,0.07979463031238317,-0.021031139882089513,0.04462690483078602,0.0457849704810927,0.11389839344976682,0.05223188497007126,0.10817253460434907,0.030626233588241368,0.06700186326738523,0.13108983962293605,-0.3448941367935076,-0.10919237190789557,0.22707362237303905,0.05974173245946795,0.0780991970085998,0.04389623693485179,-0.04235181555631378,-0.07509632902504135,0.09836886904750333,-0.40115129268007516,-0.15517978064714305,-0.07840766215222374,0.1380614890187155,-0.06713857157511845,-0.1784813937440234,-0.11282019036674497,0.09765441331366279,0.03410542661206487,-0.009144157192083812,-0.21046072148756456,-0.0210972488106906,0.019830123394730573,-0.07489073048463761,0.0787547975101227,0.004888334177386346,0.07072885253382559,-0.0768475048638147,0.005611807436426228,0.03810719983053977,0.00868500343407303,0.025536282140426306,-0.1714392245822143,-0.005720356849445872,-0.17274418298547523,0.08592423285042461,0.3501195267027133,0.14409227556130144,0.029737267599491357,-0.028419283951579968,0.050102444966306045,-0.08001476745730247,0.20771115551054806,0.20342117428536038,-0.0982485344080844,0.05462061075449865,0.11489067933834364,0.016635962631496925,0.23535410137433,0.041044057011094294,0.21782428622137576,-0.2864038058229687,0.0897512954797007,0.14960352075169603,0.09966750088735855,-0.07547268230509617,-0.12587133365007913,-0.006248509170216263,0.011960978420947128,-0.4423951294692153,-0.022434117957106398,-0.04769921531786743,0.08357390381838418,-0.054019836808976075,0.03468752284251366,-0.1919088011653048,0.3037225888134021,0.22751349767881546,0.20928357911155882,-0.08110403084975408,0.11503054142792464,-0.04089437144127061,-0.13679771391207715,-0.006553185825757731,-0.13022261078248323,-0.14477282320407045,0.1301462899602309,-0.26059148865884685,0.2938679363457237,-0.1541444176411338,-0.11588054507724521,-0.05744594885019766,-0.07692230819829694,-0.09104582643969397,-0.19720086186865526,0.09751022732552056,-0.0505797633687196,0.20610319520181494,0.001127584458193459,0.1504466247460838,-0.06883813527977402,0.16112487487725197,0.01657782463689453,-0.05966799501029964,-0.07051563914581817,0.04388749544651731,0.1547920123935027,0.05586226227235557,-0.011938162214438788,0.005539443906043011,0.1937175686095369,-0.0673482648941104,-0.033730432444717205,0.20198221550260967,0.10795372697098864,0.03223089824201605,0.05530886346147258,-0.022850621264482507,-0.1526634625838533,0.03119602467401222,-0.13343596961597956,-0.18201983820158715,0.02497032711458783,0.15770725960299078,-0.008880906038640847,-0.23790713407307537,-0.2556805157190683,-0.02289987373406218,0.12691489886747476,0.020471868027478662,-0.13172133155102822,-0.1397528607688745,-0.027041825494526456,-0.050188867462083314,-0.09789878551890376,-0.03637030162161373,0.023202466397414693,0.06493799760620743,-0.09614379808569551,-0.06703649295548265,-0.036708985454846514,-0.043196910811474885,-0.10027958965435561,-0.10041148734492211,-0.18421643780743033,0.061521483015153006,0.1818216916620784,0.021087127858335674,-0.06348201852225498,-0.01501234646803064,-0.083522465214494,-0.08822434883230643,-0.059643500131130435,0.28536421319784533,0.02344206573016289,0.06678958322697123,0.10855963816486595,-0.0017509042400360737,0.019759619590578884,0.062041355420461276,0.2476491130603021,0.011439971102960892,-0.12843106404595536,0.14089483180769144,-0.03336563763369908,0.022121034722409165,-0.056245409786275534,-0.06748608517696587,-0.0685957122068548,-0.15518356637813888,-0.10788542796870275,-0.042980393415561,-0.0446701083116458,-0.011432020468012444,0.07253542756408932,-0.039701443357347294,0.3255889978744499,0.08689731651780311,0.28603155180452605,-0.038083652767777726,0.1388868356164341,-0.017835340022409697,-0.06121749648233299,-0.1307358929179838,0.06845810607669106,0.02255587972966756,-0.06235520935739716,-0.14955323116637106,0.19156533654046984,0.006929139449540385,-0.12240372947823017,-0.04556701226581915,0.08074137363780737,0.11323665179810465,-0.013634604946829911,-0.10450965505142339,-0.08085551364376227,0.12592191161959687,0.017850154646369756,-0.1452435748514925,-0.11114541651103513,0.09975126072510757,-0.06709912978330174,0.07705872360956484,-0.19964075278259405,-0.09831925798467524,-0.05926403583069665,-0.043667836629563285,-0.036205318108734195,0.15167000276141646,0.0823946558614881,-0.14607643346266647,-0.09239141036772743,0.14677405948345773,-0.04850492203552131,-0.002126237144610908,-0.006285644908716689,-0.008179397934912376,-0.0050666179895173516,-0.06571546149878656,0.05078498577418324,-0.04044208206778654,-0.12145715903523303,0.1465703070553843,-0.03324380849858764,-0.004241208925915585,-0.011293355200339687,-0.20186657124474122,0.08318845198426046,-0.10443899031774298,-0.0548871322815043,0.08266787910404559,0.030897586973607366,0.008043481190031121,0.10595900368576493,0.04683800027761283,-0.05105373353253344,0.04748321891424183,-0.04899833783589507,0.1583440377546335,0.015191605433893139,-0.01951995856398901,-0.12227383881461963,0.06137080532704146,-0.1566136592093846,-0.043225912565289175,0.09738942198839637,0.13582869653613644,-0.031032269379524857,0.13419280692404748,