# Architecture: 354,32,32,8
# Learning Rate: 0.001
# Momentum: 0.9
# Layer weights below: layer1, layer2, layer3
3.211240563359139544e-01,5.557891000916558299e-01,-6.446253003512041335e-01,7.545352922796311201e-02,4.973317744057449974e-01,2.135102902787512635e-01,1.476910967421050380e-01,6.508789479456110472e-02,3.949453708752754810e-01,2.992973455639682534e-01,-1.056951865777394639e-01,2.280619861507285073e-01,1.254536682823394478e-01,3.130594904322898664e-01,2.912912488937058897e-01,-5.242272545519713334e-02,2.898396037532827152e-01,1.875469139633960114e-01,-4.006453518036574568e-01,7.015335842427172786e-02,-4.403161451355128708e-01,7.026669535964230606e-01,5.220162165868005300e-01,-1.243508838345117468e-01,-2.450865819089987907e-01,-4.832927075806767725e-01,4.037681736648774389e-01,2.897867241519417880e-01,-4.910284034577420686e-01,-1.644770701146408276e-01,-1.658523842707761153e-01,8.067715034408261265e-02
-2.893668159579962026e-02,3.535307163602848662e-02,-2.668067799975816778e-01,-2.809303352507550380e-02,2.973088514225833978e-01,1.784296838141525565e-01,-3.465855964272927109e-02,2.239463447860360473e-02,1.517135797596743385e-01,-3.672075027186938456e-02,-1.997229647629927551e-01,1.665164945232077975e-01,4.334101584304616422e-02,7.967567665788205522e-02,-4.754890387383496619e-02,-1.632914614553496874e-02,-1.127559896503760595e-01,-1.917180842794381432e-02,-1.914069985987078559e-01,1.915469262518493532e-01,-1.676263362495264697e-01,1.527761941616609109e-01,1.148201945594657936e-01,-1.266576072741929238e-01,-5.098064614762493063e-02,-2.257589066615008078e-01,3.686573707274579809e-02,1.702706527477667597e-01,-1.918056693969561466e-01,-2.145077284110021298e-01,-1.243980426985802912e-01,-6.926333613426045865e-02
1.096883948770950926e-02,-1.595991776600910739e-02,-1.426823802357159998e-01,2.572613430057515971e-02,-6.178515304707282718e-02,2.418006896363537536e-02,6.029384665024237200e-02,1.106124407374552436e-04,1.230104366904541391e-01,-7.635460423632654814e-02,1.689644744125424689e-02,-4.184141333549882408e-02,-5.983464893749107505e-02,-4.502025750302359602e-02,-1.671638001702680301e-02,1.400042619995955917e-02,-7.818971582336582682e-02,6.872266563073325951e-02,8.574818183739037550e-03,-1.092002971483348323e-01,1.036327127703339096e-01,1.716503990291974313e-01,1.072433304833828177e-01,3.298521851955722554e-03,-9.549550928354431922e-02,7.108224880341992846e-02,4.068989629879843774e-04,1.121950090702104053e-01,-1.621915156645713230e-02,5.122086670611262355e-02,2.150723104400375715e-02,5.673489945101046344e-02
-8.710439099670289065e-02,1.771461571980151861e-01,1.258359734678483055e-01,-8.269760082519717059e-02,-4.849828372457836573e-02,-9.127593825122531923e-02,2.713790301182769909e-03,-1.195792968422863985e-02,1.501472905923430592e-02,2.176607867488743742e-01,-1.244309564859989309e-01,1.351084053662697688e-02,2.053948086683024810e-01,-1.422337362960723883e-01,9.509102199560326429e-02,1.531094542717753582e-01,3.583456668859685140e-02,7.635404602693965370e-02,-8.702916280917534497e-02,5.709087109341127314e-02,2.899092631996753530e-02,-3.991685456578492053e-02,2.526897067895438401e-02,2.443137720877851526e-01,-3.901398535580682253e-02,1.404561516217853745e-01,2.286954463648820657e-01,7.365557096344507726e-02,-2.617470795523804128e-01,-1.237759412460059244e-01,5.571322797484398043e-02,1.569374908990530948e-01
4.960485838299202171e-02,5.736227558066322313e-02,-7.846433419502950313e-02,4.204827754022719827e-02,-3.943594854532147392e-02,8.530488694362969165e-03,-4.639028090091812384e-02,4.688491848356434594e-02,6.876271046641133089e-02,1.289445208385993011e-02,3.107199147440129969e-02,-5.910728097082409288e-02,-1.268468824038852250e-01,5.692979153539409753e-02,7.407879527820248472e-03,4.115488384293070762e-02,1.858136808138667606e-01,5.732347770318139968e-02,-7.406125465601259839e-02,7.556114446923614669e-02,-1.101814253185262465e-01,-3.139060181186600212e-02,8.451553198928726460e-03,1.208313931699551286e-01,-7.420393949577673565e-02,-8.039498082041605931e-02,1.226427843629007350e-02,-4.260130635201373611e-02,5.594839834814364227e-02,-1.015544288276941515e-01,-8.143258739693268189e-02,-2.247522526467561621e-02
-1.183147982131668302e-01,4.343808492788679421e-01,-1.583659806688032246e-01,-1.122957099278064919e-01,1.028993410239006923e-01,9.404426873948075472e-02,-2.649412979608535904e-02,-2.465684913132697512e-02,3.642556361588451530e-01,1.276468117324086604e-01,3.853073104684812122e-02,1.266693991836217725e-01,1.907639762722111373e-02,1.765208786492175955e-02,-6.943540997633976253e-02,-1.219784171588567528e-01,1.761883372533304751e-02,-6.569858692717341075e-02,-3.637055169050193437e-02,4.092628969993577365e-02,-1.852363307207226806e-01,2.090900168483540711e-01,2.779938356666375454e-02,-2.607949707830333197e-01,-3.159161533689147650e-02,-3.324568962006189121e-01,1.378407992480419342e-01,1.868737638198671447e-01,-2.370178514979137396e-01,-1.366703852633833483e-01,-1.058269676533397374e-01,9.614727727200005070e-02
-1.870131119644786186e-03,-8.594073025545673206e-02,3.713252192574816035e-02,-1.880046472289205461e-02,6.726332440290357095e-02,7.153393543115885156e-02,1.570115513356512560e-01,9.962691738652006135e-02,-1.340707729637819444e-02,-1.666156773936254901e-02,6.532324489839021198e-02,5.621168002135551456e-02,5.522456589165472551e-02,-1.327152713776084125e-01,-2.985819089522839462e-03,-6.173865436421619585e-02,1.572315461762574529e-02,-7.223847495411290370e-03,6.738861430178144651e-02,2.797208515374040305e-02,5.118553078638664322e-02,-2.589693360802476294e-02,-6.760060994381250632e-02,-3.488877243679692347e-02,1.116704076311509242e-03,2.110161863175308641e-02,1.727074528427727795e-01,3.578335523561021123e-03,-9.266536566062130720e-02,-2.656873481310040308e-02,-3.508800744102615748e-02,3.712299464365090979e-02
-5.569825888981754652e-02,2.840814260768728117e-01,-3.144096483914186058e-01,-4.393910645535337861e-02,8.006197598137067273e-02,1.356036356407473720e-01,-4.755717889017851280e-02,-5.800048014023142379e-02,2.009422352027673275e-01,2.317460145948812833e-01,-1.315711564067645334e-01,2.020399556782855877e-01,5.338448152101980728e-04,3.201547213434575989e-02,9.598988731844382283e-02,4.193020340296065018e-02,4.016595832152574513e-02,2.442318636340826826e-02,-1.875575308005765773e-01,-9.645359185687414627e-02,-1.522583623519512819e-01,1.759267132090200081e-01,3.454630585746835125e-01,1.534919020267286327e-01,-3.257362970113427125e-01,-2.752331312542167230e-01,3.420826518702891339e-01,9.315238815803618400e-02,-3.412529792956354169e-01,-1.756656250958546772e-01,1.258550542648133146e-02,1.031052568882842579e-01
-5.394660035598582842e-02,-8.263924056101934479e-02,-1.424626276114611678e-01,4.475688955802544639e-02,-8.318425210266131020e-02,-2.599339740389504383e-02,-4.162505303149358765e-02,-7.098518903505222737e-03,-1.279231037717923347e-01,3.611097075638746573e-02,4.382688162576834495e-02,2.718946830947852056e-02,-4.607226801042146186e-02,3.326312095437056887e-02,3.048452393280961376e-02,-2.095431198728038014e-01,1.528881134261443620e-01,2.862565662986792450e-02,-5.905286829083532252e-02,-4.696204956983648926e-02,3.387608425882844554e-02,3.165566806913520676e-03,-1.332361878369133779e-01,1.639682439046755702e-01,-2.845772835069350359e-02,6.310926713820766421e-02,-2.798714366561170369e-02,1.200055749870521521e-01,-2.045801946453214715e-03,3.688524367716894403e-02,-7.746996465028790912e-02,9.664590337429317113e-02
1.650132167602589087e-02,2.291507528561742002e-01,-1.159784026367044335e-01,-8.371294212964505710e-02,2.027946481436047332e-01,-2.243732174755912537e-02,1.278534109545430460e-02,4.626076264898746487e-02,1.780708062593176766e-01,1.542634133959588649e-01,-6.863790019643500884e-02,1.525196399353576371e-01,-1.353769589594014111e-01,1.326790927625990379e-01,-1.327514845522829133e-02,-9.506991269444195480e-02,1.071705016153198936e-01,-1.074257093122103768e-01,-1.364821340896681112e-01,-1.283165630808545954e-01,-7.639594910822078769e-03,5.386559038769057201e-02,6.705563693860430718e-02,9.992017096083270766e-02,-1.747390895673925360e-01,-9.431435540943167162e-02,1.133377790641527105e-01,5.264148783140688154e-02,-2.109418096755670269e-01,-1.108747342379281242e-01,2.134909177658087312e-02,3.314772617327597232e-02
-6.691392506699937737e-02,1.174319864057364743e-01,-1.207748979627725761e-01,-3.731116612692578216e-02,-2.691008714552555522e-03,-2.346142556072555035e-03,-2.226237777422048966e-02,1.507337829961938880e-01,7.780254696801626457e-02,2.671559791283963370e-01,8.000337539514063012e-02,8.489930585007240960e-02,-1.183237364279366988e-01,1.136723013953902656e-01,-2.572686903231882205e-01,-3.605064801803004731e-02,-1.060058350639609404e-01,-4.363079818855546133e-02,-4.092501100595588581e-02,-6.525397691651584802e-04,1.794280262079857649e-02,-3.677335232184630182e-02,3.881332420792711624e-02,-1.425883029301124316e-01,-1.399517841305827348e-01,-1.396050170141115432e-01,7.690298106203162509e-02,1.808839636042716692e-02,-1.473922408464516387e-01,-5.959412824587504570e-02,-9.862376440994078883e-03,-3.951551106622758214e-02
6.441950497923691621e-02,4.601659305764546626e-02,-1.060685249268117358e-01,-1.085489946620622898e-01,-7.581548475334719261e-02,1.942742390124873805e-02,-1.372944841280235133e-02,3.041455397122878879e-02,2.465481523485515691e-01,5.292230318424779451e-02,2.881345541597211957e-03,1.036732974559776282e-01,6.717979128838247327e-02,-3.993435750426060915e-02,-5.363197999586062463e-03,-6.454603039406239806e-02,2.316734593951389268e-02,-1.678168419549484758e-01,-1.183667877849662632e-02,1.592460559618924867e-02,-1.642754224884671044e-02,8.745235082165547791e-02,3.959633297090485449e-02,3.427819013508623391e-03,-8.011455159966043458e-04,-1.878966764608522300e-01,9.047750306433860468e-02,1.496575160234147883e-01,-3.078674481978994071e-01,-6.643221671875594592e-02,-1.696998611559875636e-01,-1.875372521367353607e-02
-2.734032677146113616e-02,-4.994721710146549781e-02,-9.282114038044625426e-02,-1.849157073578134858e-01,1.567124128002053973e-01,6.062555086560518502e-02,7.141819788421799320e-02,-3.251597447880503339e-02,1.267851954340502019e-01,-9.215613090569911570e-02,-9.554800574353437825e-02,2.083175222542461846e-02,1.076229543103575242e-01,-1.074464301709823939e-02,9.880961099671450865e-02,1.834915384254072815e-02,-2.873371793562806698e-02,-1.430079676475668193e-01,5.267151894891514835e-02,7.848960430801431298e-02,-2.066325624020826368e-01,1.126288074040153603e-01,7.516108759041499610e-02,-5.251000899722237276e-03,-4.703960979223929806e-02,-1.034610676742032942e-01,-1.867970456441605739e-02,1.158678099146281948e-01,-1.754164369399789924e-01,-9.028361101472079375e-02,1.430619540869377260e-01,9.399906187641111910e-02
2.084385371376219504e-03,7.981971167468600303e-02,1.906170921392889156e-02,1.149269445558737529e-01,1.306655717519956406e-01,8.542606855458234616e-02,-1.538050981079637780e-01,2.071683756740210283e-02,9.400698801794259152e-02,8.691915709907088727e-02,8.696860620063803782e-02,-9.718186041163506816e-02,-1.686214773803515476e-01,1.371562551542143404e-01,-9.760174155610368274e-02,-1.522507000300476199e-01,3.344388789202849127e-02,1.598635134158112731e-02,-4.481807023069096785e-02,-5.819137966110011356e-02,3.766251375343948604e-02,6.014659637012913923e-02,9.205754071104065017e-02,6.552263474435946269e-03,-6.992296493142567682e-02,-1.996829331982946099e-01,7.057599102212001874e-02,6.180045151866561670e-02,4.213202934906568053e-03,-8.132343298170660595e-02,4.862275492952144312e-02,-2.953801687099806561e-02
-1.005033131643157107e-01,9.397956375430516207e-02,-9.357068786962288720e-02,-3.325153176423788909e-02,8.679205637565082232e-02,9.483763863260694094e-02,3.983971421226439186e-02,1.292689356774562315e-01,1.454919041671982882e-01,-1.384932491278011990e-01,-8.656193634317733976e-02,9.686393999442757807e-02,1.111875235894573682e-02,-2.106671021364810437e-01,-1.215396743065308253e-02,-6.337076326840336560e-02,1.530428567730365320e-02,1.107125916902302748e-01,-8.297494775751824980e-02,-1.808268379590594402e-02,-2.670497420595608906e-01,1.291234828819443903e-01,-1.245433434122218269e-01,-3.104513575188551019e-02,-8.537293642525942139e-02,-6.133701592335798203e-02,2.568239385284242782e-01,1.280573559346992740e-01,-1.516677648598873107e-01,-1.168154367486036183e-01,9.489220007439434779e-02,6.543777439779352445e-02
5.552994442170831879e-02,2.791650336418160516e-01,-2.447581939745147872e-01,-2.518510694494621033e-02,1.740493544631195599e-01,-1.483231341182263407e-01,1.090057495685621269e-01,3.570597079835689802e-02,1.456838899050125757e-01,1.936485602753973134e-01,-6.593912249220376665e-02,1.509446601113324793e-01,-1.138400333404000486e-01,3.051148826867384201e-01,1.870759887848955638e-01,-1.044367831983912115e-01,-2.394490737228803165e-03,-9.195197710699415383e-02,-7.887153992822890092e-02,-1.495196507231736083e-01,-5.487739312374476791e-02,7.224657476059563599e-02,2.181920917968976914e-01,-3.938001734711090579e-02,-1.761836560690694387e-01,-1.662072064092098289e-01,2.981387974324297557e-02,-9.148143726410985777e-02,-3.321262624971718092e-01,2.863231628589261654e-02,9.929865240524504699e-02,1.552630658701075195e-01
-9.667902713635823098e-02,-1.441505059070207102e-02,-1.812030914319076313e-01,8.518158977713342211e-03,1.216033756419143408e-01,1.235481407391745418e-01,2.452657927838320859e-02,1.295104039350863101e-01,8.476404920524355235e-02,3.552198076315976616e-02,-1.272616226669782136e-01,8.027772142408386158e-03,-4.564346520392447565e-02,4.042613017593459784e-02,9.888493794156517913e-02,6.709189045248556416e-02,-1.313434896109143823e-01,5.031114068093647806e-02,-2.144202114957743099e-01,-2.712705464336600137e-03,4.046766204681736395e-02,1.030047705180453521e-01,6.664414267218627449e-04,-5.365783099233323306e-02,-1.152630820153799224e-01,-8.829741623459350097e-02,9.053659196667603049e-02,3.968771129135204717e-02,-1.377560019877945852e-01,-1.634775130368354423e-01,-2.169033282277401178e-02,1.344948461545026064e-01
-3.066363247012790158e-02,4.608673889184917993e-02,-9.375273150481440443e-02,-4.889854130401297821e-02,2.258423259305488984e-01,1.230050436332843639e-01,-4.319542436886279063e-02,-3.073590510102125473e-02,3.304172129948468872e-01,-3.049853657863798029e-01,-1.577056643249070689e-01,-1.163493509001608112e-01,4.450162767397906616e-01,-3.646019256971303468e-01,5.014182303871742574e-01,-1.002208656321371821e-01,5.899459612817998799e-01,-3.517910669503933607e-01,-3.465767279634503484e-01,4.587195262689479081e-01,-5.561907814089504104e-02,4.645453284975722963e-01,1.356675334700749025e-01,1.064135742936492268e-01,-5.353830196772589589e-02,3.760077853415775828e-01,6.039934010729770125e-02,-1.062018421028847713e-02,-3.353852099143084797e-01,3.352991156893131430e-01,-2.158086165946693780e-01,-6.360128051891739132e-02
1.347472565987782589e-02,2.134135420098537128e-01,-3.636772259063695834e-01,1.153471558008480058e-01,1.108551585649561882e-01,1.066879238813127490e-01,-1.145327445424987045e-01,3.721363690693593740e-02,2.896046360278506926e-01,1.994239058226397188e-01,-7.421745446220950893e-02,1.831159090615904206e-01,3.143278342976259937e-02,9.258745633011768519e-03,1.499844445883030952e-01,6.296712569421401839e-03,9.742802527030307302e-02,-1.827425305410994572e-01,-1.938454826274001730e-01,1.745236444381107199e-01,-1.956266514478935126e-01,1.944255684631533698e-01,1.616661739777914830e-01,-1.667343110430635211e-01,-3.311058704663016328e-01,-2.549595836426048479e-01,1.144811662090938209e-01,1.899380803797444395e-01,-5.029478724688437596e-01,-2.096475035460825531e-01,-8.108106424565970916e-02,-6.733370826077099761e-03
-3.511994912243329159e-01,2.814300482605281428e-01,-2.895866758912189753e-02,-3.052354846960440571e-01,-1.832955718157634750e-01,-1.660135934632610277e-01,2.079323451291212876e-01,-1.685411166551919471e-01,5.798164953511358854e-01,7.921755783264849970e-01,1.408291234495258615e-01,3.919447151233940718e-01,-3.478949444220219012e-01,3.255716205945880515e-01,-7.237201252543831176e-01,1.047705346883710531e-01,-1.077255547068405456e-01,-5.368925930992790585e-01,2.044952262244259245e-01,-1.550746974247750876e-01,-1.007441904640921232e-01,-4.951129850980862113e-01,-1.815035900781996614e-01,-6.214390408330397464e-02,7.039526044677962835e-02,-1.948231336585408424e-01,4.872374731146701388e-01,1.468070014073408203e-01,-4.222167605258393512e-03,-9.333980947775638581e-01,5.157341240008539440e-01,5.317858913429065471e-01
-3.418316994794312613e-02,1.681031287605869728e-01,4.945029909986515398e-02,-1.304197916113868927e-01,-8.271570121866285430e-02,3.206648963351643039e-02,9.202597649603430630e-02,-3.046076542195219963e-02,5.535087421006320424e-02,1.956217364521901370e-01,-8.831604551209595172e-03,-3.736173294216186408e-02,-8.469355069223055699e-02,8.514557778921773290e-03,-4.633411960227874771e-02,8.260671563000115958e-03,-2.690408887052967921e-02,-1.218484093815771774e-01,1.126827217366422988e-02,-1.658860644239079363e-01,-9.982015592527032632e-02,-5.711620821905272899e-02,7.051824925955360590e-02,5.797589727059946491e-02,-8.661074334610892322e-02,-1.015195759068408254e-01,1.176631478982530649e-01,9.156161946688963493e-02,-2.824863292261903247e-01,-3.643085276118553095e-02,9.971896349716072999e-04,-1.050773357372990907e-01
-3.535021252726443519e-01,1.985785821157253633e-02,-1.710825240597235453e-01,-2.485927518900116762e-01,4.597688444506254357e-01,2.776326221257143234e-01,6.939781381359938495e-02,2.192927329788627866e-01,4.414750904117824559e-01,-4.959676980179612144e-02,6.043671767407290951e-03,4.999504173236480331e-01,-4.593568740859706456e-01,-1.813838506651743177e-01,-1.605046619595212054e-01,-7.014288324211622738e-01,-3.687674255527406686e-01,1.631390182259734034e-01,5.365395854119304753e-01,-4.872078123741782618e-02,-3.099722691597783797e-01,4.655183539187393582e-01,-1.563298060905659315e-01,-1.480328643056267046e-01,-2.375444727857301767e-03,-7.888276822916462372e-01,4.046239040477541543e-02,4.095830139369755485e-01,-2.752368870457682637e-01,-1.918684208261975388e-01,-1.121476305435272075e-01,2.277382182743430683e-01
-2.318627371078800861e-02,2.292583662242181353e-01,1.146653545918176371e-02,-8.708991841482914553e-02,2.123494825664923313e-01,1.599389497266996973e-01,-7.828528488145626574e-02,3.378626105608763253e-02,1.822124287681720356e-01,-2.238552975226707972e-02,1.738827857803628904e-02,2.353816260793619719e-01,-2.421217930998678658e-01,-1.256857799644179041e-01,2.839656970644385825e-02,-2.467622922362845417e-01,-9.441039371248115264e-02,-8.231148829700163372e-02,1.112384476740115868e-01,-1.788892300629290610e-01,-1.758206924706147700e-01,8.085332575760589835e-02,-6.100702132933104316e-02,1.418731809484233275e-01,-4.241675604992536409e-03,-4.266055454171947814e-02,1.024211627831428800e-01,-2.331508877322479439e-02,-2.707374294293703465e-01,-4.167239348879975963e-02,2.152537310786588332e-01,-1.333192473281234192e-01
1.671296200796305587e-01,-1.134236113391579731e-01,-7.065777785276088352e-01,-2.389584249890429613e-01,8.658494829018094086e-01,4.454756738141805172e-01,6.026610303065003255e-02,3.163309863693670176e-01,5.488096842755681992e-01,-5.475518261115904783e-01,-1.752778273469366710e-01,1.568536636980178978e-01,-4.797069491680276687e-02,-3.461712284737174933e-02,5.021951328723848196e-01,-6.994245444069903117e-01,-2.886034501625850957e-01,3.508222484800285756e-01,1.811199102689608764e-01,3.981213581757350184e-01,-1.387557236853647347e-01,1.435298344360509404e+00,2.299550043729843007e-01,-2.582185632908632900e-01,-1.484658176019251485e-01,-7.900188816971707162e-01,2.140698089784241059e-02,5.636703668986393634e-01,-3.322581177984906264e-01,1.856855250305039229e-01,-5.258162781090440774e-01,-7.099843161799683500e-02
8.519673534759564237e-02,1.772713509901777396e-01,-1.888108919244271822e-01,-4.845727818522283653e-02,-1.381906961301763818e-02,1.088097364318715010e-01,7.394077099627889040e-03,-1.912156767846436012e-01,2.363702178498676143e-01,1.568679475401207613e-01,-1.196082170818250218e-01,2.293449067062744984e-01,-5.842393724863275545e-02,1.341405313679122357e-01,3.973835896978522575e-02,-1.623224668293646311e-01,1.049346879137761923e-01,-8.345266655368979714e-02,2.166034839561986267e-02,-9.388106035677157291e-02,-1.567081579648923195e-01,1.102537219806082047e-01,8.380459115319123520e-02,7.440087483077720276e-02,-2.428541765768694460e-01,1.951539718715464625e-02,1.721456753780187254e-01,-2.192245185569819191e-02,-3.162829684655706908e-01,-1.875829002515026489e-01,2.148683168513257358e-03,4.062338747346633770e-03
1.124958749061288676e+00,3.961284569220403506e-01,-1.585602301728284758e+00,9.746185581262435393e-01,1.007326264496269941e+00,3.363535816065921780e-01,-4.661640124110753014e-01,3.976641580720939317e-01,-8.703844966007444617e-01,-5.940496989709487252e-02,1.463438985499959377e-01,-6.121801492006823109e-01,3.195079507249899420e-01,1.673466922357911502e+00,9.726278152579467262e-01,2.671575749162122815e-01,1.673958641840947725e-01,8.425695266644972481e-01,-1.063726139651908653e+00,3.227500734783201319e-01,-4.873378645439245538e-02,6.763105372771648360e-01,8.704009946088656635e-01,-7.533655020296594618e-01,-5.176345966716279223e-01,-7.467994715820979179e-01,-5.992421501890199398e-01,1.870049217391584750e-01,1.120359944839630431e-02,7.671958422121429866e-01,-7.488468936409625742e-01,-2.294552816730587308e-01
5.839986358036692859e-01,5.344788863463353357e-01,-1.839259605889871363e+00,1.451069526087720662e+00,8.035203228521166086e-01,-6.351590484963071104e-02,-4.090752924100115040e-01,3.827557273139877703e-01,-3.543171736493286317e-01,1.288940388903430323e+00,1.052420145532740881e+00,3.089577226060508108e-01,-1.310860652516437685e+00,3.611666136451494591e+00,-7.575922460145625981e-02,4.081063862669552234e-01,-1.113383274870841377e-01,4.845390920007993651e-01,-8.872713708351714912e-01,-9.533698903928067292e-01,3.356445529910146996e-01,-2.168638833764577056e-01,8.168968117758703684e-01,-6.315875172639802138e-01,-7.580995329748863032e-01,-1.347290625220839866e+00,-1.586393832809723237e-01,1.199998131305413940e-01,7.429604251845021157e-01,-2.612522117125643528e-01,-3.182951435979786692e-01,2.963794575967639358e-02
4.402402538989681757e-02,4.214357975239471088e-01,-8.386179641734831103e-01,3.233653518137954430e-01,2.968163055605013145e-01,1.614011399900603383e-01,7.638099958018795127e-03,3.943353254800317266e-03,2.142489355204000301e-01,8.099596751319094734e-01,3.421007090696224218e-01,6.206862864091534648e-01,-1.243639067465959869e+00,1.418365007833749303e+00,-4.279685567336684038e-01,-3.260404401630103144e-01,-1.019894022634634384e-01,1.249185712763881129e-01,5.707473983691301739e-02,-9.890724059850901639e-01,-5.289419041946726713e-02,2.661745677690749781e-02,5.415795887925699548e-01,-1.097207037049588718e-01,-3.432806344590779157e-01,-7.827620290121842794e-01,2.089645339941179347e-01,6.419214420001259636e-02,-2.782904798640818411e-01,-4.090972656368324634e-01,3.835248443429054022e-02,2.535135628867624669e-01
-3.174909077996362350e-01,5.483705839813195482e-01,-4.854597394739751937e-01,6.942973311647990253e-02,2.538415695221337143e-01,-5.585309314673975872e-02,7.532232313681433422e-02,5.903290974146042924e-02,4.762398916105963775e-01,1.202978990590833464e+00,3.743982431382463227e-01,8.744835537586289620e-01,-1.340643269865233966e+00,1.460864583480619538e+00,-8.432051880823830947e-01,-4.701121417979297612e-01,-1.379440661104449628e-01,-2.328518414939862169e-01,2.651735281615842377e-01,-9.475101187343670794e-01,-7.598498805540444823e-02,-6.723988911248733602e-02,2.511316986676713769e-01,-2.080551971241006715e-01,-4.067800397356922115e-01,-8.197484378770948377e-01,5.412196678120316795e-01,1.627269860018623893e-01,-2.641813707949952073e-01,-6.280738383256005974e-01,3.123728740973853446e-01,3.502442209866850620e-01
-2.488778143658082476e-02,-6.963248014775053063e-02,-5.187262756505955225e-02,-1.987631335046076420e-01,5.037310070825841146e-01,2.551021359381017706e-01,-1.553985905176983040e-01,2.035318955682836051e-01,1.608587315625890080e-01,-6.721301606864685807e-01,-1.496981870388832125e-01,1.690470018858892809e-01,-2.748267416513509587e-01,-4.085920184573108571e-01,2.926926090728085642e-02,-5.291665737287029048e-01,-3.127374246834161431e-01,1.948763286026356789e-01,5.333815273917488220e-01,-7.982777956510913805e-03,4.152511860597303539e-02,7.387482214440501682e-01,-3.444282504685816648e-01,3.527720669992809310e-02,3.159250554071186268e-01,-3.145102802965737410e-01,-1.022097015802164027e-01,1.314639251816261400e-01,1.798421810611960936e-01,5.198166916337562116e-01,2.451887746036723881e-02,-1.331703461311805337e-01
-2.730908829792474957e-01,2.975824471634008761e-01,-7.553582951143257285e-01,2.027516570797319728e-01,5.766632626778597226e-01,3.365060762923288151e-01,-7.773832967838487096e-02,1.305767254260510879e-01,9.657093969800160105e-01,5.309402441085232516e-01,1.863109947613946493e-01,9.083003661595078215e-01,-9.780430334313626739e-01,1.078036886598580990e+00,-9.380415458107425886e-02,-5.660105097369447780e-01,-2.896027147468394625e-01,-1.309058077471480508e-01,2.135126292516049407e-01,-7.581008039414451893e-01,2.840478928798209624e-01,4.163955004808589377e-01,1.256930109127279982e-01,1.510171673938365267e-01,-2.361637036074369367e-01,-5.940914175799137942e-01,3.440837615795636073e-01,4.301273057661708643e-01,-3.614280895858144188e-02,-3.893787013385026641e-01,3.390078097379007477e-02,1.423410526513085028e-01
-2.749182970491920175e-01,4.690106799836732399e-02,-3.417838841123875260e-01,9.211683552375486694e-02,5.060027185151746293e-02,2.042086595928262749e-01,-2.941227725393283018e-02,-5.201920851903618637e-02,3.173728334281769592e-01,2.385583777830436666e-02,2.914704030273165269e-01,2.445392338373882923e-01,-2.857405779115144151e-01,3.687960778949722629e-01,2.524137694823942457e-01,-8.871859594167134933e-02,2.320778241778511941e-01,3.844366905950240970e-02,-1.763326046135522684e-01,-6.308448815102971063e-02,3.671096405722527600e-01,5.149876489485842868e-01,9.330923816260568160e-02,3.623235984436647961e-01,-2.269130539033856198e-01,-5.372754586300684115e-02,3.315851186900491410e-01,5.559297462079526575e-02,6.628708247676912135e-02,9.451497475457029673e-02,-1.589107263864804331e-01,-1.305508210482559384e-01
2.627992165630707588e-01,-3.512640577221443072e-01,-5.532995556994898534e-01,3.236914222026502364e-01,6.259162900306561861e-01,1.287396583009109419e-01,-3.157774536127307963e-01,2.590792867101851527e-01,-1.972548464745391417e-01,-4.828213850071069735e-01,2.998878886262552612e-01,-1.106846056221320353e-02,-9.630440572762355433e-02,5.790579680028923315e-01,3.890170420317476396e-01,-4.671734584685893754e-01,-8.741252752222783418e-02,1.920195386638483270e-01,1.719980920115426193e-01,1.088568951261432993e-01,4.253183536002730358e-01,6.040404423342807805e-01,1.874159384050203270e-01,-1.486389732646642980e-01,8.719222162036852075e-02,-3.611516104241662695e-01,-6.348037263699881638e-01,-2.695870968561068365e-02,8.080093307874870734e-02,7.449711867637752727e-01,-1.607689521493237128e-01,-1.790228506228271343e-01
-6.382268323684259226e-01,1.010534934441391419e+00,5.927895754981114818e-02,2.449495313243171268e-01,-1.324486584549902091e-01,-1.044147777929596455e+00,1.584220123895797028e-01,1.285706134137486883e-03,2.419483982987287451e-01,1.258175463732029487e+00,4.444847321835173615e-01,2.732795638292868090e-01,-1.759324173194524443e-01,9.846783429809020660e-01,-5.237369339047762695e-01,5.630778924636623689e-02,8.265123159995348967e-01,-1.107465692474790542e+00,-3.295559318093827655e-02,9.321191648798139717e-03,-2.520747511579607969e-01,-1.083169290386691630e+00,-2.065973048958564817e-01,-6.039346579813806848e-01,-1.484598527067989282e-01,1.968552830108127594e-01,5.093458187759341005e-01,-2.882948822280796408e-01,-2.654038295081526666e-01,-1.128030885729259136e+00,4.909624527560846885e-01,4.631715376104456050e-01
1.713975910157484461e-01,9.826278797113924268e-02,-6.733496274716753716e-01,3.888314343721504529e-01,2.049522789472448259e-01,-6.656616824110164754e-02,6.277881299063479623e-03,1.103062841233876795e-01,-9.196633025761135477e-03,4.987924436639525338e-01,3.164595050113248043e-01,2.986635181015854235e-01,-8.341227008184854963e-01,1.356391722847441361e+00,-2.050630844665070340e-01,-4.731126637750453223e-02,-3.331299471776512089e-01,2.104023649901895221e-01,-2.358921290243423848e-03,-5.171649307552689256e-01,2.756436655689736281e-01,-2.482301945390460660e-02,2.458182658806409571e-01,-1.096703407396078106e-01,6.379996168860725507e-03,-7.089818179671927290e-01,6.435812456287236250e-02,1.917784819139683461e-01,2.530018759482715596e-01,-1.457823461514796692e-01,8.966466227670558120e-02,1.211820993125596949e-02
-3.170095445907920861e-02,-7.139684489607841522e-01,4.899581663600541814e-01,-4.509771429570091361e-01,-2.499376880340158091e-01,-1.157297269334173345e-01,1.716526106320470924e-01,6.668304108919793916e-02,-5.243772046773195195e-01,-5.212613512331435439e-01,-7.958519845318039188e-02,-2.180233800265669319e-01,-9.076197293235764574e-02,-4.305829306628737307e-01,-5.904431763596428295e-01,2.583515505994298245e-01,-7.830427627783225208e-01,5.319672517821381064e-01,6.999856087470285315e-01,-1.066831401772707771e-01,2.263368201165313898e-01,-3.122385380997778070e-01,-3.744472527269449014e-01,1.015075981280977035e-01,6.256903621628051582e-01,-1.780818580379071037e-01,-2.941289919705823430e-01,3.522160571761213249e-02,1.167083982107801177e+00,-3.066690379260136878e-01,9.870117961256899553e-02,-1.721331675603522127e-01
-1.471693757746448949e-01,2.043724029049098778e-01,-1.968263865602377649e-01,5.238725682889260743e-02,8.126850920423975277e-02,8.820371721044908964e-02,2.017466882071702328e-01,-1.188588877605492033e-01,2.925981537775820263e-01,3.506998281390246719e-01,2.350916866369861247e-01,4.926705734332811892e-01,-4.855498611021942246e-01,3.701856432989221735e-01,-2.012363536085520488e-01,-1.587148091428075281e-01,-1.044170331023696607e-01,-7.833835888855288088e-02,2.522523679519124706e-01,-4.736219118936689787e-01,1.050269274074056569e-01,3.482224425660902789e-02,1.345501083875212944e-01,3.655116796721466499e-02,-3.319708688369201605e-02,-2.900168195208946975e-01,1.813428084389541173e-01,1.506231731265291474e-01,1.332747290485233327e-01,-2.359376162045845882e-01,1.152410212006577811e-01,1.614314660112572686e-01
1.949162463322753058e-01,-5.822349306751737341e-01,-3.127070482517698147e-01,-1.373636448441763191e-01,7.440084736791111597e-01,5.670050196113354257e-01,-1.695076262759205588e-01,3.587596197398758568e-01,1.317378005545992159e-01,-9.337471669829537912e-01,-1.065247931908576140e-01,1.498573797166632693e-01,-4.123721541526740864e-01,-3.613216944149745258e-01,-7.069413224501819130e-03,-5.176023136573264516e-01,-8.436653233646552730e-01,4.753611479688453767e-01,6.278635398341686491e-01,-3.733665840074752440e-01,1.642207727877349061e-02,9.008138124385589585e-01,8.711837127391649366e-03,2.359021517591842199e-01,1.555695489248163643e-01,-4.217787169751619492e-01,6.281177146942042155e-02,3.092267701161937610e-01,2.689232227190921365e-01,7.556631824531173658e-01,-4.201767762461526279e-01,-2.389568160742186198e-01
6.838615974886278620e-03,4.739642398572749965e-02,-4.165786025660955794e-01,1.112175147260304753e-01,2.544948128741910121e-01,1.164089816165812764e-03,9.370666843858035944e-02,3.556231671716457432e-02,1.397888473977789980e-01,1.882930734828098529e-01,2.543339024742863330e-01,2.245302969163883444e-01,-4.847151750988289987e-01,5.722149316193495538e-01,-2.241172800508612478e-02,-1.145015870289327747e-01,-1.964995494127463604e-01,1.936687045011952490e-01,2.444421500807736000e-02,-4.120109408318832767e-01,2.460644482560203627e-01,1.259871124375057938e-01,4.289193467460890481e-03,-9.825878185694847389e-02,1.425251245270774680e-01,-2.672595774213486486e-01,4.793248228415947915e-02,7.354527235795318973e-02,2.000627172865258596e-01,-1.367911342640504117e-02,3.843178205394515851e-02,-6.121706060155002703e-03
-7.399023001448294667e-02,-2.436840849983309687e-01,-5.782465723178425998e-01,-3.849985457986596082e-02,6.357227961292258867e-01,2.599682373849636075e-01,-1.570097807742826257e-01,3.541472677668301705e-02,2.487870405826381748e-01,-4.226516168643654897e-02,-1.035514797200190115e-02,1.290530029721739247e-01,-2.189848800291676889e-01,2.910077898595710422e-01,8.209398664351233443e-02,-8.721310871760253047e-02,-3.793583881013957160e-01,4.615197603404069121e-02,1.374649764996596080e-01,2.226944700630608676e-01,4.686924932811391276e-02,8.456912682095314437e-01,9.029186235246232373e-02,-8.115898061598503938e-03,2.700564693814483386e-01,-7.049758321590938737e-01,-7.219006162189947270e-03,5.148805850686863916e-01,-1.794192423198300579e-01,-2.831696256073004681e-01,-3.326000168227834508e-01,2.454638341883913499e-02
1.887122995631316802e-01,6.837659149171282369e-02,-4.623000433343973925e-01,3.604887234890454262e-01,1.998342472909461487e-01,-5.868305449434538940e-02,-5.233372095568905591e-02,8.557515759838894842e-02,-1.664166726664455531e-01,1.783479728404159248e-01,2.574788042323924442e-01,-1.264884485377743839e-01,-1.383292487303276197e-01,5.712990798940307258e-01,2.943673349510525505e-01,-7.505789941596331671e-02,-1.161784233544479669e-03,1.978891546034221849e-01,-1.624221556988785231e-01,-1.823765683879516875e-01,3.823585420820543174e-02,1.785747880932831155e-01,2.376946988431233032e-01,-1.815110986606612853e-01,-1.800625984077705855e-01,-3.734143563883395300e-01,-2.142561769002278294e-01,-3.709747490558896674e-03,1.625360596548564296e-01,9.808426818893586918e-02,-1.367955251865725919e-01,-8.225525598487565260e-02
-1.374960258120437873e-01,3.506473825842810754e-01,-2.061141679986191189e-01,-5.911905415380822731e-02,-1.284918900411810283e-01,-3.450616920909724272e-02,1.259206294445487373e-01,-2.405931128747738623e-01,3.248503653118073875e-01,4.823201724407042978e-01,-2.170851011952643420e-02,3.919941571321886586e-01,-3.784279487898034589e-01,2.292548977226180340e-01,-1.478969729674521616e-01,7.892826432824281979e-03,1.763496140576490956e-01,-1.506041569814666192e-01,2.332983686024038203e-02,-3.492373821317047433e-01,-1.067822612109668723e-01,-9.406113209626029703e-02,9.788692717783128994e-02,9.745969318822223990e-03,-3.558649703412394838e-01,2.939643131311401106e-02,3.875745572010267925e-01,1.459302022016325251e-01,-3.923293851716286307e-01,-5.082740474883532533e-01,2.662968505388979001e-01,1.378976221480526787e-01
-5.990173787421280982e-02,2.072765500384116943e-01,-5.161656434480925426e-02,-1.122483002493362275e-01,1.759335773360858751e-02,-3.750660581836140484e-02,1.183583142645625030e-02,1.215844118701146642e-01,2.265385035438372552e-01,6.240041729987070296e-01,2.066843799721774788e-01,3.195406587163691636e-01,-4.686032665621017168e-01,3.103678263156702810e-01,-4.573474871497707483e-01,-8.220356386511905311e-02,-4.038167525084548903e-02,2.406386824069899066e-02,4.252982391759171227e-02,-2.966695956748334750e-01,-1.320732652568279986e-01,-2.283931076484254641e-01,2.425158437069461007e-02,4.114326781267302335e-02,-7.363147040422719780e-02,-8.735651699311490492e-02,3.237202105677493003e-01,1.170390681344281487e-02,-6.213621881516939033e-02,-2.486292411707540784e-01,1.704540136218053448e-01,2.182417625178889875e-01
-1.799079847540495380e-01,7.212221326377016295e-02,-1.670511622468366097e-01,-1.788368236917738455e-02,1.694753703752188700e-01,4.522542408358029564e-02,8.845284017826407497e-02,1.266024562557864219e-01,1.443132078212912561e-01,2.338685378348748789e-01,6.630719046895001967e-02,2.315941952005400872e-01,-4.219169194909362375e-01,3.297137715275109682e-01,-1.741884616522134388e-01,-1.454801419451133282e-01,-1.622746234897814999e-01,1.310244428658356164e-01,1.636257454332837313e-01,-3.607981132617962272e-01,3.312431891378991161e-02,-1.014398442877256779e-01,6.552983596593932314e-02,7.311837865527969459e-03,-7.337561207500836735e-02,-1.625346609489848326e-01,-1.102923498862756237e-02,2.029470984313494486e-01,-1.312955303305447362e-03,-1.701579091590011972e-01,1.284367147288778543e-01,1.176297421386457709e-01
9.094908056297248966e-02,2.507757236161097802e-01,-2.216666961060929086e-01,-1.967587284009601201e-01,1.100728493555758747e-01,4.353291002107363000e-02,-3.844213060351269525e-03,-1.738242343967350556e-01,4.794441449243181386e-01,1.801573258217930018e-01,-2.039491806678719321e-01,2.972651977053119010e-01,-4.851346225697229508e-01,1.592173197738444568e-01,-9.908896943265074753e-02,-2.148377996139313462e-01,-2.747370130866864935e-02,-2.637345130941564156e-02,1.421878737184035513e-01,-2.825852678843452925e-01,-1.870217626974768899e-01,6.917425611592876999e-02,1.541714985880755784e-01,-1.297648195314562436e-01,-2.664374109505666111e-01,-1.667221506548996202e-01,2.904526390573788364e-01,1.577711200108874168e-01,-2.299295883811573460e-01,-2.932925344468206297e-01,1.480992804177693467e-01,2.119040824029607972e-01
-1.583745407367704791e-02,4.190713134908641835e-01,-3.569125281622981816e-01,9.997268346802311301e-02,1.671560945454218516e-01,1.243755014288340094e-01,-2.138913353634228354e-01,-2.363535364737992528e-02,4.501306662977253015e-01,6.492091035814048228e-01,1.206236792870649527e-01,4.991444682852634873e-01,-6.054464068185023695e-01,7.356356666025679614e-01,-1.008829170195211788e-01,-1.603438673895048183e-01,6.224368223334908468e-02,-1.513279249064261311e-01,-1.624762206280779275e-01,-6.416423938417791240e-01,2.874844829284731174e-02,5.078400846133236668e-02,3.158912252656121966e-01,5.973787893055778481e-02,-3.773999843369036933e-01,-2.295891509591961310e-01,4.975617001724875754e-01,6.869989976162189926e-02,-4.648630252017135200e-01,-2.696957560756647054e-01,2.193412957603972091e-01,8.771694909853615385e-02
3.714298035916091534e-02,1.766472058841466741e-01,-2.922842152480844558e-01,3.137844300923373769e-02,-1.523334391644243571e-02,7.902713761361498945e-02,6.863032977944297230e-02,-3.775899533668858332e-02,1.492307678643646496e-01,2.529021219970333800e-01,2.926945300302703518e-03,2.693855833036087333e-01,-3.723313393362946422e-01,4.368868891565289014e-01,6.138920061369589065e-02,6.371399230899740806e-02,2.352338640193081254e-01,2.267393466282247375e-02,-1.133680382304120687e-01,-4.555376624226482596e-01,-2.568424817611987890e-02,7.685457419397048739e-02,9.049253588009920080e-02,2.597234515411823152e-01,-2.484529877619354177e-01,-8.742123366182005806e-02,2.154436404079058676e-01,-2.408025663574334813e-02,-2.052915156252897999e-01,-1.177624763131241425e-01,8.514581725624711939e-02,-2.209702336438024162e-02
-1.115538933137344979e-01,2.228154993051715826e-01,-2.137893252262927923e-01,1.069577147589930444e-01,1.293697168232282868e-01,-4.816687393213951035e-02,-8.387884186116181806e-02,6.112322491746334518e-02,4.532774043225233120e-03,1.128448737654679512e-01,1.385192621554578729e-01,1.570437344752192432e-01,-2.023009155750388754e-01,2.841641403175335090e-01,2.820956310198399417e-02,-2.875572949048869897e-02,2.292618977342952558e-01,-1.176105438011522258e-01,-9.293319812358917520e-02,-3.980848817735711115e-02,3.729549932448960464e-02,2.031786870191020222e-01,1.648280724316170121e-01,1.533139791164684351e-01,-2.381230567722537605e-01,-1.579666352303053800e-02,6.265919243398064553e-02,8.497037682874240827e-02,-2.505119527736254792e-01,-5.414980804269312054e-02,1.088790915709527372e-02,-6.292634395037109696e-02
-1.007636997244363841e-01,2.014110299553919514e-01,-8.954211032576329943e-02,1.935338852762391289e-03,1.502786914901326210e-01,9.999118928685167551e-02,5.099168797298234829e-02,-1.891744120550973018e-01,1.574171177291880941e-01,2.715928166187853710e-01,-7.240375094849815785e-02,1.264315525409926699e-01,-4.895822985961573170e-02,2.135521428517256071e-01,1.288366145338149804e-01,3.394520728436833685e-03,2.116159656845332249e-01,-5.320817084799243923e-02,-1.549880762469488249e-01,8.742002402505442971e-02,-8.072579308826491329e-02,1.491088154335189764e-01,1.615490457261127000e-01,2.644391781123784160e-02,-6.634745012989114177e-02,-6.394371607924442813e-02,1.429117428397390088e-01,1.334219616830593647e-01,-3.995033562582497311e-01,-7.391452173665070957e-02,-6.848927783029081992e-03,3.322344204523980382e-02
-1.814783508183817062e-01,-1.428204400588971024e-01,5.372621598072944149e-01,-2.881003726803451626e-01,-6.944273830572792461e-01,-4.149140047851676005e-01,4.035614162290104279e-01,-1.216888622108272255e-01,-6.259797978441651589e-02,1.851995881767400653e-01,-1.774639775117931306e-01,-8.397562173547307163e-02,2.445021729903921193e-01,-5.946390436452481110e-01,-2.381633142771332201e-01,1.021830591325770428e-02,2.525255500361939590e-02,-1.361361052151428275e-01,1.169538243863309235e-01,2.028291459042023681e-01,3.470650121387014453e-02,-4.513427160870618349e-01,-4.372613070377134870e-01,2.226670566046687894e-01,1.726992575639535454e-01,6.563500097745058603e-01,2.903373472093196406e-01,-9.113056544010901538e-02,9.871126789669243395e-02,-2.622163784050942081e-01,2.116876377366006534e-01,3.468246894426647853e-02
-6.201358791528936709e-02,1.189497168395940441e-01,-8.244693737448045845e-02,-1.681070870358630787e-01,-7.890296644935475279e-02,6.807570350060838937e-02,1.309879819280282964e-01,-1.030675407351426369e-02,1.713869411544307331e-01,-3.931000458323753027e-02,1.095604735288736691e-02,2.951743594364521495e-01,-1.459033965924745324e-01,-1.663924717169517897e-01,-1.092906184182101947e-01,-1.443945533029883099e-01,5.228240349976188278e-02,2.543348147665434530e-02,1.176098763209719317e-01,5.457570796838689259e-02,-1.484488412179664485e-01,-8.522096368080865972e-03,-7.905845672493692911e-02,9.189876182126119342e-02,-3.719341891822483537e-02,-8.579489943720258749e-02,1.178771884759030747e-01,1.260022749683795684e-01,-2.697095235552896542e-01,-2.668062132615607596e-02,6.296555805873098322e-02,5.143587116836236678e-02
5.661242846206780005e-02,8.846358525145797680e-02,-2.342142431542305059e-01,-2.804725970255573034e-02,8.343910082819853968e-02,1.003405661447929198e-01,-3.831693151738246872e-02,-3.067105186475466497e-02,7.040481937043374661e-02,2.576537204790386726e-01,5.820724540545029607e-02,4.167032806919861859e-02,-2.053722918671751774e-01,5.165593370404226725e-01,-2.008633406658451859e-01,9.073205397310386833e-03,-8.277358741840386280e-02,2.375649595091249566e-01,6.585763243461173477e-02,-1.806016332202087515e-01,-1.540160934943115290e-01,2.270090310119908528e-01,7.662564716523025121e-02,-9.789724547189918025e-02,-2.577597947003542472e-02,-3.810632969252790714e-01,1.707641356698511581e-01,1.636932489215611186e-01,2.559246288327023805e-02,-1.095816644119314287e-01,-1.794910074591669902e-01,-1.362016048977342519e-01
-4.672049631898218813e-02,2.512302183097821495e-01,-7.601770824936289472e-02,-8.867452588607427355e-02,2.692874983438288210e-04,-5.045785658032092037e-03,-4.122407643392977938e-02,2.354516021687777516e-02,2.860765945991767395e-02,3.205946706379342870e-01,4.274363009823922005e-02,2.903700387201714750e-01,-3.005143977611514083e-01,1.864796850566705355e-01,4.725860109661034203e-02,8.170255425400110502e-04,6.904708502414422244e-02,-3.953095424698452320e-02,8.792593050760754564e-03,-4.446507237667440132e-02,-3.091341667637354418e-04,-6.886110101905033865e-02,1.050712401669601226e-01,-6.790286102656834834e-03,-4.875239177729893958e-02,-1.518855747719752014e-01,9.443520531745012991e-02,1.081879845442684368e-01,-5.860480655205344697e-02,-1.458627651610703568e-01,1.187076448648623772e-01,1.213528310903327218e-01
1.550177867968194623e-01,-1.138443897436880597e-01,-3.396483283754607729e-01,7.065023616084309399e-02,3.271112466529726426e-01,1.609924804049361613e-01,-1.797771112856118986e-02,1.527714032924247789e-01,-3.662692113837087704e-02,-1.898446823324879684e-01,-7.167437611592938906e-02,-2.133480686136188798e-01,-4.077783213607817647e-02,1.262812724913125739e-01,2.897683431430891354e-01,-1.939164223192429981e-01,-3.173313283537750329e-01,2.563248520445820522e-01,-1.758637132342368362e-02,1.005634846855027464e-01,-8.116525628636056533e-02,5.717868923098030631e-01,1.480030991258425299e-01,-7.924775670761008417e-02,-4.605258651622563121e-02,-5.025015548410252109e-01,-5.744664365837507530e-02,1.582039206733320269e-01,-1.465830064987845745e-02,2.345136521545935770e-01,-2.508672121892830398e-01,-1.305997139067739954e-01
5.619336325033483931e-02,-3.192536114384443482e-03,-9.218869774328980471e-02,4.819071592755688055e-02,2.352446746447259818e-01,2.072692403650824300e-01,3.871772382342298334e-03,1.219345431163367105e-01,1.412042311586065024e-01,-5.456133780353856350e-02,-6.730300297975352897e-02,2.799215953847306732e-02,2.817242630358033836e-02,-1.874749625128262487e-01,9.339054822723152904e-02,-1.673804716300770767e-01,3.550132315354558726e-02,-1.515568864777160629e-01,-1.899012685988455962e-01,-4.334806120566637999e-02,8.669434124657521279e-02,7.053838210514383478e-02,3.366844593996366763e-02,8.349274070587379970e-02,4.610295438231423043e-02,-1.426544378017303716e-01,1.064522484674961383e-01,6.903244537606530173e-02,-1.817934512144573356e-01,-1.724798921365353066e-02,6.951461656689933433e-02,-5.333004579090932368e-02
-5.084708259176507622e-02,-2.530755921527924612e-01,1.802620968586642891e-01,2.509508787814307851e-03,-1.361468187594259138e-01,7.410055670943131723e-02,1.426476635276849661e-02,2.568539251960252554e-02,-1.552616218308437990e-01,-2.674273800946145307e-01,-1.579452701882671506e-01,-4.745317539950022478e-01,6.191618625228311190e-01,-5.820443582473985300e-01,3.725507079517388909e-01,1.474279096604506900e-01,3.905015498972103094e-01,-1.261252808685506821e-01,-2.547065536932918706e-01,4.474665894421303580e-01,5.916924438695385369e-02,2.026899449605348569e-01,-2.970536654032027157e-01,1.490003958812926022e-01,1.620181055953453519e-01,6.746563643709846403e-01,-3.122589717679692956e-01,3.745754183836655371e-02,4.632113164092315459e-03,1.781772229207879144e-01,-1.527055761038177695e-01,-1.357712806547917705e-01
-1.711636468375791476e-01,1.517412075611268008e-01,-1.295821091408173031e-01,-1.068299037589916928e-01,-1.012363460569411754e-02,6.495726565629744709e-02,1.089183935623860497e-02,-4.379950533023609788e-02,2.338393934922056161e-01,1.386679921457444342e-01,7.031980035802952445e-02,2.616357108540680043e-01,-8.224000056322590402e-02,-4.825163690654002413e-02,-1.455038705969688428e-01,-2.477007236406673224e-02,5.670069834832846406e-02,-3.750804899049672153e-02,-1.514669964561001225e-01,-7.310042605353629652e-02,5.157113830910674095e-03,-2.706431395126513220e-02,2.374577145383708482e-02,-5.319095887162070962e-02,7.426596462497228601e-02,-5.118362009355646031e-02,9.304006051805348287e-02,-3.814634076921318701e-02,-3.332678973147628620e-01,-1.344911806434204715e-01,1.111135241374284904e-01,3.304864049469962567e-02
-7.721684878724605072e-02,1.025270872519885718e-01,-1.300208982768413096e-02,-2.880189667838805034e-01,2.093049063815907371e-02,1.061827431886929211e-03,1.462639021968989983e-01,-1.144077739833527646e-01,4.559768237758261150e-02,2.777694278566825853e-02,-9.531993896593886351e-02,-2.758586940850491637e-02,1.258582758148280856e-01,-1.625707255633393467e-01,-3.020920302944355221e-02,-1.099431203952812436e-01,1.406400781434300438e-02,2.069265145167854536e-01,-1.012373506872739082e-01,2.136001372089991190e-01,-3.221179606363526737e-01,2.476086681928121314e-01,7.930419873529338803e-02,-7.831002463751567111e-02,-2.344080506386941876e-01,-2.029743062924303509e-01,1.069297941431184007e-01,6.152335573484271625e-02,-2.257036260594821042e-01,-1.331334655152779933e-01,-4.780837940948255010e-02,1.408537316011163054e-01
-2.465540468242866934e-01,1.165976800398927260e+00,-5.719425343710298204e-01,-1.001121806388352908e+00,-1.605108340795725619e-01,4.672400633476550547e-01,5.338069962664261370e-01,-3.297202572812261145e-01,1.575554059701294252e+00,8.350987543514266642e-01,-4.945078157495674809e-01,8.269371584965965472e-01,-7.634985490240267514e-02,-7.304315346464707037e-01,-1.588670165921853006e-01,-2.602302239893691804e-02,3.601938623347760160e-01,-2.909435585631051091e-01,-4.735434925023991881e-01,-1.140417710794730533e-01,-6.249966950243259767e-01,9.252642305465563766e-01,5.481606228235714751e-01,5.982391127895672067e-01,-7.718818720865519012e-01,-1.854526172124159877e-01,1.876986365708993798e+00,7.745970292123774970e-01,-1.599505328460810949e+00,-1.374638742955744064e+00,1.337956800319961836e-01,5.151660903671427816e-01
1.521692523983193546e-01,2.683230446802123415e-01,-5.914876353549255450e-01,8.354960273689321371e-02,-6.551998038876691299e-02,3.243962741227896518e-01,1.664191962269976621e-01,-6.969128348979587717e-02,3.864234187208007154e-01,2.775821263919616886e-04,6.553274824887936334e-02,1.064131035483957544e-01,1.352027363101633572e-01,1.069559834340969712e-01,2.030627899224557720e-01,2.757382022761434848e-01,1.459913457712797291e-01,1.169214995550705016e-01,-4.711641204861081178e-01,2.036001978025341885e-01,-4.043933806283562041e-03,3.610479984174729262e-01,3.928258060656155126e-01,7.346699711588716708e-02,-3.342643414754201681e-01,-1.471080526451623016e-01,5.807009679387495904e-01,2.256084088550805444e-01,-4.833335919705297745e-02,-3.631491338346221065e-01,-1.005616065933859493e-01,1.775755354116227425e-01
7.135572137300827400e-02,1.971383401623324760e-01,-2.650583071908607646e-01,5.882225269143608049e-02,6.109387667357664420e-02,2.374669752955670468e-02,-1.499394570686630665e-02,1.780991067205485445e-01,2.752549745530179504e-01,3.837635804615206481e-01,1.842937279529971439e-01,8.840452377283625207e-02,-2.723918553901633621e-01,4.924149119795103724e-01,-1.819957741565996281e-02,6.390908695461586242e-02,4.465317239589966514e-02,-1.938223396964713907e-01,3.091390940364030157e-02,-1.611474999210026626e-01,2.763927725556677463e-03,6.485086119825042572e-02,1.811183400504025043e-01,-1.789280784045572670e-01,-1.280449639759975722e-01,-1.947049646170605219e-01,1.869111648330178677e-01,2.378784340708372802e-01,-1.417801924940368941e-01,-3.495777122524053593e-01,-4.395144633425909081e-03,1.190101086481928361e-01
-1.815588527542649488e-01,-2.578298596260753667e-02,-6.155685641120008100e-02,1.321696333121766091e-03,3.459561328017402709e-02,-9.055155517446114577e-02,7.490601696769257078e-02,1.336904633377999363e-01,1.870165915663977649e-02,1.395069836999018320e-01,2.550712953165733266e-02,1.822148205336309723e-01,5.316314393784372233e-02,-9.846153166774149201e-02,-1.152550258023185906e-02,6.691560220947692650e-02,6.836480057886606780e-03,-2.357735323473673233e-02,1.054444541661578999e-01,-7.043394039106200266e-02,-2.405045540311976770e-03,3.254318070583698402e-02,-2.380664880723748489e-02,3.649935731452281108e-03,4.794443950413594668e-02,1.831613144613560701e-02,-3.570674726961614587e-02,-7.431405837121078661e-02,-7.582482299009908611e-02,-2.162153942650320987e-02,-2.013774591568894858e-03,-4.381011172434395168e-02
1.583602653293259832e-01,-3.059111306688900855e-01,-1.690057498360144185e-03,3.943386769291579164e-02,-1.056500919688217466e-01,1.361516897766786582e-01,5.313479361403875001e-02,-3.618142611301393419e-02,-7.498152073754801861e-02,-3.041295020410180738e-01,-1.116529740749695881e-01,-2.418821022688726619e-01,3.584934024776581518e-01,-1.693034820020669629e-01,1.663642033385974439e-01,7.550538084550470486e-02,-1.335079138779290409e-01,5.847017357643401192e-02,-1.968835076367113357e-01,1.116842926279169035e-01,1.998991286011665355e-02,1.486294575951382368e-01,3.748697745052272795e-02,7.846284861264743449e-02,5.758819439058614209e-02,1.664241610197151888e-01,-5.797828430245678677e-02,-5.354300013391569135e-02,9.804055735722227993e-02,2.902022293152551335e-01,-1.439845028893178003e-01,-1.877600963922958499e-01
5.192987116316580276e-02,4.510563727617127039e-02,-2.641798310399096628e-01,4.934893040342116372e-02,-1.159462214458394785e-01,6.624931275085188531e-02,-1.338362977275420196e-02,9.503855711129956252e-02,2.488430100729057889e-02,-6.123216158747550597e-02,-9.284473658896962717e-03,1.030208640052837216e-01,-1.581998940383356686e-02,1.850773937456135984e-02,5.441952816131560150e-02,-1.078242140206801120e-03,-8.510064629041613413e-03,9.754199237036373371e-02,1.199697434821747760e-01,4.491201387968398601e-02,-2.908280690071629593e-02,1.449668680164429291e-01,1.009189430147938299e-01,4.503351477905296468e-02,-9.905690846462740506e-02,-2.941943239626294143e-02,-5.179319382675262595e-02,9.583010368036024712e-03,-4.912929614740656724e-03,7.367219739581348141e-04,-4.407028273871692325e-02,1.064962466661281276e-01
-6.032464667747549497e-02,2.683448767765049814e-01,-4.238903402977013402e-01,1.728886218582605383e-01,-7.720472799165103983e-02,6.524328208634606885e-02,2.248965713327493940e-02,7.442931179117557444e-03,-7.903924578590719452e-02,2.326123467888253360e-01,1.965991849183296170e-01,9.958190702667488181e-02,2.295349482059969026e-02,4.967817698309603958e-01,3.762052539083516473e-02,5.398277763695708692e-02,1.252743117578788805e-02,-5.736005852645598146e-02,-2.753248909322468796e-01,-5.554791745687391938e-03,1.807927298572141808e-02,2.041945590382704401e-02,2.707583923013916483e-01,-5.221961354853306252e-03,-1.314307156840838209e-01,-1.135212462166152597e-01,2.511799287792749191e-01,5.650544964468640768e-02,6.987614884210757715e-02,-1.374915160043741758e-01,1.565105444051107242e-01,1.612599139475023868e-01
3.439434953219183688e-02,-4.600091013942955026e-03,-6.383984570631759392e-02,-8.987160268132221574e-02,3.093761267851476149e-02,-8.971657475831158746e-02,-6.029601623354088891e-02,9.753024850829447590e-02,1.413605922612325150e-01,-1.657149995662694497e-01,9.633827068768814617e-02,-3.499767719399062005e-02,4.734727840453225450e-02,-6.766011223128826080e-02,1.054666762313091755e-01,-1.258313133967583486e-01,3.568293608040928183e-02,-6.856219374635826036e-02,3.799571650114690752e-02,1.574471063598038012e-01,-9.757028631900527618e-03,5.238443651842489973e-02,2.641052427416758566e-02,-6.407024987092574397e-02,1.189781220133708795e-01,1.393159753701630754e-01,3.954633063152041689e-02,8.666288610229935449e-03,-5.403115251392962698e-02,-1.851444841810937630e-02,1.135665159626566278e-01,9.800330502829972257e-02
9.489169143369878545e-02,-3.146001476088228777e-01,-2.092779784646668084e-01,-1.526200742058377302e-01,8.601899179515880289e-02,2.571622819751692712e-01,-8.236675743288693341e-02,7.767029616126001901e-02,4.748311190631707840e-02,-3.299543346604204563e-01,-1.810128875880184507e-01,-1.992659104222445632e-01,8.962968660248470110e-02,-3.031276236263525936e-01,1.404497877611425583e-01,-4.714870932418781940e-02,-1.118904243306977908e-01,1.936270774247723370e-01,-4.663513213366658750e-02,1.170744739499063325e-01,1.462967635962660329e-01,2.675025422228298200e-01,-3.699402698379158222e-02,3.649142198507077106e-02,1.133992244928404280e-01,1.022313612949925371e-01,-1.423222894634229851e-01,1.675917789316519815e-02,-1.200955106835216030e-01,2.986050134016635105e-01,-1.973709998311840852e-01,-1.408357906291365091e-01
-1.536548313921271558e-01,-1.109067676982399137e-01,-3.323437722206664530e-02,8.548580260393939811e-02,2.254665282774719406e-02,-6.670059687710096219e-02,-1.092677604303860378e-01,8.875994982451387502e-03,-1.357158756195295524e-01,8.526985738358502931e-02,4.707264219880709193e-03,-1.294266147551317581e-01,-7.840971979361313626e-02,-2.751108646925103443e-02,-4.156997673081221090e-02,-8.590350609359118095e-02,-6.651057058854856208e-02,-3.193069609671576881e-02,-8.390997693644443312e-02,7.511107738275887846e-02,1.692520657590520713e-02,-6.560407104000276490e-02,3.126005706437008126e-03,-4.904532795490508523e-02,-3.697477667122994749e-02,6.457829613579134376e-02,2.629259856372202775e-02,1.719351705826930310e-01,2.683733888925374927e-02,-5.277295698491347997e-02,4.838554230187167710e-02,7.085185892432875610e-02
8.030887039672840455e-02,-3.960115593118790356e-02,-1.026032071865533857e-01,1.336265158764594618e-01,-3.653936313199814684e-02,-3.386719519654136923e-02,-1.250734564665091086e-01,-4.716601864290652368e-02,-1.724844848210623990e-02,1.627390851188200704e-01,2.731531034357864013e-02,1.488873038311464177e-02,-1.986826169425569555e-01,1.756713532374238884e-01,-4.196586460437684574e-02,4.449085741202218891e-02,-4.167329448312572827e-03,-1.411507799016418208e-01,-1.306161332800778209e-02,2.260882531965207470e-02,-4.329782451595069054e-02,1.678992582164589020e-01,-5.645580005553491043e-02,-1.304548927944786628e-02,-8.575249972718615443e-02,-1.567775157887118798e-01,7.885988090860199251e-02,2.086532967102962266e-02,4.894370828771320986e-02,8.406206473038720442e-03,5.411310170313697598e-02,-3.018847134300235713e-02
-2.552463017121803929e-02,1.541762650582065575e-01,-1.925636306891201910e-01,1.772013413855109965e-01,3.089059066510805446e-02,1.327054036668647106e-03,-1.066565574619587203e-01,-1.615046782106132062e-01,2.291796781826079543e-01,1.191354491422125655e-01,-1.313004312242299632e-02,7.196075615585609264e-02,7.452143483976820040e-03,1.264487745272924457e-01,6.286565781588172863e-02,-6.864488952676250921e-02,1.732036443162790484e-02,-5.608190522319403751e-03,2.644852935546554082e-02,-1.030646723757887295e-01,-9.844476782921161850e-02,-4.866954988053874553e-02,1.826282551703563850e-01,-7.872328761686857301e-02,-2.196591409750325019e-01,3.315873509636488303e-02,-3.494698166499039110e-02,8.990748668925127585e-02,-1.381293622164868340e-01,-2.632111839256012081e-02,-4.262063306713326921e-02,5.269136875859822128e-02
-1.006321235938917730e-01,1.238662182232592168e-01,-1.701475238264570783e-02,1.204893080917712467e-01,-5.496043247482777783e-02,-2.576884023725531381e-02,-5.018466005507349337e-02,5.015073866494029753e-02,4.154331721090688545e-02,3.849449107667467229e-02,4.344908014234412363e-02,1.237547917759617006e-01,-7.081427237884957426e-02,1.939217287879904938e-01,-1.563927869665135695e-01,-8.759050492281515721e-02,9.383671280309724763e-03,-2.321576818887617633e-02,-4.741275275132212502e-02,4.939796053633298961e-02,1.257092757421610953e-02,3.218602774562231289e-02,-2.604746500197723316e-02,2.177206070996540177e-02,-2.002025885386372051e-01,-2.136593245122677537e-02,2.577879937735436458e-02,-5.274345340254242565e-02,-7.321359400450193344e-02,-5.611481873924913100e-03,-3.170981039658318096e-02,-6.040939755552654673e-03
4.388965625076526877e-02,8.924182297044240542e-02,-2.924363292951948426e-02,7.888099294441233700e-02,1.118618769603606927e-01,1.667990109663872733e-01,1.192438361712253383e-02,-2.499619303766766748e-03,-5.189872425644644766e-02,-1.903587818560781644e-02,-1.145373405312392623e-01,-4.790482693894212302e-02,5.095125791751436810e-03,-1.854854860776813941e-02,-5.460441698306620073e-02,-7.393859099635939625e-02,-2.947983465970597725e-02,-1.466686800382518453e-02,4.969564374459980484e-03,9.559998946569416012e-02,-4.594717102363869883e-03,9.058738105380785555e-02,2.079452962737074473e-01,-4.236033120733835589e-02,8.017573340412978422e-02,-1.406533181779959507e-01,-1.290597081068527163e-01,-2.586943655743752235e-02,-9.154858308210230000e-02,1.645773332345868605e-03,5.723928360972245499e-02,-5.001286787199621213e-03
8.563332734191643481e-02,-1.402469225669420935e-02,-1.311654939774236084e-01,6.064691143241039001e-02,2.812511041525473932e-01,-1.245389730939776111e-02,-2.245388328344007783e-02,-1.620877013538313260e-02,-7.166746439516696876e-02,-6.378706651969640040e-02,1.473266912467815180e-02,8.318629193449909864e-02,-3.434338412869961110e-02,2.637829062240797454e-02,1.080396450964715704e-01,-1.070692405779570117e-01,-2.295444156498948479e-02,5.233403756767780052e-02,-1.383632685396628259e-01,3.817296308558905393e-02,3.488311619400505381e-02,1.870751428460312449e-01,2.006369911847199483e-01,-1.608253363057336738e-01,5.244842213442729023e-02,-7.691607512739254138e-02,-1.216120551636823977e-01,5.050329614973893266e-02,1.049544006561970236e-02,2.757545532414716616e-02,-5.450709845754578287e-02,-1.130425956555050349e-01
2.051260486977731206e-03,-3.500117222741372380e-02,-2.097747351685860795e-01,5.666386405797542436e-02,1.590264130515495200e-01,3.332840310189793404e-02,-1.436161080992166827e-01,8.213887907241262942e-02,4.210212098500869249e-02,1.360809780284195636e-01,1.193207426503319624e-01,1.990590278716860007e-01,1.485663872675407893e-02,2.498001520602138037e-01,2.411906334608011557e-02,-1.246650187427438827e-01,6.449254933678591484e-02,-1.027728865021355770e-01,-1.385732788717654873e-01,-6.611529221815214304e-03,-5.806045282480348096e-02,1.153323230558204043e-01,1.339048556580666738e-01,-1.842254606522187865e-01,-2.778395351378249445e-01,-2.384667015075424279e-01,1.703099409357769836e-02,-6.795112783441628612e-02,-1.504759560952926845e-01,-1.242240442566622804e-01,-1.038443078110844013e-02,4.793374164813556104e-02
7.813254125465234068e-03,6.901460151787705555e-02,5.933185339930984598e-02,7.884925823397620492e-02,-1.176633585198526566e-01,-6.395723349883743192e-02,2.838821212553737164e-02,-3.997866054010746489e-02,-8.148278573999392926e-02,1.793276909702368541e-02,6.894917225166269370e-02,6.047190248783707728e-02,-2.126736427078934968e-02,1.508883786551400985e-01,1.491802996746191849e-03,1.501428377008627024e-01,-1.204161162860154432e-03,-5.117597753061610411e-02,-1.433559190869034827e-01,1.124274531398528759e-02,2.655021588371690375e-02,1.034458163070225423e-01,2.094569111274783083e-02,-2.737732910190900093e-02,8.899778702139093944e-02,-3.399211491284185455e-02,-6.957359960858176817e-02,4.243682858918255280e-02,1.005498690091816312e-02,1.090733417690933488e-01,-8.892770099730626376e-02,-1.847399890235151831e-02
4.975149841686836438e-02,-5.039434166673053411e-02,-5.633526761413792244e-02,8.614007400849893470e-02,1.094118194490023843e-01,7.867523423916455982e-02,-7.855670110443085941e-02,8.322630557189210354e-02,7.230476746247135877e-02,3.031024540652852220e-02,-7.892670929204398389e-02,-1.650750735834295713e-02,4.821280007720109284e-02,-2.138802955412095336e-02,1.873451041247185117e-02,1.127871754973759633e-01,1.081393142654415579e-01,1.017793214930715479e-01,7.238751570712079197e-02,-5.142209093247995799e-02,3.835222456738217323e-02,5.225898293159064734e-02,-5.115986437274668702e-02,-6.376815864498783237e-02,1.923313612891026231e-02,-1.008967883959731721e-01,-7.645182770234797143e-02,8.954861731145855042e-02,-9.218400282802484413e-03,7.633299075864259653e-02,-3.706074052962896742e-02,-5.698926376563022422e-02
-2.220312888631174042e-01,-1.696519355016040675e-01,-2.784506810350054901e-02,-6.911687452720233216e-02,3.441877820748184824e-01,-9.554509893814190635e-02,-1.373952051700022825e-01,3.235915652478273397e-01,8.797897541390356513e-02,-6.412037288083227704e-01,1.893601600099892660e-02,-2.149877995069686132e-01,3.711774375009060378e-01,-2.997794637205036805e-01,1.841807356201794477e-01,-3.770315295796402566e-01,-1.402290861735505934e-01,-6.959954706862159224e-02,3.138801723630950113e-01,7.694456401468993123e-01,6.902672334284495892e-02,3.347545249881143659e-01,-3.228217820407194294e-01,-4.731880943843895237e-01,5.224232727322808412e-01,-3.150363265292062676e-01,-5.328147820360392695e-01,2.663124471646286517e-01,2.686261293966284436e-01,1.687528012474751038e-01,-2.430569243884491970e-01,-8.023502626568974894e-02
1.091407614128810377e-01,4.882532754826706539e-02,-3.539733703921087438e-01,1.385255722195868622e-01,1.476755708591316885e-01,1.242164211520715711e-01,-1.482294732079713628e-01,-8.848541832594499987e-03,2.070261747366371197e-02,1.304948128637959948e-01,-8.075885075078202691e-02,1.268358986309275349e-01,-2.059445529153025589e-01,3.032290335738678788e-01,1.128522755932299948e-01,-1.475243897602455390e-01,8.063284723023821099e-02,1.015192443149503382e-01,-6.529615495724118424e-02,-1.614477700188269305e-01,-1.540245470978239550e-01,1.206434873800708296e-01,2.522884747933141769e-01,-4.164349494670355895e-02,-6.578207596010007818e-02,-1.691620022157025727e-01,1.247628268298078963e-01,1.377246312286065644e-01,-9.626588800733042184e-02,1.073876459912767069e-02,-6.993122884063343592e-02,1.249022365593709522e-01
2.871322744675625788e-03,1.412280992428182336e-01,-1.837012982400480776e-01,-1.177424693965145458e-01,1.563373149352736136e-01,1.709652641598724820e-01,1.912635221578228573e-01,1.345203602927005360e-01,9.079406030180809176e-03,-4.469992150477606341e-01,2.136232297928772894e-01,-4.450162849254675201e-01,2.558962472845924818e-01,-1.999645325004376639e-01,3.003209429425345856e-01,-9.965163445728593417e-02,1.519185969137885062e-01,3.584557294498337543e-02,-1.470588492358291532e-01,4.899698074048798868e-01,-8.753267612829951361e-02,7.225330515409214005e-01,-1.037129990051354061e-01,-2.357995804660233397e-01,2.321581773057066356e-03,-8.442495225964441463e-02,6.287236830230562290e-02,2.683865434022155716e-01,1.328508521785056185e-01,8.260646252575434834e-02,-2.083698660889715670e-01,-1.817134003331905695e-02
5.451740486525188251e-03,1.133240771207264484e-02,-3.202979106657135450e-02,5.706218119355511292e-02,3.236134798302517379e-02,-8.492989639926730450e-02,-1.321222016072172434e-01,9.265443798823271015e-02,-3.046609009159784859e-02,7.068230882374365587e-02,-1.617335663546954488e-02,-6.936534976002080299e-02,-2.517161243419265698e-02,1.005216916021475365e-01,5.747065960645311028e-02,-4.208465375281573301e-02,1.068818093785312839e-01,1.911343773820237818e-02,1.406271906654679715e-01,-2.281149330757180002e-03,-6.920767443895849136e-02,-2.295429607582471186e-03,-7.168406694946648228e-02,-1.991000876040660006e-01,2.132145334573428905e-02,-4.590538531686221696e-02,-3.223200895536039445e-02,6.349062594701396570e-03,4.269701672174826962e-02,2.913424739357890758e-02,-2.914827501424943276e-02,2.373243762810126056e-02
2.446753006613225923e-01,2.671446329471544034e-01,-6.471918420098099478e-01,1.568128015480682869e-01,6.930466889946229614e-01,1.292238399411978211e-01,-1.565103377479921121e-01,2.053928799613702338e-01,-1.036141380918684796e-01,1.242650297235140255e-01,3.454590403677800237e-01,3.590242565249630036e-01,-6.656187819873365941e-01,9.072701783781468299e-01,-4.558953107331607801e-02,-4.832029432564670102e-01,-2.322878903561860497e-01,1.052265377986580791e-01,1.886994845759228934e-01,-3.827979975351705200e-01,-1.419093074054215975e-01,3.378844927413671706e-01,4.593142622282186394e-01,-3.554478336908284963e-01,-1.351560646245683617e-01,-8.698405206211508034e-01,-3.025839356515295786e-01,1.453768689192831420e-01,-2.069067996909619012e-01,4.028640509825174854e-01,-1.204052149489781426e-01,-9.627866442925872570e-02
2.052462554530936345e-01,-1.530311943874976960e-02,-2.234642102305357259e-01,8.118340890644781815e-02,-1.276647744211293310e-02,2.741861855382216398e-02,-4.515767035426523218e-02,-1.213918767131916959e-01,1.106797069910844811e-01,1.066174998733140228e-01,1.121625471905420279e-01,-1.810847918761281372e-01,6.848031914053351321e-02,1.918173400846995835e-01,-4.393344249444301047e-02,2.970588045708983937e-01,-3.324832000095502560e-02,-2.506552121072024297e-01,-1.404661871223543967e-01,2.064084752118033328e-01,-6.171457733562765724e-02,-5.192644886761010881e-02,1.913335801574969353e-01,-1.833436445702671391e-01,-9.866287436785318998e-02,-2.007506144508493240e-01,-2.074004664625928376e-02,3.738401460937468973e-02,1.437471783346027931e-01,6.092580705615276843e-02,-9.183006079897482188e-02,2.926978997872211608e-01
2.027423959093630212e-01,-9.753072891153883317e-01,4.337479366454781160e-01,-5.443134070284527670e-02,5.642795996753270371e-01,1.252615938488787217e-01,-3.601783973869948086e-01,2.094311647603083748e-01,-4.066326794438517300e-01,-1.105096353052293034e+00,-3.686755604561598454e-01,-5.539030058617919750e-01,5.509138008159335520e-01,-6.609105191872138851e-01,1.785543776208805278e-01,-3.144347293762693174e-01,-5.871490638952013841e-01,4.289366240305455547e-01,4.263099500758305016e-01,5.391299113620244832e-01,6.332528852864348357e-02,4.792541814117922128e-01,-1.841253534701191852e-01,-3.840872756969609392e-01,5.804392028332535647e-01,-3.674948843053556513e-01,-8.727169579514565401e-01,1.259004982491375990e-01,5.160555172285528069e-01,8.711216128232548428e-01,-5.582061177399233465e-01,-4.361785734332055964e-01
1.514225274061463955e-01,4.989884070680902783e-02,-1.247456151402536184e-01,1.380897640757501599e-01,1.446358569278406725e-01,1.804236672894828780e-02,6.495891062897078683e-02,6.178413476865713544e-02,3.551858940427148666e-03,1.150667093964169579e-01,1.091517861946626061e-02,-1.339265079034438199e-01,-5.803298100355441108e-02,4.050569547299645579e-01,-4.142861622497880786e-02,8.610920939860239320e-02,-7.839640197854781667e-02,7.369134733353639721e-02,2.802526391403818706e-02,-1.055936334223739476e-01,6.540497480747409220e-02,-2.866181736458724844e-02,5.919109186756248836e-02,-1.342681162219786228e-01,5.856802575102335040e-04,-1.984904237619320722e-01,-1.657015325615953938e-01,2.135656827799992802e-02,-1.320671074219310348e-01,7.479233175024205260e-02,-7.818443717694599504e-02,-2.542328488012321041e-03
-7.317616312408455059e-02,3.536302701137253313e-01,-9.088790691472499184e-01,1.115064294340094575e-01,2.768286050908647794e-02,3.963505162625219347e-01,1.670289472845967182e-01,-1.672274440542698137e-01,7.688938327320928856e-01,5.592264204211674361e-01,5.731997872566595431e-01,5.639385525902851359e-01,-5.873223049523472739e-01,7.856084727807348678e-01,-2.544769557027333762e-01,3.394410606830174371e-01,-1.142860743272711282e-01,-6.730278879992404595e-02,-4.548313814009971034e-01,-1.792458336157099581e-03,3.076857281399231758e-01,4.415416705025814181e-01,3.801601087182902572e-01,1.358605132827869766e-01,-3.898042606009054500e-01,-8.407798745485519643e-01,3.860094494848422819e-01,4.261909967962601020e-01,2.541094281815529585e-02,-6.710938702157521751e-01,-8.714376576201111890e-02,5.294844271928372814e-01
-3.158135746744062944e-01,1.591187680251917314e-01,-3.595379797209053985e-01,-2.838616021463759576e-01,-6.714214347689886897e-02,3.506955732197804543e-01,3.317131096985355132e-01,-2.165348928956213614e-01,6.201473934439298841e-01,1.761366755627132019e-01,2.591032545117571972e-01,2.807550357117720163e-01,-4.773157123267958435e-03,-1.733805232297393750e-01,2.065505513517593497e-02,3.345349508560986895e-01,1.561970894226163975e-01,-1.965566268056171406e-01,-1.340765067507543873e-01,2.589860495997782786e-01,2.609939307506730088e-01,6.088280923137998624e-01,-5.216482410580918633e-02,3.738408051297322232e-01,-1.572276140628586782e-01,-1.515214802269697347e-01,6.289351701790744098e-01,3.926338107443106407e-01,3.206596578827399652e-02,-5.172888377892223000e-01,-1.447787371297758752e-01,2.654283888946741832e-01
-1.696130997961122211e-01,5.276449691242796058e-01,-9.777893121107258390e-01,2.441708393084359996e-01,6.359506478096801918e-02,1.581658301919472709e-01,2.414013230108431329e-01,1.271275235748252352e-02,3.115076062537122659e-01,1.114995173887227020e+00,8.594717977757783123e-01,9.174542159312283340e-01,-1.669821191365655988e+00,1.892843960146131099e+00,-5.777385335967041291e-01,3.171449304995520579e-01,6.223106380968544682e-02,1.022054248554954414e-01,-1.429353673081969478e-01,-1.191072251082743838e+00,4.036875685775255795e-01,3.416785927005989293e-02,7.051751939324539808e-01,3.905142843163657007e-01,-9.192477054061928277e-01,-5.456057487296909203e-01,9.658293838567511003e-01,9.598174296267861227e-02,-9.898767985445826312e-02,-5.573284549881249994e-01,1.988470844800384052e-01,3.315868195111287275e-01
-2.851589523144832383e-01,3.398600791122464715e-01,-5.576978654364014298e-01,2.776848895525860922e-02,1.310185003507562118e-01,1.846829170470199455e-01,1.699036502877181165e-01,-1.368025887916384520e-01,2.345063352757174313e-01,6.952262834174045558e-01,4.829898119768103459e-01,9.606345233404069983e-01,-1.699333223494260636e+00,1.108259611957879587e+00,-1.001301627055535493e+00,-8.072041931099778467e-02,-5.232168603803798446e-01,1.346135842222735968e-01,4.193320421176626733e-01,-1.193591363996186594e+00,1.496411014067877410e-01,9.480249742264501567e-02,5.539174271484199191e-02,1.908991991938792099e-01,-4.333069574018469372e-01,-7.349998365474057493e-01,4.812501176820396243e-01,8.206366397459062545e-02,-1.524469287107980131e-01,-4.421474337854347514e-01,2.114665225703263041e-01,2.129968588306029587e-01
7.837097983168089810e-03,8.306918431520107227e-01,-1.203282199166707978e+00,2.281914314048312242e-01,2.270579464960304772e-01,1.106234462590860584e-01,2.674934191306082010e-01,-1.097265759290825676e-01,3.452421474104858112e-01,1.006924785994643079e+00,6.740433116057114038e-01,6.829268406108836009e-01,-8.537882980585985715e-01,1.858398146259472972e+00,-3.492228652824280744e-01,3.863227006824274112e-01,4.478650900022087405e-02,-5.681521433922820385e-02,-1.918157524911442979e-01,-4.484887994002823564e-01,1.175103338607491332e-01,7.375831021025292845e-03,5.299829058902585377e-01,-5.278562157338648198e-02,-6.106861931845685154e-01,-1.011146599792578149e+00,6.105994886661955112e-01,7.886826868928151213e-02,-2.434338721151862728e-01,-7.225026550169183492e-01,6.454844764944694946e-02,6.432125490737501394e-01
4.854037168339649794e-02,-3.880752447783364922e-01,-2.549394491091391268e-01,9.448956452058124289e-02,1.242979631355772135e-02,-8.426997281175639676e-02,2.397918028818498692e-01,-4.279097001801667605e-02,1.243958434752597680e-01,-7.440834193121077800e-02,4.051446928101118394e-01,-2.275428809461934876e-01,1.291447954907244400e-01,8.481489739553067508e-01,1.295102632233342543e-01,4.835267242235425367e-01,-1.722677647132758727e-02,1.258550487882020841e-01,-2.642421399960555028e-01,1.676437510983044554e-01,5.570134929836046966e-01,3.202573191645776141e-01,1.533778910330592382e-01,7.468028958998858269e-02,-1.471256974349431090e-01,-4.116287352141760891e-01,9.123949926254794340e-02,7.974068076929985427e-02,7.564778706785151297e-01,-1.272347656854441178e-01,-3.557829264272648340e-01,1.103286159714377129e-01
-2.663028861306256934e-01,-2.464924502561628705e-01,-1.101639842668506730e-01,-1.881911886586190852e-01,4.147963415558966194e-01,6.793157759323505129e-02,-8.014933535807251819e-02,-6.529147689884862160e-02,6.928488451472563092e-01,3.155172124002657008e-01,2.195828648055945381e-02,8.213824082085546818e-01,-5.806783250918967632e-01,7.912229526776092259e-01,-6.130216742520422368e-01,-1.774486260415332126e-02,-5.043184133707154793e-01,-4.498969808646158947e-02,3.128986082976645267e-01,-4.487047123567061702e-01,-8.484438729800775070e-02,1.963490471584371233e-02,-4.212765971642140617e-02,-2.580250894013671470e-01,4.073122862266295892e-03,-1.031854221955417206e+00,-8.174829812946614316e-02,3.094892040239090036e-01,-2.957649195123758235e-01,-5.237731623492482003e-01,3.415764509313150288e-02,2.851292855702093343e-01
-3.156298666152925203e-01,2.590043087267562827e-01,-2.845110931066445747e-01,-1.707772418512495671e-01,-2.983795754290918811e-02,4.640088729966811848e-02,2.471001079858726468e-01,1.191516286986184642e-01,5.328567925877303324e-01,1.424171611002838789e-01,2.720189082351323617e-01,4.338119777885736661e-01,-5.587904504145919660e-01,2.349179858237845919e-01,-3.495716622487879399e-01,5.695553536777955839e-02,-9.063186884065919935e-02,2.293740450357772964e-02,-3.290725737241474887e-03,-2.100936036746014757e-01,1.746028656490626052e-01,2.794515075245507241e-01,3.070063954020046254e-02,2.181291594212166896e-01,-2.018167825374942992e-01,-4.471781147180048932e-01,3.326812302922061426e-01,2.565076455229217678e-01,5.332979597228292706e-02,-4.986258951581459820e-01,1.783322155066982828e-01,3.325830989063751075e-01
-4.034725658694996997e-01,4.633270700382071117e-01,3.682376956019532965e-01,-4.792506178757970914e-01,-5.972468980355185586e-01,-2.340667751978627864e-01,8.841664712361643752e-02,-3.575175948795768499e-01,3.571842161916193303e-01,5.599926167493595175e-01,-5.607024225028146569e-01,2.396994772023853248e-01,3.192680778954340992e-01,-6.654185971665748101e-01,-3.257276253556927736e-01,4.058994201405818902e-02,2.302664182541543647e-01,-3.278090361100969297e-01,-5.762910756842157256e-02,6.959793397360340694e-02,-4.249337712452146421e-01,-4.834815973953424106e-01,-1.299817024276347377e-01,-1.999909914992649418e-02,4.932769812867320719e-02,4.405299835604817860e-01,3.467842795013984514e-01,7.175855458609539661e-02,-5.371471739748175933e-01,-1.101523968790228958e+00,4.597829076550768446e-01,2.875293153033721127e-01
2.028897867805806374e-02,3.874507581954728108e-01,-6.723669183285007067e-01,9.545320133844029109e-02,8.438901958382273236e-03,3.181935874135084497e-01,-2.442638041274927327e-02,-1.848343991923364626e-01,3.523553328225128012e-01,5.061324900722595777e-01,5.803302596265828006e-01,4.955639554771101296e-01,-6.741988514983403569e-01,7.181217284430742032e-01,-9.154930115716621020e-02,1.526472377593958429e-01,1.427999429361023476e-01,-1.778139757637000815e-02,-2.402649636555760360e-01,-2.223442788134301351e-01,1.352843766816633486e-01,1.837437108418281673e-01,2.643011507338849930e-01,3.051558885948526534e-01,-3.474429712385525004e-01,-2.996308907918829867e-01,5.426506531026682456e-01,1.752227538812937135e-01,-1.714168283574625251e-01,-3.197930703321551493e-01,3.454654691479021756e-03,2.315653734528365371e-01
-4.541037934450320446e-01,-3.949583761253779302e-01,4.581375625070827073e-01,-3.268520236184260797e-01,-3.949458580582754785e-01,-1.058776074497419367e-01,-7.375642267442267253e-02,-5.348091010978343364e-03,-3.987647983577870536e-01,-3.003217140374433991e-01,1.870240217084973844e-01,-8.067396339801456706e-02,-6.027737985187443526e-01,-2.487712438195428255e-01,-4.996186119464936515e-01,7.865135810439735642e-02,-8.924444268956693849e-02,1.769377416241957497e-03,3.963470262146741585e-01,-1.993521130407470698e-01,2.475871282129940565e-01,-1.190427003520790200e-01,-1.600827587489747073e-01,3.856732081027323122e-01,1.755860856506505085e-01,2.454479365217505371e-01,2.318515634230290667e-01,-1.409271037258520431e-01,6.320291690192018086e-01,7.984350889033234311e-02,9.863228971741534734e-02,8.329050412110652890e-02
-1.119449953713455570e-01,7.196176829908640382e-01,-5.557155961817996648e-01,1.654426518289616732e-01,3.139166202071103640e-01,3.753113948592105842e-02,-4.080547095925471379e-02,1.658669093213304413e-01,2.419508822744794729e-01,7.166675909227583352e-01,3.996247573839060152e-01,7.125067298779504954e-01,-1.119921309319233726e+00,1.248512401123027749e+00,-4.823064145221694354e-01,-2.411102566139673442e-01,-1.296159475774035508e-01,2.853887326092684196e-02,8.066806948107846376e-02,-7.140244824313433103e-01,-5.805674218527070995e-02,-5.574836783283869390e-02,2.832024550820378961e-01,-2.323611625609642850e-01,-4.524139984699768746e-01,-6.338313073589896263e-01,2.857354334159669107e-01,5.808226551384626513e-02,-1.691920360252547051e-01,-5.591462779873603850e-01,1.054549854087190874e-01,2.493872786361160665e-01
5.870089993297394892e-01,-1.351506844105195837e-01,-8.628186810011223562e-01,2.330918770873068591e-01,5.392186666270725182e-01,3.653155352009648804e-01,1.262405393299254053e-01,1.565556178460632553e-01,-1.572600013615392811e-01,-6.287305474672507666e-01,4.708047872735364181e-01,-3.345461183398999450e-01,5.610275805727940046e-01,5.691359474006862929e-01,6.363916278030612439e-01,4.915984708320593199e-01,-2.241962330645480006e-01,9.464350801587763373e-02,-6.463976283173622495e-02,7.724292678831100600e-01,8.054714217956396305e-02,7.410467735680397183e-01,1.338297469832381847e-01,-5.627395701418234086e-01,1.154751284303401695e-02,-1.054942787751460109e+00,-2.937799476208576288e-01,1.691897818837742595e-01,1.932203005235307303e-01,2.973909753025255065e-01,-7.482090256358848723e-01,2.143067803104845293e-01
3.314887751656769854e-02,-2.280735234050144389e-01,-4.033279296561233934e-02,4.650913386147353945e-02,1.256847726706352142e-01,-2.861120976478543840e-02,-1.312295038355797971e-01,1.549454181525247998e-01,-9.504773870438959493e-02,-2.519046677452675964e-01,4.919731680596292622e-02,-1.088334442185184131e-02,-2.334106933153522745e-01,2.660618605787342106e-01,1.065836707159734942e-01,1.700803646928299162e-01,-3.770738131541093163e-01,2.958081608118232064e-01,1.936823368217935049e-01,-7.302329560379161241e-03,1.771949249542335153e-02,-1.788271820608526921e-02,-1.355824509576868120e-01,-1.926541241001833993e-01,2.177731017224202037e-01,-4.379067752491601628e-01,-4.197128374770055514e-01,3.228564786926709645e-02,1.804177835371609806e-01,1.223920815748246738e-01,-1.475143447355669879e-01,-1.432111441586242095e-01
-6.946644337822468866e-04,1.345955303954016191e-01,3.421117289838659925e-02,-1.232371433740642175e-01,6.127346710780297995e-02,1.004123945678560142e-01,-1.933001490983985993e-01,-1.893760889500981093e-01,1.595984552846016757e-01,4.129066918322741864e-01,-3.672148073374283395e-01,3.484180519139173926e-01,-4.610940959373892589e-01,4.400203382337861679e-01,-4.779064359695662789e-01,3.312358747503837096e-03,-2.377086017476773006e-01,-1.835628519489151608e-02,6.143354066989565460e-02,-3.381674629236266494e-01,-2.817753440958432609e-01,-2.064350640597106823e-01,4.299121281186419341e-01,-2.628520581402790657e-01,4.718150436222408317e-02,-4.273887792628376925e-01,-4.187987348746553817e-02,1.709457055421011451e-01,-5.673344975546505964e-01,-3.824666374914504896e-01,2.669730763203049251e-01,3.943190038261577129e-02
-2.179094547286181960e-01,2.893878128207467704e-01,-4.933550177847784712e-01,3.412064085111605333e-02,-8.150067420307971489e-02,8.897510792693805182e-02,2.952954897665708081e-02,-1.150363201623437887e-01,2.670191732412128816e-01,4.592948281133482080e-01,3.330401227191550628e-01,3.776657167030746387e-01,-5.626872374446155733e-01,7.334500627173339282e-01,-1.098432402753568293e-01,1.457957684456288316e-01,2.252550791382015583e-01,-1.318446649784623115e-01,-2.423425087695053326e-01,-2.330424765415669563e-01,1.771714226750406296e-01,2.058775381759160861e-01,3.070481009366084479e-01,2.699123178476858786e-01,-2.071700249906486824e-01,-2.284986605108018654e-01,3.329475174717348440e-01,1.723676218540298732e-01,9.819363215272753839e-03,-3.120253496796944748e-01,6.250427964797307390e-02,2.101538377625289111e-01
-1.438016260580276817e-01,4.745259313272140456e-01,-4.174888525719014920e-01,-1.581541481466306465e-01,-9.119660699276645188e-02,2.725012970205748300e-02,5.996297457010042048e-02,6.907769926372055690e-03,2.313461203248036724e-01,4.850740435398834260e-01,9.957363513063093030e-02,1.526747987006191187e-01,-2.531842731337374253e-01,3.811290140602553445e-01,-1.363206271435061512e-01,6.176622754860150444e-02,2.238143883221900554e-01,-2.434888292341837179e-01,-2.374615631357429035e-01,-2.623265354956867412e-01,1.569674389463259281e-02,-8.676293632779300598e-04,2.733175036272505465e-01,-3.699882531832744681e-02,-3.358301016028001351e-01,-2.075986248961955716e-02,5.233933083103813333e-01,1.139553327611989436e-01,-2.675093791840683632e-01,-2.649650478768870165e-01,3.649296601694805853e-01,9.924150886897019352e-02
-5.775679520687639762e-02,3.975574921537748940e-01,-2.392525794413673246e-01,8.473097724434937306e-02,-2.542853740839897542e-03,-5.581668181000219719e-02,-4.237672821777259402e-02,-1.190243812710889137e-01,1.313267574112947922e-01,3.161442049195145043e-01,2.033157762451637540e-01,1.474118445796928356e-01,-4.023036551806138394e-01,5.686908336140434894e-01,-4.085748912601850497e-02,1.196010483939877328e-01,-2.559003000056372240e-02,9.482208783317123968e-02,-1.473668638945441894e-02,-2.960245808313557991e-01,-3.536890656185646183e-03,2.647959945822122782e-02,3.001711166893148430e-01,5.339766378428621035e-02,-2.474516464229423451e-01,-1.055636013544566099e-01,3.723667989478531837e-01,4.983278011459578438e-02,-2.451421367685711339e-01,-1.849608349004186469e-01,1.695726824024123836e-01,-1.696975210585864938e-02
1.060763791789157556e-01,-5.525639243325437822e-02,-2.215504951409524304e-01,-1.585858001518203678e-02,2.474809965132553913e-01,-2.811220951568820306e-02,-2.052091397927365279e-01,2.057899292701078908e-01,-1.191395861700180192e-01,1.470754756010405999e-02,-1.488954333467088637e-02,1.402567878791371320e-02,-3.511294953843743238e-01,4.962340907000038492e-01,1.434646431541221900e-01,-1.448060081003020860e-01,-5.871543575336753140e-02,9.600817509672905647e-02,6.486326397703866264e-02,-6.107880743539834817e-02,-7.417635135306710481e-02,2.130286703828842276e-01,1.034733995034812642e-01,-2.324362001901371932e-01,-1.514873257238853743e-01,-2.512629813134406587e-01,-2.583382375090289007e-01,7.154683657231289406e-02,-6.874455866539209981e-02,2.381066511684147569e-01,-4.516158606059876568e-02,-1.521213264487461247e-01
2.697288068888397880e-02,4.256141254404746110e-01,-3.688762861851189179e-01,1.117505492967107300e-01,1.602605417966010970e-01,-8.508932408354819010e-02,-2.516305184280496765e-01,1.183049883865363583e-01,6.369145898394260041e-02,3.260022926857245595e-01,2.401393284156805863e-01,2.670966487251244526e-01,-6.441994658085992143e-01,8.645382091011897252e-01,-2.406594033562698687e-01,-2.101030122959508251e-01,-2.010053749164442405e-01,-1.834289627212973631e-02,1.528489560526319069e-01,-6.171981422978163323e-01,-1.652279049085732254e-01,-2.034081447611720272e-01,2.834944806381020088e-01,-2.328326222853046579e-01,-1.023061688576256678e-01,-5.307090814936490375e-01,9.691067727169928869e-02,3.403359263497590659e-02,-2.186834801227577618e-01,3.051859365264738069e-02,5.445114086302306478e-02,-5.338733114511465955e-02
-2.635595698696867328e-02,-1.609702851360908793e-01,6.806105667798016678e-02,1.954454401696355259e-01,-3.996133982530163803e-02,-6.079269545269479214e-02,2.118248326216404590e-02,1.383388411451201006e-01,-4.221675720646522745e-01,-2.877213189939926974e-02,5.179795389085808943e-02,-3.953185657615530119e-02,-1.903820397905310324e-01,2.136638878448307854e-01,-8.891078480595519806e-02,4.341585507705131991e-02,-4.147829327604049543e-02,2.486263568439111837e-01,7.746787924954424975e-02,-1.886382890728232897e-01,1.154467301031467663e-01,-1.196674235412982651e-01,1.257596713483798978e-01,-2.882451125467785317e-03,1.993584016766438149e-01,4.955117334240703025e-02,-1.285593749532780994e-01,-1.228962226680000158e-01,1.955790093381987726e-01,1.788202828532176047e-01,-1.175818231004103903e-01,-1.311775715138925602e-01
2.525806219411210612e-02,-7.184547833481218226e-02,6.030606124096064141e-02,1.302489435889929437e-01,-1.232707985705983837e-03,-9.978603638664358677e-02,-2.278574184508399547e-01,1.099344766814372432e-01,-3.298435029602120316e-01,-2.628572431614501284e-02,-1.613010027694135595e-01,-3.993583042136316513e-02,-2.459964326097121845e-01,2.455419885720433459e-01,-7.542587402473611979e-02,-3.252438671156884786e-02,-1.718917816522748943e-01,2.116741948044524591e-01,1.640942813746170542e-02,-1.396306622609719827e-01,-5.909816939348663985e-03,-2.584676283140914868e-02,2.201729053194069474e-01,-4.101481391342882976e-02,-2.608892999203052745e-02,-4.341520735664841646e-02,-9.868155738855954873e-02,-7.959398990824895215e-02,2.710129250067159178e-04,1.072789573795216410e-02,2.095169879348058456e-02,-6.680833586371213995e-02
-3.950672910593585468e-03,2.672938636787261513e-01,-2.360028932869752960e-01,1.571741359718082653e-01,-7.865354693357902438e-02,-8.620086320379517775e-02,-7.199802925330292536e-02,-2.599852764342514347e-02,-1.049467132525653407e-01,2.611848462257453929e-01,4.180458852243423146e-02,2.462304166623199841e-01,-2.623174357999671358e-01,3.812070813763081545e-01,-1.106683913242882400e-01,-5.085063931319032393e-02,7.658297454005084937e-02,-1.101797734076363916e-01,-7.859659429471239911e-02,-1.994938096357962432e-01,5.028619946432069665e-02,-1.670740896976339596e-01,2.338069664250600477e-01,-6.362681374950673874e-02,-5.362688892018305925e-02,-9.194251259129962439e-02,2.431621529121898162e-01,-1.556235201247576846e-02,-1.876547175617673258e-01,-1.098006410758348289e-01,9.227536766889589404e-02,4.091045106380935409e-02
1.430843467997649221e-01,1.209065401393740746e-01,-1.525232280146941455e-01,7.594675307810382081e-02,-1.212208244213105329e-01,1.648538795757563125e-01,-7.480344183527955215e-02,-1.361995724803668206e-01,-9.192054287568350579e-02,4.489386636705910982e-01,1.075823587590482994e-01,1.813732438552335124e-01,-2.386645284816836798e-01,3.327780400725489640e-01,-9.577153889249093166e-02,1.223389398233688946e-01,-7.235400598585738086e-02,1.043422949734394145e-01,-1.611514949431268051e-01,-3.253675161886859790e-01,5.439595646475979540e-02,-1.889143616842441087e-01,2.272170878088433654e-01,3.689894376902502771e-01,-1.249376085749303311e-01,8.893095159084672685e-02,1.560435146672056184e-01,-8.627640119490899429e-02,-8.083829412335234721e-02,-2.247966912468686851e-01,-1.117726921294580067e-01,9.168636355515936975e-02
1.191434066854072660e-01,4.085466734056428934e-02,1.785570343760213008e-01,1.575300846507370067e-01,-4.226351147410442044e-01,-1.554078960822787570e-01,-1.193974630285666028e-01,-9.083228718110872291e-02,-3.118992530100098692e-01,-1.003971139734803793e-02,4.357249436021952416e-02,-2.439243070869890617e-01,3.446793332089200246e-01,-1.856097860482966433e-01,6.622523520247573792e-02,4.579640626466345843e-01,3.220249373096044088e-01,1.184984549831058082e-01,-3.562118578891714793e-01,8.265289498017307224e-02,4.749891191868579193e-03,-1.809111850727958271e-01,-1.878432028711586252e-02,1.900303239523743193e-01,-4.621687524047483550e-03,5.654234736981107456e-01,2.313538472604865781e-01,-1.538129642667690200e-01,2.110059887537474310e-01,-1.804833639641354459e-01,-5.875343928878645761e-02,-9.762870221245374680e-02
-5.716884330852041451e-02,-2.402396651967988669e-02,-4.965901468279240033e-02,4.724461566238048055e-02,6.914969682050445265e-02,1.871183684736784925e-01,-1.516631877022502073e-02,1.634998269004097129e-02,1.433588671845763100e-02,2.113670498970519895e-02,-4.585088796215541773e-02,4.496687205747849220e-02,8.076659858953731674e-02,-2.469156336313515360e-02,3.442485208133154451e-02,9.618138434270558090e-02,-5.600029504480434628e-02,3.127890195802532965e-03,1.377898360477897710e-01,3.025718558410825376e-02,-1.724599076629823200e-03,2.083704677937485150e-01,-5.088517182284451939e-04,-8.049161257473533282e-02,-9.520586971222781691e-02,2.432718750087908485e-02,1.349942555058790405e-01,1.179026172101153014e-01,-1.042490124651714381e-02,2.236014740783310098e-02,-1.610501811869306452e-02,-9.455238460401897693e-02
1.785205640238763658e-01,1.498058468621915953e-02,-1.670119548651229913e-01,1.965427945070307159e-01,4.284581587361346172e-02,7.512793885396047699e-02,-1.500017960769694236e-01,2.575197754629879876e-01,-2.102402661923243599e-01,-1.286602948018735751e-03,3.825372558377065219e-02,-1.378170386273914194e-01,-1.080293873997831972e-01,1.955384463724856026e-01,2.854800588074628553e-01,-2.187411669107605372e-01,-1.146702610613386034e-02,4.166231031520881145e-02,1.038994904915684359e-01,-1.034871224036262444e-01,9.814134969348095594e-02,5.893966080978381428e-02,1.202644944851164327e-01,-4.595195942682201579e-02,9.534137035932400972e-02,-2.379263763098131701e-01,-1.624788529311093355e-01,-4.176033847344259864e-02,-5.079931684370478026e-03,2.717322413382284862e-01,-1.193589981107894965e-01,-1.842027451075590461e-01
9.322585657872496656e-02,4.548641467847709674e-02,-1.783484141501169018e-01,3.621589343017440898e-02,8.963204052544293532e-02,8.194318523041947688e-02,-4.105594575174868061e-02,-1.272899838400321122e-02,1.190965606013355688e-01,2.151711877317923627e-01,6.972426160348585422e-02,6.003663136013282636e-02,-1.072995261507123099e-01,1.571075946463156708e-02,2.809401904070733813e-02,-3.808969760460979848e-02,-4.439366493790625895e-02,2.612790679656235016e-02,-1.480710584015785813e-01,-5.426910821207490271e-02,-1.156765304639841008e-01,7.810989536849601012e-02,2.124766455694617195e-01,-7.288205629755140254e-03,-2.564580448073367283e-02,1.510314263843059446e-01,7.640589144330399429e-02,8.259701058888083147e-02,-1.013067715304700606e-01,3.287076681293699121e-02,-1.556437726639065267e-01,-7.033819452324864552e-02
4.654600406355648839e-02,-5.569834187630144998e-03,9.009870950554636770e-02,-1.402144596178489522e-01,2.847193131038561545e-02,-6.997873298035055256e-02,-1.301200600026180265e-01,1.349778735563653478e-02,-2.872923996988215323e-01,-1.555323114053959108e-02,-5.162455512720187656e-02,-7.449381531507848209e-02,-8.373608636697889296e-02,-9.932145038232073619e-02,-5.730839796246411195e-04,-6.213526359698511026e-02,-6.625595541784103093e-02,1.912066880761597309e-01,9.949708939911809658e-02,-2.342727821626644225e-01,-1.157320598132021844e-01,-1.166815606082525908e-01,1.900831201041386087e-01,-4.550424962129635126e-02,7.391980364649405888e-02,-9.516419645934284799e-02,-1.788996217030005276e-01,-3.635312751830033218e-02,-1.108742797714073608e-01,1.522474817941065484e-01,-9.728926262049822360e-02,5.324655848526528741e-03
7.727632506700210513e-02,1.714861621061406771e-01,-1.096807176472432560e-01,7.372137693464915487e-02,-8.446936640857419590e-03,1.363057411796391172e-01,-8.623972859292046086e-03,5.346138083614608572e-02,1.975156357797263063e-01,9.258526295451360855e-02,-9.756706200880998006e-03,2.059601011245573154e-01,5.664317781302553347e-03,-2.766322384822566052e-03,-1.314299915127513652e-01,-1.397058301757158338e-01,-4.885749668472692819e-02,-1.874288754048363814e-01,3.075111753785652116e-02,-4.965209960409237150e-02,3.862521734639044052e-02,1.583182063367586379e-01,6.355489928377835995e-02,6.333814806074157533e-02,-5.582620776196830364e-02,-1.381668438969827772e-01,7.115932323061183173e-02,1.203648950994514882e-01,-2.680756089981994883e-01,-8.747914833631051379e-02,3.163408171423179316e-02,1.027983354237280433e-01
-1.201857751352053832e-01,4.931721780648630482e-02,2.727732439895441119e-01,-4.240206483474150134e-02,5.532895296177312711e-02,-1.141486141718492109e-01,-9.359615290431415324e-02,-2.776375651393980792e-02,1.656630718248459921e-02,-5.161981726918843383e-02,6.895699253926913797e-02,-1.400648361582194079e-01,1.389895731255406108e-01,-2.479249588473802779e-01,2.403943999428570164e-02,-2.326073419807508369e-01,6.818907569360535548e-02,-2.148891829579584467e-01,4.277962190053317265e-02,9.347395826259261020e-02,-2.052645038225720531e-01,-1.317786192772034959e-01,-1.802713707138098587e-01,-2.055472588947142021e-01,1.031925545854640858e-01,2.038932711654990737e-01,-1.169379739606875995e-01,-2.542324371379463960e-02,-1.270107533922029408e-01,-6.342951267376065183e-02,-4.517935839338806103e-02,-2.715247411676724454e-01
2.020569353038036142e-02,1.414730598207315782e-01,2.636759784056243172e-02,-3.353629453152686540e-02,3.991975544640025825e-03,-7.944214257936818568e-02,-2.067237006440614602e-02,-4.965245201439572736e-02,-4.651382790745972606e-02,8.231681274639562895e-02,1.532170563364148863e-01,1.242178126826684464e-01,-8.796418729041612095e-03,8.570076847755024596e-02,7.797343522427295504e-02,-3.240945026251580013e-02,8.110106265185544616e-02,-1.059977366885775235e-01,-1.103058564012046883e-01,-1.494780472906587741e-02,-5.257152719806736096e-02,1.286906039506003629e-01,7.894838517074126427e-02,-4.378681228151975330e-03,-4.608862301816767787e-02,6.464738439964590189e-02,-2.697733194646828592e-02,4.530239592452650621e-02,-1.652307911168787169e-01,2.876845243647386391e-02,-2.029391883586170774e-04,1.594333090243191947e-02
3.596510446378586856e-02,-3.069618574919675061e-02,1.227985240672421208e-01,-4.950670110605269458e-02,3.824068567838972976e-01,3.495100733775760582e-01,-2.391541761990267079e-01,9.234196251275680889e-02,-6.498981965417867379e-02,-5.028636578536801460e-01,-2.441326025675184808e-01,-3.797087890959075507e-01,5.083161198032518646e-01,-3.919230018159197693e-01,4.904016060174389846e-01,-2.435114214715758396e-01,2.414217334117562397e-01,7.383996573066277380e-02,-2.349763359196297141e-01,4.964825353750799142e-01,-3.689278867538667989e-02,2.780276568739377674e-01,5.890820403337235917e-02,-2.987809776881365509e-01,-8.147705597912376085e-02,1.463495688210941781e-02,-1.669320804760037469e-01,1.004246272532259149e-01,-3.404255809740421301e-01,5.155270630572613699e-01,-2.742672350263259951e-01,-3.059911190965046712e-01
4.836328359447991665e-01,-2.309345111252117388e-01,-1.123334121326757112e-01,6.166620704373112355e-02,-3.798391042285282904e-01,3.137059478102485754e-01,-9.823701422513937687e-02,-1.051642455838887845e-02,-7.560305587816734674e-01,-1.572622934374091064e-01,-1.965495982130661123e-01,-7.470324642959592643e-01,6.149029576325247826e-01,-1.735211792636581207e-01,3.493834849991263591e-01,9.914897215827574994e-01,-3.420821914278066034e-02,4.350938844229236824e-01,-8.456096993506652115e-01,4.065915191233390735e-01,1.138180696608644404e-01,-6.814390599222647227e-02,3.300560857836457584e-01,4.034004052202457835e-01,7.268113422320451877e-02,5.465279903606866663e-01,2.583385533190521999e-01,2.427641148737307974e-03,4.147699070247453101e-01,1.094227825549503597e-01,-1.374342938252347268e-01,-5.758163995279583919e-02
2.657066952537709970e-01,6.265221479335900123e-02,-1.125515620300167191e-01,-1.594283560254099452e-01,3.059148260306477907e-01,-4.371124512633250622e-03,-9.808003675144150169e-02,3.252409556313748396e-01,-2.750815989162251340e-01,-7.120221445005733285e-01,-1.593842485970035361e-01,-6.822634864035638236e-01,7.984996750603138294e-01,-3.156160271276187701e-01,2.698452359345692719e-01,-1.927542544714650197e-01,1.097761607602787542e-01,1.459419128740852556e-01,-2.731091268153606338e-02,9.761035970181326515e-01,-2.450608547348488431e-01,4.025133661983552602e-01,-2.281890967838971773e-01,-5.234091581922087899e-01,2.182964762182864615e-01,-1.265165749330780798e-01,-6.326049222433062225e-01,1.553520976850849000e-01,1.270782136839432030e-01,7.391414687946533391e-02,-3.093924106185587664e-01,-1.127965282828303772e-01
1.796191846074639831e-01,1.682950143559643341e-01,-1.556789571829421681e-01,-7.964484240011742225e-03,1.252041673159927371e-01,-3.729021690268283229e-02,-2.962183945524840892e-02,6.449360961119789126e-02,-1.362757489635576247e-01,-1.037971896243670145e-01,-2.284871934218645623e-02,-2.133571683071662228e-01,1.756974150746786201e-01,2.793554608718394339e-01,3.254703449339286236e-01,-8.291817799828732349e-02,1.096050677968945369e-01,-1.093979204804353539e-01,7.471213074648211383e-02,1.956556932645433233e-01,1.419437423028368020e-02,1.721914974190318914e-01,1.109767634443437068e-01,-2.907786093899111246e-01,-4.769963699586212552e-02,-2.072535877983842645e-01,-1.291853729694352471e-01,1.050228360018651275e-01,2.445869432373482324e-02,6.425654530503180362e-02,-1.315423111940918488e-01,-8.074702797115161645e-02
1.005488811707297703e-01,1.316405357068070880e-01,-1.052111190958673198e-01,4.384449789673783293e-02,-5.318979835298283387e-02,-6.422587839963227185e-02,5.087991730063554791e-03,1.229340892595234963e-01,9.192893324621986828e-02,9.665127083293688359e-02,-7.252302864885769307e-02,2.182294096291899632e-01,3.576531447335137143e-02,-1.316288222454476964e-01,2.529580057108510305e-02,-3.760190834311318009e-02,5.428117016549852125e-02,1.044371258024127426e-02,-7.603052214812588971e-02,1.100253061716908592e-01,7.489812067643300021e-03,5.385556292146936874e-02,1.278874202345450517e-01,-5.621703747394153627e-02,-9.685077785924722793e-02,8.464997871493375181e-02,1.364754665421426538e-01,-1.109944407454021981e-01,1.127167545657892095e-01,-4.464891735863693589e-02,6.728491221090249219e-02,5.347855220322125097e-02
-9.692376954873996309e-02,1.078436798471177072e-01,-2.466649577157403461e-01,-2.138248011211015820e-01,3.599874959131398044e-02,1.368646281861228033e-02,1.743522407851430256e-01,9.000039536416701291e-02,1.370852412019124833e-01,-7.365941333364413313e-02,1.415908211810673611e-02,-2.000834236659086371e-02,5.654236909115774312e-02,-2.078745138952683980e-01,1.453443721966720670e-01,-2.530726082353307871e-01,1.148482940277227166e-01,-1.338892302837657866e-01,1.353358709533954429e-01,1.979726242909477241e-01,-2.395222630415417553e-01,4.633878756377362018e-01,2.276843273310695526e-02,-9.041381307473066176e-02,-1.868939984094435403e-01,-1.102933306289890919e-01,6.675622301775326062e-02,1.864154529653498649e-01,-3.664998191306927389e-01,-5.663070823654221125e-02,-6.738066242142615181e-02,-5.647884687389409519e-02
