# Architecture: 354,64,64,8
# Learning Rate: 0.005
# Momentum: 0.85
# Layer weights below: layer1, layer2, layer3
7.813944392768994163e-02,-2.402262827156332603e-01,5.104442883827712274e-01,5.199129545183371892e-01,1.060985247502264049e-02,-2.384417867539548042e-01,-4.478889758466610416e-01,3.043976586613270641e-01,3.986586527324458284e-01,-2.265797202036329838e-01,6.471614237531072567e-01,6.924321684326751880e-01,-4.127046519251883483e-01,7.527258521319336593e-01,-7.668196513715586082e-02,-1.736612601348607593e-02,-2.485246591205440558e-01,-8.938846290942303874e-02,-5.429551261954738278e-02,-1.038627425587599767e-01,-7.892742876674276042e-02,1.175368622712499589e-01,-1.556273490973042462e+00,-3.775271044963627309e-01,5.364605036273585315e-01,-2.261722107706981844e-01,1.790160978503392841e-01,7.676852901560562437e-01,6.600517657500185598e-01,2.910563362798622156e-01,1.556757984916969650e-01,5.623484431347677143e-02,-6.669119933318162774e-01,-4.617847177833370731e-01,-1.530083535122225835e-01,4.615843086582063215e-01,3.981843105050529297e-01,5.124698383343690988e-01,1.772633375307221260e-01,-2.834750638660334388e-01,-5.633270054437057306e-01,-5.325440456214801666e-01,5.810599688786172168e-02,-7.316340102968722503e-01,-2.934327806342663658e-01,3.365884486204579473e-01,9.450355979273412921e-02,4.687685667824689206e-01,3.942632988088843327e-01,6.054469154797328945e-02,-1.028339871188787891e+00,-2.046485904804381806e-01,-2.312640553363410900e-01,-8.691115028284696065e-01,-6.704962464736878847e-01,4.401835045329510754e-01,5.231290183838704227e-02,4.962052605795901905e-01,-4.245857205022973008e-02,5.545541034040683825e-02,-3.643059104524003500e-01,3.693764508609107683e-02,4.742403466576694537e-01,5.698713298496791424e-01
1.189091147295512005e-02,-5.530610169881371163e-02,1.197330743165612443e-01,1.270778738678815800e-01,-1.125913977868425730e-01,-4.327220088897810318e-02,-2.173113511168471568e-01,1.409058398356124731e-01,1.897854102163714640e-01,-1.847555019792595232e-01,2.696308987546022773e-01,8.386699749568568563e-02,-2.148161751821650312e-01,1.594615686580633795e-01,4.505006580209474504e-02,4.414466064695975189e-02,-3.143150590526965216e-01,-6.320215251479407992e-02,-8.879727764876365823e-03,-6.520851924651201170e-02,1.753337165177065171e-01,2.022280857994207537e-01,-5.115737968568195848e-01,-1.740055012913875876e-01,8.299983522057217955e-02,5.466563247788942814e-02,4.319947097483167742e-02,4.327003464196393367e-01,1.384124981554867573e-01,9.956134176507208666e-02,9.892373552603712927e-02,-3.189794925593383845e-02,-2.976921317974884351e-01,5.878153698765380131e-02,-4.322499823308709188e-02,1.817606406258429341e-01,2.542965201162225020e-01,4.730509230838101514e-02,-8.198558038689679472e-02,1.822462921290972371e-02,-3.129872682407276452e-01,1.170293129920711439e-01,1.284133466142312052e-01,-3.859896648434308353e-01,4.225923054475851093e-02,2.093693493028954133e-01,1.864443329727176468e-01,1.718377037460827317e-01,1.299023291272786984e-01,1.955313596828379130e-01,-5.059721580231665294e-01,-9.742293024410744740e-02,6.684060384420509315e-02,-2.404973963934837478e-01,-1.579893636361185683e-01,2.075420232351755379e-01,2.016620698466413744e-02,9.590681055159115675e-02,-1.087475373190844447e-01,1.809938107795437401e-01,-1.582280910539605179e-01,-3.123963278756849635e-02,7.330192976007966765e-02,3.723170779375066242e-01
3.270980137690784190e-02,2.604725773360513918e-02,-3.397233404795094863e-02,5.966702748872156764e-02,-3.943834850812634463e-02,-1.090325842140298096e-03,-5.926348419733159373e-02,5.289647485920035558e-02,6.145610218443376543e-02,-2.566043450095471107e-02,4.498487850513185893e-02,-7.451972822015302811e-02,-1.321995961717356560e-01,8.220258349663740749e-02,1.023945639599672594e-02,6.683067093763718491e-02,1.788721878181911973e-01,8.094895510346397649e-02,-6.946536154708911337e-02,8.217484246041056872e-02,-9.485020542881845984e-02,-5.773182030713701340e-02,-5.432870088072751930e-02,1.100749818381141221e-01,-5.538812286081678388e-02,-5.226595687332982743e-02,1.408540551713129141e-02,-2.922076434672638695e-02,9.339031971479573591e-02,-5.711635979757211795e-02,-9.072064357909498389e-02,-3.030859286627621968e-02,-5.181815889087339894e-02,1.430654753442459903e-01,5.570531824696565298e-02,3.355139035301303585e-02,-6.924616341726046176e-02,7.520848958033948817e-02,-6.697670699496811875e-02,-1.345848731173424073e-01,7.839645006572867891e-02,2.902456607286120135e-03,7.150283661133413626e-02,-4.604885070678876782e-04,6.614899461565293404e-02,-3.746256399682684757e-02,-7.365247505874461531e-02,6.849874915290668498e-02,-5.320104179893742763e-02,-7.102515167066808521e-02,-5.597151693130385242e-02,7.169739574516642219e-03,-3.602252896333296012e-02,-1.320212370958214754e-01,-7.496582343442147189e-02,-1.502777530990138943e-01,5.816320528785198091e-02,-9.997309641896684473e-02,-9.088195623938281897e-02,4.878347948943933740e-03,-6.341282663564368205e-02,1.130193868259456724e-01,-8.631981506697794515e-02,6.555961036090640626e-02
-9.956814936565555607e-02,-8.818021602893133526e-02,1.167304889811568991e-01,1.223676930504305482e-01,2.985606303595659261e-01,1.008961813622762799e-02,2.268875646629273657e-01,-4.589562993245344114e-02,1.650189584659192132e-01,-1.967378534240664945e-01,-1.128948411687771824e-01,-8.763321457954484361e-02,1.789433090000690924e-02,3.384924263598016597e-02,-1.588935074214727905e-01,5.404868020208578039e-02,2.974757912184939901e-01,5.998282702764455750e-03,1.416908891603472220e-01,-3.674624675826314302e-02,-3.122768585079494646e-02,-3.807196011275433278e-01,-5.218647714064348492e-02,-5.461029019774858717e-02,-2.205052438805646386e-01,1.023767703626018016e-01,4.004461492464635453e-01,5.257042365391637745e-02,-2.872518880910431283e-01,5.979166887537323838e-02,-8.347012653890195644e-02,-5.727528281222019589e-03,-2.341023949505655621e-01,7.910038346057311764e-02,-2.180313154014941746e-01,7.409113932204589026e-02,2.222493951115288024e-01,-6.837446208575169437e-02,-1.295057557793120318e-01,-2.109668481951225694e-01,-3.100137752018594095e-01,-1.232797253792322217e-01,-1.138523123595729103e-01,9.812453909392769569e-02,1.373166442213797911e-01,-1.791869803444673392e-01,2.869299113159659922e-02,1.615282004837748364e-01,-5.425522608790916967e-02,-3.814916102357175931e-01,8.495460181927792787e-02,1.128866540121331724e-01,-1.380148030743508780e-01,-8.376234132870916116e-02,-2.883958861953458096e-03,2.083938399053042179e-01,-1.422161769501606790e-02,2.675907964703363659e-02,1.100862637750035233e-01,-3.747012214438102257e-02,-4.445529570296977845e-02,2.939945446460494674e-02,1.583862779156211542e-01,3.840583592244636302e-01
-6.323137639857520642e-02,-1.097066846288368841e-01,-1.005905648643848072e-01,5.201982747016228870e-02,-6.142453620046704754e-02,-4.647702551990831599e-02,-5.095272865483894964e-02,1.459255274903311500e-03,-1.133831067610360649e-01,-4.849106414085935408e-03,3.377324126626199408e-02,2.111642490482069836e-03,-2.772540135295730943e-02,3.278110010960326448e-02,3.032662641904801046e-02,-1.910225156603951868e-01,1.522696136624143159e-01,1.962505105156183913e-02,-6.511958005231952007e-02,-3.902604933756657901e-02,4.201269386117795906e-02,-3.392094272971706709e-02,-1.861044317078358046e-01,1.544845144048756780e-01,-2.201865694434655685e-02,7.485963361482848855e-02,-4.328018307382668073e-02,1.437490898984119525e-01,1.543625033464175907e-02,6.374589721656719055e-02,-7.925127626957872984e-02,8.650124145160058287e-02,1.142137660004505402e-02,8.775282112197382856e-02,-7.787460557183933929e-02,-7.494387697347089719e-03,2.026704251345275154e-01,-6.675386978189902509e-02,-1.675434018540998549e-02,4.651804533725149154e-02,-2.911092453470002020e-02,4.087788123148258790e-02,-2.839932789591044504e-02,-1.656462693307412008e-04,-9.948628776181521471e-02,1.311270889661023120e-01,-1.166314888090909559e-02,-2.698065365108423194e-02,5.224115233862462737e-02,-4.579883651560837793e-02,-1.326026873341426826e-01,-1.038771218237173749e-01,4.844143632008515721e-02,-2.385207571579544758e-02,-8.413931739167523557e-03,7.566915665665217838e-02,-9.084131828786826124e-02,-1.743273559566810987e-02,-2.887919386951835060e-02,1.511763032916166836e-02,-1.003623525853651437e-02,-6.815244089907006135e-03,-1.018210535132200306e-02,3.798842328562056919e-02
-1.138970633147960571e-01,-1.341621943891357083e-01,3.516238191408034286e-01,8.432835433148863635e-02,-9.494404016277330216e-02,-8.566234392889575389e-02,-4.069142102731944100e-01,2.756459276486776799e-01,1.203223288426770871e-01,-4.799585927768836718e-02,1.846279542341357771e-01,-6.291711058148405367e-02,-1.134125899434786089e-01,-1.728674357474827353e-02,-2.016681634034746262e-01,2.055213885966580001e-01,-2.711341128314786464e-01,-1.964265981175917775e-01,-1.001369398184207699e-01,8.777991800365032848e-02,1.137972954302375467e-01,-1.532806687949293256e-01,-6.746011408811768417e-01,-3.049591072179981266e-01,1.275835076559374559e-01,9.283807597435933881e-03,1.130309397663319115e-01,2.947363051548850810e-01,6.440623603128528551e-02,9.786816434552295454e-03,-1.959173243667465536e-02,-3.728997107647651910e-01,-5.106811714507851763e-01,-1.979652822160331282e-01,-3.215788660138501065e-01,2.867602432122440259e-01,2.750993063987464127e-02,1.013005827139716736e-01,-7.266661041802055521e-02,-8.568074622968904763e-02,-2.611361195832718751e-01,-3.003608218104597549e-02,3.109666704701456452e-01,-2.026038589424664915e-01,-3.608972585507125991e-02,6.474496404322402365e-02,-5.357354359609365485e-02,5.251507566811399602e-02,1.530306371460110337e-01,-2.574769652732109004e-01,-5.109108284429221269e-01,-2.128103885214191748e-01,1.006359215617709697e-02,-2.514403255206936194e-01,-1.168870586880685625e-01,1.598722334099652309e-01,8.695552013677553069e-04,1.954684744173224575e-01,-1.845450762082956608e-01,2.225278372029593776e-01,-3.650040593750006890e-01,3.514248609113037464e-02,1.059603846107679131e-01,2.873279450794849477e-01
3.081207421353214342e-03,-1.339292029559902009e-01,-6.641739377204329553e-02,-1.023868863628175224e-01,1.235109204067524891e-01,1.141695490693445982e-02,3.587285828410633620e-02,-1.537453765299397375e-02,-1.633649035526355681e-02,-1.226722457529780402e-01,-1.596397132792353249e-02,-5.004191734925609453e-02,5.893842485379197776e-02,9.896335750864888869e-02,1.086055556816950818e-01,6.677048880088309879e-02,-4.884229301179982691e-02,-8.845653147675121286e-02,5.633676882216667042e-02,2.430272042435983881e-02,-1.317822866561005057e-01,2.325889229601003916e-02,4.433045044242218957e-02,3.785017446794203960e-04,-1.308398010670205718e-02,-6.349595342614576532e-02,-1.048389578577625797e-01,6.449931362342845031e-02,-1.886391603351337057e-02,-1.698027919140986802e-02,1.281546032496316545e-01,4.704489138879284355e-02,1.224946350956966287e-02,6.221244330601382981e-03,1.069405599086594161e-01,1.387774253687857617e-01,7.694662405759136736e-02,4.795182762317728997e-02,-1.517777441905259483e-01,2.938466200806251656e-03,-1.536222727324183454e-02,2.941060653560602020e-03,7.415611562914560528e-02,-2.191934570835144536e-01,-4.496336440354038733e-02,2.363675759310783844e-02,-3.828446800607036155e-02,-1.050969749556706495e-01,7.107926905324334077e-02,1.552602691882543420e-02,-9.202693264170308529e-02,2.135669157983327571e-02,6.003670338184215194e-02,-9.767866076051977264e-03,5.200069263822600790e-02,6.982363602073520491e-03,-3.199767662912850891e-02,-7.798251742164541422e-02,-9.495481217344439381e-03,1.626265585894648424e-02,5.827694197388988417e-02,-8.971417783399932358e-03,4.030375860811410971e-02,-6.359408897383087012e-02
-2.241446980489096297e-01,-1.895086679016766418e-01,1.538483324949420084e-01,2.417807649658440805e-01,7.697083691438265374e-02,-3.897297842077208918e-02,-1.511204912068349338e-01,3.058681754145871623e-01,2.530974604185711185e-01,-2.241911773220442716e-01,2.775224301581160069e-01,2.622522687365795302e-01,-2.620873936264077053e-01,4.509657859671161173e-01,-6.577295646609186697e-02,1.307240499769470876e-01,-1.229804090352607515e-01,1.541671324334632776e-01,-1.894730990084491640e-01,-1.828411657494407039e-01,-9.023102101415902965e-02,-1.271698127368762754e-01,-8.604046909861661208e-01,-2.090263786372429378e-01,9.156189221606633732e-02,-7.299313636418795770e-02,2.756625634125927649e-01,3.309260516936717855e-01,2.885546713263532626e-01,1.267972018514563481e-01,4.677689645210790503e-02,-4.866309466517660526e-02,-2.780776854565374379e-01,-6.077464965511720357e-02,-2.585804245199863627e-01,3.547488877834026888e-01,2.498967709134807258e-01,-2.019319990421477098e-02,2.382901615855979593e-01,-2.137329756734857034e-01,-2.211898782071478609e-01,-1.710062164593527667e-01,-4.649879901858529341e-02,-4.134150136677358089e-01,1.622814382477781245e-02,2.881449798525814732e-01,2.311186996864313115e-01,2.244664043312636914e-01,9.991671285009845471e-02,-1.002820882205985586e-01,-4.949786258882914458e-01,1.963435791085904950e-02,-1.156307219636848321e-01,-4.155193791562941108e-01,-2.166757388967879561e-01,5.655200443203017846e-02,-3.621720579476494367e-02,3.133570865203165190e-01,-1.158438477918470044e-01,-7.185439689480158099e-02,-2.328084337037556184e-01,1.484139883607543953e-01,2.500944624222022350e-01,5.696508318861331910e-01
-1.082653466479576720e-01,-1.635898331220957957e-01,-4.438254178720001802e-02,1.014038216220459511e-02,4.591205841914498820e-02,7.728404884227753346e-02,9.994745856653140109e-03,1.392616746784072768e-01,6.837356636785212397e-03,-7.115621179874881408e-02,-1.024872407786148187e-01,-5.407532228845930017e-02,9.295536765190704279e-03,-3.242810614332967273e-02,8.136958326264448482e-02,1.162205534974671134e-01,-1.925223697460001493e-01,6.712486616518884008e-02,-1.890964440706879024e-01,2.577838120939339797e-02,1.124358185213836930e-01,-6.376833769029558070e-03,-1.400846305515934809e-01,-4.369732674283851454e-02,-1.368453127818527841e-02,-1.821894210396309693e-02,-1.757720252626659291e-02,1.107536285987775239e-02,3.073639710163535502e-02,-6.603625106707132486e-02,-1.246648127220445490e-02,1.261960377117234411e-01,-5.075039449365549571e-02,-5.671141463626399454e-02,7.429929380950486828e-02,-1.648314103984197254e-01,1.073513539150083435e-01,-2.120504964845630960e-02,1.722445892432201281e-02,-2.080020916005132295e-02,6.150853457349249320e-02,-3.343282955376239429e-02,-4.736944707450582714e-02,5.694014957037100283e-02,-1.826259357566346053e-01,1.241042368216926060e-02,-9.200462639677349508e-02,-3.328145215783201438e-02,1.539211348961253278e-01,1.146809936221543889e-02,-1.719416481027166363e-02,-1.350520202406390313e-01,-5.686565791863588265e-02,-5.301482531611304179e-03,2.877441949795974188e-02,3.678350947693120876e-02,6.488905827514600787e-03,6.258860713786058849e-02,3.076568697759077611e-02,-1.420216388144783792e-01,8.141221779419182542e-03,6.379604112669044758e-02,2.546533882584403607e-02,7.436122492441725289e-03
-1.043226609007335409e-01,-6.882438590563422220e-02,1.626219791335956066e-01,1.863031839142660628e-01,-4.020656077952514812e-02,-1.097482720885199908e-01,-1.529230511041728413e-01,8.182033722116277552e-02,9.001730834751200949e-02,-1.449485943165245150e-01,-9.371793751862712504e-03,6.378696974245281343e-03,-9.512858899257134460e-02,-5.353030502474815516e-02,1.248437605892016057e-02,1.287090744123334241e-01,3.337975526252952643e-03,-1.248735015759496469e-01,3.822276224827414470e-02,2.192350521704527003e-02,-3.830997521830418334e-02,-1.312269817991013054e-01,-2.984210397481460442e-01,-9.680817001263515575e-02,-1.470678259995359949e-01,7.825587396805490370e-02,7.872644158250076407e-02,1.467736150472775947e-01,-1.123986782784693883e-01,4.320301964232800551e-02,-7.598030436755449056e-03,-1.933217796644940423e-01,-1.668038675929186532e-01,-3.609475929147493850e-02,-2.520060721218103095e-01,-3.785492255932265074e-03,1.949546133518376134e-01,1.462602556870338522e-01,-1.803471650528035153e-02,-8.837594399264789291e-02,-1.467232521037439008e-01,-4.812747091618429368e-02,1.496341415838538524e-01,-2.334560985255134669e-01,5.372296130344004356e-02,2.784786910622221584e-02,-1.019786536034957003e-02,8.949812573071935784e-02,3.326055870227122291e-02,-2.304361100324694711e-01,-1.392818396291904959e-01,1.220469968793367749e-01,-5.087801078084700640e-02,-1.209713352259761399e-01,-1.385928974159754967e-01,6.134277508097274456e-02,5.735726478030400699e-02,9.880371642092326823e-02,-8.708169395795922751e-02,6.521117919070962277e-02,-1.667260351515309491e-01,1.886139792214430733e-02,1.367160448220197388e-01,3.816198540307390030e-01
-4.562462617472133608e-02,6.289134027427380202e-02,2.258433914921910146e-01,-3.728753970086139125e-02,4.476861508711041382e-02,-6.679125687637479936e-02,-1.753312661057776500e-02,9.467243278521759661e-03,1.326340106237128280e-01,6.222416898205259013e-03,3.504367755186940311e-03,-2.411361783363337730e-01,-8.848530228726824223e-03,1.367720616955340196e-01,3.338745963185814347e-02,1.192540819069013852e-01,-2.314840545193778965e-02,-1.770163883738165855e-01,-1.267673432555647961e-01,-1.248775646345553214e-01,-1.752317926545776672e-02,-2.663570408835882475e-01,-2.043940472795260366e-01,-1.984688687224293174e-02,-9.442560563552995778e-02,-6.735287607285890543e-02,3.043086465234717125e-02,2.698515882397440335e-01,-2.206909858476196196e-01,1.191404664279551301e-01,-2.169285099035797929e-02,-1.887359634321968682e-01,-4.745666598440285155e-01,-1.891372402713902001e-01,-1.757742434825608213e-01,2.293331046223121839e-01,9.955114782609510160e-02,1.720450052962524679e-01,7.170437260120239575e-02,-2.169264037264139189e-01,-2.888575508284830229e-01,6.295170902292179793e-02,1.178248959397111828e-01,-1.236601382545239602e-01,-7.209169401417747647e-02,-1.747377125270862530e-01,1.636953182321596034e-01,6.140613091550712471e-02,4.834810769300231653e-02,1.000334564101687113e-01,-2.340563274882139777e-01,3.349097401641328714e-02,-1.216599064514788386e-01,-1.848512468306765522e-01,-1.256396483523817588e-02,4.964419656842069400e-02,-2.032960550687198595e-02,1.493520618002210643e-01,-1.794592614849280232e-02,1.284836327222459440e-01,-1.613294887891448259e-01,-4.276199877652255010e-02,-9.858079429033585195e-02,3.504109827376226671e-01
2.179341376468392705e-04,1.732625601178278407e-01,2.346450494560558264e-01,1.331941090541662598e-01,1.712402614259687927e-01,-3.647648247033574709e-02,-8.345637477354030109e-02,1.389559149509063951e-01,6.922539427096460751e-02,-1.092975926624713962e-01,1.003013209186577742e-01,5.810321631797443764e-02,-1.409126105138382434e-01,1.065036177463014044e-01,1.862543586966134562e-02,3.940363162221578730e-02,6.545228107216744320e-03,-1.465392179282216378e-01,3.842030766432869004e-02,-6.857732281914317995e-02,-1.852165688401662125e-01,-5.535250008335534933e-02,-3.141422973102562799e-01,-2.660195015805051980e-02,6.568963055690310582e-02,7.215658443954178769e-02,1.240111415287186575e-01,3.122366804064115320e-02,1.189800804797648895e-02,-9.941488472257503650e-02,1.289801241033205481e-01,-3.445845396212420253e-01,-1.008899863612731373e-01,-4.187115758296184459e-02,-1.407562522650965819e-01,-1.523066429850758290e-02,2.142743386024961900e-03,-8.287072271310030880e-02,1.518383375199418017e-01,-4.933783472688856725e-02,-2.342160306978452455e-01,4.408544409631726807e-02,4.005796673256112328e-02,-4.422336927034628551e-02,-1.231489981075969548e-01,4.714565961846201719e-02,-7.064535072620425557e-03,-1.150102837018209534e-01,1.062787418195638434e-01,-5.514543614316766949e-03,-2.098154537131438901e-01,1.204053794071808202e-02,1.970664320432029271e-02,-1.871915570494294967e-01,-1.353066960262339080e-01,-3.976204841058584433e-02,-1.355774441178627665e-01,1.472011576999849580e-01,-1.405653104380767161e-02,1.070442948007460926e-01,-8.185996927091659936e-02,-5.456824275571546534e-02,1.064378075257292888e-01,1.783542410939302492e-01
1.074222621482453510e-01,-9.065999800301760558e-03,1.149617409116968636e-01,1.200099183009143977e-01,9.560145525291477778e-03,-3.210243108798363498e-02,-8.273235928581534893e-02,-9.753703032941339612e-02,1.179239730171180722e-01,-1.101278491910512303e-01,-1.419846012257309775e-01,1.129987480491912409e-02,4.062356915839187427e-02,1.553695901743193941e-01,-1.548415953934626811e-02,-1.917933876841245236e-02,8.183057302015814272e-02,-7.504506104697176994e-02,6.261956958027435627e-02,-1.030692555963322321e-02,-1.493808821570362932e-01,-6.143016617100922894e-02,-2.550139379941737117e-01,-1.031069620508614781e-01,-8.078509092126157087e-02,1.339870821059735984e-01,8.487124220717646994e-02,2.524012273458400499e-02,1.090457153371167734e-02,-7.433441429837787939e-02,-6.467643317709106943e-02,-1.985416668473287960e-01,-5.890887828416713212e-02,8.538836122007509299e-02,-1.408109558598565347e-01,4.584550509337662061e-02,1.848725548879628089e-01,5.107228990643374045e-02,4.311866283970339220e-02,-7.069018017978889734e-02,-2.987667406856033825e-01,-3.950970286266313608e-02,9.954530892127768857e-03,-2.386301560838403543e-02,8.747321453134597469e-02,-2.579416194539635096e-02,-2.085729668379518974e-03,1.771747590807122019e-01,1.183221740499334693e-02,-2.686966234353098046e-02,-2.261312703702502702e-01,-2.333101465507522038e-02,-3.922348920453787302e-02,-1.041931351135889777e-01,-1.684336090119536167e-01,3.859687288354950868e-02,-9.745599878139094008e-02,1.490624172009414883e-01,-2.317650843105902372e-02,2.412869359509516864e-01,-2.259938777825709968e-02,-1.825996092282093988e-02,1.429207692936179108e-01,2.713977326873640572e-01
-4.547689407585315396e-02,-4.697657117565869067e-02,1.400525947604996102e-01,1.354373591029388313e-01,1.352156686963813066e-04,-4.023717877157646089e-02,-1.123156027393458073e-01,7.464222234074982532e-02,1.342995093919313598e-01,-5.857898585110669215e-02,9.836997073448576490e-02,1.516935232889869145e-01,-2.408478987141123712e-02,7.437893337923075221e-02,8.890784326403461391e-02,7.960985982944994432e-02,-9.858882813670033496e-02,-4.277655239088667266e-02,-2.540659916635663040e-01,-1.237598987369132320e-01,-9.250345439223282840e-03,-2.057258820185388914e-01,-3.184740943244211975e-01,-1.172240811016160289e-01,-9.995375589327457067e-02,-2.383631609725711097e-03,2.970711115591252727e-02,7.401223291607983423e-02,7.734702687710712232e-02,6.457810393327784171e-02,-8.156285349545709315e-03,-8.698364373771699798e-02,-2.673741051655056378e-01,-1.521441390060926657e-01,-1.681957402287198589e-01,2.163185572580285654e-01,-4.027311854439463018e-02,1.301633591053099892e-01,7.440146000414429861e-02,-1.761732538125396763e-01,-1.301083862647969547e-01,-9.162769631755385280e-02,1.184865530070376705e-01,-2.095268459706785547e-01,1.186131324661422737e-03,-4.857246379030965427e-02,-6.114881324721103267e-02,-8.522536131463993858e-02,1.419797067273310398e-01,-1.532505161930394766e-01,-2.095002555607509420e-01,-4.164538277435608782e-02,-8.119425480238087744e-02,-1.845176115454062737e-01,4.392351923641080874e-02,-5.295055538933320094e-02,-1.758460439516577184e-02,7.495444379077124963e-02,-8.455271526659845216e-02,6.790584761941804992e-02,-4.183962455116029336e-03,1.523503152296863542e-03,-6.856434508364016300e-02,3.214932670259778580e-01
-8.509528096269806940e-02,-9.320570591446297737e-02,3.998479513513893968e-01,1.316236799853273409e-01,-6.648225193238152531e-02,-9.463949001743168776e-02,-3.953182495741675712e-02,3.537911474154938063e-02,4.254954134832571178e-02,5.285504207342262700e-02,-6.673887163126988875e-02,-1.112875426060658257e-01,-2.823664130715212994e-02,2.519229596545428662e-01,-1.720268018387047515e-01,-7.758442396301286868e-03,1.043255204431105115e-01,-2.350717597967354189e-01,3.883870231060616157e-03,3.299206845286790230e-02,-6.347388574004415862e-02,-1.087841784020493474e-01,-1.595895204585945082e-01,-1.521637686903199449e-01,-9.961745665130147809e-02,1.639422877721839755e-01,3.006049088564393679e-01,8.536211347642391756e-02,-6.704446102974088648e-03,2.285329280379950756e-01,-4.577895756499410912e-02,-1.526354492000789598e-01,-1.137256351889911199e-01,1.394901906014388571e-01,1.174633009082007122e-02,1.513911144763454425e-02,1.397244838081270202e-01,-7.467680896395545442e-02,-1.743397296409331110e-02,-1.164311092273583453e-01,-2.276845662062920994e-01,3.886453134557240480e-02,9.834045748289526722e-04,-8.197777392146822495e-02,6.596942109087224060e-02,1.514045503045259866e-01,2.016119023296144772e-02,2.596426480952579996e-01,6.442051011160269958e-02,-2.044996673152760513e-01,-1.180602374823714884e-01,9.790056024533372314e-02,-2.495535648047918914e-02,-1.565899378541850961e-01,-2.160773842369028974e-01,1.509151477396749874e-01,1.161556368430565478e-01,3.682856300189690096e-02,-7.161876234885099224e-02,6.362560652628913849e-02,-9.106819637571701709e-02,-1.015389156669291859e-01,3.509685326717912890e-01,1.168159187702216550e-01
-4.851888761608053741e-02,-4.111504529294211091e-03,1.647073098061160867e-01,1.322929055388401554e-01,5.335512918604264077e-02,-4.432618899257880635e-02,-1.436258724780856699e-01,1.618521071345905005e-01,2.648017656256697050e-01,-1.384882890417865955e-02,-3.212002233180548394e-02,7.953241525201988626e-02,-5.892955493905115832e-02,2.371865281334723796e-01,1.320262163553487522e-01,6.806221111285613856e-02,-7.203469169545327622e-02,-1.642883440620485636e-01,-7.137902188785255619e-02,-1.176374229697347562e-01,5.259403059409388514e-02,-1.325843306888653261e-01,-3.192460506691827127e-01,1.238397640197281234e-02,-7.507834091581742919e-02,9.553737786776945323e-03,1.952895239849063505e-02,2.153078867901150328e-01,1.010143571019435638e-01,6.738030435423204845e-02,6.562423902278129162e-02,-4.026696245688705239e-02,-3.519712220531239222e-01,-1.021916165498745338e-01,-1.349526512490212549e-01,2.046399483673255471e-01,1.391817724156135805e-01,1.107021210355866037e-01,-1.118371804780245726e-01,-2.356816309063012038e-01,-1.932289300997605819e-01,9.438300943993496598e-04,4.771326731678307564e-02,-1.957222520278260325e-01,7.087902678581127144e-03,6.449250315859952898e-02,4.932683651982999740e-02,1.119542918472833312e-02,4.844411488791015158e-02,-6.540492973711692359e-02,-3.638595603059076034e-01,6.354227699652499617e-02,-2.923306777231319403e-02,-1.334024602475206503e-02,-8.836774481471582066e-02,-6.163293616118160900e-02,1.129254996261775182e-02,5.979069285591702421e-02,-6.429338191490753529e-02,5.567136086302026943e-02,-1.030763237847723453e-02,9.626513443152259764e-02,-7.477340425973111673e-03,1.681489569164534292e-01
1.041245155043475645e-01,-1.177286338981023833e-01,2.781146632561174933e-02,-3.146945077542230573e-02,1.288939412213204183e-01,-6.910026368556257403e-02,-1.634655122245659009e-01,3.659338504333008169e-02,1.419429067455770244e-01,-1.233811247006695866e-01,1.205622077319768309e-01,8.101155488375230695e-02,2.703211412845848505e-04,1.824153368070737247e-01,8.220312015294942848e-03,-9.186606536206903817e-02,8.236668806775834795e-02,-4.322076182273808936e-02,1.607176398278348933e-02,4.544009372724411300e-02,1.523978614675883525e-01,-5.487695560207467294e-02,-2.166279087148620941e-01,-9.110738524143974226e-02,2.156760569878872144e-02,-8.053392075105693382e-02,-2.408583495817396853e-03,7.930187342617876778e-02,-8.395343465494385215e-04,1.544601486869260354e-01,2.772566974676802243e-01,-1.427736413077612156e-02,-2.975958199038701846e-01,-3.647506641446448487e-03,-1.106425176699867702e-01,5.430227830147263401e-02,1.698862691078144860e-01,1.705953259283512699e-02,2.684962308300862643e-03,-1.375044880833054817e-01,-1.608546211501954981e-01,-5.774175281558413531e-02,7.634567943570376436e-02,-1.656840384876986372e-01,-9.590737619397098068e-03,9.214619352419360643e-02,-2.653519581826531415e-02,2.123792559195212745e-02,5.902129321035567283e-02,-1.707208915013468664e-01,-1.883318868488380038e-01,4.526768518194088098e-02,7.332105482371284195e-04,-1.895679024410837910e-01,-1.128271669946880051e-01,6.242203721675924216e-02,1.151446207713366192e-02,1.114885695390994969e-01,-3.428732112214127187e-02,-5.242902967075663279e-02,-9.298958696894212006e-02,-4.506929489839815034e-02,-4.713194387281237352e-02,1.503324903755144937e-01
-1.200225150948234648e-01,2.342857866092260544e-01,1.439376320715853204e-02,8.275233092184300018e-03,2.380796922865457271e-02,9.994183319164717805e-02,3.674764973701150628e-01,-3.903784889942233521e-02,2.169435314088976607e-01,-2.004428697388163927e-01,2.134479405985492129e-01,-3.407444679629723638e-01,-2.242936383267648548e-01,1.397320086539039219e-01,1.328739331380330291e-01,-9.644228445774390146e-02,-1.452044497960083835e-01,-1.120137984787337865e-01,9.696462234576015693e-02,3.867529651490295151e-02,2.839388268647913827e-01,1.031208160766410586e-01,-2.632508157536994631e-02,4.752834283174070529e-02,3.532136759267919257e-01,7.014429059527507726e-02,6.549385576696458156e-01,4.130073503690493975e-01,-2.383239704548525406e-01,3.144460018533944412e-01,2.114004742831194217e-01,-9.746692106263447897e-02,5.991387578000514358e-01,2.108945746222868900e-01,3.461110540947753278e-01,-7.229040825286852101e-01,3.803246727431498497e-01,2.783874774148314413e-01,2.443220662666795162e-02,1.837841899002542467e-01,-3.718634989684282965e-01,-6.295028816108664271e-01,5.634402774796734570e-02,1.939881958112475279e-03,6.166715763262845679e-02,2.836906502287098730e-01,4.533481327328824362e-01,3.685325645416231422e-01,1.277431734526644491e-01,-1.794095730477507922e-01,4.045788962439083591e-01,2.978562876685161842e-01,-2.104242617219719280e-01,-1.375751975367029145e-01,-1.685754387403723964e-01,3.410658851304426697e-01,5.827816704938741932e-01,-4.004692594173886455e-01,-5.572197915531587054e-01,-1.801201179076489522e-01,3.197316025530204109e-01,-2.663970754236804628e-01,-3.228547205162076161e-01,-2.045742262528418148e-02
-1.389724673287615064e-01,6.800526113070709533e-02,3.240520903417990484e-01,2.480844973146588417e-01,3.577264536998767119e-01,-5.677362896197089143e-02,-6.375227779892296380e-03,7.173499680708249338e-02,3.358194736655162327e-01,-1.576236334926314209e-01,1.911077733621301122e-01,1.144380285363386512e-01,-8.131405692873557023e-02,4.090470873391937601e-01,1.613903714106088016e-01,1.451780366467816386e-01,-2.423003028687538765e-02,-1.655073851958358544e-01,-1.796181011970207353e-01,-1.605145856597072207e-01,1.028046139037317591e-01,-8.634493120972973335e-02,-5.789996591744678289e-01,-1.204128213276516451e-01,-1.970515697322714962e-02,-1.302882700103160166e-02,1.366118694080489804e-01,5.575712196308517665e-01,1.720065802596322246e-01,1.162341209254648122e-01,-3.174643838819372205e-02,-1.480444559577739072e-01,-5.568609634539927189e-01,-5.468533050379510707e-02,-2.575335514904056877e-01,3.494735587363262397e-01,4.319828958946455577e-01,1.494534418803627751e-01,-4.557840350599608181e-02,-2.257768304814148363e-01,-5.620243909080410161e-01,-5.714438147470724677e-02,2.242700145209113038e-01,-4.232843577197130669e-01,-1.151697274068520377e-01,4.475106771682258594e-02,-1.060897406649101704e-01,3.880292017164986285e-01,1.499566517930256415e-01,-2.253450557997646320e-01,-4.794279337094146110e-01,-7.382919477191501878e-02,-7.110138887047649792e-02,-2.793145820047172045e-01,-1.166413179792495786e-01,-1.794909129652477731e-02,2.772974969438957160e-02,4.682787965953371101e-01,-2.910677048195942085e-02,1.996737560107464393e-01,-7.524020759536394209e-02,2.184984285964724771e-01,-1.322789088549047032e-01,5.611598357858276209e-01
-3.156409960906535472e-01,7.906330803903062476e-02,2.829309928339643898e-01,1.168741935675874505e-01,9.309606632790419223e-01,-3.252999394793513743e-01,1.091308224121315257e-01,-1.115305393207518259e-01,4.496931574885271732e-01,-3.732228375888050342e-01,-6.841424973867563653e-01,-3.075655903731215335e-01,1.783461745375060359e-01,3.227327994512960152e-01,1.877715084108971810e-01,6.312574254503666715e-01,4.821016903988913360e-01,-5.160447611013829761e-02,-5.535122822637867923e-01,-3.210984080704699650e-01,-1.195992926784589377e-01,-9.058109206657615209e-01,-3.011362059784212231e-01,-1.218741708300900423e-01,-6.537380182140871687e-01,5.437164911633828035e-02,1.300423495913572702e-01,4.375401492069803666e-01,-5.752548201669337447e-01,1.618433615010880788e-01,-2.650690831094472677e-01,-3.091953529037532733e-01,-1.027373689001154888e+00,-1.198609024550124774e-01,-1.409452409072893930e+00,1.005844411331724642e+00,6.019159575928573203e-01,-2.499686551290432324e-01,-2.429806992579815750e-01,-1.056334490880721955e+00,-1.054670978663207359e+00,5.013705995572909080e-01,-2.010881837772088565e-01,-2.448881478380014742e-01,4.753671827875542016e-02,-4.595690620491209022e-01,-4.871885689634385952e-01,4.813584556302736850e-01,-3.284275245507432134e-02,-4.433970631163299259e-01,-6.550613919273404750e-01,1.025590361623408275e-01,7.287847489241508492e-03,4.309162102256193783e-01,4.286811442817741596e-02,-3.372475838230379885e-01,-3.357746702855623488e-01,1.005656317393968546e+00,5.249825665268132990e-01,4.579241301567418265e-01,-1.942817091966471121e-01,3.742199834785746582e-01,-2.288167373831848928e-01,1.038666882131062508e+00
-3.686710126517288993e-02,-1.307958013359552807e-01,1.850844832147060248e-01,1.195399176219413412e-01,7.786760116612688465e-02,-1.456308486045303219e-01,-2.205512721752129340e-02,-5.914471102760693322e-03,2.145667530321964389e-01,6.168584938523791888e-02,-6.527869567259821093e-03,-6.421290797302049713e-02,-3.449931639328203403e-02,7.820222498376423748e-02,1.117044440850060716e-01,8.985486215212797056e-02,6.549039743513072886e-02,-2.535499841006953747e-02,-4.402873262929155734e-02,-2.407664024236108313e-01,-1.147952939402550887e-01,-2.079327157631037648e-01,-2.022426768017578369e-01,-5.548299560136233516e-02,-1.513564359788378277e-01,-1.069119348701593475e-01,5.810484031560672613e-02,1.090147750171121567e-02,2.951105252483558067e-02,5.435479769810599299e-02,1.494116943606427911e-02,-1.108070355325180695e-01,-3.198730309332309396e-01,-1.171212111534631339e-01,-2.892936986939348420e-01,2.872249919568027887e-01,5.455618040523512596e-02,2.186384224033236651e-02,-2.166541268332044731e-02,-3.321830638461221730e-01,-1.772588610266976339e-01,-8.633461311840454067e-02,-2.315177561424303782e-02,-1.692920119261047129e-01,-2.485204906693599600e-02,1.411632631962883404e-02,3.649888415218323270e-03,7.778546090281603098e-02,9.319645486412790614e-02,-1.136163238485857624e-01,-1.655366017128157285e-01,-7.540736809741974134e-02,-4.588429045079545771e-02,-1.047327193880671636e-01,-5.585359778618944476e-02,-1.073715497066321106e-01,-1.899653369825784199e-01,3.294424325343637827e-01,-4.588310798588560169e-02,1.266408068991690672e-01,-1.269690245117771898e-01,1.060953837916230914e-02,7.975072408512975941e-02,1.845243816225247691e-01
-5.462815759808500177e-02,-2.623173355285634556e-01,7.032746619906889984e-01,2.541691312626186972e-01,-1.156066074798397236e-01,9.850780569076658666e-02,-7.090378838602040545e-01,6.209882243387173650e-01,2.128059637646724511e-01,5.157698971446795788e-01,5.273709219087389412e-03,3.187028397774767374e-02,-2.876059038521282529e-01,-1.706052396018698791e-01,1.171071071803967967e-01,6.182345390862490353e-01,-2.554318126945992473e-01,-2.843250077643935669e-01,-1.769071652015685170e-01,-3.061061041728669330e-01,-2.081551206841591728e-01,-1.476191713543112682e-01,-7.865066618306794100e-01,-6.048828937646324455e-01,4.884925081895589716e-01,3.201726859443906892e-01,3.488851796297851027e-01,-3.703103378424820180e-01,6.446176115989191158e-02,-3.485179789238173655e-03,-3.762995401321548306e-01,-9.576399340043072472e-01,-1.390146062567419571e+00,-2.335436100994720265e-01,-6.763043247987947648e-01,8.511553375706202296e-01,-3.408101284474923109e-01,-4.808743104112637307e-02,7.515366143758252238e-02,-8.928655815218020098e-02,4.535296963076129728e-02,4.124625969872991460e-01,3.089609759323487803e-01,-4.478741385073732595e-02,3.755487452719940000e-01,8.714811661562153755e-02,-7.631938937578836013e-01,-4.107269309240660915e-01,2.465665768130313826e-03,-4.215728705292171585e-01,-9.972157179284159012e-01,-2.755856236645354840e-01,-1.144025041256406111e-01,-7.480460789681212530e-01,9.097520084384924655e-02,-2.097565323225296929e-01,-5.975457548111863249e-01,4.147537156163562111e-01,-5.773373951023694772e-01,4.451135244559300541e-01,-5.925224667354899166e-01,-1.856395671659220592e-01,4.491321708330354712e-01,-6.816175134248073086e-02
1.484793184834297397e-01,-3.900574725997023318e-02,2.469878580995792383e-01,3.739416032198076417e-02,5.958735992225102501e-02,7.527044118113935395e-03,-3.485919562013519157e-01,-1.335903267548069484e-01,3.588101474709908811e-01,-1.081008844096448679e-01,-2.439450810309223561e-01,-2.754258470711976048e-01,-1.655537265225509869e-01,2.925908594547793878e-03,6.352165861898362298e-02,2.491872474225229062e-01,-1.063244039984570649e-01,-1.500681627242320404e-01,9.096733357140486531e-02,3.659297144529601031e-02,-8.560593220401650771e-02,-2.170345766223197304e-01,-1.874162785628060712e-01,-4.178392971865013128e-01,-1.994008260337467101e-02,1.149967117577902626e-01,2.255423077921713260e-01,7.535309582531106443e-02,-4.465668222735032222e-02,4.021808631415849100e-02,8.412800262443041743e-02,-1.581483835984307806e-01,-3.939260417344789267e-01,-1.490594095671749497e-01,-1.076625350395808423e-01,1.632958543126534212e-01,2.061476027192644944e-01,2.195974566324633004e-01,-2.806319769383672780e-01,-9.506113976857910597e-02,-3.823162617673825023e-03,-1.070463121756937974e-01,2.449542740882093284e-01,-7.555775249327918719e-02,1.628788856068233426e-01,6.804989988377893595e-02,-9.715920475999469119e-02,-3.206629166851579504e-02,-7.214681231766249814e-02,-3.967876080891833968e-01,-4.497856626344084452e-01,-1.385291242497920794e-01,7.578991548740728057e-02,-1.075631770415624577e-01,-4.603589791283981686e-02,7.239355715573222994e-02,5.056190386314895341e-02,-2.373714425947860696e-02,-3.512940514877333498e-01,8.369814940503055370e-03,-1.534288002507095683e-01,-9.914863911909341243e-02,7.707417368073775366e-02,2.134203903229231203e-01
1.451745430921274086e-03,-1.944041683770707796e-01,9.702872029654683317e-01,4.714487104097540571e-01,-6.625102979751972265e-01,1.295796393812299607e-01,-9.794799834510616865e-01,8.608504760567043945e-01,1.466718475655362230e-01,4.208181870429007487e-01,8.572392341184803533e-01,4.859858086822195222e-01,-4.482073650946478138e-01,5.555160938635271828e-01,3.777954452242671679e-01,5.581940968878221776e-01,-9.905885836741465944e-01,-6.871593849172284996e-01,-1.262291367735270294e-02,-5.892398045333820111e-02,2.021949971984919325e-01,8.306618158244341021e-01,-1.830364371308252025e+00,-8.932690169110626410e-01,1.247754168678736120e+00,1.457381040755370838e-01,4.120887161452545522e-01,6.985566342472004919e-02,7.956231049496326202e-01,1.251080680508659670e-01,-3.625569980165884582e-02,-1.053719000080118873e+00,-9.002153079308952144e-01,-2.526741251580272296e-01,2.203660128396822127e-01,3.046730110350721055e-01,-3.346918461175983905e-01,4.739295534532272924e-01,2.434694359587972479e-01,4.003214639476145309e-01,2.211937671925930937e-01,-1.716965178141290349e-01,7.294312059082569411e-01,-5.622337161750543544e-01,2.561869049786409946e-01,4.960039590668380849e-01,-3.250161800090444197e-01,-2.777918196205789170e-01,4.648871240493935852e-01,-3.164290811705711831e-02,-1.527242244686121353e+00,-2.700530681798941623e-01,-1.382030625726680395e-01,-1.135059786293076911e+00,-4.986003292993142488e-01,3.696727588992738678e-01,-3.515650401506379419e-01,-2.847034892784264942e-02,-1.406313469705099850e+00,1.559260256049393445e-01,-7.558840149052596935e-01,-6.718841503910646384e-01,5.236531375710529179e-01,-5.924647137034073918e-02
-1.646365912965539746e-01,-7.917164603395844547e-02,3.593491926243624901e-01,1.079254278207184697e-01,2.378073034354559190e-01,-5.881585492731351145e-02,-1.203610817475992377e-02,-8.918181557842352891e-02,2.078674236194181513e-01,-2.943465291942075693e-02,-1.152728765379567796e-02,-8.754875387918585605e-02,-1.057705660947091258e-01,3.417711800246713838e-01,-1.066922502293193853e-02,1.737156447903561440e-01,5.809742347874138901e-02,-3.420016721052265840e-02,-2.464904006841483943e-03,6.016241094912931631e-02,4.805342706723316620e-02,-1.818336625268942019e-01,-3.320915591594165162e-01,-8.882727381650351584e-02,7.197672347037922802e-02,1.172368254763057373e-02,1.184668352179045064e-01,2.011178501606249447e-01,-5.924492973456607636e-02,1.814308454468489817e-01,-6.215123502921000333e-03,-9.369245451033451910e-02,-2.420170336470261752e-01,-1.598170209445307355e-01,-2.444083453168888476e-01,1.722209069179674590e-01,1.006222359663437593e-01,4.575096800484934612e-02,1.150411336205804935e-01,-1.812816796516637796e-01,-2.024907932371523833e-01,-3.629405454188006780e-02,-1.342993683885062520e-03,-2.194415719543189591e-01,1.035940258178607715e-01,1.614806677401914026e-01,2.211678280340509395e-02,-2.519674432254738472e-02,-3.910502002075808697e-02,-1.649544159374468355e-01,-2.671663109432830252e-01,2.185600963860195867e-01,-2.690077421797894275e-02,-1.307455244129299143e-01,-1.196000019344062443e-01,2.832709449387197168e-02,4.331545118049023174e-02,2.635228777538268230e-01,-7.717836058236209051e-02,7.296088601975407595e-02,-1.697881134404074233e-01,9.881647293413454991e-02,-9.472758522793930935e-02,3.249495221444752557e-01
3.988532428905773308e-01,-1.460324190333464334e-01,-7.466951429940066332e-01,-9.916171738630841226e-01,-6.801472488777389191e-01,1.588088787544073566e-01,-1.154052760755675949e-01,6.011403190697628407e-01,6.414174549345486032e-02,-5.237435281596125591e-01,1.804166981787632684e+00,1.020034870151090178e+00,-5.015407537341104449e-01,1.360429299531938363e-01,4.283792451986341288e-01,-1.418361011330415256e+00,-1.498543142642239978e+00,3.374544321357654808e-01,-7.964388658828005507e-01,3.372510356377089180e-01,9.118859205234215448e-01,1.153671069233003887e+00,-2.048051659917687228e+00,7.930604905384831538e-01,9.816857228841386895e-01,-1.024814008635544615e+00,-1.325915465293163287e+00,2.120102909972831018e+00,9.516075300216421118e-01,4.445937704342098340e-01,9.188417556783627926e-01,1.679883307314287810e+00,7.636469603765329017e-01,-8.816507910468265319e-01,1.226989277121843580e+00,-3.974527638580591105e-01,1.406140240071538927e-01,9.910891159776439308e-01,2.412072971378445216e-02,-2.584997735714434364e-01,-6.579092832592838835e-01,-3.181741235823601355e-01,-1.193386742766891495e-01,-2.106248984133328950e+00,-1.053725671126528596e+00,8.057955158193575995e-01,1.423816872910657061e+00,1.324807370567678388e+00,8.608537957668619400e-01,2.736449095248457031e+00,-1.136906571796315824e+00,-8.768954390316834324e-01,5.067165873244656726e-01,-1.034802807933311863e-01,-3.888396739630455845e-01,-1.311185633197723133e-01,7.504605989117041354e-01,-2.016951683753707703e-01,4.648537759172090555e-01,-1.848954103096208390e-01,1.213535700710532739e+00,5.048958755550209121e-01,-1.576168774153211549e+00,-2.199271799053897636e-01
-1.122853110440852065e-01,-5.178437961853381566e-01,-7.055119845106246901e-01,-1.431330744989191217e+00,3.282288444503831948e-01,-2.854813978984391612e-02,-9.662157227143971516e-01,5.638704432395752475e-01,2.848218462740250700e-01,-1.120968767335796951e-01,1.453150658540525386e+00,7.463638223136724870e-01,2.008266186296249201e-01,5.055450178905553926e-01,1.764856835788047640e+00,-4.296121094159628395e-01,-1.481590752076315409e+00,3.402267880761353225e-01,-2.229946428277315373e+00,4.601093199301553027e-01,1.597530540541775013e+00,-7.138185496915844253e-02,-2.381027546843662357e+00,9.599629283569564020e-01,1.234878173764801662e-01,-1.554820646467628187e+00,-2.336570570357396459e+00,2.328539833571701578e+00,6.407009904759104479e-01,8.370478339121020239e-01,8.435375443853803112e-01,1.943262060162935789e+00,-1.458104556291481169e+00,-1.797624928300884717e+00,-4.446533041389693075e-01,2.085756626136612280e+00,3.518636396925137744e-01,1.098249899370969063e+00,-1.324542220384640479e-01,-1.981696823291573484e+00,-8.734889582501114136e-01,8.402285488723324480e-01,-1.167794912745631908e-01,-2.801459738939982458e+00,-1.287396413539463991e+00,8.245395359135543334e-02,7.495425593601618974e-01,1.601760846175234176e+00,1.294252560248944084e-01,3.009327254518849415e+00,-2.333090211021064952e+00,-1.138500686240879078e+00,9.947276938290010584e-01,4.443840208456670826e-01,9.131603569761201911e-01,-1.789984796257517718e+00,5.230005232168181278e-02,1.541670229409867643e+00,1.335756067170581041e+00,-2.869128866820541690e-01,1.365515059264105657e+00,1.142975409998805203e+00,-2.388786564364778098e+00,7.905316971402979176e-01
2.155663258032103693e-02,-7.099446736117159817e-01,9.194137463694268542e-02,-1.339595002257587542e-01,5.541244290197612221e-01,1.131878339064942285e-01,-7.813913135249870301e-01,6.499564447415519253e-02,7.520685483748633660e-01,-1.257601059316511838e-01,2.359421604132338757e-01,-1.436474638966432071e-01,-3.788924822118081709e-02,2.390141835133417769e-01,5.317655608600913020e-01,6.854119605807160176e-02,-4.416606740046571389e-01,-2.408431209581980703e-01,-1.119072092989504830e+00,-3.240431181379595516e-01,7.894458273085367406e-01,-9.790993578489677329e-01,-1.177715378731875706e+00,3.126699821184692474e-01,-1.460117954873830504e-01,-6.038120662086513546e-01,-6.332073544521665820e-01,8.222238867341056245e-01,-2.994724129492742359e-01,5.034035776358373182e-01,3.958129201153073873e-01,3.431272788274595809e-01,-1.900227573082400312e+00,-1.219539183967344620e+00,-1.099292993463940826e+00,1.510663793053208526e+00,6.193658253784983803e-01,6.648796809510426620e-01,-7.248040209958309110e-02,-1.545941665782748498e+00,-7.348143282649685082e-01,1.613939111926706305e-01,2.346362969036952795e-01,-1.315499703325037295e+00,-2.513494794620194095e-01,6.494556548616137182e-02,8.918668241656041787e-03,9.323837968908414986e-01,3.752482080746095267e-02,4.273860312823945518e-01,-1.487409494072402971e+00,-3.263002710558903230e-01,1.563436941077534781e-01,2.372889313808469181e-01,4.444273315238075339e-01,-8.212070147201225856e-01,2.941565792182574898e-02,1.147686857824082196e+00,1.968227371298676420e-01,-6.046059997820982246e-02,2.082498485842707858e-01,2.901070295153259093e-01,-8.292015581106860767e-01,8.883906193130584050e-01
-4.486119096794511374e-01,-6.758281655320969028e-01,3.351347169446237118e-01,-1.138028349662385530e-01,6.237209995295830423e-01,7.012890659642955632e-03,-6.721141708868312303e-01,1.671479190782708749e-02,1.005936480825834645e+00,-9.822227911673160616e-02,-8.478428351117291151e-02,-1.024085318997936395e-01,-3.579681655224829784e-02,2.689416845945024614e-01,3.263323330562884483e-01,5.248220410833419614e-01,-1.722045397830509750e-01,6.907359975326997185e-04,-1.211339854233401958e+00,-6.249551121484663296e-01,5.523307868417193234e-01,-1.356646176779809920e+00,-1.249853415959062852e+00,1.600605177593449405e-02,-2.615517498848283218e-01,-2.861101904261481588e-01,-6.645924997068223261e-01,4.924677654204950850e-01,-4.954119481444387296e-01,4.968934795961226780e-01,3.024968434265047634e-02,4.114510012292278696e-02,-2.364536176468246431e+00,-1.287216602076012073e+00,-1.279539635679414422e+00,1.993894985549215404e+00,7.013626850976673044e-01,3.771690100296445913e-01,-2.144417860427997868e-01,-1.921204483980851752e+00,-8.736079074263900512e-01,9.012140405168414525e-02,1.609434480521625965e-01,-1.158901230184040010e+00,2.201946289578851287e-02,-6.138451583079831270e-02,-2.868504830640449810e-01,7.582846684449887631e-01,-1.321089430471101764e-02,-4.882736091310406479e-02,-1.511444461738260081e+00,-3.782242341581008166e-02,-9.410067066703967087e-02,-6.585165323551371575e-02,6.910288915442913682e-01,-9.311046223305516900e-01,-1.879327464122574065e-01,1.526910670175476437e+00,3.454688119320613038e-01,1.904655953426152293e-01,8.258092640178441024e-02,6.465199548667591722e-01,-6.235590273161736308e-01,8.688902054038150080e-01
1.661618913804306930e-01,-1.947302819159702214e-01,1.533624274113743469e-01,2.693923026974404111e-01,-2.906917068526493897e-01,3.911426460238459080e-01,-1.025015501818775876e+00,7.464574120621914055e-02,2.577738100177389136e-01,3.707659307125304449e-01,1.410335893974096200e-01,-2.044558660025949659e-01,-3.652443855053596478e-01,-4.474623523706384720e-01,2.161668689628530871e-01,6.287718717914055899e-01,-5.561826445999452639e-01,-6.911150613513642460e-01,2.195162812653675410e-01,-6.402661918715178702e-02,-5.424830123186745456e-02,9.944526197800226952e-02,-4.730163893275556863e-01,-5.920893261091935145e-01,8.994747193103161953e-01,2.001868014458604017e-01,5.885264610176371702e-01,-2.932377566866763430e-01,3.030018209605649451e-02,-2.830812666060801563e-02,3.609863284298497899e-02,-8.182516709807967636e-01,-7.615215695297663512e-01,-6.105900163243431489e-02,-3.237246385830696016e-01,2.426122530147576950e-01,-2.140053355187518103e-01,2.642413378132125734e-01,-7.785655676088962251e-02,1.727372624079037411e-01,3.575576272688328339e-01,-4.039597546454014587e-01,6.143390533066818149e-01,2.203812395132166702e-02,5.372299973835324982e-01,-1.809951726060254062e-01,-5.145307196310213715e-01,-7.118756980774780807e-01,-9.591285802559786078e-02,-3.855424525118926193e-01,-7.388747333949379215e-01,-3.541096224080012567e-01,9.568057317947076257e-03,-5.818987206199209838e-01,2.335032986302061075e-01,2.318457948112331579e-01,-1.055301220538117091e-01,-2.904155795007070662e-01,-9.467971965467727458e-01,-9.436796337069562612e-02,-1.243979442909595307e-01,-4.898973994513949326e-01,3.252138218227566130e-02,-3.527487387480356951e-01
-6.863377022541090888e-02,-6.179835839447131995e-01,2.809009649463514169e-01,-2.373640946495175763e-01,3.376753103542018963e-01,4.131206172616833094e-01,-1.077296908540658738e+00,-3.511995453630412795e-02,6.504134833814957384e-01,3.493608245569252424e-01,2.257894530893617135e-01,-7.581030101573339453e-01,1.250213140057659413e-02,5.309460425472599387e-02,8.375390454585313060e-01,1.070264757604952433e+00,-7.786907208654341161e-01,-5.268917945196361918e-01,-5.798850930512391422e-01,2.801264144922728169e-02,8.185253805548795558e-01,-6.861409285067335828e-01,-5.980333684407661554e-01,-1.814917944847554421e-01,3.221273970995758851e-01,-7.944454491398804125e-04,-4.743760039303927117e-02,1.955867203155047251e-01,-4.508028206566394580e-01,5.347862482193153078e-01,2.002156902327981436e-01,-5.478649663309128615e-01,-2.317413530729519167e+00,-9.666525839711874735e-01,-7.752672270351237405e-01,1.167047730643269832e+00,4.982304295101943059e-01,7.932205350977401537e-01,-2.436234179770074282e-01,-8.750557656932158590e-01,1.049776462191310961e-01,9.624830094127287405e-02,7.158590416961979619e-01,-5.537745199413539599e-01,5.041488750202332003e-01,-2.654061963163998894e-01,-5.284974575892509296e-01,1.499031397791074083e-01,-5.051181901817314301e-01,-8.842016020712816296e-03,-1.350941765805879324e+00,-2.987285964118716053e-01,1.559437034462256289e-01,-8.167396953584718511e-02,9.696142073565443553e-01,-4.736168378739807894e-01,3.214284042692213544e-02,6.774603250812882838e-01,-9.876811296345258118e-01,-4.728023883213916534e-01,3.982622655842054521e-02,-1.031178639676650494e-01,-9.334375348110296455e-01,2.806652346238595053e-01
5.871455612941066382e-02,-3.757704829358379239e-01,5.840967311844759424e-02,1.396463728635688288e-02,1.598699945086190510e-01,-4.011720431232858319e-02,-6.129958538740840068e-02,8.149934798327636287e-02,5.217851531311894497e-01,-7.723678802212213812e-02,3.193964613969848543e-01,-1.239107987413233664e-01,5.194073011279180807e-02,3.494359659366920168e-01,2.118005935150901187e-01,2.712619941304481586e-01,-2.758150722186201720e-01,-3.792036775477732324e-01,-1.712952883345641164e-01,1.422677603793596202e-01,3.869035239703092488e-01,-2.788717219899040645e-01,-6.179649139168993388e-01,-7.433899780892452847e-02,2.358043467437871132e-01,-3.993735235192654581e-02,3.906949243438682662e-01,-1.975142715771925628e-02,1.116992791136079688e-01,4.315608352695017302e-01,1.799529657624706347e-01,-2.771227748725106355e-01,-7.204116252439242141e-01,-4.496817155740764904e-01,-5.440753776653370899e-01,3.978297849523420582e-01,2.620418285813508330e-01,6.444757084127968882e-01,-1.484667094509718177e-01,-3.774913559387169659e-01,5.951826552856618463e-02,-3.019183592269571448e-01,1.122733540107216516e-01,-4.036777334329352818e-01,1.951870096218708273e-01,1.870501787696455254e-01,-1.373849999460455551e-01,1.548568819350777948e-01,-2.884229250673636669e-01,1.354331227826018613e-01,-3.978627992937479041e-01,5.446104407126363400e-02,-1.638242194483520431e-01,-2.067296170853444859e-01,3.089675566732099088e-01,-2.446585463079332945e-01,-8.097257414507735840e-02,3.805361417431707971e-01,-3.472863350618897726e-01,-4.329018378375736331e-01,2.698494427888988370e-02,6.189680806355605386e-02,-5.581204855937819120e-01,7.588332290562582738e-01
2.227554794696973983e-01,-2.002821743560724566e-01,-1.753772163207960311e-01,-2.633282114032794441e-01,-5.112003814385805978e-01,4.412885998449374014e-01,-3.865115560063404621e-01,8.661883461417184404e-02,-1.594856852035365924e-01,3.448958039434920630e-01,4.712653568219832834e-01,-4.387083624683774663e-01,2.827375225465718067e-01,-5.875972287205023514e-01,5.333795443350940468e-01,-2.675402482751257360e-01,-1.010675879591661053e+00,-2.681461725736761226e-01,-3.821020837731365916e-01,1.901852967147664164e-01,6.141430773322974490e-01,3.289404320754789612e-01,1.051630670587850730e-01,3.456778229500490074e-02,6.712659213665641555e-01,-2.619937064051612308e-01,-3.472810811696213085e-01,-2.208680324215520421e-02,-2.071238757583942491e-01,1.504340666491888467e-01,4.256087852527978832e-01,2.645265229921450745e-02,-4.838523118356720110e-01,-7.866290728501152962e-01,3.823949044983822043e-01,-2.496436442389073918e-01,-1.290190214451085726e-01,3.861344061720237142e-01,-1.070741336657324155e-01,8.394622349397976024e-02,3.192746286344014806e-01,-1.576552869222795361e-01,5.684693654361213655e-01,-3.812048517668434333e-01,7.969871536978691273e-02,1.210387296479184388e-01,1.785729442598146532e-01,-1.788322440710344479e-03,-3.456064838690326574e-02,3.101782335709487581e-01,-5.145888962523869070e-01,-6.545674500567610909e-02,1.191883501714596227e-01,1.878601394089029764e-01,5.819217851995138746e-01,-4.111314645322495798e-01,5.068186810889994121e-01,-4.355881609001032717e-01,-8.490456847126923723e-01,-4.100081043986769092e-01,3.088166689319939429e-01,-5.452736241901910974e-01,-8.077491649648183003e-01,-6.945385486963743249e-01
-8.279242995239087799e-01,3.895879714121349702e-01,-3.255265315260932324e-01,-2.897987879924768806e-01,1.996440008619334572e+00,-1.206880856654743844e-01,5.287328728647572307e-01,-4.193604258489644354e-01,1.049441946170024842e+00,-1.246799243272285640e+00,-9.595670327412508804e-01,-6.850079628262265574e-01,4.109419617387244372e-01,1.886882852087922724e-01,-3.692878581777320895e-02,1.247337310671163130e-01,1.221457323372227455e+00,-3.484480374177360562e-01,-9.043937766513171495e-01,-3.228419829753984005e-01,-1.004195720422130095e-01,-1.115174979379406350e+00,2.332085068215961413e-02,6.099745763788250175e-01,-1.701900200449308231e+00,-1.862917132745295634e-01,-1.985685989277530261e-01,1.424377219596346889e+00,-1.489766536953458953e+00,-9.488736086626687813e-03,-2.042153804605088829e-01,1.744636020180130864e-01,-6.142207871401287322e-01,4.197493610345952586e-01,-1.552362758898014450e+00,4.050553567250649301e-01,1.594188542404405107e+00,-7.975813466125490914e-01,-7.488179617603620830e-01,-1.304289326353151868e+00,-2.764050800268211816e+00,7.671624029666808120e-01,-1.806326759593737397e-01,-7.177557352784124101e-01,-7.129377025851917349e-01,-9.218352377153827826e-01,2.440782048188518405e-01,9.742900233897552331e-01,5.406605240916499688e-02,-3.753483398212348887e-01,-4.680960043051920483e-01,-1.496834769422752997e-03,5.139450047680332867e-01,1.747019522058422147e+00,2.536729384306868340e-01,-4.719596953064624789e-01,-3.011526941566176618e-01,1.745206992239155541e+00,9.764338359582375171e-01,1.061907863562591814e+00,8.699898016579116211e-01,1.048521956025013191e+00,-1.240506910471526947e+00,1.548027255268542124e+00
9.544619990547384414e-02,-4.818146718898900227e-01,-2.401658408357286723e-01,-4.207435047187159105e-01,-6.718853974188226941e-02,3.346577666855517913e-02,-5.984148997709559659e-01,-3.751649607043193446e-02,4.503465967226547018e-02,2.228159133046116736e-01,3.364008933270296597e-01,2.712699543969547197e-02,1.212009795709023813e-01,-7.730258582215640550e-02,6.652855404827319186e-01,7.001458248478040214e-02,-5.007172006574387435e-01,-4.746227277353387564e-02,-9.648211759601289517e-01,1.399916970017324735e-01,5.530313766907880568e-01,-1.549250880161078814e-01,-7.562283546966156456e-01,3.557800994390560301e-01,-7.237816190324665444e-02,-5.277627120683233697e-01,-8.241944850731560690e-01,4.879127294620574373e-01,2.448172363782527561e-02,2.023062236898328925e-01,2.675633290594611191e-01,3.748637632908472517e-01,-1.085586087291656954e+00,-8.202984185229326153e-01,-5.293633172585178182e-01,1.184047963488669586e+00,1.647476560100482462e-02,2.960466305843885149e-01,-1.514459623762893781e-01,-1.012782505608085915e+00,-1.079336351095882933e-02,3.667785186396108066e-01,3.710947713227036315e-02,-8.828627661212807842e-01,-1.767826201211855908e-01,-2.518675855833842903e-01,4.214759761648897290e-02,3.668430154245687080e-01,-1.605583651155526037e-01,9.693129634740831335e-01,-8.649989158241789822e-01,-3.957384724180953994e-01,3.045563765702701264e-01,2.362618653006067215e-01,7.094916993537956351e-01,-9.152387208604902957e-01,-2.151938358634064297e-01,7.648286608416779986e-01,3.357441336793796638e-01,-2.553631013042350142e-02,4.900574790882611387e-01,4.089749215803463178e-01,-1.019033693138093444e+00,1.658741233910279445e-01
-4.066582140227135156e-01,-2.742932274100657875e-01,-3.725658905048223613e-02,6.183372719157377573e-02,-7.107192285801097742e-02,-1.529310725344310284e-01,4.615564364372821693e-01,3.411332032161553118e-01,-8.028818294255476995e-02,4.789491686889474353e-01,-5.934973371813345722e-01,2.739239656906340414e-01,3.222475859226611727e-01,-1.739842144336947172e-01,1.955718110116420536e-02,3.030807823469331419e-01,3.748376933207042128e-01,7.450776817553778075e-02,-3.801973038524185666e-01,-5.636436321580956532e-01,-2.292236794743699457e-01,-3.906323392464869371e-01,1.699597032901582205e-01,1.499230207363134171e-01,-5.951572545550027904e-01,5.868257879795504145e-02,-3.472663747185695260e-01,-1.232529745795431397e+00,-1.244108861955581513e-01,-2.310311786905128173e-01,-7.544328454329625178e-01,-3.298413305602972967e-01,-5.729602049280290155e-01,-1.393379627541912746e-01,-7.706291275626477866e-01,1.340721187709665418e+00,-8.779172810919745329e-01,-4.852569938539292305e-01,6.846269641724897492e-02,-4.953255184591672244e-01,3.608038474326479284e-01,7.170580633410357230e-01,-6.654991016262870041e-01,1.401096620708680296e-01,4.745619267093627580e-01,-2.866271921478374396e-01,-1.171193492673122893e+00,-5.783092477982629820e-01,-3.759302619320369909e-01,-8.950956431272873159e-02,-9.407092784635937011e-02,1.926844326845658928e-01,-3.843630419642467960e-02,9.901303133833974646e-02,7.354463236793606917e-01,-9.116132496223046111e-01,-9.373722715883625600e-01,4.708447086876110799e-01,7.426928457515258319e-01,2.654228427832719950e-01,-1.371235547054122927e-01,4.156142275970254873e-01,2.241783776830666708e-01,-6.224112445804428351e-01
-6.107717795302673724e-02,-3.181411531149734295e-01,3.764674231868177234e-02,-1.715754205993670276e-02,3.644906572701148151e-01,5.106207562347321247e-03,-2.430700637102400641e-01,-4.390442202337528632e-02,3.537867773910084446e-01,4.692589110482242587e-02,-1.534520382917728132e-01,2.122152742316520818e-02,-2.020904450043479669e-02,-1.274472671665325407e-01,2.274673437914964957e-01,3.095980373875375502e-01,-2.350074436971432909e-02,-1.515558575941376163e-01,-4.949615206645521237e-01,-2.381457387945090376e-01,1.506847787043758546e-01,-3.514166034246729020e-01,-2.539355267737544719e-01,-1.158982609912285744e-01,-2.239035572370039195e-02,1.207342001804296433e-02,-1.063349741191309122e-01,2.450048436193711862e-02,-1.235173761528667868e-01,6.394798874127416433e-02,5.490874281941564468e-03,-2.575374850238383861e-01,-9.101010283148062152e-01,-5.153834907625276518e-01,-5.901490354892409140e-01,6.555740200488369140e-01,1.442877179565725809e-01,7.145763356491588447e-02,-2.332846033969216137e-01,-5.495087122064952201e-01,-2.258044081269832415e-01,6.650943893393201911e-02,1.487971673972298403e-01,-2.011497103407064724e-01,3.195124192687782139e-01,-1.025739374887409544e-01,-2.900452150183753242e-01,1.465680155922937560e-03,-5.658747026529272611e-02,-1.764201322901900459e-01,-6.881286454001422914e-01,-2.962553115412240590e-02,-2.929240463741522582e-02,-4.061399783644567552e-02,4.018984541938831478e-01,-3.780242460532712290e-01,-4.127985865007797184e-01,3.960014782689216251e-01,-1.276038149489008497e-02,-2.305960089938985727e-02,-2.026505785353741387e-02,1.078478260006499045e-01,-2.501651474915485007e-01,1.794314718241672990e-01
-2.709694216648507181e-01,3.419129840264377961e-03,5.096451048540763251e-01,2.947485380100793306e-01,-9.659523526405223715e-01,6.395315001738665073e-01,-1.534590547192257848e+00,4.210703186328852432e-01,-4.267586244841131138e-01,1.365813891006308012e+00,6.707100724897001598e-01,9.526153268607238933e-02,-3.854778911129175256e-01,2.933900451485081939e-01,4.647355693653543729e-01,1.092994684779991843e+00,-1.514330963710223132e+00,-2.631195993089526231e-01,2.058152761549663090e-01,2.201824752893311865e-01,1.126485790838661072e-01,4.719265447831901827e-01,-8.175020986567144154e-01,-1.267060106350825555e+00,1.470429949953458770e+00,2.546202341621633392e-01,2.996518729397590897e-01,-1.067498693643661456e+00,3.622857906883704682e-01,6.392355460449519189e-01,8.108940742280003333e-02,-5.755618489023377471e-01,-3.311005243426795586e-01,-2.801435015574040288e-01,2.730365635746009878e-01,5.128575078074266713e-01,-1.084745028183450755e+00,4.403691798722045858e-01,2.262958109327033451e-01,2.229213278464812764e-01,1.685127587128252946e+00,-1.805992821912202062e-01,4.884683092710060404e-01,-1.632463744494515590e-01,9.642485046613924471e-01,-4.309031805094779011e-02,-8.409263211680455541e-01,-7.431985351483139102e-01,-2.450364319676976432e-01,-2.830467279310827297e-02,-1.102507167232770424e+00,-5.153754837213592177e-01,1.047862346526340083e-01,-8.361766022632005635e-01,5.627144100178586156e-02,4.518988691712434030e-02,1.662541263157365362e-02,-1.055123863504400905e+00,-1.373279444238721281e+00,-7.581231559048088320e-01,7.302314044869958297e-03,-1.159919296522042176e+00,-1.644115083040493253e-01,-8.676495827545717132e-01
-2.874121569648359006e-02,-3.031397377686522177e-01,-1.212631919166397704e-01,-3.226689508669381423e-01,1.143906913864392166e-01,2.790363034434784756e-02,-3.057147449749087476e-01,3.711643733541480222e-02,3.075088309679447351e-01,3.134488602254609929e-02,1.277810285376870247e-01,-1.310891284104831189e-01,6.280078431856210563e-02,-1.919390754124916665e-01,4.228672044061231872e-01,1.955194216837231880e-01,-2.557350545160855804e-01,-1.571693099856005804e-01,-2.377450287688821218e-01,1.513007388788079333e-01,3.701852099308159394e-01,-2.946047160687186861e-01,-2.872280556357995063e-01,5.605834305402668943e-02,2.225928045216601925e-01,-2.302668662614231476e-01,-1.827181941870626714e-01,7.700587752594377500e-02,-1.764627811516135125e-01,1.636938269225372833e-01,1.779935465658162852e-01,-2.578847298369112973e-01,-7.689499245017121787e-01,-6.249677697009801136e-01,-3.887444349774712982e-01,4.982599445798335802e-01,6.021295464715482881e-02,3.269622806226755718e-01,-2.528079130095721716e-01,-4.415139789977038376e-01,-2.205878808278234904e-01,3.967506597974125582e-02,6.778586821165391574e-02,-3.788327012377250003e-01,2.897655707290510557e-02,-1.315808512771760030e-01,-1.879742016237782309e-01,-5.349782719127479241e-02,-1.414367564591689497e-01,3.236377748450069980e-01,-5.857368740023913833e-01,-2.408564266701565260e-01,4.967352288966572424e-03,-2.782658691160910455e-02,5.319928840958438876e-01,-3.724816616274355119e-01,-5.510366027587588339e-02,4.069579949577012412e-01,-1.876246029665442627e-01,-9.045479143564408298e-02,2.571584570151271287e-01,2.086515858068750395e-01,-5.356957899659692268e-01,1.388526055516823843e-01
-1.216156812169204710e-01,6.370277087921245585e-01,1.066657744345813175e+00,1.230796928638932530e-01,-5.849984622497889086e-01,1.798800323769943199e-02,8.155222514383786425e-02,6.834537002040188547e-01,-3.644712848045221221e-01,1.619243379104117475e-01,6.387853350121743823e-01,-5.476929461689931111e-01,-2.262820598156780605e-01,3.476861998427969169e-01,1.626991029979195369e-01,4.730803935291482132e-01,-7.489643615977819024e-01,-2.727131991180154480e-01,-6.994179271049234814e-02,-2.956222770524870591e-01,4.124196775983382524e-01,3.130422467978745682e-01,-6.805877170690320943e-01,-7.642040833858124715e-01,6.687866285290652302e-01,3.625462509652260801e-01,5.336960717335315074e-01,-1.643366341310771861e-01,-1.149742521307734744e-01,5.324801780380489236e-01,-1.599009136354753446e-01,-6.809391443904071473e-01,-4.562205976148108744e-01,-3.855722621125030058e-01,4.869720017053792427e-01,2.007199180748099332e-01,-3.400119823999180335e-01,3.417626428884463219e-01,-1.513520123006338036e-01,9.370827844939011442e-02,1.041836814370088876e-01,1.971938034343453106e-01,2.910399442014263705e-01,-3.488835872644525660e-01,4.558663129396506863e-01,5.507446694746870319e-01,1.292162664176712272e-01,2.238441869609315571e-01,2.067376843988915081e-01,-2.085742161320135180e-01,-5.672283273060161335e-01,1.706178126361860559e-01,-3.202282392012644197e-01,-6.202895104633627810e-01,1.073553600407905068e-01,-2.874462908151335094e-01,1.372395679845355987e-01,-3.485753930402490930e-01,-1.192226204586538385e+00,1.788517330354700841e-01,-1.614757526137251264e-01,-6.272476947132726854e-01,-8.778208725405398094e-02,3.249647146378757401e-01
1.109590968647621301e-01,-2.327782411513417971e-01,-1.561291541750315648e-01,-4.716245832175879893e-01,-1.867202528175432030e-01,9.629018129210697996e-02,-5.294114391683354959e-02,2.604882101239442901e-02,2.052106131148155946e-02,-7.697640354640676585e-03,4.892622451854534149e-01,-4.981321719121608108e-03,4.913375372658614765e-02,-3.622155346909336493e-01,2.110138582316006817e-01,-2.821303705406411622e-01,-4.597076485772556009e-01,1.071519481515715300e-01,-5.067440623945614897e-01,-4.456393228811691976e-02,3.482212518455378714e-01,-9.640455594322484834e-02,-3.713185866132513446e-01,3.542204330642688137e-01,2.598789461068331530e-01,-3.051465212652668124e-01,-6.185847272655401463e-01,4.545349683800948282e-01,1.006215209350012560e-02,3.402502162417337939e-01,3.423934803832259788e-01,2.663180867770908455e-01,-1.328151464940259541e-01,-6.845718289280465774e-01,1.764618397819811835e-01,4.439615346673112667e-02,4.335679090180829393e-02,4.100078091602258334e-01,-1.248447108095881997e-01,-3.611979424571580277e-01,-1.675633084597922262e-01,-1.697670757806036546e-01,7.691105293058823900e-02,-7.043792802918759088e-01,-2.372917757247603454e-01,8.354931309518508209e-02,2.873384915210341894e-01,5.292436556996684693e-01,1.841729591537676070e-02,5.439268462639834656e-01,-3.228254103201211311e-01,-5.088832875662869376e-02,4.884956144493517172e-02,2.293498586907931902e-01,3.730545080885269149e-01,-3.141346506080744394e-01,2.808555024184755111e-01,-9.053456961789568824e-02,-1.302811613283375858e-01,-1.507602153194127770e-01,4.804648046623347102e-01,2.536249907193612874e-01,-6.737808738063678637e-01,-4.039602352210523023e-02
-1.140630887852682740e-01,-1.039197662346997841e-01,2.226009375478054109e-01,1.599553570833285032e-01,6.535415245264450945e-01,-1.348977858720005196e-01,-4.315371406085963257e-02,-1.631580365977814695e-01,4.912967029220869919e-01,-2.285577833816372084e-01,-2.340131423086243001e-01,-1.807420236378884659e-01,2.048040066324064226e-02,3.211752076669658340e-01,2.187497630689372655e-02,1.433612097460029433e-01,3.263319875180582530e-01,-2.458496916537986250e-03,-2.242766350923359187e-01,-1.506293293482129925e-01,-1.506428157720048622e-01,-6.154128589922523984e-01,-2.800210083938860506e-01,-2.799775005402248967e-02,-5.830859507317752710e-01,-1.455569106178873640e-01,1.177912726200723015e-01,3.326062781267824509e-01,-1.853179818925033140e-01,2.046877753620974794e-01,-1.567625725026573213e-01,-9.468876537567305629e-02,-6.152472662325552122e-01,-1.154697985201339067e-01,-6.165870387182829093e-01,6.361749589680231187e-01,4.247120119381013192e-01,5.515010210898910886e-02,4.837726238203167439e-02,-6.399017244132237936e-01,-5.225363348995393231e-01,3.224141713218454160e-03,-2.266910733498789937e-02,-4.826593993796470250e-01,3.699447904808834953e-02,9.972854471710920765e-02,-1.842054832429253219e-01,4.717440327319848414e-01,-1.167582471862000336e-02,-2.696754790644068089e-01,-2.603176388773398853e-01,-1.345779129293520927e-02,2.650919936796404183e-02,-6.160335048886970283e-02,1.341960854031643870e-02,-2.143495896381472643e-01,-6.338677781581369963e-02,6.120409647526496855e-01,1.615601490775140092e-01,9.148304409635696355e-02,-1.529031718907956083e-01,3.325680288369086690e-01,-9.208594621787746792e-02,7.304885318223571788e-01
-1.480335489779023017e-01,-1.612271954546255215e-01,5.270287313867050988e-02,-1.560895784317364171e-03,1.605910826740364894e-01,-8.322650005031843878e-02,-6.643507039122109603e-02,-7.186277896573181612e-02,3.917131377502361400e-01,-6.629146456348747329e-02,-1.360611051266345517e-01,-7.507197343845292692e-02,-5.446016592693854463e-02,-8.343501000333118645e-02,-4.040626904575562311e-03,2.063698876060192922e-01,1.387555714733326451e-01,-4.677879140189395574e-02,-3.767961706742645189e-01,-2.182144469471834769e-01,9.339351249081780104e-02,-4.341459889504862280e-01,-2.589068233705125177e-01,8.805154508255259860e-02,-3.229756856443268265e-01,-5.199309203153682640e-02,-2.159251529864665287e-01,1.038333110162568546e-01,-3.247552766290901505e-01,4.997002432735373617e-02,9.793927866530530504e-03,1.549231924267540153e-02,-8.024599060046526677e-01,-1.969421963121595065e-01,-5.911891675058352780e-01,5.909263856533619741e-01,1.464141967558829638e-01,-7.411626719964242889e-04,-5.337707632195898971e-02,-7.718316080808087509e-01,-3.878069931994818642e-01,3.117738117375064011e-01,3.265823136107466607e-02,-2.629797132125203385e-01,-6.577442148351970996e-02,-1.663362658994407550e-01,-2.103594882060242643e-01,3.279628438583400141e-01,-1.805634638940502301e-02,-1.714025929034671270e-01,-3.201085127042935241e-01,-6.150949559272218814e-02,1.520270269913109595e-01,7.290079626855636152e-02,1.890543981116174777e-01,-3.161259338469756819e-01,-1.200228796186805919e-01,6.505898469130367845e-01,2.582321195025385485e-01,4.543005075422978933e-02,-4.044161608587343998e-02,1.343929150855548149e-01,-2.665946666458117731e-01,3.732515946280959285e-01
-1.078928016604804169e-01,-1.561137063305910178e-01,1.436370456262757445e-01,-2.013616915893709849e-02,1.875965835342843502e-01,-6.045775969551163420e-02,-1.649368278322392023e-01,2.321521147284762443e-01,2.577746040511916248e-01,9.877204978099578432e-04,-1.093923885632567816e-01,3.512392353090584580e-03,-1.098663540033576191e-01,-7.337610129343583032e-02,4.320427814608072264e-02,1.747097848948594434e-01,-1.255368261599345003e-01,-1.943045992491028613e-03,-1.254464100539398330e-01,-2.223686667402718642e-01,8.500988554611517423e-02,-2.187039709799687703e-01,-3.151018403592518724e-01,-1.285672922839820598e-01,-9.702053811027934460e-02,1.262150806199732744e-01,5.765193279623666289e-02,2.935675710897847623e-02,-1.883812464463583969e-01,1.352731863592956385e-01,1.766190455815969118e-02,-1.313945708447653293e-01,-6.458941605111258033e-01,-1.669991957403223204e-01,-4.484468723206743723e-01,5.448355112167770908e-01,9.230395907892936791e-02,2.203938689863279010e-01,-1.315097798543747032e-01,-4.208481760890490642e-01,-6.603830377548487729e-02,-4.709265957509146949e-02,8.036247557152224885e-02,-1.834905888854731493e-01,4.620936530504310413e-02,3.779480277256792170e-02,-2.914006282981526086e-01,1.048129197427812159e-01,-1.092138572549838510e-01,-2.295131055595324987e-01,-3.191309303404644693e-01,3.846745901772338772e-02,-2.787134349995332855e-02,-1.051556893256317404e-01,6.734087473532561832e-03,-2.381213366569062406e-01,-1.090069930961350547e-01,3.862076698117636875e-01,3.717930927189278673e-02,2.077176616409352472e-01,-9.218063890596778220e-02,1.385417146206087413e-01,-1.274917803361403368e-01,1.530688038513317306e-01
-2.704718790282882868e-01,-1.399555534369195386e-01,2.707381473670538719e-01,8.317887090363441926e-02,1.990319119441436857e-01,2.310918948279166302e-02,-3.310566585280974583e-01,-4.684085118999124775e-02,2.363899172475719679e-01,-9.222535870959673587e-02,-1.145751730640176130e-01,-1.440114760436344565e-01,-2.139388915200593835e-02,2.274408442165404831e-01,-5.764659323781898097e-03,3.878458679650003127e-01,-1.476135987083429801e-01,-8.503484767056276872e-02,-1.058419780037054142e-01,-1.463646185447682879e-01,1.757812019007753968e-01,-5.776979145609731914e-01,-5.279582112459687560e-01,-1.594023828112525187e-01,4.153960659694445889e-02,5.166019489575931350e-02,6.842216418125032784e-02,1.412893514137941731e-01,-1.630079254444739556e-01,3.031983322092935973e-01,5.430790752135838256e-02,-1.143888595201908304e-01,-7.566180072464860906e-01,-3.022149864063304325e-01,-4.250084832930831613e-01,5.736004729665573620e-01,2.321186110761103982e-01,2.220638612529657330e-01,-1.138883368661946088e-01,-5.717024639267729302e-01,-2.127399487408463130e-01,-7.811662141868067066e-02,7.336859636821628505e-02,-2.896312555880543593e-01,9.276188218320935430e-02,1.774926798675171835e-01,-1.227490780039806190e-01,2.045778499476584578e-01,1.425588204194616626e-01,-2.645073308966857106e-01,-5.399591127609045804e-01,-1.423475791625974651e-01,5.054496539723417337e-02,-1.209280964283836607e-01,2.048819728356488234e-01,-2.931699378255939528e-02,-4.336785244818916474e-02,3.996486299607541759e-01,-8.356061826650036661e-02,4.142403556640083390e-02,-7.431759343941493623e-02,-1.363107967486400923e-02,-6.168383348501632439e-03,4.960293665365677618e-01
-2.117272668061231933e-01,-4.045454118430223955e-01,2.583759049239914285e-01,-6.028400276074649677e-02,3.983936472453074584e-01,-1.355988050920655386e-01,-3.283374245147304693e-01,-2.858058323544956578e-02,6.035484801464010562e-01,-2.325062019371458566e-01,1.048225611821648612e-01,-7.957976038375726494e-03,-8.798631193817338381e-03,6.013712398369541745e-01,1.227674482929277250e-01,3.466185962845492186e-01,-9.653224256424364561e-03,-2.840416560042856656e-02,-3.574953712798724648e-01,-3.334913407993201906e-01,1.604147274618057117e-01,-6.586403152114782555e-01,-6.634192799863406487e-01,2.188384588799504801e-02,-2.881373124864484159e-01,-2.343342158496093952e-01,-1.168524595447533454e-01,4.946557041030285595e-01,-1.821147077646053103e-01,4.274660869862840773e-01,7.723263672976465877e-02,2.006619294375360518e-01,-8.006176388773342811e-01,-3.769865633724747145e-01,-4.039984070331104626e-01,5.761620708742857255e-01,4.885085169809800232e-01,2.648007283615819163e-01,-2.598097012524706179e-02,-7.308844759694783644e-01,-3.703242736402196367e-01,-3.094233537098970421e-01,5.792896577814322240e-02,-6.366679384072052583e-01,-2.046348635432051685e-02,5.687455493766963022e-02,9.590015292333461949e-02,5.518648128299951106e-01,5.594794612752366364e-02,1.301198291385005472e-02,-6.533794973656693594e-01,-1.728762900516589429e-02,-8.449825939042064486e-05,-2.054202084212385926e-01,8.145462891300790653e-02,-2.384923438104009918e-01,1.979166051066435228e-01,5.372993278051112487e-01,-1.142568127142688378e-01,3.372585856880391114e-02,2.282078104963579726e-02,5.624259508635594956e-02,-9.326988264319785449e-02,8.736621462331805033e-01
-1.013694096285194801e-01,-2.328462696172113044e-01,-5.722317559736001674e-02,-6.085828911155724552e-02,5.260205057434214765e-02,-4.428126954583910813e-02,-2.383305661495729588e-01,-8.546379081325022886e-03,2.789116232376239179e-01,-5.749382812277591126e-02,-7.429771753252486371e-03,-2.148369364211534169e-02,-1.383304242709220422e-01,3.445363049095203078e-01,3.030516315680582503e-04,1.716948419478421528e-01,-1.392522459339982366e-01,6.315586413182917858e-02,-1.557390870491062451e-01,-5.397850300574265348e-02,1.882453788004012640e-01,-3.372845677461090985e-01,-2.913130063894973087e-01,4.548672829133156015e-02,-1.558480786852422806e-01,-7.199112667170542990e-02,-1.232734890929938903e-01,2.191787452622749044e-01,-3.379814504687341653e-02,2.736385254405656609e-01,1.260642570116601580e-01,3.100847009375991559e-01,-3.197779185187454298e-01,-1.790434782052427176e-01,-2.325605177579643246e-01,3.160084233736957238e-01,2.422362224744087356e-01,2.877344555104365820e-01,-2.216990786386601742e-01,-5.432755782145506362e-01,-2.318098494982412383e-01,-1.979721680065880396e-01,1.517272647265130170e-01,-3.258476390544849388e-01,-8.710848290396334959e-02,-3.168646213228384911e-02,8.530738252154838885e-02,2.205296252805047930e-01,2.556306217840503825e-02,5.154888358106785029e-02,-2.570426858184396979e-01,1.446653460399893731e-01,-1.240462288081096293e-01,-1.236572999106561183e-01,2.545678257688817336e-02,-7.173548424435269300e-02,2.114043316517536797e-01,3.723110998937729788e-01,5.302635701071587576e-02,-1.488181809411503629e-03,-4.880923455282731166e-02,9.665334558304583545e-02,-1.106677494581722737e-01,4.902703893937769286e-01
-2.449584212942699235e-01,3.397646412759338253e-03,1.264300495296125648e-01,-6.303428119929337103e-02,1.601259253368821078e-01,-1.206489615735839294e-01,-1.456908757306302205e-01,-5.781571592738418003e-02,1.369615629150670866e-01,-1.171031604097625967e-01,6.338103940682733584e-02,-1.776603146456164906e-01,-2.122671731594140410e-01,1.227752343788660883e-01,-5.626332781364119622e-03,4.300715107946737753e-02,6.151690739181650547e-02,-9.867541172596545895e-02,-1.541503179475902652e-01,2.375598787989471189e-02,9.966368493975313880e-02,-2.582830313015080925e-01,-1.184087859842455487e-01,7.062817978859788071e-02,-1.802776794035195751e-01,-6.809177211503208982e-02,1.290593400113034667e-02,2.715135977519831934e-01,-2.380597336860319213e-01,9.433660796534451554e-02,-5.818596897091587311e-02,2.188851912353463602e-01,-2.824517255408913186e-01,-1.006996582441556029e-02,-7.988618814745380992e-02,2.422104170123300093e-01,2.809571586262604170e-01,1.989477981818124075e-01,-1.463461230010451586e-01,-1.766840216890461779e-01,-2.914600809203689580e-01,-1.597851799427194019e-01,8.190454804578947701e-02,-1.400589452348661723e-01,-1.286285354986037854e-01,7.160123385129413265e-02,8.730043419718763742e-02,2.891843954745149103e-01,5.061058584024444480e-03,8.946222060644597185e-03,-2.378823597576601168e-01,7.663076955742956220e-02,-5.367423832169995052e-02,-6.013489513415027840e-03,6.151880334516321089e-03,-1.621024757614865086e-01,1.989790898576969044e-02,2.595218919401977020e-01,-1.950501086022777761e-02,2.194204505778743486e-02,1.797061025234353016e-01,-9.390308459178967407e-03,-2.483297843450183451e-01,3.525901340238310477e-01
-2.735852420635468407e-01,3.617923877824856093e-03,1.318242860359066237e-01,1.264930112177996557e-01,1.293740480279879090e-01,6.414910479654289954e-02,1.052529722275377493e-02,-7.014359835076504346e-02,1.815572838774655584e-01,-2.557840505162183864e-01,3.239279951962734105e-01,-2.129395785127368990e-01,-9.742468546379783045e-02,1.128654491497603218e-01,-6.692138557517593456e-02,2.317615441272126431e-01,-1.782869482206150824e-02,6.585348610221104793e-02,-4.965065476411347628e-02,-8.594068775259737503e-02,5.658466825719316029e-02,-2.893308523943755595e-01,-4.171655951473620116e-01,-1.645186568854473674e-01,7.825761753992634129e-02,1.058976412153207931e-03,2.093862446769718944e-01,2.253255053094299631e-01,-3.549568061360654312e-03,1.969446255058120987e-01,3.261324237733691928e-02,-1.215293628453972818e-01,-2.070243685445555260e-01,5.309485587648739985e-02,-2.132968348652406476e-01,1.141927454930204144e-01,2.030100072370386588e-01,1.753738236325865230e-01,-1.442602470874719718e-02,-1.830576331900977960e-01,-3.238293801354180101e-01,-2.693298866939789482e-01,6.087460786227579662e-02,-2.605838658766098659e-01,-1.309002422342044059e-01,1.195971562987908632e-01,4.517010863039366830e-01,5.090451795212936892e-01,1.253086513888988784e-01,-2.415609660588065311e-02,-1.880291209848423406e-01,3.624034345318263156e-02,-2.307991304059206772e-01,-2.034386023945880806e-01,-2.038822093260747315e-01,1.108608890067745018e-01,1.607774833221712607e-01,1.300447467188804163e-01,-7.535935813466385080e-02,5.467831633615177940e-03,-1.426080247191230665e-01,-1.487346465877183686e-02,-5.137941375392005711e-03,3.836075326723193402e-01
-2.449336865257276119e-01,1.819180949765921429e-01,1.422786656079710610e-01,2.277261364205318550e-01,2.786440101657013946e-01,-1.639183968872807984e-01,4.609850057656762479e-01,-4.021882550148494495e-01,-6.704223592589261815e-02,-3.338303876903487843e-01,-7.601537793219242944e-01,-3.160499144433429608e-01,1.604767339572172324e-01,-2.042699754331854245e-01,-4.537178168106548171e-01,8.012597861007879352e-02,8.491153639121614694e-01,6.166364345005389408e-02,3.668992884097972973e-01,-1.291809289829276286e-01,-5.485177195998360844e-01,-3.819835037470307726e-01,7.418402242761179544e-01,-7.301564495100448457e-03,-4.722032043284401515e-01,3.643531121485489854e-01,2.321693083319690265e-01,-2.455062985725102176e-01,-4.608540758167657958e-01,-1.543772995489046673e-01,-2.127765103035195726e-01,-3.366010246661401695e-01,1.273043119093569264e-01,6.092138849127024525e-01,-4.783916063721770362e-01,-2.287906320787708447e-01,9.908420287876346100e-02,-6.087286855619352677e-01,-2.146865438284719374e-01,9.758414597512683752e-02,-2.922771980963367877e-01,6.313239795868932913e-02,-2.715203565439870403e-01,6.346348820990314055e-01,1.236644754216309622e-01,-1.224790157599927043e-01,-1.372460626907406611e-01,-2.479105004563565973e-01,1.729411471613144236e-01,-7.436515770053960805e-01,6.116937255750181102e-01,3.590698370512913629e-01,-1.995511445192301725e-01,4.204325444919475574e-01,-5.785305297621626264e-02,2.024530256090171509e-01,-2.326717431555480955e-02,1.000722460200799829e-01,2.229848570859976342e-01,3.272071311459289200e-01,-2.799397388273507925e-01,7.105630811546705117e-02,5.960540156572327053e-01,8.164986695982720533e-02
-1.243011774562546440e-01,-4.990692604266682396e-03,7.586105680517955807e-02,-8.251028782832350861e-02,3.082159202865059067e-03,-1.497328547463579011e-02,-1.456407051856155321e-01,1.130769363032691627e-01,1.498304524306736940e-01,-1.399833112254154077e-01,-6.359518084292142825e-02,-1.367380233696084690e-01,8.063070539204825193e-03,-2.352468135440847000e-02,-1.012740537997124657e-01,9.290262150162975630e-02,1.060997959178796267e-02,-2.161157892561972049e-01,-6.379575394768233210e-02,-2.092308279456681075e-02,6.943130339672858031e-02,-8.194593055535205617e-02,-2.274044322909486437e-01,-2.232687296929440346e-01,-4.826514613597930603e-02,7.837663272331200914e-02,2.067423929261966720e-01,1.644938743645080748e-01,-1.214927475334265025e-02,1.075255937153220404e-01,1.968423180258993821e-01,-2.005930267975720716e-01,-3.292614160838769899e-01,7.960734894623390512e-02,-1.558344062587219969e-01,1.278195231140005772e-01,1.516327539812814540e-01,-6.013863029163700469e-03,-8.668642663545961247e-02,-1.734266088733701638e-01,-9.134949046124524186e-02,-1.388042166946270028e-01,1.333084017742889316e-01,-1.289815188090636111e-01,-1.324295721239054924e-02,7.741565379132735181e-02,1.511853644476529243e-02,7.776204243237774816e-02,-7.166319137542515039e-02,-6.622632012830650949e-02,-1.161015152546144846e-01,-2.691983861243328613e-02,-3.685706863756182255e-02,2.726666861942074471e-02,1.213610694998627955e-02,7.299731816331180012e-02,-5.130823474486559399e-02,1.434036512732768942e-01,-1.057555742898383735e-02,1.479007023337033100e-01,-2.626871698517492804e-01,2.821076212158628999e-02,1.822560979991568741e-01,8.468969304026198464e-02
-1.278469804455819314e-01,-2.558378603607571744e-01,1.396285021771964396e-01,-2.668202010874302088e-01,-2.312265377965407320e-01,-4.355241842220433646e-02,-1.621332521782889169e-01,3.236080020080593367e-01,-4.186076832604414266e-02,1.791880601301799047e-01,8.540815191399402095e-02,1.570155362820045419e-01,-7.259079986256146422e-02,2.129680623800059014e-01,4.069467733668064580e-01,1.742718766421086640e-01,-2.535209416293140450e-01,1.440004032916704368e-01,-3.523473926616424445e-01,-5.412226919376937227e-04,1.506895621760566961e-01,4.090637423721342480e-02,-4.276065492555929382e-01,-5.029588855198843106e-02,-1.616043867963860153e-02,-2.469774964537273243e-02,-4.013105201929814125e-01,1.174509541560590647e-01,1.291502694323798106e-01,1.703018440231223729e-01,-1.158126468677809773e-01,-6.343874197319918432e-03,-3.447757773565587880e-01,-1.874296297567698277e-01,-7.701592865361467366e-02,5.054053088089971446e-01,-4.047277455169376870e-01,5.953633970901392111e-03,-5.744334714772680872e-02,-1.993689264280407436e-01,2.392814575842073244e-01,1.320724992398091824e-01,-2.966709940162146064e-02,-2.528663771302619989e-01,1.350812042701685957e-02,1.252183190297478377e-01,-1.549775822305007600e-01,1.401108738346026894e-01,-1.379707047328707081e-01,2.895904446279463085e-01,-3.673459155167029255e-01,-1.694555183803676257e-01,-1.235894557553162132e-01,-2.857155971301079123e-01,1.566986129818948303e-01,-3.580676559766320377e-01,-1.191292680621144212e-01,8.874900809591915185e-02,2.674483761605731535e-01,1.134563509548345422e-01,-8.764947793200300943e-03,1.377926902945968701e-01,-1.006354655657888952e-01,-1.632354427139089681e-01
-2.012265462525069104e-01,-3.146523051226243067e-02,1.264292063242342945e-01,1.289450975163043411e-01,1.844577515908014664e-01,-4.040651437090744119e-02,7.678716552092582082e-02,6.766228632315184066e-02,2.196711713085525153e-01,-9.860869821489666454e-02,-5.180952647726606852e-02,-1.094567242785048078e-02,-3.212050419599593587e-02,1.426494082146876063e-01,-3.501795281054705805e-02,8.686972959680980266e-02,1.927169498712794360e-01,6.685932357641861945e-02,-1.063102892641971942e-01,-6.612311054317805692e-02,1.137100006166349292e-02,-2.209020468893216904e-01,-1.237501909593653193e-01,4.176160591354950713e-02,-9.579473046956704652e-02,4.573724636002759331e-02,1.229142400375108773e-01,2.033566503427957917e-01,-9.708632827636641538e-02,9.764660027830826539e-02,-1.126630566884967155e-01,6.182742294979707079e-03,-3.983243570119023858e-01,-1.225445796298697682e-01,-1.842480490032167295e-01,2.757633318304860692e-01,2.015053406075303088e-01,9.182316139372238839e-03,-1.623109959446871753e-01,-2.393850823032145636e-01,-3.935171574354987545e-01,-1.409143503888164173e-01,-1.533009860935578006e-01,-2.032163362521126337e-01,-3.415242103223549430e-02,-2.720109132358232949e-03,-4.703795932398053929e-03,1.386969092922931412e-01,-4.715029265268437519e-02,-1.036360403836476471e-02,-2.308473160429724835e-01,8.540232102071421139e-02,-1.152053406919415490e-01,6.093162936398612700e-02,1.324007969320815381e-01,-2.908023917930272623e-02,-6.873094073272650872e-02,2.779255065456144869e-01,4.656367544055815128e-02,5.996027609408825787e-02,-1.295524759371807777e-01,-1.504771100660644463e-02,2.379403882505541981e-02,3.605904032063323994e-01
-1.000217830411991166e-01,9.612716811718763354e-02,2.306642934250945076e-01,1.630833905352092605e-01,-5.738056616399233034e-01,3.662707888410123014e-02,-4.141902946099711991e-01,4.344334150333790112e-01,-3.998798684400948211e-01,2.997226685071177621e-01,5.544440196853185343e-01,4.873355654358019762e-01,-1.649258174376906638e-01,3.700442920259175983e-01,1.647855901420440805e-01,-7.837243474054639281e-02,-6.267509701513652720e-01,-1.089906160276305352e-01,-9.922420288339642291e-02,6.566741654408737860e-02,2.522196122110311189e-01,5.041734191035920354e-01,-6.288958396430287534e-01,-4.097392939992740013e-01,6.624065767167719443e-01,4.762784819819174294e-03,2.326139750529549952e-02,1.286243182196534218e-01,3.891034470006234924e-01,1.324841758565291350e-01,-6.165671206605741195e-02,-1.576857838823096658e-01,1.130785352726747517e-01,-1.437449934141958319e-01,4.402693907955396724e-01,1.086947410672022135e-01,-5.006598892887825780e-01,3.105293778039190933e-01,2.201932122436895956e-01,1.745357212344388897e-01,2.787695041615615432e-01,1.652636521800756042e-01,1.796392687128197663e-01,-2.425608148010111043e-01,4.623434156031658304e-02,1.612835548204492042e-01,7.188666487773575677e-03,-3.193378991478892232e-02,1.317260317055336527e-01,4.717310566953956119e-01,-5.359068889437829109e-01,-1.951757299904742504e-01,5.484944371460245133e-02,-5.616375019122931134e-01,-2.507661232744425872e-01,3.490287691832148487e-01,1.909953388964421087e-02,-3.977925028728188789e-02,-3.163548799559733338e-01,1.572283749746790100e-03,-1.263903480784804856e-01,-4.325277785045644197e-01,9.364784341331371109e-02,-1.095410022364328856e-01
6.497688512974865438e-02,7.521391340797524416e-02,1.244199436357252275e-01,2.648553485857715328e-01,-2.050253642142854313e-02,-8.082884432998016511e-02,-2.884936606213385768e-01,6.058285768949248085e-02,1.004071550414917663e-01,-4.552491467877537584e-02,1.311695605251874397e-01,2.321917857803183771e-01,-9.520811201386897293e-02,2.011869469331555305e-01,-1.651018497234403859e-01,1.151411806365522650e-01,-3.099185955088951810e-02,-7.524121758486181089e-02,6.430138177561389723e-02,1.109727967972930912e-02,-6.726529428596793314e-02,6.966407082069560330e-02,-2.081386180733331981e-01,-1.995413838236392845e-01,9.432813419494516516e-02,-1.632186840979682474e-02,2.198939239826029624e-01,6.210974925132541069e-02,9.625168206753909050e-02,-1.543755216571759681e-01,-1.117197717869707202e-01,-2.924099619004540823e-02,-1.069355731845619550e-01,9.005429225055329098e-03,-4.659151477797120189e-02,9.036578121269921160e-02,5.515394700536573741e-02,1.287730357162392703e-01,1.842701184684229429e-02,5.755293083500860607e-02,-1.444067214907369945e-01,5.228581055409384226e-02,4.060426391091218751e-02,-6.522210246118616273e-02,3.284252120510161577e-02,1.595151848575434295e-01,-5.250948056019071747e-02,1.067048510634664438e-01,1.903634363659632497e-02,-5.316349454785265771e-02,3.276708022001665385e-03,-9.446542617409529885e-02,-2.906541465736600660e-03,-9.384274118976936030e-02,-1.572166186792380294e-01,1.424298861070324128e-02,-1.153984641763128455e-01,6.188828534543701354e-02,-1.463897197887197021e-02,8.822196184102214234e-02,-3.268614326152587124e-02,-4.003901316603256794e-02,1.626878606604947597e-01,-3.986711335651305782e-02
-6.131857510400607475e-02,3.519202342485670543e-01,-1.704648638603930566e-01,5.366137566679082122e-02,-2.957806563370775077e-01,2.137668707421982173e-01,3.004404459760056101e-01,-1.002436683554216307e-01,-2.437541651298335554e-01,1.560605891334929107e-01,9.738576587921536631e-02,-2.134304637097808599e-01,-6.307471655990105897e-02,-1.192493340408173758e-01,6.158993023601107980e-02,-2.586634889578457441e-01,6.137276378389450865e-02,2.642695709602659038e-02,4.277186475701258428e-01,1.196976713741680631e-01,1.177381889625385286e-01,9.882391617212417378e-02,6.161231592116825917e-01,1.140990576829939568e-01,2.282789126878088937e-01,8.334724748229159139e-03,2.744464414607243330e-01,-1.067993207092575308e-01,-2.181280152529407601e-01,-5.918891911220371810e-02,3.746735983792330582e-02,4.606813287317119976e-02,8.447607525504775561e-01,3.441229614892895583e-01,5.278225482246553524e-01,-7.355201330596909948e-01,3.619073997730016395e-02,-9.497524916225957847e-02,-1.673735313090389586e-04,5.870575994702293965e-01,2.796589457806631929e-01,-1.001991996994861245e-01,1.156179819028144706e-01,5.786666583663498953e-01,-7.812337256151588583e-02,-8.277358826421066240e-02,2.927629751801870128e-01,-1.873024539804067634e-01,-8.864255363804005028e-02,-1.619110713162000281e-01,7.708747336479441215e-01,3.159272774276583595e-01,-1.703940091270963186e-01,2.633940754848945742e-01,-1.527848566659424367e-01,3.671083402295949316e-01,4.728830733640049244e-01,-3.954256554875997254e-01,-2.220159320094725330e-01,-1.241178439841070374e-01,1.836031108676062507e-01,-2.660440215496029381e-01,-7.708899815149143631e-02,-4.115938153243220987e-01
-7.776897068043957251e-02,3.976518897445911055e-02,1.557298451096603142e-01,-5.640134678449653868e-03,9.581119736199583681e-02,-1.144602245327134699e-01,3.666117327280301458e-02,-7.625458609949804789e-02,1.409153940966741403e-01,-3.971811620864981740e-02,5.485395416870591373e-02,-6.239508111852023337e-02,-3.809151992747543403e-02,7.179725996438375557e-02,-7.142789064560704781e-02,1.899200397096874326e-01,1.463913563473739354e-01,-8.016253432981637617e-03,-3.721182690292720169e-02,-1.325083438569654715e-01,-2.558898020658688377e-02,-3.132366931699780421e-01,-5.209823998209594381e-02,-1.433161956309603365e-02,-1.014716701677813859e-01,-2.509323239766990052e-03,1.470728031155202342e-01,1.640684767250566167e-01,2.281775389240179100e-02,3.166097358944019308e-02,-1.192757324257799345e-01,9.239858289440469608e-02,-9.402948363133789567e-02,4.432089277985856723e-02,-1.785736703091169997e-01,1.954616093816507472e-01,1.039422249438108070e-01,1.504241182831436707e-01,8.926093426109386886e-03,-1.204694111351709007e-01,-1.660554655908336452e-01,-1.161680887948047386e-01,-2.513315050997008606e-03,-1.384202583215251268e-02,8.927363578746368156e-02,-8.837262607831862515e-02,-1.183976277067644023e-01,8.320223287273520452e-02,-3.174597075624867315e-02,-2.820438061998523094e-01,-8.882880520322559981e-02,1.801279428592835949e-02,1.651228387288939184e-02,2.268433310520135207e-02,-9.640982268434560021e-02,2.013481744855824263e-01,2.334836049294350402e-02,1.400021837776929678e-01,5.132759505702206432e-03,1.118757063270274382e-01,-2.058651300693439268e-01,2.119199235943632076e-02,9.040526783319102755e-02,3.217623989402115248e-01
-1.440538907607278873e-01,1.405413144341156884e-01,2.526999730809760814e-01,4.983517235641788529e-02,-1.102734068419273100e-01,-3.379884911505538075e-02,-2.149334689219543904e-02,1.365004179894169778e-01,-1.043225590433876637e-01,-1.503463682371255009e-02,4.720524723823425473e-01,1.594423866570806869e-01,-2.407763297646682010e-01,7.820643698553760015e-02,4.998899544144955664e-04,-1.701483267782000763e-01,-9.518657872602670489e-02,1.234320304777636844e-02,-1.908842511727889754e-02,6.495990908575326184e-02,-7.630606993318164721e-02,4.260775917665076684e-01,-2.103523011438523105e-01,-2.202855663740624637e-01,3.689691110677124630e-01,1.680202693439492301e-01,1.876570540046668401e-01,1.550039657885560751e-01,3.064383655421361041e-01,-1.338344757471771340e-01,-6.644538161976812352e-02,-3.639682402756087565e-01,2.609274312193681222e-01,2.795614100772644273e-01,3.766768211621069340e-01,-1.337867127979362469e-01,-1.844568425962773150e-01,6.769526508745292437e-02,1.418547672262193138e-01,4.183907965005300711e-01,2.798005076877852493e-01,-3.332269141059303330e-02,2.280342297966179155e-01,4.395441223016757770e-01,4.330048604590975431e-02,3.469038123275286489e-01,2.044540612368139221e-01,-1.358303728860242865e-01,1.130362209900210441e-01,-1.696778486740546377e-01,1.997129639662101885e-01,1.208520189482779755e-01,-1.972237267345888501e-01,-2.268971499989909102e-01,-3.081426751295704425e-01,3.329857561267024479e-01,-3.942151632427445818e-02,-2.027304401732535344e-01,-2.125763485940569408e-01,9.131706730803787475e-02,-4.341444313269333666e-01,-1.756447676211481401e-01,4.986693781055697161e-01,1.278785197812549734e-01
-9.334421272577733131e-01,-4.677924726190084148e-01,1.799094234029456230e+00,1.362718076266433709e+00,8.957484610150776572e-01,-4.573941573006212735e-01,-8.296698619149465159e-01,1.963693054464311361e-01,1.596063134992180332e+00,-1.038856380582657835e+00,5.563974189568644119e-02,2.835306559624996559e-01,-9.671272756316771080e-01,2.167975800321375601e+00,-6.819479196682736166e-01,1.112590942317433829e+00,6.971992191124382066e-01,-3.995308113419594465e-01,9.768471576987867999e-02,-4.800738659578850376e-01,-2.416844135808553784e-01,-1.670922092333434472e+00,-2.948125703819926446e+00,-1.185453289074718253e+00,-3.487770038485935586e-01,5.949537725454154824e-01,1.778622601502958478e+00,1.052184702212811684e+00,-6.322435627633764266e-02,7.503760006325466136e-01,-2.418636632733160152e-01,-1.043438563744385261e+00,-2.187015524224146024e+00,4.959307564302632004e-02,-1.689822071198765263e+00,1.446708726060347061e+00,1.457361654050867372e+00,5.553711378415036037e-01,1.354944200661284681e-01,-1.209271537197101676e+00,-2.006986959996087894e+00,-1.036837804420814635e+00,4.885373255393185010e-01,-1.273451087242477131e+00,8.287278989061992729e-02,5.081828482230980049e-01,-3.344911822890892505e-01,6.899615046813054597e-01,7.338371244844585917e-01,-1.637495932338043136e+00,-1.604279284048310439e+00,3.130934472651127898e-01,-1.029811484085354278e+00,-1.688014695033680956e+00,-1.448126663975883410e+00,1.022067269318054583e+00,-7.912832814235569445e-02,1.837217025235516665e+00,-3.903056889231987930e-02,3.739198497819554157e-01,-1.141203205943721599e+00,1.404066100534257788e-01,1.763844817274104138e+00,2.784089060645017266e+00
-9.889667481416346273e-02,-5.188164309292758736e-02,-1.289370353938958658e-01,1.249413734785109493e-03,3.391947357593282919e-01,1.186164143922187192e-01,-1.831834095566468867e-01,2.873018053909954794e-01,3.920432948749718594e-01,-2.363242683773488229e-01,5.784353953506122803e-01,4.178006783220483689e-01,-4.033604971316176457e-01,8.392860660684484664e-01,4.609770777561063293e-02,8.246771672823167976e-02,4.436237603829610437e-03,1.960176845980405591e-01,-1.242319370655613764e-01,-8.851861764529016241e-02,1.336559499995206846e-01,2.450243517697946530e-02,-9.896265172013140043e-01,-2.064274797287555391e-02,2.374178632684780521e-01,-2.483530875090907836e-02,1.803155780476562997e-01,2.105674174329454085e-01,3.606667158104449600e-01,4.263059374838528148e-01,1.283541170623908045e-01,1.931499028253597927e-01,2.219767403526340943e-01,-6.722019077264264342e-02,1.513842533990102657e-01,1.180817738467312694e-01,1.691529422097093893e-01,4.222583875119330088e-01,8.440273797529763977e-02,-1.720500770282667458e-01,-1.920458454919110602e-01,-5.218877657477762888e-01,-2.141332321271370021e-01,-7.021482004712037428e-01,2.231813736805175752e-02,2.328275720496156276e-01,2.706188257412106002e-01,2.759816737782015972e-01,5.188810508504435905e-03,8.479088245636311194e-02,1.778900245729886712e-02,4.590922793407099800e-02,-1.156535226081751300e-01,-4.504702001770746200e-01,-4.304596966600273689e-01,4.477267409164644579e-02,6.335413092738105545e-02,2.071971411369909200e-01,9.132019051573199431e-02,-1.944059213272543996e-01,1.039992176371236227e-01,1.980664706958985555e-01,-1.808575259743616659e-01,5.199231917724914664e-01
9.825351278992394688e-02,2.143490474271841570e-02,-1.222167222664811417e-03,-2.574629362498303056e-02,1.251756200470905966e-01,-5.274485295738536028e-02,-1.844170851590858917e-01,1.961260754963823072e-01,3.364138158896937125e-01,-4.018095102836606591e-02,-2.307588656970597368e-02,1.633527652071263825e-01,7.600954391813925792e-02,-1.260261973903640531e-01,1.128274077950295884e-01,3.094736810006804006e-02,-7.641057807064632890e-02,-1.313432994475548510e-01,-3.053178771500736910e-01,3.600919668822063352e-02,1.565101774909027077e-01,-3.199979318937871270e-02,-1.811622087467315845e-01,-1.195426317512888505e-02,-1.095153951143970905e-01,7.669739934179672057e-03,4.030536207115571908e-04,1.767694015621299741e-01,7.497780976082366045e-02,7.651145400099790272e-02,1.609197797678065811e-01,6.380040760053236337e-02,-4.236874036802613652e-01,-2.810054360756059633e-01,-2.810659613433679760e-01,1.065606967267516414e-01,1.609394609642095519e-01,1.715546812989904857e-01,-1.584570120542784857e-02,-2.777839181421796200e-01,-3.310036489063123422e-01,6.423856610878415918e-02,1.867971032287857880e-01,-3.717122580119810449e-01,-1.987614244739830949e-01,-5.456364970609383497e-02,9.798188321650690147e-02,1.662463096211700131e-01,7.256406348294824893e-02,2.607022206004927511e-02,-3.431727119445178165e-01,-1.811678229900213211e-01,-2.922958405494369485e-02,1.484210535221993088e-01,1.503223284330956200e-01,-6.599125724522753034e-02,-1.008067400521979740e-01,2.438698428067425095e-01,-9.116049687790328537e-02,1.964440888153209386e-01,1.217594876410963908e-02,7.585290223557218658e-02,-2.602424837774098831e-01,1.521472169702136890e-01
