-0.06066320253141225,-0.057205235379121214,1.4080022325765091,-0.043337321105092697,-0.012261803341239913,0.0030152311465596235,5.054958046265512,0.3193786462140645,-0.047056804427614826,-0.14388943589194858,-0.22331028099088923,-0.18008500131959615,-0.1762122605403232,-0.09713242616313028,-0.1873463299839693,0.042321062368700715,0.07626500416624492,-0.05754070585805017,0.09050138837050767,-1.7932743915416895,-0.2011928652921339,-0.8867615367807454,-0.2754459859581072,0.09365044203669287,0.2434470219322533,0.06805704305969262,1.512716725548848,0.38464887017817384,-0.014214168026074005,0.008003841936112654,0.019703769110747737,-0.03279650684909817,-0.21115416197078254,-0.16838821751333488,-0.05529988688390728,-0.12389457638269576,-0.08149560464203402,-0.02114388545424385,-0.04518327189652777,-0.06099147361711592,2.3609617015561137,-0.45754602285306406,-0.02845616768176908,-0.0027499785374551023,-0.156260903665172,-0.12203047336806634,-0.043770799424572855,0.11661809346804325,-0.0865601956931814,-0.14118081155020146,0.47533424428104204,1.7672080437084579,-0.08416594436246004,-1.4962075551049485,-0.21751150356972454,-0.16932324793411885,1.8681224698624461,-0.06943908662885788,-0.1992832484573785,-0.23892466809342358,-0.22888776334090555,-0.11376951136596554,-0.10628971975984326,-0.09656290790627306,-0.15878542045330019,-7.837600786754959,-0.07842830279455139,0.04688819162926579,0.5060778111070766,-0.04178748762054291,-0.03138080521973985,-0.07547979152253385,-0.0829059146658983,-0.27840841697041974,-0.08775352885721022,-0.14312510515131116,0.03178462096814625,-0.10095411401904118,-0.009941959807459834,-0.05760082888905488,0.012610625834837717,2.028719684864143,0.00826935544686245,-0.006229357479363921,-0.13366811731435038,-3.5101363009158617,-0.07166994887933727,-0.022197528556296024,1.5126901567369118,-0.09576849990596488,-0.5723317827663329,-0.060909723824317426,-0.07920872732122189,-0.1860799822248943,-0.2130814176301644,0.11288722157312132,1.095395560287444,-0.1381999107926607,-0.1992741801753495,-0.1101905514313446,-0.10419226714856784,-0.030535358194751446,0.272646067639717,-0.0013102296104149425,0.08157544710907526,-0.015337979667489742,0.20280655278875415,0.05864017546428862,-0.23419940634907024,0.002132907022023111,-0.03231601127325975,-0.08889520974288116,-0.006761362793349296,0.021606847795228805,-0.049425950040634305,0.07781428255175472,0.1937165332144818,-0.05386824418473895,0.02006575537536734,-0.07986237366398576,-0.045394636242179424,0.01805395338912228,0.014202916308147153,0.10326843235670989,-0.04381910238388668,0.06711000892059796,0.9949350089462601,0.594802245206414,-0.04794474739084478,-0.05358631044795473,-0.0007504605319390827,-0.1081097516120039,0.1255692052146776,-0.08091548477068049,-0.027389113182458312,0.02437131956097355,0.09343167970497765,0.02703628776665168,-0.06316394191646392,0.016228649568454753,0.3298214859133891,0.1154562968590264,-0.11385389504660419,0.03575210472298467,-0.0284598079774145,0.021897166184785277,-0.00343834623873803,0.05645131129938227,-0.15005336792355858,0.05422230546883201,0.07710285030607535,0.5762724962134151,0.061083530644549716,-0.6591809744236334,-0.015036792079935838,-0.08908288036680234,0.019354765000193862,0.08981378732703994,0.1759397006352741,0.10239134620988213,0.1540122906096073,0.048522723883119186,-0.04230287841425065,-0.1515170225399961,-0.0298806156990879,-1.0464144979101604,-0.04042352177584839,0.1891911356073504,0.0606013359578332,-0.043434177402503396,0.010869450204222923,0.08911676879942677,0.07293718525484905,0.09295034648142854,-0.06809667506754458,-0.08070485632980486,0.02163857274318513,-0.0848779640308902,0.12725801413472757,-0.05690898935133214,0.10073397388251962,0.3891166250199027,0.039162602088651785,0.02013922215732438,0.022961445146497488,4.6964900174421365,-0.11055126736793362,-0.0263100726920909,0.4524918189018469,-0.10666331868928025,-3.873988497704623,-0.01786268521262648,0.03465420364190157,0.19333718780548878,0.19306570272035878,0.0005186021946749911,-0.14977694434171293,0.022123455569781902,-0.26502182671049906,0.06742550926445821,-0.06195600066273979,0.04188021952560112,0.31591533952827433,-0.049637361047027796,0.04833651152443821,0.017930664762325726,1.0468726093732028,0.05311455862483578,0.1432188598954948,0.05433309908130666,0.04190211208597876,-0.08033238122195946,-0.011438135580826389,0.09576085650206624,-0.03930134060923953,-0.09844788355021734,0.2045692858870637,-0.08041134120076245,0.0003076373832865484,-0.7819213432455614,-0.1868664935506761,0.16803570128415107,0.12451282360234008,0.03544931754009482,0.15653443332910266,0.06938741448129981,0.31572590319505295,0.4733930445277325,-0.15160745756502142,0.120024116150692,-0.014166305574982002,0.005503608182854246,0.10878919500525001,-0.010571550759281678,-0.11947963787327366,0.08398242363109504,0.015070626958522126,-0.041499760556153086,0.0340296755064132,-0.08106254042490008,0.11572157746519947,-0.0496280412369208,-0.03202216461555796,0.13293705902236921,0.012857192583873193,-0.06261867024730744,0.1279179912113133,-0.11033520820499162,0.07695418716780217,0.0545834738058654,0.028578842072114204,0.34252699290152533,-0.03418078588781728,0.0971934553818401,0.04500336420762285,0.006252380957406544,0.10009073973727613,-0.19686703510676803,-0.030825009228712133,0.0518402554782938,0.07439129624835718,0.024145275834526598,0.06328702465671827,-0.11438592167086922,-0.01447609998911179,-1.2181142541616128,-0.09599302690814264,-0.011436195693783222,0.09756226537638704,0.09844580857133205,0.12976780304936608,0.007070499229519625,0.016141581835220867,0.035307880217505236,-0.10406154477013838,-0.11917889436273667,-0.007334285018716012,0.07796904029044543,0.016343525104828054,-0.02170932469279741,0.06659390039092965,0.3178046260931176,-0.028654404291606057,-0.08066998974893015,0.08961301262222995,2.0119505761465155,0.04077650725400689,-0.05952499042531983,0.36761896496605007,0.07375824908354912,-0.976280784028353,-0.10805178160974242,0.008149735620975701,0.031074953538962835,-0.007404788822023763,-0.11076057438000386,0.22548781403150872,-0.04912003466751781,-0.0136195252354303,-0.12487105039650953,-0.12039097722527856,-0.05124820161949958,0.07278102940627967,-0.0721641387759711,-0.015409995467254113,0.07149505152577028,0.17652656363307032,-0.007345152998776092,-0.05529603349106308,-0.029936081275129423,-0.05703961214794053,0.02887485002961507,0.06383884484563424,0.09754631060418745,-0.07079644639701357,0.12506723030950673,-0.02779109130238067,0.08658255748818555,0.014778850545044544,-0.0014062925976804435,-0.10781036035552546,-0.03789537548269517,-0.055534153968058636,-0.07834147822335838,-0.008690535613874497,0.05937039726355492,0.14359314677091653,0.019776588075064556,-0.04971950106306147,-0.06733102569942645,-0.004534371217587829,0.0916932023760969,-0.10972910824325231,-0.08495723165046544,-0.025508813713082595,0.09596890050302911,0.07616509488098407,0.025533125427115673,0.009541553674629692,-0.1000455256735109,-0.014336415042286228,-0.08320245781081166,0.11651572726985301,0.0004262854548375048,0.04047727342740985,0.11293948718648403,-0.0458804163715852,-0.09599270644080374,0.05620469071917212,-0.0159221289078959,-0.016474225957724287,0.058557608692741125,-0.04804430565609401,-0.04053198685262908,0.14103499230390176,0.1732860675205184,-0.022297278269730797,0.057506941184363135,0.110778979209427,0.005129512560649573,0.03395239453160132,0.062302235163497394,0.1686411733242915,0.07297500587397372,0.07152934089399557,-0.009633346197220458,-0.1512323311980259,0.07254273874874653,0.057756017523056216,-0.0655912479249806,0.03663635665820022,-0.054653157740594836,0.06396701900212523,0.06470608523747326,-0.048735577358093314,0.01211017468463615,-0.15131761573390595,-0.0022300807796286075,0.016298087719886164,0.05190718537726209,-0.05914842576649235,0.004305655587530411,-0.017039840291104356,-0.005494048451757393,0.017569513063419542,0.12434315333689323,-0.025704703411103678,0.04397899871777573,0.11092460134663067,-0.09074967279961228,-0.07035189826796097,-0.038742479409876865,0.020756436708981803,0.0010275054464731245,0.048291799725322784,-0.026469755716944574,0.11676083594604446,-0.11398842277627759,-0.08929673010186055,0.029534235344997575,0.0046528749619769005,0.050721858737061,0.030432517586422875,0.05875992568354151,0.0949594271458263,0.04040412354466485,-0.6471771593783298,-0.017984592873044256,-0.08468642255627702,-0.07749391423405823,-0.02567973523595886,0.06732650774570202,0.0517687762669787,-0.08520793194188486,0.075260684026153,0.03582376402455518,-0.32098979459523885,0.09670232781970978,-0.011996735851303265,-0.025507768986180457,0.007872153365898667,0.09415822917557595,-0.017718867194573745,-0.11618527342628744,0.0557317555467636,-0.02528057502051644,-0.24467542123043637,0.19730590097153153,-0.15593276875969,-0.014889421990265184,0.038967396809461735,-0.037330318481314545,0.01402145826129115,-0.03386702532319595,0.0011786097926606493,-0.0012872545152932567,-0.10356148739211851,-0.1365746513341822,0.2380348643447676,-0.05656177875528808,0.27481632732461303,-0.07648830652935783,-0.00444159473251242,0.08745113217855467,-0.07951250172533077,-0.09809558106615879,-0.020969589397058463,0.16962249761601755,-0.13268657590741167,-0.08329452246042295,0.05149379677422959,0.13895198208167148,0.004909131761307942,0.34053268292785693,0.02471203474002772,0.018545796648607588,0.013910927866119896,0.04834777039760937,0.028992118030594215,0.00679468992949141,-0.08053572992417042,-0.12843049396080441,0.012767455550521946,-0.09308258972704035,0.07009333447511733,1.1928967964303867,-0.05203660807068552,-0.03324697580535494,-0.011792982875593142,0.015143155328269665,0.012825737566105274,-0.02006994516260527,0.14955340222321722,-0.055869997966207625,0.06021069309690443,-0.14036297201211442,0.1097999436663437,0.041984210466291486,-0.06392773696667847,0.04313389822919133,0.01702025044671032,-0.17307574506016996,-0.2142424328622199,0.09564727836028598,-0.003995170664700641,0.020476653491670372,0.0919643125683929,-0.041196601536587385,-0.08951476282747824,-0.0015243719268632945,-1.7247009341603645,0.006468919761358369,-0.050864943601463805,-0.053713987438486696,0.018324454098921302,0.1560881040710902,-0.09656565246705708,0.05455360156750863,0.03929009161995361,0.09909339581248029,-0.010996838262910548,0.004068610204667972,-0.10606161885707045,-0.06897889904791796,0.0977630397834032,-0.039284463974722274,0.03304699088817637,-0.11964189201808924,-0.06367409318684675,0.022298605455604928,0.07889307328362069,0.035354018906281016,-0.08660217325838143,-0.036369773081578065,-0.07910311800247631,0.005689526508306831,0.08007987253235983,0.06727012091223067,0.11439023163359549,-0.14392146962574556,0.10204704295863556,-0.031589584837193464,0.03249691708881728,0.12631634288124752,-0.01304753935797657,-0.0011476865519710025,-0.0023699805951002645,0.057462207654205524,0.06827373061887092,0.0042254932307938765,-0.005629037260594269,0.18633700375304116,0.004362755928288924,0.023543326677523412,-0.04688217633026397,-0.041474944552974014,-0.042085388730889677,0.09218317943721109,0.07839744978886763,0.05671956096837246,-0.04392167679445878,0.08518044606379985,0.1663899676539197,-0.05071920766590527,0.04300179866797445,-0.05733297287494041,-0.038245929676047286,-0.05144111751919517,0.06903687849883919,-0.10392371303785039,-0.1331539426568268,-0.020076731657802143,-0.0757271529711875,-0.034142775129232625,0.02474911841894726,-0.05421400434783485,0.07698836906540166,0.0376480022154876,0.011909879851671312,-0.13174103603973525,0.009100691452337559,0.03723743780457495,0.18226696853393723,0.022168984135223266,-0.11820833948526208,0.10583003891808278,0.024372079985259126,-0.04012213272995661,-0.06754355418330847,-0.09615073057413609,-0.019253197567929897,-0.00733970369902589,0.009803390404051284,-0.03792441402328562,0.08021950495532702,0.03006391548889303,0.15748631282861303,-0.12519318777824362,-0.025456599440215156,0.005897520379938242,0.00011878257954304026,-0.0036377453209024344,-0.10140996088840745,-0.15317029226884316,0.0061114340935835565,0.09872193380357007,0.061666424355258154,-0.13788588460611187,-0.14336375732528742,0.08862161393775703,-0.058499681742146384,0.027532096491933875,-0.1286902042772283,-0.07707836489020922,0.06102709575613579,-0.12676698714499868,0.018912782154864062,-0.1554678326070592,0.03683449841688611,0.07215084096937038,-0.017811909674724312,-0.09198715767519691,0.25632747283750357,0.11913716258175429,-0.008555569401417468,0.11405976408840096,1.2482277449465964,-0.05147514959286195,0.06976207992313983,-0.01685356367628879,0.030292692420037192,-0.05107765085748021,0.024607230695549414,-0.0368866935935608,0.0014705943651588844,0.06025664793645567,0.27593942183662534,-0.08425586675148633,-0.02107135852462696,-1.6219652725224118,-0.03229828332294366,0.15214346332334672,0.07976756901671604,-0.04750503744274969,0.13914845563984132,-0.05078096352677798,0.21448260741706926,0.00835996713664134,0.002722078165472056,-0.026301405418692945,-0.06601215748362568,0.004671617794238525,0.045456368207731156,0.08619855509058429,-0.009148754804525311,-0.10040059955012476,0.04381571049798476,0.02693406517843738,-0.005810071640107804,0.11595275548996258,0.85910398213204,0.005479741023532818,0.04050532814096871,0.03400267083195259,0.001992754451156644,0.001296904313641307,0.0038260315993375767,0.020509575622143138,0.05943269654122566,-0.052280770176550403,0.1033020812903928,0.29013973677849275,0.014441697360060688,-0.21384570996208002,-0.096148408756264,0.06158859970841845,0.11498269311880335,-0.020567832363413065,0.02998035083571906,0.12497657176253425,0.1508702276105247,-0.06360013074951754,-0.07965574529598238,0.00048612179191254645,-0.09605716801183174,-0.41716006459033894,0.04957690578969107,-0.12465813275351147,-0.08950448509689357,0.012683893295117717,0.013443887009835963,0.06434352161030957,0.026656550623116445,0.017565572529388222,-0.036385008283768394,0.057506607537714395,-0.03226984177401676,0.06405586525488736,0.0626051664706725,0.19674299664999004,0.11542555011149773,-0.008916200537895084,0.07851395796707207,0.04421140651006915,0.011055825181892534,1.842708461705507,0.050005574109717635,0.1047292031262988,0.3192663616145131,0.05528711030020336,-0.7677674942764791,-0.009485526342137538,-0.10774777357713769,-0.09168269145016411,-0.14566933244594504,0.09210925737048371,0.12104560723622579,0.10191445452952581,0.10090219668127695,-0.03002790879933571,-0.0972221925417087,0.11818909297651717,-0.07309028688915035,0.10567214119657782,-0.11038374346038123,-0.06861118835241885,-0.002332668768394312,-0.011230660749667902,-0.026047594425962505,-0.05094267203928196,-0.03471037673548715,0.05784818743196632,0.03916871594354162,0.13914817423285644,0.09622238876923671,-0.015434558216425044,-0.009899001219293962,-0.0030526355978931323,-0.05359256311299632,-0.0701947173358305,0.09440400563735589,-0.06861572852390796,-0.03071536764268876,-0.03683430418671382,-0.05839261929291071,0.0927958330890457,-0.04205119668921028,-0.08352967751507515,0.06086007043307425,0.026562226204463833,0.06271766532630144,-0.09459304013585103,0.0528836220794034,-0.06133571129397095,0.05766893231879817,-0.03291557407398281,-0.003099954369725548,0.1815049619177537,0.029502635945308667,-0.07979037673061769,0.18698547027509393,0.14099376904670732,0.001176307314544448,0.056290064826403655,0.08205073040095669,-0.0494878984587912,-0.10463769762846603,-0.02457040060420071,0.027869358637481387,-0.020850914364854877,0.035584264675365636,-0.015698286934581463,0.09768331376229464,-0.06573005986104234,0.039289222284733756,-0.10646009307725027,0.03110160788378186,-0.056298742021959565,0.06987152266850354,0.14015741888348718,0.0632775916761293,-0.02542308120698769,0.05376672406836618,-0.021503886007648746,0.03255987770275962,-0.011626255577265179,-0.10754162296065602,-0.045259990270910815,-0.03291205365072769,-0.005291398476718751,-0.10211342796694867,-0.047814751282580614,-0.02969237110375665,0.024990131742364877,-0.03226144920618541,0.05403486008909606,8.316817498608258e-05,-0.023838632981761407,0.035050934143295444,-0.032173637094255546,-0.012238815288146675,-0.06278904837785615,-0.028831681154141274,0.019267443719803625,0.02104563460843695,0.177467206776561,-0.013837878719743553,0.07552014690673162,0.041265675294594295,-0.020045290007597097,-0.0722272762291651,-0.03198030830277233,0.0075246963209333545,-0.004477219293571228,0.07544692982205604,0.030448209673720777,0.015275469291726892,0.06356042116349667,-0.05891854445709974,-0.03397926957755089,-0.02921136609802767,-0.11894278118748196,-0.4268378598409653,0.015710431041440213,-0.06929109791925754,0.06442534275231196,0.5824498534214102,0.1278877672198662,-0.10736465220518096,-0.21547988104930865,0.10589113668589549,0.029628712662090904,-0.05061732714372489,0.05256673248947159,-0.0866613199345389,0.03806883165173052,0.00019647625002591055,-0.024391070202151217,0.03768889325648193,-0.505670170011689,0.02786223016507689,-0.005325720166177975,0.09115192029016964,-0.02745487140744705,-0.04869522326207466,0.008226996729357635,0.5689296086782609,-0.003176053538721391,0.017954215259633245,0.06736397430080557,-0.09112182186560601,-0.023126581026509024,-0.09251134019599841,0.044779470142265264,-0.043188211331699845,-0.19252912259574845,0.002414491783811289,0.18815492142292073,0.014525824039873816,-0.09708705381932702,-0.4134381811132439,0.05766445587570263,0.0548465203464685,-0.08632832316058843,-0.15153602005540734,-0.038693111857084614,-0.08907853784604415,0.03529196085011007,-0.09381444318856523,-0.06941707930821178,0.2731959920435145,0.4266185338480581,0.15273391086994653,-0.4347834213586218,0.02760655619342699,0.027536295301611377,-0.24127613197253406,-0.060078613160432136,0.014157343469122613,-0.0616211990268334,-0.001327890685539202,0.007342008920373956,0.029481759952312628,-0.035556141980045426,-0.005288859150922192,0.18610105479216119,0.02778277902431121,0.048777506952274154,0.00019959196907051152,0.07816206894499857,0.07081904188753377,0.04600092193815293,-0.0789019445917339,-0.050446414427963555,-0.00582686564154021,-0.04897074537648381,-0.1713539510677454,-0.014370648811875494,0.008891947906857996,-0.08811800779229592,-0.1028332281542786,0.11518392452876504,-0.014557977481383638,0.05106844229406584,-0.034907154544569406,2.578722077904357,-0.07846459952107648,0.05063364821652876,0.23590080347930206,-0.010574488730764378,-1.9724644092062071,-0.02199699800756226,-0.02841166811823038,0.0074284433559816026,0.014082043559185447,-0.01412637894329686,0.15968422184516395,0.0718556699460907,-0.052522858905167565,-0.025310779453000334,-0.17419425584008807,-0.07152626622480777,0.056479864806614676,-0.06346879505067353,-0.05758292028497105,0.10730954801393505,-0.12984568465392413,0.04751547672672687,-0.01557264976628137,0.0807752299633397,0.03773111108397167,0.013299803406620413,-0.057184053299026094,-0.009124542260408963,-0.12045510230189664,0.0013017428032644253,0.14342909408669466,-0.04331938230250544,-0.10171629654142854,0.10948924149509913,-0.0763558384693626,0.08667560496249277,0.026053484859474313,0.047639962113379,0.019800660918267956,0.15245077665598178,0.09212813610139378,-0.014409973737488039,0.09445411354390874,-0.030731809972711632,-0.052832963341652016,0.006106851312488558,0.08473714465811422,-0.009082044268779458,0.12532871358748512,-0.07939166369229082,0.06514235890896401,-0.009924714265647287,0.012283626851711386,-0.09392823089543087,-0.09486445062745774,0.10968265419369988,0.012596720047732374,-0.0057361105543632575,0.010720443701593363,-0.03722946638058834,-0.04480235960229835,0.03719267534186755,0.07699771650571408,0.009684515170727047,-0.13145417321648886,-0.08807368382228976,-0.0900594677932238,-0.12567110585457952,-0.024237997642266935,-0.08979200560092587,-0.07028582674476133,-0.03938650382562087,0.08665230837604627,0.09022668978379884,-0.06829357420604644,-0.06212998782534015,-0.1648507024826844,0.042282455323251415,-0.0027953616009744717,0.11778551893291073,-0.003697232049625396,-0.033392621670161604,-0.07284650271535205,-0.047524795570161676,-0.059166492294866146,-0.036823672213538605,0.13732743421803678,0.018076223756764903,-0.06651957650256014,-0.010906813507606986,0.0533286913140275,-0.0538184787246221,0.08354334096213262,0.07197840426262359,-0.13584414063028485,-0.0579626476854036,0.03406128810476121,0.023816163577367752,0.03840452683978949,0.15674723970829998,0.06057490610489371,0.05601406595997951,-0.0518263107950151,0.08103097232387953,-0.17011438906697396,-0.013881266981023465,0.04122848551244888,-0.10099582955938427,-0.02631279430108719,0.16880206458766994,0.03880954410596489,0.04832983331283283,-0.13229555614578148,0.06754579715968943,0.10215913216106308,0.0422592817166502,-0.04066145761887349,-0.06120664259766333,0.014345309468386757,0.03930915308916877,0.08058846009040382,0.1475136410738394,0.041487298414598556,-0.11366587073589038,0.09442511340808196,-0.02886303467935958,-0.032315286151154615,0.07463681129522652,0.04315937371910027,-0.010951621787474207,0.13077619611791766,-0.04700226626276709,0.0748263932303653,-0.7062437241026299,0.02207867434011857,0.0130762677891294,0.07090131384125496,-0.14774721484273243,0.16467323644652007,-0.02224584618026977,0.2785196487644226,0.07776751944080987,0.019528534112736154,0.04712854437805627,-0.027834404476712534,-0.002239229202028218,0.010488044472005669,0.028297596279618333,0.030412816268410074,0.09799073610410783,-0.008733562857965222,-0.09244227283896542,-0.11542701727107303,0.02901139983821324,-0.16283832275513643,-0.05310389051271944,0.07673815420127036,-0.013980911584027757,0.011816100993302795,0.07969326327827392,0.07348838356857014,-0.05737343358270843,0.016191914984668192,0.03763259976137574,-0.05370693979425122,0.057503322117210966,0.018597494934488316,-0.02338657533380173,-0.034228783447143696,0.00311475668626177,-0.04048561915000684,-0.10481081911540917,0.02479583993565498,-0.06245735152949926,-0.03442829239568699,0.08780665271573601,-0.0218953510970665,0.00381182112832585,0.05248541875098593,0.7289870060563897,0.09547876628887345,0.01878071727370755,-0.06859646405049277,0.020655895474398733,0.08616286668375088,0.014495621762247505,0.04020108235191474,-0.13506371591074318,-0.006480938977740934,-0.04819335419631652,-0.036540407229743964,0.08944543955581798,-0.04604333104955576,0.12198622898711158,-0.045412293336792205,0.03406252483768476,-0.03736218750588608,-0.16048730216960944,-0.027608192220715717,0.6972081526607813,0.10444312987398717,-0.055623273561565906,0.12333252130105589,-0.1810231792809479,-1.0728991887785198,0.025677020172177878,-0.05677161012204654,0.006798041844612893,0.0010382575202435827,-0.14034008165738876,0.15300156996057798,0.031879619298160564,0.07431141630537957,0.015447031006892986,0.055107246084137564,-0.056307970014463964,0.1005404623204168,-0.030754230505051338,-0.09582265774997498,0.07612466971502582,-0.022909229588412836,0.08348395171735482,-0.09978704554481518,0.09343668580693823,0.004057843414369024,0.03819890836791208,-0.03739410945570753,-0.06544511938377083,-0.02697087982623433,0.15285857044059528,0.16739430507676106,0.08358654760447756,-0.0439757856838752,-0.668495514828088,-0.0655649690097706,0.05131127453468587,-0.04948921862867868,-0.14207420862539993,-0.05951540488089361,-0.11553482838510026,0.23136271621599558,0.06234565131012361,-0.049673314803571365,0.10147480757693238,0.11183153433948986,0.01269026352586089,-0.012983751407600441,-0.02176386541753293,0.052719881361735776,0.1337513411545294,-0.011002206268911964,-0.058742653363357995,-0.07172427011655333,-0.06670389928402397,0.1051033708160068,-0.06459084486469631,-0.02758744156635697,0.08688715103447016,-0.0016142365122508654,0.03198190705690433,-0.0826243291281507,-0.05425516219752834,-0.10355840941883641,0.03048876641183869,0.0469212377580265,0.09595463429536186,-0.03154946204221734,0.13494706383430755,-0.0641205793843428,0.06286877819051985,-0.11106807506177337,0.09493466376786165,0.10083543336977814,0.03420126887103476,0.03800435510887475,0.047826857889650694,0.06533564718983054,0.042741846783006,-0.015934905279891744,0.4659266387208169,-0.040508725010090396,0.10867771175894617,0.05027235770632141,0.06331399544908382,0.008095833777794721,-0.03753438982232836,0.030651890175999702,0.11853944453602677,-0.1139277662771305,0.046325949136335434,0.017334991166618116,-0.04843422340536675,0.032715258305529966,0.06428713669279999,0.15573321681092384,0.006981110369405163,0.16203992468999043,0.16485478082761593,-0.030865622634823564,1.2892491312183658,0.1113923672611077,2.937958525058478e-05,0.1388549311342724,0.04917162770032811,-0.7793913967344592,-0.022686709371977934,0.09721039846739132,-0.06143486396525873,-0.0916074168407538,0.009303422514318035,-0.11465402238571173,-0.05498993043311205,-0.08454831867885454,0.14716653924231496,-0.041909459316827186,0.04798788589817567,-0.08872331905810397,-0.12227924848488426,-0.009298126781665203,-0.038071232704308185,-0.021796115726975627,0.0878679776106129,0.11880310252579802,0.033167684340964225,0.09394020551590376,-0.04713518946868251,0.10470941745813137,-0.045037669639828665,-0.0134585871141434,-0.06574168876925857,0.13864499750723444,-0.11961237680979472,0.05113929100721623,-0.7978732915915472,-0.044269210343552835,0.011382285367413144,-0.016128487531101784,-0.18006810127540473,0.10314415492919596,-0.06895473139944687,0.20693180691728172,-0.0072378076881901565,-0.01006877650109142,-0.09235510536428299,0.0006923374504540206,0.030138757389431534,-0.07309595159487517,-0.03076315163912499,-0.07416030238192942,0.04417298018960565,-0.0581712893786189,-0.05681856660311045,-0.024438734537734666,-0.1162934734068767,0.17338771417233345,-0.1633490983460077,0.060173422675605735,0.026878126210942897,0.010706331292546844,-0.20231178599484442,0.12144915207457813,0.012353050520444296,0.049402624799769174,0.11815988570794266,0.11405645287666456,0.06637152057695753,-0.11219179074114427,0.0030719420544605986,-0.182552220239086,0.04317853813502399,-0.01138455551167402,-0.04761610224502914,0.10090322271456584,0.17967900631764913,0.04543309851655486,0.06150833187015775,0.06779984509486822,-0.06479998317203303,0.06898305673303361,0.2830287181607406,0.03892150467751415,0.033312978087683014,-0.005952599568247966,0.10150599602340821,0.010473393323237167,0.006358452786765224,-0.06394406124375963,0.020920681753026995,0.03129803344849592,-0.021485050338681845,0.14590773104614113,-0.06640682988966934,0.12483117923208603,-0.11340780695868742,-0.06708013188980097,0.1678814653270448,0.008939722345476693,0.18038845309818577,-0.021269978899952174,0.7089177787780052,0.06625198751990141,-0.10553758523814641,0.20476065309411542,0.035789599788120983,-0.859357906322412,0.09631094835610454,-0.06559908260444725,-0.13521635217126954,0.06950416036643997,-0.029791778816228156,0.046396640856060566,-0.03295033885637168,-0.15161599341208595,-0.034198170560761076,-0.09833210802051189,0.0562575337090055,-0.10603919160531684,0.02227391463551356,0.0703025012352827,-0.10595037351914466,-0.007645061330565299,0.08729153128278143,-0.0849266815602065,0.08804062971803726,0.123734444624875,0.07641775926607444,0.0702238536846947,0.012642977726629197,-0.010091547788986953,0.013277988999006646,0.040372132174072387,0.08707292573843035,0.05007183743165615,-0.7307156200284352,0.08667727927960593,-0.04025392480949067,-0.018694491920359043,0.07531921729156035,-0.1280959458114285,0.056870851172600476,0.14309067975187387,0.014446437274087056,-0.016391269858456,0.17587244727358076,0.04011444759561615,0.07880664118217963,0.035000833036767244,-0.13049872025078094,-0.06804041544849494,0.10763125575839977,-0.012949551040043692,0.09076500675573033,0.054099668472832554,-0.09477157196601209,0.3356651100168198,0.031788123908311934,0.08683632431437292,-0.10792327929203782,0.03582059820313367,-0.1533458324739116,-0.03540039824944803,0.014015741706498969,0.12330402046766838,-0.0038881236467154423,-0.09500152070653893,-0.07934412310919527,0.029137513319935686,-0.05961077111900482,-0.01711121965451721,-0.07797406250242893,-0.012610641194554578,-0.0439302056481687,0.05909796313205337,0.07085940081618207,-0.16243958700916503,-0.001561900184385761,-0.11551472643510144,0.10869856729497178,0.07100649221152353,0.4986437197506991,-0.03443519844602715,0.05622636740916201,-0.006862027625771542,-0.051182433553108087,0.019566938997511333,-0.060131436529686645,-0.07612213767861767,-0.04674428348867379,-0.04463000548813673,0.021149532578229078,-0.028982075656833597,-0.005097740354475204,-0.024796810774488618,-0.1439251224063638,0.08197617230176542,0.09243553586429301,-0.08231002113007048,0.04043240143138211,-0.04514271251663807,0.581494090393194,0.007101950714040105,0.070976046943868,0.023777367749860667,0.18622088495937952,-0.8967509294425029,0.1800176206599159,-0.00877706528989254,0.03843540273782654,0.0022489336058507097,-0.0335299121579517,0.018367423160336648,-0.02014915671367859,-0.11545303556795697,-0.008350185396931265,-0.03744411628778365,0.0048095494346610925,0.05158907312809152,0.009243204098962562,0.012594858803647966,-0.041794858039732936,0.06908663306662922,-0.016012498298830804,0.04477131118605191,0.038315320138547986,-0.0005066374399068146,0.05740537828019839,-0.050913824805689165,-0.012487573607020162,-0.009742370275591153,0.15310201003827886,0.02844110414569418,0.03703258062126939,0.08837944689340047,-0.4470598521192926,-0.06689652776034345,-0.02786029195917644,0.09422039074283128,-0.05451670010028824,0.006592282697477228,0.1694843306548871,-0.021479703105304556,0.11441418670469855,0.10353791740438668,-0.035644453965999974,0.058895839143437954,-0.006333935511505262,-0.046064396509294975,0.04081654661558845,-0.062204418495431194,0.04864583080173818,-0.16580920384546233,0.09601266796262754,-0.0515588184946314,0.02163051602962865,0.5428322137585915,0.0729968286171943,-0.07989022681419047,0.031658987118143855,-0.07496132869943797,0.029935833384866627,-0.008534633802840419,-0.0032969312637477384,0.009878433171674236,0.14341260415954654,0.023178802567116186,0.04546073240758683,0.053042713970756196,-0.4319537012598485,0.11192077975426167,0.019897351480777127,-0.13637415033659236,-0.026928676797799433,-0.07719743807160258,0.04824564015598779,0.0407838102061919,-0.1213271519138229,0.13098447211811803,-0.016419113604912067,-0.05329312445522422,0.13807837621324812,-0.0742970789363262,0.12429097309496033,-0.04756274230206979,-0.10787770727716801,0.001451510199119328,-0.06323391106302569,-0.06040579400976603,0.008648360101159047,0.0435540238224005,0.12331220481051823,0.02620326157860408,-0.02319314546181295,0.026809508950643143,0.018412432806521235,-0.08975375560501543,-0.03340734972830191,-0.024401356148476945,0.10221137406140694,0.015204536544497665,0.7764201368552002,-0.11319759614633519,0.04837502531232438,0.16300195187319066,-0.05598910635136945,-0.13738408211236364,0.032618250682461325,-0.04321887371040074,0.0010781402333910925,-0.0526731458067398,0.06001990697058284,-0.06665079740079158,0.018212917177672865,0.10708425503948776,0.06526517628947484,-0.011244378060895453,-0.06649933208858776,-0.15707027267653173,-0.013690058359501524,0.013902995371252327,0.03426396020406325,0.127115289200491,-0.096010063516947,0.021977689807244707,-0.003585615322997857,0.04922446668017913,-0.043504226457280866,0.03358621754228701,-0.04464938587328624,-0.0813737644939258,0.026197518329853307,0.1215634409981314,0.05836927762955633,0.0016919597216608023,-0.5508024842821082,0.047282622143302575,-0.05665203995498716,0.08320387258224299,0.05916335910243465,0.1040768023716223,-0.03441503626786917,0.4087034377006918,0.2667510455882377,-0.04284474691212982,-0.03239633873026401,-0.05860717643949202,-0.09730641024209896,-0.06583177520325932,0.07678495260033878,0.062482173015902254,-0.06879455758728686,0.1222568217132676,0.07525628267976207,-0.018553852488260372,0.07274409143583518,0.002295780637490039,0.013025931060283888,-0.034873320137318725,0.13945310644378683,0.02864542791656154,-0.03942630787696537,0.0862781857702325,0.06331069796602923,0.010491102601734376,-0.03182126572281976,0.08275641286058281,0.20703949453883794,-0.005154392421105691,-0.10424741512780915,-0.05139165449408858,-0.13721107681599826,-0.014366290891784258,0.07413237304550294,-0.0008807322171612339,0.08804801120767117,-0.05653184856893393,0.0019895139344759966,0.03604286903709162,-0.027726474510684378,0.058634690398430916,0.3869639733686092,-0.07497359421294161,-0.08115420381101447,0.07322608135183699,-0.13972168691148085,-0.06443079293154134,-0.050096095499387386,-0.0598685195045207,-0.07567535774038714,-0.008350284071691486,-0.0057824048176583044,0.010034010878478387,-0.0284896358656474,-0.05242851259288119,0.07528928300743613,-0.032041796829887656,-0.11786407903251989,0.0019291357521408982,-0.1541911224172089,-0.058972981489329994,0.5855925414496114,0.12741882089370302,0.04789422660294885,0.21708271392573578,0.15842914123325416,-1.2218642278202096,0.1193877946720835,0.05871409902100669,0.040522958390955814,0.001803404160455235,-0.08239222493990651,-0.0947345107111339,-0.047222895236007804,0.003610909787196881,-0.02902180932013881,-0.10410652044333932,0.06914475930639505,0.017191499438160767,0.0856989869406717,0.0808613427602607,-0.0795700030376842,-0.25098128350179744,-0.002767972862034814,-0.09553905589352767,-0.0785004904111666,-0.07439426687045257,0.06839886658564838,-0.008505567274345538,-0.0976715572050061,-0.04226025430144677,-0.003767481080587335,0.22542231160096765,0.00814005641504399,-0.010638119268287402,-0.8725163903607207,-0.0256154619736557,-0.07979148589255207,-0.05108147235205841,-0.05761327523720777,-0.06764726902349051,-0.06351060343188475,0.2724400084520646,0.18810446190405564,0.027858006236816252,0.003065459419523502,-0.19023738451759478,0.08397725537171764,-0.014111315397962086,0.0012244987556477602,-0.02977526661748849,0.06783695437947608,0.08445533133799665,0.10346120181339874,-0.1716586345191,0.05544171976319776,-0.16251760316745428,0.09082035183087751,0.020038728936523597,0.16171814318601435,-0.03997161376840389,-0.007623344697240001,-0.008284973725218076,-0.01167966308172188,-0.029226016342656695,-0.003070895482842822,-0.29233433210479537,-0.047011112758446084,0.030560001143116983,-0.061698844518929964,-0.005089985248373938,-0.03608153784356358,-0.013300844494645431,0.10666835033509017,-0.16447846986003653,0.051238253250346054,0.016611681485893624,-0.07605899057970975,0.02081877284648586,-0.12316148892681512,0.02416640060999228,0.7965521796393331,0.053660864035111146,-0.029558781159012698,0.010679922117339194,-0.003063473625777651,-0.10919528421183253,0.020629731151153987,0.10369764314410798,0.050633788427600974,0.06341461362587436,0.013516742731720197,-0.024282397654733834,0.06127068111654469,0.04455276954229558,0.07825374095561143,-0.05075707984843866,-0.10597381777735879,-0.0035613518013920585,-0.09061898597149877,-0.0546091411257373,1.4001412306304761,-0.06934904709196213,0.16964528824170066,-0.004780925742009019,-0.08088543316242824,-0.9880143728074382,0.040148368976596856,-0.007906573491369112,0.02331366839247443,0.05629504380446344,-0.06709226334836155,-0.0651095253381165,0.0069411882867935655,-0.04298554569404388,0.017935695990669985,-0.019112468838244634,-0.05933064995046778,0.012409933763296256,0.0004234209232453319,-0.025248427000754515,0.15395079303449083,0.12108520950329629,0.0009191911034658809,-0.09733711990682452,0.10991110518617836,0.01983640077034047,0.01657388743230257,0.09942957875548643,0.0504711366117665,-0.037454295211384804,-0.08662510809753872,0.22214012619713622,-0.012425426972485214,-0.022733414564244072,-0.3328976683151874,-0.03234658506157664,-0.06868440412259541,-0.09424832500475767,-0.043216779171195624,-0.026111423386056636,0.032012508828817635,0.03616532795504106,0.10736617202065497,-0.12453376876285689,-0.06278267885023624,0.09495847280415148,-0.05527110584511723,0.05038850668177338,0.06821812339431496,0.07784093644189816,0.002495543157849797,0.08372633675587651,0.01658729559694941,0.025496269371002047,-0.00960720376589322,-0.2633502613006838,-0.17652037422998004,-0.12528927766535877,-0.07716791484614763,0.09885299983249776,-0.01784752978749032,-0.02058118544707169,-0.06794613757508541,0.13276891441839184,0.05707837349550083,0.07214713754426327,0.04553932917503215,0.023443203950430903,-0.08115921198568764,-0.098893606897463,-0.12576556949126638,-0.03660529821864066,-0.017604894767794792,-0.06935234424191807,0.06670663350774411,0.044527819002953835,0.05848652464777886,0.010395136441616444,-0.028696578238708734,-0.1526131703332298,0.16031498251356285,0.21417405944207285,0.07284729989695586,-0.00802897030325218,0.004909933475465475,-0.05994665747829118,-0.015992315615819288,-0.021596857334468575,-0.00011184907708572599,-0.013003632769022189,0.13277367939269547,0.09530586922444045,0.14307454996716412,0.028808118478670937,0.07351584680282622,0.02655578863347716,-0.14911404112675622,0.04755259511549176,0.04914572933554314,0.14775285352760364,0.8541201054018235,0.06325290720723659,0.029685058783039498,0.012004117734474773,-0.046385622880845884,-0.6424444054176768,-0.07243604887780526,0.04306748903564984,0.13790990696558283,0.1598277244974003,-0.06701252081275048,0.1261804710112157,0.04292560582635277,0.056793886408013,0.019711063629598864,0.031184803273614718,-0.030078448654168744,-0.2091434913330052,0.0009258484439286408,-0.008921764149359059,0.001153293702249035,-0.3924704318515206,-0.3341967691345892,-0.18358783963851918,-0.055600086584741616,-0.017632349429263745,-0.081551887241149,0.176596271681786,-0.04413001960316997,0.007532622187666846,-0.030578022836132854,-0.3553402355775846,-0.0026271277434411493,-0.002661635225195554,3.372479865984002,0.10975725135118163,0.022328397324960437,-0.15416259238019986,-0.10971629637597032,0.07409438025718468,0.08309407802159295,0.28216405627495217,1.2526539363428557,0.0655806736877877,0.10392545120868596,0.15485297420734423,-0.03668816554974412,0.03685279331493841,-0.08382264332718865,-0.1488191589756849,-0.043347780053781926,0.0038527649264115246,0.06450765631991309,0.008300629382358852,0.1250067869575464,-2.3919104191703067,0.14071311023426525,-0.06796837008635935,-0.0989640080392085,-0.08927620067085518,-0.026672573757985745,-0.04828071412297656,0.07037046594210367,-0.0616940525140752,-0.017925594446621302,0.09063950194128592,0.12997338044149706,-0.01050151335985572,-0.640772151800539,-0.06031434406423246,0.09643874789169882,1.109506511496888,-0.17044559962049582,-0.10264915946993182,-0.018189687422684883,-0.17892190368320188,-0.0936507072588217,-0.10122306788599884,0.07324901313326077,0.0664380563411389,1.348606610076067,0.1188060430794731,0.09333545888168171,-0.12547550771289598,-0.0994796246218064,-0.024672794394155772,-0.1310230442872118,0.1261328415824687,-0.1041913637351233,-0.038922635130014885,-0.06454839947452178,0.025602805946371352,0.05500707196596115,0.007686073713186736,-0.024731163800206794,-0.08301991238321516,-0.3310822462419092,0.12092381264093202,-0.06649045019815696,-0.13863188411611166,0.2688767433874954,0.04893841421476689,-0.018546154985897744,-0.2207708539130789,-0.15489436172524423,-2.469845804931149,0.02964909366182127,0.06299562805635861,-0.005195832608225883,0.0330500652102556,-0.035932771875343474,0.23134845177137928,-0.01574410816562853,-0.1343646015784945,0.07487907119112516,-0.16565378762372954,0.06642245804741635,0.20145780747154815,-0.04207689977271386,0.0698418178878269,-0.004017598043556493,0.16274883408824553,-0.1126050551457505,0.01708413716656243,-0.05952088950268695,-0.04411858239562458,-0.039671751048402086,0.13654334857453224,0.11070501598655086,-0.13444276359139187,-0.10606680322577551,0.04927399766082141,-0.03306941142064026,-0.03475154725786524,-0.9458610449484344,-0.052598805169590715,0.28933222468075925,-0.004668832057808348,-0.012863265171292718,0.024614589838967638,-0.0930557909236013,0.5338176443798845,0.48321030978702023,-0.0926466126623736,-0.029801708285301345,-0.0526138079010127,0.13565015617793413,0.0029377297049502813,0.05988235807673541,-0.016467087475067095,0.02313149729670236,-0.058122745254476145,-0.012251689860767426,0.03853772202256126,-0.05439045501770718,-0.38355012072601236,0.0481462298637827,0.007332256950265354,-0.06518643194394529,0.04658854717615471,-0.018301532495439574,0.034693965103935,0.06710654686666337,-0.14380447098026286,0.04906828762381291,-0.054822368997424445,0.47512937898890595,0.13825039410555257,0.8066308037782954,0.01736140690589271,-0.16892349710233048,-0.4668123372517154,0.028836220262803604,0.1347612866358215,0.09449886495351166,-0.10825377532389394,0.09174140548046178,-0.07221614579229398,-0.016734924407766957,-0.0030662595393585452,-0.6416210813503999,-0.038695815385474924,-0.013553078432231117,0.09463461147344987,0.012765085056153093,-0.003135870619273522,-0.022672682450389246,0.0017694011308686047,-0.14625380390358433,-0.008094423013280243,0.03914252767402862,0.0021529632555970448,0.0046546980075947405,0.07922584044626403,-0.07145722930850519,-0.0029228963415432055,0.48531847248182747,-0.17219539292516195,-0.022892573703744538,0.013216296560309761,3.2065883379643005,0.1284259422556623,0.011796730812396223,0.30622886023059104,0.039690543426897824,-2.7026488801702437,0.005559839309493661,0.0916092341438586,-0.015737569721656523,-0.14257974910279825,0.08045270738958125,-0.08699941840387279,-0.009558597460114756,-0.020349361126506465,-0.008020079364313626,-0.08557768683710582,-0.053573695106626636,-0.47430298152852973,0.04100259305660926,0.04008513360946871,-0.06275774454560916,-1.4802847997635904,-0.14311458666129878,-0.004319490360578405,-0.09760789496450051,0.07874225014740364,-0.02971461236174883,0.097153197764828,0.006459315695318427,-0.016846038657402036,0.2055086929370078,-0.44794800369965787,-0.029805505935467096,-0.035856753291558977,-4.506787893134269,0.017714601955251846,0.450461497837919,0.15297968983675098,-0.05187385101955894,0.05613953687798657,0.031067731350691827,-0.5043757533163035,-0.02120865053173854,-0.010024058875032524,0.02557992122571496,0.015470020729365512,-0.08154568367038798,-0.08426519461660885,0.036067365653406895,0.04807604634292384,0.021176305280800643,0.05656617598335043,-0.08797750504983869,-0.07634043763567305,-0.038683634149623766,2.515062534622108,0.13787056316440524,-0.07024958984805947,-0.015770175087099395,-0.04286188678352106,0.09039700003592092,-0.04423947317930338,-0.20947537263726276,-0.0602578317003898,-0.08074225775011208,0.029884051650638097,0.23775514624010397,0.04336270918530692,1.6340485987997906,-0.13539742196288146,-0.07486608085787459,-1.504713263007525,-0.20405031867782328,-0.03978954205355257,-0.04590888035974423,-0.09173409230614303,0.026104093813743415,0.07271248784282716,-0.022107204554567217,-0.03191233872314574,5.943043712768337,0.09053583922842212,-0.31064970061490177,0.10706257222533248,0.09920514325046284,0.03962615610773274,0.12584141944092303,-0.09579506253868252,0.02437803980107148,2.3308846145213347e-06,-0.034647671497504626,-0.07617717125232569,-0.212843859408808,0.007861579343656942,-0.05433447746808387,-0.12107702197768264,1.4735930890173317,-0.009335025116736855,0.017718627753114672,0.10200498925702754,1.9284949957800679,0.08165687268909241,0.0664075507794177,0.5661715712142257,-0.0019400188242182125,-3.5302234536184702,0.004527678889142331,-0.043702611942468,0.03029353202940952,-0.07547786084156691,0.048261895530549694,0.014643416816466802,-0.007942522367004878,0.023585534526058664,0.09089253472356305,0.09154685587801739,-0.09764114765558139,-0.1526262752344978,-0.04184532165621425,0.06806815935018795,-0.15235349723208108,-0.1102339888352952,0.029322586212597743,-0.14573903015773515,0.11372719940644331,-0.03478669773840117,0.029767295810700728,0.1319823519498889,0.14880208756019303,-0.04705307318304441,0.034657799824176765,-0.011421235470030875,0.005319808303817132,-0.12477949101676128,-0.7182709074413283,0.07711752426736922,-0.02710413754554457,-0.09101203474050822,-0.21421134469177638,-0.07168494730611902,0.10549871063558512,-0.043891472177769134,0.015164837704892964,0.14701497113144515,0.09658383266787662,0.04659178896014305,0.009186492667641943,-0.019532660013080377,-0.10703916293219164,-0.027421645666521985,0.040590353436260815,0.03146643510841878,-0.03665012132170127,0.11549023330804135,0.024019851642716354,0.2557663729889744,0.05385011125295901,0.004837115056841461,0.1459341598570838,0.0060522516996244875,0.13259880884014855,-0.07712949640944455,-0.03772205430162834,-0.05702237974426219,-0.050465176603385675,-0.012909837178892596,0.019441803479398268,-0.1768265128462503,-0.24427941123531297,-0.037799965758828824,0.0068843603850066255,-0.2920982010278678,0.0427277921423066,-0.0498240368740494,-0.07636669069125407,-0.052264887202415566,0.07673163712273384,0.07245457528744707,0.09696950163199158,-0.13445207717887955,0.9216792075072956,0.018465902622034118,0.12467128273062641,-0.019616721066458197,0.07538638164182379,-0.13773397470639398,-0.0742138189144438,-0.08163730676276722,0.05634160281083709,0.02054782524786751,-0.014900622939604726,-0.07322344192709744,-0.11565505910570431,-0.055314657624629275,-0.12208369699921683,-0.10831951110517189,-0.023167519103503488,-0.05209275696144339,0.1278832307720366,0.03822234058596086,1.168218429856133,-0.07530823425384253,0.04807344567598215,0.06880705772794217,-0.06459962229138724,-0.7908056125699683,0.004876427344286705,0.02652912827104369,-0.05812934051931338,-0.053982266341306956,0.060061603209056014,0.002347984464853159,-0.06946662138100712,-0.005212663425570237,-0.09109459129540151,-0.08709828132853305,-0.09560115505737647,-0.5877882078000145,0.010321211399710688,0.03430994208625106,-0.012842407433662028,1.4088162513894595,0.1573670311257736,-0.10612002708170871,-0.10978003299337097,-0.074647614678291,-0.17924287048898732,0.03843572881739258,-0.015503121223878242,0.1256347293064915,0.051790275504663946,0.5981511247866116,-0.04045834469722126,-0.10453210753859764,-5.42658667347224,0.061990608803916505,-0.31683162775960194,0.05947812838739534,0.011483779598308248,-0.02683248715576013,0.03247356301274504,0.18289493116278352,0.781519556829595,-0.02664833920020559,0.10496687550999771,0.11162861381371024,-0.015557670000996525,0.005044571603342176,0.023096121506340044,0.04153007990352487,0.16429389363403643,-0.03168533971482548,-0.0091160173793588,0.0579715120529312,-0.04753685725612246,2.301469964306114,0.09459605208400153,-0.0016155141699402626,-0.10892403498749824,0.041521759438041435,0.12024248284617274,-0.022014798564028708,0.0908441482056516,0.11538045998913135,0.04748706493472463,0.04186542671078589,0.11341933855917224,0.05287223648018611,-3.511395708799875,-0.05292152019677221,0.041131496668706226,-0.014157050038561488,-0.008773965495389245,0.00033450515814709755,0.05333412053766382,0.011938498715556994,0.07162206505428553,-0.0571951424324592,0.05633995441498602,-0.03679080370801189,1.9807607955617879,-0.0999034826348852,-0.3005570142829066,0.017593466162712398,-0.03062753038668898,0.0492575211351375,0.14001386157097165,-0.11158066601159829,0.01484123374356068,0.11457029649821991,0.09269661475098433,-0.08586937216221482,0.00621141897844135,0.02642407854858105,0.008131491282738212,0.0001964827651220933,-0.8869820724925658,0.07310811249005401,0.006735351775150989,0.0616509409896805,2.515060592765764,-0.07505316464950396,0.07822929021437444,0.2931481055690776,0.16943686937398403,0.27600916526377567,-0.07578041711647361,-0.03637250884641748,-0.046197044228805606,0.0074124463726679265,-0.0656931910205031,0.022124038892372487,0.028075989841592486,0.06475816462908485,-0.030151969726354286,-0.048079904554961014,0.011705175087993484,-0.02493940358385206,0.11672854810146657,0.06392159713607076,0.01841199067745056,-0.20181442735167102,0.12958462968274775,-0.025241095547679688,0.10817271599528505,0.0899751852346326,-0.02282419306436376,0.0764036247209697,-0.13895481281580568,0.04234119328631955,0.06283898607722573,0.483080512950039,-0.017212025015976875,-0.006713444095841769,-1.0044900785342135,-0.03441061687775878,-0.007695401961540329,0.008233489501032445,-0.1092546815302536,0.030065737000440688,-0.05386967958968837,0.7716835006863996,0.6075276836433228,0.14922809232915812,-0.0416259409925564,-0.09014858253118234,0.04157119814874837,0.00037897667786834067,-0.09049882072948785,0.0249517790020116,-0.04074607628464995,-0.02040471490223047,-0.0032641969401303542,-0.11812245796667324,0.08810232703065672,-0.6150642821785101,0.06556637048126664,-0.009294323050569549,0.032354944499682334,0.06962307079137216,0.1045171810907123,-0.026593447484446538,-0.0025817010900056597,-0.049183535835323186,0.21831157283225258,-0.04512049428578131,0.14839969241709866,0.04131463664036806,-1.523059305445224,-0.016466127325827015,0.00034274259265896313,-0.0062112219773683515,0.03827677861967517,0.10551146083962265,0.06534789368297263,-0.00936565907473063,0.08580124953446672,0.04872905072161969,0.057896156030074954,0.07502860244822632,0.23758128863518602,0.031682727972106285,-0.05250759130854339,0.13651716741542905,-0.005836140740535806,-0.07626655506393167,0.013074012138483755,-0.020723859789100848,-0.06469213617597619,0.05483240321285213,0.10992975716150748,0.03533434367224461,-0.028734237043714524,0.06536808463563991,0.06640047256343909,0.031943443220779334,-0.5097396443998079,0.007270960368527812,-0.0696358346011603,-0.030136282693135674,0.8337319531390237,-0.035021234400735284,-0.06223493123911146,0.17773693589340397,0.028613351577605087,-0.7111260153366951,-0.06091088945479531,0.05423565760089757,0.06856837287686056,-0.02425773503947246,-0.055930192210204004,-0.0357361581243757,0.01949532590409855,-0.10563207652168087,-0.09474212216691798,-0.11190027248294283,0.21613946314869656,0.053631828535537183,-0.0639234919396396,0.08953584651446075,-0.08436238767286068,4.1125609417770725,0.4787840974150796,0.05722622991725366,0.029880802285912524,-0.089295821118629,0.045841919483348315,-0.050581967155901214,0.0016299705152429621,0.0947891175356382,0.0347025601024233,1.0775295317563633,0.07173306225401639,0.007424656834552229,-3.486030732265025,-0.09840905398455507,-0.2610822962816216,0.023088878772264412,0.0013926127827246712,0.18835225120572044,-0.04123993987896287,1.8800273296254224,0.3222421424086457,-0.0744997902652676,-0.026364581696562875,-0.07723089576013253,0.09417801654648761,0.08136911260975135,-0.0045421866059459975,-0.04953685242406333,-0.06471157764950067,-0.0118115379166934,-0.006445758650395148,-0.12572744444035916,-0.0292607665792622,-0.003976061297699351,-0.2531199018527251,0.030368396672039156,0.04303543523090837,0.08931706512869211,0.08078500224258414,-0.011454241314435063,-0.020803796177616633,-0.02484021546554675,0.031199520732557703,0.23667400433312583,0.9929491316908206,-0.054667762661368406,-4.692441852435376,-0.051958732575813155,-0.08787143761007143,0.5858117007857249,-0.04316783541349716,0.012852727433340342,0.12552824973473348,-0.015110626344668013,-0.0017021239752165465,0.014050663654398183,-0.030043339119256968,-0.05406800629034483,-1.1121027295059085,-0.10000106186693546,0.16018218579093346,0.01317023123242591,0.06171437332608011,0.07376817837327053,-0.19611857955408948,0.12313466173413125,-0.12442823169798403,-0.13454204619549562,0.05565554004587838,0.08199786084870313,-0.10656757032745151,0.06631868019242367,0.0035418743971221103,-0.017981041689742246,-0.017586229786625773,-0.03443715084540882,-0.06762546155739914,0.03261262532021062,3.0043032155506806,-0.04083083324652766,-0.06313828438050496,0.8288405428769463,-0.1007664905492105,-0.17579220716022423,-0.0757092118562381,0.01995744605403462,-0.03861059758595032,0.00467722340378243,0.013738798241224965,0.511142763366997,0.1325141389799446,-0.005306394911887603,-0.06462641916338148,0.0913822928877305,-0.014225607637540633,-0.21817537398874745,0.06518895944026991,0.006539152335284992,0.03299578927282095,-0.34791097822593164,0.13544758998200557,0.08739381076670978,-0.03086961497281571,0.022613223215660887,0.0304130938321146,0.05895726749416812,0.06344092849259297,-0.06889490693231125,0.13651917768380023,0.1600942010039985,-0.07749109978947034,0.18321486849084143,-0.8049396117322708,-0.01166174855600876,-0.024212162875339466,0.015316208988877075,-0.007644062754581113,0.05771423700654374,-0.04798469157591364,0.2287775866215305,0.035888736988196404,0.08116075409153008,-0.07534308775728926,0.023495895201848464,0.021159917266232744,-0.06792704302876777,-0.23776835928164075,0.039187774285548975,-0.1518921903501357,-0.03986696329562754,-0.05159376528738255,0.0010464845526312974,0.04207588005473787,-0.2965590788919913,-0.00021340766775451673,0.03558189469005001,-0.009867954935355866,0.03844432593741413,-0.03214553158301569,0.015756203918773404,0.11292070275472454,-0.054035733864958864,-0.019580544833299546,0.07550730646429324,0.1901754944281662,-0.012740383831925068,-0.44378599403004093,-0.07110856268260025,-0.021996024852521497,0.12400833665257287,-0.14048933594265686,0.03128215287129068,-0.016363481404223983,0.004042227129610861,0.11898471424178601,-0.16890163519833853,0.018161077339514782,-0.04212761729444693,1.1171062209474596,-0.06835601773011356,0.12437734662006432,0.15315853896554665,0.06361429507167898,-0.02035600571480969,0.008435769427945357,-0.07080351497233246,-0.04074501041115935,-0.0025955498670473445,0.0657321140324675,0.01777512832591118,-0.03257104137132819,-0.008010465026784598,-0.01109642904369989,0.014752870831382128,-0.2903869134368113,0.038304365989368525,-0.060248760631223794,0.0005316589872892389,1.1645645965697182,-0.012139407619579995,0.0028427283677452163,0.050378405149908774,0.031182392516688025,-1.6153283330018176,0.020157624535702072,0.055664751435499545,-0.008591316984738789,0.006909996809832729,-0.1039710818206978,0.0853082202870705,0.0246938967795911,-0.09575799707559379,0.004939306645437118,0.026291191186996212,0.060688582005332524,2.707234274840594,-0.04475412177990584,0.08834069381979037,-0.045008119383231605,-2.2559614059317985,-0.5711055085304282,-0.07281655501717654,-0.11575440952274296,-0.03774776730704203,-0.058695019206875504,0.006975995262469195,0.0743018008425282,0.0927604766939897,0.010977602771889977,-0.9773682350138787,0.056922389653872675,-0.0017722553212157393,8.983353193507075,-0.1455657554181711,0.48554551315403016,-0.1363373338145979,0.2489755127399959,0.02511390665111074,-0.01168932130956031,-2.723130915919427,0.7141207064517925,-0.03979064511125747,-0.08516807370502445,-0.10409642953171795,0.03408121258734271,-0.004812529647036418,-0.045898489999427985,-0.11977204530871154,0.06423603994187992,-0.11021189854431922,-0.024078985603182647,0.08319361382289953,-0.1070815304141562,-5.780020110587403,0.12164638584679627,-0.08308788613417786,0.17674471071797404,-0.04240473231382823,0.049174843156506796,0.043306578410736075,-0.1347900465384104,-0.0696805836852272,-0.04870130511712938,0.0664828585524274,0.00244103317294386,-0.029900815201302,1.0429265627524031,0.05331275095941002,-0.08507893968796895,-0.673410196707706,-0.01178697795424284,-0.01602253770408814,0.032867774638989176,0.24849143943648253,0.135845363210019,0.09255731892102569,0.0253101347286393,-0.004559987783816781,-7.593032611327102,-0.008482059178361317,0.3873474840815956,0.14271485072753565,-0.034371874715103126,-0.12941729451193304,-0.06020415372177731,-0.08303541331893659,-0.1766392468342025,0.004807627726375473,0.03401084571992867,0.03746179659071149,-0.12406621265726467,-0.00321862905410506,0.006308678538449132,0.025269720019862288,1.9966457427598536,-0.013964758218818494,0.024454342753005676,-0.13274552177086546,10.74510661530703,-0.16571981674490202,0.030562577988192795,0.31146547144888864,0.12278322027265628,3.8410200657495865,-0.17744605672105965,-0.18133414203773085,-0.07929319215623994,0.06981616105891396,-0.05662399145740579,0.10799458132402853,0.09086777593127315,0.06455933867804184,-0.005590416491797568,0.057307614961884426,-0.01292005611079494,0.6373170350301236,-0.08148275858033029,0.12353383121457728,-0.06792890349062422,-2.181392486475522,0.11218398385484192,-0.14519816307659364,-0.05381505103701132,-0.303868206323496,-0.045495435258176675,-0.08204042993432126,-0.0966778717065534,-0.04606479273103382,-0.06238254038617448,-0.30893309341628616,0.08605484053073083,0.02064029620889773,4.424097414173261,-0.2944540688473926,0.4755936974759631,0.00996468720593404,-0.03742591736751251,-0.2108393467152118,0.030770500390832387,-3.009721459202035,-0.5005616020351102,-0.0790481307913155,0.011851325426532265,-0.14584286690176074,-0.04091722013304571,-0.010923510385070875,-0.12207662157592676,-0.006347656147056356,0.042945166448885776,0.2367258532443571,0.12671023211772078,-0.00501518664279839,0.010853205593175205,2.111234106999992,-0.02999970540247328,-0.050494054353282254,0.10922235274143992,0.05838516695544935,-0.03356804315644766,-0.1875549273978884,-0.30618233654404287,-0.07176273059445838,-0.1268075385885876,0.4586257938144432,0.6718097514557035,-0.014496020910921928,-0.8626033530949069,-0.09051665364284066,-0.07068245055812535,-3.607237646924434,0.07911017158813842,0.010373242679763037,0.012623229084790119,0.3498971634319266,0.01409660026310529,-0.08962950385129098,0.08928720558070524,0.06873737394662309,-1.8431017727747638,-0.005728179777061246,0.5383178847003954,0.2137314344324513,-0.06844574965268384,-0.037328007363929994,-0.1543938391184024,0.01986707229787056,-0.05289796151657603,0.01523814951284069,0.0013166687754322592,-0.1555105160434587,0.04495601136475374,-0.02350016906495456,0.019746057827555587,-0.010941632970517638,2.7770637538236236,0.037926765224915476,0.08185236926272657,0.11489496092044095,15.079492484693693,0.028931297999344477,-0.11113932537004334,0.9211041650493681,0.0923400389104285,3.0875878126040903,-0.0733958622080237,-0.023888296676297004,-0.16581430723416454,-0.10923727651834941,0.04743087444303357,0.5352914145427532,-0.11600790964723343,0.05990695494306161,-0.03308166668424922,0.03777702843028049,-0.03311621820011307,0.47998892593016584,0.10108991339639489,0.029918518324945933,0.06964052800884155,-2.842465963435736,0.14522648659660983,-0.007096348049692842,-0.06365156793784699,0.0009061511575673285,0.1126387599901673,0.02568776677561621,-0.13424357922294425,0.06503650135241318,-0.013932032414569376,0.32303633004948745,-0.05373404168623708,-0.04393571265431594,-1.7272356766809334,-0.049590396328726506,-0.04103765342309658,-0.044546318749428264,-0.06045203064180538,0.015783875744963517,0.043884074734824245,-1.3429189366692091,-0.32434059496953604,-0.04607532554940916,0.07544314263502068,-0.03398196176998098,-0.007517143334593493,-0.0009661679222688774,0.06027630606622614,-0.15211594416983945,-0.1181415082619654,-0.04172652534918067,0.09252332455297457,-0.14655356288904625,0.08940818543749517,-0.3131963345062648,0.039439590547813055,-0.04816474488096925,-0.010005497126129177,-0.01368022139616332,-0.09012002046760155,-0.02902269191446698,-0.06280249495693767,-0.15894634625953707,-0.09130706301650865,0.01771573742579836,-0.17301392216563427,-0.02234191847616662,-1.717819555641939,0.0964909671256745,-0.12736831836331727,-2.065761728618306,-0.01295609135040922,0.03497543035809235,0.049815585965003156,0.09728822908643968,0.052682088069808126,-0.10697283916678814,-0.0658966983868281,-0.05165850843267132,3.96429724520076,-0.040792523496946474,0.25678151258660736,0.1875962858898495,-0.03008003214399424,-0.050312790183391846,-0.04694492554190772,0.04653718558140688,-0.017267995795340683,-0.027969546269418128,-0.046350403830797395,-0.09683568070148403,-0.010920353725432362,0.07887153650167351,-0.15918462306065825,0.0214634867306745,-0.11897929467376887,0.07330078989892932,-0.06367417237158873,0.07910695527979233,10.155967609430991,-0.03312637470895811,-0.09163196292005951,0.24437457584737746,0.02314988962706433,0.14276671651711564,-0.08306581448150581,-0.10442718190673032,-0.0014478055350308355,0.07203915132019587,0.12207866190614731,-0.06897044877910272,0.1293374180189005,0.1668461369725832,-0.05840520484976286,-0.08222609102581084,0.02065401112637465,0.36129875661484595,0.04303525874560121,-0.04340401795464215,0.21292706880565643,-2.868453743793222,0.3290442211368526,-0.12196071459546597,0.07648130319355552,0.0809398006173691,0.0724713614084255,0.005007228633532926,-0.007994744080573397,0.026188058699510314,0.24316588999356803,0.4505000091216779,-0.10468873661288682,-0.15389052595902805,-4.435020813407755,0.0884906500202722,-0.2914531419389505,-0.009711877981289503,-0.10756658620760064,-0.08150774997243174,-0.10683653188103723,-0.8286866181458644,-0.49867207021106275,-0.0522209627987858,0.07209885349797802,0.10901420955819342,-0.1299816687410554,-0.11038354971416854,0.008340466560877828,0.0029211755926160767,-0.01303339794128982,-0.05147133546258446,-0.004578938880447058,0.006089659967038643,-0.18382455636188746,1.3119851071932307,0.2664657933314251,-0.08085095577109914,-0.017313295758546895,-0.12877038944499403,-0.0013251784162390788,0.004824254718539845,-0.13466522136686723,-0.02744433624638499,-0.021491655018225232,-0.14744274795919124,-0.27716092112919183,0.01841748054730473,-2.2077930064123428,0.07978315363573892,-0.003788903893996124,-2.1527471060294907,0.018079399851937576,-0.017894860574809456,-0.08111804062747835,-0.014945537471443516,-0.05948593229835584,-0.009816187655240092,0.04406775906203464,0.031072091348570047,6.912980308551773,-0.07477507504969784,-0.08296964187293415,-0.023479647525950543,-0.14398085237827946,0.018744582236523925,-0.05204119515708924,-0.05766152806726641,-0.02183264877357807,-0.05540772884403569,0.06793448901485293,0.028525232314095223,-0.05186244585367411,-0.13419986180705434,0.15628490078180454,-0.05174127464879824,-1.4092764153835207,0.017340625941317803,-0.04479005795379971,-0.08634745345272037,7.4781483952016,0.06949139075944796,-0.03033221475219814,0.0009036463875440521,0.026705636145971733,0.595785956746879,0.033260964346912676,0.04288086698279514,-0.0804097018174717,-0.08301453645215974,0.04581200160286009,-0.40606157369031204,0.04223351431539522,0.14293803274460956,-0.027913027655392664,-0.14705471302889106,0.04473509346790466,2.180081380538429,0.17083700606230223,0.004301460200710891,-0.04099398777525012,-2.108653463699691,0.14265952248042096,-0.06483056600361209,-0.039489505292382834,-0.10884032988600496,0.04789010610833735,-0.04770607299808004,-0.003228656654152649,0.03196967683941133,0.08800227155980322,1.856759072984187,0.032168938682200346,0.09131982901258773,-2.174909658121598,-0.11081788945245599,-0.4917443801525772,-0.00877228710356053,-0.0638970744508145,0.14821625405828245,-0.1633418981886483,1.8352807943949117,2.1596351932377935,-0.010733656300350086,-0.03966127098564069,0.014694273228607455,-0.006284270014353304,0.08547187497692439,0.016689378379189414,-0.06409943618169194,0.06922747288239506,-0.024822861563824985,0.0196663327744511,-0.10877797025966791,-0.14238605475306512,-1.0660640897245008,0.9455159561170414,0.016491033483078094,-0.11235272538595822,-0.058426783768317996,-0.025204106956984138,-0.010068179926324361,-0.09308047794183504,-0.1588934133200458,-0.03978304257748714,-0.22966049449626427,-0.5692835946958383,-0.005787222142949477,-5.134847495086277,0.04255173535372548,-0.14944235595363373,-0.13482965545723294,-0.07631776743487438,-0.017223246989951316,-0.1745768780969071,0.11390042716961664,-0.09139417426399732,0.02148890100506395,0.08143842058808352,-0.023867692612132615,0.34889633655813135,-0.12621338889952888,-0.05102000389396215,0.018840935738776536,0.1010391317995453,0.04959826562877273,0.09129268765473923,-0.06470625557829233,-0.04478648221830975,0.1610241037030238,-0.02678898637063614,-0.07098283396170488,0.06365231380746053,0.03979954300838237,-0.06352821101498346,-0.03409368432459376,-2.1321335733544102,-0.08987599296887097,0.05334798725026382,0.019651008057386357,1.8527657986462827,0.17377389772343563,0.11452887039672636,0.21307570834470935,-0.01860953829918688,0.9051397766669224,-0.1824932444358441,0.1361649360480018,-0.12398612136276879,0.12782647884478374,-0.040787026293601335,-0.2928322635967622,-0.04832052421529856,-0.014246700131157005,0.15919181010031583,-0.0722982818784056,0.06483596655155487,1.9514519113983513,0.07016001319742814,0.07964914856459254,-0.10500406522760074,-0.20024976939110137,-0.24959013018077392,-0.07370937644723817,-0.05162150402302048,0.060952597024044076,0.08908459501985808,0.02676986856794133,0.03321393242901818,-0.0650764776776201,-0.11231855724648916,0.806780558031039,-0.04573203367177213,-0.07130956666083609,-4.1805501918244525,0.029142224197003342,-0.44777085729912075,-0.10097794685311087,-0.1016415666950849,0.34403898006511957,-0.15581321582368102,1.8953657370214627,0.03310875229617407,-0.0447557251838973,0.0914646104809327,-0.10024886984392503,0.06374266979190968,0.03414296283610086,0.0038377076702464457,-0.016429115558674934,-0.034920763473236006,0.09457507572431893,-0.09134365360142384,-0.003887968055476172,-0.059106021563120434,0.8016305743041974,0.7501339438718962,-0.0068770303487386995,-0.017252311215006394,-0.07360125574083587,-0.07714838290992503,-0.03719930727181668,-0.08683090867331494,-0.041858079067891726,-0.0198287074669267,-0.05351289889734314,0.7989537266993022,0.15453368989487476,-5.882170603185466,0.04298370531815964,0.03147613483270994,-1.503569458696943,0.0366575498718413,-0.07165635374224337,0.029150599140978013,0.1628672189846872,-0.0867469692706911,-0.03069423016520046,0.003915044516390627,0.041367075959476814,2.7181006997760506,-0.07794292670313151,0.15312596043349072,0.05094552752537937,0.021362405307994572,-0.08255588867827658,-0.011116420449609065,0.0408874139347278,0.04916818039059363,-0.0475751731671641,-0.013219994762118768,-0.08160286352275287,0.03710131410804414,0.033005746808808634,0.004804858756118214,0.08832694445854153,-0.9769247335096268,-0.02164213440045514,-0.0018640556686708959,0.026256112865644582,3.8393463797636467,0.025876192082215782,-0.0608389734970576,1.2306857306505796,0.009145298507132011,2.416266823278309,0.0649284026302646,0.014803982644885036,-0.18215655399444072,-0.10478633073141268,-0.08857656148290005,-0.03736144410739098,-0.0814963472334729,-0.10311260429127785,-0.0392690795957262,-0.03148835839720295,-0.023734421046720834,0.8310813617609316,0.058894578369340506,-0.0991494327971888,0.01855995790741704,-1.7793267003553384,-0.03249641862433837,-0.11156029082353876,-0.09758077869418967,-0.12249423996015686,0.017120698638392644,0.057550857452383225,-0.10231575450324353,0.08160213665248975,0.007168330443627361,1.6288405878555492,0.11190179001658518,-0.048042686038497574,-0.6597627383763285,0.016054080440112264,-0.22972688992434273,-0.12345647049979089,0.13244775851669371,0.23132064011530967,0.08320218126306342,0.07296027155149758,-1.0315596889800862,-0.018043698200459368,-0.03893530557473563,-0.039232277630626436,-0.010198258745662223,-0.08349192302869717,-0.09403925627977704,0.12203622180601198,0.07069859881588172,0.06185278316920928,0.049323003751484504,-0.07412270670726036,0.00147935044705343,1.281614755994787,-0.026628631042832147,0.07177196800633887,-0.01431328950349517,-0.15815781462008632,-0.015483786158030506,-0.035206335821511725,-0.037833806504056856,0.012405725496253458,-0.0821104656273223,-0.02678593900839691,-0.02308420191598534,0.112726396401901,-3.1543480060893687,-0.05139982691992835,-0.003441263761220207,-1.7330777221286422,-0.10938073975396098,-0.05567890624467315,0.02973865081841924,0.17860576978887083,0.05632892580406585,-0.004996318960267763,0.013475602856508182,0.05096437195143969,0.9692777723947129,0.07530317669917772,0.845460264880596,-0.27036212700793766,0.022561073902994888,-0.14340448557555957,0.0044849115057050744,-0.04535547664942226,-0.03512044211819915,0.06399268179424152,0.1200975649873143,0.03383384429532058,0.11723001969580495,-0.03738237795038272,0.11855761390356788,0.001297781484071793,-0.8736840918469131,0.009192485694225974,0.0359689332112758,-0.07413202874788712,4.2604973343100205,0.04014679604020575,-0.0425433900463957,-0.2330576245203769,0.12036341238880165,-0.7081110354882652,-0.009207770821092405,0.1455434936731605,0.0014544070302633441,0.09994098324292172,-0.06804103343233071,0.04477211435369359,-0.026614483750113518,-0.06979874585466199,0.0686943342583513,0.03600516398661765,0.055712790108179734,1.3388113967582038,-0.033444212439987506,0.039813094067744095,0.17448724866912999,-1.3722346193219421,-0.26500297369870296,-0.1830793751300741,-0.027825357102149187,-0.08331445527006001,0.15551295601996706,0.14227889748256844,0.11237943339773189,-0.02183149704373867,0.10302418163623041,0.2929514560378792,-0.011454556968403307,-0.030957160812170367,1.518354246197903,0.11480851239180086,-0.26694476377202325,-0.08990115546779914,0.05370020964109285,0.1889860830268602,0.043106932697671636,-1.1657391792600376,0.5961019742132628,-0.13631940812398566,0.010217674656319965,0.08200387261822417,0.13020309223555135,0.0845660920326405,-0.046679903888091186,-0.021555960807209725,-0.012998183172262886,-0.06829740335400274,0.2032935459832494,0.021763404978719838,-0.03183800257346542,-0.9939233729302692,0.13891757236199181,-0.14208086912990653,0.20663846315791973,0.06315649782540946,0.004024725411747921,-0.02242850310899608,-0.10273827620651102,-0.05887322908199919,-0.024303481019306586,-0.007983065128605036,0.01242135956624526,0.012203848574349706,-3.5056947410588366,0.043615988323501824,0.1297880570985391,0.6844439627932771,-0.041007954223157284,0.028336590180510154,0.05163847475827814,0.007464902901763792,-0.013161582575559714,0.08000379265191333,-0.09102194134599656,0.02033541609210736,-2.30322552532351,0.03956864909114414,0.38325488794447776,-0.07690350537554655,-0.08538599734955446,0.001716141617912363,-0.06294485324117358,0.005749029836882941,-0.07381098203620182,-0.04083464766724584,0.06068847666776121,-0.008115877654130828,0.08504477718426057,-0.015355399846400945,0.03446821868245932,-0.005844970513253427,-1.341626190069464,0.06749790690461314,-0.001827712985411426,-0.023817628540087826,4.268660110329642,-0.03816341593560093,-0.0774324403719605,-0.13690078513234316,0.040599556393133875,3.333901229663454,-0.0620714911418606,-0.045035667080114306,-0.08281263759732212,-0.029519739180299032,-0.017321409112398198,0.09863889698171371,-0.0055183885978075525,-0.016492618201478817,-0.03566965166173296,0.013777306885066872,0.02113415406744465,1.06996772952281,-0.03363677577360997,-0.09839725698196532,-0.02361766015237334,-4.637591756476512,-0.9549509626195125,-0.14977324180967255,-0.022732263308072233,-0.07179555726339668,-0.0713245803519576,-0.04459136390368695,-0.04034029294760742,-0.04686173026939999,0.018155553738224733,-1.103376437260002,-0.05690849540078405,-0.0022444595321718967,-2.1566455039699,-0.17428876875968566,1.3041077366830829,0.2128895834835256,0.12198985098386535,0.02293278676117179,-0.2631979628393661,-3.6222745745127316,1.3897755132591572,0.07304103682459527,-0.11770119765192412,-0.005698224741217618,-0.019370372287220588,-0.1072325016289727,0.14775532345741144,-0.06384047304926654,0.03384239837804166,-0.009773637150487003,0.05606321192197436,0.048801462058594564,0.005863129169493023,0.47113525694828307,0.3221318453898728,-0.028428544106428717,-0.015600792842148183,-0.04503380282219705,-0.08439858055900436,0.060154487205299964,-0.08706996585769766,-0.12922857231467322,0.019047333466944812,0.07080560411188584,0.3235897971472185,-0.12372142187466742,7.588037184829396,-0.01871110668282674,0.027800273303921777,-2.5808616017939716,-0.02839468019645586,0.0495654966771539,0.1304060314963488,-0.16806209319071083,-0.020995802225091332,-0.00672293645843823,0.012841108434219782,-0.08207406481364732,5.654175974911375,-0.006484010016510119,-0.8763301186124324,0.14065231028866812,-0.13334222612976068,-0.03210519389671415,-0.12045954884507896,-0.02145874095699793,-0.04430545681026125,-0.0476613758522692,0.016785416076023227,-0.012624221832443728,0.1789433709637022,0.007302995932346914,-0.0439581358600597,0.13471021028456834,2.180373106093562,0.04616108227224181,-0.18020942196258277,-0.02170337915856838,5.376347306381287,0.015018496785687695,-0.0747914243680559,0.553276772875163,-0.06032467343250907,-4.461166611740289,0.015132361762423267,-0.03364257511000805,-0.014183429691735671,-0.09989437951432241,-0.05022386415596473,0.02785552794194684,0.08891457359916866,-0.03552880827037663,-0.047347633580797036,-0.04024226650272725,-0.06387606405511002,0.9593396546842328,0.01459160359681456,-0.1191175587600553,-0.010809522039134664,-1.6319935096736606,0.13791505238506993,0.017081648089175238,-0.01386472447854061,-0.04543517079948797,-0.03797759248425144,-0.033951333285725076,0.007888274696788313,-0.04796562549625563,-0.07242158267311917,0.03867849340991407,-0.02608528853392545,-0.12355520215444458,0.18484737421781394,-0.04287755452336847,0.175762703030968,0.07246054965918948,0.03296315632132561,-0.022625226617701683,-0.014436057376016899,-1.7473590993270354,-0.3621387004052823,-0.01450299639349532,0.24033783830465885,-0.020912935875119408,0.025157362647095508,0.07386654951773107,0.050926317539988476,-0.07181777862812994,-0.03775731380268092,0.014863002957703146,0.14877220015510514,-0.030194761266915483,0.0043368890348385375,0.9230402574788058,-7.868123232215641e-05,0.03598491174636217,-0.02376814042264143,0.05805763465668038,0.006278783606381481,-0.0640942699786426,-0.058475266737269486,-0.01711341567327033,-0.11436170709814508,-0.002270350842455299,-0.006949036729088336,-0.0552672026514677,-1.5490259982788106,-0.14520311316189066,0.07142519910094305,-1.6574127301464594,-0.06496539287615692,0.021846787289497807,0.019493648139940374,0.13570169805637752,0.04041992692926034,0.06832140645346536,0.11719637179866545,-0.05198696406721287,0.5933429370924849,0.023529325859945854,0.19245123620763133,0.00924663744867689,-0.03486456357890848,0.015408424799297254,-0.020375642727505604,0.01963842112996613,0.038292220548356286,-0.044889209826783384,-0.002870070845709498,0.14389244512193952,-0.06120314336558286,-0.039700323892570256,-0.011495183277573713,-0.006979820655645558,0.36089491275318664,0.05403610637801937,0.03459923860491038,0.1661658847563416,7.099551706111284,-0.07849022106148396,0.06705695857266114,0.13399030531577188,-0.07078930537737094,2.6279706909456144,-0.09183318425351035,-0.0861367383304935,-0.007342377032512165,-0.12902878963522182,0.08991089593581401,-0.08632144497340631,-0.052916293547246605,0.00629321376724933,0.00763850980290482,-0.07960201107182985,-0.06847820787424769,0.3659196902030014,0.06856570429944697,-0.11732496754320036,0.008132504196483916,-0.7484597503581403,-0.2562073359157043,0.003943710041335896,-0.08527074315087411,-0.008685416243944737,0.02051308775762467,0.08190862321909027,-0.016733790374785174,0.02355456975971949,-0.1410307519872935,-1.3043482818098286,-0.022996811431954527,-0.0070347659417649006,-4.303894764727542,0.1287954279989208,-0.27211460652221753,0.03692036496761847,-0.1398554442967783,0.0778600507617764,-0.030486413357522446,-1.9028493115393654,-1.9010483204788002,0.11155805028273903,0.027687529079160576,0.031218696324678382,0.025241109220509265,0.030090920770919367,0.09243878715673381,-0.08606923133971722,-0.015242301093420119,-0.11061422215374879,0.09721699939162125,-0.11527316230801148,0.1090893851635204,3.625123047484491,-0.02473210883973228,0.01210426608342268,-0.05421878553388935,-0.06599474854701304,0.007506520737197605,-0.05287806669099489,0.21271929826859032,-0.03552276684711839,0.24951336384172737,0.16539348266907566,0.23415971954656556,-0.16663288807993407,-2.2187112875734756,0.0053268494116216454,-0.07308875728315942,-1.607450680451899,-0.01652184237890825,0.02907131283111295,-0.08684580449420459,-0.0840132616170649,0.043471771567214795,-0.05531708386183783,-0.19605314785111358,0.017715009124385322,2.3026066477116296,-0.046672840790054744,-0.2972590332855398,0.027272626464431855,-0.034523285969405994,-0.06823048823402654,-0.027995764194164156,0.07040770573307473,-0.17315882011547012,-0.06403313050964822,0.08068685216002838,-0.018104878468552535,0.036658156850646585,0.09102709799677804,-0.03620352847898666,-0.07807020452184345,-0.33354290518205726,-0.13986362536301533,0.07223818073024868,-0.054082002761827556,-0.6554424125594738,-0.1385022361280117,-0.03034021221519763,0.03328569898559807,-0.06336670348815633,4.961331894979157,-0.0459404116121631,-0.10012090126317798,-0.0780924293815692,-0.1600402440011602,-0.025355101832258205,0.1436987059431614,0.12802218024963608,0.037409924081009134,0.07797589505918402,0.024633911749168007,0.021797806517072537,0.30992517551489696,0.04051985404788761,-0.16677519288604822,-0.005221651378845894,-1.5139124251197065,0.09764167300947169,-0.037767132545291446,-0.09551278666754177,0.002642068928719117,0.023069072662855968,-0.01980882996930302,-0.030810005715899393,0.10400107687648477,0.02035743680890667,0.42106792578804403,-0.08414948698593774,0.053567526722353466,-2.2168861352371088,0.06534065791822165,-0.2396529785610179,-0.02884999070448705,0.06960911710304885,-0.08171763279627266,-0.05228828755579811,0.2430357518959536,0.2172077277237133,-0.0845982632810971,-0.10186384957348973,0.07493762424059226,-0.11285108761426646,0.030811111994738953,0.019691523775707934,0.07826294609789326,-0.05745446799002246,0.04743187212907717,0.13343903527502224,0.0187265288427383,0.03924143517983893,1.4175012760633618,0.14323610987403176,-0.05355044918170605,0.04923856416892725,0.03540017727477393,-0.11707161456886618,0.021833162120341962,-0.033645634215000136,0.06259232093296054,0.0645817347445791,-0.14744708937039958,-0.2878743936571027,-0.18156223441779284,-1.1978965020625003,0.03918362101612534,0.07424604080938368,-0.714295387666837,-0.05617207665547955,0.004496078011328367,0.07660930555586512,0.06052677711179253,-0.06295750637083465,-0.07805894156185486,0.034894189130001405,-0.05074465917326115,2.9021714616478995,-0.004713906656807376,-0.022638710830545358,-0.2133479536666626,0.002383797803491702,-0.08081169144705161,0.1989050704950341,-0.10400100420607995,-0.091128060268018,-0.06905863706518363,0.07015505298974932,-0.09393271826535687,0.022157898652618198,0.06961798406046779,0.10919722280491008,0.07103993140288711,-0.6590591011222793,-0.10324354296320572,0.04209691758242177,-0.06289092470267621,2.2324719838231535,0.02083499860387965,0.07339379015232435,-0.25148533165888703,0.10191487700717619,-0.028966692987089083,-0.012507074545862515,0.024180093921785533,-0.020826256214093848,0.03359039307680744,-0.025111314256768855,-0.35010217752191924,0.04151564140812657,-0.009219064763094335,-0.07981691914777977,0.02661423826431082,0.030667184382769733,-0.036477291253831035,-0.06450211710762332,-0.10154111438777817,0.005754847096361343,2.2976845139650415,0.31626920403404285,-0.17120951090006112,-0.02318313217150785,-0.0850899369310243,-0.14019420431283322,0.010662038354866824,0.04371653475665355,0.08540012935310255,0.022922933410228708,1.1937742558975468,-0.058808588155083094,0.09132446918897327,-3.9360952164016902,-0.07759918483112707,-0.5144185913921602,0.01560693355335489,-0.01116783401368953,0.3557347593411337,-0.18067956837218985,4.261098367525152,3.3947729971404415,-0.023997229280322517,-0.003038049483866265,0.001855446370464047,-0.052853459966878936,0.035147160078498316,-0.0950057311022434,-0.0698059567720913,0.031671663364139506,0.047281881091616525,-0.01667448968200191,-0.06646542345726077,0.051562515885039725,-2.219637935183013,0.8867687811579528,-0.022870474281230596,0.022584364722561968,0.038917787138537205,-0.03162194353937568,0.0069276158121741906,0.02911632117198665,0.027731481015137355,-0.07456280272917833,-0.1005883842983343,0.7494227548321677,0.04111024566760308,-9.906037760719721,0.11330613364486045,-0.2061661480423458,1.2079211723481278,0.06461005194709378,0.1326722629729661,0.01679953146332117,0.042984151387827955,-0.05841613023071322,-0.0759130680123392,-0.09741488768306839,-0.07865104535452007,-5.508158198361709,-0.04705761771348731,-0.4902049512643779,0.11413232609348556,-0.11759308662033645,0.0682447298346349,0.008508909905277359,-0.035407461226182366,0.04502610332183069,-0.07304716491491889,0.03864784390428813,-0.021256180427321147,-0.05938561744269066,0.09503469245279851,-0.05641649259714785,0.02060509638511801,-2.1689933191088424,-0.08416840084563902,-0.04002008681355657,-0.08607493641886746,0.17711332223365164,0.023956788834420255,0.19157776092460896,0.9776993609609792,0.07062957339737488,3.2817792884927384,0.058216449272870625,-0.0455910683570569,-0.04598380222008751,-0.06120139143437155,-0.03869689529429734,0.27154352570288093,0.09366228946583559,-0.13409361867324812,-0.07909658936963378,-0.007311362686969946,-0.11784586890871902,0.9366301923503376,-0.05917185848351459,0.03058349158436735,-0.08512706568527843,-0.806157326757594,-0.024364097920453052,0.09498536746953062,0.0032265485494711115,-0.03553517099267111,-0.07814245803083053,0.08061254810781304,-0.06311143613512425,-0.11813165870194688,0.04414786827703587,0.4823274592869503,-0.024733421972362092,0.06584463631467728,-1.3431241700215955,-0.09117630600620298,-0.20101637054682128,-0.08905472333724138,-0.012371388240280995,-0.019886377844794495,-0.025597165436151016,-0.4428243072592444,-0.1708923345160423,-0.021861151746509856,-0.029385195240059087,0.008899409262809202,0.019388235453485027,-0.03655274936450825,-0.1387950504838497,0.08033984274303654,-0.156652877164423,-0.09959696739526809,0.034674327155727824,0.05998363453345737,-0.16228715676006547,1.449433317050569,0.23472539108317628,-0.02886682849836643,-0.04308445666319981,-0.019579578358559287,-0.07876571438096948,0.05326929617709353,-0.1772644418632684,-0.053735248952389514,0.003737553503606383,-0.07706283807094835,0.13151639234389034,0.03531707662892554,-1.9355725770438845,-0.05948372411917607,-0.1459774517399181,-0.8627865752987108,0.08241924873158753,0.004437797957948834,0.11245546743996136,0.13284814318627508,0.04383019645856538,-0.05859678915573428,0.03876750005546608,-0.0649460095350976,0.41287149602102535,0.018752070167353467,0.2125878463959597,0.0894048117935969,0.11616466635434142,0.014149478210085045,0.09461457949068772,0.04148515768194258,0.023481904342278002,-0.15447322452870949,0.05662384119964483,0.1288411662704563,0.04139497807849334,0.015980655043004555,0.0026497940428630213,0.055962953145966346,-0.31501431658051365,-0.10897655861048021,0.014194826183216122,0.09378475546096735,2.2344967349433316,-0.050808262111882226,0.07403263043296845,0.18733524456380035,0.012064036777021317,1.9256125315389785,-0.042914581467546405,-0.027659003977372684,-0.03144071033429196,0.10677266840316793,0.03917015653471456,-0.23125431646101258,0.07322110460556554,0.04588929182315107,0.08676102976897078,0.02480955360200446,-0.07056375525505774,0.7985146824645465,0.036008645105185255,-0.0467871738314554,0.0060965407085163065,2.3135337500396878,0.46563467397582636,-0.0007891998229533527,-0.02963942687727114,0.05749649837100741,-0.06875836004388387,-0.10867033757614014,-0.1220536869333559,-0.003656771657342297,0.01944205246403161,0.41193918733520823,0.1437685281611025,0.050554647803630046,-3.192292585754773,0.10256098407084815,-0.4416702150842977,-0.11397459784100496,-0.018939551908817295,0.2396411991425252,0.0392147593389272,0.33304987361242894,-0.28466571174598204,0.09028545602966963,0.05817728617262104,-0.003972566910617278,-0.11324433999522986,-0.12763520214110285,0.17252545424611818,0.09979324359380937,0.03091152476730372,0.039057768200687314,0.05401879073115231,-0.07275706631301322,0.05960130446677761,-0.9627272198709242,-0.9000662388055813,0.09710850898818242,0.0017003304284203705,-0.0554965914782501,-0.001618394203324509,-0.058950423869828295,0.016022230830129686,0.04598773189076965,-0.05485207182686865,0.4529189581395593,0.6351683265371502,0.10087759540327396,-5.027173516203146,-0.16994021132467763,-0.1235780906426566,0.9009750914501319,-0.13011163134746975,-0.07760539180317448,-0.00873681197913509,0.06761391148228407,-0.10244400826010486,-0.05281251301164096,0.038885693109113294,0.04090049105244214,-0.14675583305175557,-0.018739557150381454,0.3008831062618725,-0.023071048521569087,0.06653509607679799,0.08324744825896885,-0.12476453633596024,-0.0398657409256379,-0.08904991135500964,-0.12841923363418417,0.058574612579627365,0.10617967480299399,0.030149514015677115,-0.020482593861720393,-0.0635159453459025,0.005737600930451685,-1.1491453282256976,0.021538562903854547,-0.045362354752110284,0.03002465725533793,1.7048990420636918,-0.04543327907602637,-0.0813205481520276,-0.23681329826674988,0.06925300827341016,1.910941659993145,-0.07912263888519981,0.07589313774594142,-0.1518213012987286,0.00033439609920403213,-0.030198900691705933,0.6206930990713488,0.0708973092683915,0.06920518367966538,0.06153756803033235,-0.16636667602747912,-0.0077434441370960285,1.0746387163947824,0.032592996050596956,0.03525125165506464,-0.012733918955467766,-1.4627162679655052,-0.0922168501492401,-0.08932050011520079,0.07374926770660807,0.035527330011909,-0.010604160676886564,0.04620225213232463,0.08884307129566606,-0.07030444265547722,0.0581339961368174,0.08330120253644017,0.028677526979164047,-0.12678109882367722,2.6973599740568814,0.02587688968125555,-0.11933576284656379,-0.01774867498839415,0.10981516087525998,-0.07999002674014673,-0.025499330284931187,-0.9182429862167186,0.2568959743584018,0.09245271432192978,0.006802296796236592,-0.020951414887445577,-0.038257249267170654,-0.04241638385024525,0.04746563960549194,0.07885616004771633,0.08960887739390828,0.09948849572136587,0.0888785980059826,-0.0669169629367529,0.06748180898512063,-1.3880055440841241,0.14369405432451662,0.06425927974983027,0.0644345333904461,0.03814342305064893,0.005133747396660501,0.058152855304598475,-0.09545994342362116,-0.1305687896928228,0.1086061473517518,0.17804193547372207,-0.3627961848571613,-0.1513946087169122,-1.1567783014617472,-0.07671275426026891,-0.1177885697565346,0.024599013893742402,-0.10502615222463217,0.002818212036214528,0.0892490073985768,-0.07543019654236947,0.11747517248187071,-0.05804655831814151,-0.12663889164486378,-0.03526684615746449,-0.5114314385526205,0.13225561317409176,0.15296461845937684,0.02444695383445701,0.07233120053314164,-0.06574996653807709,0.1048180083816001,0.04188611914293677,-0.08641196458154296,-0.1098690931736043,-0.09985410554242805,0.016082878051724897,-0.2230133771293651,0.05902940120279864,-0.027185406816187467,0.03998966215301878,-0.6062041782335239,-0.008849886034233347,-0.057613327947237475,-0.054334221367039935,2.8646739223522517,-0.0077316814542451266,-0.04946946402230132,-0.5556037563935987,-0.13913473157564213,2.767115715774673,-0.14109012050533337,0.04339451421652038,-0.09288450924648828,0.12481409371160514,-0.0033406740571901876,-0.10841551789950762,0.14853978549620067,0.023937326060105974,0.04504802797682914,-0.017267527083556642,-0.08343446811065723,-0.5013270381141326,0.10707743582236592,0.027810356736144033,0.01444130513685818,-0.6792885917088454,0.05102802324085532,-0.10753478470418755,0.039387890684514565,-0.033641499802945854,-0.1413273184603274,0.04621356461233722,-0.0031895286097814754,0.10449667284754299,0.11652075969298814,-0.14832778552600587,-0.08634236217176948,0.05535830395332722,-1.841475142750774,0.021776966358569644,0.2681912587544913,0.05515229228984247,-0.0013335379910147005,0.1233533140490461,0.12900922343291338,-0.2757189464487824,-0.19263235994763633,0.043874221947598935,-0.10078145687780704,-0.09624854190263957,-0.05437938818312036,0.05765048507192315,-0.04245553491967095,-0.04321209680308972,-0.050010809093535065,-0.12156795730384588,-0.05307489094701603,-0.044703421465368584,-0.04185934584238921,0.7431919987465877,-0.047289380945600444,0.005631089588427502,0.0998072613200432,0.13352448944079748,-0.07331899655666597,-0.01317715468162925,0.11347882684579526,0.012647472980788681,0.08174071245381793,-0.12390408064703044,0.010236433843917078,-0.07001193923163775,0.3948729562615919,0.05394601506149895,-0.0035986177096771054,-0.5833831467533361,0.027951552823234898,-0.06330061434567487,0.057820354677060266,-0.05063352170635297,0.13991682513966525,0.14328662308501458,0.09537707705040861,0.047935646973294735,2.5596240217712563,-0.001814113731932322,-0.10074157837886616,0.009458880908878935,-0.012632203276204096,0.019631435059002632,0.10369201666273431,0.13583513154735388,-0.012402458015232603,0.1355128210789555,-0.05797044022134134,0.00630214208596108,0.04446352688871389,-0.055611900721401104,-0.03231433285306856,0.07763747313316842,-0.05395550133611067,-0.009804276558791274,0.013429652984573038,0.035821271286310644,1.9948070742730004,-0.021025681506621617,0.03682219579315938,0.0015227825421652481,-0.0985281161328652,-1.803993537484764,-0.1011818379689439,0.026314065004133434,0.023567907042294424,-0.03587358596232144,0.013796901438330343,-0.05020133355581105,-0.1231427578002162,0.11394926061593268,-0.08341592663620975,0.01561792532939152,-0.10288516319472919,-0.06258722487050215,0.08943137332447645,0.07079383322217876,0.07613355306023244,-0.9071921452113695,0.1288184162365399,0.056628994264908535,-0.04407363575418291,0.017835558232387395,0.14043433656582371,-0.011450932325881395,0.11953442483607238,0.04052908330501984,0.03228310351444427,0.020853001953874472,0.08058418498588399,-0.045681573436880764,-1.7636645404212403,0.01644092547891205,0.09425359382219538,0.13445932988651274,-0.06108169446750378,0.017257477437754964,-0.07232223580105346,-0.3455038501353127,-0.13862474642931016,-0.04090684614627399,-0.01278424238608662,0.044175956383835216,0.07030264450388621,-0.033199291287427754,0.0021565647607430355,0.031191376017756605,0.05520576455326316,-0.021334971693790325,0.05753663338076866,0.02753063560175511,-0.06794112918538778,0.8401367913815038,0.027557906959074948,0.02561285259121825,0.0012487202395766316,-0.06942973059228927,0.13708673419191478,0.14252977656978635,0.08396627923435672,-0.1142167076182122,-0.09463704660061359,-0.035089324016450624,-0.10630078738467898,-0.1329146888796673,0.0761825320958062,-0.029041994209973047,0.03322856669240487,-0.8917357709748626,0.046385060667557224,-0.0009327897978095108,0.07840495162991586,-0.12071676845900192,-0.0939600814801364,-0.08427187404049769,-0.013602404481667692,-0.11088054341947523,2.310234349731442,-0.04144326102779548,0.01718765033624076,-0.056604080954908244,-0.006362787072478902,-0.04483970202199533,-0.053044237285418766,0.006238472760785264,0.06008233211747733,-0.08381828417100533,0.036214703864475346,0.025554837478942175,0.1268476973124677,-0.0902767018703098,-0.006651062062585455,-0.13103697721073265,-0.14391067264901203,-0.02980232604654198,0.07727398173214639,0.0615755886447443,2.419710511888722,0.030671958418697465,-0.0715133603238641,0.056101815436478464,0.027816947735790874,-0.3825502626858253,-0.03913190041754026,0.060872810439032615,-0.06940187508857414,0.11114020284267782,0.07567542188271521,-0.17436321488943682,0.04797503285304513,0.00875516603126896,0.021541565932763816,-0.09951311127512259,-0.03790716193062174,0.13713331820823024,-0.09326505880225149,0.06942429486794932,-0.12877777421412961,-0.3256163386946372,0.14534480012652937,-0.05751021272410763,-0.05454152913298104,0.037725368422102175,0.0012726771358402417,-0.020262027122878428,0.04403551639352111,-0.049560571990910254,-0.05994698090723174,0.039128915419215496,-0.033492220087139334,-0.11219037856666661,-1.2218817198494338,0.021255436442472183,-0.012619531744225157,-0.07389696270926716,-0.03906154614965194,0.03998092336812417,0.024687341765907613,-0.2980044670744249,0.018190011014498388,-0.12581642355332517,-0.06290751201453804,-0.031425043474653566,0.03987727826613771,-0.05926090116927922,-0.12535026514513217,-0.0823542343760481,-0.015009357050355708,0.06783335012430435,-0.08599535956725422,0.026265816906289586,0.07963639702395704,0.9471798806795926,-0.07249953785103236,0.11378115959511893,0.03107246378324363,0.06640114215792207,-0.12235968649065523,0.06130995316092713,0.04124639175182883,-0.05114777756027505,0.11729861481194997,-0.012061931003661704,-0.12295310102126784,-0.09480791755017011,-1.1775847294217698,-0.010910313893338849,-0.04708972042319571,-0.5275839639727755,0.10789740849027399,0.10006343257183595,-0.0011780251568790912,0.10910998197688765,-0.07925681424114757,0.09006667037928007,-0.03211581447836033,0.015983043112579233,1.4374859692530457,0.15336416001577968,-0.14993821325418036,-0.07777838621461351,-0.06662798518450114,0.08087998863553429,0.05988909002107996,-0.111462534538551,-0.0011344178408262298,0.048709293279162666,0.049836212511675027,-0.11532655072803022,0.09356156659569935,0.08011263479704221,0.03325814452458832,-0.06420814811918671,-0.4111446630707079,-0.0487190455716189,0.06846469501961093,-0.14768634870123198,1.4753391198434411,0.12233087960871497,-0.04834117699714167,0.012140612552121633,0.014801891099556253,0.3928953859492964,0.015426588612521686,0.016660556988463034,0.044959295752402324,0.055673756648862455,0.08298431776738555,-0.028646700735891078,-0.06739181385554377,0.0947455887054554,0.09197397394767985,0.05763123905341091,0.042998077844819134,-0.1603237409974749,-0.1990340042951099,0.08793481425982246,0.03836462874730678,-0.7147116880720331,0.2998930721236817,0.02941113353576165,0.016568164299938046,0.11600449595827085,0.16516819458392873,0.0010812856927551971,-0.096891991081531,0.023332285233826206,-0.1027423271767065,0.31328143610775055,-0.013301406799711153,-0.035273663050795934,-1.9971637249045384,0.10987275439261399,-0.10839718598369583,-0.03800878290256473,-0.004490210730549556,-0.042159490026084726,0.027359023343167244,1.0131142907238115,0.36843390595973996,0.008421507517552107,0.05693997199574832,0.03933698521862283,0.014884187265703796,-0.003250788403184261,0.0024491965555637056,0.048387278151655055,-0.12476960764383503,-0.031160002753164454,0.010834721502481128,0.14664793486020464,0.07351378184260567,0.35328149736978015,0.08479724785924243,-0.11690748846416776,0.187447808669993,-0.012492842345746167,-0.08785313887525657,0.026497995615279133,-0.030515440513376922,-0.055832536573205034,0.07774452319549918,-0.06310979315175562,0.11660959536448479,-0.10757423807428929,-0.8030581285104287,-0.02306949743206035,0.07215942448420909,-0.45741939007260984,-0.040076248866944775,-0.09353849009097126,0.16365461167680306,-0.04548471770009079,0.06949621803415978,0.02115072106172984,0.11311443673880818,0.04886294972787505,1.9109795742607418,0.024417271896246057,-0.12636761658220064,-0.0642031329113485,0.030769644509440263,-0.026603144219429276,-0.03065466184270225,-0.058245691901392393,0.08015832602518297,0.07387476687219253,0.03252380233029291,-0.012900834232295285,-0.21244549004345406,-0.027053774977206707,0.10845914943215858,0.002417387750665584,-0.4931040209962465,-0.07448330279948642,0.11376852089763005,-0.026324886136385353,2.0524450612065435,0.1673433464984524,0.0215701499807301,0.18898294422043047,-0.1819867497165612,-1.675078612400937,-0.0834458631817799,-0.1502785297766452,-0.07981650003416936,-0.031260165325751585,-0.01567848135511695,-0.07901349474668601,0.011840969384957082,-0.08091775598350964,-0.1252870723479893,-0.06393771880714456,-0.08255578878091724,0.04399931944870283,-0.004254538843024148,-0.14661588980320198,0.04653261838404913,-0.8708827036632583,0.18897427253131233,0.04270011118244986,0.17478516449726736,0.06327603747024568,0.1312687226596481,0.019412244418842418,0.12491519762202773,0.05367851397962735,-0.11094429545934587,0.2003470203378753,-0.05674201549465374,-0.03692137597572663,-1.252726434007952,0.029188515736817026,-0.07887165260716701,-0.0902020085443917,0.035336257396808415,0.09966152387748886,-0.017900092043313758,0.6790242592054988,-0.05290881972236148,0.03047648955804956,0.0747395972879074,-0.10286864525003958,0.04578169527764779,0.06814601558690338,-0.06054118101921897,0.056546418252134585,-0.09589782877968617,0.02355281884715539,0.030258137961460048,0.09278930909447063,-0.018669130751535576,-1.0457470458804,-0.0399178768453215,0.11799622779240178,-0.08844761803347291,0.06489486619474177,-0.011969502916821568,-0.03695980418199569,-0.01686998191781759,-0.030921766494343472,-0.04682835365316653,-0.0033539728901807123,-0.039153841748939655,0.03309964274304296,-0.405076243012753,-0.04630680372067239,-0.0338518048220169,-0.4977479153775709,0.10194278254199782,-0.09099098518224476,-0.07737141419734905,-0.13432969892830432,-0.047305749203370766,-0.13253188163945903,0.048059213028723374,0.04438868969234439,2.54555827443718,0.05965540166215509,0.0791331785600462,-0.07763774525469745,0.048317568834907856,-0.0370178268653898,-0.04217393092724322,-0.09440865686028932,0.08203122048950529,0.043634234462992555,0.011261077402244603,-0.08641606011828734,0.13884615011373477,-0.025460677310767704,0.15316961452094682,0.11855445166560447,-0.7470067102447896,0.10104082724786592,0.014449448859981028,0.02162954440005892,3.442928102374796,-0.14365748900037603,-0.014571065579010152,-0.07922911291025306,-0.013822894289765965,-1.488792193644055,0.02554002206231664,0.09689554656336025,-0.07374118572774713,-0.07435289387025455,0.04520417363218901,0.018477481190814327,-0.02303058530022588,-0.003313294985077576,-0.12368444220552166,0.024622602475934206,0.0171798379853928,-0.06642990835569444,-0.11396422981980237,-0.07102158181114025,0.05059821006673144,-0.8744359123108197,0.21226303313098688,-0.0993126249602361,0.06204059552669931,-0.12062399699338616,-0.10377812999063905,-0.03430520034519385,-0.033565578742406475,0.08001108411701983,-0.030455342902634214,0.24977657031908124,-0.07955272280732419,-0.006342284858815001,-0.03733574533200673,0.0717242765991146,-0.09609643244350731,0.027655856641967312,0.11362794798935998,0.12895874995334816,-0.1590956427153633,0.08625684763939992,0.0902264985909334,0.029652368878697207,-0.06000872166944658,0.1661373991076492,-0.11216742511935922,-0.08312277615153799,0.14960456528916316,0.10080148383551614,0.08709443971344004,-0.19428502000146355,-0.07064370678522228,0.020733686840202697,-0.018598862339000762,-0.6327490982439854,0.005180610764167128,-0.018055790552517183,0.1203670171981655,0.06230945752309164,0.04351946896084144,0.0301710476956965,0.10351637409484966,0.12220327221088642,0.04810090603566361,0.01993813583932278,-0.10166858450427302,0.057573361737482426,-0.8437711991895279,-0.11706683138871939,-0.03347282030300903,-0.5536009546819046,-0.01630181030689504,-0.023001466704890023,-0.06395643360975746,0.06999096268401032,0.052355108008649544,0.08113871079139279,0.022829580238558377,-0.09140703682059226,1.717843366667914,0.06547344786065136,0.05086223616831983,-0.0571117328503195,-0.12402694143472817,-0.10279869153202127,0.07328293198418792,-0.007267091457186077,-0.06379715154947886,-0.040973470281082475,-0.04776189915188567,0.055144689364621996,-0.026531216193034935,0.06664863546074878,0.13575968174872347,0.07856093541068881,-0.39091015188853356,0.07496754739558291,0.01565353148358712,0.004406598967664523,1.683479002273581,0.010292382472400163,-0.015976020722428114,0.05358993933662804,-0.10981236903093222,-0.16136398715657643,-0.06217017718323121,-0.030725515615840204,0.05550503101808741,0.0004628027798224361,0.009941309694825656,0.06114514764976415,0.07947456018952426,0.11950879053210929,-0.05971759149942494,-0.0858545307886026,-0.024117804228756194,0.05688730162304369,0.03852537131461439,0.031269476515629224,0.09176708683442109,-0.8848303442470382,-0.034937180006277706,0.08141348459704566,0.0499855287230035,0.015521800265973381,0.10060203012830214,0.10259747443957806,0.07212325017814293,-0.03163647763032874,0.14470377500938258,-0.012867720601074028,-0.03699038059002467,0.03634218071768474,0.08805609898348693,-0.002137172643302575,0.18812421845140515,-0.13712617296563767,-0.18591824400981555,0.0011173950461128715,-0.13176699432452205,-0.16150562381086014,0.1872875082157872,-0.01916773436172867,-0.06650489995471025,0.05986518042468289,0.03229469129192227,-0.028561109276270365,-0.0617112835965007,-0.017309593775968062,-0.1694438072262079,-0.04115740770220109,-0.1569968163346132,0.05123974076244432,0.09063456712146872,-0.34816893629591805,0.15980464583223317,-0.01641791338800578,-0.006079193466513689,0.15421148826348213,-0.10995621089547872,0.06140185850884667,0.0912193508844337,0.048211319438108254,0.07432612203508003,0.01789272165471975,0.024218109623469163,0.006843392590122588,-0.37971394918031365,0.08557076199218293,-0.011061801018747546,