# Architecture: 354,128,128,8
# Learning Rate: 0.001
# Momentum: 0.92
# Layer weights below: layer1, layer2, layer3
1.217591884942274827e-01,5.225286204291578612e-02,7.384241475537318966e-02,1.670234620141107518e-01,1.438366725079217867e-01,-7.676288364234956640e-02,7.439937340617411299e-02,7.590106241282500166e-03,-6.465580668554228756e-03,2.928000101633457947e-02,2.594247702884068252e-01,2.709849140807497545e-02,2.514295287252171773e-01,4.911894671367215276e-02,-2.912634288557594542e-02,-3.230716673605690120e-02,2.131340270607799126e-01,-1.678702502923032011e-02,2.606705533843354378e-02,-1.021643880893060782e-02,-2.007341188094889095e-01,2.502824263806162075e-01,9.469700229813365899e-02,-5.334726825466597211e-02,3.991011942450073402e-01,-1.127803989039584676e-01,3.950182157226042948e-03,5.539971322891920624e-02,1.823713073395549500e-01,1.096139277844387916e-01,-1.508750897184451545e-01,1.067925104694517208e-01,-1.097849878525972989e-01,-3.056542208458095655e-01,-1.745707654132197251e-01,1.139187362394731839e-01,5.892550300122124940e-02,-3.933125297133897164e-02,-2.913850110665554619e-02,3.323486998278091242e-01,-4.268511278854474900e-01,-3.210441859342325066e-01,-1.295943029063496843e-01,1.477258371297688888e-01,-3.806995194781295777e-02,-2.266282907593470189e-02,-4.170259815981311458e-02,-9.786398948488718094e-03,1.692425371432386694e-01,-1.099482112242727017e-01,-1.945116322142568729e-02,3.748488262241055080e-02,-4.700894646039233127e-01,8.085210510754617386e-02,3.096962395348826780e-01,-1.407223353070803928e-01,4.681709446842325512e-02,2.098314813692864558e-02,-1.577564141328250680e-01,-1.312664744485951829e-01,-6.727058479354561249e-02,2.175150346100882814e-01,-4.175216091186936818e-02,-1.371187312303055184e-01,3.746800382624355247e-02,-1.577031980672000677e-01,1.539546738083445165e-01,2.398837711143002316e-01,-5.295536186998087841e-02,1.266547130038371272e-01,5.341164729832358765e-02,1.250073436463051690e-01,4.626316925813583891e-02,-7.760725408344124054e-02,2.767402752668384272e-02,-5.167911877747366489e-02,-6.580512918926716137e-02,-4.363343991812023565e-02,1.107625300268322288e-01,-7.755979651064029423e-02,-1.262985660717147463e-01,2.940565680014927130e-01,1.533566233884206542e-02,-1.169266784376594009e-01,1.093641477227273867e-01,3.634272353197742222e-01,5.502807748577037694e-02,2.331248292725594251e-01,-1.138002754784930154e-01,3.574860765471188362e-01,2.503505818942510786e-01,9.117458099679021100e-02,-8.327849880805950067e-02,7.233499502195821218e-02,2.523283808783638449e-02,4.877309381956437123e-02,-1.082751355472379579e-01,-1.118739234077425343e-01,7.186253078118668737e-03,-1.624382654657337832e-01,8.886506380969032282e-02,-3.098737918649206446e-01,8.121920709408042213e-03,3.641285901367908862e-01,-8.879990170387906667e-02,1.499211360831721462e-01,-7.505971021861732040e-02,-1.978720793617068652e-01,1.447516383741516144e-01,1.026358899844851263e-01,1.660894581364487643e-01,6.485938251595402271e-02,-6.480222539394488168e-02,1.429845793965488221e-01,-1.233898445664956683e-01,5.998472844189301628e-02,-1.851114926346328071e-01,-9.742641629447105350e-03,1.172543533570099966e-01,6.733482362326835557e-02,2.789124447148218916e-02,-8.316292742025520324e-02,-2.897783612224021782e-02,-2.765146948462239573e-02,-1.551358766890686136e-01,-1.029995846447964887e-02,-3.161963503293974131e-02,3.197090696513563146e-01
4.486866461901226066e-02,4.675309833869024240e-02,-5.768315828704139586e-02,3.967378357022998542e-02,-4.952756204769582365e-02,5.095100874681784964e-02,-4.211824132293794792e-02,5.252144021498188209e-02,4.278907202196206849e-02,-1.679306066721569790e-02,8.203945184699054649e-02,-1.227220221094758035e-01,-3.049435722155083642e-02,8.137517428518598051e-02,-9.065233241087445812e-03,7.521712825484240528e-02,2.364432364955609545e-01,7.125088946338778428e-02,-8.674260200569305912e-02,1.005661927443837200e-01,-1.459322436558418978e-01,1.860300368000677995e-02,2.736863435355781429e-02,1.287890056368483915e-01,-6.323683904142972378e-03,-6.494840360053764916e-02,-8.282809269887432199e-03,-1.945358894092871424e-02,8.798361866263919306e-02,-8.112435378419348420e-02,-1.409716169057438351e-01,3.114270919685879074e-02,-1.100970597660422684e-01,1.656864739400445430e-01,-3.510527179256676261e-02,2.761864400515594634e-02,-8.641835921827650813e-02,-4.440548707665201503e-03,-7.508050866604359941e-02,1.911809693927698020e-02,-4.470847087586137664e-02,-2.020044397587243690e-02,6.826390774702756348e-02,2.421535118900219191e-02,6.448545103143715762e-02,-2.933027625013109180e-02,-2.603105675419898832e-02,1.030611454596197171e-02,-1.149948953802101917e-04,-7.168176028335639105e-02,1.407620875473968199e-02,1.802841551762616318e-02,-1.920025544860943512e-01,-3.351744542725074161e-02,1.153400121346246227e-01,-1.937777785806436004e-01,5.129755400276561628e-02,-1.216126043897949593e-01,-9.923656900936118908e-02,-3.523302434847989939e-02,-7.403560670193133630e-02,1.713006410372813759e-01,-8.016935975617202337e-02,1.573162762252305197e-02,8.379911651189982449e-03,-1.480072250785858523e-01,1.961118466377587966e-01,9.427592639148874021e-02,5.375371425892199601e-02,1.080597510828321950e-01,1.616169100927070112e-01,1.549743554023859382e-01,-4.010000687200982600e-02,-5.526539024155717461e-02,8.082465604307853546e-02,4.913187260548857599e-02,4.744664825868426944e-02,-1.242707843588763128e-01,4.694395472746309972e-02,-7.285174064246580095e-02,3.855790071534263841e-02,6.236047024381239506e-02,4.366398909099798026e-02,2.294494730382535402e-02,5.856071421184750464e-02,5.860799158039012302e-02,-6.953949725504300627e-02,5.592178206714633337e-02,-3.687563499479630524e-02,1.406804329462618131e-01,2.830169662394005914e-01,-3.683823906940012372e-03,-8.408677345838377892e-02,-2.663291981863548721e-02,-3.535207958326423705e-02,3.415174175301064624e-02,-1.366222734119759696e-01,-7.645936905615954848e-02,1.025349424722890417e-02,-6.425299230218450841e-02,-9.165941820481524061e-02,-1.353656971728492420e-01,-5.598407653336642115e-02,6.376960947911672339e-02,-4.110294210311724039e-02,3.271094635853724619e-02,-4.931734590588423423e-02,-2.613286975356457140e-02,1.124367281511246125e-01,-1.326346677751285286e-01,4.972240432306608560e-02,5.605049320648266414e-02,-4.850216259793607015e-02,-3.001410900370602222e-02,-6.324667599868101509e-02,-2.254847183846946448e-02,-8.617930961639477805e-02,-1.257120787647997839e-01,1.092122214693236476e-01,8.026037877186285863e-02,-6.118539329919446546e-02,-1.102229541737178020e-01,-3.078226704808609618e-02,-1.171020130402396636e-01,-2.425495333868314674e-02,-2.446604028164220748e-02,5.108072549013622371e-02,1.024589813553520579e-01
-5.630458394087387713e-02,-1.025881373712327072e-01,-1.189617389562669797e-01,4.588803670182477895e-02,-8.922580445148500794e-02,-3.813542058775726273e-02,-4.300476450355421310e-02,-5.304544338414601476e-03,-1.455793942547889130e-01,1.419564008319272250e-02,5.125540236338244765e-02,7.342842971477258479e-03,-2.406017248578316489e-02,7.919333769500526421e-03,2.543424405952882800e-02,-2.229572441643467018e-01,1.584878978962654394e-01,2.944174988661505885e-02,-4.605590749162893904e-02,-2.272041148200083099e-02,3.614876298963497214e-02,2.830296394972522511e-03,-1.491239996974522974e-01,1.557215285561718843e-01,-1.551894175124418499e-03,7.678079468360789195e-02,-5.216531677278845452e-02,1.113357346778189594e-01,2.488872210875663418e-02,4.568445637393462461e-02,-8.448154468526797300e-02,9.636650163904759980e-02,5.019359737051469483e-02,8.267177606708300819e-02,-4.958313734155253560e-02,-3.032400415198439891e-02,1.674591319541572920e-01,-8.136524520721881426e-02,-1.014609782866265734e-02,9.866407946987430788e-02,-4.889809618700967364e-03,4.098178313975089915e-02,-3.002487242347649105e-02,2.782916761005633371e-02,-9.816957492133009111e-02,1.272126354888581112e-01,-5.200869163494349461e-03,-5.294349186848044952e-02,5.966944243565078243e-02,-4.551191295739953624e-02,-1.075174861091641315e-01,-9.895140886460136731e-02,4.793422166354604358e-02,-2.781441027396575841e-03,-7.181164784275924449e-04,6.750113012112939070e-02,-8.353081984451572739e-02,-5.492432590708731799e-02,-4.087107298884217615e-02,-3.147459691262393701e-03,-3.697377513221251476e-03,-1.024077905980719412e-02,-1.378401037505246540e-03,-7.695204504164577033e-03,-5.319605101954662241e-02,-6.377082047873075532e-02,4.042505668493931448e-02,-5.918240667272148953e-02,-8.645222658424735196e-02,-1.709460547772900796e-02,-1.188019999327896703e-02,1.597373700777073302e-01,-5.361239796336702418e-02,7.559262340811857828e-02,5.615153147230537295e-02,-8.937727459819937159e-02,5.815471383314992082e-02,-8.966384267750331094e-02,-1.971008570116691561e-01,3.776134065272415685e-02,-1.305754537531517712e-01,4.097890754109314443e-02,-5.043443334837916653e-02,1.247013916334158978e-01,8.031278988437376420e-02,-3.372429211935543125e-02,-5.314545467167462733e-02,-7.767407892365543742e-02,-3.136585242430155185e-02,-9.986405766174310042e-03,-1.421212088345278311e-02,1.180233208693627460e-02,4.050990913876488519e-02,2.623094658340312246e-02,-5.751086838527386808e-02,-1.081550481170833466e-01,9.586069956073052512e-02,-6.209798634321967575e-02,-4.915826204592434884e-02,-4.861148457567053549e-02,-1.448638029350502454e-01,-5.185500289827938564e-02,-3.944271784510880452e-02,5.979997770583080768e-02,5.248539106073202981e-02,-1.586174136466104838e-04,5.823058336156541198e-02,2.104883653329746654e-02,-1.200409851698918144e-03,9.803077650687580524e-03,-1.393000397529926999e-02,-2.821820657581668862e-02,-2.026286606568851456e-02,-8.480159406696274882e-02,1.497746559695830454e-02,-7.463699525555740621e-02,6.195174341085932929e-02,-1.879108263771112411e-02,-3.466819543059371667e-04,3.711804864407079740e-02,4.832794887406729328e-02,-1.180659878718229722e-01,-1.074837548054297445e-02,6.135061885704291146e-02,-1.293071241714912056e-01,2.892344549136554449e-02,-1.698329185496219307e-01,-7.183566200630271681e-02
4.669527530433867542e-03,-1.290383277577626941e-01,-7.406549411150331608e-02,-1.114210669997147130e-01,1.249274769636765231e-01,4.446089833666250907e-02,6.310686021333088147e-02,-7.853070270879322634e-03,-2.506437839738512308e-02,-1.218635077915811854e-01,-2.700032037722975217e-02,3.289234842056079633e-02,1.148818226719705397e-02,7.488300247845473823e-02,8.456225364471471606e-02,-1.827423327313980675e-02,-2.758767722814640944e-02,-8.424137966344089068e-02,1.701422763603197830e-01,-5.807355448392612475e-04,-2.020778752081994756e-01,5.813992087016697091e-02,8.240720851972163641e-02,3.345982988976274521e-03,7.267382033833652555e-02,-6.025935067144610330e-02,-1.137731266373849387e-01,9.559830363651357354e-02,-1.407156498090729631e-02,-1.963595180152845690e-02,1.514310495608122697e-01,1.408771115480217731e-02,2.524734440606399635e-02,-1.169685220528830089e-01,1.563095224707831132e-01,1.752021361551374945e-01,-2.306607919851943328e-03,1.219843220729355526e-01,-1.571990358009812128e-01,1.477945831869141857e-01,-4.981373009844865252e-02,1.168257796243874977e-02,7.081252342945394684e-02,-2.059275346310127097e-01,-4.299731885492180661e-02,3.511516349488197613e-03,-6.255240692664219837e-02,-1.162179142062054887e-01,8.261632094790589964e-02,-6.737183530698219458e-02,-1.319444030467604723e-01,2.266268206304535016e-02,2.406426828531451623e-01,-1.392027923966556759e-02,4.713098569721718700e-02,-8.368947906165928596e-02,-1.658135798134166561e-02,-8.772893609656627623e-02,-5.052562528739514697e-02,-1.036356915284413066e-01,6.490286363305153294e-02,-2.900528867412669951e-02,3.762128880052090230e-02,-6.777401026850599086e-02,-5.294033664516979709e-02,1.733991474005010594e-02,-3.479442238176610330e-02,9.398959998971549712e-02,8.852136887744233018e-02,4.391295157648156255e-02,2.486110193122122863e-02,7.870734726464753694e-02,-2.481362873791203433e-02,-1.316871722461018801e-01,1.384835169514337522e-02,-3.874900127585601504e-03,-3.896439998864389270e-02,-7.329298910298041869e-02,-5.734453082844315208e-02,5.747412334173403886e-02,-6.887810553363848953e-02,1.827931468986694896e-01,-8.474929336769269905e-02,-6.021638140125980254e-02,-1.725020866053012802e-01,-2.177302007765404002e-02,-1.600332878391844960e-01,1.339290100527620181e-02,2.884393654189593148e-02,-3.989748939882429429e-02,1.817797315940157532e-01,7.419594582761872281e-02,9.540601426738913593e-02,-6.621837284682417779e-02,8.482897114794284155e-02,3.656581170975429368e-02,-2.416169208820979734e-03,5.450212988297302441e-02,-6.878239203327198015e-02,-7.481953704656443827e-02,3.402337074352539386e-03,-3.558607171393911028e-01,1.688651147902422989e-01,1.376487111831605492e-01,-4.261744729399839608e-03,1.920995550034272289e-02,-1.666054161141999612e-01,2.551778309311638487e-02,8.276067845657142374e-02,7.621329808144118589e-02,1.997610650215145556e-01,-6.894548021509416119e-03,-4.960601766654695183e-02,-3.867606055292762551e-02,-4.478557758008593764e-02,-5.678215075696306340e-03,1.058923223175245974e-02,-3.380088211464135541e-03,-1.163148550835223401e-02,-1.739999532483205158e-02,-2.636825299647958462e-02,-4.403738313232383877e-02,-1.214671413594191202e-01,-4.339098722026001748e-02,-3.156843295041574828e-03,9.779783614327988706e-02,6.694039043195820771e-02,1.469739439668640291e-01
-1.004890588146126473e-01,-1.475671906455862381e-01,-4.956897968533658522e-02,1.320136957248332563e-02,3.767325695612742248e-02,7.843926689993103996e-02,2.376506193270365094e-02,1.304959646267097040e-01,-1.685875299313459655e-02,-6.866551788934235900e-02,-1.105906541132571641e-01,-6.800478236287886558e-02,1.692650203741676712e-02,-6.648361318810318277e-02,6.749660761106980600e-02,1.066964313589108537e-01,-1.772142474645761745e-01,6.494209878695146598e-02,-1.621640784105017885e-01,3.165654240904291344e-02,8.611863821189041923e-02,1.095435562736559419e-02,-9.419914808804957795e-02,-4.398315559234414890e-02,-1.884313851831953199e-02,-1.337400459934647533e-02,-1.546285593830089115e-02,-8.234881427129515236e-03,2.610355869329522571e-02,-9.082980727630039774e-02,-1.611122568582803657e-02,1.116909177876083958e-01,-3.110693487748817862e-02,-4.380756735101466737e-02,8.153918053185808812e-02,-1.897792476009000084e-01,8.101142562741721342e-02,-5.288723741805874401e-02,1.235229622673357161e-02,1.975344027595348634e-02,5.447203261877448660e-02,-2.654089112006947915e-02,-5.097446251106817205e-02,9.759512712365722709e-02,-1.776916680948251170e-01,-7.222158478920017366e-04,-1.045161187211942622e-01,-5.996985106826676487e-02,1.606997229771305880e-01,-1.079047953228677928e-02,1.337439464427405030e-02,-1.340089834556650872e-01,-5.196166810796738061e-02,2.966385619449245920e-02,3.268449729565383460e-02,4.374778827104208040e-02,-1.177075526967349831e-03,3.956690724654703811e-02,2.415400808946333022e-02,-1.430250573916083401e-01,2.496530295918164815e-03,5.532020997438154980e-02,4.464859015264954767e-02,-2.727313902247957209e-02,-6.000657529165626808e-02,-8.722381814493243568e-02,-5.410728758902244064e-03,9.931934314711733658e-02,-1.478918522143360392e-01,-4.316222120447967686e-02,-8.567212847895146199e-02,6.192667334629340520e-02,-4.296637630430893973e-02,-3.763572153534314180e-02,-1.634715473302189234e-02,3.344181563205975843e-02,-2.946648383369858751e-02,-2.289413351352345694e-01,4.951830409006267864e-02,2.771954605658632012e-02,-1.828295875208500038e-02,-6.829257221168948122e-02,2.010233647152757583e-02,2.846841661090522557e-02,-3.533449709690989621e-02,-1.970865689661168915e-02,-7.098506712201961555e-02,-1.946296302034453791e-03,-1.172414188538365015e-01,4.074922362463236775e-02,-6.682498741696318856e-02,1.793940525915736772e-02,-1.128528425064989488e-01,-4.435426928449748979e-02,-8.354208651473250466e-03,-1.248609047359263563e-01,1.335641512131208360e-03,-2.882082057315266468e-02,-1.310006012232365069e-01,-1.061815029393410742e-01,4.231995612304421950e-02,5.626139542867747423e-02,-7.810844730868946040e-03,4.492172615314814210e-02,1.678964216239095877e-02,2.476935462244569952e-02,8.819345617626399292e-02,-1.157863824386280577e-01,5.087150328395519810e-02,-3.083819552334881794e-02,-1.791494101245499210e-02,-2.276908223651425561e-02,-2.817742514155415975e-02,-9.215215743210403154e-02,5.044896811726430098e-03,1.255972741649087621e-01,-1.066126455434015553e-02,-2.468998554648885657e-04,-5.588207979540812248e-02,-8.838756517700729204e-03,3.503146497509622426e-02,-2.782122541698407031e-02,-2.637276038875361120e-02,3.666649647546686708e-02,-6.301187985580285200e-02,1.902737595036957038e-02,6.168482973308643535e-02,1.151193376591010953e-01
-6.613657238244217106e-03,1.210567084033082469e-01,7.793404416719476591e-02,-7.573054502546414102e-02,-9.109532554040732089e-02,4.743926640077220265e-03,1.137294631492058311e-01,7.713160661696735754e-03,-4.438850004445667879e-02,1.155953321733241140e-01,9.149247661677420429e-02,-2.273918610814626706e-01,1.008236275375933438e-01,1.497785430516658800e-01,-1.815302294395121363e-02,7.578013405513127354e-02,1.447333012407487837e-02,-9.917932420302161267e-02,1.239506838039131087e-02,-1.673264341048160894e-02,-1.283988678586107379e-01,-5.552527512467684417e-02,6.539090407871406274e-02,4.431426351488929570e-03,-3.080403069548305964e-02,-4.401162932002174871e-02,3.560107062296282571e-03,1.431757007207111743e-01,-1.013619495169042206e-01,2.824769829066352961e-02,-1.582987113499504661e-01,-8.381113100515077963e-02,-2.045058472139772987e-01,-1.005588606637930482e-01,-6.203976615812886036e-02,1.230580301108886998e-02,-6.183280532785518507e-02,3.639194168855301725e-02,1.060482680344606299e-01,1.548596759359482655e-01,-2.432263899408573793e-01,3.347072819502319718e-02,5.569231010987497899e-02,6.564072014926253251e-02,-4.931054484365360313e-02,-2.157313650525556348e-01,1.572931306238533888e-01,-1.584832931709281856e-01,1.370230743953134434e-01,9.528735418098090160e-02,4.662501099887006450e-02,7.032222479827553163e-02,-2.305042777132229048e-01,-7.054772616836293975e-02,5.581662245780263237e-02,9.684732313832473960e-02,-2.423905486591787159e-02,-6.070580099330453311e-02,-1.529995632333030001e-02,3.698569606972997720e-02,-7.662884861017470184e-02,-8.293906386113435170e-02,-4.666354425520294336e-02,8.456170137033859613e-02,3.062519488735333806e-02,1.223542027692053752e-01,2.242466443586957070e-01,1.885520352855097059e-01,4.380318656634900332e-02,7.126953845564505674e-02,-5.378149879152285817e-02,9.875851798796088377e-02,-1.016596312095888327e-01,-7.840323217408148859e-02,9.763357270066522209e-02,-7.827043964924890532e-03,-6.067193242915009527e-02,-3.679497253523665579e-02,1.529954308880048797e-01,-3.891188581162354637e-02,-2.592445082789885877e-02,1.023433788715255588e-01,-6.306879857679702217e-02,-3.000462867655275326e-02,-1.217310983930873919e-01,-6.715834980788158715e-02,-8.301538559731105882e-02,2.164271427719346996e-01,-7.653171451973280262e-03,1.388432275131230020e-01,9.247062842599532151e-02,-6.153982895648277968e-02,-3.626679101217526041e-02,-7.948152506417231755e-02,1.869629487858335548e-01,-1.704915759309166834e-01,-1.467828920652617178e-02,-1.592613693592218604e-01,-9.291289397606374359e-03,-1.860426761439470666e-01,-1.049754870033453996e-01,-2.173734420998654771e-01,2.021866974907089998e-01,9.725364503101154023e-02,-5.791969449338894155e-02,4.175757290355284340e-02,7.153214252636294450e-03,-7.354379626011210182e-03,-1.367662963495926975e-01,1.621435074012896743e-02,1.276077411866988025e-02,-1.240088875343687419e-01,3.323545241030530922e-02,1.270817188273095366e-01,-7.940482385219083117e-02,6.134367393736273044e-02,-7.700260968627413438e-02,-5.396049629128241848e-02,-1.558467830298664730e-02,-1.192550058806484126e-01,-3.403157787711930810e-02,1.988358168615124086e-02,-8.507707149788074075e-03,-5.565968710898165639e-02,5.833851376279620277e-02,-8.256319112168195029e-02,-8.106145109544445060e-03,1.064138081559907190e-01
1.388997663892234946e-01,-1.585077229984123426e-02,-3.749676357169771934e-02,1.590288261695393035e-03,-6.912283733684357334e-02,1.580800245585964672e-02,-2.523030398195823254e-02,-1.354058195816287835e-01,-4.541383153623037433e-03,-2.387020921927350894e-02,-1.192019986074186466e-01,-4.826863590323061948e-03,1.145726900885148253e-01,3.849893937309313563e-02,4.608123552709330467e-02,-1.059557909286761995e-01,4.296161737710663814e-02,1.115427324987627346e-02,4.255948310447258548e-02,3.218291721248819903e-02,-1.063160305331044553e-01,3.335025570806715405e-03,-5.522144295791601987e-02,-3.756196724611640930e-03,-6.514791661716175242e-02,9.821481130483221411e-02,-6.467740474880830093e-02,-6.930434642589936023e-02,5.536765941373028056e-03,-8.097774655547503031e-02,-3.890735096799338710e-02,-6.026965867457091675e-02,1.066287241379345746e-01,5.778194016478113010e-02,-7.235427941691414955e-03,-2.603052997992691062e-02,6.902354848853770042e-02,3.123850203967604502e-02,3.745211696722559880e-02,7.142802958481062059e-03,-1.335442514756401411e-01,-1.030570513467645062e-02,-4.003632998900850254e-02,4.849027561178578111e-02,7.606209337429323258e-02,-4.892581423811780128e-02,3.460190372263899361e-02,1.271314995459887909e-01,-4.448679018332327151e-02,1.169459048252830535e-01,-6.419023527135363227e-02,1.229789144279855003e-03,-3.356557565424374886e-03,3.730308946052985838e-03,-5.697247184618457749e-02,-4.936115365532350863e-02,-4.843216918244819258e-02,2.456509417513009705e-02,2.643426635180304296e-02,1.618537262847123681e-01,1.041428928124171344e-01,-3.260051362817557863e-02,2.380268061818172423e-02,7.521617807768436748e-02,2.313991028191086236e-03,-7.489981848783907464e-03,1.465837891790317156e-02,7.045708515759184498e-02,-6.368584591080517221e-02,-1.994180839737485361e-02,3.534493714051875624e-02,1.894745290612090405e-02,1.536308314459054573e-02,-2.800509524914059425e-02,7.306449489081462412e-02,1.603846744623365628e-01,3.057703865576623728e-02,-1.450201058744353573e-02,5.755770115262783676e-02,-4.347330618562844640e-02,-5.714568644763169669e-02,5.848362131322043696e-03,-1.941647134734897362e-01,-8.676592801452720494e-02,-2.619242410753498673e-02,-1.008187747360726194e-01,-7.817949687902586708e-02,-2.416800933499209034e-02,-1.232963998371358477e-01,-2.459274753815006778e-02,-3.436620971372641997e-02,1.913337878744989081e-03,8.664429140564071374e-02,1.293535251271620001e-02,1.538869557465346672e-03,7.408217286276223140e-03,1.805805125359225688e-02,-8.145930288348948722e-02,-8.663766941879936720e-03,1.688391171822943224e-02,-1.020767736399529058e-01,5.424479920354167983e-02,8.606003113844738761e-02,-3.871309496451754567e-02,-1.815902572335333781e-02,-6.586938052400644061e-02,5.071734795561844145e-02,-8.201557584753786656e-02,-1.672578771049106072e-02,-6.470618107766579197e-02,3.237967653884954444e-03,-1.349288798778229548e-01,9.969356993725458915e-02,-7.251544262563146270e-02,1.235161167544754574e-03,-1.597320332053283470e-02,-6.157539336853420225e-02,-6.672701896687668888e-02,6.833912262164303086e-02,-3.952277733554662720e-02,2.035604424335786186e-02,-6.025430822110587614e-02,-4.887033934857161477e-02,3.495294377300010163e-02,7.038439324579051637e-02,-1.316486759329827012e-02,-1.068636129639861099e-01,1.557395984378606157e-01
-6.204962118187812292e-02,-1.119570332226401538e-01,1.952902930276412263e-01,-3.090973521753973691e-02,-1.078954422026682097e-01,-5.794679600257524044e-02,6.130467381446975256e-02,1.424151251438954789e-02,-6.419316880918028712e-02,1.364020455870167681e-01,1.654720391556212533e-01,-1.176261740912103865e-01,1.308820764716180918e-01,8.243478228354111925e-02,-1.110101424965890538e-01,-2.074448190775961820e-01,1.285812970375725672e-01,-1.543432444360937905e-01,4.051192348839447246e-03,1.708453572955160871e-01,-2.432988377681066100e-02,1.292634441819136559e-01,5.168479690088901429e-02,-1.059723981627645230e-02,-5.325100433947839440e-02,1.005494844672575327e-01,9.704665081261147630e-02,-5.972592164457370123e-03,1.017328115710639386e-01,1.741079182644256207e-01,-6.935946340077805972e-02,-1.678886296851327120e-02,-1.986767367849295255e-03,-4.944079314192861146e-02,1.485860783614814384e-01,6.441433623644839124e-02,-6.064781594884836868e-02,-1.624576248561541425e-01,-2.334887639472378595e-02,8.683463493776825970e-02,-2.790166140248557247e-01,-8.234254889508293290e-03,-6.010379497580036617e-02,-3.933419698581837320e-02,2.754035529989727962e-02,9.587868343185225462e-02,1.772882591665429081e-02,1.947124080246928068e-01,1.699938664601787774e-01,-1.215906155444074627e-01,-3.106016881287931158e-02,1.062446513820448912e-01,-1.129713097733375249e-01,1.348617429305249693e-01,3.900864080809098022e-02,-8.054309603471972168e-02,1.070421941115927700e-01,-3.135099058476722989e-02,-6.853801344093927994e-02,-6.877880935989914846e-02,7.448501373235960621e-02,8.719473859122227333e-02,1.835393947321426189e-01,-9.219544384682501481e-02,-2.161961473421305374e-02,2.685759509661165417e-02,1.688862323611544369e-01,1.906647022784941636e-01,-6.781749072395636124e-02,4.217561812293146167e-02,1.025361753248718984e-04,1.053290110589241296e-01,8.033603750181538689e-03,8.526571399571439280e-02,-5.081069685065957992e-02,7.243280235298463210e-02,1.719562320728430099e-02,1.031667049948976206e-01,2.349527828557293474e-01,-1.036052332810965815e-01,-4.215195757850072333e-02,8.307747201023257810e-02,-2.133235481091960706e-02,-2.920649283821577513e-02,2.711599229332241345e-02,2.268529537673958166e-02,-3.905500575749498021e-02,2.454472112357452829e-01,-6.757369132040010051e-02,1.880023291283812736e-01,9.546102298726974467e-02,5.460487790092481697e-02,3.016285485455124163e-02,-2.300822651036193989e-02,3.223639344070911017e-02,1.185871625689115076e-02,-1.644606786277056643e-01,-8.517989688178269347e-02,1.982415278357113966e-02,-8.381404963698235733e-02,-1.161577746274042727e-01,-1.111327789972698932e-01,-9.934264540163613433e-02,1.605616778385963173e-01,4.099123408430999094e-02,7.056959542924171047e-02,-1.430298128745024766e-01,-2.764976117831988156e-02,1.743350270452716580e-02,-1.011522738187083451e-02,1.671246816678065988e-02,-1.357864631761750152e-01,-3.879031242676940407e-03,1.757537137571900387e-02,-1.302010289062941750e-01,1.257170406459509615e-01,-1.098091126137561435e-01,1.139472974951409451e-01,-8.540805961542627389e-02,-6.873408692835722422e-02,1.653242839197344854e-02,-1.263581106003495713e-01,5.998925418295315837e-02,2.616059316476015972e-03,5.320068646364117804e-02,5.299297855316185968e-02,-3.213694756115371975e-02,3.889668453799070141e-02
1.295647498757910576e-01,-5.960788839742964945e-02,-7.855374345445516326e-02,-8.155404940243696221e-02,8.388813218004979866e-02,-4.293540166295378713e-02,-5.752692735227674103e-02,1.087896776474187206e-02,-1.577350608024723558e-02,-5.101234888029211600e-02,7.499900024722289116e-02,7.696134754435600411e-02,7.544603181648011636e-02,5.377709043654229498e-02,2.637443169158691994e-02,-1.383786610617533663e-01,1.283579243793110114e-01,2.263464335026757826e-02,4.732122760997464761e-02,9.186127581267833353e-02,1.067337249969527446e-01,4.250785498539461083e-02,3.253699920777926996e-02,-4.409685860629408011e-02,1.047662085319655406e-02,-6.416369608237969258e-02,-5.443744822397073718e-02,-7.200666964529073288e-02,-1.977472711929781270e-03,7.883160435438729685e-02,2.404884419633308290e-01,1.173639196909423074e-02,-1.043470965376553372e-01,8.554650087933045322e-02,-1.924983720003022730e-02,-4.515681538934900735e-02,9.077920442707094681e-03,-1.031432033975932389e-01,1.669171471710726926e-02,3.200941065474414635e-03,-4.557741885194691554e-03,1.838032069417347078e-02,5.049248725767617983e-03,1.270879453090726979e-03,2.138235504669884143e-02,3.134899227139809758e-02,-8.131799029424251202e-02,-1.048592430489363320e-01,8.042448580837318131e-03,-1.143749275156181328e-01,4.372473799488583827e-03,6.879603652103431777e-02,4.017359491044061870e-02,-6.150021894965074232e-02,-5.968977728326313459e-02,1.778868821415704668e-02,-2.978384539963902650e-02,-2.380191580115400760e-02,3.624528211175141734e-02,-7.646713952282188642e-02,-3.051153101601411857e-02,-5.056840899426497116e-02,-7.864523219382392460e-02,-6.491462694165799074e-02,5.120410306890876145e-02,-4.268221316230742975e-03,-6.122202881533244517e-02,-1.240273835022016879e-02,-1.250502625647427757e-01,-5.131579624530881178e-02,1.615676462190130391e-01,-1.235907559238738716e-03,5.514526852843039395e-02,-1.379626589321483222e-03,2.614721761140451073e-02,4.982073553147575024e-02,-8.299641956347759975e-02,-2.318869325345735474e-03,1.246455700562813795e-01,-6.916670897664621565e-02,-4.540857158053891729e-02,-1.250542997445584087e-02,2.069214034778309869e-02,3.945845169454340051e-02,9.523652956875738873e-02,3.879378687661202280e-02,-4.494045196594904749e-03,1.047705742726800504e-01,5.536192258637852998e-02,-1.017319238921092078e-01,1.919584903837359691e-01,1.330723822695153158e-01,-2.035174880638438918e-02,2.839314890831365346e-02,9.948187635311593613e-02,-1.302809295955419111e-02,4.534788730941735624e-02,7.849975702868018657e-02,-7.632295783071633977e-02,-5.353463001389649478e-02,6.310691659433796674e-02,3.197590841823224478e-02,6.543422104902826830e-02,3.598066220536292594e-04,-2.175599457547981383e-02,-1.499631325898193313e-01,-9.495312852856299668e-02,-1.010000211885227537e-04,6.199260417750988156e-02,3.838738940051968779e-02,-1.215503382546459683e-02,-2.057038699760359995e-02,1.635054955600174706e-02,5.876473483829480066e-03,9.694084182579124076e-02,1.100801393868743039e-02,-1.177340405642554183e-01,-9.574284262174241611e-02,1.127386110067527397e-01,-8.804032516117099583e-02,5.744594116391908700e-02,-2.017720704469478862e-02,-4.448147867735396076e-03,-1.092365837978137230e-02,9.036541008586713997e-02,-1.444635629986339327e-02,-2.535675595526292597e-03,-1.058650075071048552e-01
1.442533728270114189e-02,4.200049484171922143e-02,1.807379265309016006e-02,1.049870692166239433e-01,4.490857985498157047e-03,3.794206325016924453e-02,1.407342819753842622e-01,-1.217362710287557687e-01,-3.494403256145828252e-02,1.072288220076721837e-01,1.200117501815704812e-01,6.281172311992992696e-02,8.193400082958039732e-02,5.493060892089626779e-02,1.011956162637335510e-01,-2.204377061737534949e-02,3.245991384078821679e-02,1.177713482848044904e-02,5.911422665619234934e-02,-7.569997670827573188e-02,1.707683287208682649e-02,3.726128110361661555e-02,1.549882312297441167e-01,-4.500972050381655230e-03,5.698442266798468131e-02,2.403812425900347591e-02,-4.780949532977587374e-02,6.480435482090687871e-02,1.724446673899901750e-01,-1.447287884124765379e-03,-5.152883104129409031e-02,-2.599237465702054425e-02,-1.428970214076814849e-01,-8.576421663999336809e-02,6.912303427892214566e-03,1.036073081002227697e-01,7.227112543395421140e-02,-2.757456415727971982e-02,-2.065853716597045031e-02,1.633863649862102863e-01,-9.747423785557765563e-02,-5.074529862476805098e-02,1.046416140787454901e-01,7.815545741478806263e-02,1.533087545262152738e-03,-4.809575266083386536e-02,-1.371815741275506095e-01,2.654036182709836045e-02,-1.415014517878450395e-02,-2.297074084766855262e-01,8.957098058613374714e-02,5.064417768320555319e-02,-7.054032168332183272e-02,-4.926739234337010331e-02,1.169762018894673489e-01,-1.209600238986672932e-01,1.050558837846140986e-01,4.612552883134450610e-02,2.999301492549436010e-02,-2.681719123559536330e-02,1.954441985599356460e-02,1.062202242110891898e-01,-3.065259607826111357e-02,7.242320595845502286e-03,6.026910289489319228e-02,3.254951405360712036e-02,-5.274133232062316878e-02,4.030787995316138100e-02,1.417096267524166689e-02,4.543250247405403001e-03,1.331677035798345676e-01,-6.376717803235247561e-02,-2.240651741853052353e-02,5.555441472374776646e-02,2.456556249349126086e-02,-1.106362136456512206e-02,-5.673412215810171716e-02,2.279804289031306733e-02,1.040495952725199041e-01,4.999474887264502600e-03,-6.639476145445140365e-02,1.763983462501307609e-01,-1.231932043403261012e-01,-1.192541888625109486e-01,7.216921207726148535e-02,1.485188959432309774e-02,-3.953118832061765231e-02,2.699171995159356714e-04,1.753577715465712283e-01,6.179741116265575346e-02,7.456864336723041664e-02,2.401464706388251741e-02,1.797908629379042778e-02,4.038914500478683889e-02,5.470044665489189051e-02,-2.862988288568642584e-02,-5.175759867513470697e-02,-1.715474492581647026e-01,-5.903751581744134252e-02,-3.895727229188065271e-02,6.574133898304514168e-02,-6.404185955676815201e-02,2.896759585303358350e-03,-9.010845629702486301e-03,-2.089138429657309004e-01,8.485674647578778096e-02,-7.656737487455100855e-02,-5.395209456978110329e-02,9.878560850771741023e-03,-1.200563279694067398e-01,-4.152378650466741206e-02,1.520511089396169579e-01,3.793548962614572140e-02,2.698567352616887752e-02,-1.546354204098402130e-01,1.686396404812114669e-01,-1.397102850500303306e-01,1.436330239578140211e-01,-1.535714676644685250e-01,1.055530690422245704e-01,1.214670458046144264e-01,-6.192671741613949704e-02,2.656965107154757311e-02,3.362279513599314429e-02,-3.773743806250404176e-02,-1.087488470493636616e-01,-9.920316463539693985e-02,9.741037673874296254e-02
-4.245113382001035850e-03,-3.926605045249255410e-02,7.295929499596869039e-02,3.794264380758764765e-02,-5.665754558217049597e-02,-8.609231348149712360e-02,5.763327119461630205e-02,-3.402699249083514926e-02,5.667222458854179884e-03,1.182251349564007598e-01,1.327313767729081384e-01,-7.572289484650206182e-02,1.263585440147369648e-02,-5.419199549365516511e-02,7.089718750140094894e-02,-2.685113455971215729e-02,7.640670037935645524e-03,2.305843899324371699e-02,4.802774621454866666e-02,-1.425069782844992361e-01,-1.586720358271868359e-01,-4.637700366976211380e-04,3.540128978765814255e-02,-1.029908271928344117e-02,-5.254793769260957675e-02,-9.522393924065820914e-02,-3.153766956365544605e-02,-2.272392014163310964e-02,1.078309632480823205e-01,-2.482386857293179469e-02,4.461389591661439613e-02,-6.582355224935357296e-02,-3.236542193486376118e-02,-8.460339388776315361e-02,-7.757658454306524953e-02,5.777947201398617172e-02,-1.017867744647862616e-01,-7.410265759843241706e-02,-5.482768556441234079e-03,5.707623806295882268e-04,-1.363065621209415546e-01,-1.094109583556913956e-01,-2.933722979148440171e-02,-4.192789342164627946e-03,-6.005731226374987769e-02,-3.147275247875287729e-02,7.725975459424409830e-02,-1.786666119805004407e-02,1.610998214469110679e-01,-2.792328847312103984e-02,5.701581609511670312e-02,-6.244576275278161670e-02,1.968558828290480761e-02,8.543785482712842883e-02,6.633501855975794566e-03,-7.808957481687919810e-02,-1.100005318392500292e-01,1.120743527407344342e-01,-1.351275295024737810e-01,6.583083576584518315e-02,-3.358192752210437115e-02,-7.932385272141050103e-02,4.548252965097845935e-02,-4.545614677691512534e-02,4.275014961068794583e-02,-5.328756490249419303e-02,2.519655941320916859e-02,3.802863097513804053e-02,5.476942945502816934e-02,8.445952457252775547e-02,-6.922085510457789970e-02,2.465947373821919808e-01,2.691025097650962331e-02,1.500155561313235297e-01,1.197911929249091539e-01,-1.441455511435491346e-02,-3.086512373875219262e-02,-3.023730800049350201e-02,-7.846216920903743841e-02,-7.922108182514382702e-02,-2.031841522535716461e-03,2.040507077072885866e-01,-1.039691105478205979e-01,6.597562035223281107e-02,-9.440062726752666833e-02,-6.964082288328966863e-02,-4.289597866213296085e-02,1.121601898551032872e-01,2.788067445352671730e-02,1.382706724102281959e-01,6.972287724205733506e-02,1.850404929906123569e-02,-1.680147301502421531e-02,1.192956778623196212e-01,-3.879895193566913064e-02,5.775981258806490298e-02,-1.813565722063322505e-01,2.183386550095444897e-02,-3.664030380406174681e-02,-5.669400836051440712e-02,5.840984460004180340e-02,-6.888722020024649895e-02,8.985339321348122243e-02,2.124517833650083620e-01,2.906557877300738196e-02,8.929571701133423578e-02,-6.373404090853491966e-02,-2.161803188467447887e-02,-3.910440439390794332e-02,6.969483185930780422e-02,2.501170709527845287e-02,-3.861162295714180848e-02,1.176117146326778780e-02,7.836161715859593646e-02,-6.564092486474278065e-02,-7.132538272458109618e-02,-4.323017975488682718e-02,-1.499677475981393837e-01,4.225297173552092916e-02,-3.190658652018537461e-02,-3.539655478932372812e-02,6.588453134566615854e-02,-8.056232179653255443e-02,1.809427953027105407e-01,6.523935419101516532e-04,-3.898226136347182624e-02,7.674936449234058544e-02,1.341023640480366874e-01
1.812734628862982256e-01,-1.129379232144433511e-02,-8.947140988758404273e-03,-1.113978245500833186e-01,-2.413854073213056450e-02,-2.804558556467213332e-02,-4.025864075551392925e-03,-1.376433733069103438e-01,1.260139943970363663e-01,-1.065915653174619171e-01,-1.672019291848168554e-01,-9.278984314513476217e-02,-2.697032785197705715e-02,-5.870661583666881428e-02,9.366109816303706814e-02,-4.792994588185530563e-02,3.624230521193365362e-02,4.597517127755860328e-02,7.585692001752111779e-02,9.254641430607367381e-02,-1.323699172011140179e-01,7.436001545978323558e-03,7.144263745942004695e-02,-1.905465961804339858e-01,-1.002026538928317417e-01,3.993484232629453817e-02,-3.559270704589678758e-02,8.110547082725029500e-02,7.246912361480577214e-02,-9.030284539750758899e-02,-7.407828039320631802e-03,1.062011575133035846e-01,1.984742852167416596e-02,-1.012300544654118617e-01,4.725870155547617218e-02,7.576637231572723452e-02,4.464137665768574265e-02,5.297974771892667578e-02,-2.248296901561884498e-01,1.276242475107344232e-01,5.734453892940540726e-02,1.747017967139642344e-02,1.437860955331495515e-02,5.246585307600470927e-02,2.548058960534616002e-02,5.112847430421089273e-02,1.969934094588482454e-02,-9.765071802844378646e-02,-2.732050500991169487e-02,-1.597768602282552686e-01,-1.089462054675850722e-01,-7.725723096755368613e-02,1.141105288928265238e-01,7.864639856372288018e-02,3.010282783224785264e-02,-6.268452205732082116e-02,2.303211147981224644e-02,-4.956480682437743729e-02,-2.529610806004918902e-03,9.978601741846292866e-03,2.730544439155586142e-03,5.082943678806182281e-02,7.177291211563976980e-02,-2.009141002835499595e-02,2.492456334395924331e-02,-9.416218229659215544e-04,5.565560420889887477e-02,5.358391453091427420e-02,-5.894425060037609965e-02,4.882656043563526199e-02,4.222243920362693526e-02,-3.099238430057376162e-02,1.918775796245056689e-02,-6.578010560119262884e-02,-9.105817241748709323e-02,3.115184930751238590e-02,5.171733809820260042e-02,3.131849484757437668e-03,1.333601435354392906e-01,4.872628155132616851e-02,1.972517315409912930e-01,3.350611986320577856e-02,-9.817159930482344254e-02,-5.601107003044081961e-02,-4.276499159637330016e-02,5.272243356854872109e-02,-1.654466863732547421e-01,1.812381745709660541e-01,-3.580822311283860665e-02,4.452492792761510859e-02,-2.109069531598515082e-02,-8.556960868448764898e-03,-5.437628766724985491e-03,-9.490023179386209221e-03,2.505577192987860566e-02,-4.486039264863459636e-02,-5.782212199747998466e-02,1.929389527519527459e-04,6.946441791281662836e-03,-3.412576830803319694e-02,8.860632158070287645e-02,-2.026766486566733971e-01,-2.861099419878928782e-02,1.875321206559441012e-01,-1.116036776946091463e-01,-9.879209471680143462e-02,4.600363738456547669e-02,-1.133413517339595424e-02,7.992953345298375520e-03,-1.608449372178281239e-02,6.276590612272191574e-03,-5.716850017725537067e-03,1.015718627468127633e-01,-2.999553305861114502e-02,-1.428433182611577555e-02,1.348388283732214477e-01,-2.254276736636111680e-02,1.673312002187996861e-01,1.039598178823588140e-02,1.025536220020522998e-01,-1.245187750369264046e-01,1.144993892443857061e-02,-1.482596902252883708e-01,5.857027620997347361e-02,-7.476982322219495602e-02,2.130727421929098572e-02,-2.135624262077650756e-02,-3.583147038481013236e-02
-1.219484784176877307e-01,-3.652894340323475930e-02,1.309194601584738882e-01,-2.222686920875027727e-02,6.912225444339156755e-02,1.890783258893913993e-02,9.119436610057872483e-02,-1.417759702447923542e-01,-3.061443108424134057e-02,7.137905427524032786e-02,1.387001172743016278e-02,-7.110061846421687065e-03,-1.361466305508345249e-02,1.148728828154004095e-01,1.912734214197615162e-02,-3.006950835361792140e-02,7.815194323025148604e-02,4.416958918819259561e-02,5.971792484220354857e-02,1.184942067898717560e-01,-4.859044315882605353e-02,5.817881904961558215e-02,-2.778741271272912317e-02,1.232289551688247643e-02,1.174241831813862963e-01,-4.892128175598892820e-02,-8.557017358209517699e-02,7.843717014469167581e-02,-3.046839125621787466e-04,7.087710674114181680e-03,-4.052421959015571618e-02,2.413737219622046765e-02,6.232510442195744738e-02,-1.019782937650793586e-01,-8.152070703399502682e-02,1.865129104801577578e-02,-1.200191879242523546e-01,-9.372276687704977904e-02,1.404121102069350591e-01,1.103480005184609980e-01,-8.204573947265218770e-02,9.190143814724228977e-02,-7.828259618314421797e-02,-2.362902886736695934e-02,4.691249316896986543e-02,6.615358493583159416e-02,4.601655773932705057e-02,-2.195861081452182284e-01,-3.057628322969162260e-02,-4.392974675079030361e-02,-3.642502850187624708e-02,1.887048187609194350e-01,9.032331799730708433e-02,6.083141157752099820e-02,-3.561815895501751345e-02,-2.361029372347900335e-02,2.789766477519807497e-02,8.467207166894176462e-02,7.070457966395107818e-02,3.643955323823206555e-02,-6.054445055455927316e-02,1.291322256178521199e-01,-1.027019523014223862e-01,-3.953183623185867884e-02,3.508434587504511565e-02,1.593565156336701309e-03,-2.306881088510968902e-02,1.201401510534015789e-02,-1.334921828203060046e-01,7.257173537368852290e-02,9.450898287698183964e-02,-4.887910962235439416e-02,-5.007144678552306188e-02,-1.190451872231428204e-01,6.826312546909200918e-02,1.660603772505431230e-01,-1.350088906407924949e-01,-7.974631147247462915e-02,-2.820135894108092775e-02,-6.165904879757167639e-02,1.020121578939114232e-02,1.625133536074617746e-01,5.477239751562824194e-02,3.937088512605307206e-02,-5.452662185263262851e-02,-9.083349051338301949e-02,-6.278570572853613141e-02,1.818846024244601400e-01,-1.864291516337636401e-02,6.133735886292976912e-03,3.082354967324148903e-02,6.203686600682683377e-02,-9.917507576409075043e-02,1.061420498805117352e-01,1.143743537154653933e-02,-1.664761702320530223e-02,2.097573437970060711e-02,-1.123971786286805628e-02,-2.619579838331392851e-02,-7.153452558517325865e-02,-5.511841807860630438e-02,-6.115538251571066980e-02,1.458021360681390020e-03,-3.594443518295474364e-03,1.232011858896975287e-02,1.002988806487742635e-01,-2.575413009740934109e-02,-6.113223585970124774e-02,3.041820446613914541e-02,1.372235085443500036e-01,-1.114144522896602790e-01,2.829182590016706550e-02,1.529379928212893855e-02,8.726642104285130264e-02,6.326997485508741026e-02,-1.407641813289513787e-02,-1.504250456721986096e-01,6.033133440672860948e-02,-5.639140999692957706e-02,-7.130386947193570468e-02,8.620738769274199909e-02,-6.850224136314025936e-02,8.506985529705959892e-02,3.171900485375590828e-02,5.235192486855656802e-02,2.322953937195111965e-02,-1.230700956172051524e-01,-8.345280663206644522e-02
1.358557966010829655e-02,5.078339173860290517e-02,6.353770190015792067e-03,-6.190893286100895843e-02,1.906824104398856853e-03,1.786650855414233458e-03,-5.692413921181669473e-02,7.565760969709024730e-02,-1.311613800183215606e-01,4.409836933535085657e-02,7.971555255381115868e-02,5.363382821138136525e-02,-6.390916801888163468e-02,3.075769216444090848e-02,1.184789750648466977e-01,5.288972034400602623e-02,2.336350395217695955e-02,4.059873464644568608e-02,5.911939833758116970e-03,1.671118051224856627e-01,6.031846280796866050e-02,1.807826729692011553e-02,3.216979811528539873e-02,-2.963292288398465535e-02,5.825312625603860928e-02,-1.055709287844093097e-01,-1.206608211657377860e-01,1.295005563645416635e-01,2.043619215332112549e-01,3.538887742063966113e-02,-3.323414602968473297e-02,6.850245821075524877e-02,-5.550528272760069798e-02,1.423670814427182739e-03,-1.650428086606267305e-03,3.575138871644554378e-02,-1.142806336067512252e-01,-5.841211067948312574e-02,6.350369060759290807e-02,-2.486822967304477133e-02,-1.560497207973784162e-01,1.185803722044951880e-01,2.663248165400579955e-03,-4.335449043345424719e-02,-1.272038032942484354e-01,5.195951406460579819e-02,4.791549320535937184e-02,-3.905848575144527796e-02,-2.300072702196678462e-02,-3.443495822666511191e-02,-6.865217346227349415e-02,-6.829982679642306043e-02,-3.942986438638059615e-02,-5.449776775660603034e-02,5.358313029962892549e-02,7.291674041997926736e-02,-7.176756077837923020e-02,-1.033662310331587009e-01,8.818036049548001742e-02,-7.340422267901583475e-02,-4.023857675153028057e-02,2.827820249334158514e-02,4.850207606046444408e-02,-1.718248004900017889e-02,3.883231767396802536e-02,-5.817842398017768202e-02,-2.153109996331572726e-02,1.954014222903615594e-01,1.536341975840005980e-01,1.516483418423359708e-01,1.056103072053978312e-02,1.605740841942339681e-01,-2.286568603588282761e-03,-4.565446145821110829e-02,3.464640697539668468e-02,-7.161086464633059992e-03,-7.381705413517376801e-02,-6.848092480573259033e-02,9.489507457462491302e-02,-1.500409975471206636e-01,4.283829503438719294e-02,-5.971865615822444240e-02,-1.922932725732448278e-01,-1.386690080742005449e-01,1.475254835073175619e-01,-4.064149267712678648e-02,1.584861374966718174e-03,1.557685089988209148e-01,5.275666584908890455e-02,-7.826680453991323450e-02,1.079622791380961261e-01,1.393001462732168516e-02,-3.567968110258147585e-02,1.730755761214822566e-03,9.600474715695966887e-02,-6.754149789703658979e-02,2.735931953454164359e-02,-1.256002519312830572e-02,-1.357740630625882960e-01,-1.130662223263446398e-01,5.399804982093187392e-03,4.966668733190084811e-02,7.647603383511471231e-02,9.410176494848558615e-02,-6.137323616513388341e-02,1.351613650884710693e-01,1.034249784839732893e-02,-9.196012871708222902e-02,-1.362294745971414506e-02,5.193961824008947598e-02,-1.472897672401275553e-02,6.800414693677367395e-02,8.284625377581858463e-02,3.009866568229149775e-02,-1.253475405821600219e-01,1.008180174402023219e-02,-3.664288041984769401e-02,1.395205864923939054e-01,-1.251605552776660912e-01,-1.039094721797591964e-02,-4.401468804333360380e-02,2.513445146424849591e-02,-1.643256166660556905e-01,9.005693647322968176e-02,1.343916189939039357e-02,-1.386462345950728037e-01,-2.744796610080927138e-02,7.933496195314986010e-02
-1.237977359296877911e-01,4.796202938391654590e-03,-7.952895871763604463e-02,-4.192629822980654952e-02,2.683930230668303638e-03,3.641287384814770323e-02,-5.052972317648496241e-03,1.482869821445456475e-02,6.271455554142048305e-02,-2.083858860377503855e-02,1.171501942872712754e-01,1.324685320123207000e-01,1.283702787094289678e-02,-8.072670242735101656e-03,-1.414268449193866184e-01,-8.657173072116132462e-02,1.111829836259842913e-02,5.842688837265360563e-02,-4.916610345497466478e-02,-1.876879889491577663e-02,2.726016506174622211e-02,-6.982822114151154965e-04,-2.498071472295837481e-02,-1.074594708279835026e-01,1.930509358142672161e-01,-5.597698307848151394e-02,-9.747420763072928152e-02,-7.804584413606774351e-02,-5.873832008239435187e-02,-2.034763481573141630e-02,-7.319355879879374700e-03,3.113175297125678805e-03,-4.538766509571826729e-02,-1.555796821489434656e-01,-2.190785115688682547e-02,2.945347858062634383e-02,1.542772093931330524e-01,4.676628384443657499e-02,-6.754261967533341758e-03,-1.987441548928027546e-02,-1.172157320587722540e-01,-8.771579838952440339e-03,-2.792448135945620885e-02,-7.207549727176698617e-02,4.052959857068820504e-02,-3.737468704939948729e-03,1.870401802154630921e-02,-1.564634621508802781e-01,8.379145386050086686e-02,-6.941442877727022065e-02,-1.030276583485549291e-01,7.735503122177525559e-02,-9.121117722915708659e-02,3.464876289573298805e-04,3.978804194175548925e-02,-1.602892698119692538e-01,2.745533340887996998e-02,1.278832204278551321e-01,4.522551350555280292e-02,-1.004790340159587431e-01,5.109782711910738212e-02,7.702154840314720530e-02,9.442523834766012800e-03,-3.562024921737024646e-02,1.094633720152898143e-01,4.913369853095072431e-02,1.635662227003036040e-02,5.611848918534968061e-02,-7.024307323405212800e-02,-4.704056727343728511e-03,-4.852293894219436576e-02,-1.522350964428055287e-01,3.539554609423821441e-02,-2.387853804295115775e-02,4.134116103265633724e-02,-5.051258591803144127e-02,-4.335827504694398683e-03,-5.394684801979585109e-02,6.127602162497140098e-02,-5.773841121588621506e-02,-6.161971589747278211e-02,-9.264075108247574186e-02,1.240647405470793330e-02,-5.355160364384434213e-02,-1.120630657763643095e-03,-3.473310314561483397e-02,7.242042583249290455e-02,1.261308175430510825e-01,2.257555185114360624e-02,-9.555409673201672744e-04,8.850653732898670911e-02,1.286652340405838313e-01,-4.871118341565478654e-02,1.266260076805330280e-02,-1.243625396510254638e-01,1.046268956841768516e-01,-4.165740210619804651e-02,4.763178781287156355e-03,-1.303622994118998901e-01,7.308922082195133674e-02,4.059776382506936031e-03,-9.689418395177411270e-02,5.885697521154259482e-02,5.872389129971917338e-02,1.265733922778738418e-01,-1.257697998067946465e-01,4.465136108805532050e-03,4.807386882165261971e-02,-2.336457623824263630e-03,-2.429112391471775073e-02,-3.690217593893552195e-02,-9.131761189695815351e-02,2.568836535632585284e-03,3.844218771418392994e-02,-2.276741974322330810e-03,-2.055149290680670718e-02,-6.166718534316190103e-02,-2.160984726794449445e-02,1.193887725973510477e-01,-1.569887617740863273e-01,2.859758715220096694e-03,-2.468850974533046139e-02,7.097351316815384004e-02,-1.886649317775580467e-02,1.278719577405334484e-01,-1.596994140054848466e-01,3.429437815618151253e-02,7.105593178512649433e-02
1.052754239165858419e-01,-1.214540137349469778e-01,-1.147736931601361053e-02,4.800123406484431074e-03,-3.693121089026298043e-02,8.390619038425746468e-02,-1.360735453555362434e-02,1.501257963812205609e-01,7.998475908642839471e-02,7.127144900651855020e-02,1.214408936467622907e-01,-1.027077120136181132e-01,4.034237658026269303e-03,5.732529292101409130e-02,-8.601362297602345094e-03,8.921679671697393954e-02,-2.082410162713509497e-02,-6.493189369819929446e-02,1.069845284317314377e-01,-3.357353662696962310e-02,2.936503444701550961e-02,1.448165473017995475e-01,5.209981198394223606e-02,-2.603526699383659423e-02,2.008677816123572227e-02,4.790651979787331760e-02,4.371520235154854623e-04,1.495626055443526892e-01,-2.153249050525171335e-02,-7.525071526912245623e-02,-1.117974574722251924e-01,-5.615893037920281078e-02,-1.589443740619683465e-01,-1.088659152523905743e-01,-4.793409646170754268e-02,3.024712450580455819e-02,3.116352623154314966e-02,-1.279002904828500653e-01,6.844999654353321750e-02,2.303984693798740713e-01,-1.560038830425404810e-01,7.878583784802825618e-02,1.471848343629315534e-02,1.498446917848733628e-01,8.406289554605464454e-02,-1.235729396614509423e-01,-1.014762665042803075e-02,6.471874008958050650e-02,9.881156878734928539e-02,-6.718524423776803256e-02,8.121921636218851215e-02,-5.774333158354305606e-02,-3.041617945825618105e-02,1.005670005838003311e-01,4.926403713445215438e-02,-3.541475486713187987e-02,5.796763620260737826e-02,3.212335445033085574e-02,-9.081271779943340949e-02,-1.299086863100867018e-01,-5.404489563874116664e-02,1.907370172285257140e-02,-1.069138663882520518e-02,-6.090352321488252951e-02,-4.510314951492094826e-02,-1.410561318193148117e-01,4.805306063827546881e-02,9.560212862446494653e-02,-1.057300807740430559e-01,4.370613005293823294e-02,1.007652980623582328e-01,-2.412499637370597513e-02,7.554522755880975493e-02,-3.953452688356971084e-02,1.443573354570153351e-02,7.157075028261304477e-03,1.056121498673443931e-01,1.194429864008681071e-02,-2.311537329197536905e-02,-1.639175701623696579e-01,-1.276784023766977250e-01,-3.413524052905385353e-02,-2.916406986975405777e-02,-7.222893120131404499e-02,-5.976067407647969905e-03,-4.551840641009364391e-02,-6.316737658948198830e-02,5.620985003479747610e-02,3.263161829834502342e-02,1.415058392427132883e-01,3.679109369745464653e-02,-7.459079530119001877e-02,4.983832835539024793e-03,5.166021399726396929e-02,2.014531368812218920e-02,-4.595787019623230607e-02,-3.357513265371171122e-03,2.530394338114942340e-03,-2.346166486920831518e-01,-2.879561937740226021e-02,-1.375343144595055356e-01,-2.553866868450373195e-02,1.944666213993650333e-02,1.847826052568603827e-01,-7.570239358565464954e-03,-6.541826182730758887e-02,-3.989008256970590777e-02,5.405263646540445222e-02,2.099062880214586178e-03,-3.195374679458210659e-02,3.292280307332871164e-02,1.506214974789941291e-02,-3.513402613161614252e-04,1.026593290181771201e-01,6.236561328171469354e-02,4.599240961976965719e-02,-1.037167748253279287e-01,1.118684134947314363e-01,1.071771192129022943e-01,5.378742836853687287e-02,-9.153586791972297132e-02,1.065475803665387813e-02,-3.540218294290311402e-02,1.479113070618115955e-03,3.087279015396207291e-02,7.905432727078842009e-03,-3.574852139051410554e-02,1.871272395826008850e-01
-1.274016092887044205e-01,5.905105496027227008e-02,-1.394819985364590398e-01,2.855509783829113940e-02,-6.584524312154141357e-02,6.184084928803681297e-02,1.606969937790599101e-02,1.758424084882640598e-02,-7.622764873385956541e-02,-4.940061013095298215e-02,7.476404330331111459e-02,4.099752266043880239e-02,2.431355239724453943e-01,3.518260755725093059e-02,2.167071231762892833e-02,-1.363256234422176583e-01,-8.948695491471955754e-02,-2.685179539464415191e-02,-6.695648796805685199e-02,1.555048515351853122e-01,-5.319848873929642480e-02,1.472487825223934010e-01,1.244169239499701290e-01,4.035767137920234261e-03,8.632184095083050845e-02,2.830813908342156866e-03,3.957603084467385679e-02,1.462282178287565432e-02,3.162732862364216191e-02,3.772096765714625516e-02,1.023733565824478942e-01,4.410937053766347121e-02,1.961428845552223160e-02,-3.484430677621959405e-02,-7.077250279156901969e-02,-4.921930679576735912e-02,1.730847068780511089e-02,-1.344795985062348653e-01,-5.775596479944359457e-02,1.837876902543572888e-01,5.190745219444863057e-02,-1.531117824857480825e-01,1.220657580835786127e-01,-1.560853508322168279e-02,-1.045633656663817095e-03,-1.104453186779303514e-02,8.164882143192052355e-02,-1.222648971755487812e-01,1.054340428300969967e-01,-1.260063477202273963e-01,2.664600854642443228e-02,1.179621953001562112e-01,-3.409505533063108412e-02,9.328282768562613791e-02,8.519916533265756153e-02,-1.072455682996549114e-01,1.153978847059544260e-01,1.280243200184692509e-01,2.194800596050444641e-02,-3.282196194451311028e-02,-3.279908095757267522e-02,-1.175677751060708737e-02,1.338717091092878064e-01,1.083431642868892958e-01,-3.087692980358084163e-03,-1.469808521567154691e-01,-1.812777055605694077e-01,-1.707470278729559740e-02,-1.038331998385130100e-02,1.367874329637486230e-01,-4.913409178236953501e-02,4.450711057648831098e-02,9.431583576660844404e-02,9.603604927874756156e-03,-1.105100429342185421e-02,-9.851041046431696646e-02,-9.030032491757951363e-02,3.054243018878856006e-02,2.558243814103067573e-02,-3.866224927491663382e-02,-1.115735050307623683e-02,1.105403086678682784e-01,-7.336751264350545310e-02,-2.540117024710151356e-02,1.425270381637640527e-01,-5.135025538711539966e-02,-2.621201731050371714e-02,2.845019527760897504e-02,3.037324240567701450e-02,1.307365657403187775e-01,-7.882844038213054211e-03,-3.224823314332180696e-02,-5.383058530955587423e-02,3.967599400076816246e-02,-5.594681145585023857e-02,-2.872230421611706580e-02,-2.195982581165862035e-01,-1.365535279008266434e-01,-8.945388596107569854e-03,5.409532181085211812e-03,6.306924900857192005e-03,-1.338013196611041455e-01,-8.975635777300028373e-02,8.153448514567375460e-02,-1.243294788415948565e-01,7.987632813203829341e-02,-3.135998400869381003e-02,-1.544973824053189893e-01,-7.254644905637534780e-02,-6.298354520334975559e-02,-7.541577416416993251e-02,-1.103934631272722872e-01,-6.582068850937214388e-02,-5.146139680360489743e-02,-1.016347226688447819e-01,8.475846729865552098e-02,-4.983962675978453188e-02,-7.559933030154684930e-02,-1.776169261660555040e-02,-6.628003352227848644e-02,-2.268547560693297965e-02,6.590099765189021130e-02,2.295371503059706261e-02,1.566738897502293060e-01,3.034598682637974776e-02,-6.857817920526915190e-02,6.058855455697172154e-02,1.370423078507178871e-01
9.387966769559633051e-02,-7.832497277090881560e-02,-1.116964717099028746e-02,8.349800673898032100e-02,-1.234851252190045101e-01,8.297791788883658592e-02,-1.328981458700408680e-01,-5.486463903089183747e-02,-6.888247560121237012e-02,9.290227796545103001e-02,1.168972104959447277e-02,1.088829527931928359e-01,-2.217021457203355653e-02,2.374141316575804905e-01,2.041248705646903083e-01,-9.464888440333750486e-02,1.353917414351204227e-03,-1.076122769550210273e-01,-1.285521850092646301e-01,1.123797312619786298e-01,-1.897292099692458045e-01,1.941018909532506165e-01,-5.206457629906478118e-02,3.703650548437650847e-02,2.795297566249292931e-01,-3.310003026734899267e-02,6.896931390846816612e-02,-3.122911750558123815e-03,7.446939083636244794e-02,3.485128253176363738e-02,2.076738064425781571e-01,-1.404079210256566623e-01,-1.248105985544553237e-01,-2.714963102737214320e-02,7.770481121504682620e-02,2.817848413795590035e-01,8.228892377929357405e-02,-8.257499974916791829e-02,-7.498482412383347673e-02,5.711630354081426858e-02,2.397393815561168762e-01,1.006351820127775326e-01,-3.445495075094163334e-02,-1.480809708965288331e-02,1.064105632294962966e-01,-1.800124752275983689e-02,3.477064466027868783e-01,-1.264831862787161448e-02,-1.423747187590468366e-01,-9.179014520651190834e-02,4.077554369605983220e-02,-4.353023690714752023e-03,-8.838004377221391275e-03,2.917850172914120827e-02,3.407782433267899647e-01,-3.245442997939214647e-01,7.857006052977021787e-03,1.033985865352963079e-01,-5.279828080423123321e-03,-6.865781418213748322e-02,-6.843672269255535179e-02,3.140136776968905918e-01,-3.434177225627990659e-02,1.823010198916306251e-02,-1.112166578505059955e-01,-6.968518385925205616e-02,8.756870627615113978e-02,7.971405496009018044e-02,-1.530958411309612521e-01,5.620358579182592289e-03,-1.667545091965535672e-02,-9.760100809357988294e-02,1.777737575112096624e-01,1.089379675008319420e-02,4.121448321655727526e-02,8.732525542898336712e-02,-1.904542286720031091e-02,5.271048400431647268e-02,-2.673346021804549610e-01,2.841556626398644703e-02,8.296620494468398554e-02,-2.051923141622364610e-01,9.154374388104653815e-02,7.489557490453349620e-02,3.783852547444632036e-02,1.683637177857988110e-01,-6.772831238687296307e-02,1.744856780700767829e-01,2.489869624598341560e-02,1.801008875267295917e-01,-4.261994958821597318e-02,-8.947895467996910823e-02,7.286690334403944647e-02,-1.882309973443160476e-03,-3.347536296969301495e-03,-8.798889532316601231e-03,-1.538823145696382663e-02,-1.064334546050909325e-01,3.435271214098203213e-02,1.814957901516603689e-01,-2.546116424940888523e-01,-1.014442109817840082e-01,-5.423765801355687199e-03,-3.585921810871467441e-02,-8.297952724378597489e-02,1.654807700793384934e-02,-9.150975749299569695e-02,-2.121042498576481972e-01,1.731419509992216874e-02,-2.832854443065696559e-02,6.537569815691200367e-03,2.610577417953102459e-03,4.893026308448871452e-03,-1.567830167643761638e-02,-4.159069564357652932e-02,6.449446071907055655e-02,1.517303708974936938e-01,-2.101992675711033751e-02,3.240231111816975762e-01,1.408969171485393961e-02,8.498865603812839897e-02,-4.152685733757845860e-02,-3.597536688430079121e-01,-2.961797756180180596e-01,-6.355086940240724236e-02,-3.746351465814896226e-02,9.980690036190072167e-02,-3.629973651882401064e-02
3.110506003401381989e-02,-4.007412835299311617e-03,-3.190793413713802901e-02,2.216659579655836515e-03,1.300292606827634645e-01,-2.606476243774559151e-02,7.608109566631875154e-02,-7.768141844161846610e-02,-3.811253579996222440e-02,-1.134474903206777931e-03,2.691108167257102446e-01,7.010343804934852929e-02,1.792139862041082846e-02,-3.250534782692230274e-03,-1.007415537501053435e-03,-6.136377797287034114e-02,5.268646420592322521e-02,-8.709037089482847549e-03,-4.600680551766298670e-02,6.538311399136927105e-02,-4.710161926548811495e-02,2.167075140515775655e-01,1.649788751465895431e-01,-8.945739169706269645e-02,1.377601944219128960e-01,3.420078986349086442e-02,-3.313931587192489592e-02,3.351281295655272191e-02,1.206256860508001100e-01,-9.151205869588900643e-02,5.371701941307452377e-02,-6.981854311587215589e-02,-8.464894365036368384e-02,-2.374390429878405762e-01,-1.095450938853704120e-01,5.163581293098267605e-02,-4.944418389741614406e-02,-1.020702640271175660e-01,-1.161335310748012467e-01,3.219735110783512599e-01,-2.572121207423571643e-01,-9.363099662888163532e-02,7.210254139229059500e-02,1.075868275920370959e-01,1.479429700167922690e-01,-9.205483065518781788e-03,6.580036756637500095e-02,-1.182769327021433864e-01,1.860552300932163117e-01,-1.861042863702543071e-01,-1.101814699783313645e-01,6.803439001644372153e-02,-1.235183644837047762e-01,2.747081870097906053e-01,2.609531004310936542e-01,-2.193885057406402272e-01,-1.444933619970248662e-01,-8.397494615359178682e-02,-1.029958163032562019e-01,-1.930101679741441922e-01,-8.916017105510956609e-02,-2.239590323962325352e-02,2.003114003447548780e-02,2.568619944503513011e-03,-3.616186951337115735e-02,6.428858272757752290e-02,1.989690569558465183e-01,2.485463115098699438e-01,-1.559263165185489630e-01,5.415482958124803996e-05,2.957668007804075197e-02,-6.685910685003900594e-03,-4.894551770821221198e-02,3.781979893541199955e-02,3.639591388859603205e-02,9.838388653277983786e-02,-3.312962840629514460e-02,1.030679595362145179e-01,6.080949334458018302e-02,2.825902583868212040e-02,-2.294159332724323569e-02,7.479764536492206073e-02,-1.990492878173678870e-01,-2.376328600090556187e-02,-1.976421906157773897e-02,1.369620027225919023e-01,-3.109278276471932542e-02,1.354768709863300169e-01,7.128536393172982266e-02,2.017682475191084623e-01,8.862793794775969750e-03,4.335047300403934573e-02,-1.247590050161725278e-01,4.875789365800141384e-02,-4.586854645477563691e-02,-1.844341152646160331e-02,-5.588113025842513654e-02,-1.280545146814058843e-01,-2.546832088351165535e-03,-3.097643011728418508e-02,9.490440382299928854e-03,-2.022965149720826195e-01,1.508080690628253728e-02,3.181288135829030139e-01,5.003736521396286163e-02,7.339867083678693060e-02,-1.236801677110256903e-01,-1.243431718134278552e-01,4.784280745150821385e-02,-4.197104501393032067e-02,7.058838200512483618e-02,1.457116899141392974e-01,1.465676250705691963e-01,9.313500798423701710e-02,-2.360629181123162848e-02,-7.670420652325644906e-02,2.601639883266435027e-03,-2.808774994254851706e-02,-9.249106092344602792e-02,-3.890009884683616470e-02,8.518431245756498404e-03,-4.097706630196993466e-02,-3.385382469889094276e-02,2.823076083739060188e-02,2.048028950749208876e-02,1.789301682012791814e-02,8.380798671971698838e-03,1.134190520122606433e-01
-9.624273173376785007e-02,3.956553985698016418e-02,-3.707064415403291818e-02,-1.530567451925722855e-01,-2.696412091333249064e-02,4.433972881900091062e-02,1.263782317114905684e-01,4.006136078321164556e-02,3.995205953034546703e-02,-5.261485965188204134e-02,2.496164279346016202e-01,3.932449001219536812e-03,-3.451077551921265529e-01,-1.276846418612443690e-01,-3.522145320412586184e-02,7.221667244547115561e-02,5.893289385077505466e-02,7.808552515219747969e-02,4.027883474295706479e-01,1.144347645465827595e-01,-9.318549559582633979e-02,-6.922812705548953005e-02,-2.011637544587097093e-02,-4.563998335656658384e-02,-8.401390007925485515e-02,-4.703562567166441610e-02,2.084101228704935901e-02,1.600068119051639703e-01,1.405194941179221113e-01,2.888149706962121407e-02,1.631354900502769156e-01,-1.330728669010137755e-01,-6.537564119341814084e-02,-3.955570108754079550e-01,8.331103154332440697e-02,-6.433836416891748622e-03,-3.019082134670105777e-01,-2.859189529328030541e-02,-9.654396034250274650e-02,1.006877652732445921e-01,-3.801212322867589810e-01,-2.950547848749580093e-01,-1.167919676478241520e-01,-2.960394323527190327e-02,-3.153206160387182072e-02,-1.039733680209515843e-01,-1.813718045348897134e-01,-1.297943054862433221e-01,1.741760003592018602e-01,-8.640560512896806877e-02,-4.588065616633565935e-02,-7.002544441301652989e-02,3.359814818081914289e-01,1.232841234441830504e-02,1.938385270329332985e-02,1.028086717112809689e-01,9.031020238391238020e-03,5.643972585561218142e-02,-4.303223858258486412e-01,-8.623135046980048846e-02,1.584195911655428002e-01,-2.934416920122946970e-01,-1.763069921307534871e-02,1.014884345681816707e-01,4.395061061301538952e-02,2.207777054588276611e-01,1.967457579055210265e-02,2.985950523073869212e-01,-1.337535261055793068e-01,9.049131369811226622e-02,1.418154566946439044e-01,-4.696911031143698179e-02,-1.082484590554385340e-01,-1.068402229725065322e-01,8.397741005514201829e-02,-1.740980428340546671e-01,-1.709919083892340042e-01,2.724422731485960647e-02,9.886332254305417455e-02,2.139433988008999227e-02,-1.742885189208692384e-02,3.013507448622131379e-01,-2.397571777906298551e-01,-8.405383334115978933e-02,-7.135491396480818371e-02,-2.740022182272303652e-01,-1.369821612170506464e-01,6.724072001407116472e-02,-5.046353642386747218e-02,8.990113475074755500e-02,2.232405434282422330e-01,1.596044177841894271e-02,-1.281864328775642603e-01,3.638982646757575601e-02,5.447908603839366620e-02,-5.723084857876464988e-03,-1.889924114168215485e-01,1.547315826165119590e-01,-6.549107895086371534e-03,-1.588116592305963970e-01,-2.790536656827072859e-01,-4.450339889127815640e-01,-1.518324688242861549e-02,3.186676027941157674e-01,1.753122418591919821e-02,8.583225542200879910e-02,-1.565559747316023487e-01,4.044685480169592923e-02,8.733642091637183746e-02,-7.394670296815869515e-02,9.824109657154495023e-02,4.478855896455519875e-02,1.646099895162183024e-01,-1.554409039901030395e-02,-6.081464484699369150e-02,6.737517520351214706e-02,-1.070777236328942505e-01,-1.430973923450619932e-02,-4.334534787280299173e-01,-1.163856876396521939e-01,9.573576867512929855e-03,5.895342726456843235e-02,1.539766719272842310e-01,4.367058329903000247e-01,3.569011717467871492e-01,-4.397924601010935047e-02,-2.017217557675916179e-02,2.689350980474029540e-01
3.204654741097406889e-02,-1.397226748166109124e-02,9.943334186218470705e-02,-9.722133003503795334e-02,-3.852840885438713753e-02,-1.226437800292580656e-02,7.494912422003766062e-02,-2.533953600857270869e-03,-9.349121996314049832e-02,3.844715709259288045e-02,1.417315023408217411e-01,3.398641016099696044e-02,5.173952124437598832e-02,-1.558225278007791814e-01,-8.609218457693428028e-02,2.246222356297240125e-02,-2.306940084350533448e-03,3.909262982595847896e-02,-5.830832237171800631e-02,1.287218691847389837e-02,-1.139398171590619568e-01,-1.034365805063027222e-01,3.557774357042986502e-02,6.299523633318315774e-02,-2.976121547046360009e-03,3.414569463807426604e-03,-1.182677809087615828e-01,8.831890757102167644e-02,4.083423995550770902e-02,1.471968479193342116e-01,2.848866342601684767e-02,-1.690258128802156756e-01,9.175797925179543513e-02,-1.575059949745895582e-01,-3.129596043025670293e-02,-1.151549198426948806e-02,-1.277795657012420309e-02,3.238487536891952040e-02,-7.682689546690681104e-02,-3.724498085941162218e-02,-7.344082273523254434e-02,-4.475992431924064735e-02,1.292538848697212875e-02,-1.645586491524126116e-01,-1.331782794024650475e-02,-8.595764592834763407e-02,-1.059802802741825478e-01,4.927229521352274183e-02,3.489752758547687381e-03,-1.421921426503700014e-01,-4.414358258139839536e-02,2.941201496167280757e-02,-7.060233689114538136e-02,1.273111061732017657e-01,1.284891566750563929e-01,-6.107642882393893302e-02,-3.366767863247126236e-02,-5.884303103279081570e-02,-1.723295604032274442e-01,-6.072161836641564586e-03,7.210207290485376452e-02,1.499941386148350986e-01,-6.601473505886418236e-02,1.094572719937739746e-01,1.003881853720235556e-01,-2.989746205354126330e-04,4.571624899047711105e-02,1.474088244218817179e-01,1.241263212347968464e-01,6.025895460034198792e-02,-4.704315255715935985e-03,-5.340425735627420817e-02,-8.403641601446727380e-03,7.779209062553954501e-02,1.787756400010126132e-02,-5.875239861998966806e-02,6.975600416542620912e-03,-9.744607349041367605e-03,7.029983379533343013e-02,-1.412384594871198273e-01,1.571779882981397258e-02,1.291281679714215147e-01,4.910015798590947056e-03,-4.805987979789110801e-04,-1.356987865626932133e-01,-2.289227659786773061e-02,6.931336916308750151e-02,-6.257735961117479387e-03,-1.691395520088604942e-01,-8.863842573561096783e-02,4.469227466684758815e-02,2.823722101994384157e-02,4.033608088998779512e-02,-4.062021129103158580e-03,-1.131253915466702564e-01,-6.199121016929013545e-02,3.899769968779193824e-02,5.563234041863570137e-03,4.827570082588461542e-02,-3.471574697805471926e-02,-1.268614455726196216e-02,-7.098021444313087902e-02,1.648581526956282572e-01,1.094661790340542978e-01,-9.938361115918514094e-03,3.507393372426790418e-02,-2.575408596238229486e-02,-1.527453616438171902e-01,4.898221734521070181e-02,1.103478692225876995e-01,-9.227306229595695630e-02,1.092735451949415348e-01,-1.918813302677184474e-02,2.199859432085560229e-02,1.552512483613767078e-02,-5.415643538708177912e-02,2.916690679633050787e-02,-9.119740658009710399e-02,-6.292815382609298624e-02,-4.466229112553510988e-02,4.966864877559985791e-02,-2.578626615022646881e-02,-7.191839141573413974e-02,3.939746430722508574e-02,-3.017490240207659075e-02,5.524531027611697537e-02,-2.550633528723860941e-02,7.261713290340406080e-02
-3.267522779883549888e-02,4.512284358494937642e-02,-1.346463113827474703e-02,2.263756905918730758e-02,-1.946405137523695983e-01,1.538476133371886601e-01,2.006011219238568732e-01,-3.986729723351294108e-02,5.367848339069841712e-02,5.417313054266195693e-02,3.030560158317299746e-01,-1.851975240689555380e-01,7.289198757908886550e-02,-3.476726978551077790e-02,-1.230372397483741470e-01,-2.138719571928896033e-03,7.376171450775022287e-02,2.075650591848208007e-02,-3.874680948898871075e-02,-5.803427671634775464e-02,-3.209293124046429940e-02,1.372201572999757480e-01,9.285248027285612771e-02,-4.671047364742680723e-03,-5.004046248632921801e-01,3.434312103196449084e-02,-8.547910137034743505e-02,-3.019612521483481041e-02,5.291496143263144103e-02,-3.897653938675410545e-02,-2.607184443968358911e-01,1.937521015467289220e-01,1.546710843216900395e-02,1.950163311731436255e-01,-3.265353073133218237e-02,-1.187425188032967122e-01,9.861869045888224661e-02,2.633640849868149753e-02,5.517826465867421704e-02,-3.825075293216568806e-01,-5.012064494539995030e-01,1.582664970847616481e-01,4.828768014159296601e-02,2.007327188711804586e-02,-5.643410454387300795e-02,-2.478925017263514455e-02,6.965046146964506968e-02,-3.752813587955232399e-02,3.348946309121491605e-01,-3.706526514383418625e-01,9.795210716669455059e-03,-1.510307983066933382e-02,-8.831949229265936840e-02,-1.287829936017483301e-01,1.808298746152159353e-02,3.905701274137442502e-01,-1.026808067050731348e-02,7.654403513256334557e-02,1.799068458418630334e-01,4.041663129665773457e-02,1.361839035499644024e-01,-2.064311978750386217e-02,-5.239609290131911484e-02,-1.763887543286061371e-02,3.030107981801793623e-02,-6.584395100978601700e-02,1.673989367209517964e-01,4.377249279619790379e-01,-2.998228529082179183e-01,3.324688519890087179e-02,6.050006204379352465e-02,2.741174843736839395e-01,-2.282318850540135391e-01,-1.568734325000087082e-01,-4.512070362472036383e-02,8.983247908890555633e-02,-8.428713653816308216e-02,-7.497566345288006473e-02,1.097811308725887280e-01,-1.432008866432837035e-01,-7.972968393538260035e-02,4.106881671517775279e-01,-7.800921672767707760e-02,-5.310375184463327070e-02,1.530165154728045131e-02,-4.547106904445160497e-02,3.553323430104658037e-02,1.792618505597745882e-01,-3.381834062172994204e-01,1.886653673678753695e-01,1.499926431904971547e-01,4.086086785861854642e-02,5.284633116747388532e-02,1.736052411344919666e-02,4.584203854464765499e-02,2.011997053602404203e-02,6.648935394740790317e-02,5.677115014211604749e-02,-1.204117727503132979e-01,-2.200864086969343547e-01,2.037634989404368269e-01,-9.589698419392782280e-02,-1.237913851152457577e-02,7.394084983897857011e-02,5.819464093371847641e-02,-5.299848566856914245e-02,1.066399752354699193e-01,-2.501637423838245014e-02,-6.675933345154608234e-02,-4.920986075413678884e-02,-3.321190725297931134e-01,4.398506228430583420e-02,-7.340537043716481580e-02,-1.314831544845576905e-01,-2.019158621475097837e-01,3.128512063423347783e-02,-5.680157010076478108e-02,6.653915999775747436e-02,-2.162272555621683190e-02,-7.769657408419633482e-02,8.085495121112142719e-03,1.127323725143140748e-01,-1.971400708097164473e-02,2.036633937801372307e-01,5.546326404481024402e-02,2.143530904817229563e-02,-8.152038487285434565e-02,1.387778272746488517e-01
-5.816007487592161213e-02,-4.793838344151706704e-02,-2.949473546945308167e-02,-1.802689538998212225e-04,2.370243928347738702e-03,6.049742888798020218e-02,4.026059735854738142e-02,-3.051255221249949551e-02,-4.093973498219868196e-02,-2.362993418210398641e-02,4.333288033358924374e-02,3.901320101169093030e-02,1.674959018437232328e-01,1.859706485278263266e-01,-2.141466944842601305e-01,-2.638208917421783553e-02,-8.310908847859325987e-02,2.745484677991920711e-02,1.061368162793435294e-01,-5.389549505089651082e-02,3.495347929741869641e-02,-1.506462403268545892e-02,-3.301142073953057619e-03,-8.530255032298796058e-03,3.271363577152747691e-03,-2.455630548720996731e-02,-3.401027590723843669e-02,-1.361016580058441450e-01,6.996874038767587900e-02,9.384459528255027772e-02,-3.671319118193691611e-02,7.355496420711228611e-02,-1.522934149998961088e-02,-6.417256493056248262e-03,-1.669250931459035497e-02,-1.931043180462212530e-02,8.119021367521817023e-02,7.758991682450960825e-02,-1.387979678143141937e-02,-4.461382531512502608e-02,-1.262789471053158696e-01,5.718785966470513876e-02,-7.875190427056655285e-02,-8.348097459385890595e-02,7.127851496166197690e-03,1.943291084857919349e-01,1.298552304380679034e-02,-4.553113064945602841e-03,1.963501619594237579e-01,-1.192756046776611428e-01,-1.741593444115041578e-01,-1.238999688527072096e-01,1.213941824676936093e-01,8.708737666242642728e-02,1.638242388155357887e-01,3.834911947921380994e-06,-6.017811152605530289e-02,-1.694770341771709501e-02,9.522584270047419752e-02,-6.643293016764680037e-02,7.167501111636422062e-02,2.170457750266553687e-02,-1.822529485443188935e-02,-2.246191254165935680e-02,-5.369876396213642961e-02,-2.142841191239706899e-01,4.660636783014143053e-02,1.070443294221532365e-01,2.654604107306006780e-02,3.305724962505199316e-02,-4.115861018176798086e-02,3.968763864824628729e-02,1.566042228693698829e-02,-5.691120302643765810e-02,7.534045510702358506e-02,1.080267782951046529e-01,7.452498530446652336e-02,1.211668130069429861e-01,1.132939907493732135e-01,1.714254602412358663e-02,1.118720188114642328e-01,8.730293476129549757e-02,-6.189265749144733098e-02,-1.703235648671606595e-01,-9.958256454255137724e-02,-7.208199295690827235e-02,-2.018448263580510660e-02,1.106857289537352546e-01,-9.120761629317342134e-02,-5.157184029642192941e-02,-2.376263673393949963e-02,-1.478191944835652132e-02,-3.578665248908467766e-02,-5.589695521059073746e-02,-7.117531027497286944e-02,-3.080686852548792862e-02,-7.185105234982695765e-02,5.116962539058175080e-02,1.672415292374830956e-02,-2.009082210094653431e-01,5.764151543678781159e-02,-2.442141932263033610e-01,1.062439052372561726e-01,1.663722151902756186e-01,9.398404893922505943e-02,-8.512806552735033283e-02,4.161636093319648344e-02,-8.410985466336068361e-02,4.216990937338382928e-02,-1.121030904184636134e-01,-1.208024311666820311e-01,-2.940001853539154705e-02,1.139321092133641425e-02,5.204552647775132629e-02,-1.197691202394409599e-01,4.953091887976161095e-02,3.944365214689592863e-02,-1.608944001513090347e-02,-5.128333851216568262e-02,-8.856562538170911769e-02,4.430603785372400766e-02,-3.576018368676289749e-02,-1.565284368378189184e-01,-2.108506422242129377e-02,6.485329703847075855e-02,-1.054357603182793784e-01,8.828291758067723094e-02,1.248453887410833768e-01
1.002675510076122406e-02,-7.384435848982007222e-02,-1.052340567543599836e-01,-2.529456529826718675e-02,-1.299541224888179913e-01,2.332060888461385817e-01,5.699874166000345327e-02,-4.234278970871654946e-03,-3.931323673344805716e-03,5.234073159379064311e-02,1.600460096651614983e-01,-1.777521116617365726e-01,3.918284028924994833e-01,2.463398616302035771e-01,3.027208918790612602e-01,-1.120723521397737343e-01,3.944628206623520400e-02,3.702823936459935517e-02,-1.081705839059397545e-01,2.997915701914473652e-01,2.614351029819108815e-02,1.166505127678043735e-01,2.075424118915971949e-01,-1.179354158720683464e-02,-3.709911167845317270e-01,6.096171811887825254e-03,-7.148200992945326349e-02,-6.689149300898777906e-02,1.316805531895008374e-01,-3.072712157780570913e-02,-4.287440743826189671e-01,4.422611480365949976e-01,1.326436252024596474e-01,4.117147675903690685e-01,-1.314867848669162842e-01,-3.136402496341371415e-02,2.964932220296548904e-01,-3.828703191398925149e-02,-1.599595565727728597e-01,-2.619862207423719336e-01,-4.383852131301536614e-01,1.875997837310587960e-02,1.445739625829156050e-01,3.423296687406433836e-02,-5.003619537037932302e-02,-4.853838228122685228e-02,2.837450621744104229e-01,-1.660796320853033525e-01,4.131421119256550312e-01,-3.312440645744180734e-01,2.689593143794745400e-02,1.786452128290699215e-01,-7.620597832821152107e-01,9.533705914924960056e-02,3.318219510032351938e-01,1.606770395417498332e-01,1.905241091428292455e-01,4.071399776103325902e-02,4.201780925925663324e-01,2.151387683922849348e-01,7.034934646406787451e-02,5.134588094332375174e-01,4.415270780103078274e-02,1.421475139480561298e-02,-9.873636324177112455e-02,-9.781150069502309030e-02,3.410039845373321610e-01,3.751106181955043972e-01,-5.266039375444698800e-01,1.834190514005924755e-02,-1.143436250788899405e-01,5.826735703309129238e-02,-2.801312642659252727e-01,-7.294974072682260113e-02,5.819807884656869740e-02,-1.436612715635486939e-02,-2.110065354746834265e-01,-1.637613778822465116e-02,1.677634021459714075e-01,-1.601465309400828541e-01,2.476467625684746210e-01,1.700599238388448564e-01,-1.186441539855256772e-01,1.172928940203849801e-01,-4.637805391804195737e-02,2.735271902513435882e-01,1.271495611039465401e-01,3.986850000786393289e-01,-2.562809271298069902e-01,2.090238499029113128e-01,1.951942461885577684e-01,4.411385274269899459e-02,6.061115623028568572e-02,-9.025042961283161191e-02,-9.917234319577843127e-02,1.208733803156584047e-01,2.616138504874181980e-01,-7.707525998857288341e-02,3.509305547444668827e-02,-1.884000187785689340e-01,4.401563253826268340e-02,-1.072389569994698227e-01,-1.102565353070032728e-01,1.987376567222944868e-01,-8.000443041354506069e-03,-5.223005420726591075e-02,1.768489019679188312e-01,-2.050476082348321183e-01,-7.532479078852107046e-02,1.239448861948456160e-01,-2.201176096655428072e-01,-2.469605513502645330e-02,-3.794687514345335133e-02,5.523033365722427451e-02,-3.817200351781834811e-01,1.314769369237370374e-02,-2.455454637276105745e-01,-6.956255431772613573e-02,3.272280717905045599e-01,-9.422376858220642137e-02,-1.226736811214931000e-01,6.653927072591193925e-02,-2.537900210445165894e-01,-3.852169696861592607e-01,-4.743131191532677648e-02,-9.068617618984714523e-02,-7.350847476563771021e-02,1.270403468647139378e-01
-1.377869186635135579e-01,-4.038873023661084666e-02,-6.930034115662490890e-02,2.440509761296540125e-02,-3.166322057034289678e-02,1.699700605520785279e-01,9.621719556273966578e-02,-6.646051660493723645e-02,-2.713665029053832431e-02,-2.622536732585240699e-02,3.581402041302169659e-01,-1.139326939231512376e-01,4.611165886841544354e-02,-1.211287702240713554e-01,-4.001503225020671545e-02,7.374206083734541339e-02,-2.750779628757030887e-02,8.269387486968068912e-02,6.200401148419552866e-02,2.413178094625386891e-02,-6.083784596262432898e-02,3.632479881757245260e-02,-2.137377437608693406e-02,-9.885906243446364317e-02,1.546251051632244744e-01,-2.175870836006869175e-02,1.907253853905854085e-02,-8.433353880262273172e-02,1.523199926435604701e-01,-2.152540839635924685e-02,-3.463459805872543679e-02,-1.753819794259148801e-01,7.248461078606678598e-02,3.367681237178923176e-02,-3.686465321743860601e-02,1.781738241259871180e-02,-8.357175912948373864e-02,-7.888876494338602566e-03,5.016427622448471624e-03,1.724554620354830092e-01,-9.038042828886530544e-02,-1.091966883836834185e-01,1.676705085883944957e-02,-2.423055446938866125e-02,-8.186120181860447043e-02,-2.852076209803747556e-02,2.921018514728283555e-01,1.577410181423631597e-01,1.096848600746778979e-01,2.126908866117648358e-02,-4.061702885963251741e-02,-4.481675419954360418e-03,-1.718798282750295947e-01,1.803368221889324607e-02,1.685178763587066864e-02,-6.612752767492123540e-02,1.204684776195327593e-02,-4.413365409887393814e-02,-6.472256844044521618e-02,-8.992301678401970477e-02,-9.337882157973230457e-02,2.886209153739452762e-02,-2.528767951188470864e-02,-8.923185564777316725e-02,-2.417790526074798524e-02,-8.750037753559532228e-02,8.997085118002277893e-02,1.020057187708484081e-01,-3.346477677582162386e-02,8.179950318417177069e-02,4.151837107899388618e-02,-1.477646144833194564e-01,-4.694862909653163552e-02,-6.388424293831004852e-02,-1.152996322463812479e-02,-4.059966079781306136e-02,1.206523801336078540e-02,-7.351476314464734652e-02,1.475853719502130679e-02,-9.463821739885068529e-02,5.229325242167499888e-02,1.257279620091713845e-01,-8.886900740217506742e-04,-2.187211590959077176e-02,-2.889517105868714270e-02,5.153064790666669198e-02,5.069753482928961857e-02,1.336984444062905564e-01,8.529131292530596486e-02,1.899663357378060247e-01,-1.249610425895677640e-01,3.265626019282986264e-02,-4.399878021619827578e-02,2.903616039486515282e-02,8.335502848474653226e-02,-7.000239317519217630e-02,-1.680275016694324497e-01,2.644131850689127733e-02,-7.564098936767842118e-02,-1.253029843315912606e-01,1.358678671610666008e-02,-1.838900466031632430e-01,-9.791961974739296637e-02,1.313883332988631247e-01,-5.903467653199209048e-02,4.391125004265112458e-02,-1.100433030275377588e-01,-8.655987456882131836e-02,-1.567946713737317782e-02,6.114212932471536910e-02,3.348996494748863323e-02,-8.173194618436217807e-02,2.104648725913093876e-01,-2.455777975424993168e-02,-1.633479686094031214e-01,6.673670701509379355e-02,-8.527123787623980267e-02,1.600265849651550942e-01,8.838755386826270544e-02,-1.513463968712341727e-02,1.181998340997535701e-01,6.378853484107936678e-02,-8.339574603742259951e-02,6.004353902226534923e-02,-7.545100149479970833e-03,-5.744086414705549225e-03,9.528139486570420813e-03,3.950372690548584892e-02
-1.106021179597969223e-01,5.833506324971203527e-02,-1.030264783432013609e-01,-1.950811816734611681e-01,-6.989590485064969827e-02,-1.425877554157891913e-01,-4.867129101363822929e-01,1.492546499846955366e-01,1.051391094247691900e-02,-6.354661588233978531e-02,4.141872428023440911e-01,-4.448671813571369316e-01,3.599001141869684894e-01,-4.660343223801353268e-02,-3.611251589262998718e-01,3.790617355326319493e-01,-4.371934532989828551e-03,-1.126602954127681189e-01,-4.374026112842286929e-01,5.205346673928610418e-02,3.775063395184239945e-01,2.992699741845142314e-01,-2.077893600780352790e-01,-1.216552297190135468e-01,1.032570821228331326e+00,1.854440595997524158e-02,7.429658755637784384e-02,-1.343578150386031678e-01,-7.455630083153981513e-02,9.927736278354108712e-02,5.860430875239194259e-01,-1.105352625355735668e-01,-3.100503635887569831e-01,1.742063192816193928e-01,-4.395565063096562586e-01,2.498679511835920630e-01,5.211884634908636044e-02,-8.766559265126439016e-01,-8.187703483719449560e-02,8.452273985149849622e-01,1.337635163953857127e-02,-7.160066381025611548e-01,3.397018575032453858e-02,-3.920714177431740971e-02,-2.597097729597589236e-02,1.380069091426796013e-01,2.545304740565529911e-01,1.633684063446158574e-01,-1.086607602072365703e-01,8.787223199754854441e-01,6.656713379392245056e-01,1.908276129229941401e-02,-1.184422231900536193e+00,6.973206530418909477e-01,8.652389070789159309e-01,-3.443982478704072925e-01,2.612860933244134376e-01,-2.239725975722488965e-02,-4.049924126143825132e-01,9.474797465075358860e-02,-4.569838125831523490e-01,2.173921653277498811e-01,6.484949442350007587e-02,-1.075688633616293105e-01,-6.850913592278495487e-03,-4.048183646235177791e-01,9.522425142830167125e-03,-4.474044544462280060e-01,2.702112486699942417e-01,1.315545448901506024e-03,-5.583196366325315213e-02,1.059571259384952668e+00,3.251324474643481066e-01,-4.594058439312851544e-02,-7.646003202293104317e-02,-1.691788560599578189e-02,-8.254695983768796375e-02,6.876795529112549044e-02,2.476968292950419148e-01,-2.445909109074256849e-01,5.409612063970931257e-03,-3.397063737098968139e-02,1.851067785367650764e-01,1.279538043910198597e-01,-4.471057679104675081e-02,1.098160291060218174e+00,-2.150706704402698677e-01,-1.940251646712282674e-01,-1.027133456560107849e-01,5.788937476181655883e-01,-9.751981393592534797e-02,1.241228444511554008e-01,-3.597397554781234241e-01,3.812880349213807613e-02,2.151748570007061198e-02,-9.466443430055369868e-02,-3.810636459672437915e-01,-1.594961844255949335e-01,-1.852835310415049293e-03,1.332239295963109638e-01,-1.224715266447747308e-01,5.523086016423429667e-01,-1.707408159813312010e-01,1.453523552954969766e-01,6.080111728444471952e-02,-5.284987698920060734e-02,5.641148550610933232e-02,-5.258876875760787328e-01,-4.016751469848343220e-03,2.087999404122952707e-01,5.699784626236715779e-01,4.076022072220467779e-02,-1.245924549429345135e-01,7.914388502677808732e-03,-1.068430697082215358e-01,-1.534987613541634044e-01,-3.332469756361531310e-01,-1.366253441710276739e-01,2.435936898957653252e-01,5.416684305757956015e-03,2.056378374413143917e-02,-9.743792145989936537e-02,3.605092114684486579e-03,-3.489426015609896625e-01,-7.177085839771510933e-01,8.905597602362450016e-02,-1.518446179376684371e-02,-8.055543770968125183e-02
-1.313298301616620811e-01,2.212237789726061513e-02,-4.295253022401097215e-03,6.517002840378377515e-02,-1.273621884516483969e-02,-1.757993967605831209e-01,-2.357033999456637496e-01,2.310053098015379669e-01,-4.748591121708172630e-02,1.918954069021827288e-02,1.168785906285981557e+00,-4.877551839744322937e-01,-2.364622322396623399e-01,-2.371259131789082708e-01,-6.183694470029883483e-01,7.871930245985563346e-01,1.441410530088145237e-01,9.335224338360166574e-02,-1.933030609036797964e-01,6.265615489767041579e-02,3.346380486876054938e-01,3.432846006611832146e-01,-1.362469266431355353e-01,4.431536046408263152e-02,4.785462052924641108e-01,6.490786938810372275e-02,6.876466410497143744e-02,1.862206872634086241e-01,5.557954275133893951e-01,-3.552693872632173289e-02,5.656619601182053536e-01,-2.803624193100721085e-01,-4.971079207827592827e-01,3.226107943854024385e-02,-2.695643087938856541e-01,7.163165455377948874e-03,-6.698202422633340314e-01,-1.246238495636977195e+00,-1.111308407724839464e-01,6.940269528703412183e-01,-5.256652192349754449e-01,-1.375870248574094123e+00,-1.776131764776464894e-01,-1.975102824073905403e-02,-2.455145464637611269e-02,-1.677264143436805466e-01,-4.840532809262327874e-01,1.274188349397356590e-01,1.822853737337612468e-01,1.070936562019472849e+00,4.764641558729636461e-01,9.221258159106771046e-02,-1.097279811145125850e+00,1.096863922747325804e+00,5.684074965570656834e-01,1.490374689371167516e-01,-9.169557477716586830e-03,1.255059228777563509e-03,-1.203013105193795784e+00,3.612187572947614944e-01,-4.267915515513350799e-01,-5.441746652856613853e-01,6.325530230611881369e-03,6.168913107148931568e-02,-2.888026439569948631e-02,-2.802419296340722399e-01,-8.531960945305804012e-02,4.327758633839463576e-01,7.466585698450400876e-02,-6.972454636521079052e-02,-6.202536446056636926e-02,1.454004958169578865e+00,-7.269348814530747493e-02,-1.274278877943026134e-01,-4.609776776314903485e-02,9.535623652188003618e-02,6.967238355682893458e-03,4.857470465868539422e-02,4.529655308468036878e-01,-2.110888797360257474e-01,-9.954224984393802989e-02,4.732241623830781840e-01,-1.705791575431561957e-01,1.335558418225424836e-02,6.822982768781092611e-02,1.948419344830603361e-01,-1.510705272272179767e-01,1.692346449079210752e-02,-3.768553095691590249e-02,5.727956033943952807e-01,3.552839579299274519e-01,1.740454808199133965e-02,-8.055398227186015836e-01,8.201107135812674143e-02,-6.860055060992470942e-03,-4.917637537737881009e-02,-1.647548367485442145e-01,4.752718042213651545e-02,4.287596804097856817e-02,-9.765053283142723084e-02,-3.647986602157625713e-01,8.090152901538142372e-01,-3.631240535048944618e-01,4.110230279209128867e-01,-1.278663708450131775e-01,1.352702344889789576e-01,7.512280331146174717e-02,-3.340846176735522977e-01,7.513904217528724616e-02,-5.402461183595990563e-02,3.700231734084793445e-01,-5.320602564085883703e-03,-1.123781392127424228e-01,9.898099476440484767e-02,-5.965267869829875558e-01,-2.423816691747270741e-02,-2.766771009322646635e-01,-5.034019739250639169e-02,-2.499435452675853320e-01,2.518104047489210795e-01,4.607358814570277489e-02,1.251679192472081592e-01,5.271940675912439866e-01,2.771866343539905117e-02,-3.426190412031279720e-01,-9.748123742445809203e-02,-1.709981036539749144e-01,3.469114629574138187e-01
4.276514696909981816e-02,5.225944064435118080e-02,4.090146291863842355e-03,1.474019093577355888e-01,-8.090212596490333960e-03,-1.109913337871063638e-01,-2.853332404540509515e-01,1.449255383111062480e-02,6.011766521426534227e-02,-2.216290652599197872e-03,7.062895525925700912e-01,-4.782523817141230704e-02,-9.769044063529190580e-02,-3.212337374612579677e-02,-4.651260223975932084e-01,3.452827001692950759e-01,-3.345680943373244981e-02,-1.735753402132229548e-02,-2.032748589647191337e-02,4.902967443130579195e-02,2.685474779046063271e-02,1.699988902426997905e-01,-5.508533416818631179e-02,-8.695676487951858880e-02,2.110307023803375814e-01,-2.480217931869413070e-02,5.908425043161714268e-02,1.509308849595439317e-02,4.823585354498415301e-01,-1.511576059196335364e-01,3.353267089757306502e-02,-8.591271390058015378e-02,-1.792156150327777475e-01,-1.934911132111929444e-01,8.110898754242207298e-02,1.010913188543303559e-01,-2.320129384864079158e-01,-3.409218912578222960e-01,-2.077754233447320908e-02,4.416238643171049305e-01,-6.346802554757335901e-01,-5.114165817136561154e-01,6.371782436014503462e-03,5.814412076702865986e-03,2.548468719151580561e-02,1.207078457162753110e-02,-3.043817430805608182e-01,2.101348999874906587e-01,3.441101726640102831e-01,9.656919904781030572e-02,1.910280774748413790e-01,-5.108496230204102873e-02,-1.481100349265145333e-01,5.136187970679298997e-01,1.362082150098949673e-01,-2.910753987790412958e-02,-1.180237749836229311e-01,4.209430406035809952e-02,-5.879563593320470405e-01,1.172620733452126723e-01,5.950625399017287626e-02,-1.484336245602271842e-01,9.784660577331238951e-03,-4.279675081520935981e-02,1.686397065895655495e-02,-1.730964547583315194e-01,-1.233375594604170650e-01,5.293263333855094954e-01,-1.947029413289950717e-01,1.425596058854158299e-01,2.327086857789722324e-02,7.175421386497796705e-01,3.600504317547258137e-02,1.015853984122844084e-01,5.827698786126544322e-02,4.781712894822739979e-02,-8.801738630899633153e-02,-2.569273498268878630e-02,4.423725576888275501e-01,-2.735857350651081377e-01,-1.550656741615030754e-01,3.756139636667534809e-01,-7.801448946165918941e-02,-4.420434032397381474e-02,1.134195923251780785e-01,-1.634646789324891991e-01,-1.729567207685376584e-01,3.965077049928954489e-01,1.844427275624151846e-02,6.692476531944024920e-02,1.207464243238159513e-01,4.679630082801668201e-02,-3.283501303010684103e-01,-4.840883533464013927e-02,1.080431185148277322e-03,-3.373237930631051845e-02,-1.990384234629051508e-01,5.386170496889644554e-02,-4.733682648465620257e-02,-2.603056453643551316e-01,-1.041558663887868497e-01,1.314277633358558461e-01,-1.343919774838115144e-01,3.288941252614542288e-01,7.977395558209880722e-02,1.309154395994708286e-01,-7.768813807122175452e-02,-2.792863272881753942e-02,-7.433551193191516304e-02,-1.392328884061038163e-01,-4.330115437340682771e-02,-1.058202168080358968e-01,-5.648474467499109419e-02,-1.228188692020325788e-02,-5.775686359801016634e-01,-2.457828188907777017e-02,-4.841597676520066895e-01,2.062019958690060675e-02,-5.315902854621107343e-02,-4.267010288157559866e-02,5.427801912258383571e-02,1.996870110926301234e-01,3.692819706463819074e-01,3.486632737404787852e-01,1.271886152248561108e-01,7.544503123205340001e-02,-1.266380212478760703e-01,2.382966760172736953e-01
5.224347852170660271e-03,5.956375243320190249e-02,1.162439467483752931e-02,-1.263562537537616937e-01,-5.936246402309711123e-02,-2.072799782431477278e-01,1.046004867800594540e-01,-6.811953648309315712e-02,-5.880948297521370466e-02,7.894261878664060594e-02,7.826832091239547262e-01,-2.295915128202125344e-01,-7.135028776548885121e-02,-2.440298921591913806e-01,-4.630479517367656062e-01,2.895233968389412937e-01,-1.107624888268457335e-02,7.022422883192083222e-03,-2.317610425505666275e-02,-4.215628736013498322e-03,-1.752035864214376154e-02,5.164073783920240107e-02,1.518023788641576222e-01,4.498365688827531128e-02,-9.222759401029154147e-02,-4.319485205256656801e-03,-5.685947911555863134e-03,8.949292652590408112e-03,6.036556818190783602e-01,-6.415396588425056890e-02,-3.297075404917124142e-02,-1.678651455528178821e-02,8.143023088553175137e-02,-2.025010041872065125e-01,1.820708730449249746e-01,5.991180948763682318e-02,-3.922170281605255049e-01,-1.418122335735358952e-01,-2.937324954564287586e-04,3.446454821487329734e-01,-6.680910964890983683e-01,-4.175985506764706146e-01,-1.499922905733508741e-02,9.414228981771644023e-02,7.672026508489378227e-02,-2.181531036058083350e-01,-4.164543843249896571e-01,-4.315128151420016128e-02,4.726146812628932437e-01,-1.110742101991358116e-01,-5.976360296123697791e-02,-2.388494002968808566e-02,1.968469473697481154e-01,5.149436009764173372e-01,1.698178594830457647e-02,2.983331615039649942e-01,-1.925545105210978714e-01,-3.488268840591432496e-02,-6.638460719989321968e-01,1.112772961974456132e-01,-5.081019741753830393e-02,-1.294026792148364469e-01,1.853916306115485288e-02,7.289455876520874178e-02,-3.424319000994308082e-02,-1.952671831502079125e-01,3.596009713382006950e-02,5.616901926957492686e-01,5.305561512246406708e-02,2.130759593351184145e-01,-2.499767333799252089e-02,5.142201984061582909e-01,-8.238096789909811479e-02,-1.571344627964189888e-02,1.881290317789432176e-01,-3.422571161313484739e-02,-9.220855316649526068e-02,-2.949889243160540991e-03,3.969405466165513152e-01,-3.728765438734815696e-01,-1.587444809203488183e-01,6.085012441206829603e-01,-2.891760679090437658e-01,-4.768086792113540584e-02,-1.020959984074540083e-01,-2.861086022812679985e-01,-1.412946425756858582e-01,2.472101339239609341e-01,-1.550445552292763762e-01,1.957560977445698402e-01,-2.580547489818461535e-02,5.053881714714850149e-02,-3.744855363020671013e-01,-3.447221343629783274e-02,-1.024013527910671989e-01,-2.572703825413101275e-01,-2.487362980817606761e-01,2.365317718969271732e-01,3.719229591325439593e-02,-4.417097599237586603e-01,-2.875055090154889775e-02,-1.155723702456300794e-01,-1.507957000814440784e-01,3.346879906510707992e-01,-6.596560089685467310e-02,3.310764120489531614e-02,-5.053992859617063155e-02,1.555790864237132920e-01,-3.550472676389717502e-03,-2.884123162154055703e-02,-1.106973729029215314e-01,-4.746702021950087447e-02,5.028754173146780110e-02,-1.076350574274111405e-01,-6.108138560254303684e-01,1.767956948296541334e-02,-3.223981074174602224e-01,1.419907319767270137e-01,-1.432121352753188970e-01,-2.933531367310263788e-02,-3.537297024382620586e-02,1.343567604722082504e-02,3.433394852522488327e-01,4.315264261726794448e-01,1.587423292809921893e-01,4.918035849773411822e-02,-9.989440146631235404e-03,4.054869694938244562e-01
-8.665881106675726864e-02,1.366414746671367787e-02,1.812392030506188856e-01,-3.652518882906116704e-02,2.312785058840778965e-02,7.370460256939459498e-02,9.733851440302042357e-02,6.369771946573776766e-02,-7.818628112481952608e-02,-9.788499816471363246e-02,9.860848255608607726e-02,-1.613002876732976543e-01,3.007036425942922198e-01,3.316460568076737836e-01,-5.728270145901065424e-01,7.012499012357907568e-02,1.501393811051562888e-01,-7.646214112107273253e-02,-2.482061062999626477e-01,-4.715788219531206332e-02,1.189056428960017509e-01,4.189556662569749595e-02,3.465823196271725082e-02,-1.629994828434524479e-01,-3.821040099739111406e-01,1.520786391911108926e-01,8.087239853476901885e-02,-9.481599371721403935e-02,4.754646179077154540e-03,5.632197819472495315e-02,-2.739998593126543591e-01,-2.047913117385840101e-02,2.238612737842853029e-02,5.314075282035212178e-01,-1.175248898981964135e-01,-2.401492770648566144e-01,4.283748760330589600e-01,5.120601685279901893e-02,-3.136469328895875180e-02,-3.355196207492899263e-01,-5.979299322529499916e-01,1.888161641652767453e-01,8.425891546983040048e-02,-8.404763704553773473e-02,1.968713120398976960e-02,7.621904196401614595e-02,1.637416459667284385e-01,1.018956522173720680e-01,1.138030703117252213e-01,1.091004388213273890e-01,-8.246436525838606035e-02,-1.485891970400201635e-02,-2.562156936345456049e-01,-2.433907620008649852e-01,2.199995041133133988e-01,3.272603667834363406e-01,2.971634241115022126e-02,8.216762041753929158e-02,1.245359946769096782e-01,1.978976856025222442e-01,1.544015561925052016e-01,2.429884700655253194e-01,7.923528757127262789e-02,6.748079860744735092e-02,6.519532829344379388e-02,-5.124445918203809902e-02,-1.688163992365913635e-01,2.583158695944322569e-01,-2.551126085308408897e-01,2.731150253854655596e-01,-1.008000546593954133e-01,3.191950548993936487e-01,-1.874963979388690472e-01,-1.447172682593690640e-01,3.163751257963867691e-02,-7.411218457558263646e-03,-1.581329159915408900e-01,1.143544607747212088e-01,-8.584610749461799029e-02,-2.334541051353146712e-01,6.060912288951488675e-02,1.766421764907355196e-01,4.098533548639381185e-02,-2.989580253762791698e-02,-2.276897249154735854e-03,-1.265999317276946257e-01,-1.066874041135280199e-01,2.068723148883442609e-01,-1.446459305987103372e-01,4.625770892956930502e-02,-1.912164115504810524e-01,-1.573838961681455623e-02,1.255273137127829730e-01,-1.307462940814556503e-02,-1.715668176995923180e-02,-3.646753020400939072e-02,9.054776880493291269e-02,-2.144003584755757932e-02,8.088234421433070087e-02,-3.895458018462728544e-01,2.604013314536887669e-01,-5.065098502165912842e-02,6.646441189089784089e-03,-1.312428298337136867e-01,-8.850821028984182104e-02,-4.598224620156041165e-02,1.366034077980680661e-01,-2.117789322808855956e-01,5.241657911026516986e-02,-8.913184801051961259e-02,-6.412724070547458355e-02,-3.090963899480034249e-02,8.344260773997705383e-03,-9.174782797877033269e-02,-5.080352258846414226e-02,-1.510184237631574319e-02,3.663373595717923166e-04,4.796424358734351773e-02,1.326341259390089178e-01,-1.023665293036303131e-01,1.187035104435586914e-02,-4.200039721681267380e-02,-2.619343067327121743e-01,-2.574132503330190391e-01,6.558693791276534735e-02,2.783948387180314177e-02,1.293927999831191548e-02,-2.827650013795511286e-01
