# Architecture: 354,32,32,8
# Learning Rate: 0.005
# Momentum: 0.9
# Layer weights below: layer1, layer2, layer3
1.281547109030112819e-01,3.193586355071351135e-02,6.718305316284320372e-02,-9.932828285356124498e-01,1.248531327242505817e+00,-7.910961294215461403e-02,-1.683124142320588379e-01,-1.540885682749410998e-02,-7.762005290789322082e-03,5.002183816998681531e-02,2.168293627915566013e+00,2.619755827960216221e-01,5.541314220417004055e-02,1.263002638907696762e-02,1.493113762008469181e-01,2.743299546978179501e-02,1.953778633075901272e+00,6.586626616394899436e-01,2.014584109732833056e-02,4.510543767980594310e-01,-1.990214291163052707e-01,-1.662213861035365392e-01,6.795373292579810764e-02,-5.894436899967390314e-02,1.673377123938127320e-01,-2.828715422109673749e+00,8.977748697641246009e-05,-1.972744395947192628e-02,-1.381060704826192698e+00,9.910654440664393161e-02,-2.118548943985371080e-02,2.768087718412415646e-02
-7.123285615926765180e-02,-1.464010145893240022e-01,-2.964605215336923658e-02,-7.785935670559994692e-01,4.885976556938591009e-01,8.754708546307794770e-02,-9.427726253034745055e-03,-2.544503896694192552e-02,-8.060815402600628177e-02,-1.024465819949604284e-01,7.918274023727582822e-01,3.240664452595713452e-01,-3.850097679479019819e-02,-3.141136049524990287e-02,-7.552795497924377766e-02,5.941736462390645457e-02,2.281979524415635452e-01,1.971094853397959562e-02,-6.719465825110777779e-02,1.571789823932470687e-01,-4.099948123287040086e-02,-2.007990815375799432e-01,-3.467860208349933136e-04,2.971049583682911638e-02,3.291344527404798086e-03,-1.489870573853911084e+00,-5.128112265189293389e-02,-3.123494164246931604e-02,-2.933129052475347276e-01,-3.979450021919600511e-02,-1.638729486461568130e-01,-1.305710040891350787e-01
1.323721319501473814e-02,-2.981419399302164333e-02,-1.225794951069859168e-01,-4.328270513267226671e-02,1.778575596822958016e-02,3.712652827175132522e-03,5.718575673993035041e-02,9.480824543097884916e-03,8.595986506082463341e-02,-9.227450864763805938e-02,1.045169564432424369e-01,-3.760433494868965082e-02,-6.534178179982426393e-02,-4.339535848452200778e-02,-1.979248790333020327e-02,4.310109909538547245e-03,-2.198058820955954562e-02,8.173256315342170009e-02,3.496248115742232876e-02,-1.135213277656599434e-01,1.116859188129949582e-01,1.453180235533634013e-01,8.865145532772084058e-02,-1.357162572083646553e-02,-8.054981984227636838e-02,2.178319846819021938e-02,-3.025068001431553341e-02,9.184384885687119082e-02,-1.046733718463585955e-01,7.000410744017110387e-02,2.275179211623748129e-02,5.311815974980366173e-02
-4.592740254219547101e-04,1.369912954179552667e-01,9.456913921528383934e-03,-1.362556667995651560e+00,6.245282939968760383e-01,-1.041964556263469677e-01,4.173742079871760602e-01,7.012804064370689594e-02,-8.774921183927109070e-02,1.585916720332656848e-01,5.929490023963685658e-02,-7.671298074567597935e-02,1.467238488476298730e-01,1.111573672963507425e-01,1.464836670747258762e-01,6.697449585807019323e-02,1.741298219275799752e-01,7.048385598739977109e-02,-2.087064674734321820e-02,-2.293661052639779929e-01,7.068500389698084696e-02,3.784285347261547028e-02,4.536284458321909047e-02,7.029011378474836480e-02,2.929490238417266010e-02,8.241793825692467212e-01,2.295031585867656279e-02,9.992148826742562606e-02,-8.840520368892532677e-01,-3.117189792815451208e-02,8.556982098667505199e-02,1.384466396914891262e-01
5.030523729745668693e-02,3.094103453333420239e-02,-5.780615646283782799e-02,-1.087798927546633071e-01,-1.989075701993558293e-02,2.305748607843945575e-03,4.428032788582182341e-03,5.065938821593223701e-02,4.316238568795939534e-02,-1.522591653040426991e-02,1.572890666399249793e-01,-7.478064014119754910e-02,-1.121144448822962991e-01,3.323003859968796242e-02,1.487848576431519479e-02,4.759559721585089609e-02,2.064054688147192174e-01,9.518864555841484443e-02,-6.859679046869644747e-02,2.798093244008811181e-02,-9.905482526965364576e-02,-3.776442114303372316e-02,-4.990027096774635358e-03,1.287552723448199821e-01,-5.604163025145285359e-02,-1.473790014714924934e-01,-7.344261322797548605e-03,-4.999632484946588129e-02,1.606286541781488941e-02,-8.276028700950854855e-02,-7.670387106124336440e-02,-3.283598740976825803e-02
-4.053139868221023595e-02,1.465615787851323737e-01,6.733586597687239717e-02,-1.303389988330880378e+00,4.423427154482774681e-01,5.929299130287501302e-02,-3.994560052297015940e-01,-1.178285807525169815e-01,8.658567071298753359e-02,2.466218198106825618e-02,1.367966154152043812e+00,2.698331486240952426e-01,6.390918860523277234e-02,-4.645527164164530570e-02,2.713090538887789199e-02,4.960210218906217078e-02,3.225153220180198566e-01,4.887731953312752786e-01,-3.208634285766453348e-02,-9.799467316895331681e-01,-2.744995354199492033e-02,-2.512086558115920187e-01,-4.414283373530512172e-02,-1.685347381856895643e-01,4.503557534585993227e-02,-1.818748586976075998e+00,-8.630469801463919177e-02,-7.386661063683199867e-04,-1.594777618545800968e-01,1.892118249842139610e-01,-8.818127359744791505e-02,1.922975660110954471e-02
-3.062523731042684008e-03,-8.774038051755581047e-02,3.938368641723437313e-02,-1.191195223549372517e-01,9.519827963886365318e-02,6.172647427594584596e-02,1.853411007716780912e-01,1.003494879640452753e-01,-2.765116340818030843e-02,-1.770153267013506448e-02,1.222833445437794542e-01,4.864819818475954460e-02,4.813347345620887230e-02,-1.214290287101084526e-01,-6.780137952230491823e-04,-5.547367797322360489e-02,5.273940801436124287e-02,2.359961519000856878e-02,6.838954754809524472e-02,1.815709309887835951e-02,5.899794975921854312e-02,-3.581710446376861617e-02,-7.094481292328928823e-02,-3.085720591008845812e-02,-1.299168988281905598e-03,-2.130018326331478348e-02,1.699109948894042266e-01,-3.194199959909499540e-03,-1.067409906837013117e-01,-2.935094235093628490e-02,-3.215914928823679353e-02,3.615721940409701712e-02
-1.171686955156513166e-01,7.734025343636066925e-03,1.079614826836421300e-02,-1.078271598411003840e+00,7.794939331457311216e-01,-2.136379989211426023e-02,7.266394630011450972e-02,-4.007837925944730123e-02,-3.772655854846330981e-02,4.278088169312873473e-02,1.582301984742490841e+00,1.363580854760586547e-01,1.141792088047769715e-01,-1.543850847133454718e-01,1.083726701601937376e-01,5.144236587151772289e-02,7.265506467814079050e-01,2.936673485734965783e-01,-1.028957768867056095e-02,-3.113490011696934956e-01,-2.462188303268550080e-02,-9.284313406508243327e-02,8.740441617807633012e-02,8.129450368570267926e-02,-5.891273990496798812e-02,-7.955682062879557703e-01,3.955094093480025774e-02,-4.401697823489086892e-02,-1.360718885875830786e+00,-8.716969450812950271e-02,1.032713225717631078e-01,5.257689428285832606e-02
-5.459864244426632096e-02,-1.042844210441665753e-01,-1.189269064756521554e-01,3.030982419665404978e-02,-8.594130531541441242e-02,-3.818493877132998759e-02,-1.818408162764215130e-02,-4.045705537091024567e-03,-1.453447845216622736e-01,1.448027658614042985e-02,1.950984058361370233e-01,5.839450765851153698e-03,-2.336221600274246760e-02,7.429603635690708308e-03,2.881755961301260549e-02,-2.083057637961352460e-01,1.983084835536159940e-01,4.720838623343701773e-02,-4.910514887212785035e-02,-7.329791626707460317e-02,3.698644541045062462e-02,-6.515372559726916903e-03,-1.526695378849260709e-01,1.551234219613362164e-01,-8.469130763693781885e-03,7.974082502733187069e-03,-5.186811631544034629e-02,1.153613702064073404e-01,-4.410533827615031877e-02,4.310885966077927095e-02,-7.666275844139923412e-02,9.105599715865021759e-02
5.020874776152284974e-02,1.007275124866237881e-01,-4.676551278749971341e-02,-7.379623504632278896e-01,4.858817912576835485e-01,-8.064930100106572353e-02,2.201987227359293864e-01,8.435453563367567575e-02,7.133470918250475051e-03,4.541501866655318909e-02,5.207231147092251655e-01,5.282397102867961158e-02,-9.793563034008213875e-02,1.255731422387090235e-01,3.238373764013962458e-02,-5.152810668074819800e-02,2.474605696168784286e-01,1.572461106767368832e-01,-1.001104323813104130e-01,-1.466769023052471588e-01,5.126962774142239387e-02,-3.427601177326449616e-02,-9.139740068022086592e-03,8.051320049902604969e-02,-8.506923770709473587e-02,-3.894461301337194259e-01,-2.868224909011277135e-02,6.289539477250497175e-03,-6.727534259260378180e-01,-4.206530057804303002e-02,3.268775743764455732e-02,-8.240254417601981449e-03
-5.576339152576825081e-02,-5.665974117316363579e-02,2.030043365531927768e-02,-9.122550753085747477e-01,-6.571737111413780696e-02,-2.462481163612624188e-02,3.386884628579012735e-01,1.683695769353152072e-01,-5.497555407635551505e-02,7.440684365577179826e-02,1.055496887466991440e+00,-3.201121887745705247e-02,5.787268552197218086e-02,-8.723142924357617234e-02,-1.776848138759979379e-01,4.445592211751695638e-02,3.060612489190505867e-02,2.406303066165873528e-01,-5.108290815756307002e-02,-2.105473561764248658e-01,7.976684488456278754e-02,-8.946244837005784545e-02,-5.081034145404286079e-02,-9.151231615272088782e-02,-3.418190855611314555e-02,-4.646163186106942455e-01,-2.751761416418258693e-02,1.038632751050979665e-02,-2.923897411163446924e-01,2.822983135615214981e-02,-1.941255765980815992e-02,-1.080160903099245950e-01
1.007901778461515047e-01,-4.739342344286769093e-02,-4.911193642088065858e-02,-9.085201467046437607e-01,3.758583342063765986e-01,-3.733607686591115804e-02,-6.451066849052529764e-03,4.554335757985340100e-02,5.246308973051074659e-02,1.080719024802158758e-03,4.250801363067158722e-01,8.884225985651546253e-02,-1.275752533882579427e-03,1.314345775291712003e-02,2.593524707228945375e-02,-3.045897414184005336e-02,-1.687744471686264403e-02,1.638478906713767003e-01,2.139131439191124459e-02,-3.006487506992261069e-02,6.227481781836546881e-02,-4.428553982442374332e-02,4.779423044463286877e-03,3.654373658586493323e-02,4.818425117821781289e-02,-5.630698682139132494e-01,-1.570873438416011542e-02,6.542623231309692422e-02,-6.374715857291423093e-01,1.442612338198042722e-02,-1.464628884522315433e-01,-7.703145893210321116e-02
1.740853795446951468e-03,-1.217986080127049231e-01,-7.395388873059259571e-02,-9.159342696295967867e-01,4.811202620473139513e-01,1.130078971916207223e-02,1.268527064793281423e-01,-1.752805595432475189e-02,-2.657817517180177669e-02,-1.204319584487602429e-01,3.601818619460015469e-01,-2.770885215008608501e-02,6.451743241823663932e-02,8.672094635816103569e-02,1.262250885044556015e-01,6.307519237988908067e-02,1.967714672000426754e-02,1.340948257309280689e-01,5.785622453889151251e-02,-9.298444975285125036e-02,-1.338889303173963485e-01,1.423067586863518280e-02,6.202855647662374600e-02,4.255181973997850496e-03,-1.390689809521431820e-02,-3.263431232278061200e-01,-1.085675689124030452e-01,5.980165995842744164e-02,-4.425777043192520299e-01,-3.200423543443235014e-02,1.770020117693135997e-01,5.157066714765026760e-02
2.725801809409700988e-02,1.250683400531880929e-02,1.142211157229816448e-01,-3.663245535146336662e-01,2.956524651945219295e-01,4.299329098120545367e-02,-1.342077136136041460e-01,8.828962851820464086e-03,-1.019080386861933619e-02,9.630195227512568928e-03,8.245168707132400909e-01,-1.488028496357265418e-01,-4.346274014857694906e-02,2.138974409361235618e-02,-6.505778336060047233e-03,-1.070894902610347865e-01,4.402052153761022019e-02,3.100141719419973740e-01,-7.290565844403153195e-02,-3.161576130749227387e-01,5.973324545902137378e-02,-2.390323815975016822e-02,6.056415240100046504e-02,6.017487008158853116e-03,-3.017053140646951473e-02,-4.453725521911389151e-01,-6.277782561103323507e-03,1.409321069076519169e-02,-1.124830276157551441e-02,-2.915996608282140148e-02,6.350064675507473277e-02,-7.218773209984957751e-02
-6.026009302983737631e-02,-5.395514436064100319e-03,-7.961906132886954757e-02,-7.995872712785008218e-01,8.359516301354321666e-01,1.892426011379931550e-02,5.361039360204055554e-02,1.512212803008919082e-01,-3.382032664976666880e-02,-1.621778022941526010e-01,4.249849963187612295e-02,3.151571425896934620e-02,-3.874561292345473501e-02,-7.273450150792247493e-02,-3.053956255384291871e-03,1.317985867959057047e-02,-5.408865289578918684e-02,4.407205461804269420e-01,-7.343190157924567307e-02,-1.412703005623645036e-01,-1.726806562771804332e-01,2.319541930993018058e-02,-1.501640512790093640e-01,-4.129108326294670533e-02,-2.065960637568605915e-02,-2.808792798701632010e-01,1.306709172060077639e-01,7.388284084603101431e-02,-6.573265468782166776e-01,-9.043809713768659331e-02,1.208420780408764467e-01,3.692223142728352087e-02
5.667430257352609052e-02,7.939916229318794150e-02,-6.812911922918321594e-02,-7.470443295090464231e-01,1.016060504340098175e-01,-2.006531701991336736e-01,3.609800339082631648e-01,4.079705333613846407e-02,-3.870253014218589995e-03,1.690578559687987495e-02,7.431287882079132823e-01,-3.526584272965034751e-05,8.234565656427769720e-02,9.900847691773187464e-02,2.194868406947997896e-01,-6.177757110730556535e-03,1.273652758461958634e-01,2.109048939748836282e-01,-7.890455914627793332e-02,-1.930036460267554044e-01,2.812480203194009029e-02,-2.544547577416649345e-02,8.345705221632865323e-02,-1.790511866121993756e-02,-2.708119186733859429e-02,-6.068284734865780905e-01,-1.225812264868556406e-01,-1.188069989229183221e-01,-6.574685410915501738e-01,8.296255164418167571e-02,1.148081100531328502e-01,1.034061398641638874e-01
-1.010454087030030895e-01,-1.465094394606112072e-01,-4.970701935052553727e-02,-4.007551917848748979e-01,8.082760091689795978e-03,7.799241035461126903e-02,1.107025356713372544e-01,1.301841942427117982e-01,-1.718853801361963640e-02,-6.784046826041635614e-02,5.386556303674432389e-01,-3.533903103652374922e-02,1.796943947123996049e-02,-6.583561855080213854e-02,9.390488107086050751e-02,1.060947396858920727e-01,1.488330672246597486e-01,2.646786696739641398e-01,-1.684542303375786698e-01,2.926400072006098835e-02,9.158452011606676990e-02,-2.065907041590200541e-02,-9.592028716700660984e-02,-4.429629338849123271e-02,-2.072105935914287170e-02,-4.881488046924145063e-01,-1.522941174529772283e-02,-8.908271658196275852e-03,-4.313611909457460980e-01,-8.575565377169624970e-02,-6.475564856692190771e-03,1.141437491951718119e-01
-3.793107219315948464e-02,-1.933467838839170866e-02,8.014823833408701859e-02,1.735563314090422748e+00,1.955757338361525377e-01,-4.947165552738116978e-02,-1.653016949969514024e-02,1.947453796569537359e-03,6.757223442091248033e-02,-1.721794972801384341e-02,-7.817537984968997433e-02,1.690029548588864172e-01,-1.767472911034526084e-01,8.656532072776259180e-04,2.149124000316089689e-01,-5.590362356886463546e-02,3.540538437984279141e-01,-6.101753265459686215e-01,1.657339097979078357e-02,1.322114301342524945e+00,-5.664438666238900966e-02,-1.420825599056375066e-01,2.773905380421863923e-02,3.965001311128731748e-02,-4.070769817536184706e-03,1.226350116468447826e+00,2.955634664598185898e-02,-1.429188491021611274e-01,-3.022902775628888872e+00,6.075231849107777526e-02,-1.565030031310866987e-01,-3.216179129122059138e-02
-6.434950150916569911e-02,-7.889018289633591141e-02,-1.089882432819776724e-02,-1.658552666363889649e+00,2.944710572512914681e-01,-5.178194438376760439e-02,4.317096475783012144e-01,5.536569857625298768e-02,-4.315725282324101714e-02,-3.268986971952690668e-02,1.773079104459171385e+00,1.985713418882672499e-01,-2.995392931073638174e-02,-2.267437037428511326e-01,1.524649287032379952e-01,3.193000261571845438e-02,5.467386663503800426e-01,2.507113023883578706e-01,2.716723618699818169e-02,4.419270601649610830e-01,-3.760844202031613653e-02,-2.068304430058129917e-01,-6.865859850723676772e-02,-1.588303373640741201e-02,-1.186567132465214530e-01,-1.406547059423032042e+00,-7.276693681765898647e-02,1.575182773183088358e-02,-1.112868563708128367e+00,-5.277076040621709457e-02,-9.653840752137554659e-02,-1.245383517778044929e-01
2.558337867684666676e-03,-1.059010664812068576e-02,-1.320467965225363971e-01,-4.192771830170436864e+00,4.866461217946221884e-01,6.195491191312425122e-02,2.205831616008867790e+00,2.189344340235845759e-02,7.924914910089420408e-03,3.464440119197818163e-02,3.413266723813079828e+00,1.710695153804640545e-01,4.813211929168966646e-02,-2.537597058662049640e-02,2.196945013639038380e-01,-3.343103201778749312e-02,-3.580609216409480489e-01,-5.346353260751379732e-01,1.607604009351871685e-02,-1.632931422785633524e+00,-9.334906245026761487e-03,-3.887567576685832527e-01,-5.092624217620539406e-02,-2.243817578648893505e-03,3.151045052252213208e-02,9.640100333541585798e-01,-3.267511556197090494e-02,2.725283279184016402e-02,-8.636068037205403281e-01,-6.434103336772811765e-02,5.799163004940159905e-01,1.058448399140125701e-01
-7.205969533690153271e-03,1.063301550476040414e-01,7.754769451177481732e-02,-1.084870005987899066e+00,1.273681794953648583e-01,-2.378852633495936661e-02,3.694726948734135541e-01,-6.232017789419106758e-03,-4.603149176035326723e-02,1.168480932858318860e-01,8.785853753449888170e-01,-1.667926100885616936e-01,2.315817945189055024e-02,4.102468970924890573e-02,5.975578748241556354e-02,3.206154447879752678e-02,-4.088057937863333324e-02,2.310455533528271710e-01,-2.789873644974543224e-02,-4.200450402216351353e-01,-7.113878512176233238e-02,-1.227077660469083620e-01,3.418595222345646029e-02,8.205608989811071299e-03,-3.277998384212752608e-02,-2.676336389429452289e-01,-9.830933941862643466e-04,8.134049415237752656e-02,-3.371550809815155314e-01,5.804761528640869223e-03,7.760618745231849525e-02,-1.407955445931508565e-01
-1.508368254374255479e-01,-5.659401134042981590e-02,1.046353027305707561e-02,-3.725059341200481100e+00,2.000534525998142854e+00,6.775145949590272165e-02,-1.083893372180272596e+00,2.839847516527200730e-02,-4.228130937567343289e-02,8.348891181825268681e-02,1.648711623414925942e+00,5.737366733470509184e-01,-5.412416137501254582e-02,-2.043568157482247849e-01,2.194683455135607864e-01,-1.283971568887606052e-01,-2.026840698579964961e+00,3.180524719087070462e+00,1.709559633188964881e-02,-2.310610069380801601e+00,-1.138195803389468741e-01,-4.301477970170380070e-04,-3.273160586084454537e-02,8.084011108735242312e-02,-2.436762593788535311e-02,-2.316769851380691581e+00,1.034213284453598843e-02,7.936419913724865327e-02,1.004698893937541415e+00,-2.191864307262661182e-01,2.653974561449706226e-01,8.357306083662149887e-02
1.575082276242847218e-02,1.561460217564086816e-01,6.755319323068141590e-02,-8.027808068285721133e-01,1.028134933922684846e+00,1.258364202434801224e-02,-3.497204454429900244e-01,5.158690494395096887e-02,-4.926316602419594792e-02,-2.018426130055404541e-02,-1.036817321553052118e-01,1.086403933036560882e-01,-6.213656147395266865e-02,-3.250530423513071226e-02,7.600598847427027238e-02,-4.260948563574411263e-02,-7.156852412702549016e-01,6.689940803174957429e-01,1.204217015950198588e-02,-3.656594187582706823e-01,-1.197719789789978562e-01,-1.132555574707549140e-01,-6.752974682235629578e-02,9.074023813909477820e-02,6.059387665913280180e-02,-7.462667262689119951e-01,-4.043567582692406126e-02,-6.374345616766133316e-02,-4.596422135274287890e-01,-1.064868838880211888e-01,1.819091971294131416e-01,-1.700842526904556284e-01
3.507749794848592090e-02,-9.665047627860744173e-02,-1.719980949583194488e-02,1.017912657620941408e+00,1.899722778938928602e+00,-9.324823229787337908e-02,-2.251630568770941920e+00,-9.154412847245638890e-03,-4.999329264677119383e-02,5.251140838413315137e-02,8.946236648751928477e-01,2.938260476157681378e-01,-1.411427619084132667e-01,3.311272204340082181e-02,1.642968707661963956e-01,-1.253252432124204729e-01,-1.042080662689259141e+00,2.030521198833600494e+00,-4.755953091165028915e-03,1.091475072563071747e-01,5.258634417928871596e-02,7.501087120005152549e-03,1.877133744916632818e-02,-1.277472311281807049e-01,-3.603115741853505499e-02,-4.906953124738110184e+00,4.431252210677858600e-02,-8.405677823840915913e-03,-9.126532410130719919e-01,-1.873618088634854406e-01,-3.162458554137120847e-02,5.198972104763058310e-04
1.371566390211163555e-01,-1.326853643163776811e-02,-3.793986348018023314e-02,-9.326304163709968620e-01,1.655146010911904275e-01,1.284919659714832754e-02,3.652645790148237870e-01,-1.358314517354514694e-01,-4.138616079098614287e-03,-1.911711422102382527e-02,9.661243217899566638e-01,3.094097384601076153e-02,1.117031387381954982e-01,4.154565399134499404e-02,1.206223584055313158e-01,-1.016840825446650720e-01,1.449787838692034037e-01,4.443658563494119473e-01,3.997888555053511622e-02,2.114324554896700459e-01,-1.035626237439144365e-01,-3.613219351685250519e-02,-5.565879309140122494e-02,-4.135011555524733054e-03,-6.542062912932226915e-02,-4.003556214489347176e-01,-6.449000736605624284e-02,-6.856722956262122082e-02,-1.020838228250121160e+00,-1.104132011068782726e-01,3.952261824109820632e-02,-6.237078251835153492e-02
9.708713179537889482e-02,3.521720819301154409e-02,-1.945725392891533775e-02,5.934931040773918198e+00,-4.384883795465007950e+00,3.973811277443195511e-02,-1.106479804374571607e+00,-7.285441306209445959e-03,-1.419109262162861207e-01,-2.343116185442435662e-02,3.904422894377272080e+00,4.828712942056503921e-01,6.757595194382966242e-02,-5.226311407537571202e-02,1.810567759632789875e-01,1.489273532757032503e-01,5.651046103286964772e+00,-1.385468208758151354e+00,-6.606811455591327098e-02,6.759577005812166028e+00,-2.836858318160429340e-02,-1.292947537887496834e+00,-7.419770875920471409e-02,-5.989213850360964458e-02,-6.719782765418089165e-02,-6.289379826129691153e+00,7.908267686005485131e-03,1.549908054782579703e-01,1.796176907198218098e+00,1.144553446600040172e-02,-1.321529993300211592e+00,6.935988788354699452e-02
-6.152206365427384874e-03,1.399888243909073668e-02,-1.867801606447071217e-02,2.028759812099667492e+00,-3.638521575116883344e+00,-2.410994011899367240e-02,1.418364039124753617e+00,1.287411554045466214e-02,-4.594123551320848653e-03,1.432884027665386195e-02,1.136669856995286843e+01,7.090332355067578973e-01,1.629324405685238231e-02,-3.932970022971920415e-03,4.324663666743753798e-01,-3.810480871233946215e-02,4.482916784474525684e+00,-2.494202628936000199e+00,-1.937790803339592693e-01,1.252877022987865407e+00,-3.071222982891419831e-02,-1.764454571842610342e+00,-8.337685658276114409e-02,-3.610109451401925101e-02,-1.451896645992886981e-01,-6.656999941234259310e+00,-5.452333929945456237e-02,-1.958181367422524161e-02,3.850093624439728579e+00,1.346875929860925358e-01,-7.463141306981112555e-01,1.231614044332996968e-02
1.356745512387379227e-02,-6.478238132468316923e-02,-1.757564359575281704e-02,-1.704102627013044158e+00,-2.166024990775786918e+00,6.304099659852918647e-02,1.469278055829720708e+00,-5.015616133323855252e-02,-3.218615030270827182e-02,-5.191394808110327830e-02,6.834048446999141824e+00,6.398025373590450482e-02,-2.897212053486446573e-02,-5.348454296509866368e-02,8.134994299746174662e-02,-1.426198776147835356e-01,2.273363129001847671e+00,6.019477743249458390e-01,4.328162774105428177e-03,-1.849874966937200105e+00,-6.141471674253751872e-02,-6.975594999075941383e-01,6.975985524752285893e-02,-3.597360314189256003e-02,2.392672241079251208e-02,-2.694303195265569162e+00,-5.115368236381951511e-02,2.892982799503067415e-02,8.016230016936579661e-01,-3.211610996154300873e-02,1.879462310578501050e-01,1.533603648357760862e-01
-6.577286528330816839e-02,-1.005647251015568677e-01,1.874463255271146267e-01,-4.020450895489198651e+00,-1.367941237005685373e+00,-5.260987966635007756e-02,1.640234578654003350e+00,1.156861342006395427e-02,-7.662117420718875249e-02,1.241651215382914147e-01,5.806945010652177608e+00,1.219530571051195833e-01,6.031726173789662970e-02,1.123701419412998365e-01,-2.559241593603569370e-02,-1.145335751275588926e-01,1.524534326246556493e+00,1.559039933984670778e+00,-9.915446816159595445e-02,-3.881891518861742885e+00,-6.209219596729971188e-03,-3.082900209898900568e-01,2.540130607299401558e-02,-5.094811547678977995e-03,-9.881942165857574012e-02,-2.052587165619184084e+00,9.984346655953650618e-02,1.038287274997506428e-02,6.001611398434734124e-01,2.262018284750821340e-01,5.114286729185449909e-01,-1.410213587546056517e-02
2.598157302885478748e-02,9.521067302257323062e-02,9.357186201865708153e-02,-1.577748205444971630e+00,1.574126195579453658e+00,-1.141100935928533872e-01,-3.133400880012790601e+00,-5.577100564946405048e-02,-6.951759689256568897e-02,1.194256837287050177e-01,-2.633767655834521881e-01,6.983248185855058798e-01,1.946895029118287518e-02,1.057439584614740941e-01,-8.207573123991213082e-02,2.002564265001419430e-01,-2.269558624314306439e+00,3.094952009956485561e+00,1.777482624999883118e-02,-7.832698299025597777e-01,4.056433639041736455e-02,-2.797012471279718415e-01,-6.906632805042121903e-02,1.230492502992377134e-02,9.814824899672820735e-02,-2.386851975371219403e+00,2.545905775683801608e-02,8.802773358574839807e-03,3.491589358998388182e-01,-6.452941664837430480e-02,9.568503655868008939e-02,-9.869577151340280796e-02
-3.161341802634941994e-02,6.936925975076178863e-02,-1.143524229266430206e-03,-1.045669454493667327e+00,6.509655851819160510e-01,-1.129810119489458448e-02,9.000484988307295708e-01,1.210690392124613435e-01,4.872549373482189250e-02,5.189933740123821998e-02,4.480274262184368084e+00,2.021482877189106214e-02,3.000666957741101627e-03,1.239877770759836434e-01,3.169612625628031449e-02,-3.630471083300489121e-02,-1.476061950482387974e+00,8.416931163901997248e-01,-1.074472563084307233e-02,-4.122822228952364831e+00,3.422846674567523589e-02,-4.459471070863056386e-01,-1.889551623158703189e-02,7.663610708222752532e-02,-7.660135446581278762e-02,-1.344343286614104294e+00,-4.248324891007491944e-02,3.331441889366899139e-02,-3.537154769147477507e-01,2.384690868387659077e-02,-1.094909310132156643e-01,1.322183855323074211e-02
-6.176542405964059040e-02,2.094983403136824879e-02,1.319317045502586307e-02,-5.044025473212171429e-01,-4.587410286988274910e-01,3.241609576466975180e-03,-8.361034323727495332e-02,-2.573350159315349744e-02,4.274540038259589531e-02,1.113125338805871223e-01,4.822773021064330479e+00,-1.210182277572936643e-01,1.069091324291796680e-02,2.761558451985205928e-02,1.500335678564164166e-01,-1.407257875021900584e-01,-2.167033661093113461e-01,4.349668085804670459e-01,-7.633033788435009126e-02,2.238533544698742439e+00,1.377158330429179012e-02,-3.855240149187300069e-01,-5.929606325102927677e-02,-6.724577917817052553e-02,1.271738682965291821e-02,-1.410177811227224964e+00,1.226679974060223936e-02,2.092483627823753072e-03,-3.103592365888109827e-01,1.071114909731404712e-02,9.143067836772200696e-02,-8.155483043528989617e-02
1.209504135625909665e-01,-5.605234411697068014e-02,-8.913986822319037995e-02,2.279007884790837046e+00,-1.512202812972240462e+00,-3.973661379689145956e-02,-4.542210897233391331e-01,1.180545575237136255e-02,-2.362997307912488923e-02,-4.523648705910019580e-02,4.678465329300360298e-01,4.477359578537973839e-01,6.503408495752312224e-02,6.566511539598555991e-02,1.944886228123876293e-01,-1.330181417616336237e-01,-3.783025010002352695e-01,7.513539444419727875e-01,4.729309219416757276e-02,1.745886819649995703e+00,1.113364551291725069e-01,-3.413200454373480075e-01,3.766566433929700863e-02,-5.419137070345046020e-02,8.979700977491286012e-03,-1.257882005283792459e+00,-6.499110535883183271e-02,-7.486600403306480078e-02,1.049997741514088423e+00,1.704263614658326764e-01,-8.884318758386133830e-02,9.291214606829530098e-03
-1.218635277131567829e-01,1.121651844114157914e-01,-2.999145784290395064e-02,-5.705957248422064865e+00,-1.409893309053557919e+00,-1.048991142324817299e-01,3.437101857544463623e+00,-2.593399342445821404e-02,-2.376671997649573709e-02,4.013282393182619236e-03,2.559177392892238778e+00,1.337840836656420729e+00,1.831521229011048857e-02,2.979015344701160459e-02,5.084714593839427810e-01,-1.220054160769892121e-01,9.206933651197505286e-01,-2.796278219316346014e+00,1.524597145784761104e-02,1.441836315739841723e+00,4.350039510412964661e-02,-9.563286958299408447e-01,-6.423751314305571614e-02,2.118255566049671162e-02,-4.202759609678999309e-02,4.614747690352217768e-01,3.377231283794143030e-02,-8.498908406494630474e-02,-1.564910512390116082e-01,1.541858411815424101e-01,1.639431152482778986e-01,-6.696162383705910048e-02
4.873467120156687454e-02,7.415474120515254050e-03,-7.337733197104537308e-02,2.798670829245329950e-01,-2.003932636159618585e+00,-5.517200257103455074e-02,6.766753049982512369e-01,-8.806109732952165439e-03,4.382615757507956483e-02,8.518333481923046069e-03,4.725281022203098757e+00,2.684634501274087426e-01,-9.216775958729811480e-02,4.236535143237332192e-03,1.569067179741976403e-01,-6.339666848632104224e-02,1.265053838847073786e+00,-3.416034093420924900e-01,2.028311223020147838e-02,-9.563270230703403429e-01,9.462127751914943541e-02,-5.636115955843984393e-01,-5.728559681536173238e-03,9.575913327505157502e-02,4.822484890956667963e-02,-2.318724411324580181e+00,1.857632869264183306e-01,1.260993586054206805e-01,2.366228863970941454e+00,6.372838421836568568e-02,6.083259255779390612e-02,-1.099465284276261376e-02
5.973988841333087441e-02,8.018133540303640228e-02,-8.908761489452708682e-02,-1.704590783295689471e+00,-7.052144926805336000e-01,3.026989188448918344e-02,3.798725258610928246e-01,-9.437859631001518229e-03,-2.871983617636546249e-02,-1.650883215091463185e-01,-1.338752408660429383e-01,-4.023674518736163053e-02,5.395490290401961514e-02,4.405648340147695630e-02,1.691086617044907162e-02,-2.567485944276005905e-02,-2.209690046337499325e+00,1.650637390754122080e+00,1.049400764025325145e-01,-1.530892871363711105e+00,-1.086105432130589354e-01,5.257254344275792170e-03,1.122068857510756662e-01,-7.705279547825973074e-02,9.477415372309801189e-02,7.378607816543528708e-01,-1.421948615406201134e-02,-5.994207655146553855e-03,4.043948516713535390e+00,-3.108543844716481729e-03,6.004471294581816831e-01,-1.097015993602863115e-01
1.581385967453777588e-02,4.743470941451304740e-02,1.220565058960921927e-02,-2.015194254189218714e+00,-4.185589699130169983e-01,2.127227483592077084e-02,3.810436485435801934e-01,-1.160169436080816519e-01,-3.870166136455074901e-02,9.953406306416090477e-02,2.621517347584998436e+00,3.467507703183008161e-01,5.486702509784016635e-02,3.136048354411783562e-02,1.220614859143793196e-01,2.165606519759729828e-02,-3.583097894857406041e-01,1.342212269105405475e+00,1.537776594356408955e-02,-1.808829739697215500e+00,5.729861139689780558e-02,-1.622028571056617907e-01,1.366882436425251868e-01,-3.098279968517247095e-03,2.922663659593048580e-02,-5.744440887043493760e-01,-4.823878302791199946e-02,7.265405971852567646e-02,2.985418161683494054e-01,4.490741547347661816e-02,1.732226812598281207e-01,-2.372531214507785091e-02
-1.474707805598488020e-01,-4.525504781388369618e-02,-1.732799764232719961e-02,2.122954909164262105e+00,3.303033299518871591e+00,-5.207846007714717063e-02,-4.482856550486017611e+00,9.494379277637973735e-02,9.487555596226892457e-03,-4.456594087079754352e-02,-2.230275771797980866e+00,6.944455170282228806e-01,-1.147467994496956245e-02,-3.514707332968069337e-02,-1.104190883294864367e-01,4.112168457718324427e-02,-5.096789225979803106e+00,2.989963929538714371e+00,1.238398681535214235e-01,-1.484560136846139855e+00,-7.521509048612744219e-02,-2.398297745472822984e-01,8.448924854715050836e-02,-8.268297279968545022e-02,9.278399900052593241e-02,-4.021914088868179249e+00,1.384739333596455950e-02,1.626807755265091346e-02,5.972362991472409677e-01,-7.326101593958547764e-02,-4.815987361788250931e-01,-1.882287398291480592e-04
5.567766151333179703e-02,4.273167906091343560e-02,-9.695893568148424013e-02,-1.036415528874785191e-01,-9.622079265373282286e-01,-3.124762761160435054e-02,1.127140472576017016e-01,-2.782425644393270864e-02,-1.644232481494834613e-02,5.567946556194473817e-02,2.036615162813357305e+00,-2.904413584809938109e-02,-6.521303004415340832e-02,3.055972980343523576e-02,-3.560950152726235964e-03,3.083389598425126041e-02,-5.969637972544258320e-01,5.562478856368887614e-01,-1.083942525199161899e-01,-1.030443577214648743e+00,7.508184851679342020e-02,-2.697457772350569938e-01,-3.951531907699994822e-02,-8.291767913113902433e-02,1.708886000332543176e-01,-8.425485491778541558e-01,3.499536892231763091e-02,1.669976941827489708e-02,1.217814320923138682e+00,6.914886161360907224e-02,7.424760555117886074e-02,-2.747021353124300125e-02
-3.145053660492552056e-02,-1.268269321227084856e-01,-7.371022751990431721e-02,2.018920490628263398e+00,9.270077397234229022e-02,3.649807380068031265e-02,1.383781768420883906e-01,-9.643230734831546858e-02,-2.112539250927380763e-01,1.216600882880310430e-01,6.007939930041941157e-01,5.444357491514630887e-01,-4.931159303099854306e-04,-9.735558522615024579e-02,3.553566137606485875e-01,1.573731318500168064e-01,-2.725914821940648824e+00,1.887814034674360597e+00,-1.160247271761008087e-01,8.096381215874187687e-01,-1.010133249709698477e-01,1.707274917621798838e-01,-1.423141748132508710e-01,1.001769216315995387e-01,1.466694017029509245e-01,-2.990241558396861787e+00,1.952412853106179694e-02,3.019194777177207009e-02,-1.601200900597237409e+00,-1.944030254029681659e-01,-1.225067179126579919e-01,3.750350203387764481e-02
-9.230398142631596539e-03,-4.667254732229659392e-02,6.741202770124447852e-02,2.423224107685729489e+00,-1.990087787978178424e+00,-8.738707677266017992e-02,2.232065179007208799e-01,-4.243243034907664968e-02,-1.255815290398576900e-03,1.164697495734622196e-01,1.614969502714135752e+00,-1.056736529204169578e-01,6.994320244483590542e-03,-7.006994833097646147e-02,2.921206814408309760e-01,-3.877315500567551920e-02,1.766568232955529005e+00,-6.254475159544127250e-01,1.092913803492096513e-02,4.088442985210399838e-01,-1.112361444519437831e-01,-4.188184509582682513e-01,2.289710159563431574e-02,-1.502187541017641591e-02,-7.600676330408967507e-02,-9.708594848565400559e-01,-3.525365741008104625e-02,-4.143380045561979863e-02,2.651058153406640749e-01,8.758889996931787381e-02,-2.679099538987120277e-01,-4.710487223637307291e-02
-2.086370412811856118e-02,-1.661178231260843421e-02,-5.858973279989042326e-02,-2.124478018744126562e+00,-7.233924358069659943e-02,-4.159864530792135168e-02,1.372085012391302872e+00,-1.015015742962483009e-01,-2.906844767162263324e-02,-5.259808518127268712e-02,2.469062212143703139e+00,2.595277338241011589e-02,-6.142188461468435501e-02,-1.400984974561012356e-02,2.030123189428207076e-01,-6.012787993837202111e-03,5.529754509616348068e-01,1.851649780405102141e-01,5.875875885237907131e-02,-1.174453855241843314e+00,5.638505328935439903e-03,-1.569941167423467843e-01,-4.600004532165558047e-02,-5.860345742997378343e-02,-1.106717701143426630e-01,5.039523621011576804e-01,-7.088576367646259868e-02,1.001708901570738941e-01,-1.097324490719274293e+00,-5.853052665951685024e-02,2.715027552770858943e-01,-4.574550547664518046e-02
4.201637101921230216e-02,-1.670025756502974829e-02,3.502173930708363248e-02,-1.726610163480714055e+00,-4.943714430362645129e-01,3.527363973345716552e-02,9.307083871195255265e-01,1.964707254380109458e-01,3.569290383269035916e-02,1.686222972729724823e-01,2.402459199853406169e+00,9.241334709117582369e-02,-3.394639438424678496e-02,-2.739708900430074673e-02,-6.337327037480973424e-02,-5.690551938799705972e-02,2.339994187094531497e-01,4.728055348162205074e-01,-5.706519454032039917e-02,-1.100430551072082430e+00,-9.488118172175263876e-02,-2.246400300913447001e-01,-3.415850342115413218e-02,3.116051478654172785e-02,3.229388112903731206e-02,-8.791650033195287650e-02,5.918226399419395517e-02,1.712396813598535475e-02,1.294484587597098946e-01,1.622911217237839876e-01,1.688575754312521271e-01,5.976218502030365698e-02
-1.350647357827898243e-01,3.995930124973096770e-02,-3.798499642239402257e-02,-1.232876034445559377e+00,-1.570289747801568159e-01,1.089323154100410064e-02,2.340941956596774010e-01,1.105627400307690467e-01,2.653504656951967758e-02,8.528686884924331635e-02,1.561027038634937858e+00,1.173900058370582616e-01,-4.193866038593484918e-02,8.100670766932029088e-02,1.267441872066660084e-02,-4.077778004628496156e-02,-2.140163404815272896e-01,7.437483518135579175e-01,-3.436385967791681997e-03,-1.446017134791089731e+00,8.882779159991794488e-03,-2.300359927264003790e-01,5.745473602940330549e-02,-2.916121713401240156e-02,-3.642086177384331463e-02,-1.473823835775094904e-01,-1.024200258267821406e-01,1.453128916618197930e-01,4.292843541340279345e-01,-2.840363717279903791e-02,2.534989379544682064e-01,5.467861076933944880e-02
1.832438428312689882e-01,-4.768557438125519896e-03,-1.021974467674191880e-02,-2.295189246191488230e+00,5.436797003473817780e-01,-5.779443439948067640e-02,3.420086474921512076e-01,-1.330416110540988961e-01,1.235057483780691856e-01,-1.066398857510756915e-01,1.867352571969029373e+00,1.018567738245255150e-01,-4.724002425552541184e-02,-8.349418798329269475e-02,9.968261812121434473e-02,-1.348652245577217253e-02,-1.777256061247632635e-01,8.362505159273752042e-01,2.258697601012632158e-02,-1.249466270644009391e+00,-8.505533752592212005e-02,-1.267540903312960876e-01,5.138017413379235981e-02,-1.884225354266418073e-01,-1.025924870021836244e-01,-2.478147535318411809e-01,-3.505366562307197370e-02,6.925473369285964353e-02,-9.731818235972483633e-01,-1.165832735561014716e-01,2.243316251477180667e-01,9.126139040870936969e-02
1.002235266040677267e-02,-7.076870059350912068e-02,6.567792284692607063e-02,-9.843551552832835450e-01,-5.342288036168042487e-01,5.179234626401518771e-02,1.008025880967250654e+00,6.404055007655139187e-02,1.332229783095352504e-01,3.660834476117778152e-02,2.850990522017572637e+00,4.323587988138691968e-02,2.315048563112356850e-02,5.206804928418045514e-02,4.464415288070962273e-02,-5.869925513224630992e-02,7.625246960173597266e-01,1.712889685188010991e-01,-1.027113499995442880e-01,-1.002655985904463920e+00,1.315107069264453699e-01,-1.083769975642744077e-01,-4.631358961741489227e-02,-2.765409062958746125e-02,4.130305180639426074e-03,-6.204851567687196257e-01,6.578369534296665648e-03,5.559326616361142531e-02,-1.573571239359532248e+00,-1.480325924989271853e-02,2.223973366564026555e-01,-1.966053465085793039e-02
2.162503329048007239e-02,-2.236504270600513100e-02,-3.254634996338196581e-03,-5.145020320558695189e-03,-8.940787390859264994e-01,1.248096470365923742e-02,4.185663201496139796e-01,9.818110204143344275e-03,3.499263739929949629e-02,-5.304135949266838151e-02,1.915351462603485766e+00,1.364635141798390891e-02,5.079147210660701212e-02,5.913891462122230352e-03,1.563085775270420252e-01,6.864886374604076136e-02,9.772199719169448739e-01,9.602960314272625253e-02,-7.576600429124062674e-02,-3.162301794669619692e-01,-4.294367118352472590e-02,-1.146273264323083019e-01,-1.626554091073182662e-01,9.986156487908247337e-02,-2.239456914348249977e-02,-6.501056279728819609e-01,-8.105106400694585267e-02,-1.062367881181679706e-02,-8.005375622175200379e-01,-3.238025784078982228e-02,6.988863998510477793e-02,-4.409041714935581918e-02
-6.960791686165754277e-02,5.145270348733520238e-02,6.525947582852280153e-03,-2.141773324895854258e-01,-5.012532327184028302e-01,-7.787832362212951387e-02,6.895293558044661708e-01,9.207048759891851841e-02,-1.165388437244136710e-01,-1.010405835504816774e-01,1.534826036042199027e+00,8.356864013418272008e-02,5.585988436690387908e-03,-5.273574763674863421e-03,1.642872911843789030e-01,-7.346101754405622020e-03,4.640039978959641376e-01,-1.539136229809901467e-02,-1.132750652323068728e-02,-5.207988352411923039e-01,1.492133285552601617e-03,1.783823708462270105e-02,-6.403057829821649956e-03,1.025695654403849105e-01,-1.228168478709662642e-01,-3.600268249530947512e-02,-1.191937628604492344e-01,6.059172634169474048e-02,-1.071035489760759685e+00,1.033305846543388501e-02,3.073827359068313780e-02,-8.790069445177807472e-02
-1.241134108531263686e-01,-3.293563281668381026e-02,1.312086073380345497e-01,-3.282298631263847466e-01,1.073032073162107358e-01,-6.122171396462191238e-03,4.631008755153304679e-01,-1.404304197340841553e-01,-3.269898011982498576e-02,7.800764778724067483e-02,1.106081764857404615e+00,2.972748180132921830e-02,-3.244588768171292187e-02,8.709369393878210741e-02,1.713268563199731587e-01,3.820035619019525579e-03,6.428099907546813707e-01,4.370822662056696867e-02,1.614366023855244234e-02,1.495252488331410071e-02,-5.178049485144847579e-03,-8.615569684017072849e-02,-4.799382994294948412e-02,1.052996232058805472e-02,1.186233818880017554e-01,-8.655345930073152227e-02,-8.504737762936617762e-02,7.304511903812026252e-02,-1.230559773741144891e+00,-9.727090051711531626e-03,3.839343695147592189e-02,4.736373495098058356e-03
6.441854940072472280e-02,-5.597277720647474142e-02,-7.518869105298496558e-02,-1.166015085598257395e+00,-2.070245935020808559e-01,-1.054688175440872816e-01,1.255912195556553757e+00,5.473729863893777442e-02,-3.851790610711180313e-03,8.498651781849982101e-02,-2.209978980257536474e+00,1.787154009816761119e-02,4.800083035948621291e-02,6.250928338832506537e-02,4.186503976913758668e-02,-1.943397081742097576e-01,-5.571401208366659752e-01,-5.340908893506524091e-01,-2.585455025679461380e-02,-6.737118764654088654e-01,6.946816607461533954e-02,1.190149262880525333e-01,-8.455018825454496678e-02,2.733451499105494804e-03,1.852252308341691828e-02,3.208758423769351609e+00,6.861787369064954734e-02,7.997670544750956623e-02,-2.174522702931852569e-01,1.275007381078913371e-01,2.738329749455777340e-01,-4.010263195899344685e-02
3.125291853766495181e-02,-1.212181464866052792e-02,-7.592397523241958823e-02,-1.091161252445207896e+00,3.704790845774611485e-01,3.839818203947113068e-02,1.315700765842777731e-01,-8.672403888704174890e-03,-3.027503318521290732e-02,-1.095711999069484133e-01,3.453203085145430951e-01,2.149927631897360913e-01,-1.348577981985811247e-01,-7.907094385065945030e-02,-5.880597883597935005e-02,-4.313769571225980343e-02,1.817999293597353030e-02,3.781887934423984188e-01,7.610185236409090781e-02,-1.833042956321129235e-01,-5.521564922498871375e-02,-1.010868887625652329e-01,-5.882872016713375923e-02,1.159194401812720931e-01,-4.739801322982586940e-03,-4.100630221515885743e-01,-1.405904493386804684e-02,6.126681582731232506e-02,-4.958048747072249518e-01,9.624390536003035734e-02,6.009577337487561483e-02,-1.682491971673812092e-02
3.287685517510811201e-02,2.128236831891966788e-02,-2.911256139125791009e-02,-1.146086991693148344e-01,1.843189558078789717e-02,4.661500592450089353e-02,3.892723645205287131e-02,-7.335341234828655910e-02,1.137133213453104912e-02,1.025461687459031934e-01,1.567092256556284591e+00,1.095507216689358965e-01,2.822367236863735848e-02,1.474419728434397114e-01,-6.508782771994259253e-02,2.839582092854613105e-02,4.213145768124708090e-01,7.642896202654503313e-01,7.569430622088951788e-02,-1.498046831239202570e+00,-1.263622971751895419e-01,1.032149589478943974e-01,-6.021464670882295533e-02,-7.036636108209749774e-02,8.531854266458303859e-02,-9.013082703537833584e-01,1.045311090246359570e-01,2.380932816597076604e-02,5.458249027085008143e-01,-2.577710828307626378e-02,-1.625521205744999420e-02,-1.324635292837441358e-01
1.566657029097635878e-02,4.561593746974830499e-02,6.677689288336693604e-03,-1.140356348454449886e+00,-1.306406142682533800e-01,-7.424115047679424005e-03,6.519487393310213763e-01,7.500397127970664934e-02,-1.317602800032074695e-01,4.445084399887439669e-02,1.154284116331672161e+00,1.159116302004294802e-01,-7.529365038944166311e-02,8.827058989635920561e-03,1.976816048566187589e-01,4.870117736619812565e-02,3.696900397163214169e-01,1.424126135797773862e-01,6.449946768795227804e-03,-4.070269160944377518e-01,7.274966289066411851e-02,-2.394863153540931558e-02,1.932643196611855824e-02,-2.796091285639938639e-02,8.982749900029921020e-02,-1.598443424207528218e-01,-1.194753735059394112e-01,1.091164341800677645e-01,-4.794733365758918064e-01,2.879583090022734895e-02,1.219443627804878832e-01,4.991215843126804025e-02
-5.049545641841289567e-02,1.261221305302453848e-02,-3.036072686568898425e-03,2.347807085351353962e+00,6.127573453616553811e-01,-4.169565445780375190e-02,-1.480980678793991867e+00,-4.989398997589205437e-02,-7.135093408988191221e-02,1.609488339996312800e-01,-7.202722793151292713e-01,9.708843626382626657e-02,-1.288001658919594172e-01,5.618357678047662673e-02,1.440197964213714155e-01,-1.866456522729877804e-02,-3.193359178842739010e-01,4.044376715287640311e-01,-6.198681765405532340e-02,-3.498188707739541825e-01,-5.974064406812230887e-03,4.539585779053952747e-02,2.645552310455378739e-02,4.154449434802533897e-02,-6.188671140872969989e-02,-2.388123031054981027e+00,1.118417422427998714e-01,-7.509484362773398425e-02,5.510175277270093486e-02,-4.603597029692509807e-02,-2.818697553933104116e-02,-2.000039913365845787e-02
3.357972587244327511e-02,-3.169121843977595193e-02,-7.345459708621256134e-02,-3.451089038497853756e-01,5.105464347448892548e-01,1.265177325861737978e-01,-1.600322779774860163e-02,1.370722992269929885e-01,2.800215849160114095e-02,-3.419077882336569313e-02,-1.123002119635938857e-02,3.777988611699430177e-02,-7.354495523121228062e-02,-6.696409195745613163e-02,6.603704647463838617e-02,-1.385411392585250423e-01,7.190458144530206819e-02,-3.256593449012887276e-02,-1.592120810767668482e-01,2.583010600679968016e-01,1.474300790928072813e-01,-1.538974084185546452e-02,7.150944207910864096e-03,1.056670306922183888e-01,7.012115996280704477e-02,-4.629388825543135910e-01,6.473057637668473696e-02,1.339687045462626541e-02,-3.015467210028215939e-01,-1.412664024503534378e-02,8.549730970576224776e-02,-6.687139354510582279e-02
2.697304419201271980e-02,5.559949150727214358e-03,-1.355660470488392055e-01,2.055279602529977989e+00,2.880010319568189758e-01,9.485567535926682503e-02,-2.182746273725618968e-01,4.247221005390564019e-02,-6.094848055578525048e-02,1.420459342434144678e-01,-2.091968162494814543e+00,-4.563872919576823090e-02,-1.059598962735957238e-02,6.382634461334589504e-02,7.418755422363250418e-02,6.929962799524480577e-02,6.110566272156833095e-02,-1.118035993752914292e+00,-6.400271197348668395e-02,2.763103025197466978e-01,6.150610256322164814e-03,2.685956550244265051e-01,-1.219306208465692903e-01,-1.179209711522349532e-02,-4.347616281906268448e-02,2.144051484473977531e+00,-1.850466023922136549e-01,8.142947999135445591e-02,-8.163336290641357573e-01,-1.233854299665717580e-01,-9.603480090136060077e-02,4.234491868217291760e-02
-1.205668922389758480e-01,5.040179097488791879e-03,-7.895013051879817834e-02,-1.121391032033558055e+00,3.452346031743349086e-01,1.243187956793335817e-02,4.335421483404093834e-01,1.862837679520029308e-02,6.138496623053698448e-02,-1.808127148644608773e-02,7.693107817055754305e-01,1.219959602692193418e-01,-3.173150794355458770e-02,-4.700509787896675618e-02,-8.721884018850788178e-02,-1.032697449016903128e-02,2.335496292137120566e-01,2.328213879941637698e-01,-1.136646024095032542e-01,-2.151569869032244342e-01,7.159575595222211764e-02,-5.209019396464351775e-02,-5.694426895645918890e-02,-1.083461307077973612e-01,1.963848524816443897e-01,1.025259843540403809e-01,-9.657948632522903032e-02,-6.047925951690897445e-02,-1.074933849298769672e+00,-4.660904450642517488e-02,1.402986870771118777e-01,-2.233620050659981815e-02
-1.563418007679000243e-01,-1.455570853271953846e-01,-1.127246236403231655e-01,1.241413944148620052e+00,-7.819862332384180936e-01,-1.061481874126347230e-01,-1.160105175995026050e+00,-1.541663325928113171e-01,-5.519463440333011173e-02,-2.367193680774464654e-02,-6.577084695121204749e-01,-1.096938290819527151e-01,-7.948021667588571005e-04,-6.840193942578835784e-02,-4.026409352123298119e-02,-2.147774622273571354e-01,-2.137673618790287555e-01,1.507296308804434659e+00,-4.236500128709618646e-02,1.915178875565949346e-01,-1.537678375793009034e-01,4.243330546731502451e-01,-1.869553008947382605e-02,-1.187137904770335234e-01,-3.368282967479429429e-02,9.877982933010411859e-01,-8.880222988442834642e-02,-6.914550301697137968e-02,-8.098081477862044686e-01,2.640221981989692157e-01,-2.438739098286806795e-01,-6.311175968986473817e-02
9.415027484543878056e-02,4.315722623664003388e-02,-5.037259214623761999e-02,-9.949383069052046835e+00,5.537002589525235052e+00,-7.232182151882472765e-02,1.589447904738559902e+00,-1.065007539033447775e-01,6.389036772729654590e-02,2.327465325690593334e-02,5.356757977061749720e+00,2.799943330605862424e-01,5.188630571673231171e-04,-4.675733625408887151e-02,5.379627519724521356e-01,-2.134336137762524177e-02,1.197400997426451230e+00,2.375525570519078755e+00,1.674201616673954077e-02,-2.050427865582785447e+00,-1.954518695495936417e-02,-1.857137052868139959e-01,8.253129271210749018e-02,4.150451155871633796e-02,4.166837890556041729e-02,-1.893798757735656979e+00,3.258713045607664061e-02,1.215328432205855652e-01,-6.345094512609304793e+00,-2.949449009341555961e-01,4.531855035806540699e-01,1.030923577549112818e-01
-3.221740314529916022e-02,6.379264075648877208e-02,-1.347905255639717526e-01,7.402581864256493338e-01,1.611680938430636312e+00,3.631338284545476691e-02,-1.065416607288071776e-01,-2.074956174231727679e-02,1.336780930647203380e-01,-1.003519310297971701e-01,1.719219809644757291e+00,-2.095141495439623858e-01,-3.298431495270340904e-03,-8.197452103881201421e-03,2.051596573259691636e-01,-9.115170974858834152e-02,7.945053301525106804e-01,-2.473086839239909407e-01,1.663375433306371826e-03,1.076644974739803473e+00,-4.430996874289754722e-02,-6.542210961106387224e-02,9.133187358046929161e-02,-1.574645323762049465e-01,1.231762240223283284e-03,-7.554796859965841049e-01,1.071411842974115403e-01,7.951615250709070676e-04,-1.376901698391422402e+00,-2.026690397810017863e-01,-1.725230305364184868e-01,2.219828501699344994e-02
1.009075330437491230e-01,-1.213876689589026420e-01,-1.480047622144676014e-02,-7.044784774449954767e-01,-2.321127353524842230e-01,8.943023399850164035e-02,6.789573498606360502e-01,1.518931257931838974e-01,7.553575674409655771e-02,6.911218962424325873e-02,1.759397153617515253e+00,-7.572450417567286318e-02,-3.412570291644812653e-02,4.419701299132733352e-02,1.699886340726323719e-01,9.586893153770480180e-02,4.912219302000099264e-01,-9.336758600995234691e-02,6.673759150095448511e-02,-9.821305594224281066e-01,6.279731995992300642e-02,4.966142517688010294e-02,3.544451544540686699e-02,-2.844674718782835149e-02,4.698396207002301993e-04,-1.200050257983289903e+00,-1.427066635364035527e-03,1.613706046593143262e-01,-3.705553995855391802e-01,-5.432585316712379431e-02,-1.806349488917655954e-01,-4.409874052081194651e-02
-1.639466865125816797e-01,-4.707639820203438075e-02,-4.896708279661408925e-02,-7.279371028751278894e-02,4.970924680670694984e-02,-9.341427783366676452e-02,1.281161096843775882e-01,1.353904951002694312e-01,-1.577175067980654891e-02,1.183864371096530338e-01,1.154912842747259499e-01,1.475009144450503684e-01,8.399564810406780213e-02,-1.175084996181608721e-01,2.125539062586545829e-03,7.907532745468386082e-02,3.124474738888009112e-02,-3.996057951621780416e-03,9.550382663504092262e-02,-1.823359866978712107e-01,1.151919479085895901e-03,2.849641988732854250e-02,-2.497968076710951543e-02,-1.465275760609660366e-03,5.819495993600808104e-02,-1.502524844986124694e-02,-6.070118800727206804e-02,-8.316359660740625659e-02,-1.351606491286407308e-01,9.103634566252151493e-05,-7.151224639635981629e-03,-6.257522541327924237e-02
-4.505348591908480554e-02,-1.166025675010947255e-01,2.891116738975826536e-02,9.399160934266642675e-01,4.353261454108238171e-01,-1.698745031703410391e-04,-9.254560453125854069e-01,-5.478991675374820375e-02,1.031533605496843115e-01,-1.898419301478954449e-02,-1.221611391317731776e+00,-1.133601430975715862e-01,1.068779441028911703e-01,9.970690679718216543e-03,-7.774175102853070340e-02,-9.666056240932840993e-02,-2.711653104229375458e-02,-5.902724603100538703e-01,1.960671358381129662e-03,1.243004702188272192e+00,-7.144989769608460321e-03,2.744935654547270981e-02,-5.919940969475154247e-02,-3.701132484213667806e-02,5.347473333452956029e-02,-7.408967619079120936e-02,2.571694848350198487e-02,-7.395250390692037490e-02,6.386893600461525100e-01,2.409655654327127333e-02,-7.162950505949861046e-02,-4.657350513042440854e-02
5.314532296577628712e-02,3.180780449207955274e-02,-2.343590424527117466e-01,2.834396729936145259e-03,-1.180563749441499721e-01,4.981228173005518289e-02,-3.926018171058144601e-02,8.974135157514655237e-02,-7.364855469982349925e-03,-6.642495565158641757e-02,1.258360264662273520e-01,9.429462800100057995e-02,1.920862998852685636e-03,-8.321000077029155895e-03,5.992490144603433710e-02,1.574061206554983397e-02,4.370818566614940309e-02,1.842570153812282951e-01,1.170101672362221096e-01,-4.680646583629052143e-02,-2.158210023109845277e-02,1.123660576702444486e-01,8.922318696799903803e-02,5.385753741963784924e-02,-9.143054768479490224e-02,-1.561401301865579794e-01,-5.605969042729332802e-02,-1.218255320009230779e-02,-3.015581463698887785e-02,8.060423372971574352e-03,-3.772779599159792330e-02,9.575962004253674165e-02
-1.285347275874105522e-01,5.433863151726877477e-02,-1.436773754624646737e-01,3.222544632917276330e-01,-8.252103370450829534e-01,6.527248395901619205e-02,2.850162674575474342e-01,1.821896456970260869e-02,-8.045389871500924217e-02,-5.132189900001447869e-02,2.095038946392193679e+00,-9.184350244473479807e-02,2.185980154702880651e-01,1.807938510726518275e-02,1.779834001927974863e-01,-1.180656191801868898e-01,7.989283416951273864e-01,-2.798286933047702818e-01,-8.934441669855391899e-02,-1.503616937914737661e-01,-3.365440677541255143e-02,-6.077921934503580786e-02,1.088832981828518898e-01,2.916904606016709148e-03,3.350048228588232285e-02,-6.905087444099531346e-01,3.792683777089012054e-02,3.374103877390757789e-02,-5.020494975674942850e-01,5.288460624848510816e-02,9.160222777591445209e-03,5.494718544166321550e-02
2.427487284856486710e-02,9.310163081893885542e-03,-7.605238402730717107e-02,-7.765842960332007550e-02,1.318268169640942344e-01,-1.030747817348264539e-01,-1.227398061935346257e-01,9.644257097238109755e-02,1.442355383096304844e-01,-1.251848476723369519e-01,-1.706623680997124831e-02,-1.196208976586307822e-02,-1.021508705654047312e-03,-8.645563082271318436e-03,9.008135709924858237e-02,-1.206235214095689179e-01,-9.448235600884036245e-03,-2.758417373011075660e-02,4.306727876624497769e-02,2.785163780047875126e-01,-1.140088996409411535e-04,2.496691645515210570e-02,3.094579289980321432e-02,-6.029037528840185123e-02,1.136621865482449339e-01,7.183475502688214942e-02,5.269448960792191133e-02,5.510605879485871300e-03,-9.498477129902072047e-02,-4.900371295293227264e-02,1.223943038527284394e-01,1.061910835369152817e-01
-5.576230965384276587e-03,-1.216900400645481856e-01,-2.158933123086990147e-01,5.934466153747220557e-02,6.728097803552411937e-01,1.020378664273624142e-01,-1.120969444154025441e+00,3.858742604597708431e-02,1.007651917755821996e-01,1.912074340108167042e-02,-9.794911143527659236e-01,-4.462440203227323321e-02,-9.136520478957251001e-02,3.064048367218017571e-02,8.143621127354694345e-02,8.866091733823548357e-03,-3.985601463029433411e-01,6.073843257714852673e-01,-5.764240977608894173e-02,2.810678674399755828e-01,1.428855628624112750e-01,-1.605866787931135506e-02,-2.048797947156943619e-02,-4.619224373209664808e-02,3.150044132754734050e-02,-2.078974540452709630e-01,-3.993337137577733509e-02,-3.323096402457619003e-02,2.807244507027048530e-01,3.278279012046880769e-02,-4.406290024767361979e-02,-3.026689101016044603e-02
-1.782821948895574604e-01,-1.036184928998631488e-01,-8.457676573151023947e-03,2.453083978835014223e-01,-6.218884391704064540e-02,-8.253751313608552465e-02,-1.568981909663125784e-01,1.317771242694477582e-02,-1.242739836713221135e-01,8.030977606359715470e-02,8.132908482265018002e-02,-1.262207065897230085e-01,-7.256851331811250971e-02,-5.453068972780927143e-02,-6.129421957581090985e-02,-1.115355334046041202e-01,3.660524094225965641e-02,-1.009304343810554366e-01,-5.353973984613157738e-02,1.295625105595890336e-01,7.922125133525394214e-03,-8.295085054956448378e-02,-2.534332421448041647e-02,-6.619382129305326212e-02,-2.279870923910757782e-02,-6.746635910494372390e-02,1.888703456490144553e-02,1.716798608628954670e-01,7.706143277555735360e-02,-6.897334319101984523e-02,4.694355893497785537e-02,8.110528021948909538e-02
8.069120948610708499e-02,-8.250992127046105629e-02,-1.165786737216999505e-02,-1.852566918604760249e-01,-8.077645278915941696e-02,-3.862212200755294617e-02,9.047360559264762056e-03,-7.064210934711777357e-02,-7.713988594014117850e-02,9.430071356380259617e-02,6.236947370464461793e-01,-6.381866044614094291e-02,-7.858596918804469644e-02,1.181541079063977429e-02,5.739366973931759458e-02,1.001292406373036903e-01,6.151291122645324849e-02,9.726768707821425997e-02,-4.677276312498147154e-02,-3.895343102071379682e-01,-4.740623292983339732e-02,1.121311376871965138e-01,-8.161246200378338700e-02,4.263514856555912502e-02,-6.398437229072947985e-02,-5.742437560461111090e-01,8.206554626729679891e-02,-1.117519314226586222e-02,1.012421620763150759e-01,3.398808415636719871e-02,4.022619867262978294e-02,-6.707943432014254470e-02
-1.758995027408035566e-02,3.269531049930782945e-02,-6.377645448714060195e-02,-1.410923294469166589e-01,-1.828007930512511592e-01,-2.366957638162591956e-02,5.117786343949702610e-02,-1.618120919054055196e-01,1.336644711105667294e-01,-1.471653623429431193e-02,7.389748722422478933e-01,-1.986743480349930507e-02,1.067741079804920695e-01,-7.193701286691336905e-02,1.044514533284963548e-01,-3.277863621045535442e-02,2.614274409539490973e-01,6.453426730919825660e-02,7.447257896606171435e-02,-4.294137383573328193e-01,-5.813784106662106543e-02,-1.173499462313017661e-01,8.303914718645870330e-02,-4.290983048145456669e-02,-1.399736399923903474e-01,-2.595365218806432450e-01,-1.030401991747628143e-01,5.759539206094847069e-02,-1.461370305900963895e-01,2.081210020298372709e-02,-3.369775595418734310e-02,2.720219266429986169e-02
-1.263001018153077359e-01,4.474221008951111828e-02,1.171786082525326650e-01,1.106034579930440936e-01,-1.001273758721132889e-01,-7.469415039705870618e-02,-1.663232743958750481e-01,3.611939855663996723e-02,-7.962579205831444781e-03,-3.705094947739578232e-02,5.928473835708483186e-01,7.399613568831567290e-02,-1.728153280142418619e-02,5.528297317797455090e-02,-1.737464043861261798e-01,-7.068862822062184359e-02,2.295180588202045679e-01,-3.761432596744375412e-02,2.369753097268107941e-02,1.918529748647262168e-01,3.797772045030743671e-02,-9.172229401374928925e-02,-1.146901926302385522e-01,4.145692561911417523e-02,-1.388326835582420482e-01,-3.641879457166762868e-01,-1.438902915061568075e-02,-8.895189133724064334e-02,1.714221690151563129e-02,-1.053388908233796571e-02,-2.612549429671382623e-02,-6.662358702604832122e-03
3.040249574219475517e-02,6.855764599122499137e-02,3.690124610926901610e-02,-7.031579306659831163e-02,8.115510241223936050e-02,1.204325719577488130e-01,-3.541293242747654002e-01,-4.056487304888917178e-02,-8.299266683483798313e-02,1.522642464799839508e-02,3.668759606959924313e-01,-4.824789601971819775e-02,1.755052692078907031e-02,-4.483884552162464843e-02,-3.421752440064453060e-02,-2.730951054793185305e-03,8.883831859389505758e-03,3.877090016746824741e-01,-2.798324584081230901e-02,-6.742156023683590349e-02,2.574576020039137311e-02,-7.489147386320672839e-02,1.855198344590533177e-01,1.405347597233506420e-02,8.418692808591524135e-02,-7.977025049095329834e-01,-1.028235812449018460e-01,-6.058848925577965672e-02,4.582459455284523808e-02,-2.227153033251859024e-02,1.009217789411526317e-01,-9.529028743331214441e-03
3.374439992282581013e-02,-3.600190330695402993e-03,-3.359986574742361565e-02,2.853063780124113213e-01,2.503739387316994969e-01,-5.823887548160670141e-02,-4.576491052426350237e-01,-7.673845992986484676e-02,-3.473517983258452013e-02,2.506357474424124624e-04,2.189995808477664396e-01,1.502442117942963118e-01,-4.026652805737652302e-03,-6.297136420167527560e-02,9.558255518610092594e-02,-2.660028642894812778e-02,6.160696643222248609e-02,2.207163104518679586e-01,-1.453488934497687568e-01,1.345068424393039697e-01,4.427893314879897263e-02,2.760005471928975510e-02,1.357935066737829821e-01,-9.136180695446298461e-02,3.853050529836504756e-02,-7.976573735314667069e-01,-3.249042508452014422e-02,2.882368710585165097e-02,3.035670897798595780e-01,-1.051334342781807957e-01,-2.385824281213479864e-02,-6.970060484685425273e-02
-5.017049280106448267e-02,-1.335348869158929086e-01,-3.631007934162568118e-02,-1.552894263814420528e-01,-4.582247509027970872e-02,-6.916887120120499954e-04,-1.886435016631372030e-01,6.418074717245329797e-02,-9.776771022406592279e-03,4.161453928546732239e-02,8.817221127419225812e-01,1.496874778840725506e-01,1.462183501854031897e-01,-4.491375951889029113e-03,2.129571636901065462e-02,-8.167841241604996416e-02,1.191572984176522826e-01,4.624014663963092742e-02,-1.348098889828711622e-01,-1.975389836807781296e-01,-3.920552197441618675e-02,-6.500534122233533711e-03,3.069581547966780677e-02,-1.230966478804026293e-01,-2.053854779062713187e-01,-7.515834200843701796e-01,6.583602844896907621e-05,-9.343726140329865204e-02,8.985118012668669163e-02,-1.031988311034287287e-01,-1.108422209012719208e-03,6.816589096363507086e-03
-3.617861046478327430e-02,1.049115103421797424e-01,1.114906577012542421e-01,4.209760723035888552e-01,-3.448708746636902633e-01,-8.385071879138668305e-02,-1.222279615587677781e-01,-4.688409856193388736e-02,-3.659789954965867592e-02,6.684866637933460642e-02,4.559199489378017445e-01,7.623127601758358796e-02,-3.298784494160161146e-02,1.033937678995671405e-01,-1.514075080764636615e-02,1.132084146843981426e-01,2.381402516847768158e-01,1.149312962038028796e-01,-1.220308361978722084e-01,9.052213756081950446e-02,-1.957818843554555086e-02,1.649452234406665815e-02,-8.364120047445069636e-03,-3.284546029829585323e-02,7.979451997719018419e-02,-3.976639974086153551e-01,-4.396410945830002415e-02,4.267829548114646099e-02,9.715398827898227840e-02,7.149095762716477231e-02,-7.720136315173414809e-02,-1.718186872120149034e-02
1.051515471783000949e-02,-2.767989411169058042e-02,-1.512454164065734621e-03,1.129862668683041110e-01,2.224163150281083523e-01,3.520778845447932598e-02,-3.542656842700105946e-01,6.437816465184224846e-02,5.059915766746895388e-02,7.580487899456536671e-02,-1.013164032384102492e-01,2.355917953607429473e-03,4.754944346757727924e-02,-4.568979389606660918e-02,1.050024598665859604e-03,1.452208214744677151e-01,1.847932071725899572e-01,2.767972636253023255e-01,7.124482971077174265e-02,-9.466078223467029595e-02,3.860018419750350233e-02,-3.076009080566680792e-02,-7.858097828976748356e-02,-3.941263068202834757e-02,9.461440563685988292e-03,-6.304182368290517369e-01,-4.228387900794053356e-02,5.833095716955762761e-02,-5.025356422554171087e-02,1.462750517422212009e-02,-2.857494379259202175e-02,-5.150360402423830031e-02
-1.129145046405782837e-01,1.776840475830457691e-02,-4.154643705477313598e-02,-7.539445482524907982e-01,1.709236044577293612e+00,-8.944659730194751135e-02,-1.410549952912253158e+00,3.589834753821630198e-02,4.018578456803272719e-02,-5.066762609629103103e-02,-1.683350740911800481e+00,1.003701814359244382e-01,-2.846423221463316444e-02,-3.283586573487635996e-02,9.863157101722057341e-02,-4.117640413850489484e-02,-1.818197815956289931e+00,1.989419171146134258e-01,1.420254363380102081e-01,-2.589163056937328067e-01,6.994527649439899464e-02,2.037818165639357915e-01,-4.418623862822420451e-02,-4.841451765152701703e-02,1.308400473248837459e-01,-1.394552576069133520e+00,2.003852750184066320e-02,1.960784053758120489e-03,1.574773395457983227e+00,1.533803172173681811e-02,-2.425573691327735648e-01,-9.961871416672334056e-02
8.996832748804378665e-02,-1.590582494154660353e-01,-4.449060071500762770e-02,-5.671331900454327224e-01,2.380243124368992269e-01,2.413973958172965784e-02,-2.275435818469822846e-01,-7.934087714168133743e-03,-1.739461880987042131e-01,-6.493656917177446919e-02,9.420640012281101816e-01,-5.000560634265267118e-02,-3.196121803648048487e-02,-4.906229325381245010e-02,9.836067352539747122e-02,-6.877487189081304964e-02,5.328710686853460610e-01,4.239558006614699837e-01,4.935641768552851728e-03,-5.733640273331257475e-01,-9.532020503167674963e-02,-6.762637465416632132e-02,5.452882360912370691e-02,1.096196458426296726e-02,6.944111515989229155e-02,-1.190021031887642300e+00,9.159083954228919994e-03,3.342840821936599732e-02,-2.274376924059450661e-02,9.762766379804828365e-02,-1.396837908512667779e-02,7.417643066373638683e-02
3.982603046171928618e-02,8.710315940253519906e-02,4.597269827803461550e-02,-1.394752203738049312e+00,9.441015115325087637e-01,3.801212639633535367e-02,-1.378054330343063683e+00,-6.145896630865715221e-02,-1.116096100150575261e-02,-7.983434641619974181e-02,1.427110742348858263e+00,-1.742578064562202433e-01,-1.697432445798166267e-01,2.998139970489364925e-02,1.857375713354532665e-01,-4.052968112174797771e-02,5.871565972388471666e-01,-5.930467210371279801e-02,-4.362284130195113324e-02,7.517744595797379858e-01,-7.317578031091148683e-02,3.977913638281863756e-02,-3.695382216222039412e-02,-1.034773584451054856e-01,5.376097281309601301e-03,-9.466308455445794356e-01,9.704721359992897478e-02,1.352805505226190724e-02,2.462748081407667433e-01,3.938136187470829552e-02,1.166664247838388596e-01,-2.375204503379926401e-03
-4.721484469041299474e-03,2.280802639345529820e-02,-6.550004780663056664e-03,-2.000183693194559631e-01,-6.297707556010284646e-02,-8.784003711067248088e-02,-3.798003807215472594e-01,4.835674325333285534e-02,1.785724531352628555e-02,7.642103523571350254e-02,2.697615846643161008e-01,-2.110241147972191297e-02,8.531310571069049276e-02,-2.176150829790594377e-04,1.441362492047807420e-01,4.456205560165782398e-02,-5.106955480121437574e-02,2.787787156257666710e-01,6.894592084006323507e-02,2.203867065123595870e-01,-4.139069765309072446e-02,-7.629375632015436559e-02,-1.092989369583151349e-01,-1.167189829802128404e-01,1.362850748361452494e-02,-5.905336628998556492e-01,4.731234774467512477e-02,2.494858759230596246e-02,6.954072871442741333e-01,-5.094607500468569666e-02,2.850241449665194896e-02,5.507990985167380421e-02
2.722897192720702755e-02,-9.735826067777109821e-03,8.740526721860590598e-02,-3.474788569843252906e-01,-1.500355638560171734e+00,-2.209632079800042878e-02,-1.094949210898061187e+00,-5.421938502216679492e-05,-1.097388899360415976e-01,2.081677467006484011e-02,3.942501071998322448e+00,3.897722025092575926e-01,3.824848298745761599e-02,-1.320084825107054050e-01,3.003077326113964829e-01,2.845373316566964655e-02,-4.398946744183484525e-01,1.952750319427979164e+00,-8.746736527586045085e-02,-8.978538523932760862e-01,-1.108075165603701617e-01,-6.411849554049019462e-01,2.292437118505569540e-02,5.834421192249786975e-02,1.034491089970690329e-02,-2.685560633366528283e+00,-1.255509675002079162e-01,6.852895250504272007e-02,6.021977703753964573e-01,2.233530074535764742e-01,3.243849431416670481e-02,-1.495978832381215928e-01
5.251927769306313082e-02,-1.051021368694843167e-01,-6.161590305567647002e-02,-2.601890225211886953e-01,-6.330553259523881149e-01,2.856393850330403439e-02,6.669392698855103330e-01,-8.692568391357070878e-02,4.224363524972677558e-02,-8.072330689994220571e-03,1.151120954614945013e+00,-1.583907787556957936e-01,-1.560491568078750321e-02,-6.656260136568531438e-02,-4.100637980868306748e-02,6.855831405953344282e-02,1.600498913366099063e-01,-2.435903194699261809e-01,-2.164013558728258152e-02,1.564407228785498205e+00,-6.888154609399477213e-02,-1.319047837941131340e-01,1.078626618561753653e-01,-6.858471154738210451e-02,-2.170824606358771197e-02,-1.312486080769376340e+00,-1.309865011582138639e-01,2.047139317160906816e-02,-2.306649064718732101e-01,2.101727476552818497e-01,-2.041493171831803288e-01,1.025348975147125780e-01
9.568696796293300888e-02,1.382219475097309740e-02,3.281336036362898778e-02,8.628688085803093433e-01,1.556957182960496899e+00,2.713547503007276290e-02,-3.511387438228716462e+00,-6.458584018288877904e-02,2.469955587903446131e-02,9.380257623526842836e-02,-2.450816919558440610e+00,-9.476651780306875883e-02,2.811856627656239647e-03,-1.026322318401810298e-02,6.515395378003254745e-01,-1.243165413458197921e-01,-9.959545950030833650e-01,1.635237711484756939e+00,3.766246864320276638e-02,1.799440350895626928e+00,-1.381195080240317785e-01,-8.354509290840785030e-02,9.159000887257215395e-02,-7.407115867556836319e-02,-1.519660929624005730e-01,-3.034642731417107164e+00,1.307880111161732403e-02,2.141423828297776832e-02,2.540211953204064343e+00,-2.316882901554597751e-01,-3.653149626381653747e-01,-6.902623944705973957e-02
6.031326959087687789e-02,1.140420539757313993e-02,4.807053837512430261e-02,3.303167152227078351e-01,-9.779649636890594411e-02,-1.419488004083731443e-02,-9.122880136423282271e-02,3.075801061402234915e-02,-8.960442404816817974e-03,4.231551558139769187e-02,5.819269564265886485e-01,-1.708435318609390907e-01,4.908066951780923337e-02,1.374657189587432105e-01,-8.152796784541696540e-02,1.097004542779313058e-01,3.998273260292405373e-01,-6.681354748631048238e-04,8.025331203595574558e-02,-2.003209900130498988e-01,9.357172931644766600e-02,-9.840358413913692648e-02,-6.552018593758128506e-02,-4.575735524632741635e-02,4.940361769089918892e-02,-1.127825767715859628e+00,-1.152427206238419849e-01,-1.788602150911452679e-02,3.012347745010531264e-01,5.446393870571407392e-02,-5.823335975159172478e-02,4.829645007182299492e-03
-3.199897139279569980e-02,1.775351347669536228e-02,-1.241602246480907369e-02,-2.615613805855266261e+00,-1.580999902230131871e-01,2.876321421763397470e-03,1.600881425904511213e+00,-2.411046231088857447e-02,5.528043714036688649e-02,4.760256179445503111e-02,6.466516489752367924e+00,-2.336181549270618107e-01,-1.479028085734148124e-01,-1.607294076158532481e-01,-2.870079664031393030e-01,-1.617780184832096416e-02,3.079659754314534315e-01,1.221428527095452798e+00,-5.084214899996326864e-02,-2.642779953509340474e-01,3.469164945392736593e-02,-8.070633010216668457e-02,-2.397902842942906815e-02,3.616530250071692699e-03,2.929670134368159498e-02,-4.592449829228292257e-01,-8.417510430924751708e-02,-5.220146227853999371e-02,-6.504512113142602026e-01,-5.685626275858095269e-02,3.488233741064123428e-01,4.616549200809017678e-02
-8.559368434895167632e-02,3.687997375078763684e-02,5.958952948014896618e-03,-2.032932204943729726e+00,2.773873627637895023e+00,-1.815606329822238782e-02,-6.802991783221041810e-01,-1.676776680665638675e-01,-1.994446048580868214e-02,1.714899282806186809e-01,2.908064001700228829e+00,-4.471180943994727541e-01,-5.827218232784307783e-02,-4.499723172007991101e-02,1.400616495452501331e-01,1.142474519583780435e-01,-3.510380936507118133e-01,8.481540813710318760e-01,7.623080034225195034e-02,3.213294943253278135e-01,1.216099310904012881e-01,-1.212061813949834588e-01,-7.787170983515170897e-02,1.674743808320663593e-02,7.463988108902505636e-02,5.244833203704544200e-01,1.472370365233956375e-02,-7.590400006523556620e-02,-2.182030359128602548e+00,-1.787349459989900358e-01,2.257683000695352438e-01,-9.146592398305439242e-03
3.355465994932173290e-02,-1.216846824412791579e-02,-3.785188291226210776e-03,-1.198828279241035855e+00,-2.942603329974069037e+00,-6.721790589543652494e-02,1.521996147901847118e+00,1.401715140563668804e-01,2.709197270725457671e-02,-3.239771790062104945e-02,1.155787664626605959e+01,-3.621031809977228177e-01,-9.199852696262358909e-02,-6.065207873396392946e-02,-5.659015562011086853e-02,-1.015434086296651273e-01,2.656318326057212076e+00,3.114735959958339628e-01,7.313432441317353760e-02,-4.733395869226633135e-01,8.017089174269399071e-03,-5.835050376867610966e-01,-2.734375635606180795e-03,-5.653719219369218035e-02,-1.132348071692276248e-01,-2.401109773304883621e-01,4.723109037387215187e-02,4.521980818408416480e-02,-1.185765736286685801e+00,8.338576511786124218e-03,4.893949736716042831e-01,3.317725945533184229e-02
-5.144278956004072478e-02,8.760203928694930420e-02,-1.265048090891989774e-01,-3.295338391663280575e+00,-1.396892612234397424e+00,1.152123722297181130e-01,-5.151537817114680839e-01,-7.910641537486669261e-02,4.898250432079426231e-02,-5.833138477510526471e-02,6.829045160836720640e+00,3.800552883688799316e-02,-7.481109752661067869e-02,4.188535916548434546e-02,3.452541163279308489e-01,3.205127153597745610e-02,1.684738558223655813e+00,3.485818379841339354e+00,-1.922141748091974042e-03,-2.763542563887201542e+00,3.595992013904868168e-02,-4.965536680184180485e-01,-1.801262780542621234e-01,-6.798798264989133755e-02,1.054970725877203176e-02,-5.891400167576904545e-01,6.174442196246760634e-02,1.440723470266081496e-01,1.131959208181720078e-01,1.172650635398260199e-01,5.991015559806527335e-01,-2.246385873578053693e-02
-6.238595859554129514e-02,-2.556462648254111819e-02,-4.834745447549163716e-02,-2.247049119943367756e+00,-2.148612158294242569e+00,3.994135305632734445e-02,2.259819982704232455e+00,-3.238397484139226429e-02,-5.906340202199062556e-02,-4.320620980809649486e-02,8.673525840989459113e+00,-3.870524185467510026e-03,5.037777086975431251e-02,1.098204765553603968e-01,4.591159722322673553e-01,2.328557862351189958e-02,2.057691526389426429e+00,1.604087020057286983e+00,8.724347451674460685e-02,-7.065592100293455191e-01,5.966667446185163620e-02,-1.120483925554278892e+00,-7.170761373039206965e-02,-1.225600480800989427e-02,6.257130115077370880e-02,-3.078646089037975653e+00,-4.197283370407519504e-02,-8.102235142919941846e-02,-1.636269202956261104e+00,4.635816603046648554e-01,4.714547086531008235e-02,6.112443379185645426e-02
-2.767955033175955454e-02,-4.387772368586339428e-02,3.777945125492494088e-02,1.255862987994061042e+00,-1.118162851654580736e+00,6.355257395928526343e-02,-2.032003198008287548e-01,-6.447754377342411469e-02,6.281669861984556791e-02,-8.810404349519330991e-03,2.023375264626009251e+00,-2.658962207801418565e-01,-8.428078717519599597e-03,1.801174086773349448e-01,4.170023834766144466e-01,-3.556587063764612977e-02,7.147991457195805760e-03,1.897439590643429819e+00,-9.986980307053716643e-02,1.773827911056148121e+00,6.753795761446092227e-02,-3.733348661450661687e-01,6.200927618663500812e-02,-1.249813634305378326e-02,-6.089420991216722145e-02,-1.859602599330720585e+00,-1.138728272709040121e-04,-6.950121936591856231e-02,2.702598492338488700e+00,-1.328317449071659551e-01,-4.269600951031209957e-01,-1.270426662153627782e-02
-5.508469287301076545e-02,-1.573839258028039978e-01,2.610305828379034729e-02,-2.794220623792804226e+00,1.180319133246160446e+00,-3.335548719007744994e-02,3.501949688666372573e-01,1.663082047724598117e-03,9.283982980186326894e-02,5.811527937492524248e-02,3.819996506402066228e+00,1.137847405646652960e-01,7.678370791892141778e-02,1.326597875129438830e-01,3.406543755008449859e-01,1.063194224449560132e-01,1.160222886973571566e+00,2.122947788961935256e+00,-3.004745796835702962e-02,-1.253841534247767564e+00,-1.075699951552910316e-01,3.236149552771704074e-02,-2.356410766710896262e-02,-1.136953903863860416e-02,-6.515830698368232921e-02,-1.945452619377648240e+00,-1.181280872663964011e-02,-1.618196555750562454e-02,7.105267125507648274e-01,-9.752917791623481880e-02,1.623987434840009070e-01,-2.850340539706577164e-02
-6.475068605147309142e-02,8.836791744114390335e-02,1.880625001507187088e-02,-6.801072836092378893e-01,4.471647929780414032e-01,-9.120218746694162826e-02,-1.611349873051614312e-01,1.008861524073992738e-01,9.918859372002016006e-02,-8.242017720256428204e-02,4.060068819457464784e+00,-1.484513629113564659e-01,4.279777501047723337e-02,-7.018181449476369738e-02,-1.403673643531276605e-02,-3.696386888516815794e-02,1.491619645488145574e-01,8.980793980896738526e-01,-2.134502721228125760e-02,-6.570744169621570707e-01,5.758580599689983731e-02,-9.550651655319333799e-02,-9.713324195975271691e-02,-8.481382885380567282e-02,5.772920701136459443e-02,3.022012867511700632e-02,-1.246647868210010446e-01,4.834107545947052831e-02,-1.551782762789953640e+00,-1.090655404596841543e-01,2.971570625178960312e-01,6.683305266865822991e-02
6.926186311211662318e-03,-1.139089700005689321e-01,-1.082108913395033040e-01,-7.164267367067658654e+00,2.438924022107189948e+00,1.721629692488740870e-02,1.598845213240611018e+00,-7.703759369272886919e-04,-2.400791475690136623e-02,2.469078194774917620e-02,-4.782686678043360229e-01,-3.987733896875978457e-01,-1.048591908154377778e-01,5.769263425130981282e-02,-7.340317142193740485e-02,1.821946658321294335e-02,1.091706147519055481e+00,-1.389565801366979603e+00,1.490740386408820166e-02,-2.947128339269088126e+00,1.217004647338205091e-02,3.215781828120367614e-01,1.031160357721560561e-01,-3.812497896729903201e-03,-4.981453066301753940e-02,2.725199011089553203e+00,-7.346562499305352156e-02,-3.698608791558770370e-02,-9.782316594886353300e-01,3.145791025364236271e-02,6.562573567794355300e-01,1.452298969558320496e-01
4.442745332315043566e-02,8.361874834263909040e-02,-3.651883941637126818e-02,-7.852705738209958541e-01,-1.079451134836729720e+00,6.541815955572671815e-02,7.177509263720348587e-01,-8.139834424053048190e-02,5.031330817675317736e-03,-1.659702105822588244e-02,5.539486952307051126e+00,-2.411147656502493630e-01,-5.314462572792487405e-02,-1.130697765692707524e-01,3.238350983478207462e-02,-1.029518767124140699e-01,1.237868987678996557e+00,8.121946878709903131e-03,1.831477580058397253e-02,-3.684587251767212912e-01,-7.203472866248664119e-02,-2.654269900486279088e-01,-9.743106457911235307e-02,-2.539411958073862423e-04,1.151311460622898852e-01,3.275925218013399087e-01,-4.532825277024234156e-03,1.922943741626611733e-02,-1.329350031298187851e+00,-7.165260439225346750e-03,1.746393262189727680e-01,1.246011884577085012e-02
-1.112725387346203271e-01,9.484190837684546710e-03,9.629602934971302763e-03,-3.835214290579581631e-01,-4.352190652910310487e-01,-1.163737312549038422e-01,-1.429955705263788124e+00,9.465847843098363149e-03,-5.484687128854303512e-02,-1.110834552820721619e-02,3.459221793815327572e+00,-1.063392702723162248e-01,-2.160356981075751692e-01,-4.331844872627116025e-03,5.382388081411388497e-02,-2.982854098474450183e-02,-2.479681155985430596e+00,1.033286210132592586e+00,2.005113769963323342e-02,2.733597686318993247e+00,-5.089244012204664075e-02,-1.783261975798406118e-01,6.733922287575652699e-02,2.775258087952257868e-02,-1.869229166713597817e-02,3.690901769626764306e+00,5.638222824315441972e-02,5.148049321415516799e-02,2.104013617526400814e+00,7.495589572814193025e-02,3.087238402109523383e-01,1.317950646037699958e-01
-7.710893767545108114e-03,2.062036749549540360e-01,3.704319259269221037e-02,-1.992168175351975767e+00,-1.497887792424157594e+00,7.471198273069769302e-02,1.046889251689473888e+00,1.579887642285336680e-01,-2.055589955843653560e-02,-5.985744396443672816e-02,5.043986001681457942e+00,1.927484243605996073e-01,-8.071828406551806445e-02,5.107178634880122498e-02,2.504120467332353051e-01,-4.422979339021097106e-02,1.952003129377230417e+00,1.242458231272900004e+00,-8.050710793503874918e-02,-2.010171291889723655e+00,-3.138780035317165207e-02,-4.801087826336970510e-01,-9.129440367988479743e-02,-8.864546749261226211e-02,-1.245179056574609588e-01,-1.377709901072321275e+00,-1.737232382505323261e-02,8.784614678189382742e-03,-7.229426433248009598e-01,-2.491596639124953397e-02,1.769580833318258328e-01,2.272867006270140600e-02
-1.504539823402356868e-01,-1.004156835837302919e-01,-1.113466774518391406e-01,1.625612123879540905e+00,-2.024039162798979774e+00,1.401194536952733993e-01,-1.864937546891697551e+00,-6.566565928120997320e-02,-5.738313353372300613e-02,-3.487577985560262606e-02,1.247979126418087947e+00,2.167243036986357951e-01,-6.315408913053516260e-03,-1.543133910135880138e-01,9.173674533362902173e-01,1.307357879378482912e-01,-2.173773416721514751e-01,2.880675296869000146e+00,9.439098207413206335e-03,5.900854235742087894e+00,-2.761809956481380002e-02,-1.206925008868001248e+00,-4.315788303895035094e-02,-1.250773474109677097e-01,8.917189924092878972e-02,-6.549242367531619813e+00,-1.395784626272891966e-02,-8.200211078045466229e-02,3.118917248610301840e+00,2.006149796117963902e-01,-5.528291644009079020e-01,-1.372850296373705759e-01
2.710279055258792841e-02,1.376235692284431544e-01,-6.956163690578076597e-02,2.801042213298056693e-01,-9.931209950112250828e-01,7.396819738412475052e-03,-7.357459597400048956e-01,5.316597527915458560e-02,3.935229727247514797e-02,-5.730339289869091496e-02,7.706089435454962500e-01,-5.678230221201660544e-02,-8.542071000863150909e-02,-6.797012347782481478e-03,4.322627598709390950e-01,1.712649847098150491e-01,2.261764755076685618e-01,9.981346934745233268e-01,-5.623828244990807142e-04,1.106290195570654306e-01,-1.469846590926114915e-01,-2.852977985266123007e-01,-5.593995001973171843e-02,5.481226674417664577e-03,2.238062837360185828e-03,-1.510484246747098469e+00,-4.763963768318568714e-02,-1.509115174975490456e-02,2.353861952784598532e+00,3.896090879210069996e-02,-7.175870440537161776e-02,-9.488299592673880845e-02
-2.948111890891226203e-02,-6.064081587690383496e-02,8.127799680706937480e-02,-5.960045872950767709e-01,2.719528526898906673e+00,2.197288607259591242e-02,8.596132067708134317e-01,-1.379791122463562003e-01,-2.228075997171615613e-02,2.093627407917409734e-03,-1.852024185896733455e-01,-1.402503059336321078e-01,1.641110746270526069e-02,-7.712753970345725962e-02,2.164357020992573322e-01,-4.216559273766203042e-02,-3.372470784541594102e-01,1.079058818914331086e+00,2.922749024162884027e-02,-1.177134299699935216e+00,-3.379492631912382750e-02,7.775935582069281038e-01,6.804325923838509815e-02,-1.449084558597856127e-03,1.149891309583499499e-01,-1.571106137459223451e+00,-1.284317692655410903e-01,3.183425346812816109e-02,-7.281706315968643484e-01,-1.623601637105258066e-01,2.725153043512645520e-02,-7.157504643314384352e-02
-1.225142890399770618e-01,7.868684835908969222e-02,-7.330149360554701066e-02,-8.107966631371701371e-01,-4.015590691353120856e-01,-5.233620132408575709e-02,6.103437490984982006e-01,-6.461134740877567083e-04,-5.932125423626379707e-02,4.152601547034525525e-02,3.724610578989174137e+00,-1.531146048792771108e-01,-1.645012822880104891e-02,8.350274850035964425e-02,4.069671941190979719e-02,-8.829043975488568008e-02,5.042629185403511016e-01,4.333501998186007342e-01,-8.526123396888132810e-02,-2.345738403196185040e-01,-3.156798879428465016e-02,4.137620939290218014e-02,5.920231636204406622e-02,-1.118463227187633906e-02,1.177468049308700859e-01,2.567366495326698361e-01,-9.017338305616867666e-02,6.726559306163032437e-02,-9.840627670906459956e-01,-3.780474444004274133e-03,1.415303029605088081e-01,-6.334403675885857954e-02
-1.004194008091181534e-01,2.964555435530646585e-02,-1.035114305216953134e-01,-8.669268643955668763e-01,-1.906604377606485878e-01,2.353192470143069745e-02,8.097904657325133426e-01,9.187773619512534795e-02,1.279473843191081088e-02,-5.568045204363025746e-02,2.256571671472263230e+00,-3.274036474087273496e-01,8.211044620204778488e-02,-1.037366396012117387e-01,2.019906154602462214e-02,-1.392563241217155239e-02,1.170872037656065734e+00,-5.360868452825882091e-01,-6.907834046226998814e-02,-7.392961285337795729e-01,8.166660976722657506e-02,-6.107335180933125274e-02,-3.705496857302504991e-03,-1.139253021708651614e-01,-4.887820933945173640e-02,4.555435726141927599e-01,8.395470683430779346e-02,6.568240502647668122e-02,-1.107787786077314651e+00,8.583206346515416529e-02,3.246819892177967848e-01,-4.377193896149517843e-02
-5.708877397544556698e-02,1.155786805905385933e-01,1.763586916673132166e-02,-8.570317623315676370e-02,-9.194357164273854188e-01,-4.968744931637796708e-02,1.879095684203272165e-01,-5.988563221521343849e-02,9.013922077841696190e-02,-1.099005121889268383e-01,1.887062343997969016e+00,-1.416625451168808114e-01,-2.757362475514497230e-02,5.610751179729579069e-02,1.336118093840538701e-01,2.496247531229707148e-02,7.729628354836430848e-01,-9.854037767906170808e-02,9.879245288793378488e-02,-2.892421831213106698e-01,-5.996600823955214104e-04,-2.023007783704623003e-02,6.982672330574446473e-02,7.650745698454426702e-04,-2.460596906124423028e-02,-2.971155838983523950e-02,9.040315498628623270e-02,7.788418517317333145e-02,-2.943953171381011868e-01,6.202518106237524254e-02,1.730015261673927551e-01,-1.122053633784916848e-01
-2.283565113893956319e-03,-1.322390012766023748e-01,5.616089096276465423e-03,-1.517700974224783783e-01,-8.272814490945448185e-01,-4.702341367859447924e-02,-4.575557794722231453e-01,1.088914612652175373e-01,3.353565433871105728e-02,-3.197854553691724389e-02,1.170712413103102367e+00,1.119280563191229344e-01,-8.045863294084905359e-02,7.594478238742474741e-02,2.510621785049723109e-01,7.801652102097086927e-02,4.800186071442207048e-02,7.329142069827987438e-01,-2.805546793428947625e-02,2.107362403829568173e-02,-4.388618245006868646e-02,-1.095116701505306350e-01,-8.469446782934043905e-02,-2.371232027373722240e-02,-1.301415215515432655e-01,-1.454167409707598724e+00,-9.739334266003184248e-02,1.219723576307903679e-01,8.821479151562841015e-01,4.871334040664745263e-02,3.602475015633134492e-02,-8.245685934131864736e-02
6.003369282726822576e-03,1.380506451342524143e-01,-3.472748978560363711e-03,-1.102424442854000874e+00,-1.242867874926667726e+00,-5.564643991752137031e-02,1.857880391745609927e-01,6.086590932527825848e-02,4.951695083804354830e-02,-7.268501921195445747e-02,2.225559360434457012e+00,9.273831627175571635e-02,-7.539309497176836274e-03,3.080285136510104924e-02,4.964998741917994729e-02,2.843242105455615412e-02,2.525747273348267763e-01,6.984063739130943471e-01,7.256728208690063544e-04,-9.301716553049999003e-01,-1.370074423333369484e-01,-4.457142725543501438e-01,3.148329267436092427e-02,8.414292940387840813e-03,1.993077338468421042e-02,-1.709002285312323455e+00,8.289868390159631228e-02,6.963860110840400242e-02,6.473319041262365348e-01,1.167496527570144743e-01,3.103556956632508822e-03,-1.340664756980576300e-01
-1.220905226419836120e-01,5.191490451358526936e-02,-1.153031292185371925e-02,9.910810218757134527e-01,-1.156240900973991126e+00,1.797267005885096192e-02,-9.252389637835627123e-02,1.051036982772179662e-01,-3.599565714112343273e-02,2.770697595502053315e-02,3.633766751985174071e-01,-3.454007444980706359e-02,4.306061790896143632e-03,-3.853112966228361413e-02,1.161320523394850368e-01,-3.471039074624491377e-02,5.348065062207463249e-01,3.859995769230423202e-01,-1.404242793753290169e-02,2.150556035535797217e-01,-1.051319636920732513e-02,-6.319073902327548842e-02,7.928862046833796973e-02,4.234633282151712558e-02,6.413932911129988090e-02,-5.232555785116179692e-01,8.652827662476779425e-02,3.855848670351116197e-02,1.409740102699638342e+00,9.790842260222467827e-04,-1.461951520513976588e-01,-4.262891844724688191e-03
-5.691615655805903895e-02,2.506991370136272407e-03,8.231966764389751778e-02,6.261871423558736938e-01,-4.638085700820355761e-01,-6.575364145358073009e-02,-4.139738798712887524e-01,1.001075692450389132e-01,-1.361261090693831888e-01,-6.481578873959377429e-02,4.099295391101275277e-01,-1.135649999692554396e-01,-2.652517068581064855e-02,-3.089569252968903459e-02,1.017320641717391477e-01,-6.049458259519299719e-02,1.310922557708767422e-01,3.187061834523419734e-01,-2.347482114144304119e-02,9.882931509489412125e-02,-6.430474505533929908e-02,-2.759918679725135646e-03,1.142317512204175933e-01,1.658837823982612161e-02,-8.568768138258432698e-02,-9.360118184963642785e-01,1.715740535567260782e-03,1.544741266038353149e-02,8.510436544949033788e-01,-1.527590710442409128e-01,-4.968763729160710629e-02,-2.298713116547712858e-03
-1.535956785749499100e-03,7.747507124839886350e-02,-1.109381468563719053e-01,-3.303240180602469156e-01,-4.087821370481161121e-01,-3.065182758942752023e-02,4.686715725156954671e-01,5.126254075262584586e-03,-1.462263266291216335e-01,-4.534888093837862594e-02,1.083801013708408423e+00,1.468516794329698810e-02,1.192003489532618421e-02,5.235144695134730936e-02,9.968222598353686237e-02,-8.032297640230801061e-02,7.810675255143423312e-01,-2.488775207114491128e-01,-3.872959595682472916e-02,-7.374814636388433708e-01,6.947903362214265244e-02,-4.439226199258374667e-02,1.138843993598367965e-01,-4.262007640035476996e-02,5.013417682041115819e-02,-4.635126329647032417e-01,1.168958585399741540e-01,1.449040458953637471e-02,-5.175986009904016694e-01,8.033120261356743730e-02,2.130497539203201132e-02,-4.185943133755634649e-02
9.195694577248930690e-02,-2.756254338421842628e-02,4.564937765261342650e-02,-4.590863610572030323e-02,-7.592130590338640461e-01,1.356891749549940240e-01,5.448262073019241036e-01,-4.576714932010812753e-02,-1.300804502253453676e-01,1.194783254272374362e-01,1.727289487061643758e+00,-1.423344852073017142e-01,7.326410432883435908e-02,-9.962441194037997827e-02,6.746585921958397035e-03,-8.518110075110611051e-03,6.130893152088889853e-01,-2.008893242330907769e-01,-2.104049591481355844e-03,-3.571158553272769098e-01,1.603440642011541920e-02,-8.871110500287116007e-02,2.094539279425508636e-03,2.595703612751334988e-01,4.574666179292615625e-02,6.060230217704163508e-02,-2.590703338809657169e-02,-5.694864231150857659e-02,-4.113744381811557105e-01,-1.154706015506960642e-01,-1.420399552375945784e-01,5.500093993277418297e-02
5.001253203788007251e-02,5.738055881364167998e-02,-1.936973471953900314e-04,1.012253438591040444e+00,9.190972142205933171e-02,-4.247252847500837536e-02,-3.225596881431070373e-01,-4.754632955226702380e-03,6.479802445891358342e-02,-1.061039307781970432e-03,-7.870152942266139817e-01,1.101705986343277932e-01,-1.129920710433439564e-02,8.812276389483632288e-02,-9.984702188574408332e-02,7.813396432448045659e-02,1.149093569659507930e+00,-1.176004872319100558e+00,-1.450140833104138043e-02,6.567302577008078401e-01,-2.504058916385196523e-02,1.225486195429277697e-01,-1.475524059458473841e-02,-8.350906330638799280e-02,3.035918030524360767e-02,1.451462162607840334e+00,7.889547401836347063e-02,-1.690436423836753693e-03,-3.235892431961496229e-01,-1.378509933248459052e-01,-4.954713418142554782e-02,7.096624382265215303e-02
-5.568658216317350779e-02,-4.095656977050020353e-02,-2.149687556841332198e-02,1.213485005643880482e-01,4.554539178492856832e-01,9.757492176177197385e-02,-2.279219499987473196e-01,1.625559947311664907e-02,-8.903283500761156877e-02,8.985477655391971297e-02,5.635535486317664461e-02,-3.054666236019877579e-02,2.552420145078731703e-02,1.090231471535129254e-01,6.531691720955602742e-02,1.247468842103145459e-01,-1.373071551470822771e-01,1.844696343273811157e-01,1.513655547629823572e-01,-8.212407996164956814e-02,1.770272843180566505e-02,7.324013984965069279e-02,-1.064486508217783040e-02,-1.135696325706253701e-01,-7.790214970026396180e-02,-1.576978118998062228e-01,6.643908127346785653e-02,5.849190950780793624e-02,-4.259827740418744013e-01,-7.378798482328247435e-03,-7.691597546971632587e-03,-1.144252282322910791e-01
2.392486841999217489e-02,4.109457804317120933e-02,-5.003664765735774816e-02,1.881229208787988272e+00,-8.336292057958668567e-01,5.702096640431230518e-02,-1.063446909626747816e+00,1.599427016106076960e-01,1.006478822470920770e-01,1.125729310141493772e-01,-9.724580792000483975e-02,1.107651983038095145e-01,-9.085330942154819234e-02,-2.499604011280386409e-02,3.054244055563554716e-01,-1.102268899050025813e-01,-1.681977642388653438e-01,-1.230469422881518421e-01,1.113977705701834769e-01,4.171007089204681884e-01,1.188541059921148224e-01,-1.337367726701451098e-01,-3.837054744906712167e-02,9.295199520390054482e-02,7.024852863029289185e-02,-2.941786900561411122e-01,2.932727214584082698e-02,4.213694493535174307e-02,9.713259727202989691e-01,3.861089517027409442e-04,-1.020540734321715715e-01,-3.114849997746156271e-02
1.601614067244015033e-02,-1.417586768052685187e-02,-4.787825409187913134e-02,1.789762452294209605e-01,-2.295154130815614812e-01,2.141359650014671573e-02,1.648177728142539988e-01,2.465505444825432518e-02,8.097283852267277149e-02,1.212878415042036445e-01,4.906341105930639990e-01,-1.481946096713880872e-03,-7.526871999280128345e-02,-1.031512902166432932e-01,2.237393420322914342e-02,-1.050276466357201038e-01,5.925468349988987082e-01,-8.905372314159408498e-02,-3.654971192514421680e-02,7.340808624770134294e-02,-1.008767945393456711e-01,1.883054949387516627e-03,7.397027948613263404e-02,-4.097590753569954614e-02,5.360162720361779515e-02,2.283974888031799211e-02,-7.121966053521845350e-03,4.877095387669767856e-02,-2.674181658017726892e-01,6.294252558372659401e-02,-1.472624333178046696e-01,-7.950951067622152868e-02
1.054468076380153489e-02,6.983099798201704289e-02,4.329758098856715740e-03,5.752666775726277687e-02,2.437125450570133967e-01,-6.270281116243063557e-02,-5.771380854905967528e-01,-5.859869168051606153e-02,-5.362412324994510204e-02,9.269718946372500212e-02,-6.154439372477786829e-01,-4.837599489458638963e-02,3.125223117469781015e-02,-1.439589511779354181e-01,3.638611466986091947e-01,9.100401197450751212e-02,6.357901268896587466e-01,1.564973244166696920e-01,-2.856885568089761324e-02,-9.738021568838324538e-02,-1.481156497649536649e-02,-7.748985475717394544e-02,1.265791859491085525e-01,3.972423766392653433e-02,-1.095522599357063448e-02,-7.861164739843204963e-01,-7.408142709493188531e-03,5.720053900172446942e-02,6.363842900753068077e-02,-1.594491905355317207e-01,-8.836203151855773208e-02,1.527392579224555735e-01
8.388806843965598836e-02,5.389371769896841163e-02,-1.055589883433293193e-02,-1.600918116645663053e-02,8.959258666616570776e-02,1.138935097485753445e-01,1.384847393646965741e-01,5.922217502419054036e-02,4.949527943118424422e-02,-9.222663345006513677e-03,2.303797640783181722e-01,5.798501382655233544e-02,7.688286476153936844e-02,-1.330422695618505846e-01,-9.268981153926678096e-02,-7.143811531108884560e-02,6.557136557737015814e-02,-7.498714938621824089e-02,2.102307662226820736e-02,-2.833430375952289970e-01,9.017069521791294673e-02,1.409368919017358890e-01,-1.559095201870176533e-03,1.257389484205457542e-01,1.414252719417128474e-03,-4.074175699062282940e-01,4.488070823542707373e-03,6.988536871417913576e-02,-4.565171321311414787e-01,-3.223080990870483276e-02,-4.062616784701202251e-03,2.672638343405936770e-02
-3.054325887866881847e-02,3.307016625006153204e-02,1.948357483807392626e-02,3.507288911797609016e-02,8.230582003436303085e-01,3.048563954069249265e-02,2.899394569850175518e-01,-4.466758420611482289e-02,7.720305036111621555e-02,1.021163856537731125e-02,-1.663116381604960337e+00,-1.033459926364949100e-01,-9.248277866666540503e-02,-4.864901548375052433e-03,2.791452742537784207e-02,-1.606179211994041289e-01,-2.949500154838149424e-01,-9.594816241783992172e-01,-2.685087193371656078e-02,-2.548833197005385687e-01,-1.008587114222614101e-01,3.217050633154733275e-01,-4.115968686496981888e-02,-7.752794189658149260e-02,-5.550904534862886180e-02,1.000140042556481701e+00,6.123733840119392584e-03,4.834986018753152648e-02,-3.662882689827319516e-02,-6.827041454648578866e-02,-1.500107998990201363e-01,-2.565214200940710287e-01
1.157326272434890981e-02,1.151579634355109072e-01,3.928069285653796455e-02,4.271372196510676844e-02,1.023506933209509667e-01,-8.946696688882152526e-02,-2.328958257822803801e-02,-3.228096908710825080e-02,-6.326830616366366233e-02,3.055608430724975760e-02,2.075835505513683732e-01,1.184271603703735548e-01,-4.995169969360713919e-03,6.568330114185950974e-02,5.438807336767950001e-02,-4.842205277130962049e-02,1.534949432080891796e-01,-2.995215426895134758e-01,-6.033889618120278492e-02,-8.678022673410444587e-02,-3.123775622677271713e-02,1.480538844131646103e-01,4.831875731629637488e-02,-2.814345823712169348e-02,-3.560154665611833108e-02,1.140334134457353099e-01,-7.897650848029141857e-02,4.460351618923335398e-02,-6.410189722172651705e-02,4.117545462822993357e-02,-5.031636286087032457e-03,3.072727422667168723e-02
-1.659283302020280459e-01,1.009675050706056783e-03,6.581838982927376569e-02,3.436255770768851914e+00,-8.250272765947789036e-03,-1.545716233173607306e-03,-2.224555786719359940e+00,-4.401135540956026965e-02,-1.061966577427612135e-01,-8.014919376486209779e-02,-2.517282460735626781e+00,2.330873713560845939e-01,-4.754311073808472482e-02,-4.178849478728346306e-02,-3.144124464243474582e-01,-3.363052386972887470e-02,1.556648254566636753e-02,-5.736783238995671885e-01,-1.494829729437361157e-02,1.020075880389844786e-01,3.734632645532546397e-02,6.008560238583175034e-02,-7.657933219984101869e-02,-1.875599553498866479e-01,-8.226739599911145340e-02,-2.951397296142770355e-01,-1.856279294233347324e-02,-2.123578527752331344e-02,-5.425321595331351610e-01,-1.177469911833350508e-01,-6.268452671978107515e-01,-1.835756133934716705e-01
-9.741616423203681985e-02,1.041249856069084573e-01,8.842237315254154999e-04,2.448463225379505115e+00,1.530964805567592402e+00,6.357912514352626054e-02,-1.190966282221341155e+00,4.976299124734537282e-02,-2.725522846401408072e-01,9.468053857163653830e-02,-9.822739031970215695e-01,-8.568807814799804801e-01,1.693181908140704503e-02,-3.334824935303358495e-02,3.997783221373056861e-01,-3.114182599153451220e-02,6.082731361050410651e-02,-2.241535620384888627e+00,-2.441396785335741768e-02,3.460957241159406728e+00,-8.583533105194449120e-02,1.535932221757648972e-02,2.387652272025060293e-02,3.686154597750317119e-02,6.124932177162943636e-02,5.747649380406399250e-02,-2.944823577797666542e-02,-4.017795896844846698e-02,1.313651885838527988e+00,-7.356014105658141566e-02,-5.300681927647783453e-01,2.390402144903525788e-02
7.555994277326769093e-02,3.829974349606907191e-02,-8.852145525137165849e-02,7.374902719153048070e-01,9.188066514838121313e-01,1.357453117657384523e-01,-1.378714666002307299e+00,-1.315841351748486994e-03,2.052668518232625763e-02,-1.039307208719590231e-01,-2.816911890528627893e+00,2.416168477498477074e-01,-1.564001046679280860e-01,1.216036112753503401e-01,-4.247159782094989816e-03,-9.513870142701694177e-02,-3.279632160644825878e-01,1.514593688655228310e-01,5.454569257477214633e-02,2.352338086763527514e+00,-1.851138612443563964e-03,8.721763999454826277e-02,-9.432025501798574352e-02,7.431018497803940082e-02,-2.468267666268994520e-03,-2.468752981789215095e+00,-1.620515935479129588e-01,-1.851822970692774961e-02,9.406950983404618327e-01,-6.250335790921215939e-02,-2.719944734391075980e-01,-3.759965826314895510e-02
6.531670592465496639e-02,2.044252342266825173e-02,8.133677825659438310e-02,8.140624630561827946e-01,-1.856555121821570897e-01,-4.280070623894240492e-03,-1.236141708265154071e-01,-7.094795057531911621e-03,-9.101759283581253857e-02,-6.247095319576848049e-02,4.469320430373591724e-01,-5.315396883124990507e-02,5.244934202845956406e-02,-1.771018967101636171e-02,1.379937718248602785e-01,-4.659382974451056064e-02,-4.543888266033389162e-02,-1.753860380735862701e-01,1.979347320104897223e-01,1.081268652837862332e+00,5.390471517555524977e-02,-3.218842655041904977e-02,-4.461723248257686708e-02,-1.036269991258455536e-01,1.030008886930447974e-02,-6.176954045030741414e-01,-1.673130206908396422e-02,4.642535145185462675e-02,6.196146849094150144e-02,-4.788374972884877623e-02,-1.131358463741698739e-01,-1.123469449599213965e-01
1.045936322529294887e-01,8.862014781105591321e-02,-8.520209124959073066e-02,-6.851719121836981341e-02,-1.531908780498758282e-01,-5.613062071976646777e-02,9.686867140800418940e-02,1.310765930395386414e-01,7.896781728809160184e-02,4.505232379681901184e-02,1.305222329552137572e-01,1.892555996970589904e-01,6.558817078851490734e-02,-1.764057236458018429e-01,3.762542675127526076e-02,-3.700891621763219286e-02,1.316022409649352243e-01,3.257455574147410243e-02,-6.897781940865714556e-02,1.151551659287202295e-01,1.504038686007159488e-02,6.244566655376294212e-02,1.014308836374330086e-01,-5.532160220203139606e-02,-6.864473941529380951e-02,9.067723359437583619e-02,1.048218182749016403e-01,-1.035550303271481898e-01,-8.557706303813967033e-03,-1.334982239021588468e-02,5.885799527930243857e-02,4.241348822698100957e-02
-7.717191039127753449e-02,-6.862876618341998136e-02,-1.584347214769853407e-01,-6.434492007591490204e-01,3.349669217731938153e-01,2.482101152812893536e-04,-4.610835990648121108e-01,-3.341005756203075609e-03,2.639373191527687179e-02,7.150632429582304272e-02,-6.721843115503559063e-02,1.462652296526038009e-01,-1.089131666825495504e-01,-3.143323031010494817e-02,6.922218298512604340e-02,-6.627291477961899657e-02,-6.011045682304360094e-01,5.966640514559199415e-01,4.782752647331900420e-02,6.004190723002658103e-01,-6.855931070516188552e-02,3.102146847335696678e-01,5.282548425606199347e-03,3.924984738889972236e-02,-7.180903715964714884e-02,-6.588724384576283288e-01,4.858304092679628650e-02,1.162248782046618467e-01,-1.295795550749389458e+00,-1.068334842802493301e-01,3.032692902146250785e-02,-1.155989896784874738e-01
