# Architecture: 354,64,64,8
# Learning Rate: 0.005
# Momentum: 0.85
# Layer weights below: layer1, layer2, layer3
3.333160133571667627e-01,3.901419966966869490e-02,7.258595732225231467e-01,6.991709871761883077e-01,6.371110042606617507e-02,-2.454489331226043791e-03,6.647119111170976535e-02,1.000959255094137967e+00,-6.842885689155475681e-03,2.346714831812869440e-01,8.221584495546713570e-03,-8.955636306360267862e-02,5.667245776009829233e-02,3.119471007759355152e-01,-3.476271561462881410e-01,-8.352324394735814728e-02,1.248763587904674344e-01,-7.822647557237958349e-01,-9.132206975157701467e-02,2.304929760695222374e-01,-1.904752927701258147e-01,1.283663704578093256e-01,6.327619776904026827e-02,-5.317555511270830038e-02,-3.473084085955752687e-01,-6.311658175043893815e-01,2.804369221586920386e-03,1.187347722697734871e-02,1.471634543261256811e-01,1.083706551016810626e-01,1.120646243026254991e-02,3.002406726563416547e-02,-3.563204651677757268e-02,-1.542739009480324497e-01,-9.084189651629496999e-04,6.529991475418529534e-01,3.050788877840482916e-01,1.055594855558604911e-01,-2.963243261265396597e-02,-8.346281301004521147e-01,-5.871295876458103580e-01,-2.879634532220324283e-01,-9.783925101590705553e-02,1.451538225744786470e-01,-3.091233330931694723e-02,-3.528788043710137656e-02,3.038064365856293914e-01,5.878484445034194705e-02,4.161755467463769120e-01,-1.986761393749610430e-02,-6.876023526505246897e-02,5.371198608377882738e-02,-3.169786799067695476e-02,-1.519433030653339678e+00,-9.809485802142140637e-03,5.860901351342646948e-02,2.323422517303296297e-01,2.224238763498526811e-02,-2.565931257175932401e-01,-1.670644649984892871e-01,2.951073606519778458e-01,5.219013570934863400e-02,-2.715568557329277044e-01,-1.311085286101010272e-01
1.416106472623104573e-01,-2.672289775442525731e-02,7.377421603495291913e-02,1.833576537616081747e-01,-2.169156843170401694e-01,1.314732263838341297e-01,5.584671161279528701e-02,4.060293748524189672e-01,8.626284050195276443e-02,-1.399509939348120508e-03,2.899942492821683607e-02,-1.257163039365792323e-01,-6.547336071716829131e-02,1.072818049061119547e-05,-1.894349543248681489e-01,-9.249439591612033940e-02,-7.604801030450629440e-02,-3.606506360353314289e-01,-1.442671580838682938e-02,1.248431437511536707e-01,1.122170832923097411e-01,3.513679698572989007e-01,8.774792310899173775e-02,-1.379645368376472732e-02,-1.379839911315120793e-01,-1.934326885851854472e-01,-3.090777691536483046e-02,1.412409096257589425e-01,5.848505814155480903e-02,8.476689901402371941e-02,2.732031120552344192e-02,5.368718435259823424e-02,-1.475125583731176464e-02,1.327548332332044168e-01,-1.358471868125051690e-02,1.534485054747210253e-01,1.845192866433564283e-01,-8.974506613619681605e-02,-9.598789160256286646e-02,-2.513791108551037823e-01,-3.034323795061572016e-01,2.133762244203195046e-01,-5.109483536881810443e-03,-5.707159836781267731e-02,1.529553712824013867e-01,1.145928802123380164e-01,2.622234357595880638e-01,6.741189009445296143e-02,1.400307367191206132e-01,1.419322213311498271e-01,-2.320004589583768775e-02,-6.727506648810974155e-02,7.366835893146579661e-02,-4.684829136363027891e-01,4.210803035951819068e-02,7.374874912149036177e-02,5.604635579726426758e-03,-8.325447659475893047e-02,-1.341908135328785112e-01,6.728538441286921468e-02,6.804003433167656045e-02,-5.926556858411738751e-03,-2.840167097461218093e-01,1.375740400345085157e-01
6.666329622134710420e-02,3.088827056491603648e-02,-1.892269070241735240e-02,6.422349310708069803e-02,-4.642249496735888215e-02,-6.081434212262203619e-03,-4.789852144802685119e-02,7.374160025803744301e-02,4.338348562088324006e-02,-2.832275245023609458e-02,2.971254180624194677e-02,-9.528468503289931613e-02,-1.121461609395206366e-01,5.439985067541466129e-02,7.842329063020694879e-03,4.753093519621887086e-02,1.787287452503395491e-01,6.640625006451890411e-02,-7.579371736751842892e-02,1.078817534530283201e-01,-9.891616591663117408e-02,-4.378656441243550940e-02,-5.186411072607305731e-03,1.289866000525904943e-01,-9.220021814390642889e-02,-6.427783639068197774e-02,-7.381800192773154204e-03,-3.621593982787722071e-02,7.279513004583608449e-02,-8.122075708320684873e-02,-8.625577358526363703e-02,-3.285821530044897437e-02,-3.888078468905017959e-02,1.449566704615533885e-01,6.247821888051047906e-02,3.465274396873938012e-02,-8.013819902761647185e-02,6.258625281631992332e-02,-7.515218623688592336e-02,-1.439617629681260447e-01,8.360988634249708062e-02,9.989230074074867752e-03,6.728882520354574626e-02,2.400272996125515229e-02,6.418834644363657915e-02,-4.774310838831168774e-02,-8.084571328322250061e-02,5.124471277025902105e-02,-5.469286406409323148e-02,-5.188451409645148532e-02,-3.468608228489606510e-02,2.619942986751502487e-02,-2.579046864127046423e-02,-1.419366661333421042e-01,-4.846686552510585250e-02,-1.645878879185822263e-01,7.898548444638991972e-02,-1.203627866871279373e-01,-7.830079787011616499e-02,3.123641969182142444e-04,-4.192354171653113470e-02,1.215492174783599083e-01,-1.170740036522796568e-01,2.017300794811599518e-02
1.940743279343811953e-02,-7.542324501953932836e-02,2.741668853111458581e-01,1.218787865265033576e-01,3.759870831263028568e-01,-1.824513200965175441e-01,1.632825154236292875e-01,2.630204598818484674e-01,-2.860568781097443114e-02,-2.556493038834811160e-01,8.113249191914331804e-02,-1.432588003106762820e-01,4.863750638178184621e-02,2.504080461635551855e-02,-3.107704486891988971e-01,-1.278181008157442018e-02,2.064481500729377708e-02,-8.351840872235966051e-02,1.221916416816650093e-02,1.456762425416797679e-01,5.930035275230453179e-02,-1.978612144347797475e-01,-7.114400731684426826e-02,-2.771019342495286211e-02,-3.307598800511728498e-01,2.635358333268379427e-01,1.693014039807955728e-01,1.921568409242883912e-01,-1.683742429950560171e-01,-2.855873223883330717e-02,-3.536731186439855124e-02,3.644144845116148446e-02,-1.293353076883964892e-01,3.337699436586423658e-03,-1.304588098682610275e-01,-1.076115494100885889e-01,1.184486847285829425e-01,-1.933842212797729637e-02,-1.070102128099468114e-01,1.100893214879879872e-01,-3.456402754097437913e-01,-6.309286798937472490e-03,-7.801681953007019721e-02,5.867384666579697483e-02,1.191774780751206214e-01,-1.565977313295176532e-01,5.936213901999760206e-02,5.204441285490549185e-02,2.765368101617566854e-01,-3.084187358138606658e-02,-1.014519758050608580e-02,-2.039986699998616593e-02,-2.255848168503353512e-02,-1.894761838186755365e-01,8.484114487647059777e-02,4.522838235921076977e-02,-2.296915665154389535e-03,-1.104649588065549082e-01,2.096788393029550279e-01,2.339234889421408503e-01,-9.384520532420032035e-03,3.255887267061517015e-02,1.198352404583014896e-01,5.271575586975378591e-02
-5.288509388777550002e-02,-1.036630839745466270e-01,-7.422240755923827094e-02,5.751455230665115242e-02,-6.520701151867631939e-02,-3.854956860939286883e-02,-4.489027083796651857e-02,2.683861966632694607e-02,-1.455097408116698410e-01,-3.931130401382944804e-03,3.929687027940910460e-02,-1.270121585278748133e-02,-2.339213634345307241e-02,2.105284021774138023e-02,2.558911754357551249e-02,-1.993683885425017732e-01,1.471627336973033440e-01,3.498339650476774002e-05,-5.740621090428017076e-02,-2.627901730090830695e-02,3.710110858957697821e-02,-5.306737540230332430e-03,-1.526876998952719777e-01,1.552129278890369557e-01,-3.757757301586616555e-02,8.578176810036820810e-02,-5.202063392028861283e-02,1.342935966544638038e-01,6.848043631270607674e-03,4.618202715388076973e-02,-7.851829332205016720e-02,9.105864607372071706e-02,4.764719364099682247e-02,9.777312174917705823e-02,-6.123566161799268159e-02,-5.080457284572655399e-03,1.795073057768139246e-01,-8.012791605972077735e-02,-1.027058301086555998e-02,5.669189221402216178e-02,-2.705518823777233565e-03,4.794552721944381202e-02,-3.064769235959705421e-02,2.789700200311760053e-02,-9.804416781352920385e-02,1.246599180163907583e-01,-1.896192643948904633e-02,-5.106341927103975886e-02,8.518648642793719139e-02,-3.469531514066861305e-02,-1.002620213049313785e-01,-7.939603096601315080e-02,5.212221662722825444e-02,-4.293099663457611292e-02,-1.001866652748884846e-02,8.198524666373085967e-02,-7.239980322701250470e-02,-5.483680405533397639e-02,-2.209668410137340805e-02,2.443369080512065514e-02,1.699262928157145927e-02,-1.502499727379031681e-02,-1.052273671358814298e-02,-8.000450314324357437e-03
3.096514053502423189e-02,-5.789497128925682329e-02,5.294823589188402124e-01,6.944668823760975773e-02,-1.279472188099950447e-01,9.794020452808802069e-02,-1.045075744344051497e-02,6.542460544841287584e-01,-5.239746923039120818e-02,1.709763889144231760e-02,5.407985120249893946e-02,-4.285238076826523024e-01,5.777865335274023212e-02,2.353791724564788246e-02,-4.252684908293388744e-01,3.463250725133985158e-02,-1.184116498930554290e-01,-5.433335135548000849e-01,-9.239003718926358522e-02,2.888567237087379391e-01,8.064338217988621660e-02,8.839108562136295533e-02,-5.286906107329744642e-02,-9.129927833608586507e-02,-2.412049278599915081e-01,-2.222165665916796540e-01,-2.727787579996693995e-02,1.796046576215677426e-01,-4.471414476627563750e-02,2.542819406604072963e-02,-5.720845324619613231e-02,-1.076118324597685749e-01,3.728387807319311770e-02,-5.354955370992199593e-02,-1.378486876240830328e-01,1.623604349530365643e-01,-4.148654551289420594e-02,-3.540634491332664280e-02,-3.731867636000087834e-02,-3.229651244303656243e-01,-4.790286728419747980e-02,1.553673428653995214e-01,8.247343967666909137e-02,2.473104370268147320e-02,8.298916293163064936e-03,1.447501975978929094e-02,-8.091954156339209447e-02,-3.013965332125451146e-02,2.690771786724117098e-01,-8.605417401472623129e-02,1.796783385733083035e-02,-2.110474037949141846e-01,6.219563857391879891e-02,-5.868364132366655772e-01,1.865562360235066249e-03,4.874682111841693866e-02,7.014157226715006521e-02,-1.184101164361814340e-01,-2.191806362283135190e-01,7.604851319638494811e-02,-2.325595483934126198e-02,-5.854798745899284645e-02,-2.681055785033680250e-01,-7.754054994127083933e-02
6.833509839333617997e-03,-1.242572553438769239e-01,-4.622946922636383266e-02,-1.003641334184478262e-01,1.350659180971724438e-01,9.018073128781936218e-03,4.263696542805624212e-02,5.375862625667048901e-03,-2.656715272566691557e-02,-1.303174133357326014e-01,-2.196450488090052541e-02,-6.755575615969744430e-02,6.449182222620625238e-02,9.637530060097139473e-02,1.011889541134936704e-01,6.851672401164271564e-02,-4.468515068830496151e-02,-1.038184520829814050e-01,5.431646354121993231e-02,3.703278457890262637e-02,-1.329136551602736194e-01,2.799690926207664896e-02,6.120085516422329314e-02,4.417119403478068397e-03,-2.755823059464510005e-02,-5.488120159648465779e-02,-1.087329131908211233e-01,7.562215313293618735e-02,-2.961141416659548303e-02,-1.817815591637820041e-02,1.302364532394233720e-01,5.147875994545048767e-02,2.545761775954585165e-02,1.062535141735162537e-02,1.073346143571868583e-01,1.407404487567161244e-01,7.849762427905020157e-02,4.301613885797473530e-02,-1.574710574975733690e-01,-1.132110100771555787e-03,-1.976961992244599675e-02,9.638738122396713418e-03,7.065030311017958531e-02,-2.058831858440997031e-01,-4.223869808076193694e-02,2.032577625895932993e-02,-3.307057194095346098e-02,-1.064859619944132640e-01,7.815525353693222876e-02,2.079341192301248711e-02,-7.300450124987833966e-02,3.297464669684415511e-02,6.155357034014410922e-02,-1.937815253636970478e-02,6.015650720820573533e-02,2.656628215475373075e-03,-2.509313649685946182e-02,-8.709457539022263939e-02,-4.411521056845692929e-03,1.125485712808339464e-02,7.314328358841476474e-02,-1.126080918850761413e-02,2.968158106150256201e-02,-7.245214157287960255e-02
4.305231717124704399e-02,1.838425595057294757e-03,3.578625540410877437e-01,3.435590080780789313e-01,6.220296029972196411e-02,-5.366748056248708820e-02,2.597361136992729080e-02,6.190880725684045904e-01,-3.516315232869615670e-02,-3.817963263481457536e-01,1.354192212705545260e-02,-5.831237169725606712e-02,-3.963454122865298079e-02,2.225630573531688916e-01,-3.073215798042000513e-01,7.419612570832408160e-02,-4.021188261118370522e-02,-9.881755959796444111e-02,-1.595127095740231093e-01,1.121321957432476341e-01,-1.713986106024511513e-01,-3.173892545976782914e-02,-1.524111473217053259e-01,-3.861986027062910137e-02,-4.961823958455564010e-01,-1.222903935403017728e-01,1.301747368926407245e-01,1.980293253023960587e-01,1.109063575037828875e-01,-7.031504126942812738e-02,8.471977337562999755e-02,3.833930725473784495e-02,6.133744122741646015e-02,7.655323452012728624e-02,-1.214827322927807540e-01,3.052334934229168906e-01,2.806680219069580540e-01,-2.100515056686408366e-01,1.137917939793445937e-01,-3.562220997721458615e-01,-1.410992568660873470e-01,-1.710225998071381037e-01,-8.888513946638541829e-02,-2.597839384022508288e-02,8.079515506490922427e-02,1.008441025291968440e-01,2.155783014971235922e-01,-6.263120176054466637e-03,2.408880730468633546e-01,-3.954000745181728005e-02,-7.695468743013619828e-02,2.302904758257909856e-01,3.491119036865811959e-02,-6.962527165222387460e-01,8.078974755207810055e-02,7.051202031312912843e-02,2.833431941448312230e-01,-4.330300770544964067e-02,-2.057310191807175392e-01,-1.099760307492626543e-01,8.077035753351567704e-02,6.729812418973127319e-02,9.416379198244176352e-02,1.042258355439193568e-01
-9.740160960012717029e-02,-1.480053761158107439e-01,-2.154974171970699265e-02,2.766032241078926479e-02,5.268896845730969281e-02,8.094998091300040222e-02,2.146335438590777842e-02,1.540111936546643412e-01,-1.671771377936444314e-02,-7.938493204398935910e-02,-1.264316372994495896e-01,-7.279356299994665935e-02,1.814476166877910385e-02,-5.100404697241331387e-02,7.640468618650622656e-02,1.116920384590083803e-01,-1.771450936535101384e-01,5.527165515241250215e-02,-1.759536215168853168e-01,3.086782638997580264e-02,9.206354963059083796e-02,-2.373066425057009186e-03,-9.621223839725573379e-02,-4.394363143591675097e-02,-4.037045493623193926e-02,-1.356876106862592822e-02,-1.526700348403331464e-02,-4.438233222940269306e-03,8.131883265651411799e-03,-9.110002011544200695e-02,-1.819515859302880609e-02,1.141782154803336197e-01,-3.107141319450999403e-02,-3.347326091185114788e-02,7.579841644279269874e-02,-1.574847100735075611e-01,9.623726007934793603e-02,-4.812573502671430026e-02,1.231399791208644470e-02,-3.450306977492814675e-02,7.151809082043883437e-02,-3.254090160792252884e-02,-5.071256618210271544e-02,9.761978355884987080e-02,-1.773899304265569021e-01,1.561204116284886732e-03,-9.802185857228269683e-02,-5.718850631325539391e-02,1.575621188253190363e-01,-3.308094727255010258e-03,1.474706580622992154e-02,-9.732671546543697483e-02,-5.392775555643969376e-02,-1.976856059858669856e-02,2.665665495495498152e-02,4.644378153136917431e-02,3.230336328419076974e-02,3.970779755038875147e-02,4.058533043292080617e-02,-1.423447869570807767e-01,2.727061065351353217e-02,6.131307351257569288e-02,3.100505693044397840e-02,-2.730066797187132022e-02
-2.872176208012918938e-02,-8.258905243815257979e-02,2.674523116464591066e-01,1.873476101684122541e-01,-4.189362387784599517e-02,-8.682748187216739189e-02,-8.619952636006081303e-02,2.336577539049096153e-01,-4.162296430357555893e-02,-6.952505197509024903e-02,-1.661241666530638775e-02,-1.138397543348541874e-01,-2.953087234242883496e-02,-1.175599707931489074e-01,-7.355439388610142404e-02,6.099923885130603685e-02,-1.636868693675907344e-02,-2.776888968770961919e-01,1.354180902645634246e-02,7.560412259699060555e-02,-3.514525758992695370e-02,-1.509490224074429635e-02,-7.019143834013494287e-02,-1.231285619232852686e-02,-3.081049056348167947e-01,4.910405396907344816e-02,-7.107145531170318276e-02,1.553825336432471116e-01,-1.621931743600155129e-01,-4.370822637726245324e-02,-8.199454959717147884e-03,-1.245530148282204125e-01,-1.480859681407896769e-02,-2.876167321225190851e-02,-1.721198612028024544e-01,-5.688265431326041538e-02,1.642577552877323155e-01,6.396600660209583733e-02,-1.002130479729460878e-02,-2.437927582912300870e-02,-9.934285825684287252e-02,1.916606368817318218e-02,9.322189528410740333e-02,-1.129549955108482134e-01,5.011151322592356794e-02,-2.820395552687373145e-02,-1.084759809220275581e-02,-2.254705266848922030e-02,1.178401687062821390e-01,-9.254782282086057577e-02,1.354487747429201742e-02,1.535372107686415744e-01,-2.371216389639402983e-03,-1.780330873759557453e-01,-5.170799000953772012e-02,-6.883134021965868314e-03,1.180348944303089287e-01,-2.749780200214295769e-02,-3.653902481289204168e-02,8.554761045375640360e-02,-4.153097773484372424e-02,1.161224642288625174e-02,1.528351008805087230e-02,1.027206337015170723e-01
1.615850155323172305e-02,1.043420591887992965e-01,3.796308995616372028e-01,3.599278867502779533e-02,5.951193904869340329e-02,5.980307272028438648e-03,7.611230500603545501e-02,2.355360324529918170e-01,-4.495770656377489488e-02,1.989959053556285967e-02,2.072476176546128243e-02,-3.385127273905877976e-01,2.372783191338308575e-02,1.308559218365119847e-01,-7.485688236349057056e-02,7.244589756785090040e-02,-7.980989998249626155e-03,-3.285273132742344560e-01,-7.358782393006023381e-02,-6.733996484621795897e-02,-6.998535938398349476e-02,-5.828491613211771866e-02,3.373055518389524859e-02,8.642482453130038642e-03,-1.989569801806353178e-01,-3.314953813560073126e-02,-1.779643982536116076e-03,2.158583650058719661e-01,-2.457216893069034125e-01,2.672498370216318600e-02,-4.079211964808139579e-02,-1.413814810136773403e-01,-1.809655443002970709e-01,-6.965787291969084694e-02,-6.442789421453343213e-02,1.856878416913916585e-01,-7.575398930349476825e-03,7.653600207889765805e-02,1.065855337740062997e-01,-1.923906752039118428e-01,-1.472100730772665789e-01,1.329062755771170390e-01,5.720269902455409061e-02,6.565053676476136080e-02,-4.946082044469776035e-02,-2.127313572623779347e-01,1.425555001183778092e-01,-1.208337557710496557e-01,1.990523621849085711e-01,1.781116319430136596e-01,2.460496070482563399e-02,1.666221954485237744e-01,-1.122912543720987616e-01,-3.610607123130273877e-01,-4.011231193896939995e-02,7.129162237780582723e-02,5.102017458441518438e-02,-5.950027176614428731e-02,4.784972051052200498e-02,1.498961648099338406e-01,2.104013741925746597e-02,-8.319889059832098754e-02,-1.701190658267176525e-01,8.241783680584961747e-02
6.316436867575624114e-02,1.624967158273666890e-01,3.252720366390300377e-01,1.093905890545704973e-01,1.496224060488272056e-01,-3.640298372811560240e-02,-5.453037538423948644e-02,2.826760773051295583e-01,-5.229401052905664066e-02,-5.055223875233103709e-02,9.949044593494958677e-02,-6.408206746102912410e-02,-6.042500329744120852e-02,6.656963394115109067e-02,-9.621578364593401378e-02,-2.074915421651979050e-02,-3.081595815384306769e-02,-2.905589043460712340e-01,6.223633383791650486e-03,4.196511711566133090e-02,-1.200624255988228389e-01,-1.834428546096146875e-02,-7.048169309848777153e-02,9.442430847868520105e-02,-6.933435552822601877e-02,3.376193764032627692e-02,-3.816567274636748636e-02,8.950513168858952040e-02,-2.517268375911531006e-02,-7.954947233060515044e-02,1.879433917446245716e-01,-1.685064524801903052e-01,2.354546546200104312e-02,-9.682330087691078113e-02,-3.771885046360775456e-02,-4.190398495362745307e-02,2.917350313467922257e-02,-8.484360782889897867e-02,1.316444476284637510e-01,-1.762995867306925077e-02,-1.837795568813696268e-01,4.229249070831775370e-02,-1.621680136887075586e-03,5.440782636957407908e-02,-1.364717203544193458e-01,2.438850089363488877e-02,5.286106938641801922e-02,-1.251252138266127356e-01,2.507182474624717328e-01,1.271680870701357435e-01,-1.857892432508477043e-03,2.028176518928210409e-02,5.311175917224891796e-02,-3.054077803199113372e-01,2.765193619434862769e-03,-1.130336873542369808e-01,1.175818813263312078e-02,2.028120842946800825e-02,-1.018769974974290810e-02,7.396322418298169332e-02,7.545995209939561355e-02,-1.198105073120534908e-01,-9.574000864055279628e-03,1.834050776724997518e-03
1.502348589151716873e-01,-1.368044878798350961e-02,1.921788747526889940e-01,7.315930838306301809e-02,3.324123913941812170e-02,-3.033538589376402403e-02,-2.789558312612607296e-02,4.341000435377364436e-02,-4.412546428074938173e-03,-7.243719929678851810e-02,-1.231075311466252459e-01,-1.146838697318807582e-01,1.119197506402978964e-01,1.285940082251569583e-01,-1.015108086328586345e-01,-5.022269943245398494e-02,3.612578347829427383e-02,-1.862148445368687066e-01,2.514420720465035744e-02,7.973083126976024393e-02,-1.019794190280260970e-01,1.868903564753718674e-02,-5.716316671417245865e-02,-2.908465639242052356e-03,-2.221850032278982756e-01,1.680997376564215551e-01,-6.455655429857162786e-02,7.928338705533392872e-02,-3.430473897098888780e-02,-8.181251357295363236e-02,-3.182106801601888163e-02,-6.230411402008971533e-02,8.671481182338237892e-02,5.885155198977436858e-02,-5.538726370533605947e-02,-1.770601463570026929e-02,1.567505421830328871e-01,3.117026132435464156e-02,3.716521162541542439e-02,-1.224645341642702050e-02,-2.048236125628050686e-01,2.416144034083866562e-02,-4.140649719153499664e-02,4.889037732190752022e-02,7.776455637006544908e-02,-4.909813011902913055e-02,8.353845812966515655e-03,1.304837196429058099e-01,1.199303682069924604e-01,1.262053227691522228e-01,-6.430235838374401269e-02,-3.563920549294441464e-03,6.588446256769848412e-04,-1.518064890245345300e-01,-6.302320253195337063e-02,-4.355650859078591397e-02,-3.960484213553030347e-02,2.487837947675044029e-02,-4.888311542301784426e-03,2.338528404940330152e-01,1.347398840298199285e-01,-7.342200832013361100e-02,4.019789255116905380e-02,7.551617215927787508e-02
2.274637044619825729e-02,-3.477386597554990577e-03,1.921996433906152657e-01,9.969978853780357697e-02,-4.792502063961560921e-02,3.033091398116270071e-02,3.419678086054208505e-02,2.177348944884371362e-01,1.814046393145039848e-02,-7.637723484781869937e-03,7.258560749556841607e-02,5.100369013735705365e-02,3.034107183411267547e-02,5.938568134791336744e-02,-3.971378796702994263e-02,-1.055355244629236841e-02,-5.338083039846125422e-02,-1.610801416472447678e-01,-2.178738273562985939e-01,-2.608855767450990806e-02,-2.602711831391575636e-02,-4.962627795211627113e-02,-7.779869924508754642e-02,-3.158681104988380478e-02,-2.290506694661322007e-01,-4.774143761125287933e-02,-4.002044910322761356e-02,6.884097787880431862e-02,3.259069140398813957e-02,1.357171671159331829e-02,1.591465997716481721e-03,7.566273735164589891e-03,-2.813290871496682954e-03,-7.714945543229080605e-02,-4.852775151267382098e-02,1.162337341971778487e-01,-5.937850257041036445e-02,6.409461441190618392e-02,8.106385776168359425e-02,-2.169583537533481543e-01,7.325601065580001660e-03,5.046439882713697278e-04,5.458363781275270971e-02,-7.963854454060027843e-02,-1.520487645743950379e-02,-6.271586926785419069e-02,-6.144590868853029575e-02,-1.349112238163857613e-01,1.508507204487346820e-01,-7.309798644815274082e-02,3.485840863962884340e-03,1.357451257978070820e-02,-5.574520765754378132e-02,-2.542174386711229528e-01,6.884246499607166170e-02,-3.515762136651435360e-02,5.468660686133225424e-02,-6.007435429191450987e-02,-1.104901140015179528e-01,-1.518006902433995629e-02,1.585875896053973444e-01,-6.617004183023851571e-02,-1.649993520705788641e-01,1.501493045389364345e-01
-2.414137390740722644e-02,-1.129440232475382722e-01,4.997564751286359130e-01,9.388518319621991237e-02,-9.041503822557317438e-02,-1.172661148447157881e-01,2.718355592914654603e-02,1.636171106649079443e-01,-6.414298366158603659e-02,1.563328869318708625e-01,-3.962611684010300395e-02,-2.225589051578905075e-01,7.218631520829410508e-02,2.376660999320959755e-01,-2.718661554975290717e-01,-7.678422247706091774e-02,7.713669390586466723e-02,-3.615861332990193966e-01,-6.039537466533385218e-02,1.333303126683007267e-01,-3.822581897965236699e-03,-2.253679951797365327e-02,2.624940935371182157e-02,-1.138290132841548487e-02,-2.908665632249265443e-01,1.360574595289599231e-01,9.920713321737595347e-02,1.526503336968401126e-01,-3.177281869126549751e-02,1.743428714228884013e-01,-2.074956348013939217e-02,-1.931408997554748957e-02,1.320171707845368102e-02,1.104885391577747483e-01,1.059686691531148833e-01,-6.260053788586125711e-02,1.665437412020338015e-01,-1.104177331832639775e-01,-2.347314382519940720e-02,4.943283341314252954e-02,-1.665841919942575577e-01,1.253400730037227961e-01,-6.506155781943950833e-02,-3.945617690570273062e-02,2.639839331972195988e-02,9.898591631736268492e-02,7.920588316750334923e-02,2.070164664838207436e-01,8.029186341537371263e-02,1.916989762477053216e-02,1.969153396215562665e-02,5.632411645445854070e-02,4.045524632725363418e-02,-1.906573073011704478e-01,-7.131295363325901304e-02,3.210979267195190889e-02,1.882804393912808349e-01,-3.065508254929429771e-02,-1.838831948587282480e-02,3.324378405560893257e-02,1.306211775294622082e-02,-1.241613358019409558e-01,2.459190699150791415e-01,-9.559018820930456628e-02
4.881324677388859342e-04,7.278455733082010715e-02,3.328857727728825600e-01,1.786167268240714534e-01,1.854233164300433945e-02,1.597277185607892669e-02,7.983126921482210851e-05,3.623794436741736291e-01,5.218528826773460860e-02,6.287470565674449507e-02,-5.014912380283353954e-02,-5.979680866846669857e-02,1.675527488065595150e-02,2.084250487202333746e-01,5.772810328982205114e-02,3.114201450717719866e-02,-3.159141255073685123e-02,-3.219807211920160395e-01,-2.091707474062517308e-02,-2.318303899668438736e-02,2.724684830354984211e-02,-1.474020937292258278e-03,-2.763019483099554696e-02,8.285577700123909761e-02,-3.072895987802090056e-01,3.227272773708949466e-02,-3.092114781893939846e-02,1.654082341186090543e-01,1.773715868223803629e-02,-2.472898057952688591e-02,3.328230428592404005e-02,1.371330923245701362e-02,-9.280528336282477253e-02,1.731971825622494535e-02,-2.936392625638812454e-02,1.966682955633695939e-01,3.962436575469698019e-02,7.177231554192749696e-04,-8.667959340065926888e-02,-1.933539125967886629e-01,-3.096693892236852819e-02,9.392227788344292838e-02,-3.833933668669306516e-02,8.356727058176556880e-03,1.592759597634873028e-02,1.547652809126415750e-02,6.390458167743394424e-02,-1.366607917349685619e-01,1.524112248138434211e-01,1.767574850660698360e-02,-7.542252910137535460e-02,2.310070094358272208e-01,1.336895304362267084e-02,-1.788584985697179996e-01,-5.921838462639390788e-02,-7.369048407250215760e-02,1.466482339309075345e-01,-1.256339483592716633e-01,-2.919121709384140187e-02,1.121693318910685529e-02,1.775961839748121662e-01,2.673233587828318172e-02,-3.169030333774073421e-02,-8.214478871491025236e-02
1.659996717843351677e-01,-5.865368681244078480e-02,1.524502249222845496e-01,6.428270882364169395e-03,1.045635120310231814e-01,-3.258475417700491122e-02,-5.788673900316047144e-02,1.842855761592675223e-01,-1.537614867251687299e-02,-3.988037959264665450e-02,5.594065033549063676e-02,-4.365322496436337130e-02,7.397262182252214990e-02,1.275968151349606838e-01,-4.175809427017403153e-03,-1.193653074741338888e-01,1.243500038721359890e-01,-1.709678187462288779e-01,3.151591028141226963e-02,1.271159253943822121e-01,1.079271332927898147e-01,2.137848703666512737e-02,3.250268060150478949e-02,-4.337295199428679859e-02,-1.294576560086926620e-01,-1.190247346585556337e-01,-5.480614471022896700e-02,1.836516415451114673e-02,-7.522640750944920018e-02,7.740548859399686010e-02,2.384824908568319024e-01,1.459259381308218931e-02,-1.221062151159400255e-01,9.423645572114751345e-02,-5.239654920090239948e-02,5.020892848248549589e-02,8.311623580222400609e-02,-9.336482325546460737e-02,1.650948020378914874e-02,-1.166287667263216365e-01,-7.937751750542876295e-02,1.554633971230762364e-02,2.972387118542195970e-03,1.504303399247278270e-03,2.071564850633478283e-02,3.257904026912255419e-02,-1.290209532261653476e-02,-1.074807385912763674e-01,1.177634657203349977e-01,-1.080960932680668229e-01,5.717854152163514073e-03,1.192139355133588069e-01,4.786267927975246250e-02,-3.036402379324434353e-01,-6.469093268797676544e-02,1.502857157775382320e-02,9.132846900539659529e-02,-2.351884759896647262e-02,-3.186057527948526862e-03,-8.454300780072673827e-02,3.937595682628734078e-02,-7.431792022699836020e-02,-1.028635034955895228e-01,-6.440948636206773881e-02
6.536125373144395512e-02,1.356455986627426447e-02,-4.406295281100452987e-02,8.644468344270624105e-02,5.655138382741529274e-02,-8.203356141915298105e-02,1.621428054377825057e-01,7.734691151687156374e-02,5.507450177089918963e-02,1.067640314843118776e-01,2.234052010973817948e-02,-2.053366616514035736e-01,-8.256735975003570704e-02,-4.702214564468127495e-02,2.198232057459527655e-01,-1.822168317323180076e-01,-5.341970669068810129e-02,-4.695729568919663338e-02,5.312994255256222459e-02,1.557550765235051204e-01,9.641656291327009576e-02,-1.554088365915413938e-01,-3.736091455988025094e-03,9.810957923301046046e-02,-1.739928566719801117e-01,-1.276851804359429021e-01,1.878628083402339999e-01,2.133507217634545983e-01,1.314959757019375786e-01,2.802322917615704748e-02,1.011664965927690785e-01,-1.181461227547568431e-02,1.134517509585368511e-01,7.949039845123954950e-02,5.158398759779543596e-02,-1.728127045617538493e-01,1.450086915660563081e-01,4.965452867504548118e-02,6.794274435747944818e-02,3.630866144957118902e-01,-7.568203929234158522e-01,-6.014653227161271820e-01,-6.627934909821174558e-02,3.532037865642803122e-03,6.200649880428540928e-02,4.292893136461134462e-02,6.340588639756674638e-01,-2.061410084859492328e-02,1.484903760809909157e-01,5.381068995861452466e-03,1.051087780955646117e-01,1.133093821367400639e-01,-1.056446697051790645e-01,-1.595351229998685505e-01,1.095536071790182836e-01,-8.381562159475410001e-02,8.235913748829994940e-01,-2.301638185057843997e-02,-2.230247427914892888e-01,-1.183951966684286677e-01,2.749252388950584880e-01,-1.330220906997685582e-01,-6.435423772060919756e-01,-1.175975842973531194e-01
1.106873638207980376e-01,4.130023391504775154e-02,4.387073489174823093e-01,4.557089936354048465e-01,3.019648239311664706e-01,8.356992332189873418e-02,1.257372586398060321e-01,5.193944848487337396e-01,-3.344106314445760564e-02,-1.428167957224030504e-01,6.990962752015368598e-02,-6.072141087262694636e-02,6.220588867067338573e-02,1.627661650062794674e-01,-3.270432622803121081e-02,2.683244171832923838e-02,2.661681002633364823e-02,-5.535352992446289644e-01,-9.142652595553793504e-02,3.226438039088069115e-02,5.813678266566539576e-02,2.257111626624730416e-01,1.359465525731855251e-01,-6.411751279130732672e-03,-1.896209214957862432e-01,-6.285212299763165422e-02,-4.634037339405099043e-02,2.740006594962295372e-01,6.179985977001718062e-02,8.259295291287166094e-03,-2.182131454936172762e-02,-2.587431069068697048e-02,-1.933718997010030749e-01,-1.467570184437527389e-02,-1.285720766455784869e-01,4.661327027979272342e-01,2.462455725113120164e-01,-3.691706832410506650e-02,-2.153982281060981899e-02,-3.570122180664537237e-01,-3.783745713470322292e-01,-8.168209692144395850e-02,1.135440427063135610e-01,7.771193778405706409e-02,7.945416540127162031e-03,-4.337493453631091622e-02,-1.348779756337057656e-01,4.478123503618164358e-02,5.263380085760488436e-01,-1.490920005374843649e-01,1.188729836256026129e-01,1.816865893620246974e-01,-8.333896129100738792e-02,-7.083250440610666665e-01,6.435416873866588172e-02,-9.032229864474997094e-02,2.245532867620883277e-01,4.712888884652961102e-02,7.038231361887134496e-02,2.606403963923480394e-01,3.828116823069935837e-01,1.893412055769155278e-01,-4.176211461922458290e-01,6.926174804570057499e-03
4.363595588818477977e-02,5.381726240980948955e-02,8.070420883576816529e-01,-7.360910741713512506e-02,1.102775184838414191e+00,-2.732759071186737290e-02,1.278596407558750259e-01,7.687615062929424870e-01,-1.227410273127119839e-02,-7.629580640206619080e-01,1.828984837666384339e-02,-5.939218525704981211e-01,-5.680657085584729649e-02,2.910125507715584647e-01,-4.136550313832399461e-01,3.971973930697936250e-01,-6.458632422660863515e-02,-3.196502760694902578e-01,-4.553775578269962376e-01,-2.417198417483812020e-02,7.139932322726377789e-02,1.568737194402327617e-01,-4.232513451398945553e-02,-7.769444870034473982e-02,-7.962880585036485881e-01,5.752687930700178809e-01,4.250993220302210635e-02,6.732573618993332731e-01,-4.208728529114255101e-01,3.537728129673445993e-02,5.612144012894793033e-02,-2.903525568410644450e-02,-2.444257573803059191e-01,-1.359265860684750193e-01,-7.039329288522089279e-01,3.980537556894072071e-01,2.669979486371198418e-01,6.241862855123853776e-02,-2.877171187340484340e-02,-1.188899477691935491e+00,-3.430053555289545031e-01,6.573694981852313823e-01,-3.274584650803152863e-02,-3.182714882562453357e-02,2.371047765024771048e-02,-1.020573197011058753e-01,-1.031970627764671855e+00,1.572734964811643710e-01,1.106538712724890239e+00,2.422614529427489366e-02,-1.192289673405457634e-01,6.133157078628697079e-01,-9.779644132928760891e-02,-1.187693644855276620e-01,-1.624037453854085544e-01,2.315827126175507705e-02,-1.978732797033415369e-03,-6.049312970475964613e-02,4.006255598073327762e-01,9.450556779248479033e-01,4.897013614706700602e-01,-9.324832817794776255e-03,-5.756458132910713399e-01,4.145034718890013709e-02
-8.651454691212536255e-03,-3.885321358931147218e-02,3.560210035119171779e-01,8.944780750141108350e-02,4.839468496667237440e-02,-1.078567782341831455e-01,3.907544606511849372e-02,1.753500346617851424e-01,7.560358552045222565e-03,1.054745490968259647e-01,3.682019011948892834e-02,-2.221034702536558159e-01,1.181786431639591031e-02,4.474016254698085643e-02,-1.595469043402774831e-02,2.755018785731186762e-02,1.487886143414307236e-02,-1.239976939234925940e-01,-9.968904883938865466e-03,-1.663468041562722322e-01,-1.085149652848324819e-01,-4.648269397697815664e-02,2.350460989145228274e-02,-8.548026402929861586e-03,-2.843683681656178353e-01,5.808081090153437761e-04,-2.992699997168324008e-02,7.342521294934706289e-02,-3.919227509542475008e-02,-2.515081754279421475e-02,4.521143240178757128e-02,-4.462926383416212367e-02,-4.985936763077101347e-02,-2.698103578938090830e-02,-1.398467359968729451e-01,2.467387884662310960e-01,-1.742898177865096626e-02,-3.549146303246168005e-02,-5.870330738732924651e-03,-2.512417571277562045e-01,4.675253710389111472e-02,2.093128367832499878e-02,-3.061445393338673576e-02,-3.904387320836439496e-03,-5.826531063871275007e-02,-1.591605483858531470e-02,-2.152972266655269439e-03,-1.749725889327167615e-03,2.185005127368243316e-01,2.546809756169782918e-02,5.809294922695663888e-02,9.008541329802481623e-02,8.269732065390842171e-03,-2.220127988907687200e-01,-4.613136778086759926e-02,-7.530086961273736723e-02,-9.002117634294808102e-02,1.126817897297928972e-01,-4.688990242906270617e-02,1.209532186083216582e-01,7.507219777223626822e-02,-9.584580946364124054e-02,6.969999391976694492e-02,-4.683415776224363752e-02
9.565611221398852282e-02,-3.760488578493643378e-03,9.474548710103319893e-01,-2.178035010079756029e-01,-4.234615066561161489e-01,3.811244711908623461e-01,-7.231614186157184210e-02,9.735943408449971859e-01,4.099552382033644360e-02,3.736874453940116081e-01,1.159353833264293032e-01,-4.289251380081476883e-01,-3.320874550028505429e-02,3.519602170053209300e-01,-1.160358028460322988e+00,3.033799187307381628e-01,1.766946946030606078e-02,-7.509285042958432355e-01,2.078386413796023610e-02,1.244697792065683345e-01,-9.274759122039180625e-02,5.620916863595651902e-01,-3.606101160817105911e-02,3.013253985216509528e-02,-2.377952133802584134e-01,3.604405854929766950e-01,5.805955441777483489e-02,4.080014303944330400e-01,1.117323282325182743e-01,1.100454124587581795e-01,-3.730778560630850643e-02,5.761965966272255407e-02,-2.634129048147725860e-01,2.901240433043325226e-02,-1.244663734600240657e-01,3.646660780400868829e-01,5.895373861791811804e-02,8.210053555338671025e-03,6.529635542813261306e-02,1.137757213581929855e-01,9.787498546263544430e-01,8.564226578618179264e-01,-4.058361355404779131e-02,2.412313019122571279e-03,-2.741429311719602649e-02,8.553235469697130500e-02,-7.394886017737765105e-01,-4.339007008406010196e-02,-2.238289939837710407e-01,7.624209943569230929e-02,-9.012315803428897973e-03,-1.127349848797095239e-01,1.276194581945981621e-02,-9.464617327424752480e-01,5.593157445409734085e-02,1.203561624039692357e-01,-3.349699784028941085e-01,6.477154362820036759e-02,-7.695292586474574703e-01,-3.623456130441184975e-01,6.548996170828039198e-02,-8.115434695347351068e-01,2.408890631698369089e-01,5.332034025258294840e-02
2.432051933666249666e-01,-1.166560922798407472e-02,5.207707462398843967e-01,4.670092168264160237e-02,-5.410684693807478463e-02,9.804456637984786116e-02,-3.503979392699693718e-02,7.482309368765448221e-02,1.250403871930353406e-01,4.414769998715992877e-02,-2.118537820584857068e-01,-3.859679363165334776e-01,-4.553828087647200651e-02,7.649657348137184343e-02,-1.931637060337167699e-01,7.233707338493651495e-02,6.917599055653894657e-03,-3.543919194812676920e-01,8.527420036197153053e-02,5.927927376862741904e-02,-8.282394945182611212e-02,1.449065841890115336e-01,4.952274481558289337e-02,-1.900561364894058636e-01,-2.497280997280723613e-01,1.236116323832046199e-01,-3.628936949157700320e-02,2.159181430713605354e-01,-9.922867738806791238e-02,-8.979730059322689473e-02,3.081829172990606033e-02,9.001181978331762590e-02,-4.808041192078878201e-02,-7.384064494486521080e-02,4.606042424429965948e-02,9.087745458675347554e-02,1.468209010299487971e-01,4.515972498761131743e-02,-2.260624580458359401e-01,1.595631070078827873e-01,1.491369534558136534e-01,2.035623916436945235e-01,8.277566454474213561e-03,5.270678682607281285e-02,2.429185928191756466e-02,5.105264592650175098e-02,9.290745058448358906e-02,-5.917756664202505901e-02,-2.054728841219376212e-01,-7.606263777283339689e-02,-1.060136642786752292e-01,-1.103072210502684253e-01,1.351050237549218935e-01,-1.128504723602015841e-01,-4.701831286055330877e-02,-3.617268923723211682e-02,1.295401175337733135e-01,-4.970533949170083399e-02,-1.175790826123589150e-01,-5.785012494108322106e-02,8.808332459332995912e-02,-1.126671454225320335e-01,-8.049745452946023561e-02,-2.019512125603328476e-02
3.371974035087702548e-01,-1.483524872135855328e-02,1.006623509555633511e+00,7.330197437220642431e-02,-1.228674642075193280e+00,4.131640080292348638e-01,3.977033147199790508e-02,7.312627764617758430e-01,3.711189747239140163e-02,3.979486864586670447e-01,-9.359334163855449751e-02,-1.564754962976509789e-01,4.915710386189663800e-02,4.695983196336752097e-01,-5.466647886813306156e-01,2.331215899608982955e-01,2.007532865168273062e-01,-1.198617104367008190e+00,1.040149535952453463e-01,4.618401339538008021e-01,-4.032901287683952202e-02,6.189856298711260418e-01,-1.651313866410039355e-01,1.048564637301064445e-01,3.156607201678184316e-01,-5.120419219115960319e-01,-8.356852446693122105e-02,1.221084246271823964e-01,7.165254293228583427e-01,-2.190405199459957361e-02,2.779134144988476551e-02,-4.334524427249383111e-02,-1.526501924449273906e-01,4.105882820961541391e-02,3.753531479352346101e-01,3.227466425307866649e-01,3.555307587090020260e-01,-9.537969537098890671e-02,-6.572710377444496155e-02,1.239791288369972710e-01,6.310753576530281350e-01,-4.043405000430686652e-02,5.739087541593069358e-02,1.984438475492079912e-02,7.261527104059926734e-03,2.747955147954299262e-03,2.590280875333227373e-01,-1.340013488352234314e-02,-2.969070629141072337e-01,-2.987648859132324003e-02,-1.854445172292927546e-02,-6.125220052260137160e-02,4.591587477777532220e-04,-1.271878074439577899e+00,-9.647861295628572600e-03,5.308334179623885873e-01,5.154734176981707883e-01,1.026482132687514537e-02,-1.336737619519943188e+00,-1.004811723660522516e+00,-1.324332732966460868e-01,-9.031503578516831832e-01,1.713704942602956305e-01,-8.790338244319978456e-02
-1.008358824220383226e-01,-3.399845841175656164e-02,5.481072235867856524e-01,1.148641553195071663e-01,2.029695117564031537e-01,-4.286089332804750990e-02,6.496659588012469733e-02,9.535922902626602082e-02,-3.017316175612300838e-02,2.584947350148985093e-02,-1.310674854244407717e-02,-2.428562870714586763e-01,-3.264002821116725878e-02,2.585233559805653059e-01,-1.012353509547685437e-01,8.327807954747148966e-02,4.654783687492530103e-02,-1.943416629193081835e-01,2.164028999361580080e-02,1.027479281015328122e-01,-4.119195348789011536e-03,-4.237196733391908332e-02,-4.868042359377895700e-02,1.429058769301836535e-02,-1.140977366567061668e-01,1.587857311788728673e-02,-8.603814708721699289e-02,2.548259352821026225e-01,-1.089004159970167196e-01,5.298962783068617705e-03,-3.249584579176383308e-03,6.362253185286846635e-03,3.527115645029441776e-02,-6.364631935656356321e-02,-1.333010032959185964e-01,1.675611656999252963e-01,6.043771055640708052e-03,-1.059350743860076466e-01,1.400887819720406380e-01,-6.443339393247178581e-02,-7.970521052645761217e-02,4.812935465285891889e-02,-8.198285406698360700e-02,-2.287758759831360830e-02,4.500846829141363914e-02,6.776335686065211583e-02,9.433420624549337941e-02,-1.906199228618149222e-01,6.708971244513618759e-02,3.534557728798062154e-02,-2.683385908195787956e-02,3.522733568562099737e-01,7.050610335455960442e-02,-2.660352653306328752e-01,-8.400931377225609453e-02,-7.645231988358089543e-03,2.564515925139451147e-01,8.517697161563425601e-02,6.629879823763661084e-02,8.394055376337443419e-02,5.655114902491897161e-02,9.004474864873403261e-02,-1.435159457217498324e-01,-3.976129888393099832e-02
2.253194381537973467e-01,-3.197773672953493906e-02,-1.466121826922274440e+00,8.380884051006652902e-01,-1.075464777632268554e+00,1.311734701296595640e+00,1.046239343790808102e-01,5.444798604760869853e-01,-2.311684301125642438e-02,9.727652904724112259e-01,6.657740080371610247e-02,1.031225299696519215e+00,-1.359645182639976080e-01,-1.081401308051047616e+00,1.572865998328510928e+00,-1.112969837340376689e+00,1.093107731574369801e-01,9.292016338563863220e-02,-8.797188814640527488e-02,1.067402214220948969e-01,-5.428540801125947279e-02,3.468639541972295404e-01,-6.133947568273905721e-02,1.171028615298760206e-01,6.586471232559554245e-01,-2.059784277416106146e+00,-1.120478809970461113e-02,-1.622466783342251695e+00,8.310242104244469630e-03,1.536439049308750693e-01,1.104827943644561862e-02,-1.363645823727799473e-02,1.868965572101543571e-01,6.788185989277745191e-03,3.946027756763872962e-01,1.903825661064300068e+00,-9.054907148554508511e-01,1.024190031504436521e-01,-4.029673158150545720e-02,-2.966483039162437940e+00,-8.978813405625816202e-01,-6.632942955543242869e-01,8.168082256380783390e-02,-5.473562879799193093e-02,7.035430475313297904e-02,1.382011948567301585e-01,1.737063690072294220e+00,2.841245721051785869e-02,2.458840942251002415e-01,7.744722405357230832e-02,7.496030691373087307e-02,6.217560910517613282e-01,-1.162039106132430749e-01,-1.422266416618290341e+00,-9.646951852195119470e-02,-4.532038467890590616e-01,2.683378220323476837e-01,-7.564633634073476831e-02,1.123591539947164097e-01,-8.969634376466535386e-01,1.344896880082691037e+00,9.503766632977310724e-01,-2.027828525966825168e+00,-1.425923328790542344e-01
1.862323991380558652e-01,1.278214793915665240e-02,-6.064046841539135757e-01,2.485388524760688556e-01,5.783000667373573433e-01,1.970111107530763350e+00,-7.571828747439555973e-02,1.803435734195665274e+00,-1.222345454091633143e-01,2.468699662514656570e-02,2.377492016142724804e-02,5.812450810533238421e-01,-7.821828218046446290e-02,-4.660177860406397032e-01,1.861328305283042273e+00,-2.164233602721564731e-01,9.468755715798259781e-03,-2.308184937667348557e-01,-8.099143334041095654e-01,3.576796193585884409e-01,7.128012513349084311e-02,8.632722694207818348e-01,1.577109488066864851e-02,-2.958166365524271535e-02,6.018025606763641733e-01,-1.446575456526591585e+00,-1.121763897484769623e-01,-9.566788901978260373e-01,-1.409494338460794971e-01,2.807506022681389296e-02,9.553276149839170020e-03,5.086170237699211977e-02,-2.261512901242136442e-01,-3.984719308782826847e-03,-5.743245016936007197e-01,2.798711416532471130e+00,-4.874079390326085393e-01,3.278454225492249095e-03,6.233331771471586902e-02,-5.380559777680262279e+00,-3.982084690314610653e-01,3.620322698774008363e-01,3.703208154840595401e-02,-4.920149733785558060e-02,-1.217952050694685318e-01,4.957068012080442787e-02,2.497643944846854869e-01,-5.973505069488437621e-04,2.722922621364887164e-01,-1.475835228685937542e-02,-6.216574668651549812e-02,1.602417645879754549e+00,-1.836309259402692587e-02,-1.854803533417274330e+00,6.917336861687750291e-03,-3.841908983281078771e-01,1.804425570761176989e-01,-1.012794063609471912e-01,4.510263394330547571e-01,-4.559758893651051359e-01,2.445424790563917927e+00,1.012903849812562651e+00,-2.970611087970777664e+00,-2.652444502497919993e-02
4.735643140944205409e-03,-2.966672403989588369e-02,9.059011616986548665e-01,3.326843463929996525e-01,7.239745975221748564e-01,8.901895078516286475e-01,4.862282686867855017e-03,1.179370454988992956e+00,2.943449889751108273e-02,-1.112046427996881276e-01,2.972896234907417348e-02,-7.501083133035604256e-01,-7.507473226279658129e-02,5.759589070422734686e-02,4.328349289569101699e-01,9.656649851522426664e-02,4.697205079315954629e-02,-9.073077767941950533e-01,-5.673963111662023717e-01,-1.527053365750316583e-01,1.480357493303007255e-01,1.678823216258117368e-01,4.749426476511736488e-03,1.113114516425844636e-01,-3.668024634763246139e-01,-1.721498819272000991e-01,6.831852071629539169e-02,1.869791125549796207e-01,-5.600871281705674942e-01,-2.840254003320610236e-03,9.680430390869772250e-02,-6.644524040782391616e-02,-1.548535799366894949e-01,-8.773519758715262948e-03,-6.091728196054403410e-01,1.389690502630035240e+00,-6.037138952708073769e-02,1.378212789539592920e-01,7.272021336932944779e-02,-2.560771053818050369e+00,5.029438327759058053e-02,6.062909724866465400e-01,4.788270892191503342e-02,-7.447874024870293486e-02,-6.103403197018759246e-03,6.447974813210445577e-02,-9.875888224205024712e-02,7.540972729217046422e-02,6.014094819130765268e-01,2.293780211476820555e-02,-6.358435395587955230e-02,1.113307534930600085e+00,2.921808833438139380e-03,-9.391371903084654305e-01,-1.252408829456645445e-01,-2.246451660271338024e-01,5.057092745879816498e-01,2.663449692930004720e-02,-5.288776787610287300e-02,-6.496413572742937292e-02,1.322777440976611762e+00,-5.429532484752704752e-02,-9.992729344859594409e-01,4.461886778041657120e-02
-1.473136709867681193e-01,8.962278154365871385e-03,1.165521355293640537e+00,-1.344202177519575048e-01,4.480502432023576453e-01,7.015597570912579517e-01,-4.320025541910704064e-02,9.399663127406293617e-01,6.313794718714917098e-02,-2.449378827333334729e-01,1.009465509911331993e-01,-7.036861363948091475e-01,-3.428485665965810836e-02,1.649598623087436267e-01,2.157032947289173538e-02,4.764137519370790219e-01,-3.232974693551721873e-02,-6.002381696145142609e-01,-4.779128677872303554e-01,-7.428874518098056712e-02,7.242985666945885026e-02,2.475444690471363396e-01,-6.016193587686446964e-02,-1.056118652052362994e-01,-2.728774164294192617e-01,3.900707642449255386e-01,-9.463869618290328412e-02,3.818959101274668755e-01,-7.543678186166028476e-01,-3.352148536012702212e-02,6.425957471838039670e-02,-2.360793347982136081e-02,-3.186766344471724799e-01,-1.157465699277950150e-01,-6.170807120252561617e-01,1.722424901730107649e+00,-2.334733928428095184e-01,7.730545503925244366e-02,-1.088439570923168363e-02,-1.900363049663730486e+00,8.380617349198874466e-01,8.395206395699628121e-01,1.825329732706191393e-02,-6.819112622973001747e-02,4.429770734435353047e-02,-1.154515748085807592e-02,-1.054981912522934051e+00,-1.282517289558714468e-01,2.564815138499546565e-01,2.982305555681656270e-02,-6.381034131471838289e-02,1.391342161172931080e+00,-1.044319032018891091e-01,-9.989112481024940982e-01,-1.734415169750433069e-02,-1.631048640195976174e-01,4.554309399918497758e-02,1.299092968636842427e-01,2.073898236912853910e-01,-2.331173627232771828e-01,1.166725229421387233e+00,-1.718812209588869433e-01,-6.199276862352279815e-01,-3.201595522768696522e-02
3.288926075168946417e-01,4.357725193196452379e-02,6.693734415412427863e-01,1.659262866780336354e-01,-8.774526159652140667e-01,6.250418443336143159e-01,-4.804495946609184387e-02,1.475876646654290802e-01,5.984644949683604748e-02,6.501660476617356910e-01,3.451145280771712731e-02,-5.785241302680156350e-01,-5.762140374730148618e-03,1.330564878312769650e-01,-7.388227642304119325e-01,2.484009271970671617e-01,-2.829215468320582169e-02,-8.914885462906725344e-01,2.991921152417093555e-01,-2.479093256188552030e-01,5.628776127106980805e-04,5.714001054654219702e-01,6.990892634874831812e-02,4.318758527616036597e-02,-2.112110800415571699e-02,-6.216745734529409428e-02,3.587494559273728123e-02,7.237210571820874849e-02,-4.339675981335334165e-01,1.370729308655069603e-02,-1.236177268715547006e-01,1.025725418874824935e-01,-1.062254169124948328e-01,5.568815222576400936e-02,9.680193085445981584e-04,-1.217045242829478818e-01,-1.674616559599119980e-01,4.431576050497020719e-02,5.819255250961135294e-03,2.911355418097377745e-01,6.953819336905053827e-01,5.274362878141654054e-01,1.317709134240239999e-02,6.792160394967791670e-02,-3.777066297317341684e-03,-3.968581762828126075e-04,2.439852015147041531e-01,-9.999187131569833853e-02,-1.266116384360346681e+00,2.977836663504057624e-02,-5.475062897245011953e-03,-5.381934403829627955e-01,-2.840943399738243141e-02,-2.877065531809773757e-01,9.589392304831113878e-02,-1.173297180150345009e-01,-9.289047692299101655e-02,-3.029493642979936771e-02,-7.885358061604916813e-01,-9.181437230132114546e-01,2.370583196560177852e-01,-8.221154071695172538e-01,-1.917143614753879788e-01,1.925843154610348135e-02
4.554847964881321709e-01,-1.211609225493026770e-01,1.450330441392993830e+00,1.219466063918551481e-02,-1.018198219683104505e-01,1.054323145234353776e+00,-3.145807133738964118e-02,9.616042832986292366e-01,8.007346493741016036e-02,7.829696979397159085e-02,3.615128914894406159e-02,-1.132617335399155767e+00,-3.407231905032743341e-02,5.169906330311794251e-01,-4.742001212191258169e-02,4.604179745421152492e-01,-3.064481048621576706e-02,-1.054485778441493826e+00,-1.244508536424304007e-01,1.112393474094383189e-01,6.524829249036090406e-02,7.827968545282879553e-01,3.135898687813951785e-02,-2.439108041521541662e-02,3.733539662133449899e-01,1.776024261874837584e-01,3.726178913411589549e-03,4.559565103396781560e-01,-6.264574436883516562e-01,-8.679677702842729381e-02,-6.998517769551941548e-02,-4.667386047383045855e-02,-4.040279334370801001e-01,-5.407120754119287137e-02,-3.420058806064540380e-01,1.030529641986464240e+00,3.817629647059795905e-01,-9.647915771523997430e-02,6.472284664486233074e-02,-8.451162019160176619e-01,6.345077226096449419e-01,9.701559518410970417e-01,4.118305275313692559e-02,1.504949296333626396e-01,7.546102422977847557e-02,-1.026509650157205189e-01,-2.690104129723667747e-01,7.485867728945250210e-02,-6.974518461390326607e-01,-9.788816430173249983e-03,8.106273797053588359e-02,4.849339512330763102e-01,1.292960099122142685e-03,-6.486536116851814304e-01,-2.278426649461319162e-02,9.549902912191302051e-02,4.095928587811897281e-01,3.079898588033397680e-02,-4.187705427456267504e-01,-5.367284984780756885e-01,6.558747654135669292e-01,-4.486630189548713732e-01,-1.207471173964959066e+00,-6.470638799322950274e-02
-1.533376855896059210e-01,-1.132135950383483525e-01,6.880368675984115390e-01,2.639383880430431484e-01,-3.135801969913781101e-02,2.245129647616162516e-01,9.890781822139237123e-02,5.521685146362375063e-01,9.749048753236511100e-02,2.007413803564708776e-01,1.031038929925525739e-02,-3.007901501651473741e-01,1.051568438434826447e-01,3.491715799565163758e-01,-3.402965328863610250e-01,1.277719689408331194e-01,-1.191161346501504043e-01,-5.864740883845666053e-01,8.253158556609481444e-02,-5.549705933279783787e-01,-5.036120378627576173e-03,-5.961367765232173516e-02,-5.858944159202134766e-02,-3.442837837467706968e-02,3.529361756041222153e-01,-1.253985897223366085e-02,2.808792258729708724e-02,2.070185193797968726e-01,-1.499335904949681553e-01,3.409917610805174304e-02,2.077877193392257266e-02,-4.516786566818989379e-02,4.855683721651752466e-02,2.494536530759683748e-02,-3.581676460727239997e-01,3.070337428933586632e-02,4.171806753252922939e-01,5.394171473153983043e-02,-1.199304257897223364e-02,-6.473101620477285101e-01,-2.298337812654732693e-01,6.110139740948607482e-04,8.099133904042255666e-03,7.973675180686284891e-02,5.357810644708016316e-03,-7.771254511341745864e-03,5.419194013650652231e-01,1.606335012925099587e-02,-3.584064258526457047e-01,9.683093479958998495e-02,1.126275027574624443e-01,9.671265669341333471e-02,-2.870707282974915148e-02,-3.414524795303688909e-01,8.767801238869908642e-02,-1.041354526517917489e-01,1.502707050214787954e-01,8.925271714125824693e-03,-4.815523126114076846e-01,-4.300906086948397267e-01,5.363894611343648089e-01,-1.952479895745334593e-01,-4.882145824649600785e-01,9.476192358011215067e-02
-9.974535398878749126e-02,6.298326741429365050e-02,-1.727104500905874973e-01,-3.403276077224240415e-02,-6.984679217142877317e-01,8.756084660856652269e-01,4.949680313213195969e-04,1.845209328395885570e-02,-7.546661015722824772e-02,6.831876855249325864e-01,1.381532656752326553e-02,-1.528396296474570093e-01,2.208951305286246947e-01,-3.680843822904632523e-01,3.680224239122585894e-01,-4.282046756594691805e-01,-9.675661375013333565e-02,-2.784616532367794051e-01,5.115908793454782694e-02,2.140464159878660219e-02,-2.907651359090064613e-02,3.903479019761642022e-01,1.124611192623129891e-01,7.319718848839906582e-03,9.244847101696184177e-01,-7.213082851890707525e-01,3.972028675855515667e-02,-2.632286359709832269e-01,7.069694930818092027e-02,2.749571347647836866e-02,1.303946496043451031e-01,5.378768561840995693e-02,1.424664808089763299e-02,4.121713044057367936e-03,1.103832292837635953e-01,3.350205678992133618e-01,-3.048984606124933716e-01,-5.917813513800034009e-02,-5.897869509959773743e-02,-4.383042425093692795e-01,1.046860580626330500e-01,1.977988984541502182e-01,2.001369547265096915e-01,-1.721583353991846740e-02,2.152269583808770047e-03,-7.621460459074819865e-03,8.293936561013213193e-01,-1.189347226701720772e-01,-4.320764081294986569e-01,-7.626858081862797345e-02,3.817954480196976419e-02,8.502764842790224223e-03,-1.096074645297080707e-02,-2.650554389271474465e-01,2.692035259953555124e-02,-2.797692795244735020e-01,5.367671047316042721e-01,1.241597483407269747e-01,-2.184447686041610659e-01,-6.540723184296646231e-01,3.695684023315967126e-01,-2.407213133913674863e-01,-7.872489122496098002e-01,9.913333237058831460e-02
2.721707518726844688e-01,-1.094495929722290317e-01,-1.209198464534044642e-01,3.838541273557167233e-01,2.463140885553085191e+00,1.977964112012713938e-01,-3.551813600162858492e-02,1.062076639376590359e+00,9.858219991707312113e-02,-1.918308500952704554e+00,-2.443945984825017861e-02,-8.208251279660362387e-01,-8.743423427281324378e-02,-3.538067012858199800e-01,1.807754627824007809e-01,5.698831713640659796e-02,3.070646562561220663e-02,-5.809406858225637516e-01,-7.063488130615822591e-01,1.630255341352266074e-01,1.398153615739917699e-01,-1.335360464780666334e-01,-2.269882927636279746e-02,-3.973602355906170197e-02,-1.080121341528297529e+00,7.858889549240303252e-01,-3.556222770487171142e-02,8.631525174251738486e-01,-1.039841595698871801e+00,6.544185256090544189e-02,-5.131198002970902700e-02,-2.707493788822862985e-02,-4.520586167745813677e-01,-1.160777941025718379e-01,-1.131336593185255257e+00,4.327326215534782472e-01,1.525357930351949887e-01,-5.848714883015412175e-02,-1.122825316813225588e-01,-1.156174492328555292e+00,-2.418275805679861445e+00,4.334545939692457939e-01,6.259433036163669639e-02,-1.232992302607578972e-01,-4.371225135718338067e-02,-5.781314855238402911e-02,-4.207435697028536481e-01,-1.058434253745634129e-01,2.485467898643130447e+00,-6.100105794669498371e-02,-5.261900229523787387e-02,9.000278552032802137e-01,3.037278291828033466e-02,4.084684831201562671e-01,-3.792741511733344062e-02,-5.520005424312314224e-01,9.075259858674594726e-02,6.243708768858294983e-02,1.217966055664997604e+00,2.014025154379928129e+00,1.123780527394156570e+00,5.619071051984997345e-01,-1.371886787697603305e+00,7.595189398494185673e-02
5.075187720797927349e-02,-9.469426884438746084e-02,3.146656887565593003e-02,2.850190717342095115e-02,8.996604861883951421e-02,8.446812249674144901e-01,-1.133023638609435418e-01,5.457958540097179734e-01,-7.387638931216572447e-02,6.703763654845011632e-02,-2.067802001683828952e-02,-2.066734735377984411e-01,-7.849562118113041775e-02,-1.929594906251017039e-01,6.221908881481733600e-01,1.043081749121992086e-01,4.116595913272817070e-02,-3.607697657572407901e-01,-4.000326091692138486e-01,6.475666043829603202e-02,-4.747539953292856385e-02,5.426737614229900641e-01,-8.347791546658615836e-02,4.279633591652590163e-02,1.807852695428058820e-01,-4.178604490922670500e-01,8.574796600328753182e-02,-1.877671020744925146e-01,-2.332718743339400602e-01,3.099533578253802282e-02,5.743971379913925812e-02,-6.702188654365251463e-02,-1.249423178021571990e-01,2.382553082327103569e-02,-3.818203807534386041e-01,1.144452369417877646e+00,-3.018338139083611704e-01,1.998104311378641820e-02,-7.765175133563530230e-02,-2.383825141742727638e+00,2.764465304219538289e-01,5.332002094122015867e-01,1.537566732849577657e-02,-1.612030329255301209e-02,1.115871441883430071e-01,-7.676681510208674397e-02,-1.562935374518609477e-01,-2.316939999255998583e-02,-5.716116323912383279e-03,3.623817850013420078e-02,7.436144173148198644e-02,6.128786959061108819e-01,-6.078003723833414612e-02,-5.824359096642939271e-01,8.010612633400801541e-02,-2.684631595147466965e-01,-6.878268253341771055e-02,1.069092197170557479e-01,-1.896396810918355921e-02,-1.033335200180470204e-01,1.056927125081296381e+00,1.529155387513564668e-01,-1.128067005599518557e+00,2.392091935277724374e-02
-2.020129785333629746e-01,6.417277336398906351e-02,1.178357877767779865e-01,-4.270364132788579958e-01,-6.154333913297437286e-01,-1.074690861162884564e-01,-1.264647786259944645e-02,2.436223862213928726e-01,-9.327969319215815430e-03,-1.600041400742315822e-01,3.961018167788991212e-02,2.045571911027175283e-01,-1.937573282859246515e-02,2.964111028120050007e-01,-1.303453235443737146e+00,1.085438876051599139e-01,-3.035581429516896745e-02,4.150341206806524852e-01,-6.604159830496592054e-02,-3.942489282849589993e-02,4.044006394645461439e-02,2.204362094701907970e-01,-1.179578586959370706e-01,4.299557305539213059e-02,9.750737071531179190e-02,5.042794953656013490e-01,-1.236688469039030382e-02,-2.167778113691330444e-01,5.317021822616482263e-01,-1.480801482289332421e-02,-4.251773124273172839e-03,-8.168413869419731757e-03,-4.910541160051729720e-02,6.780608629085498051e-02,-1.929255410856040853e-01,6.431357010543798935e-01,-2.120887952311265867e-01,2.218801815775086617e-01,4.189702665599102926e-02,-1.925142988797074739e-01,1.593880748161019545e+00,6.988862125248547219e-01,-1.590698362341724445e-02,-7.321821279171988883e-02,4.584872443286980986e-02,-4.340019222370309487e-02,-1.498859215438842041e+00,-2.559838365699074365e-03,-2.241973166074173185e-01,-1.998753843458696625e-02,-3.163381854280847283e-02,4.763298611157811835e-01,9.966042542143721886e-03,-6.670959207686509851e-01,1.786135609453590734e-01,1.149638932870465091e-01,-6.029196125714859633e-01,-4.613059872275011852e-02,-9.357877942702813590e-02,-7.046268653947043714e-02,1.454996184340906218e-01,-4.532358488100451943e-01,5.674543799474094374e-01,-8.933129048140565909e-03
2.918802226844104467e-02,-2.062212661610167864e-04,4.505144827443995359e-01,-4.858193520859250929e-03,2.327307110658438094e-01,2.611205431577965363e-01,5.522367820207671474e-02,3.101329115874477127e-01,-3.371073908950177750e-02,2.950118063922568465e-03,1.992226317577685396e-02,-2.023252109432558399e-01,-4.867700092972117830e-03,8.874538494599297500e-02,-1.275838576011014414e-01,2.534937137874881397e-01,1.615823948101981905e-02,-3.140921638118854831e-01,-2.100842648932529921e-01,-8.846512389382403529e-02,4.378757431805765932e-02,2.757457164459510834e-01,1.346989564314039212e-01,-8.881868491901998008e-02,-2.208378599894348371e-01,2.680517941579276253e-01,-3.018694452123471192e-02,1.596527254117852124e-01,-2.651756578425304989e-01,-9.738563909350123060e-02,1.934555991199672642e-02,-7.014673474031726808e-02,-1.320033879648327690e-01,-1.372257521582351536e-01,-2.217828016882705533e-01,4.530357000000747036e-01,-9.895147900647267847e-02,3.565291726791254556e-02,-1.194523333298021378e-01,-4.799513751888981328e-01,3.951639955785330449e-01,4.639152858199547258e-01,8.839696892586031141e-02,1.082486084836875861e-01,1.436971686655821312e-01,-7.110399771362367963e-03,-3.917217970514553782e-01,-8.142075550607827394e-02,-7.106725220234728913e-02,-9.425837391555999534e-02,-1.372361374786649213e-01,3.582171889211448468e-01,-3.364277887523357824e-02,-3.057883855135422602e-01,3.236703628397882143e-02,-1.195333561312623832e-01,-2.862000387572939397e-01,-8.360284423091489392e-02,-6.272377212400921664e-02,-2.124769199490664784e-01,3.543856400615467139e-01,-2.799539480787886503e-01,-2.491821373776317572e-01,6.360545091714946836e-03
4.591604634587724276e-01,1.126285994632274662e-01,8.597562525835993341e-01,2.564072868566379393e-01,-2.041063573291959088e+00,1.223332382471757240e+00,2.530440172217749209e-02,1.893087219029141455e-01,-3.570952359298001227e-02,1.475193675607707533e+00,3.015779155265448097e-02,-2.572426502474795540e-01,-3.647381655986021293e-02,5.759421954529548859e-01,-1.089068248071847878e+00,2.714003762473727321e-01,1.182483399435416312e-02,-8.385274820016510589e-01,3.048813116235466469e-01,8.262562578660946622e-02,-1.755425055111847765e-02,1.509383311737401812e+00,-1.144370374352049989e-02,-3.424864098469437151e-02,4.326540026495987595e-02,-4.229973570754283485e-01,-4.130294438413959629e-02,-6.945259003946917531e-01,2.769464514564065061e-01,3.875057494906566924e-02,-4.281177470828945175e-02,-1.914657740007678563e-02,-1.386364586734973869e-01,-2.931251785821897132e-02,6.139741740300452832e-01,3.887199374232762628e-01,-7.398924954843170976e-02,-1.965616472437800230e-02,-5.053496600790968046e-02,3.601556507146034813e-01,1.569807994933654749e+00,6.131186761213064385e-01,-9.680739664009702095e-02,-1.415519507028159193e-02,2.425107228351651434e-02,-2.432743000483161486e-02,5.697589700683588360e-02,1.313718586019239631e-01,-2.161668243859414140e+00,8.794701778573517370e-02,5.174947847874019485e-02,-4.758249898463502991e-01,5.540495055262125573e-02,-6.426403834256416703e-01,-8.474566880654474388e-02,4.723534053445306302e-01,4.623485548965107772e-01,-4.868115934848245285e-02,-1.417603752201467282e+00,-1.494445624536872241e+00,2.288120729668920161e-01,-1.002854014072112498e+00,-6.928197151098732798e-01,-5.407034146612302306e-02
-1.003083064858463075e-01,2.136524240938456401e-02,3.349841666073010149e-01,-2.271259565014711324e-01,7.228117020784322229e-03,3.732827411301237741e-01,4.912008919962269210e-02,4.132374539346928555e-01,3.798596524462682922e-02,1.052591793270735016e-01,5.158292477035461565e-02,-2.718420412323321878e-01,-3.107116143998634936e-02,2.699587127957273416e-02,1.034382141746638811e-01,1.385444826494065529e-01,2.191303739199391282e-02,-3.048403953074589889e-01,5.414393946593476503e-02,2.049045826570346283e-04,6.758927387802073083e-02,1.594887270216048536e-01,-5.248941935980874773e-02,-4.020900899131253647e-02,3.865865669956203288e-01,-4.713137598036729048e-02,2.963787798687255934e-02,9.956956310733422466e-02,-2.656382717562547624e-01,2.123965320006929169e-02,3.104564364589427333e-02,-9.530316365344239371e-02,1.534926036826670531e-02,-1.611440102125949181e-01,-2.029611152054925649e-01,3.900581106946071630e-01,-4.561977090739374047e-02,2.274144149466825887e-02,-9.940956222760312377e-02,-6.782280903070142530e-01,-4.015284472408970490e-02,3.340892384232104217e-01,-9.770960817603681348e-02,-2.974429523341844128e-02,-2.665249011698970355e-02,-4.855828671442159045e-02,9.560135427624016913e-03,-6.699197674570486760e-02,-1.203881812165737281e-01,1.187954733106019317e-01,6.390473656154337274e-03,2.315697352448463711e-02,-9.787676935134936862e-02,-2.313002823471218272e-01,5.384773302515181992e-02,-8.838178692726533781e-02,3.479488597421282782e-03,5.668236179742085906e-02,-2.266858324450554685e-01,-1.637355345752919134e-01,5.926205432588306232e-01,-4.172310404949986645e-02,-5.020404015117234664e-01,7.280793332603953394e-02
1.160755403633148136e-01,1.235868397834714721e-01,6.233048788873178925e-01,-1.687151429447007189e-01,-1.352811919826790055e+00,4.439755089671572619e-01,1.329733465655558722e-01,-2.155853563397840955e-01,-1.521360762511408601e-02,-1.021711259808286698e-01,8.488405025413428562e-02,-6.710758620869897717e-01,-1.714801647147496111e-01,1.498783653005758831e-01,-6.057663020445492874e-01,-2.482236561184158752e-01,-3.313950675532809781e-02,-1.635043526586563711e-01,1.508579464898903988e-01,1.116481932996156168e-01,-6.621943477416140922e-02,3.344420634180702012e-01,-4.033260181746310680e-02,-1.003157384245969425e-01,6.824625619731788939e-01,-4.894182626422268756e-01,9.684766211211510989e-02,-1.236264351579927367e-01,5.112856710851175768e-01,1.028542846535155861e-02,5.613023712920028885e-02,-1.362715800870408422e-03,9.197817164289863456e-03,1.868136898766430826e-02,3.475324415415871337e-01,2.654093705887775045e-01,-7.520386482622805346e-02,8.706924623685174253e-03,-6.267393677759200421e-02,3.442073396371492233e-01,7.769649794524366992e-01,2.910215509736829853e-02,1.151567914416933430e-01,-8.740317037234347775e-02,9.433303064753455203e-02,2.585498835975590277e-03,3.209361924904839958e-01,4.114776862156037385e-02,-4.640512017577832493e-01,-2.097283458218981642e-02,6.281084538983379428e-02,-6.884915321571184743e-02,-5.290987801202734486e-02,-7.712667603411852424e-01,-1.161990487593171223e-01,2.342292001807426693e-01,9.452327681261223358e-01,5.348344179934618609e-02,-4.962120377306650787e-01,-6.665342425213436339e-01,-1.437535452524564723e-02,-4.489202452512736086e-01,1.379932750534352548e-01,4.993709423240429157e-02
1.189683222793655980e-02,-2.324772055414248487e-02,-2.531533778684924921e-02,7.592682799957752027e-02,-2.624414518905606730e-01,4.924498866685322329e-01,5.613895266708234660e-02,9.580090381883961392e-02,-9.322932714418573352e-02,3.844286009574767737e-01,8.015213387672924517e-02,-3.693238691693916109e-02,4.664534346644438889e-02,-4.670966770940651602e-01,5.275087949246658470e-01,-1.988770419732604766e-01,-9.207360771752963122e-03,-1.480293404510369532e-02,-1.696567369956428761e-01,-1.081902064956409143e-01,-1.042347784974925612e-01,-8.454071143397996757e-02,2.206978680360799708e-02,6.595389048155098077e-02,2.518673923073632137e-01,-4.779444441859476145e-01,-1.172812239735765844e-01,-3.207655137250085553e-01,-1.695497804813188292e-01,1.377194930501343395e-01,7.146821384110939313e-02,-1.500652074846453576e-01,6.185215811700641581e-02,-1.110867548551692091e-01,-5.063885041194227457e-03,6.999905856413073391e-01,-4.002913384456861512e-01,7.610591861980151029e-02,-7.766036142260314412e-02,-9.816194799711245311e-01,-1.475946904312314956e-01,-7.215609329069083699e-02,5.116099935739134436e-02,-1.664000465399468609e-01,-1.154497523968190005e-02,-7.044829936655964964e-02,4.753094884789311192e-01,7.153576798957431149e-02,-1.665696256888577476e-01,-8.632204215364655542e-02,-2.546246047803234214e-02,3.705472768335316691e-01,-6.869137120263818508e-02,-2.844392393111753181e-01,1.044515159049176356e-01,-2.270124140316270023e-01,2.569746662000418902e-01,-6.153831744275779086e-02,-1.263996082235097906e-01,-2.890343350263150368e-01,6.132206744984597391e-01,3.206944752011150479e-01,-7.567400122484824188e-01,9.682215839389420042e-02
9.359312818172547954e-02,2.085520255075758514e-02,5.989400057843343728e-01,1.725257884402509878e-01,7.640109978686656644e-01,-5.418210228236221282e-03,-6.548370832911757332e-03,4.748304696798423818e-01,2.314624341012229067e-02,-2.999392875223103605e-01,1.617082111316647461e-02,-4.292191368964666243e-01,6.625322361250294764e-03,2.198770956970199919e-01,-2.329340203733072934e-01,5.916180559701789132e-02,3.780134552728126734e-02,-2.484489297148957387e-01,-1.468320642932669784e-01,-4.557265938978902892e-02,-1.356779551430224717e-01,-1.012885838004811724e-02,7.910174631656990973e-02,-6.225271487449871022e-02,-7.235628098016997356e-01,1.672155361277037899e-01,2.452440298172911884e-02,3.625265102444403809e-01,-1.952474179741424398e-01,-7.557119703786569984e-03,-1.124033092167809195e-01,-6.145695239041991387e-02,-1.680307332040061746e-02,8.108921646119355772e-03,-2.574983478536712056e-01,3.813961513372658985e-01,1.537746501584089098e-01,-5.753154140394512329e-04,1.388188442819452695e-01,-4.744565363212939202e-01,-1.677419891231126947e-01,1.935800982929527791e-01,2.223482992437813069e-02,-1.610384835867076647e-01,5.563838730041822944e-02,1.371242976885276299e-01,-4.312409457673666568e-01,1.112867043838370595e-01,5.562688616022009036e-01,2.052863653843579536e-02,8.121050337142381170e-02,3.018330915712168494e-01,9.653906664141662097e-02,-4.409933440361771262e-01,-6.596129005022298430e-02,-1.096003202983502900e-01,4.444309659180547406e-02,-2.427963941333140946e-02,1.085732087028441345e-01,4.091780017420079130e-01,3.214070155248619498e-01,1.674200727814057488e-01,-3.045840917790945679e-01,6.164226241011841641e-03
-2.600932942899064973e-02,3.487941967612144534e-02,4.232420136965842072e-01,2.152370581691642748e-02,1.922386336450714328e-01,1.279525448653126285e-01,2.720025729887442720e-02,4.161287836894214665e-01,5.077215549819791285e-02,-1.592627110839065219e-01,9.522082963540916267e-02,-2.857882613422481066e-01,-1.440215342336858273e-01,-5.859816441394843922e-02,-1.439080061594351367e-01,1.349413545620995747e-01,-1.926209890047403742e-02,-2.583128212952869318e-01,-2.116738037259786043e-01,-1.207262649908233815e-01,4.152531688326005499e-02,1.259728026123453359e-01,-2.026430652489508502e-02,1.026248221443808254e-04,-3.140298449027094096e-01,2.091404203434304165e-01,-8.490969367218573205e-02,1.770384364990426895e-01,-3.020295262498686739e-01,-4.323699408823717533e-02,6.148650564991409162e-02,4.091035533548215142e-02,-1.775738723268007191e-01,3.577466601411839753e-02,-2.605485987806144266e-01,4.719819700852512234e-01,-1.107920025372413492e-01,4.840693426001631619e-03,4.941587153042427405e-02,-7.720018929384596662e-01,-1.968415637281091535e-02,4.587989529157180391e-01,5.916432923602824717e-02,2.057351579667702351e-02,-5.169450520695685614e-02,-5.118001469100098844e-02,-4.112781508324770963e-01,1.220602921370284866e-01,4.336800103442564613e-01,-6.740431643396085915e-02,8.884795549876170484e-02,3.372695958691375173e-01,1.293883099815145987e-01,-3.596508116743804551e-01,-7.500079146309449052e-02,-5.471167486533026064e-02,4.310988887061557168e-02,7.900722937878557062e-02,2.039339412403298746e-01,1.758549552580275788e-01,3.532937641900656955e-01,-8.153656385283894470e-02,-3.524348466903525767e-01,-1.332531271987539949e-02
1.297568585269368892e-02,-2.289523620775852156e-02,2.882565837577298895e-01,-1.037651262670223062e-01,4.337077174767191984e-02,1.334210223623795988e-01,6.000633707607627709e-02,4.227651318098997191e-01,3.622174371593436110e-02,-2.748138221498406045e-02,-4.298797813878628415e-02,-1.563242261977828840e-01,-8.541617941459204999e-02,3.276043830197892387e-02,-1.898459078032814773e-01,3.676331002590114277e-02,-8.323457066418997463e-02,-2.047804837372157460e-01,5.555835345036071182e-02,-7.395587299958902849e-02,1.553727880987379462e-02,1.750608733057000543e-01,6.868325083113205332e-03,-6.965467611407059889e-02,-3.246456020988658375e-01,1.557405370013309476e-01,3.798928748698041785e-02,8.846782106704843829e-02,-2.351089731802979421e-01,1.409642491359381841e-02,4.735884980414065137e-02,2.340371859651895273e-02,-1.158094421918779426e-01,7.406500805149014710e-02,-2.201728984890099772e-01,3.695887833854929472e-01,-6.864586149332275490e-03,1.323486672296740885e-01,-2.679888118995114518e-02,-3.825612330745041256e-01,3.540131272979427091e-01,2.189136455986627483e-01,1.536549298793185060e-02,-2.305880442318595722e-02,-6.607196448761420982e-02,2.560951851172907356e-02,-3.967564395642338426e-01,4.591765061639515449e-02,-1.204570979424477301e-01,-1.320063989407467553e-01,-5.175130455416405983e-03,1.795493977122366303e-01,4.201163879919464494e-02,-2.363462058764127793e-01,-1.773664214820980800e-01,-6.250125685261537223e-02,-1.372399762122989558e-02,1.139274573204909213e-01,-6.110236908261588301e-02,1.543203957578054286e-02,1.879637292019046835e-01,-1.092781703866779058e-01,-1.060534311902751048e-01,-3.023847078094092991e-02
3.653034737046987473e-02,-4.354889207921860961e-02,6.560760767851537834e-01,1.725616491273314346e-01,1.027527821016583909e-01,1.351458160901086447e-01,8.641883836867625054e-03,3.581808551486184156e-01,-3.886101427477114956e-02,-1.609232943141247485e-01,-3.641970027897570988e-02,-3.311411899675131276e-01,6.438298496206126820e-02,3.628916895033297840e-01,-3.692344390451452463e-01,2.132146237182575010e-01,-1.081381923835430525e-01,-3.496536007827252823e-01,4.591625893727879770e-02,-3.047049138036273669e-02,8.086473447280555227e-02,-2.053004616818685651e-02,-6.728549387976352769e-02,-9.353654771236469961e-03,-4.008527327486511860e-01,9.880541050198685116e-02,-3.387320593675649527e-02,1.566253106180420518e-01,-2.438496197339959648e-01,8.984750597273213901e-02,5.274379898252753301e-02,5.226729553551046764e-02,-1.133587131612987658e-01,-4.400193223665304493e-02,-1.001359582922051877e-01,2.708033412646448368e-01,8.814629829071322920e-02,6.202929889859325197e-02,-1.571085939410942281e-02,-3.998595398521431199e-01,1.600773325651304035e-01,1.979702097981466957e-01,-9.138719847976492505e-02,-8.254404209075821841e-02,2.255678618085052000e-03,1.796687692690288884e-01,-2.901923193761139497e-01,-2.507869603912214057e-02,1.564912535053329112e-01,-6.331350673352150425e-03,-1.111329889739959831e-01,5.655358661795680669e-02,9.902132374477704002e-02,-3.443858271967420448e-01,6.181904786990716216e-02,2.803144523801882199e-02,9.280921585122468842e-02,-1.604749847607925620e-02,-3.834732759806561836e-02,-5.624143295581576774e-02,2.242235441852420685e-01,-1.908181908522975090e-01,-9.762194390484106588e-02,-1.432662333778296840e-02
3.425098805123672624e-02,-1.661542652479147120e-01,8.244666759859416993e-01,1.849767570881097611e-01,3.420137578118066513e-01,1.122791064421463786e-01,-4.263515356266470852e-02,4.510840428125407198e-01,7.993084824794033372e-02,-1.889185472724763393e-01,7.313199060627137427e-02,-3.372773068523821083e-01,7.373904361674488150e-02,3.871459077297723650e-01,1.057531115977153602e-01,2.712604804597165686e-01,1.177530357069580397e-01,-3.200380187660047393e-01,-1.477358726304329739e-01,-2.704491949343003632e-01,-9.950725834959033012e-02,-1.396786128004501304e-01,-2.974417243607038394e-02,-8.066499529337856078e-03,-6.749438109868485247e-01,-5.065322823458817680e-02,-9.472638478488597941e-03,1.203821916793194335e-01,-3.859086384813611437e-01,-6.124692355758137169e-02,-7.015666771360819232e-02,-2.929403084279820837e-02,-1.631153272493491291e-01,9.154631451115792518e-02,-1.630856319290328038e-01,6.587773126564051562e-01,6.608342198413601210e-02,-1.012058178139751824e-01,7.492916819275746709e-02,-6.715025841993058631e-01,7.043590205232852508e-02,-7.476140409094331196e-02,-2.019320829675553056e-02,-2.876957713603886871e-02,3.578317114898302981e-02,-7.321532353884495359e-02,-1.027832350702446579e-01,-2.968872953176092400e-02,2.842398548301456884e-01,5.021121463878521624e-02,-2.498861709293698566e-02,6.583110069209282544e-01,6.650363285612966024e-02,-6.401899792918940291e-01,-9.308995146710669077e-02,-6.976702482188862353e-02,5.544259258743389207e-01,-3.461110905239674768e-02,1.940878055802859603e-02,9.340086540883968391e-02,3.796338292202652287e-01,-2.639286731305728884e-02,-1.353036731337176612e-01,6.343187758180143798e-02
4.494397548864789010e-02,-9.430259417674709266e-02,2.354597264746466634e-01,5.773945110561645722e-02,-4.447723916283068124e-02,1.176228584610950478e-01,-1.102974655059927728e-01,2.658874336076414990e-01,-2.099639533423558121e-02,4.823818613827118157e-02,-7.286039733897524406e-02,-2.465619166135128437e-01,-1.052861633351060977e-01,1.912776491585743976e-01,3.502613400870661919e-02,1.472451932182627099e-01,-1.052120407030356225e-01,-9.589976933515405311e-02,-3.014691633195082376e-02,-4.828877281020292622e-02,2.371797990771622178e-02,-1.233126115491871566e-01,9.281277834959604511e-02,-7.762104204942211344e-03,-3.875448466846343476e-01,5.086966579518397563e-02,-7.182566186201877478e-02,-3.028239571210571829e-02,-2.032411185251079555e-01,-3.364429346735970522e-02,1.499427814396285530e-02,1.467337997520380133e-01,-7.950601669642450714e-03,7.796105649175535945e-02,-1.449633510166567218e-01,3.352489332905337349e-01,-6.512646822279573831e-03,6.460169219003118746e-02,-1.620201127638856153e-01,-5.188079185408642768e-01,3.195632556229928423e-02,-5.472521477380845600e-02,1.421870346497802196e-01,3.423346023260569193e-02,-5.071540157797437692e-02,-1.181177777828289754e-01,1.514897343448738491e-02,-9.701327928904766862e-02,7.305703167556698574e-02,1.092095528056909876e-02,2.428871641712634574e-02,5.578901458750089581e-01,-6.624365428493216024e-02,-3.818025968964507411e-01,-9.112353498413959529e-02,-2.957954923149007029e-02,4.304113401881802248e-01,4.320415072402494783e-02,-2.695415016524750629e-02,-9.064964881454071199e-02,1.924099982791034336e-01,-2.881419481754752057e-02,-1.123607022169758468e-01,7.253379824264229690e-03
-1.250035412918977240e-01,2.715766065768952797e-02,2.512411935048375344e-01,1.432206460624706537e-02,2.032635719485657300e-01,-3.247186811657345323e-02,-1.150807456404010221e-01,1.874141424170114867e-01,-4.991426367857219187e-02,-5.914605034440944403e-02,6.100293252955935053e-02,-2.889494479030425556e-01,-2.111768328071877698e-01,1.342626783365430052e-02,1.108144308248283499e-01,-2.394382711311182285e-02,6.165226141762784884e-02,-2.246643768428243093e-01,-3.934389146592562336e-02,3.737843054854186886e-02,-4.670067489111205672e-02,-5.000089446146668837e-02,7.235979266172813673e-02,1.934513754842251756e-02,-2.644566872396603152e-01,-6.228033534239165586e-02,5.576550577663579727e-02,1.075597781235605732e-01,-2.092752079147150446e-01,-9.228988553981076759e-02,-9.586060752658265294e-02,1.254549366360173113e-01,-2.659898969486439516e-02,1.748798440449240987e-01,-5.242817659448405221e-02,3.730066049368758740e-01,5.935616289388529962e-03,8.511560413114654944e-02,-7.358954930020317198e-02,-1.283324662198414012e-01,-2.029204125162872296e-01,-7.182970499234331285e-02,3.351570091198465690e-02,8.215470249789202928e-02,-7.703856577691259311e-02,4.310325002798474914e-02,-1.810868721119811287e-02,-3.759931191090764430e-02,9.785622505880274546e-02,5.580827325833474101e-02,-8.300297486836689942e-02,3.072041542329710384e-01,-2.332612881139278435e-02,-2.507969145608792694e-01,-9.195616761374791892e-02,-1.334750989977994962e-01,1.954768707045177190e-01,6.696610242129143187e-02,7.932450048952507937e-02,6.543524256918743787e-02,3.375062337501197884e-01,-2.563361936056508805e-02,-3.868019064524037542e-01,1.803990035240662579e-02
-9.801121409052623856e-02,-4.073033886527835379e-02,2.297681287384482629e-01,2.297724052253592442e-01,2.136808068345003586e-01,9.841327612300160288e-02,6.956100509023541156e-02,2.804309545003443871e-01,-2.908431969954809737e-02,-1.337632454096206458e-01,2.473224947927712691e-01,-3.018844283090058034e-01,1.539474631226833701e-02,-2.801919994856285137e-02,-1.019159009038406033e-01,1.278254354701817974e-01,-3.234762372610441861e-02,-8.818210016720375022e-02,-6.014503545744852991e-02,2.277813884416897763e-02,-1.829111030731511364e-02,-1.381552552981864801e-01,-4.737597714137654209e-02,-9.891023273384821901e-02,-2.321370470218961368e-01,-8.205236659340804650e-02,2.208416156030357236e-02,6.537024864046939165e-02,1.018279178666141099e-03,-2.347635684938288725e-02,-6.892600264949373667e-03,-1.366919857529967086e-01,2.619461736890065992e-02,1.343266417787705169e-01,-1.098991671212856541e-01,1.002771539664168432e-01,5.539555771631015507e-02,1.396695289221677565e-02,4.662169379547166995e-03,-1.459307478854064422e-01,-3.035110052577439932e-01,-2.182967319272078877e-01,2.086988546521231086e-02,-2.488099478656408126e-02,-7.990582311110210056e-02,-9.278097124389705908e-03,4.515647151494828204e-01,1.741375194277643146e-01,3.097909006345862526e-01,1.299450667029265483e-01,-3.201489184182149204e-03,1.165046663572906344e-01,-1.437215203455294854e-01,-3.949168810314300782e-01,-6.029870939757776827e-02,-3.015516977476289783e-03,2.278583688137949537e-01,-4.353962674438962427e-02,1.222207632382610798e-03,5.030071772594803953e-02,5.234169703852706995e-02,8.518393015162962004e-03,-2.845819992431464218e-01,-9.378107185779095689e-02
-7.692065202999692763e-02,-4.863098204656280538e-02,8.763597094748741545e-02,-2.261546607194227232e-01,4.540977229621358524e-01,-4.175463153244549086e-01,4.177546235745325381e-02,-3.571875959452627813e-01,-3.029644442776462804e-02,-6.934450396914533243e-01,-1.437125166597306818e-02,-2.500465965869341223e-01,1.292762047391218631e-02,-3.066472110693658354e-02,-5.134697068019160593e-01,1.045674373062580181e-01,7.868431928835600830e-02,3.249499387673869255e-01,-2.286511644892644940e-02,1.337082618250377125e-04,-2.903429435753324128e-02,-2.162535398893855598e-01,5.878841002181518782e-02,3.135401075043182939e-03,-4.101787650672538144e-01,6.536111193739543301e-01,-1.256063389253738449e-01,2.368248028545070771e-01,-9.856416618102567528e-02,2.789055917721276409e-02,8.340591088142189358e-02,-7.010659973234012465e-02,-1.615013519556982580e-01,8.231451795079837430e-02,-2.607991454015829991e-01,-6.013451128364574183e-01,8.863587066607153675e-02,-3.514412871123550469e-02,-1.205436667307930310e-01,8.172936591561191788e-01,-1.437638074464029636e-01,1.899839062242408838e-01,-2.401530091839180342e-02,-5.150938802626663093e-02,-4.564514072146603346e-03,7.906896167175664347e-02,-4.467474625334793004e-01,-8.181770458933650125e-02,7.174400804190741443e-01,-2.435980591271008286e-02,-8.663907845357728121e-02,-1.856400962461082493e-01,-2.400125334585089323e-02,6.680370206290329183e-01,6.120807652226132461e-02,5.918382589628531920e-02,-2.771660226423331985e-01,6.227100399207010500e-02,2.222341099160103639e-01,7.726506626353806251e-01,-4.732828897312863492e-01,3.376438079070977899e-02,5.354483293938691046e-01,-6.579102548515482207e-02
-5.970848881782829520e-02,3.046584845245215584e-02,2.344754941387621472e-01,-1.074663409755471921e-01,4.433007323355573487e-02,-5.970901146867551787e-03,-1.998674239176532336e-02,2.711759655967020399e-01,1.390406400397702948e-02,-1.433548305249609800e-01,-3.377224365100256476e-02,-2.965061724557180867e-01,8.159617893242807063e-02,-5.581986082386838390e-03,-2.138205521825604360e-01,4.526814726646216647e-02,9.155175445146056940e-03,-3.737112384415264277e-01,-7.936615723101547726e-02,2.873358667825876012e-02,8.507548821529689609e-02,4.735023577917184950e-02,-3.396779255122679437e-03,-1.163442693603972122e-01,-2.126120915834468772e-01,1.113294013143780320e-01,8.117398924551645634e-02,2.430302031604019419e-01,-8.507873374894446561e-02,9.298342559535351104e-02,2.166670077877150269e-01,-4.451733128850368648e-02,-9.130455493110038734e-02,1.136522672064046308e-01,-6.471084566842591479e-02,6.391846105422466229e-02,1.174034110871523540e-01,-5.254051714942826329e-02,-7.839501697815133563e-02,-1.008181313264349260e-01,1.232735896707482480e-02,-3.432733603664953753e-02,3.777603078712209878e-02,-4.239683230598386560e-02,-2.431943576208725477e-02,5.617743479459575556e-02,3.955354917765628586e-02,2.521648378528522014e-02,-2.779803359551804090e-02,1.173285170590128990e-01,9.787242277448796046e-02,3.104000326230778924e-03,1.509982762964539845e-03,-4.861110174203218254e-02,7.127674473363257435e-02,-1.191561085296859342e-02,8.285419855434515354e-03,-1.438226326491949363e-02,5.923880940589831834e-02,1.279043635700127801e-01,-9.623971549874180131e-02,-6.307896394791482828e-03,9.785034425795072210e-02,-1.127387425344551081e-01
1.052829695025437641e-02,-1.328700411982232654e-01,1.334274084687310513e-01,-2.392368799575261551e-01,-4.041584457286387932e-01,1.924722726874272538e-01,-5.409336886959734830e-02,2.126758444049635655e-01,4.076307085251002632e-02,-9.421991675037007241e-02,-7.274850617367945027e-02,-4.391752799037407055e-03,-7.885729759174898990e-02,1.416742101741199356e-01,7.939058259025262576e-02,1.165553873793764433e-01,1.958290242436026146e-02,-1.182019783305615288e-02,-1.110042956801965269e-01,1.627268644882849113e-01,-4.354346814219395290e-02,2.723117563094353266e-01,-8.611084038691532716e-02,-2.230860307025941611e-02,-1.337929127823457853e-01,-2.399616013195765910e-03,-9.466344546868531162e-02,-3.249978747256036804e-02,1.833941256342527804e-01,3.525892270959892633e-02,2.151895990657714738e-02,-8.196687636863868309e-02,-2.132732598015569733e-02,1.362026592352952870e-01,3.264570974870794479e-02,5.385543927459440772e-01,-2.933863590992930037e-01,-6.269863407575944347e-02,-1.322695888867004843e-01,-3.680587891240081899e-01,6.010795653618864476e-01,5.302087279463506275e-02,3.852413506613805438e-02,-4.261484554395912616e-02,-2.088205918019011165e-03,2.764874091366405218e-02,-4.040829581648645585e-01,3.042389607777662777e-02,-2.261188301647042431e-01,7.509622118392996447e-03,-2.882300371329146217e-03,1.468615464766948597e-01,-1.345553699235237100e-01,-4.535672418885333124e-01,2.888686122396038128e-02,1.464453668288891730e-01,9.805819172153680541e-02,-1.006758155925184528e-01,6.301931574041297335e-02,-1.169361752466355903e-01,7.280159658359680597e-02,-2.307784091797506626e-02,1.561769272246879905e-02,-1.343696770179547972e-01
-1.028971522198924710e-01,5.748111837403978297e-02,3.332547984325910373e-01,1.563673474574208411e-01,2.014830545404122375e-01,2.846916843719068035e-04,1.591906284242003700e-01,2.964987526573168997e-01,-3.237487335857811704e-02,-1.005150239404538071e-01,3.608246148348363824e-02,-1.686648262925964925e-01,5.196046720936592714e-03,7.609354599809385611e-02,-7.741310419894505135e-02,4.910114874867715917e-02,1.261361929007744354e-01,-7.443143721070764884e-02,-6.925454838129441182e-02,1.989284659086947016e-02,-1.254498192734743514e-02,3.855543056033830518e-02,7.836345748918867316e-02,4.358742912263201263e-02,-2.446167575854741871e-01,1.718676475895133116e-01,8.816996400730939265e-02,1.861858326505114458e-01,-1.636773137984607052e-01,-4.495367271726977837e-02,-1.180720032471124642e-01,-1.952638978793030163e-03,-9.802913278767443062e-02,3.583386393638246167e-03,-4.318463144916054319e-02,2.339909743070262282e-01,1.244459788181454668e-02,-6.904493694021214545e-02,-1.078866570600826164e-01,-1.119901109220715063e-01,-1.947354201004514451e-01,-2.149650693188469991e-02,-1.796076284432545078e-01,-2.310852217899691738e-02,-2.575071238258154829e-02,-2.987143772587113472e-02,-1.050900108288414514e-01,-6.119254227729005458e-02,1.494304569431280094e-01,1.359894766184543413e-01,-2.497604339616142990e-02,2.853746429224225389e-01,-6.158093073984800131e-02,-8.006781394258474793e-02,1.139644430773977396e-01,-7.275377578444623119e-04,4.989549096966171965e-02,7.167136050551426926e-03,1.130713228033704137e-01,1.295724144955194557e-01,5.041223096251230829e-02,-7.537031251780117180e-02,-2.499752937885484170e-03,-8.946741219221866000e-05
1.869301686933574069e-01,8.142656270314270472e-02,-1.573332786204865996e-01,7.796296320766697360e-03,-9.096683996549412843e-01,1.851388700401338516e-01,-6.153564771247700682e-02,4.795891720526874319e-02,-1.439283048166219436e-01,1.022189042157928413e-01,-4.010527637639879628e-02,2.958833741355159086e-01,9.894050404944251462e-03,1.178727010879557086e-01,-1.014071527605213269e-01,-1.392378014756544824e-01,6.405439852369494702e-02,-1.345294365328442154e-01,-2.482665408817041550e-02,3.900336482145962402e-01,7.202934149237835704e-02,2.473576745556241574e-01,1.125543863530810013e-01,-4.123069694181944606e-02,4.005624470717447649e-01,-3.973656221075215766e-01,1.152439903627373863e-01,-2.802830832542528849e-01,4.995289432988463396e-01,7.466111591555182891e-02,-5.518253971896871016e-03,-4.111540201058891397e-02,1.037217247162583039e-01,-2.454947109121337692e-02,3.563492999464857869e-01,2.129148592256997208e-01,-1.450931876458698977e-01,1.359665488286724011e-01,-5.908462119986030575e-02,-1.324466150156543565e-01,4.883835289479047104e-01,2.473305570614122220e-03,3.224630011133203245e-02,1.790659648489870831e-02,7.445494619530185210e-02,-9.885399035655592637e-02,-2.218508862802969286e-02,-1.033231767150345239e-02,-4.840194171161637526e-01,9.874273521457388458e-02,-2.028240481217148759e-03,-2.876297728125894876e-02,1.534984016800182427e-02,-6.037894143884967590e-01,1.235791899188653196e-03,5.780626694880104388e-01,3.019346274483227788e-01,1.237023692298673677e-01,-4.587282826411241965e-01,-6.056497125728479425e-01,-8.803722416370010628e-02,-4.154448243053485701e-01,-7.752566482408632109e-02,5.350424764306432879e-02
1.007187145093444008e-01,6.524118752898314111e-02,1.534375752819640004e-01,2.577316101673959303e-01,-7.068456590857757557e-03,-8.936570499163105918e-02,-2.260559982267631440e-01,1.656895807286287714e-01,6.258939861618882661e-02,2.577220169303065175e-02,8.444112939609001167e-02,1.550754615718136775e-01,-1.290232387962274643e-02,1.762297696012111448e-01,-2.998535484042737509e-01,6.307013280664007515e-02,8.309408822766930006e-03,-1.642133514997770882e-01,-4.734977889249544682e-04,2.125051891341063134e-02,-2.287890520107196957e-02,6.881939346255712409e-02,-1.340377167736351953e-02,-8.665688987911818186e-02,-6.828074358077905470e-02,-9.956434828953482363e-02,7.869987331320485446e-02,5.242240291715732914e-02,2.172360005677106271e-02,-1.523762067005026699e-01,-9.452479340562755517e-02,7.079144734614221945e-02,-6.029251001557429934e-02,-4.011141605191328313e-02,-1.913622928285149336e-02,5.781079582375658887e-02,1.251523460667646470e-01,9.162237896233879630e-02,-2.009844055066210833e-02,4.464558013674638226e-02,-2.053836146085353254e-01,7.490032615203794097e-02,4.616194202900533727e-03,3.110840670062774496e-03,2.678882450608054827e-02,1.090704155347416021e-01,4.450406855317644989e-02,1.244335635035673793e-01,3.262843373398696678e-02,3.142306428606399943e-02,1.502739111939936090e-01,-1.279956490100286060e-01,1.887312745620488286e-02,-9.644427929613139105e-02,-1.093106068680844284e-02,-1.100078752998324833e-01,-1.282178417849410001e-01,4.335037793197687311e-02,1.098029462877928193e-02,7.470545099973646685e-02,6.599978759804091266e-02,-4.003362450124066385e-03,-5.142948317341348129e-03,-1.138972047247363423e-01
5.306428619745539449e-02,5.981617443536128148e-02,-5.864617409912750157e-01,-1.522649465060445795e-01,-1.386231592335722233e-02,-1.401526046810005754e-01,2.684176063894473663e-02,-2.973307615822198824e-01,1.045864135136355261e-01,-6.856503113691496398e-02,5.962750159731093624e-02,2.549205491853730188e-02,-8.789265135729713851e-02,-1.548695771394202336e-01,2.028749110903941555e-01,-1.765827152090456986e-01,-3.415986312556443250e-02,4.360707506180114268e-01,1.061722035166503264e-01,2.094943246584330954e-01,1.164259133646631944e-01,-3.547922819793907223e-01,-3.638771190806355804e-02,9.570249883017761805e-02,2.812097759496962057e-01,1.555178776474601919e-02,3.271749942882925394e-02,9.506024818557140543e-03,2.412755212493321033e-01,-4.937900560986169946e-02,2.332619426498547602e-03,-2.977905216981596367e-02,1.077935020682789929e-01,-1.531492492380883558e-02,4.457794835995562005e-02,-5.838476366916208748e-01,1.212846287493543063e-01,3.634615708720087546e-02,-4.169043354632743364e-02,8.209089755517077203e-01,-2.688373277712831633e-01,-1.731355204484194554e-01,1.224328100590054286e-01,3.965985684075952478e-02,-6.940609606164940826e-02,-1.024457686481274332e-01,2.890540541337301983e-01,-1.065555644469710489e-01,-3.028697176215355835e-01,-1.195642343706477574e-02,-3.640116301050386888e-02,-1.641445355430982966e-01,-9.834022824945279351e-02,6.733156381007875391e-01,7.171528176151165113e-02,3.267714837456638793e-02,3.378237936661580010e-01,1.979158061811399083e-01,8.624288362153804260e-03,-2.320904765888610888e-02,-3.106566277246245456e-01,-5.511870069182149036e-03,-2.444432953841891298e-01,-8.209707391346815486e-02
3.855157057707599838e-02,6.986193675464612285e-02,3.048263828812259879e-01,-6.472415190575436100e-03,1.315589307934181551e-01,-1.680446058593397796e-01,2.970453594285629023e-02,1.377125244349003408e-01,-5.123977770213310884e-02,-7.926925861890610214e-02,9.948002565219694893e-02,-1.740420929907718628e-01,3.187782901382460454e-02,-9.675509051445048414e-03,-9.938900088676892730e-02,1.509999726160719813e-01,3.999289392534711302e-02,-1.377915251124607610e-01,-5.704204461335644211e-02,-4.549377915155849994e-02,-1.326321348386278950e-02,-1.931626210004069588e-01,1.208211279004079985e-01,4.366156397009263862e-02,-2.765526554037018858e-01,6.049290047350418947e-02,-5.439646732585561029e-03,2.292023364222454673e-01,-1.919052376871137333e-02,-6.884281203901460033e-02,-7.311806580535724909e-02,1.565621065625871777e-01,7.041963296164867325e-02,5.249170978550746908e-02,-9.800548005329204337e-02,1.719483502498381777e-01,1.022990297984085854e-02,1.106927674121392646e-01,-3.047996372042753675e-03,2.890241531656821336e-02,-9.192485363357727479e-02,-5.027341001588794822e-02,-2.165694948357928598e-02,9.251730416258172052e-02,7.831868360925629824e-02,-1.326680252440735897e-01,-1.298833255639031958e-01,-7.092894092032787923e-02,1.742631264062532714e-01,-8.439303988402274692e-02,2.077366795506843666e-02,9.868107466686348861e-02,9.222510162440290815e-02,-8.214001775344872969e-02,-2.310754852658808943e-03,1.231309255341894171e-01,1.441770555553595068e-01,-3.221329336507246927e-02,6.738896988082165862e-02,1.712273132882292659e-01,-5.639942761609395561e-02,-3.942109123341424812e-03,4.845582500561576578e-02,2.801690326437516684e-02
-1.271672831859780584e-01,4.337034334263525741e-03,-1.348241620599064661e-01,-3.572987571709663190e-01,1.951431908269637694e-01,-1.292851000094722702e-01,-2.668133114421064600e-02,-1.629613219690920767e-01,6.444203967676814804e-02,-1.465931530840131336e-01,9.806803519210896547e-02,2.327878478808375062e-01,-9.064498686326587229e-02,-2.680479768351156072e-03,2.729624351968506502e-01,-3.907115722697164506e-02,-4.772034903067906564e-03,9.004469672495324373e-02,-1.920636467419329849e-02,-2.909675184162133776e-01,-9.286285637802914328e-02,-5.605029137582656293e-03,-4.967634097504372570e-02,-8.521481623121505977e-02,-1.373994922554634679e-01,9.532770187994495104e-02,-4.201751508849537256e-03,1.432177081871165158e-02,-2.184855728273394498e-02,-9.291542695842728780e-03,-9.883445644087242299e-02,-2.527679715902328983e-01,9.981591177772314305e-02,7.539007160517152695e-02,4.962656569872750389e-02,-2.314939541065035578e-01,-3.114453319515554930e-01,-9.198420736099141570e-02,-3.358504333818651544e-02,3.571314813975908220e-01,3.651900587441286872e-01,5.534358851140220442e-02,1.797212551005898939e-01,1.002254184839573847e-01,3.146201749862841818e-02,5.311754161083992454e-02,-2.697427469051310589e-01,-8.052751665353316546e-02,1.180481782426184290e-01,-1.425731188029979724e-01,-7.670943135270535951e-02,1.432236585537610685e-02,-4.339150582439484788e-02,6.096342473715007371e-01,-4.798962767910368299e-02,8.909935552454582852e-02,-1.199652487819843766e-01,-5.869346699885239632e-02,-1.574705270178828609e-01,7.440324070201591311e-02,-1.899476486531056219e-01,9.414148434234297091e-02,7.271103415704079920e-01,-2.048709704951583773e-03
5.077289545058151221e-01,7.620240793092773746e-02,2.765194279938378852e+00,1.038419277896135196e+00,9.237674843944492231e-01,-6.056466677980495428e-01,5.610297322121528263e-02,2.531618159127269507e+00,-7.679926954183671772e-02,-7.889048530954355654e-01,-7.503395585779209370e-03,-1.420471027960342747e+00,-1.864401683171768411e-03,1.488376340351414306e+00,-1.955162637548722326e+00,4.332232797994162166e-01,1.797544894128994264e-01,-2.141431128349583268e+00,-3.171386606297402766e-01,8.677299711227989265e-01,8.903910932271219547e-02,-3.208206814599411372e-01,-8.527309861195972451e-02,-1.476605952681654399e-01,-2.719473383215964990e+00,5.262843689784707513e-01,7.679247603177377646e-02,1.279270331839914787e+00,-3.400930540423496296e-01,4.874849955890255687e-02,1.424327796286142464e-02,-1.408853293309540455e-01,-2.919472652246417610e-01,1.026878069372026969e-01,-6.958020454346331984e-01,5.395139050407198322e-01,1.184514715097682913e+00,6.078323559177800650e-02,-3.474772713938305974e-02,-5.041697753903808810e-01,-1.510373868954841159e+00,-8.771373195837875447e-02,1.141082920645944132e-01,-8.482384774292740792e-02,5.402678112003471422e-02,-1.471268402651343746e-02,-2.266662781539945937e-01,-3.127277562163681413e-02,1.734456185658392879e+00,1.358507754323295680e-01,-3.327946449969020754e-02,2.563515191494851742e-01,-4.805960776301401033e-02,-3.000594372624069361e+00,9.499563761032281395e-03,5.230207196779514123e-02,6.668098014763028658e-01,8.316978145651829357e-02,-2.009748488582207004e-01,4.987785181769780474e-01,5.253716484255305241e-01,-1.137868781765714599e-01,4.194275965110112053e-02,2.993382812669100404e-02
8.948930758343960623e-02,5.544831368181359077e-02,-1.913924031556640259e-01,2.573159304703307448e-01,1.121894625001660095e-01,1.531923844576897897e-01,-1.003744914454059167e-01,6.585941241736700258e-01,2.120078787591300404e-02,4.155176349575552819e-01,3.469577369020798024e-02,4.182433635165857533e-01,-1.582634778225821270e-01,4.067490746935084611e-01,-2.748133628853346444e-01,-7.572061483955626338e-02,2.933417937358372488e-02,-4.468927579340762485e-02,-4.461745582032797426e-03,1.047151790476330974e-01,-2.332948589145163805e-04,-3.138245666897052782e-02,-9.961741494344179826e-02,8.500237474972723029e-02,-3.903591888148789657e-01,-2.558007487713250816e-01,-1.499010676609780213e-01,-1.659152746025938652e-01,4.152190356897970946e-02,-1.549148779559886800e-02,-1.731871716606844802e-02,-3.252489940703937044e-02,1.641295200411696797e-01,3.075041770372859487e-02,1.485440732240674855e-01,1.851870074960106916e-01,2.338661610445177674e-01,-9.328544772365186810e-03,-2.979958077041265987e-02,-4.630671390028294754e-01,-3.279085258312746665e-01,-5.060336211831599762e-01,-1.350385520656002813e-01,-6.917694977551959445e-02,5.287458814332273577e-02,-1.912783578608596297e-02,3.945408551044599088e-01,-4.612049164637267717e-02,-1.993024362631681534e-01,-9.300425467302073090e-02,1.960546508643256081e-01,9.057395869060817784e-02,6.582679071290203909e-02,-6.870058592992911439e-01,-5.139248854612606110e-02,-1.873137133440029301e-01,1.011858179916964723e-01,-4.175943781458343884e-02,-1.357266813512704728e-01,-4.501533374542420612e-02,5.542945168502559916e-01,2.937336475184378348e-01,-5.022781977963066691e-01,-1.100009550282372156e-01
1.268889278021247957e-01,8.275103136593742192e-02,1.209648459078706689e-01,1.380622624811092269e-01,-5.141566863543470256e-02,9.756847479128263889e-02,7.036206293011672361e-04,4.500657658814204987e-01,7.991923158345734524e-02,8.567801931833644857e-02,-8.863472224096480279e-02,1.052524955807679491e-01,6.555430094116627970e-02,-1.745095530184029853e-01,1.119268918849268685e-01,-1.830707074092636708e-02,4.169572960326292654e-02,-3.493399767432132097e-01,-1.376386903531444383e-01,1.197574222438019392e-01,1.473080429700079387e-02,1.594702567642581337e-01,1.002988665279850172e-01,-5.564059839490054227e-02,-8.394296587846319935e-02,-8.048511476531482189e-03,1.042948415255381261e-01,-2.057144669031959333e-02,8.981305985343263076e-02,-9.931065208191177177e-03,5.269575584653383299e-02,4.306604915796553856e-02,-1.175540646934367661e-01,-6.736537913490094065e-02,-2.493544115697385599e-01,2.358937652703476662e-01,-1.545129011793308915e-01,6.814434327486390726e-03,1.019476666552062705e-01,-3.949055385983195055e-01,-5.633444347303735028e-02,1.128648199706896310e-01,5.350363676437143445e-02,-3.019142940795838462e-02,-1.063722891186522079e-01,-3.254874291781091611e-02,1.654197865456539379e-02,-6.598397411240254640e-02,2.127243551025158053e-01,-2.358089642678931619e-02,4.614983327227302479e-02,3.443879784884686102e-02,-6.956185999523516184e-02,-2.190811709177258038e-01,-4.527595903196070053e-04,-2.241665697343639407e-02,9.801025975894172432e-04,-2.849000835000393278e-02,5.763826406837734007e-02,1.934105494478342568e-01,2.554935707356284502e-01,4.101649324057490831e-02,-7.650290508869588002e-02,-1.158961346361808420e-01
