# Architecture: 354,32,32,8
# Learning Rate: 0.001
# Momentum: 0.9
# Layer weights below: layer1, layer2, layer3
3.039910329680803880e-01,4.977979524345036988e-01,-6.638554286435568441e-01,5.597199662933214498e-02,5.861967409462961465e-01,3.024100293166439024e-01,1.864505157303223970e-01,9.544383657866772896e-02,3.566926401805792235e-01,1.999317442640476117e-01,-4.262722106880117295e-02,3.273823928083348656e-01,-1.844865019730753189e-02,2.945708465325516667e-01,1.928631717526527178e-01,-1.725476093867221727e-01,1.877198823460610733e-01,1.598665472554986755e-01,-2.342953683632982287e-01,-6.949717071140517309e-03,-3.824163541383580611e-01,7.973103816668873911e-01,5.208808884337540190e-01,-1.161186981770312432e-01,-1.778957223597758819e-01,-5.089993365706061423e-01,3.891567524249340271e-01,2.815900826289844394e-01,-4.593090071154224407e-01,-6.199852151731381072e-02,-1.732962595325837629e-01,9.073887894025893519e-02
-2.461388299890900772e-02,3.043388432773453181e-02,-2.470712382454536560e-01,-1.996899465785814676e-02,3.073275020265634483e-01,1.702528075876747760e-01,-2.675145554379009319e-02,2.577970372190651130e-02,1.080295060697515769e-01,-1.276048610985669506e-03,-1.703983586378700621e-01,2.130020723586934228e-01,-1.177878268899671885e-02,1.146188334583463919e-01,-9.934781621968566401e-02,-3.578483799294136791e-02,-1.242798660185312071e-01,-3.723872663590042931e-02,-1.498689379266145427e-01,1.342015257295144370e-01,-1.509911924895150914e-01,1.204630030926841788e-01,1.233773316693059507e-01,-1.061085616769895795e-01,-5.624820936087615575e-02,-1.962690777959351651e-01,4.767528075162996010e-02,1.464422934109601282e-01,-2.197518519141924975e-01,-1.904504066562855424e-01,-1.028092638005519699e-01,-6.536694638874616936e-02
1.494742140086531904e-02,-1.013520719918857907e-02,-1.403522325435175022e-01,2.401611827237196128e-02,-6.611069381643192022e-02,1.942287429667396287e-02,6.603663363061110236e-02,-1.163098660733494390e-03,1.191070606870401893e-01,-6.600326125439251457e-02,2.147714998840810977e-02,-3.778156160522846974e-02,-6.724293392192252916e-02,-3.845264885220196771e-02,-2.279768175429099791e-02,1.317383216848068764e-02,-7.707298008822842383e-02,6.869835420651709823e-02,1.011190860564032713e-02,-1.160546487508119090e-01,1.015779982158276779e-01,1.638403250982775339e-01,1.088872860048171326e-01,4.772566937609704074e-03,-9.996241911749809139e-02,7.466025509542249805e-02,5.049716671324903754e-03,1.077000472340873122e-01,-1.599188831240743250e-02,4.780153529380478522e-02,2.702784368952182437e-02,5.778424715467002371e-02
-9.003638945167496965e-02,2.458082638662413277e-01,1.076052314257701231e-01,-8.472376775027974649e-02,-6.018214016111932824e-02,-1.186359510167114273e-01,-1.226697271768603398e-03,-2.203785238405869904e-03,4.416547953776549761e-03,2.869450233027767139e-01,-8.406169008085366545e-02,3.287389825644072838e-02,8.774654360300124245e-02,-3.133729984752842146e-02,5.674788403693001998e-02,1.305976826778715572e-01,1.376525270365544854e-02,1.008186956011347113e-01,-7.171348318234520292e-02,-3.416956861365971071e-02,2.360897268950635716e-02,-8.504021584894988495e-02,4.428583411593360608e-02,2.346539584691156033e-01,-5.379995021830798196e-02,8.956190339155094271e-02,2.565351132510915177e-01,7.965990705977570030e-02,-2.022224266747645882e-01,-1.859648815832472546e-01,8.733036536221980284e-02,1.747299797286212264e-01
4.730338628837806036e-02,5.425717532906501606e-02,-7.521929349632308637e-02,4.138287134313681920e-02,-3.625137994013479664e-02,5.316572111479189906e-03,-4.826799588035714933e-02,4.924975345184611636e-02,6.596960053651526601e-02,1.170128124370653500e-02,3.096298700439431562e-02,-6.078888916053306474e-02,-1.306693956438624848e-01,5.838262805530940180e-02,3.803184122624432562e-03,3.672205016408900541e-02,1.838740066965856845e-01,6.045800512677774324e-02,-6.983462491493906688e-02,7.344040843637746063e-02,-1.097663599879620394e-01,-3.203974717343290035e-02,6.049760262963123011e-03,1.198461252438834668e-01,-6.984880604193760556e-02,-7.972695598204425360e-02,9.095257570734420483e-03,-4.189136882486018537e-02,5.910051007175815690e-02,-9.916350343989092930e-02,-8.011933990610101142e-02,-2.261158523476857266e-02
-1.145443120876106918e-01,3.917614564567090674e-01,-1.266964553332700916e-01,-1.560569465728027794e-01,1.881372742854827140e-01,1.600422450501775284e-01,-3.252264512739708874e-02,-9.893050164794523968e-03,3.489638792758587016e-01,-8.826495876422254389e-03,2.665234309928688275e-02,1.742143648679240764e-01,3.523510167450361746e-02,-1.187375326313180324e-01,-7.532842696923267023e-02,-2.360012341026413718e-01,-4.195000087977390768e-02,-9.131373972339490441e-02,6.289575127223963336e-02,6.733920603572884911e-02,-1.924886031069180659e-01,2.935016685619861176e-01,1.724532396839220660e-02,-2.707170305837182100e-01,2.651869380691626588e-02,-3.302076479235354078e-01,9.194613124787855141e-02,1.827608559311071079e-01,-3.120707389707219614e-01,-6.295719563335783371e-03,-1.492251349704401542e-01,7.363872366702611805e-02
1.339282156273149818e-03,-7.719671618932046064e-02,3.521100882967773821e-02,-1.813322036697733244e-02,6.427291720309877276e-02,6.987306636137062543e-02,1.604500949662649167e-01,9.587579202864042471e-02,-1.458660535020293685e-02,-8.071381053493061411e-03,6.963078339480141543e-02,5.798868064792197380e-02,5.245974963334728430e-02,-1.268293145544207023e-01,-1.480975377591186009e-03,-6.053882482719346453e-02,2.251592028197003936e-02,-9.105310459156933101e-03,6.261239602000437388e-02,2.579794923474296175e-02,4.708141094317016412e-02,-3.021136970096944749e-02,-6.369553118703777383e-02,-3.393744248903465127e-02,-6.875271364741846608e-03,2.379548236057254379e-02,1.788236886941041714e-01,2.920346177709598110e-04,-9.866515604080151880e-02,-3.143408606454134446e-02,-3.300229169527864326e-02,3.950227083302021436e-02
-7.462791723016930223e-02,2.589785499855242201e-01,-2.948220655836018556e-01,-7.200927877359146467e-02,1.132847582283314919e-01,1.714459717721618925e-01,-4.204814348156927367e-02,-2.468138600007798930e-02,1.963490178718360624e-01,1.765609103562264248e-01,-1.171900100326830757e-01,2.481181313202988903e-01,-3.602246802992017938e-02,-4.616653733078902345e-03,5.641450634724611696e-02,-9.345508796205157995e-03,-1.519761906640498686e-03,8.299564199423315261e-03,-1.245507057001496304e-01,-1.128784545795526173e-01,-1.255662253305400433e-01,2.072783298235318650e-01,3.168016738806826993e-01,1.647660529259040718e-01,-2.750474827816652978e-01,-2.703042064927615451e-01,3.397534099559263998e-01,1.275833703663097896e-01,-3.247877184352662150e-01,-1.629427933658253447e-01,5.547974793889446157e-03,1.037837285334412690e-01
-5.204240932087913357e-02,-8.362382209963258040e-02,-1.415109321129641717e-01,4.378586681630903393e-02,-8.393679564879646948e-02,-2.542195051608135345e-02,-3.898781967403514709e-02,-7.243392845404901005e-03,-1.276846735534747646e-01,3.590519616647674939e-02,4.091097170725071369e-02,2.246909789939775456e-02,-3.702023661913680930e-02,2.989316551973280819e-02,3.278466963179982319e-02,-2.062596253867043095e-01,1.560609593093915670e-01,2.979860057898594747e-02,-6.527395167154685651e-02,-3.888686271271257766e-02,3.284769065686297257e-02,6.189563762759063732e-03,-1.331098099466096474e-01,1.641370718018983488e-01,-2.979517168131864957e-02,6.758564921773124734e-02,-2.713576827051552079e-02,1.216124445362701256e-01,-3.619773772000002294e-03,3.520091163734574702e-02,-7.853308978392262163e-02,9.577852164401406965e-02
3.263265648435041688e-02,2.452038402519457760e-01,-1.299606116902413677e-01,-8.909149431502914884e-02,2.193336680386461790e-01,-3.075108330577497329e-02,1.754226355223594339e-02,4.201149665920524828e-02,1.625862487204789708e-01,1.706891612372818112e-01,-6.070737131409036091e-02,1.528764141221156392e-01,-1.565799887377903876e-01,1.584163957773049025e-01,-1.814874657106265929e-02,-1.234119535798580830e-01,1.057482728651627096e-01,-9.724866445139224158e-02,-1.253611977305487402e-01,-1.416900205445068839e-01,-1.539715413696467368e-02,4.789196477229139270e-02,7.668762182385863158e-02,9.067858288350466589e-02,-1.727719129046220159e-01,-9.922475391746284068e-02,1.103387957609858888e-01,4.786412617178603668e-02,-2.097665201498536691e-01,-1.092964042298253113e-01,2.683195276558728373e-02,4.241089951346466158e-02
-5.771758431593657784e-02,1.118434340142858557e-01,-1.167050361315883078e-01,-4.345269512639909903e-02,5.992213365006782318e-03,-2.194535177136225368e-02,-2.595014728130867407e-02,1.530453706217040355e-01,6.619387242201631161e-02,2.676811344974816542e-01,6.166863009538899043e-02,6.335403973589485982e-02,-1.136201551280521249e-01,9.273337155471919613e-02,-2.548336182528946892e-01,-5.143378270722581691e-02,-9.495369413872720155e-02,-2.566472725094932211e-02,-4.209746965039157240e-02,-5.328652222553708663e-03,1.379874388820269936e-02,-4.053394678422028719e-02,3.532615681176116268e-02,-1.440241817429155913e-01,-1.305048705061192249e-01,-1.193520387100418800e-01,7.807301792229691395e-02,1.562843834533413079e-02,-1.362007531453040543e-01,-4.656899218587232797e-02,2.076285082823198583e-03,-3.921096383725888868e-02
7.228271002950739654e-02,6.058929940166380562e-02,-1.067354067329370909e-01,-1.305321881748332524e-01,-5.844019377619954353e-02,3.004618741101262522e-02,-3.823118227307089299e-03,2.658690479470888351e-02,2.465541496367989749e-01,5.950717758241241828e-02,1.824371973149325338e-02,1.222505659196029826e-01,4.087999335190475175e-02,-2.253597999657081311e-02,-1.641574648101334910e-02,-1.006434240006927466e-01,1.511961378081003518e-02,-1.618658794654129485e-01,9.447203072033536625e-03,3.410075529506241196e-03,-3.064133598095342137e-02,9.315245277492607834e-02,4.922989095474505222e-02,3.928123903808391354e-03,5.080944207961979667e-03,-1.946910463159214344e-01,1.012884946785067020e-01,1.531972753979606305e-01,-3.162878523716144974e-01,-6.810473280830739440e-02,-1.705866188573523512e-01,-9.780271220325825396e-03
-2.341988797569435204e-02,-2.783979473989170450e-02,-9.065586398244952770e-02,-2.066578885042958669e-01,1.667524918909324416e-01,7.507338518458629706e-02,8.336429513538533287e-02,-4.562871502093404641e-02,1.342836553694037593e-01,-9.120964559138529382e-02,-7.450843725782178850e-02,3.804127439282917883e-02,9.665221477982548215e-02,-6.555362772056627305e-03,9.784080234322124758e-02,-1.088585507510956424e-02,-2.208593808388484292e-02,-1.532459893682066310e-01,6.166096213028852274e-02,8.538785210197816222e-02,-2.175091881666046389e-01,1.160621065516942996e-01,8.083087119878093474e-02,-7.036041527869515283e-03,-4.926466432383841410e-02,-1.067386710186626897e-01,-6.159623345319441799e-03,1.201721787970807254e-01,-1.900994546876217939e-01,-9.613181205896557946e-02,1.377977495609075675e-01,1.083534252690269706e-01
4.414580273001134265e-03,9.558957165666250033e-02,1.176082173304727682e-02,1.163924708317285728e-01,1.532565162424216476e-01,7.611640741864189597e-02,-1.591267123903443714e-01,2.916720302265749659e-02,8.203374219298444070e-02,9.007893218148102510e-02,9.588335702039255115e-02,-8.041071882395872672e-02,-2.005631587967246499e-01,1.428199238333636711e-01,-1.138064366258117605e-01,-1.819502719317500072e-01,2.351116392167203542e-02,1.380293275590842132e-02,-1.916714235470281733e-02,-8.033171451223776460e-02,4.320968703185660426e-02,5.349163486024659242e-02,9.508526210830973990e-02,-1.189522014950865868e-02,-6.315738027974565627e-02,-2.105097951539064982e-01,6.408436457016271348e-02,5.349279059991711438e-02,-1.886050338862979786e-03,-6.633289359601442226e-02,5.475385213575698767e-02,-2.475881868345989473e-02
-9.236701624762377882e-02,1.237012380146917528e-01,-1.039423765441941511e-01,-4.825741906074590415e-02,8.764500319848839149e-02,8.493653906370599027e-02,5.398134914978515442e-02,1.215821112441713148e-01,1.304222756379413983e-01,-1.084611169123952529e-01,-5.984550605247218602e-02,1.034380644606644334e-01,-2.078550497649810092e-02,-1.866346761735973581e-01,-3.729238288875285495e-02,-7.767379035410272581e-02,8.843223034496652812e-03,1.239874173507448385e-01,-6.926382340972599139e-02,-3.260555597965154179e-02,-2.769189535993701878e-01,1.105968943451640096e-01,-1.140642422135583894e-01,-3.808557202618609999e-02,-7.064784827819875490e-02,-7.288303797106225612e-02,2.691692830191321772e-01,1.196261887650980210e-01,-1.246511768436249085e-01,-1.423835675488193675e-01,1.082551860173216196e-01,8.097427652645609875e-02
5.186351087330199477e-02,2.828125458812750792e-01,-2.455365119459242129e-01,-4.286199977963899704e-02,1.872248798871413433e-01,-1.513893699241699309e-01,1.187377299327153218e-01,3.428195407999491684e-02,1.515537377560561838e-01,1.919405648460593694e-01,-7.529054912327540205e-02,1.390673410339962057e-01,-7.587667244512789899e-02,2.706081274641184420e-01,1.910269211432199521e-01,-1.080534247366322087e-01,1.406168727574595018e-02,-8.297678887490371469e-02,-9.538751456979296939e-02,-1.141801318060626930e-01,-5.928435097249068475e-02,8.465281337551619489e-02,2.173268698927971754e-01,-4.259974914429451309e-02,-1.650470630984174902e-01,-1.549391857847585985e-01,3.262504643362578588e-02,-8.362012057108508811e-02,-3.421421999883131337e-01,2.133061046389348944e-02,9.810875483685610465e-02,1.669473061951725901e-01
-8.357903047850312461e-02,-2.196162131476593268e-02,-1.883827221959012421e-01,1.533828439046693026e-02,1.325811482095789196e-01,1.244335854111255218e-01,2.935846604691020115e-02,1.324319338492459808e-01,8.369222364570638728e-02,4.120385142261884237e-02,-1.290053220964389458e-01,6.665639117235800173e-03,-3.622255425277015606e-02,5.062382710566083743e-02,9.682952906096840839e-02,7.649587396220690338e-02,-1.284702811209314233e-01,5.241705593106620042e-02,-2.243718681430470208e-01,6.510767876720845865e-03,4.613191945624611767e-02,1.077332730276248096e-01,9.930538344320437652e-03,-5.364744023013254259e-02,-1.133404022991201382e-01,-8.605875166068886750e-02,8.985772026754616781e-02,4.694400460850249590e-02,-1.386493481291101726e-01,-1.611773476973733521e-01,-2.271969666154643325e-02,1.378152090981598910e-01
1.328928828637931936e-01,3.208485254135150927e-02,-2.725225119681967123e-01,-8.248035183129623360e-02,2.344954366882464059e-01,2.912701198116601775e-01,3.250835140704375764e-02,-8.651595815055945771e-02,3.821625648662178576e-01,-2.602423034942522029e-01,-1.580649106152758054e-01,-6.792161115215832046e-02,4.173277870900232167e-01,-2.556052554371190388e-01,5.528659612512049071e-01,-8.825748680382393407e-02,5.400265267870448804e-01,-3.170194947773263827e-01,-3.533670264651517789e-01,4.309514855244251930e-01,-8.638532981939019140e-02,5.471770456754321277e-01,2.591997447518178399e-01,2.010112107417361960e-01,-7.221032692362810979e-02,3.315584447673555202e-01,2.062974450864648868e-01,3.062218539240212090e-02,-3.306541526698066891e-01,3.064433394741424288e-01,-2.364508172305316569e-01,-2.840704104684081059e-04
2.021954499774045871e-02,1.642499611386132041e-01,-3.273596992359826263e-01,6.711146170814523415e-02,1.308023185510442943e-01,1.142258845017039559e-01,-8.524188092335892308e-02,4.293479740464311439e-02,2.611737385040681092e-01,1.628331335565431637e-01,-4.774343582653520213e-02,1.840597461463941154e-01,1.870944150050380186e-02,-2.047964332949893385e-02,1.370947107517844488e-01,-3.575741609584972419e-02,7.539873128084263743e-02,-1.643086082507108081e-01,-1.302912826400383639e-01,1.810610776807547728e-01,-1.864573301619252832e-01,2.172884972653939539e-01,1.453221829051416503e-01,-1.466871983460236173e-01,-2.990204811166235488e-01,-2.203754092216665961e-01,1.250727162819052773e-01,2.006401656592380067e-01,-4.696149323551557231e-01,-1.864647697574436935e-01,-8.179501233199966415e-02,3.582687321002879857e-03
-3.559331571828389107e-01,4.587109316789995672e-01,-1.128546036035988145e-02,-3.270063513916931508e-01,-1.794852430644445218e-01,-3.071656488576055000e-01,1.635213814635070873e-01,-1.164116854437013404e-01,5.032237738119872406e-01,9.212772161225399881e-01,1.704891291023392652e-01,4.018183352723179169e-01,-4.666799859565803343e-01,4.306344429049990818e-01,-7.216490667251268532e-01,7.630034947790056976e-02,-4.999131171541375263e-02,-4.488040498516135957e-01,1.932681659213641434e-01,-3.037008813292135234e-01,-1.398558899102313458e-01,-6.231231112694457508e-01,-1.612427637502933109e-01,-4.908047458985241585e-02,-5.594913058793610922e-02,-2.108402734844047055e-01,5.326518572593852419e-01,1.137142123648969272e-01,-7.403943162705801939e-02,-9.458221086234241959e-01,5.442449903522953436e-01,5.291163092402041412e-01
-3.052925809037079427e-02,1.729416311937277406e-01,5.035537865980778405e-02,-1.350483219762370901e-01,-7.676033447378770302e-02,2.076727777250511955e-02,8.791624351111673730e-02,-2.793742110457907157e-02,2.209529416926855547e-02,1.810159031964544696e-01,1.173425789454246061e-02,-4.940729288905411354e-02,-8.695433913387792813e-02,1.576920848813730125e-02,-5.129394397338907230e-02,-1.409641469344865249e-02,-3.300500854575232068e-02,-1.078054334849997964e-01,2.295178518227826078e-02,-1.580676381373942729e-01,-9.176116651355437082e-02,-7.820545499431046099e-02,6.115785971080334171e-02,3.436584475366893932e-02,-7.511960155248499638e-02,-1.074786415861496702e-01,8.829971316275095350e-02,7.665923630720083981e-02,-2.601717999360258493e-01,-1.838102742956809407e-02,-8.672785677859791431e-03,-1.023680651382535972e-01
-3.723369984334451432e-01,1.317138305330994019e-01,-1.835091898690066892e-01,-2.383032754440372325e-01,4.616148059708695128e-01,2.266034147410107003e-01,4.139092702671257756e-02,1.856873686122018641e-01,3.842754327925614333e-01,7.177541742708669348e-02,5.463322143538904690e-02,5.303610119160051539e-01,-4.840269416797588486e-01,-7.389009779175234605e-02,-2.762790661893565480e-01,-7.264025714674683387e-01,-3.663719267327188445e-01,1.166359597514458474e-01,5.295764667046225505e-01,-5.514713192380990558e-02,-3.482470974076859460e-01,2.589020720965093947e-01,-1.292967272252457944e-01,-2.581815638469407981e-01,5.495018325027186540e-02,-7.937717277403735228e-01,3.379524374896218653e-02,3.424841261730370290e-01,-3.202996161373349304e-01,-2.650108239187299319e-01,-8.207170287657376828e-02,3.103525724485575177e-01
-2.016007163351212286e-02,2.729033251278772942e-01,-1.721993164350590910e-02,-1.010367121143039698e-01,2.372690396360545573e-01,1.623220840100332019e-01,-6.662441516137115882e-02,1.623391492145198622e-02,1.813630489979642380e-01,-1.498304405874654154e-02,3.165636274824179530e-02,2.263411608893920735e-01,-2.217292298023157415e-01,-1.556162858104174485e-01,3.249847974030894288e-02,-2.775463219491426936e-01,-7.034940640036585480e-02,-8.886826323786575776e-02,9.906667765302834550e-02,-1.299847107621685816e-01,-1.997717643138091637e-01,9.940897123020149551e-02,-3.539559696590188764e-02,1.140597060321149187e-01,3.085816067237976204e-02,-4.253262291543211809e-02,1.002166793397896993e-01,-3.473451796914673456e-02,-2.987018327471680501e-01,-5.033637810956433090e-02,2.069286566037312203e-01,-1.158608126658232929e-01
1.623136083399026319e-01,-1.127002292251797627e-01,-8.014824907888735694e-01,-8.157683181676890494e-02,8.878546456541585030e-01,5.140022812642827121e-01,7.093573900796276699e-02,2.524573747447437788e-01,5.475687468078259679e-01,-4.039272757018207982e-01,2.180872373963294378e-02,3.257783229796208935e-01,-1.375711401045580096e-01,2.753774370388726855e-01,3.933475855889875805e-01,-6.441639839926776023e-01,-2.524059173202410911e-01,1.222865764843279468e-01,1.636322261685142498e-01,3.987444085911043823e-01,-2.162240689700021395e-02,1.241064712929561775e+00,2.948403991595637264e-01,-2.873560226083146651e-01,-8.685522601096966333e-02,-7.297704861794216402e-01,5.368996684345954395e-02,5.253929905780903020e-01,-3.107431562433057848e-01,1.547507461056953915e-01,-5.115031834527491439e-01,6.671579844545712235e-02
1.118735752112359622e-01,1.666042043852025423e-01,-1.971210394208036676e-01,-5.844640369252906281e-02,2.142013681327485999e-02,1.102559462379948674e-01,5.864833077745508667e-03,-1.851257849668805078e-01,2.169173985844820574e-01,1.238152247357227065e-01,-1.286175856278277407e-01,1.905014317115846789e-01,-1.159003566201247983e-02,1.207706672149650856e-01,6.893508144626275813e-02,-1.908242419559999237e-01,1.042555587342941653e-01,-7.205111110274260711e-02,2.385452972152035320e-02,-4.062044083956055374e-02,-1.565223396121685207e-01,1.257414470482519364e-01,9.078251275925114383e-02,4.045843299918455704e-02,-2.054509003576862336e-01,1.641355927208432153e-02,1.340248354703792166e-01,-8.065520637090897033e-03,-2.852660662395318236e-01,-1.682180776003150691e-01,-1.569930728865587960e-02,7.618085321785343297e-03
1.136761324287479002e+00,1.434680820589970263e-01,-1.718338158293595486e+00,9.926472245195107069e-01,1.125423351898512392e+00,5.163400346308945066e-01,-4.314069568951361400e-01,3.827406913314223003e-01,-7.088612042695805471e-01,-1.481195653998609307e-01,1.093353501701815889e-01,-5.221498117097530534e-01,3.565024057476309238e-01,1.548585156577109379e+00,1.060174801660278776e+00,3.610034724786194138e-01,1.309103589666084644e-01,7.085176226746040529e-01,-9.777642185306579803e-01,3.845678375919529546e-01,1.041553559958663111e-01,8.380714344563562346e-01,9.513631523681509439e-01,-6.708327058695457978e-01,-4.678450261141294253e-01,-6.820199589316272570e-01,-4.233861996473960998e-01,2.374725201681130160e-01,7.845001895093502153e-02,8.698122544172026682e-01,-7.431320466956209403e-01,-1.600297864261261971e-01
6.456428313793386442e-01,2.903363759667283994e-01,-1.766823084504265617e+00,1.533198136504571263e+00,8.832701790404690056e-01,-2.791287590982036715e-01,-4.440601892051544430e-01,5.270724476028324501e-01,-4.802009553031058031e-01,1.292946415969437934e+00,7.577044780869058860e-01,2.325451917274112545e-01,-1.219610507307269831e+00,3.375998788608534973e+00,-1.248849856726280266e-01,5.713139224176998487e-01,-2.412092703218684520e-01,5.719895432406005842e-01,-8.584167613271618258e-01,-1.064924047897121140e+00,4.182556533739574811e-01,-1.882271624137622501e-01,8.156268966515475283e-01,-6.414583680255285802e-01,-8.132421145939331408e-01,-1.263093532392074225e+00,-2.418481271691876600e-01,1.107116202942490801e-01,6.890136746751941432e-01,-1.232588744871503522e-01,-2.181053906766882711e-01,-7.752188404455498394e-02
1.182478021451874445e-01,4.994890711484680224e-01,-9.104152428181769841e-01,3.736372317982884494e-01,3.441275499391234782e-01,5.048562700645335688e-02,-1.594611890544933921e-02,2.458312094183539437e-02,1.036156286598016729e-01,9.013294731417078598e-01,2.692271778883489897e-01,5.408344197158913014e-01,-1.222532756626477868e+00,1.451742878628507816e+00,-3.895429556121791093e-01,-3.231269625472567575e-01,-5.179707805326911468e-02,1.894502150011904973e-01,-2.466484314039675552e-02,-1.050629728476180968e+00,-1.197208944275321603e-02,-5.236228028670107670e-02,6.266484887374789148e-01,-1.939983554290904133e-01,-4.277761638553555512e-01,-7.275640958028259941e-01,1.963006162330847848e-01,-1.841973667548548778e-04,-3.057742848231110311e-01,-3.481050772966652884e-01,7.328935236041773937e-02,2.221958946786238565e-01
-3.190956128438762751e-01,5.405510837109676059e-01,-4.807553822958525180e-01,5.424525028718530512e-02,2.681014032385934387e-01,-1.961557297713812931e-01,4.166017732976170368e-02,7.470695745908906282e-02,3.431722888155757656e-01,1.261573885113222993e+00,3.139784590891451233e-01,7.883985919546535603e-01,-1.342798767319066222e+00,1.506481980676161792e+00,-9.285762920478323190e-01,-4.353121539524064110e-01,-1.837026802826111915e-01,-7.945318199152948124e-02,2.145671821990301764e-01,-9.629913261507609956e-01,-1.614699326294182294e-02,-2.010947022993193334e-01,2.802266542840323171e-01,-2.910885737734996703e-01,-4.310740028492524023e-01,-8.581253673028671480e-01,4.372970322079646199e-01,1.277021113515426354e-01,-2.051198223845240309e-01,-5.669460925817897401e-01,3.218834578404354829e-01,3.481899846076387806e-01
-1.487283625207106996e-01,1.519574459864008256e-02,-1.585562971198103965e-01,-1.909220637879761040e-01,5.318965936160419128e-01,2.517465820079860528e-01,-1.338561980410834518e-01,1.083908893497911585e-01,2.721564360657259818e-01,-5.343188843184990544e-01,-1.947436626643695920e-02,2.835008077980281094e-01,-3.788990775438487169e-01,-3.089626570260566307e-01,-9.603353088885206723e-02,-4.983148062850351612e-01,-3.299067700883714371e-01,1.178345660388498140e-01,5.159521558653250572e-01,1.662635938813528461e-02,1.057199803981727082e-01,6.873620269589172382e-01,-2.513431830562172786e-01,-1.535619150825037575e-02,4.367936986853754866e-01,-4.196504814492786339e-01,-8.034828714836188268e-02,6.249974460195688308e-02,2.194806865571392596e-01,4.207466152897593181e-01,1.870949857415597772e-02,-3.052127582008092033e-02
-2.813726792875749783e-01,2.561392123221934436e-01,-6.635773714406061341e-01,1.561812410670293250e-01,5.311389165589193162e-01,2.331129905814793013e-01,-2.718163972866032094e-03,8.296241447873088648e-02,9.450530015154732233e-01,6.754543348700036143e-01,1.315534168517099034e-01,9.407338594076023464e-01,-9.116380284725443817e-01,9.531238167353920376e-01,-2.185477359670449371e-01,-4.219220134694306457e-01,-3.171376673280607572e-01,-7.856088361548035914e-02,1.583554566565432420e-01,-6.745480628716921112e-01,2.883959687176756992e-01,3.189913859213028835e-01,1.442238698390153617e-01,1.419269791953549353e-01,-1.987932381565487849e-01,-5.470100223596409128e-01,3.145331077299188260e-01,3.851163016174696252e-01,-8.823993917977027146e-02,-4.281045954210442317e-01,7.613152313826079820e-02,1.741189897760473948e-01
-3.001150147349354591e-01,-9.068667157102298926e-02,-3.860737386765420998e-01,1.849812267267857691e-01,1.535151825799725700e-01,2.336157271317925721e-01,-1.117556861269746321e-01,-2.337967073954482639e-02,3.145670929149316231e-01,-2.055612520964553852e-02,2.634972268235982185e-01,2.413246971301901966e-01,-3.436360035659813961e-01,5.225547624488195986e-01,2.702707019254404486e-01,-1.016285791649023801e-01,1.670964701611073744e-01,4.822111243426449589e-03,-1.315562883953119155e-01,-1.053677440178253100e-01,4.990462186130576461e-01,5.153313727807854461e-01,1.711738180263467080e-01,3.206891797961659019e-01,-8.296815113009317622e-02,-7.144250205699334555e-02,2.031902053745566206e-01,7.615054703694894289e-02,1.882385989649003333e-01,2.246993435105986703e-01,-1.766904140903509668e-01,-1.912779758565924804e-01
3.470450600077958359e-01,-3.139584383948974544e-01,-7.239278461916148766e-01,4.142506717227050217e-01,6.690579597081175445e-01,1.154270814200385326e-01,-3.103777526583234025e-01,1.814987280025456007e-01,-1.450080094630495087e-01,-3.097138510881992657e-01,2.553704889796961641e-01,6.811294187422732571e-02,-1.174128598542820423e-01,7.217522178620547901e-01,3.859369735749537123e-01,-4.889801119167487831e-01,-7.750142372418393488e-02,9.632436444582954949e-02,2.032431783623372679e-01,2.691685545805246396e-02,4.391607623410788142e-01,5.165668888417771498e-01,2.938211784771980195e-01,-2.401828910918415438e-01,8.524062635094134532e-02,-3.757225413865004637e-01,-6.343854608279198004e-01,-9.636739448706244104e-02,3.149677892571663834e-02,7.334206303187035259e-01,-9.775423008500666588e-02,-1.294116367742784435e-01
-4.736274393895273938e-01,8.770802336414688094e-01,-6.713604026853487936e-03,1.886587123812900335e-01,-2.763288478630572531e-02,-1.107434022039902155e+00,1.577023710233768916e-01,1.073451081004016122e-01,2.044673356464279390e-01,1.248827163541675223e+00,3.155978435918108671e-01,5.105339111486585646e-02,-5.180450811240178144e-02,1.013179265284195774e+00,-3.785070503861646118e-01,1.990558266839467239e-01,7.151864623176301672e-01,-7.385166906090914196e-01,-2.349741349995215500e-01,6.992758575522876885e-02,-3.271142865110869269e-01,-8.487942897616453930e-01,-1.570644919860956501e-01,-4.813560050669581369e-01,-2.886366795893233750e-01,3.768078656932653120e-02,5.302385639492742664e-01,-7.557871619584416445e-02,-1.790680816520302532e-01,-1.112437494185658293e+00,3.562157830840823047e-01,4.173681989669711934e-01
1.807659008386603705e-01,9.220776096351776530e-02,-6.498754594031017628e-01,4.191940641045794891e-01,2.184453033125016708e-01,-1.452545692606823924e-01,5.418142362543490811e-03,1.502831231470724282e-01,-6.849839634952301082e-02,5.127009155613673208e-01,2.444490342101768576e-01,2.808047216786569988e-01,-8.087924466664015988e-01,1.265775365424443688e+00,-1.955220680218143492e-01,-2.563594471960760346e-02,-3.083353057630226490e-01,2.275799028397270940e-01,-1.381712422006619277e-02,-5.817937489004776364e-01,3.009176212618874802e-01,-4.547833301911899384e-02,2.520462650254375325e-01,-1.146883377107235508e-01,-8.714173979530664971e-02,-6.369061855676823036e-01,5.408557615406924673e-02,1.347390313374823567e-01,1.598159126817133568e-01,-6.958728080377132863e-02,1.165266133870375143e-01,-4.785939604242766404e-02
-1.319870364847595123e-01,-6.359470436754393052e-01,5.994627002239926172e-01,-4.625983530716629155e-01,-2.240662013764175842e-01,-9.432340364590199866e-02,2.885972942389606450e-04,1.410608268688414990e-01,-5.866467494451609310e-01,-6.291797152316775943e-01,-1.291598509209160306e-01,-1.831589636844635771e-01,-5.086071582787728140e-02,-4.983655315593669699e-01,-6.211877277825641475e-01,1.400075326384562502e-01,-8.427646837331128626e-01,4.740114510023963335e-01,7.931532035084547516e-01,-8.745205188289620346e-02,2.096191325507208159e-01,-4.099768863038389943e-01,-4.791191568502405906e-01,-4.370806386921385900e-02,6.790110569715999134e-01,-2.427596593942028536e-01,-4.766180999280523745e-01,1.685567973830754893e-02,1.038093937226746588e+00,-1.931732785311605083e-01,5.294387478873123498e-02,-2.223712048983537415e-01
-1.804406966562062120e-01,2.222800186801289768e-01,-1.858133451908074163e-01,3.049127554517643349e-02,8.757483952603330180e-02,2.163440346772541045e-02,1.926109488816628856e-01,-1.125241633509805467e-01,2.394391228879160227e-01,3.803482598920621127e-01,2.480431895841839485e-01,4.616212943621792464e-01,-5.041979761222987744e-01,3.941545071946899181e-01,-2.549287077406455215e-01,-1.539172177295710098e-01,-1.232597713368495107e-01,-1.400996556532314169e-02,2.432365657564251049e-01,-4.675535259844900149e-01,1.223737595233931469e-01,-3.412175071464083886e-02,1.342003796950076988e-01,-1.509653385956217717e-02,-1.017845184024573912e-02,-3.246999701146184303e-01,1.305894390676286820e-01,1.220862612346611392e-01,1.957515912724926976e-01,-2.367760374946431545e-01,1.073854357227500556e-01,1.708057716408303839e-01
-3.153164973086582806e-02,-4.505112773272855198e-01,-2.083827954364459167e-01,-2.137676165478075985e-01,6.056241826047971122e-01,5.197924687246173736e-01,-1.599914472583891800e-01,3.225987016694512599e-01,4.735399389733695175e-02,-8.727974450154327712e-01,-5.459021397201661158e-02,2.543298812910474993e-01,-3.512782391449902897e-01,-6.546808555477023894e-01,-2.310836705169372896e-01,-3.902526039170782224e-01,-8.161047594783200632e-01,3.592926836552847725e-01,5.588594962828699053e-01,-2.019769411160607375e-01,-1.749917681842483655e-02,6.779198703377755653e-01,5.685482354500153573e-02,1.882289803421351160e-01,3.704559291819966571e-01,-3.757726624428629481e-01,-2.596065341439816529e-02,1.892423211361682067e-01,8.054051648678314801e-02,6.549938257661716001e-01,-3.932716770945268725e-01,-2.016651732241999395e-01
2.661527998304742335e-02,-1.460703372528979714e-02,-4.091348047716295011e-01,1.656055932116859419e-01,2.574938236382978141e-01,-3.962530888094914494e-02,6.731340770325242029e-02,3.281057723643280438e-02,9.230467890984379864e-02,1.960946867900686397e-01,2.339696192800284902e-01,2.219973953131281208e-01,-5.194815544634691085e-01,5.838001668492971419e-01,-3.350275738414199012e-02,-6.501525670015960434e-02,-2.394949153878095927e-01,2.004323861375946758e-01,3.863234355620615013e-02,-4.451115429393796008e-01,3.028665974032926922e-01,6.656544638025892191e-02,1.931840581075166749e-02,-1.164609159508489811e-01,1.764608906377218012e-01,-2.676095150272683187e-01,-2.001624016095505249e-02,2.817281685601312480e-02,2.387021854378710284e-01,7.187471601881441352e-02,5.788932237289078075e-02,-3.820160355509103021e-03
-2.761631090451261220e-02,-3.675182200464998661e-01,-5.516486744815153331e-01,-7.793138994068572918e-03,7.005374291106801765e-01,3.733923158875873116e-01,-2.151152938975630091e-01,2.348912715124808204e-02,2.379179004844983458e-01,-8.462189473689148145e-02,-1.172288461669499793e-01,2.261772309996953334e-01,-1.094438358856003879e-01,3.261150314115002780e-01,1.134915124488334870e-01,-1.450161559023584457e-01,-4.444172548086460228e-01,-1.314781229176103516e-01,2.463822417093863570e-01,2.154116243721581891e-01,8.942999199651563424e-02,7.314257490180188226e-01,1.147023520870200097e-01,-1.065211376193497123e-02,3.818188677222014715e-01,-6.403680169311908310e-01,-1.099544623973622987e-01,5.593066640439336989e-01,-2.955250889117626012e-01,-2.127690896394277276e-01,-3.224370559275311354e-01,1.407983306178635374e-02
2.533366060926520169e-01,2.240486559404105890e-02,-5.520720027072060221e-01,3.598115351402673134e-01,2.315113979082310536e-01,1.608682524855570631e-02,-3.127472158580003880e-02,7.653280767112558003e-02,-1.250445404541639660e-01,1.678671321309403441e-01,1.729041153384234253e-01,-1.302023672721701608e-01,-7.779589105299167251e-02,5.208667979226416778e-01,3.628691267935044151e-01,-1.713178948450242225e-02,4.667175867897595774e-03,2.119986816888133341e-01,-1.951387500555850918e-01,-1.718653370212094300e-01,3.845568649172158987e-02,2.708400752321518667e-01,3.237921731991925678e-01,-1.446065550790182064e-01,-2.087939807914410140e-01,-3.475362609525648461e-01,-1.376445990212193937e-01,1.207824810448411557e-02,1.127263754330305179e-01,1.318422470624395493e-01,-1.480113372270318306e-01,-8.732171925591654393e-02
-1.591572906399988940e-01,4.105326965514330406e-01,-2.018081641390765957e-01,-8.737099312378426852e-02,-1.315261654488684151e-01,-8.276896971031190431e-02,1.208984306496762445e-01,-2.211024239891924148e-01,3.260835750261155130e-01,5.490991612490664364e-01,-1.076873997617780465e-02,4.144054867414038723e-01,-4.900978858962313778e-01,2.993799636375543138e-01,-1.938679529084076925e-01,-2.160404933902789620e-02,1.704195933497801574e-01,-1.140035693602159811e-01,3.539069500388138112e-02,-4.357686144906451342e-01,-1.056694622767903741e-01,-1.385896312694715748e-01,9.926320705670128863e-02,2.407586213016768215e-02,-3.735118071134690965e-01,7.338053640119291537e-03,4.286698919652774387e-01,1.614578788745916205e-01,-3.822299958880344128e-01,-5.446520871899033223e-01,2.960927250197856742e-01,1.661896451584787548e-01
-4.648691973059337207e-02,2.632159515980421194e-01,-6.166196955175333450e-02,-1.075468827956724133e-01,2.468293189401433996e-02,-8.752021675808994983e-02,-1.734960858457893634e-02,1.412438839239095190e-01,1.855683491420135889e-01,6.601052702473607647e-01,1.873128317402619758e-01,2.933616909362178893e-01,-4.858155526941091984e-01,3.255523252662345102e-01,-4.461517657450974617e-01,-9.032063487946821734e-02,-1.000956611216980048e-02,6.831084541281691458e-02,8.070178805687906048e-03,-3.355048554094808289e-01,-1.353855178062145226e-01,-2.571394311728326110e-01,3.808951058363648640e-02,2.973765928092933150e-02,-1.133425180050693787e-01,-8.348242211822759495e-02,3.198702666757006763e-01,-4.372374865161186668e-03,-9.728119088816300497e-02,-2.291800042924633518e-01,1.754188737165368051e-01,2.146383662121860991e-01
-2.042469121347595673e-01,8.756915158108438679e-02,-1.938981393174209478e-01,-4.306125969388459318e-03,1.838386936402206240e-01,2.406869618734501851e-02,6.774733737914484522e-02,1.527023679454127814e-01,1.189851838896834463e-01,2.374157822537883433e-01,9.383076892625766274e-02,2.456691230659444058e-01,-4.811934826577421997e-01,3.860703385494555495e-01,-2.137928101698428340e-01,-1.549238825206552539e-01,-1.893462153599484998e-01,1.411131250794876169e-01,1.816433976425952945e-01,-3.935376341074036666e-01,7.135922734544195012e-02,-1.292864505246469342e-01,6.831112509452635928e-02,-2.223730762892968393e-02,-5.314790603642096517e-02,-2.122936782077415041e-01,-4.585799860723970001e-02,1.990945810818981476e-01,3.085396196943898661e-02,-1.624864121652992155e-01,1.273890706820368368e-01,1.352544976435874624e-01
5.921950496546006526e-02,2.891585051413162466e-01,-2.134226126126264056e-01,-2.276232749493973806e-01,1.183219841888316914e-01,-5.503087883327738468e-04,-1.858072224439906656e-03,-1.559926216276812383e-01,4.493640486032204895e-01,1.989283240822813936e-01,-1.800770595223874226e-01,3.092926490338865353e-01,-5.402361687256732603e-01,1.591737263872410879e-01,-1.539418169962955829e-01,-2.419297896771555045e-01,-4.006509346790072118e-02,9.149394742371528763e-03,1.586421094932108922e-01,-3.086860194052826745e-01,-1.732103288802623875e-01,3.400725939898459338e-02,1.505359207361559037e-01,-1.498698781845613504e-01,-2.341028265969624378e-01,-1.957078623861354394e-01,2.761512580658697646e-01,1.453972867900200638e-01,-2.037490434324008004e-01,-3.109879957458367983e-01,1.586990546410213532e-01,2.277569127017745332e-01
4.664333779097387840e-03,4.002609466466918731e-01,-3.449549298967967137e-01,1.032779012554584652e-01,1.701024797374006969e-01,6.388052640684602212e-02,-2.177293597832545280e-01,-1.266093056795697738e-03,4.041017826749472297e-01,6.773659591199728824e-01,5.809252176471136481e-02,4.400875732251842143e-01,-5.583499062578144434e-01,6.864128685558091858e-01,-1.086420584813364426e-01,-1.100525071342097622e-01,6.276513139507788885e-02,-7.353290492592752525e-02,-2.245738360729676586e-01,-6.257047107453068691e-01,3.885737277539320217e-02,3.114058170097151398e-02,3.331624713824790085e-01,6.639223243475231295e-02,-3.688533906243462446e-01,-2.108369311126793155e-01,4.717535587271194930e-01,6.767615919752803522e-02,-4.538248822820880046e-01,-2.648669283207833458e-01,2.359232931055677829e-01,7.120086621694388107e-02
3.957101825342862478e-02,1.724968733294875156e-01,-3.368152269631137230e-01,5.620791245949938869e-02,4.039782442237792315e-02,6.985845637322564416e-02,5.222403521354377492e-02,-6.392139284274698206e-03,1.497328972692996141e-01,2.557699578288206155e-01,-4.540985540769560194e-03,2.671894115153530813e-01,-3.784201660417416124e-01,4.745442227457138396e-01,6.973010620502365087e-02,7.363311931827924706e-02,2.199200716616810103e-01,4.222689828270152768e-02,-1.310847935068429337e-01,-4.400683417278379861e-01,-8.498680356570138426e-04,9.592223555048620676e-02,1.093785934537712945e-01,2.274603994245275596e-01,-2.464585140116406781e-01,-1.501666891049381058e-01,1.756571539432875695e-01,5.226561599409947252e-04,-2.076474760862651037e-01,-1.029066013825680470e-01,7.081289451315767036e-02,-8.690761719989789982e-03
-7.705823157054760009e-02,2.216019081539406244e-01,-2.395550752627681745e-01,9.131688675679892897e-02,1.468360489541324643e-01,-4.694164007351452061e-02,-7.063055695859832284e-02,5.723089256168537725e-02,1.372829520420333800e-02,1.401726673269546308e-01,7.901532504246082389e-02,1.588414005810950269e-01,-2.055358816785999576e-01,2.850704497963270634e-01,1.886744816328510613e-02,-4.157965509500429618e-02,2.077340161841922939e-01,-8.423597603240284837e-02,-9.949081094377401624e-02,-7.005410176475455886e-02,1.481747800532986700e-02,2.169225320486281028e-01,2.016376386039047119e-01,1.585703819198330533e-01,-2.569177626148294591e-01,-3.073960386964528016e-02,7.188124592465791607e-02,8.913385903965451162e-02,-3.059120289952548810e-01,-4.970736278973848093e-02,2.203498260077660711e-02,-6.857176420764810043e-02
-6.355547322714856506e-02,1.730520999199614274e-01,-1.085602533400211456e-01,-2.514623877657531925e-02,1.637717393525996434e-01,1.320954512338491649e-01,7.019165217583930860e-02,-1.823008259272326514e-01,1.573791582076735363e-01,2.473129999622557529e-01,-8.685571848045353649e-02,1.215381156531092494e-01,-6.166310947766725364e-02,1.966141834630432683e-01,1.315717114783662434e-01,-1.071120505209352362e-02,1.814957178004959482e-01,-2.228269952364516152e-02,-1.443116637439364747e-01,8.302929523756093222e-02,-8.171155574372060415e-02,1.790219907723206438e-01,1.750111085153619184e-01,4.962831998141096351e-02,-4.804735356435985844e-02,-7.103400591653422080e-02,1.764059307957047407e-01,1.602719385369033855e-01,-3.504312858393694441e-01,-7.034216590856051665e-02,-5.101798777894813071e-03,4.826525466664021574e-02
-2.708524045536527258e-01,-1.032042874418517137e-01,5.891332746133586262e-01,-3.429237964650813653e-01,-7.055599285583491476e-01,-4.035787516469246383e-01,3.625365473165795827e-01,-8.803324006051815864e-02,8.662451034815667542e-03,1.261051248383570633e-01,-1.606639095326703182e-01,-6.901487266882797011e-02,1.955395284968894365e-01,-5.840095891461812849e-01,-2.429155499009981733e-01,-1.262500302647059577e-02,4.232717956833504996e-04,-1.162124684671949904e-01,1.267079135171945703e-01,1.955669338998083095e-01,2.844166997520461079e-02,-4.041785344038379413e-01,-4.837997133168976394e-01,2.612113858589105164e-01,1.969688030585551031e-01,5.608650357431470557e-01,2.829646861865065532e-01,-8.880534341190448114e-03,1.351284911322281901e-01,-2.960065462341284204e-01,1.763272455786001613e-01,2.486531648055003915e-02
-5.064331820808262719e-02,1.378326570285656749e-01,-1.031302312684454769e-01,-1.699262556589602180e-01,-4.822920122789690900e-02,6.780411054781732005e-02,1.293256591765784835e-01,-1.684031150220832024e-02,1.570247734659329375e-01,-3.355881143253412052e-02,2.827263377225543856e-02,3.025097505378898100e-01,-1.869832775970151073e-01,-1.344797120310681771e-01,-1.100394569897246710e-01,-1.914392850771830801e-01,4.950672576358504384e-02,4.203551721486172010e-02,1.316158657492481066e-01,2.968361619593083353e-02,-1.568725419998928672e-01,2.735025157502219036e-03,-5.614333171610325079e-02,9.007091985576193283e-02,-3.389222936545756293e-02,-9.156352587259519726e-02,1.102090989141052413e-01,1.129984334297185478e-01,-2.829712930342802024e-01,-1.882865750875280849e-03,5.731956396253411190e-02,4.872788725603827836e-02
4.611890163176997348e-02,1.126804302922120582e-01,-2.385962611964368429e-01,-1.157820120512630460e-02,1.337575507162212796e-01,9.532808125872678506e-02,-7.537457365200306292e-02,2.060820736778839340e-02,2.760726612170968583e-02,2.689427952658040577e-01,2.887570200225841530e-02,5.489565823134301414e-02,-2.065022498422123265e-01,5.485956114101125936e-01,-2.363731270240639337e-01,-2.516780440220456674e-02,-1.087788881240072947e-01,2.255033636402099806e-01,9.287864451521223030e-02,-1.966650262354093792e-01,-1.785592641737338282e-01,2.003736893060312774e-01,7.916056949491823147e-02,-1.473824643168100967e-01,-2.362151118038786565e-02,-3.898761917186689407e-01,1.434681255503923725e-01,1.723141923487665483e-01,-6.309026910411592859e-02,-1.120014250712021153e-01,-1.814574671094914271e-01,-1.467757085018695229e-01
-5.304829545556363074e-02,2.679111861366178515e-01,-7.562126795494544806e-02,-9.317044695530432574e-02,6.669569047445841718e-03,-4.562564108268740010e-02,-4.696231481972722860e-02,3.777596398533847322e-02,1.562957528336960137e-03,3.370220416689237442e-01,4.635574426799086295e-02,2.735987027899776658e-01,-3.356812714032580414e-01,1.953982375751124878e-01,3.280403179088987181e-02,-9.700150296940296402e-03,6.775206140683409650e-02,1.346684514310498551e-04,9.703834295948420008e-03,-7.196137261492319137e-02,4.673195705140418925e-03,-8.577871666201829226e-02,1.024768112123042307e-01,-1.125480354883219916e-02,-4.562361371585867131e-02,-1.567670601357884497e-01,8.530745718510564235e-02,1.014875872841421028e-01,-3.022498800831526986e-02,-1.458340037533755185e-01,1.342003948542226099e-01,1.211628989775666854e-01
9.104268286242236941e-02,-1.297061079055333854e-01,-2.911059629057326514e-01,9.604560457950504782e-02,2.338468074456495072e-01,1.973545823221861950e-01,2.942787840626777049e-02,1.170098431931372029e-01,-1.577470826983451424e-02,-1.789710970006427593e-01,4.486363401678236836e-03,-1.253529937943514694e-01,-3.051808550171595733e-02,1.142548080603791871e-01,2.284027197647311158e-01,-1.405742734528672155e-01,-2.687820493580199144e-01,1.003615410669569802e-01,-2.364802629382374219e-02,1.215117449171910918e-01,-2.333246028884685200e-02,4.734044918464510587e-01,1.179328072093428076e-01,-9.649275936757108207e-03,-4.029392343902744172e-02,-3.793282709088619531e-01,8.366623617141473457e-03,1.356039894289403636e-01,-3.293130868417068480e-02,1.985518444830316476e-01,-2.377167515109218088e-01,-7.192018758491158792e-02
7.072035535264928341e-02,-5.449067758644446889e-03,-1.035800484034576224e-01,5.576110046013851157e-02,2.509837324891931454e-01,2.125486803422032833e-01,1.105293086053530001e-02,1.262334847177145614e-01,1.179120338408958940e-01,-6.818482525998928456e-02,-3.710361458462628492e-02,1.884283661349343136e-02,1.497118237096899465e-02,-1.768875008351872558e-01,9.684482045921884164e-02,-1.786388763881778807e-01,3.563850286349475732e-02,-1.467657934166300415e-01,-1.809988621023499444e-01,-3.973827517856527020e-02,9.389765729669041772e-02,8.684156633939774106e-02,3.450879976267041266e-02,8.146363314402711719e-02,6.072975536630064591e-02,-1.418331082431781298e-01,1.000865401996072629e-01,6.864406897761084203e-02,-1.436410135498722151e-01,-5.955645621166892091e-03,6.269575146887146344e-02,-5.082712872163745038e-02
-2.909315225800959345e-02,-2.576167108526942195e-01,9.226639861801579079e-02,4.754648866340192154e-02,-1.576134444602633466e-01,1.243501626554323891e-01,4.609279013727814872e-02,1.331135873323213877e-02,-1.307008048701018832e-01,-1.915634987348962814e-01,-9.398140426355598709e-02,-3.801999831352592119e-01,4.235264957562856480e-01,-3.830434967108373723e-01,3.099065175192796118e-01,1.298154024950107233e-01,3.201179513568117030e-01,-1.286204518288387999e-01,-2.086232388140602800e-01,2.807281154981002835e-01,7.829914583637731518e-02,2.125382311617397268e-01,-2.686039960059791731e-01,2.299896193176689529e-01,1.358160157395808532e-01,6.027788292425515504e-01,-2.485646578114706629e-01,5.270329854657612029e-02,4.294893411573014186e-02,1.290544143005608879e-01,-1.259385413631377015e-01,-1.268724270686183431e-01
-1.686585905116851636e-01,1.928444931787993422e-01,-1.539133213971135838e-01,-1.248762690340936982e-01,2.784248795897318121e-03,5.756735421002685121e-02,2.488832653093180081e-02,-4.607155945386616491e-02,2.453769471760849641e-01,1.843169544360311607e-01,7.729913556287430765e-02,2.698319972022769075e-01,-1.238631274838803420e-01,-6.147662700394404718e-03,-1.561973967502793825e-01,-4.884543926491778654e-02,6.638764773312161305e-02,-9.982951447224289176e-03,-1.604110794724169509e-01,-1.003724847649733881e-01,-8.885359394146741946e-03,-2.090582991723143047e-02,4.656143574313256067e-02,-5.074739352828259997e-02,5.910279949507204339e-02,-6.826568801157603672e-02,1.169797231551588795e-01,-2.260222465628066932e-02,-3.375839671898541172e-01,-1.702862262351091116e-01,1.212425998601663613e-01,4.284118093680008149e-02
-1.123666963349378850e-01,-2.601616492091268773e-02,4.906623504190765067e-02,-2.265264279511958190e-01,-5.121455503560320630e-03,1.129866181400204644e-01,1.145334374803519406e-01,-1.252122774476354949e-01,8.310732945417337314e-02,-1.804109710993095084e-01,-4.220815838704243539e-02,-3.322275232492653829e-02,1.281547387964164786e-01,-1.095099649992362506e-01,2.181866579668938905e-02,-2.304424933340067927e-01,7.175795999964533489e-02,5.906804050732169381e-02,-2.967313570724538010e-02,2.369514215517238009e-01,-2.424477590806184135e-01,2.048944919864285619e-01,-4.524255481117925304e-02,-2.431286684275190887e-02,-1.594639460906345230e-01,-5.197136003521145992e-02,8.550720350511421819e-02,8.793327572142235760e-02,-1.654129435736500509e-01,-1.557995660281101188e-02,-1.153811259735930267e-01,1.627067318815399732e-01
-2.481478841670733682e-01,1.213236047782360716e+00,-4.571193278430851215e-01,-1.175273287996560168e+00,-5.364068839386702120e-02,6.117669045118255822e-01,5.462936912336575634e-01,-2.131802455334393109e-01,1.391000744505997977e+00,5.838399782169616525e-01,-4.249462794395303389e-01,9.154247268255627512e-01,-2.777923746096635504e-01,-8.388900404084784768e-01,-3.454513614809234245e-01,-3.185976630689019151e-01,1.187784468869612781e-01,-2.350463959743875619e-01,-2.186831665238615496e-01,-1.931242283118272118e-01,-6.307854010464619687e-01,1.035704436888288837e+00,5.334938350702893572e-01,5.800681521161199505e-01,-5.745103497867488640e-01,-2.899826130499785215e-01,1.795913765534048023e+00,8.345221468976441459e-01,-1.557903744193212647e+00,-1.265933554251443383e+00,8.033297429135421996e-02,4.926092157501266722e-01
1.990765240444861972e-01,2.220517972130699180e-01,-5.622866508424249066e-01,3.273207249802380370e-02,-6.273815887218153753e-02,4.309991565594463725e-01,1.968500582558809775e-01,-1.685509507640362697e-02,3.392874524711926298e-01,-1.490867779637512214e-01,6.007775965145530084e-02,9.031031809818719502e-02,1.880448733419652907e-01,-1.963154660236423633e-03,2.062259222617170151e-01,2.791901506900033580e-01,8.269201650921487179e-02,1.202266197671273823e-01,-3.980190021456346816e-01,2.725187833332030629e-01,1.036083674025863694e-03,4.396971505314422046e-01,4.067262585530470598e-01,7.105956667465312959e-02,-2.905499440409413658e-01,-1.430198764165058201e-01,5.825837335365776637e-01,2.400059532417998520e-01,-3.926462814843600935e-03,-3.141768081553907854e-01,-1.537368075098646814e-01,1.678531141342587685e-01
8.300779767723370783e-02,1.549195128950700273e-01,-2.584839853309559010e-01,6.071568763762355547e-02,8.434215854059352868e-02,1.383739218838005332e-02,-2.930744783014916158e-02,2.075350879335821908e-01,2.316825618835173517e-01,3.590216432511291189e-01,1.374139543460868584e-01,4.766275085679724105e-02,-2.163411558760088838e-01,4.638846492328108084e-01,-2.451806140355669919e-02,8.337846848579932857e-02,3.930268003772973556e-02,-1.519620540882165305e-01,1.926183767008256276e-02,-1.334572698300112437e-01,7.901654205743641884e-03,8.018674675165045340e-02,1.907123896056141799e-01,-1.720873159191147472e-01,-1.214453809828459768e-01,-1.731978787842158307e-01,1.585452406163541939e-01,2.396775346067676615e-01,-1.641164590400761569e-01,-3.099503965982984277e-01,-1.278544491196278131e-02,9.609852838126169139e-02
-1.767137756350956601e-01,-2.337131859556038430e-02,-6.136466041109380626e-02,2.674602041806571542e-04,3.496912893686261042e-02,-9.421613706807262234e-02,7.490841298464875897e-02,1.324298921609662338e-01,1.511694271245371708e-02,1.435184543339523000e-01,2.238147760612133746e-02,1.780160782679947873e-01,5.532204355492331693e-02,-9.759074462566352803e-02,-1.140235713521827420e-02,6.709795565502703341e-02,7.293131711140466399e-03,-1.941340174666806098e-02,1.027537368577681326e-01,-7.008818911471657864e-02,-4.645449270964952145e-03,2.707674924628233198e-02,-2.060991332485449454e-02,1.660325550374670573e-03,4.699399147052080172e-02,2.047296859943408334e-02,-3.564843959903987031e-02,-7.595132076496660667e-02,-7.699894379808050471e-02,-2.335650453579580371e-02,-1.576975656375195723e-03,-4.413558154339328188e-02
1.375496722786435921e-01,-3.121177894348439175e-01,4.779242700544862610e-02,2.532853135723128757e-02,-1.393016940787910884e-01,1.658398218148495196e-01,7.158791244839796120e-02,-2.972719963286732381e-02,-7.555684516026230091e-02,-3.521781402925927562e-01,-9.426552827441486704e-02,-2.158807667670268604e-01,3.608108128184600583e-01,-2.208275921660618757e-01,1.279142073625072484e-01,7.593486910191790673e-02,-1.406923959629726439e-01,-4.756791299287506034e-03,-1.535394446803084179e-01,1.196532725992909968e-01,3.210303251849977446e-02,1.483170564296100724e-01,1.668293041930381596e-02,6.972241171420422157e-02,7.854379409874470697e-02,1.755756179512921455e-01,-4.648773085948192108e-02,-5.722480671489613840e-02,1.020834294531728914e-01,2.765858681234544814e-01,-1.364160424386734460e-01,-1.872928402298894013e-01
5.376950058287960355e-02,4.422363303041627197e-02,-2.601622438460174935e-01,5.091589025667628277e-02,-1.185347761103455327e-01,6.167849010378860519e-02,-1.197303044135501586e-02,9.384099601292683612e-02,1.721749355231500314e-02,-5.965599895650350315e-02,-5.647068582498944792e-03,9.912349590206388783e-02,-1.273719132778426515e-02,1.907390709217324232e-02,5.305000285142189020e-02,2.325458767287600943e-03,-6.124608563210168742e-03,9.465490602125013753e-02,1.204827537244135965e-01,4.696582964555087725e-02,-2.684019246509276868e-02,1.344317629537872816e-01,9.948437732080822604e-02,4.284876178026769677e-02,-9.764459808614893432e-02,-2.135878701661607718e-02,-5.130901667564582991e-02,5.213111512600211717e-03,1.487170462744460920e-03,-3.323525057233248764e-04,-4.186851822403408335e-02,1.075001319765617053e-01
-7.973901746956059411e-02,2.637274490090240620e-01,-3.693973227258150471e-01,1.408717776200600624e-01,-1.148171132123599059e-01,2.590422360600512161e-02,2.890966889262723896e-02,4.775211984307130286e-02,-9.706680973821800451e-02,2.227037949026580421e-01,1.465677563044598952e-01,5.438007835804886669e-02,6.328780056660547604e-02,4.276059864041861225e-01,1.251075201993029698e-02,1.032662340464324952e-01,1.788573665384433908e-02,-3.213022540867085941e-02,-2.853310580645136985e-01,1.546390029945704861e-02,5.838590252914020512e-04,6.087691495352108399e-03,2.614527224080010481e-01,9.302083712004468458e-03,-1.305684146426323300e-01,-8.686462160349496531e-02,2.664058683755062273e-01,5.890816081020198991e-02,6.858228650715321451e-02,-1.599128644094769680e-01,1.798593325897696604e-01,1.496409569975861442e-01
3.213158658357285341e-02,-8.412974969992464969e-03,-6.310727171537840186e-02,-9.595468200708411055e-02,2.860970699606840348e-02,-8.059027779266544900e-02,-5.726879435512020194e-02,9.374969449435308078e-02,1.455004414834817072e-01,-1.750215004845515343e-01,1.047822353121096312e-01,-3.013191407549644513e-02,4.604991445176179199e-02,-7.071952415428030270e-02,1.054977368246692998e-01,-1.297700335679289052e-01,3.105625242925304924e-02,-7.313667074135339619e-02,4.581210589327571608e-02,1.618393185150636127e-01,-5.409818898545908084e-03,5.596020567916421690e-02,2.498834451978999491e-02,-6.088740784327975608e-02,1.279464355384628271e-01,1.365169592714536029e-01,4.076589476203844320e-02,8.428888400385647212e-03,-4.452448503806774593e-02,-1.666006696332754042e-02,1.107017135646604367e-01,1.026348926254321559e-01
1.067610383257043133e-01,-3.167061683481210976e-01,-1.946059879904119827e-01,-1.592417476771162688e-01,6.345765796299243644e-02,2.911549634229415040e-01,-6.153519158992374477e-02,5.350667007628202160e-02,4.984642145612668690e-02,-3.726453531918761941e-01,-1.435127968807507759e-01,-1.665368063939874632e-01,6.027253152143865339e-02,-3.195668440167296898e-01,1.183436592452686703e-01,-7.574998168690152966e-02,-1.395251288700015968e-01,1.315639396110439285e-01,1.319019758402829000e-02,1.054147057478471566e-01,1.641960214750911029e-01,2.508568071227010865e-01,-3.297833194900983561e-02,2.716185030013496329e-02,1.450056179054984018e-01,9.582934143304791541e-02,-1.464494225351042345e-01,1.009741238585277817e-03,-9.021075105083121992e-02,3.047173197745802753e-01,-1.972274988634924453e-01,-1.315485063847630642e-01
-1.537620748988322850e-01,-1.052161984033419401e-01,-3.510573996136385350e-02,8.603930837149460775e-02,2.277360976230973291e-02,-6.586771442628627793e-02,-1.068345511909126744e-01,1.148450336227632186e-02,-1.341854663141244519e-01,8.963818642343801546e-02,4.324679753872484947e-03,-1.281253633683098747e-01,-7.770252238323685501e-02,-2.293666462169018094e-02,-3.979736831932224189e-02,-8.178643064575036314e-02,-5.992466637592427925e-02,-3.546120077493265105e-02,-8.821548600715795052e-02,7.577093721928929160e-02,1.401873205935926306e-02,-6.308183393079881685e-02,7.885160020255082766e-03,-5.002679518502392564e-02,-4.594321551100191692e-02,6.462524736466013220e-02,3.173830693301365330e-02,1.736728423742364136e-01,1.590718575584870731e-02,-5.842450455634044804e-02,4.910383096213724596e-02,7.046236517437284852e-02
9.827760553238733265e-02,-4.408834683816812566e-02,-1.034109496103959441e-01,1.409283640484543243e-01,-2.997038831061715064e-02,-5.135879942149133154e-02,-1.301794124392467722e-01,-3.950958369445690260e-02,-4.315873204434900190e-02,1.584401118766566308e-01,1.068898328827911672e-02,-1.355968862646840349e-02,-1.614682196676924808e-01,1.694584490875549465e-01,-3.919279606681667916e-02,5.309657627208844155e-02,-1.525654048267854977e-04,-1.366781518725795619e-01,-1.740536675557559712e-02,4.298481277808385848e-02,-4.996076121099890521e-02,1.542162184050582252e-01,-6.054915417310111764e-02,-3.311888416186667405e-02,-7.499796852040251094e-02,-1.530923734356405275e-01,5.767010016380609561e-02,1.734142907149096094e-02,5.013646868843218973e-02,6.556625792377557618e-03,5.731365235352284260e-02,-3.010875468655025561e-02
-1.353036151499367734e-02,1.345260254857713056e-01,-1.686659401872476205e-01,1.628590794681945009e-01,2.812745401127799555e-02,-4.914682976560528702e-03,-9.955297564857697179e-02,-1.602158090757578313e-01,2.088394987529142155e-01,9.226083393458905935e-02,-3.405711649954652753e-02,5.571195471524929832e-02,3.010573631563719099e-02,8.058323230407610227e-02,6.421379952858752294e-02,-7.956535268578941722e-02,1.401554432737846939e-02,3.733214691434004993e-03,3.692178056874892422e-02,-9.338117579387776590e-02,-1.002428857599774598e-01,-4.701377752199625143e-02,1.661725457567772013e-01,-7.085494474945788768e-02,-2.131484203470688510e-01,5.776989439282527450e-02,-4.251694360281348117e-02,8.599149144674481104e-02,-1.394810778034492882e-01,-1.087606884006291769e-02,-3.870514024700388162e-02,4.792116269872929990e-02
-8.476465523213647102e-02,1.139369364452546690e-01,-1.655110290026498695e-03,1.213981429529111533e-01,-6.554700258073438424e-02,-3.745908299420940696e-02,-4.661404200430601524e-02,4.835590074204465516e-02,1.184313847657391186e-02,3.123013020248700811e-02,3.124350133098453483e-02,1.158140755695356294e-01,-5.907388496296956532e-02,1.692054876936166519e-01,-1.592816373820207798e-01,-8.914411607345167077e-02,1.625149867300330203e-02,-2.633586914543233071e-02,-3.461086401270400958e-02,4.068642776519748594e-02,1.326758078916332774e-02,1.422095392993688937e-02,-2.528040176351170967e-02,2.299172267939203831e-02,-1.979741198175401229e-01,1.149035902087768707e-02,2.090654814630276900e-02,-7.913626714004994012e-02,-8.650842767569238978e-02,2.133654015731949183e-02,-1.759841605753605445e-02,-1.758602787947767879e-02
4.021841118852880620e-02,9.197739788206275857e-02,-2.118044466196586026e-02,8.778449763757500968e-02,9.473069755556798310e-02,1.474952215454519433e-01,1.277034608360810494e-02,-1.016901419850162712e-02,-6.751482937787636751e-02,-4.327420670304595041e-03,-9.917910085373105034e-02,-4.615082042494796782e-02,-1.815273578021976697e-02,-9.673758369727275888e-04,-8.183745455910224065e-02,-6.535008922085654148e-02,-2.321666974378958775e-02,-2.313860417423285395e-02,1.039556660012405827e-02,7.274961447311026341e-02,7.274017633940792031e-03,5.069211710393787401e-02,1.984496985239895261e-01,-4.742966552875889363e-02,9.298243381577489530e-02,-1.307008458898894221e-01,-1.315987720829008278e-01,-4.310999919273654502e-02,-5.975791159222894333e-02,-8.501091535792102208e-03,7.945483345805437470e-02,4.154381013704332333e-03
7.957885002147351006e-02,-3.447177421043709500e-02,-1.029613902765802447e-01,5.690868082821805285e-02,2.552740604975355376e-01,-1.639662450070593011e-02,-9.173806806707351588e-03,-2.517508911015905668e-02,-8.026269992773125972e-02,-7.955220357797661290e-02,8.333977440718919050e-03,8.370490005861688787e-02,-6.548751971088780793e-03,-2.462061376097409923e-02,8.754401016138188552e-02,-9.561414452028581257e-02,-1.946959384641042123e-02,2.900914165365624589e-02,-1.274272115238187508e-01,5.087673870580162322e-02,3.860738214169298632e-02,1.655599659660300649e-01,1.804291957416915837e-01,-1.547114621662292744e-01,5.964619653523763054e-02,-4.200772470656888996e-02,-1.228000250275032151e-01,3.067793277046733380e-02,3.672574677499952471e-03,3.269860291104442068e-02,-4.146759365144284809e-02,-1.105038484966601869e-01
1.139621553422771189e-02,-5.148817431953538887e-02,-2.002489263220486038e-01,5.709546738120857556e-02,1.477814568542999141e-01,7.364204594552831509e-03,-1.362103090086699553e-01,8.857536520818889980e-02,1.538631597917204143e-02,1.403152493603344320e-01,1.191596104908222986e-01,1.830255540675365389e-01,1.970572245269430756e-02,2.334506874944170252e-01,1.255610212250805012e-02,-1.067287360192559209e-01,5.953433523741084865e-02,-9.035401751591014274e-02,-1.289713398467303984e-01,-1.358163238646927819e-02,-4.142027012613897635e-02,8.482719788801988681e-02,1.210935602542077688e-01,-1.837219612397712198e-01,-2.742549119985954742e-01,-2.230105786126339307e-01,1.413144250175056571e-02,-8.190895165292090552e-02,-1.098388186688806362e-01,-1.189977121142528071e-01,5.909118257227833314e-03,5.236273672476325636e-02
2.963943241784244842e-02,9.975187109649780171e-02,1.775928561398537955e-02,1.000676779649008058e-01,-1.151592325370154324e-01,-6.299160325744689037e-02,2.427771621214880673e-02,-4.852671699438069336e-02,-7.626348680967663662e-02,6.306866334388530615e-02,6.843403439308656799e-02,7.113406689552372042e-02,-2.827510338372207430e-02,1.996224900493686338e-01,9.182791527167432147e-03,1.693018825001473548e-01,2.067722124395049085e-02,-6.048426126396502095e-02,-1.642392108387872585e-01,-6.231929188328211300e-03,2.345080069122418287e-02,8.505050408298994724e-02,5.993818836470349992e-02,-3.120444627010933794e-02,6.037047872720370523e-02,-3.894640812830598570e-02,-5.296811066705526400e-02,3.204772484306420838e-02,-1.756816412816013945e-02,1.023662786204516117e-01,-8.002658930897084411e-02,-1.248680947057019541e-02
6.808490799228560098e-02,-3.991195426925851081e-02,-7.094891928234987877e-02,9.272315876539745372e-02,1.005450935606431173e-01,7.990546049778969595e-02,-6.946169043858071990e-02,7.737359658160175568e-02,6.072507226329030422e-02,4.626758338998305381e-02,-7.539107642071174453e-02,-2.136632549519774243e-02,6.237787112721435850e-02,-1.393327361750132387e-02,2.313940938267546044e-02,1.360496453833303365e-01,1.232447066291919580e-01,9.494738747213704588e-02,5.922110831844317608e-02,-4.476344890524775605e-02,3.417243389232388351e-02,4.004956402078085898e-02,-3.981032688981794160e-02,-6.419263982178124994e-02,1.086970973644640036e-02,-9.368104614750746850e-02,-6.629491306949740481e-02,8.194627701227258365e-02,-1.379176945300944306e-02,6.213236226769319054e-02,-3.016631079435074317e-02,-5.041028283183489334e-02
-9.943832094528282095e-02,-1.803138154494505485e-01,-4.398838474641375562e-02,-3.438903832277011297e-02,3.381268847188299009e-01,-5.160005687434599669e-02,-1.319695922381054765e-01,2.307676669772485145e-01,1.053092085572221032e-01,-4.461113714960358023e-01,1.236563510429482954e-02,-9.133485187538137318e-02,3.828788955577884789e-01,-1.564961834593283641e-01,1.017111049270795903e-01,-3.440011331489641333e-01,-1.782492265829884459e-01,-1.572180215121358471e-01,3.597208795778066848e-01,6.768109550142836772e-01,5.218676983386682372e-02,1.801532984940583670e-01,-2.919112336582092015e-01,-4.705543583950740349e-01,4.677263142698046550e-01,-2.853742186939420278e-01,-4.643027755106454157e-01,2.125312232507949040e-01,8.866739381708996226e-02,1.485815097601276003e-01,-1.873665559952599480e-01,-3.027840696282647556e-02
1.399495649495763328e-01,5.939463033916723284e-02,-3.843505501228164922e-01,1.407835382886860609e-01,1.518680541655373917e-01,1.094161145135992136e-01,-1.095256432718442613e-01,-1.197446754376407622e-02,4.343928860076139153e-02,2.012350948731202460e-01,-8.719314317809581660e-02,1.275875810903942253e-01,-1.743080483757333266e-01,3.433823433346297471e-01,1.046664700818123045e-01,-1.080493263627764211e-01,1.091078686304106649e-01,8.712858806721578142e-02,-9.386926866423292437e-02,-1.394427351072751453e-01,-1.545056272484592874e-01,1.136125749508031663e-01,2.660476260736416299e-01,-3.993061404474471110e-02,-9.101221752543423027e-02,-1.527203057705541489e-01,1.742954763269932705e-01,1.566435358717661597e-01,-1.095645075076821379e-01,-3.646120618418037529e-02,-4.823646114267423485e-02,1.582359677371660278e-01
-1.041950319380154782e-02,4.824867870535984316e-02,-1.157140497787713107e-01,-1.164746385414417718e-01,1.615295002907519706e-01,2.824968016609803456e-01,1.400657810568503026e-01,1.137554358218670764e-01,4.341066819904571689e-02,-5.373846605758167971e-01,2.029711660678618634e-01,-3.284874763485336469e-01,2.427723474660936909e-01,-2.089317836730623379e-01,2.010130266070075944e-01,-1.823168844542262246e-01,9.816627110774417408e-02,-6.435660242034994816e-02,-2.339202882822294383e-02,4.580628560114844983e-01,-1.270227521580297343e-02,6.905584318012980560e-01,-1.348872534947801738e-01,-2.135580578910584726e-01,1.002638868635327835e-01,-8.411503069664167526e-03,3.857649064804749561e-02,2.424881948580454027e-01,5.792073174812260861e-02,1.974346146898641186e-01,-2.271761584695204950e-01,-2.131020563585373992e-02
-5.836462276843154898e-03,-4.453930033044926212e-02,2.626819184816703984e-02,6.059285969514723730e-02,1.663844032288626720e-02,-9.176729476381466355e-02,-1.456181881303165171e-01,9.378822813006182368e-02,-6.716854138130438912e-02,-1.970240669595307642e-04,-2.667081667708761511e-02,-9.203126366933750413e-02,2.001938748922518080e-02,2.190033716941713893e-02,4.469068127264352874e-02,-4.455402402689275648e-02,1.000426226131904406e-01,7.866546400033732137e-03,1.508657027325227551e-01,2.170964834679250596e-02,-3.992635137333768597e-02,-1.177578270416183848e-02,-1.151250680097900408e-01,-2.064763113554970442e-01,4.813388726878357199e-02,-1.378375941061277775e-02,-8.170291399879202332e-02,-1.088068772673931282e-02,6.570464411022196305e-02,8.178295598562679292e-02,-3.297987645045127869e-02,4.805853686520035820e-03
2.798664416824859780e-01,2.253507702883862374e-01,-6.474674888899493164e-01,1.878597112353718734e-01,6.854700775994021500e-01,7.134151460365317776e-02,-1.539867017913379987e-01,1.556405574528451075e-01,-1.059260424089034508e-01,1.241209559088079784e-01,2.375711983896489909e-01,2.770234337365314325e-01,-4.845878867535472478e-01,7.947042736888400016e-01,-5.601427667863464327e-02,-4.525105213173326035e-01,-1.490845583069610181e-01,5.856120798688914386e-02,1.333417243195949842e-01,-3.295787087196467846e-01,-1.345781803401504828e-01,2.191955984990557049e-01,4.907639893510265527e-01,-3.845863642052342324e-01,-1.291435006386370266e-01,-7.433233000406954671e-01,-3.355534239736867042e-01,6.878004204516934006e-02,-2.730740760074413243e-01,4.691295953315391953e-01,-8.880745778796179934e-02,-1.135963100060421171e-01
2.336915339920644652e-01,2.353663315906926942e-02,-2.276581223020140432e-01,6.043511451747562296e-02,-2.909226986747529345e-02,-1.762568027525085804e-02,-2.325744175122402072e-02,-1.029086140014460471e-01,3.337368093494231386e-02,1.555877145222684388e-01,1.264334023662413986e-01,-2.352608679811221126e-01,1.342358991575600957e-01,2.025882811178550402e-01,-1.845461646680592038e-02,3.813426896446543424e-01,7.102389951959793730e-03,-1.963554638272582697e-01,-1.907984220778537743e-01,2.537665592273913862e-01,-7.625688853635913256e-02,-7.620483035377347003e-02,2.231487245686961940e-01,-1.741949241770839873e-01,-1.422939532193136791e-01,-1.933359461910394150e-01,2.467095594996457798e-03,3.842978047004508985e-02,1.450396873567089406e-01,1.053578650739618941e-02,-9.652813815162762656e-02,2.969103091890963331e-01
1.826003154145680318e-01,-1.140676558963088061e+00,5.276120315611878553e-01,-6.352546112232354547e-02,5.752381438328331154e-01,3.111594579074732914e-01,-3.124460182365882410e-01,1.431789140694406659e-01,-3.031598798178095633e-01,-1.418988186477767144e+00,-3.563397412299287859e-01,-4.876544798829764993e-01,7.630589257294121408e-01,-8.605109509671304835e-01,1.524699370839145973e-01,-3.619839443336159146e-01,-6.596649058162489254e-01,1.825855048476076881e-01,4.983435330236851146e-01,7.573547480812962140e-01,7.387983276947336642e-02,6.007416331538286691e-01,-2.423399111228213276e-01,-4.184772930539463198e-01,6.789946304159582002e-01,-4.153248582172411885e-01,-1.008205884385352302e+00,1.680922697841572833e-01,4.374893961330018621e-01,9.376974006492666547e-01,-6.639835608279722745e-01,-4.513102056545083562e-01
1.605004187743026001e-01,2.803298367753002951e-02,-1.011551184506662565e-01,1.473556203521520780e-01,1.295359522159573173e-01,9.326556644721158140e-03,6.161302376570597372e-02,6.381367337917562277e-02,-1.651841809224371613e-02,1.085913953990242931e-01,-1.014449378833792714e-02,-1.436162486606240296e-01,-2.518703990987270977e-02,3.911310478975757454e-01,-5.295412694707069684e-02,1.125076696570408569e-01,-7.227283727201995467e-02,5.124359752620494951e-02,3.225639648014554800e-02,-1.006789201517048760e-01,6.657449260807865588e-02,-5.708719123039947274e-02,4.682606568955109683e-02,-1.362858294953993299e-01,4.867085067114519832e-03,-1.740302473415727691e-01,-1.739566640335888925e-01,2.081665724207759291e-02,-1.390585140889641080e-01,6.273329143579975398e-02,-5.722773228606149731e-02,1.464203363798111286e-03
4.839953574612027715e-02,3.556734838792994235e-01,-8.968348348050784180e-01,1.069978855733786927e-01,-5.806652135967501488e-02,4.134747398853571565e-01,2.216418013123750697e-01,-2.090629270575298515e-01,7.636883010104027480e-01,7.423582688781144023e-01,5.202836807838564503e-01,5.800579134586749674e-01,-5.846592935737888741e-01,9.309675129496381984e-01,-2.466236561366238200e-01,3.908034173288845725e-01,-5.280418421664119510e-02,-1.207370854972379670e-01,-4.774608415476888634e-01,-4.883657431471775945e-02,3.089988366910581541e-01,2.580626877014268183e-01,4.157518117914175693e-01,1.791133471316432024e-01,-4.431403933697765640e-01,-6.774839577514573108e-01,5.330992936783109926e-01,3.905209106876598724e-01,2.712539735558027170e-03,-6.885204053406283053e-01,-2.950135986255852938e-02,6.267041158153413560e-01
-2.424635038024398892e-01,1.498772100487481551e-01,-2.760295783795355118e-01,-3.074031989468644088e-01,-1.080663730779058418e-01,3.711854588240395825e-01,3.126625317682166783e-01,-2.414786201005137134e-01,4.992824363310925384e-01,2.113898334088666620e-01,2.068053678426059194e-01,2.743754816617867132e-01,3.240332048073987781e-02,-9.630520195171032860e-02,-4.453204454006149532e-02,3.218470944382704202e-01,1.152705598288601696e-01,-2.246204747786925415e-01,-9.611960094914270836e-02,2.673139445017003735e-01,2.445872010015319731e-01,4.538347625805835284e-01,-2.763410272432427831e-02,3.323222745097739184e-01,-8.909011927190083058e-02,-5.854633452887365169e-02,6.059470710140387739e-01,3.454560172437842192e-01,-3.511601633570918257e-02,-5.180413123289007160e-01,-1.683160249661008745e-01,2.763791536671102445e-01
-1.319006219215433928e-01,4.712807288447372622e-01,-1.038328809199462022e+00,3.264530812566979745e-01,8.487236992723529161e-02,1.305072059514612026e-01,2.145504260145965625e-01,1.160306320860167995e-01,2.985620780488887904e-01,1.182685567426886797e+00,7.188410630018511327e-01,9.382288376397067697e-01,-1.766600903107268916e+00,2.046881992236001757e+00,-6.367270419815623805e-01,3.460418002035596241e-01,2.878616825201355672e-02,1.978251795341288699e-01,-2.215867687142464293e-01,-1.342679694944491686e+00,5.454462041060064159e-01,3.388155459516971335e-02,7.349340933909682683e-01,3.954389181893853134e-01,-1.026551319931153339e+00,-5.301922636454758919e-01,9.612976593493717248e-01,1.306202336843101108e-01,-1.363747099080638292e-01,-4.718065795320675604e-01,2.090764823656695026e-01,3.186255289780078881e-01
-2.889133956167698747e-01,3.379292708944286461e-01,-4.647463587856575651e-01,7.258020711113115364e-02,8.495376637579588053e-02,3.537315493142796641e-02,1.270167118298088649e-01,-1.449323221960001629e-01,9.766213044153877754e-02,6.008635366328010097e-01,4.375002989071067883e-01,8.351849861946439857e-01,-1.694043005801343593e+00,1.055984073434827586e+00,-1.006902982154992188e+00,-1.275404752990820789e-01,-4.696699090425302536e-01,1.152012067864939121e-01,3.617815758080182298e-01,-1.251875078816305775e+00,2.642022045479538450e-01,-6.064180413151178117e-02,7.587802093478908383e-02,1.163206117763992548e-01,-4.540922537396684944e-01,-6.452967813427489263e-01,3.647016010399435348e-01,4.641342063952505308e-03,-7.896010639763766104e-02,-2.869138124969767834e-01,2.174842135032688806e-01,1.551487514445703264e-01
3.037753684305558033e-02,9.715309586150921994e-01,-1.304879868942435683e+00,2.948209340617452545e-01,2.827743662643550926e-01,-6.024451713131556696e-02,2.799476571961209137e-01,-5.986339896837047925e-02,2.810382407628063128e-01,1.200832566892236386e+00,6.280617744813367098e-01,5.780463116930590894e-01,-8.677979951060451613e-01,2.019454829000283613e+00,-3.318328988920438150e-01,4.008890285860260971e-01,2.160733500685385888e-01,-4.697715800734342251e-02,-2.942941610411398679e-01,-5.231715442518517500e-01,1.164937648877004406e-01,-9.106525585725255834e-02,6.557428507684730512e-01,-6.293342399006846000e-02,-7.724889895755308045e-01,-8.870845737192795122e-01,6.903660918905817345e-01,2.874520777514900580e-02,-3.125807118196045065e-01,-7.063361171535417204e-01,1.295867942156071206e-01,6.034182896817920083e-01
1.057204002154227968e-01,-4.656590187751443732e-01,-2.504814250612023008e-01,1.833162617964718966e-01,4.978023812674382473e-03,-6.825600755698531252e-02,2.450077161731139541e-01,-1.244801443696611463e-02,-7.790122633199969560e-02,-1.654081866264425216e-01,4.328502388868963324e-01,-3.020834699440844706e-01,2.241135893684782776e-01,9.282720585723108764e-01,9.930675114202480724e-02,6.137029491359322630e-01,-6.576314498841429046e-02,1.073428713624421243e-01,-3.150326552197559860e-01,2.802700918743512570e-01,5.748550093241102665e-01,2.673547664842567118e-01,2.144812778456396951e-01,1.108864828294111107e-02,-1.427664240911375726e-01,-4.849690083889164893e-01,-1.257889818673966209e-01,6.884654261132057418e-02,7.289011129733394823e-01,-1.320996862886809897e-01,-4.433337133611695569e-01,1.250558807973872477e-01
-5.746916876648663214e-02,-3.025492987439656334e-01,-2.183663899963917132e-01,-2.117583112041310570e-02,4.496048267673060095e-01,8.224961365372782107e-02,-1.404250647349894188e-01,-1.186507668930680132e-01,5.704797014341960182e-01,3.803500291384144250e-01,-1.820062435331622902e-02,7.032799239019399407e-01,-5.230395126428617480e-01,1.064688548288606151e+00,-5.051971260217943405e-01,9.081594438784663936e-02,-4.704180423792089782e-01,-2.586325782786022889e-02,1.042992594491360669e-01,-5.021379033952860782e-01,-2.511749823911389734e-02,-4.769054630133767042e-02,1.415998758129820567e-01,-2.522008718498993662e-01,-1.117772348030335594e-01,-9.520061996565166718e-01,-1.246855424293963760e-01,3.027742324256482709e-01,-2.638788414335858645e-01,-4.207880511904319443e-01,-1.005611328880390461e-02,2.107530606061812084e-01
-1.927441563163868887e-01,1.800674691563275143e-01,-3.335803024832710295e-01,-6.672012348608417909e-02,-5.351212976165777707e-02,5.169370369665653164e-02,2.331242057101950427e-01,8.813642650519919186e-02,3.982362636019754487e-01,1.508683401428846660e-01,2.772881147456415230e-01,3.792687074183387907e-01,-5.201179223051813905e-01,4.523856149746384170e-01,-3.333263996366935822e-01,1.646611146406757042e-01,-1.251669821124274107e-01,-8.152864853521565175e-03,-8.450732339631629453e-02,-2.044999313772320471e-01,3.023901984986880898e-01,1.591656610598126964e-01,8.767261230400430483e-02,1.946782945637176854e-01,-2.125658242759437266e-01,-4.100696979446318835e-01,2.599838460997463407e-01,2.409221062573556615e-01,1.756924831017354638e-01,-4.348637077943401930e-01,1.329679308778564661e-01,3.430843037648899085e-01
-1.502850026580598852e-01,2.984794448239612152e-01,4.425197196651897702e-01,-4.452754586396689973e-01,-6.268973361820419088e-01,-1.607386900190349854e-01,9.603848695103246735e-02,-3.835132135785391250e-01,2.778335564052399342e-01,6.337628152872727405e-01,-5.182722321075698968e-01,2.129098770739459301e-01,3.632327307772562630e-01,-4.895164797596592288e-01,-1.687790896474665736e-01,1.037764099877981488e-01,2.057967475366715149e-01,-2.248010484615375060e-01,-1.709132732202363336e-01,5.472129623893445122e-02,-3.034567467863624191e-01,-4.814238075071204381e-01,-1.536876433297921785e-01,9.542178879100496336e-02,-9.843142725601190801e-02,4.875203033719809897e-01,3.909807502288157322e-01,8.129236153030791612e-02,-5.610057676118400671e-01,-9.077148338527734062e-01,3.818303983447837169e-01,2.365841449671770569e-01
7.482050686469586542e-02,4.097210343811286126e-01,-6.972204223025844083e-01,1.433475252690728785e-01,2.692345458130188454e-02,2.835934113317635785e-01,-4.565976280247581454e-02,-1.552461242586397894e-01,3.154997449429932099e-01,6.243449558925517895e-01,5.070229281422942158e-01,4.997795055095283767e-01,-7.195164441140311506e-01,8.622653039408185727e-01,-1.183490166327716281e-01,1.630542487914755923e-01,1.587345899609347299e-01,7.907889658607605496e-03,-2.587963521472448902e-01,-3.145549507564366354e-01,1.492996382845684089e-01,1.064459370787473186e-01,3.227999318766696102e-01,2.808831556962378406e-01,-3.988110099571506861e-01,-2.512713111939038901e-01,5.630779297998119715e-01,1.640068011287569849e-01,-2.568854564502932036e-01,-3.310274322911796463e-01,2.271602817129457497e-02,2.293099070948552420e-01
-5.507595409552946686e-01,-3.151594197057474012e-01,6.034478598708206132e-01,-3.305209085742057407e-01,-4.692312011638549718e-01,-1.432248886844386671e-01,-1.299297404380065357e-01,-2.950432063458588786e-02,-3.841555055775833227e-01,-4.648017095113487485e-01,1.646111875628596677e-01,2.208384204215469576e-02,-7.651398787661076728e-01,-4.781072765570986149e-01,-5.360954791116641083e-01,-1.876056827551507988e-01,-4.358246783976346683e-02,-6.625080870204620720e-02,4.960263548572811376e-01,-3.917151741760315220e-01,3.121250676331963070e-01,-1.916213957355475672e-01,-2.662185741883563717e-01,3.597098153997581038e-01,1.648196671489450260e-01,3.290948346895511412e-01,1.407658064688916966e-01,-3.406540541989407922e-01,5.600840068159458340e-01,3.128200575853253285e-01,1.401507128100895616e-01,3.289094757338948544e-02
-5.626481483292614105e-02,7.397328092025943214e-01,-5.641459932717752812e-01,2.200424217278792449e-01,3.286232648921647015e-01,-8.193673569159176662e-02,-6.027278298218326918e-02,1.713235627877247869e-01,1.869160530530711573e-01,7.811618524763890292e-01,2.850285249294736145e-01,6.196893830632795863e-01,-1.050737221526683252e+00,1.249057303686200049e+00,-4.823827350501903033e-01,-2.163721067695186240e-01,-6.891777215728436823e-02,6.366872752720888207e-02,-1.766136510458306622e-02,-7.459567797498023456e-01,-6.793126793816117726e-02,-1.496983540230159282e-01,3.418657907300084453e-01,-2.701596545578296982e-01,-5.210973438081885067e-01,-5.732377166014416270e-01,2.492737748289638455e-01,1.454771199700696967e-02,-2.443265968450213377e-01,-5.050983973756727474e-01,1.415390289493539122e-01,2.110976334866422055e-01
7.340145189059733566e-01,-1.007645481050029462e-01,-9.592084878883269106e-01,2.317420009772210021e-01,6.911494513555472841e-01,3.301192290984158451e-01,1.919288519803309667e-01,1.108352151700841282e-01,-3.767433442617844630e-01,-5.111067557220831947e-01,5.026537075156958245e-01,-3.711217308916732738e-01,6.578323132512555738e-01,6.370433582146782792e-01,6.942411292437244974e-01,4.294364817961195957e-01,-1.825513343897080254e-01,5.577930248407244468e-02,-2.026751879120888486e-02,7.725102048477160421e-01,3.479728192361210976e-02,6.597817179968332724e-01,2.853583082130995985e-01,-6.019884376811054372e-01,-4.673735331211862493e-02,-9.067275249618929056e-01,-2.748747973965872116e-01,1.566584206235246968e-01,-2.585045250094288039e-02,3.058159267271347570e-01,-7.838142313668895467e-01,1.381232982782064633e-01
7.253918172232722006e-02,-2.735297814445883935e-01,1.609680271497597112e-02,9.598120559343992220e-02,9.467811433141848365e-02,-8.182987745863355700e-02,-1.298643665358708565e-01,1.320795975477540019e-01,-1.421927030310349005e-01,-2.475671361828712391e-01,3.204895993918020075e-02,-5.703420651194661406e-02,-1.422425442425279685e-01,3.091246604744329329e-01,8.969105313873650120e-02,2.583528606780419734e-01,-3.988770842019616625e-01,2.448181902105653063e-01,1.393213184538035498e-01,3.787621758526129451e-02,3.275712443737339302e-02,-1.092985488424405432e-01,-1.226827075617088342e-01,-2.592188921411190949e-01,1.976748191911573416e-01,-4.510526600652269291e-01,-4.890421955197929993e-01,1.743528259793725166e-02,2.081575427808046996e-01,7.641330850664888874e-02,-1.392654080719477605e-01,-1.583420088898448153e-01
2.358995560000962943e-01,2.070891168161553830e-02,1.136168965256255468e-03,4.686672307131264231e-02,1.716475397203040543e-01,9.330502718850189336e-02,-2.187758770087634697e-01,-1.215285273604354149e-01,-1.369683342601540899e-02,3.563635752239204257e-01,-4.724415129152603754e-01,2.317734262349568919e-01,-2.694208112381614728e-01,4.829563453747333091e-01,-3.894413530383963318e-01,8.183704613221981505e-02,-2.444178071401261476e-01,4.512933847057230136e-02,-5.770222952661108878e-02,-3.475720320260224927e-01,-2.720800949289877146e-01,-1.280428823699449326e-01,4.279218709364666084e-01,-2.805975842801257669e-01,-8.971205439789055325e-02,-3.647912017165189646e-01,-1.473863075395362987e-01,1.937805333738339686e-01,-6.536367159424829598e-01,-2.835946877579357261e-01,2.111697771485568920e-01,-5.422069693236920840e-02
-1.627615684118735306e-01,2.942425004548117617e-01,-5.000213869733040051e-01,1.278419727884805117e-02,-6.977835362181410150e-02,8.312345424616263134e-02,1.459083086332930122e-02,-1.053412524580200904e-01,2.429274510508535323e-01,4.994807441144075155e-01,2.535107992730366577e-01,3.392420264068423119e-01,-5.291106995032118787e-01,7.826191618332914990e-01,-7.893692714244755770e-02,1.314134357282308874e-01,2.143643308017452453e-01,-1.051505471339514441e-01,-2.474977554392833179e-01,-2.305654815760249665e-01,1.637860840011452768e-01,1.425656480098211054e-01,3.382799802985326787e-01,2.296463412973629992e-01,-2.085092794831616969e-01,-2.083977649573033886e-01,3.289716145972364503e-01,1.656304674897456919e-01,-2.551790415651070121e-02,-3.019182094758543489e-01,6.086757062931997392e-02,2.349710159370664575e-01
-9.443291748544405118e-02,4.418205647581124884e-01,-3.687609908354683719e-01,-1.908023981216215303e-01,-1.197911177613633221e-01,-3.765848523437626168e-03,5.873098937688761567e-02,1.874645335669825746e-02,1.675787346507327802e-01,4.671866841908124957e-01,-3.399913051122560245e-03,8.007897064446277413e-02,-1.810260134757087636e-01,2.927725686405068806e-01,-1.455724258312432462e-01,7.708301476424569976e-02,2.078088673590170743e-01,-1.615271672178324180e-01,-2.681579506940992008e-01,-2.498956934313183997e-01,-2.169417441638803526e-03,-2.874443694391802875e-02,2.637432190762104556e-01,-1.528230879804072344e-02,-3.368937834201675141e-01,3.606800477683143324e-02,5.039536968097194647e-01,1.003505502002363242e-01,-2.924411912912925904e-01,-2.370283731263427007e-01,3.681302844492750914e-01,6.101809016384179829e-02
-2.965057537965931980e-02,3.659954897946747221e-01,-1.926856609422888111e-01,7.740252921466812819e-02,-5.210136714298090055e-03,-9.591486751005331990e-02,-5.996937203904011832e-02,-8.299096257363949847e-02,7.765648631175001149e-02,2.708142993491558514e-01,1.203483997770568303e-01,8.868804675927702275e-02,-3.462906646019545676e-01,4.802117175763386259e-01,-4.281418472171893280e-02,1.201630428351474073e-01,-3.604966759315134800e-02,1.510630853876482882e-01,-2.045047249779927134e-02,-2.912273910984914393e-01,-2.703252760069786795e-03,1.828241559587048121e-02,2.825028528661164828e-01,3.785072221499736350e-02,-2.492473614029418472e-01,-7.896325678654546321e-02,3.238078824767413044e-01,3.326196948703870337e-02,-2.624123404343963739e-01,-1.340052658844214650e-01,1.774583016095685195e-01,-6.178720027314408419e-02
1.122569734420091614e-01,-3.079113632428670186e-02,-2.557033653119969996e-01,1.556411489408413701e-02,2.376161748171598531e-01,-5.447098829030831008e-02,-2.064786878741883269e-01,1.847265783658238736e-01,-9.367301624438675867e-02,7.821951298270175823e-02,-5.072138265162995374e-02,1.937567812789365782e-02,-3.328829830669008949e-01,4.951548763648974116e-01,1.268507476632637909e-01,-1.131924501950724166e-01,-7.513166411554766770e-03,8.370602226880495544e-02,1.306344815516341691e-02,-9.256959659357831549e-02,-7.840314633823576573e-02,1.752556938821778210e-01,1.432495111052220216e-01,-2.354229150520787683e-01,-2.046391355331342310e-01,-2.323370180182523781e-01,-2.363088381946154282e-01,3.648119983246481124e-02,-1.528449139766010767e-01,2.379883865093575523e-01,-8.805352026453364470e-03,-1.519050454347438961e-01
6.476211692639265161e-02,4.776091391650366669e-01,-4.262681451396674870e-01,1.502509487239020725e-01,1.723878292718430405e-01,-1.735764945680459415e-01,-2.565437341705559815e-01,1.136714527517118517e-01,6.305788594925347545e-02,4.374235532191099174e-01,1.833315431092069625e-01,2.527474290055280459e-01,-6.513508352848478289e-01,8.861938735321041039e-01,-2.526777124917078954e-01,-1.979294807233910047e-01,-1.521252110808896663e-01,5.749321176354224572e-03,1.031181159617227394e-01,-6.812321449750375901e-01,-1.750698294555622925e-01,-2.633987094594309464e-01,3.328077622445116401e-01,-2.529843778922255537e-01,-1.945069465355257210e-01,-5.122732435653345462e-01,1.260009085139149609e-01,-1.425896960085277707e-02,-3.008974073235136104e-01,4.182475018841393805e-02,1.108463888041319734e-01,-4.685545755462198342e-02
4.484072654441989721e-03,-1.415972103669387028e-01,4.632204774813154791e-02,2.321386836935566134e-01,-6.299901276358840785e-02,-1.146243999533508445e-01,1.625997629861426763e-02,1.364721146989725797e-01,-4.382080962491845533e-01,2.047099937713254755e-02,6.514735311380320630e-03,-7.343811183301582335e-02,-1.315988248511725522e-01,2.011197460490650180e-01,-7.484173347510979235e-02,1.207289712952589605e-01,-3.666337269574367758e-02,2.699657799875643249e-01,4.909741785989824893e-03,-1.837690464434507676e-01,1.118081905195580650e-01,-1.498185110073970150e-01,1.672957604149993560e-01,-3.438024143249438641e-02,1.270693725911868632e-01,1.580428113190405354e-02,-1.518756239407907938e-01,-1.429823860111943679e-01,1.584924093961603830e-01,1.522185309448339519e-01,-9.247364814558924062e-02,-1.552264874916383930e-01
4.413997340173279882e-02,-7.204519052473852547e-02,7.510838245149675796e-02,1.355689786054386226e-01,-2.420955919280061777e-02,-1.260054058729041249e-01,-2.262685605432732394e-01,1.146095753711681708e-01,-3.354597495779353955e-01,-3.985245830448817111e-02,-2.267864145511881702e-01,-7.910451653622636858e-02,-1.451195213671974404e-01,1.645063280244034309e-01,-7.067794310153892312e-02,1.267299573449217134e-02,-1.570840928597010966e-01,2.093660105370881153e-01,-2.991143385613917460e-02,-9.501319800845817176e-02,-2.433559299049505714e-02,-2.277730491310568997e-02,2.244633386023215937e-01,-5.097763497759640050e-02,-5.986607553602946857e-02,-4.698650474726779463e-02,-1.262067743844747514e-01,-8.054934103721390903e-02,-6.043582706529598142e-02,7.013168940364464428e-03,3.303194096283752768e-02,-7.973721174540596146e-02
5.490275129570789531e-02,2.281126267373861094e-01,-2.203644166921205072e-01,1.594826133341472330e-01,-6.808302855544300092e-02,-9.910691158996079442e-02,-9.022151295811148275e-02,-1.069624524182890245e-02,-1.543707304294749949e-01,2.327688114847309975e-01,-3.645162767040904112e-02,1.799124755124239805e-01,-1.658136399954305840e-01,3.136310124556792589e-01,-8.693067608502690058e-02,-3.022132147192353388e-02,6.240053685002314859e-02,-6.532435554914550746e-02,-9.892433420718926840e-02,-1.619891013921099243e-01,3.944993751004852861e-02,-1.648453827428105756e-01,2.331074839367080764e-01,-8.117941660412054949e-02,-5.835961187998364025e-02,-7.442716695108397840e-02,1.979505062558688244e-01,-1.974865631012315617e-02,-2.257773832596408903e-01,-6.851999429478189407e-02,8.378903722623452788e-02,1.190857801593782003e-02
1.832611743073699895e-01,1.217856364809143804e-01,-1.326980196468484363e-01,7.190905178038088652e-02,-1.287547131856259519e-01,1.402322084380380751e-01,-7.200300728163512576e-02,-1.156952249966990837e-01,-1.246127376739714909e-01,4.825752139481891967e-01,3.869534519568790243e-02,1.316432505367793881e-01,-1.804204393084205826e-01,3.114203585792054696e-01,-7.155495063376023090e-02,1.495075015503783133e-01,-5.313148294777860631e-02,1.422452421422800151e-01,-2.005798375827246016e-01,-3.183030978622353735e-01,3.128411888691623455e-02,-1.957892427475903530e-01,2.397595788987292309e-01,3.627320119671355036e-01,-1.745851795818605112e-01,1.124433114624875801e-01,1.627956767272977778e-01,-8.638849577790809475e-02,-1.513530952113771866e-01,-2.295448275406147542e-01,-9.790533375611115696e-02,6.899919579020877269e-02
4.816513245876197918e-02,-7.619368279877826444e-02,3.257929344918464865e-01,1.062127400069737271e-01,-4.442120988367004863e-01,-8.222140049863421729e-02,-1.516074354384937262e-01,-5.462966565681068309e-02,-2.488098445631642952e-01,-2.168652398153010641e-01,-1.277557969117271847e-02,-2.302384633213680754e-01,3.685558944349947019e-01,-3.972003336299867460e-01,6.591862342922870377e-02,3.992635581872344686e-01,2.727659507137262240e-01,9.359601227230521236e-02,-2.854498957076012089e-01,1.284246322195661816e-01,3.659777337138100939e-02,-6.830579328712990672e-02,-1.196108382729384051e-01,2.375504247880967923e-01,6.418246865042297189e-02,5.854955040991122184e-01,1.795733679579365194e-01,-1.207550228456045482e-01,2.052676094661448902e-01,-7.021342639705301092e-02,-9.573626893750657174e-02,-1.591895492686125069e-01
-5.216301417935783474e-02,-4.209922649389513660e-02,-2.967248413501073420e-02,3.377447630606823098e-02,4.076406271703438694e-02,1.946754522336232029e-01,2.062381871698786354e-03,1.035643511729668863e-02,-2.078756447884354958e-02,-1.376556036811511612e-02,-2.535445163007035360e-02,2.372650650666350419e-02,9.127373998025019308e-02,-5.132916731835319296e-02,2.056577052275065584e-02,1.065611314385923186e-01,-7.117156572190101727e-02,8.345416142765805720e-03,1.522537782484650604e-01,4.942983702049143224e-02,7.682884691794539256e-03,1.921860458204816546e-01,-1.532498716389881117e-02,-6.883954709548002759e-02,-6.310747543207838317e-02,4.606275244496654819e-02,1.290034462097969792e-01,1.017365535786823871e-01,4.545790360253719464e-02,2.494844287731099938e-02,-2.412533410292000066e-02,-9.084994551162542398e-02
1.646077928725633299e-01,-5.830298306088500110e-02,-1.548668350018689854e-01,2.179511916458466148e-01,3.803079117369156936e-02,8.469622283511034355e-02,-1.518808266652600103e-01,2.562133261333894296e-01,-1.658756356288953182e-01,-6.802151335867756554e-02,1.975458609516885997e-02,-1.215023421671200116e-01,-1.001103394999895563e-01,1.127793305173884625e-01,2.684496375569120907e-01,-2.256565308840053630e-01,-3.492899922897518827e-02,1.746631116499912026e-02,1.345781540281390243e-01,-1.158672174432482799e-01,1.343522916205645290e-01,7.293529930429050456e-02,9.510953024213335272e-02,-1.724956806892564629e-02,9.886278715874172174e-02,-2.281187410173540764e-01,-1.875058891152952545e-01,-7.032135168457689933e-02,-5.266909371533430063e-03,3.495918915235942670e-01,-1.156933720558511874e-01,-2.071907427995152984e-01
1.282242378937578087e-01,7.040540994156541110e-02,-1.882290237861627691e-01,3.644108698046762823e-02,7.904924320900759416e-02,8.087355848883910625e-02,-2.823169565625940902e-02,-1.907091503357783921e-02,1.066185982269488436e-01,2.426873522839028408e-01,5.368839262016884828e-02,5.079080435967277957e-02,-8.475746742900083786e-02,2.258461863190928606e-02,5.133427897435280385e-02,-1.716010294152473664e-02,-1.628823888801207362e-02,3.108536727759419679e-02,-1.769805624938857458e-01,-5.151234293423093830e-02,-1.325638371376797464e-01,6.167931943598626426e-02,2.401493002790383025e-01,-4.319647658462755051e-03,-6.106738494946891554e-02,1.688509099594800722e-01,9.525426281097620906e-02,7.369714685021006018e-02,-1.366419986467833914e-01,2.241956505924092014e-02,-1.461960858024284604e-01,-7.103792437248704350e-02
1.943808409781994789e-02,-6.646281672105935900e-02,9.080850958402469919e-02,-1.147597847457410003e-01,1.150471971564360069e-01,-5.677937710265649335e-02,-1.466187565862949183e-01,3.487551598305364819e-02,-2.162435679445131043e-01,-1.142951873579476363e-01,-5.376438262003289253e-02,-2.846414622885174578e-02,-1.083985214920335644e-01,-1.554691834764496128e-01,-4.506182386609981771e-02,-1.646282322394757303e-01,-1.344942432518755338e-01,1.347166773242649274e-01,1.759431785585577612e-01,-2.319526658683770115e-01,-8.617403573946119666e-02,-2.631929892558204295e-02,1.472966752062547791e-01,-8.769007710394442767e-02,1.123155336938785470e-01,-1.671006571509916772e-01,-2.476900025356930379e-01,-2.517086304616344332e-05,-1.138310406038996608e-01,2.052589885891309140e-01,-1.117256790877596412e-01,-1.655299905136765892e-02
1.131226849075662039e-01,1.604078156719729864e-01,-1.041225991501601583e-01,6.300489188215084579e-02,-2.802646908954323224e-02,1.322516007147581385e-01,5.618617673060397576e-03,5.220010531932273851e-02,1.557489000722743766e-01,8.651791221349251770e-02,-2.504279547990001867e-02,1.595597350414274529e-01,7.420067604820528018e-02,-4.621304632000674401e-02,-1.177798161987302777e-01,-9.934558332042711659e-02,-4.550762217164362744e-02,-1.476764737932630134e-01,2.278443945910645172e-03,-4.350233464364515815e-03,2.978830451487292363e-02,1.402408062121713317e-01,6.182918315754985794e-02,6.860570117251098277e-02,-5.147169401615282053e-02,-1.125842156519745313e-01,6.973042358226309856e-02,1.108522530008826806e-01,-2.418226129031975369e-01,-9.079353496757892883e-02,2.932996606667771095e-02,1.013210867129342302e-01
-8.787571432866328469e-02,-1.702641662178257589e-02,3.147191074632942898e-01,-3.544584334277128129e-02,4.401293071642873450e-02,-1.145649797970546974e-01,-9.149741420941709391e-02,-2.401667187005169721e-02,-6.448024690318353812e-03,-5.639112596403877270e-02,7.842170000187970169e-02,-1.616989309498373106e-01,1.521061704528816338e-01,-2.591003389539005552e-01,9.965575219167211243e-03,-2.128566520019748443e-01,2.484702161721205615e-02,-1.681122854883642104e-01,5.493578016489869542e-02,8.154210488207623564e-02,-1.898920513186605208e-01,-1.262611491088446725e-01,-2.281274451182178642e-01,-1.706515187780004439e-01,8.696767437112212784e-02,1.910003015632907863e-01,-1.335964382087733437e-01,-1.777263730992030902e-02,-1.046787492709226608e-01,-4.352601195562270930e-02,-5.164694151148665341e-02,-2.912371067461804186e-01
2.283510932938802307e-02,1.036069519664239852e-01,5.700296439943689647e-02,-4.065864089462679215e-02,8.087130393087846661e-03,-6.701141237515842453e-02,-2.527609461643326103e-02,-4.485469639250510426e-02,-5.859476920473593448e-02,2.201887134296495394e-02,1.374510509819258097e-01,1.077490648231022863e-01,2.285787124583939234e-02,3.814924455689110150e-02,9.085611454392218678e-02,-3.985318201021580825e-02,7.046452899226529620e-02,-1.024085905133712976e-01,-1.024446436778570363e-01,1.469448153766981027e-02,-4.308147556249207477e-02,1.581600771889092316e-01,6.294742406881652375e-02,-4.556328743757615506e-03,-2.593983389440006337e-02,7.115944270404565841e-02,-6.250386935685760259e-02,5.095357490598992345e-02,-1.602126751882297639e-01,6.108544300424986750e-02,-1.636495138510972100e-02,-5.760620368736600432e-03
-1.850450105469366238e-02,-1.173913860741333526e-01,1.132765213139858285e-01,4.689113472734638549e-02,3.348180625734594740e-01,3.714085221509138557e-01,-1.946399234285871582e-01,1.054572896680703448e-01,-4.920968561678105979e-02,-5.706153490560353925e-01,-6.820050230758907539e-02,-3.170835106481886823e-01,3.781730184256570926e-01,-4.172769922407940646e-01,4.855235280836739942e-01,-2.475855586562191735e-01,2.612815780451175351e-01,5.712930557341103135e-04,-1.213881102700583442e-01,4.337589606995175262e-01,3.815568675248949548e-02,3.029726119430780074e-01,-4.782379009168850892e-02,-1.987191846408377094e-01,2.776474317783098056e-02,8.813941123076406148e-02,-1.281238515661628496e-01,9.946225258165684868e-02,-9.882513237966979169e-02,5.465668275001823728e-01,-2.682856416222091922e-01,-2.538773537267208780e-01
4.859201390082142358e-01,-2.982626171016162231e-01,8.548936647439863909e-03,3.955212709984689580e-03,-4.670099809717264683e-01,4.094559113432229558e-01,-7.611898881900860947e-02,1.369813658936992751e-01,-8.789630405540344027e-01,-3.914309488069226406e-01,-1.518914684651937186e-01,-7.516501340876199366e-01,6.360933913286215269e-01,-3.033764507912053432e-01,2.697100444933062668e-01,1.129917319774975892e+00,-1.418745404638271923e-01,4.797703477866859800e-01,-7.378032416032779262e-01,4.321892890729878700e-01,1.816677180009145798e-01,6.290426443782916321e-02,3.440050914616640254e-01,4.430803504110152891e-01,3.816354936576026730e-02,3.982552050986740699e-01,2.118791283701998152e-01,7.375674778713487388e-03,4.244232919183990038e-01,1.446983508578367217e-01,-1.890974812765321700e-01,-1.514300299513600123e-01
1.431438718579532976e-01,4.193043024827373261e-02,-1.179630658078018035e-01,-1.878218007159287439e-01,3.758379378713677110e-01,1.529598526692275973e-01,-1.192092126484453202e-01,3.038143816598169455e-01,-1.991991002710564451e-01,-7.934009853395392886e-01,-2.044714685325661405e-02,-4.809005388899905697e-01,6.612941631887154781e-01,-2.569616140776626589e-01,2.183958569284569218e-01,-2.829479779620994728e-01,8.890116935008601784e-02,-2.314353405121039736e-02,1.094906565321953351e-01,8.877741011383593062e-01,-1.819043363132078484e-01,4.298741813660851840e-01,-2.308532634070928069e-01,-4.334336836630039436e-01,2.494442034030206479e-01,-1.457377894244329120e-01,-5.565625083737494316e-01,1.789053617463776391e-01,4.767271822984193996e-02,1.618862852919915052e-01,-3.385324648975347461e-01,-5.983536051748582912e-02
1.649616957099662995e-01,1.379246699102304463e-01,-1.707445928481238495e-01,-2.062155330159125624e-02,1.354959689200432582e-01,2.212041224985604806e-02,-4.050890231445414269e-02,6.868552303067125553e-02,-1.198998075615059222e-01,-9.709665715766671590e-02,-4.479324742259851305e-02,-2.127621203354703727e-01,2.408314392003940707e-01,2.622297563688220645e-01,3.478845485660561621e-01,-1.763243679822927915e-02,1.311505782043481394e-01,-1.200230670729020982e-01,3.974887937067336785e-02,2.414261461856281599e-01,2.119252504842165236e-02,1.696748668884660582e-01,1.230622941834540185e-01,-2.513020826651790607e-01,-3.476685146573545160e-02,-1.767129750305566072e-01,-8.674507428353823990e-02,1.337459580502110834e-01,-1.303073849576036163e-02,5.650619553076990237e-02,-1.400309240048036585e-01,-5.858522603524059930e-02
1.080133230821243850e-01,1.354032254487395059e-01,-1.134316396477829114e-01,4.849581181823410525e-02,-5.081984836029759811e-02,-7.036107259113984214e-02,3.635767433795660669e-03,1.226260255355544060e-01,8.858052792006201881e-02,1.123691739585601646e-01,-8.012570820678871497e-02,2.113276820780829734e-01,3.667298205197153799e-02,-1.212563675920605016e-01,2.679060613752316106e-02,-3.179796012252483067e-02,5.767059980363457156e-02,2.161081651511122942e-02,-8.773033240484814921e-02,1.051545088782088744e-01,4.125515604196980379e-03,4.814052745415944856e-02,1.341393785876578981e-01,-5.618926411336835208e-02,-1.045800702529296605e-01,8.500146686907709970e-02,1.376442530041178114e-01,-1.116172618278203077e-01,1.083571950522230487e-01,-4.719812650431688683e-02,7.072282593107619142e-02,5.100523198857215973e-02
-1.003651466630613026e-01,1.353244073227924116e-01,-3.050751012769424286e-01,-2.002434694969501272e-01,7.876773926079495836e-02,2.489316039502195016e-02,1.533879857673413893e-01,8.531316414117255664e-02,1.459020981130282613e-01,7.219186818827441447e-03,6.056562358470529012e-02,9.578565410999459765e-04,2.906894763692617536e-03,-6.548814451938786418e-02,1.129635770913988424e-01,-2.602606119315582500e-01,8.909233036954519735e-02,-1.344997312450719462e-01,1.484181967944241953e-01,1.489229536165534995e-01,-2.186974756323486202e-01,3.941509718803797302e-01,6.423628110780521538e-02,-1.143636683572148566e-01,-1.441453909943744838e-01,-1.437913505277823856e-01,9.521893443673475066e-02,2.053832493218737676e-01,-2.993710528738287024e-01,-1.072946353299625843e-01,-5.675209573265136559e-02,-2.114462826217435379e-02
