# Architecture: 354,32,32,8
# Learning Rate: 0.001
# Momentum: 0.9
# Layer weights below: layer1, layer2, layer3
1.307201485501493510e-01,2.022169315774632048e-01,1.224333186724672617e-01,-2.151671192175518554e-01,7.816023343023627001e-01,-7.586599214822037363e-02,3.217946634384422633e-01,-2.638185343710443970e-02,4.492027565835221559e-01,3.194702775753469060e-02,1.133504945944061168e-03,1.082580642084545741e-01,-5.178769461562165999e-02,2.433152453570851526e-01,3.269744796652269275e-02,7.066291270728881913e-02,-2.075888937220098929e-01,1.969139006507434897e-01,2.263628873499534677e-02,-2.033209762666231615e-02,-1.993233583828117883e-01,8.296089809366226087e-01,6.690856068741979357e-02,-5.483634344351161205e-02,4.242892591822833293e-01,-7.637718784190266064e-01,2.158732164617224447e-01,2.351099013066506316e-01,-6.074241438633026791e-01,-4.993006892555035825e-01,-4.541434019179618753e-02,2.742145135352165933e-02
-6.777555381294764203e-02,-3.715904790450300825e-04,-1.941504094753997980e-03,-1.844601119579748205e-01,4.118464172451059002e-01,8.918769444408307379e-02,2.772616481982639186e-02,-1.608534104146222901e-02,2.394035018502497017e-02,-1.067227979387737058e-01,-1.486293324686402961e-01,1.461249326513996416e-01,2.611535491891343527e-02,-1.151237436066973770e-02,-9.339057939240087702e-02,4.135099875718848544e-02,-3.344594492303670785e-01,5.075423553861945630e-02,-6.745999374061913134e-02,3.313295032419952268e-02,-4.193234302429493104e-02,1.534520329077550815e-01,2.006672909419774005e-03,3.198012051567139524e-02,1.734848398451728502e-01,-3.136025890498079782e-01,-4.688971374762043037e-02,8.617105071115239989e-02,-2.792578522051016865e-01,-1.748451817895154137e-01,-8.494825509483777681e-02,-1.299312854569695252e-01
1.336382343793286916e-02,-1.588615406490113957e-02,-1.181587751292950961e-01,-7.053275394360322519e-03,-6.447974444404339089e-02,3.864752724368055933e-03,7.627444161286550672e-02,9.335647668310870922e-03,1.160056435714333367e-01,-9.282986761791373054e-02,4.250875107921400775e-02,-5.151685162974192073e-02,-7.535218523359564491e-02,-3.924151683119057876e-02,-2.327109817377650061e-02,2.487081403544924400e-03,-9.466970857850084964e-02,5.487729730277719070e-02,3.492278587987469179e-02,-1.146219396213878222e-01,1.117195786622453835e-01,1.506395815094157820e-01,8.901549148818430068e-02,-1.348920484676064020e-02,-7.003313508973077472e-02,7.247944985256102313e-02,-2.734049041347214829e-03,1.146247462463817757e-01,-3.725687654419490569e-02,3.829002278691814865e-02,2.515068367135560659e-02,5.308119873097597030e-02
5.252377464629214357e-04,1.049926383996713786e-01,9.348538209926288145e-03,-1.901974517575331092e-01,7.520512403430358594e-02,-1.019576256577919143e-01,7.629909535175435908e-02,7.202916344631626888e-02,-2.567271381556082352e-02,1.461642168064745950e-01,-2.117939370092886478e-02,-5.664874211295619494e-02,1.371496411970516138e-01,4.494373180614698315e-02,1.404226818612321348e-01,-2.264685195805764273e-02,1.383550585418612533e-01,4.405528285765104163e-02,-2.095870444279661349e-02,8.150117945202051128e-02,6.988502398152288131e-02,-4.622771831053146957e-02,4.687933895532487433e-02,6.941387512754011724e-02,3.587241359341204749e-02,2.209486751966621976e-01,1.370151934982321573e-01,1.756557533823375483e-01,-2.618374998047027780e-01,-3.348783182582670825e-01,-3.784458502427426319e-02,1.387953773564489790e-01
5.047912339477800964e-02,3.155879115526104284e-02,-5.700000154936411129e-02,1.529112360862992098e-02,-4.559393711459365506e-02,2.380472725336417027e-03,-3.112425028589833192e-02,5.046978325275125465e-02,6.078715918941397789e-02,-1.563887945330694890e-02,3.743884629436801392e-02,-8.212062833677553908e-02,-1.276106086853059651e-01,6.548303404989355703e-02,1.263426574356919969e-02,2.534868148475720104e-02,1.715932084656954792e-01,6.697036254456803506e-02,-6.862499547205003214e-02,8.530508439983026936e-02,-9.899904979021542650e-02,-3.618178904963150616e-02,-5.275064793620888939e-03,1.287684127220126984e-01,-5.791425174297149675e-02,-7.791459008831026767e-02,1.584160525581108188e-03,-4.834999535337209525e-02,5.744792807061166462e-02,-1.066536376153983112e-01,-8.680481026767952746e-02,-3.287997330218103698e-02
-3.806416594647806656e-02,2.695937456080216288e-01,7.665106935826336565e-02,-1.774759541246357375e-01,1.984548530253051890e-01,6.205682950954509447e-02,-9.434052324765224151e-02,-1.151403965063877849e-01,2.254501909335432652e-01,2.421538630969315500e-02,2.069723584505740455e-01,2.378846777988067457e-02,-5.123766307739656412e-02,1.659960017251257691e-01,-7.840664651781464878e-02,-7.153173278403561486e-02,-2.789856492187241521e-01,3.219992344011076563e-02,-3.401657581921260082e-02,-1.668551583945830641e-01,-2.870903852484967336e-02,5.566096795673649428e-02,-3.966721661142267458e-02,-1.668346764179813035e-01,1.931369657454246602e-01,-4.876776249145038378e-01,-1.107710270136897344e-02,4.464567023834371817e-02,-3.143402439236125390e-01,4.848940869136301318e-02,-1.093939932245632796e-01,2.000031341767109089e-02
-2.925629275672069710e-03,-8.221075415650798413e-02,3.830405553208573316e-02,-3.052540963737129104e-02,6.640217500551674756e-02,6.185648198252993724e-02,1.669219640798902671e-01,1.005547673720041807e-01,-2.492383257032419405e-02,-1.798260201561460714e-02,7.583274076174757738e-02,4.920778195334540861e-02,4.716883412896841904e-02,-1.225914912979824828e-01,-1.819644367015239416e-03,-5.716787215229080649e-02,2.471550712584720533e-02,-6.266127873066598859e-03,6.838469112057557475e-02,1.992378603596984751e-02,5.903644827104113230e-02,-3.270834422108775258e-02,-7.127653355839246030e-02,-3.081917509844890601e-02,5.928277992389418063e-03,2.440501918474786286e-02,1.744768103044338214e-01,3.396581004090929497e-03,-6.603120072916936201e-02,-3.093693492731173361e-02,-3.394370717019583317e-02,3.617859825138180357e-02
-1.159400317587510054e-01,6.239844956055567299e-02,4.183848980689976182e-02,-3.558275280566188803e-01,2.489251822433448044e-02,-1.896482798763390876e-02,1.333164092494897035e-01,-3.639463993355045862e-02,3.070619273323670351e-01,3.144381943388434297e-02,4.355624453025368908e-02,5.853261600981212592e-02,-1.034543473736618258e-01,1.686525754672983102e-01,3.285877926926696058e-02,3.528038824755904551e-02,-1.805181308606965962e-01,3.903225501408726095e-02,-1.080999534039253814e-02,2.476985491182382652e-03,-2.500019636474811249e-02,8.270188257242826191e-02,8.937617197141178860e-02,8.169739003507187070e-02,4.370967349684579811e-02,-4.316345022344892368e-01,3.155973568254241690e-01,1.041445718098625156e-01,-4.640518059473204282e-01,-5.354387300648556502e-01,2.987721114815843071e-02,5.189763738646853419e-02
-5.452277622903209386e-02,-1.003671619319841946e-01,-1.148342090819397671e-01,2.861401395558930624e-02,-8.750149661705307336e-02,-3.814268810801781789e-02,-2.725825662984803985e-02,-4.275705386243010102e-03,-1.211050450098470205e-01,1.422962107704450058e-02,3.411796352132505372e-02,6.631708334320467191e-03,-3.000762236330303118e-02,3.870369130251435918e-02,3.044668286513391858e-02,-2.026970327832748608e-01,1.396458153682406389e-01,3.870626504462706258e-02,-4.912043257988617240e-02,-3.044631776389539191e-02,3.700281743222326447e-02,8.614654563287828942e-03,-1.530538173834095350e-01,1.552022808823322053e-01,-8.860372634066457365e-03,5.617975541706349274e-02,-4.173374613205620143e-02,1.239289414970679570e-01,-8.081326938616370179e-03,2.081936244616101883e-02,-7.876044886251679089e-02,9.099233822766905622e-02
5.170234131457154131e-02,1.246032040838261357e-01,-3.306523073650628752e-02,-2.342488299826286369e-01,2.625390582639302028e-01,-7.993884281045295082e-02,6.755971748720869530e-02,8.198884128719323428e-02,1.165179904355493484e-01,4.381354573837887428e-02,1.465191415642154785e-02,2.777327609855428231e-02,-1.087055502249040934e-01,2.015981871186883212e-01,-8.508113506229736389e-03,-1.166075311677299137e-01,9.217429699187242031e-03,-9.816017778359129031e-02,-1.004021949743033881e-01,-1.577784436648438648e-01,5.146572589885577836e-02,4.453270154044321888e-02,-8.303166694691417951e-03,8.101457012257684553e-02,-8.980493066517339362e-02,-1.070578127246039624e-01,7.188545635118942512e-02,6.223714238676612831e-02,-1.706004489139762437e-01,-1.125015852489663210e-01,-1.096122115442397724e-02,-8.064236242980386479e-03
-5.450480049385846709e-02,-5.760093870899553326e-02,2.423450673467912250e-02,-2.569625068904897724e-01,-1.698995136091877023e-02,-2.355410433016444025e-02,8.469072342189233604e-02,1.678899707914462136e-01,1.095654590812320389e-01,7.114725964961271520e-02,8.988321021448998638e-02,-8.916583696031576967e-02,-7.223336868473317907e-02,2.345096436536291129e-01,-1.997320028740112718e-01,-1.091991459404101084e-01,-1.962876020438371893e-01,3.918209026135012485e-02,-5.159169992062704463e-02,7.744783621818418506e-02,7.937126825284790410e-02,1.787220730869150745e-02,-4.928085565795919248e-02,-9.138249690745357812e-02,-5.427595043614651116e-02,-1.699510431189792392e-01,4.710219645340835148e-02,3.387814399500289897e-02,-1.519721659240532985e-01,-1.541026982837965242e-01,-6.619709743779038369e-02,-1.077738470089089212e-01
1.023164854039949889e-01,-3.458781736575769310e-03,-3.170349554772429468e-02,-2.959512298376686390e-01,7.997995164785018027e-03,-3.633150486254551476e-02,1.037760665678032906e-02,4.821912602411091570e-02,1.459139720822830444e-01,2.561045263902997837e-04,1.232960893114714851e-01,2.549892796142299786e-02,-4.003841316261097516e-02,8.145326342918481066e-02,-1.403181959936662150e-02,-1.039982376036850398e-01,-9.186909826637486287e-02,-1.506452482050911201e-01,2.111246278378811972e-02,-6.858923633909827511e-02,6.256424348541185509e-02,2.371740303874367642e-02,5.689390262814389941e-03,3.715084748463266112e-02,7.188586622288692385e-02,-2.133044492874296982e-01,8.185033406239809739e-02,1.154406968161552499e-01,-2.624259601242849294e-01,-3.620010525920955291e-02,-1.777072781326167750e-01,-7.673619273251078288e-02
2.711094796092720222e-03,-9.271930426229388345e-02,-6.402981361333472121e-02,-2.932132435464600562e-01,2.371448607759779892e-01,1.198660616238340394e-02,7.188280555248728609e-02,-1.815160320751985426e-02,2.871365760867485364e-02,-1.214974574413472813e-01,2.519106091041989001e-02,-5.727065825547055650e-02,5.533652177200787392e-02,1.100348259519054878e-01,1.105080539072854917e-01,-5.958727177179702801e-03,-8.816051230032904973e-02,-1.466662899327823288e-01,5.770236097731548663e-02,1.705095387439200388e-02,-1.334315001308385706e-01,6.333214812618476186e-02,6.247018745137716822e-02,4.468572746998725545e-03,1.670715139695622131e-02,-1.176714113370719988e-01,-4.574652661082541372e-02,1.016957963152340660e-01,-1.373417846938204123e-01,-7.305150446160363353e-02,1.281608058621464263e-01,5.149843325673281874e-02
2.732291701103644471e-02,2.337359830942978278e-02,1.224379246031008922e-01,6.963110833023546109e-02,1.450030932902661163e-01,4.380628272622585917e-02,-1.400227004667629060e-01,7.756079076301141545e-03,6.258151510440292109e-02,7.105579766682244489e-03,1.420591637909193183e-01,-2.058136945962510400e-01,-1.154301523046713379e-01,1.354922296099813350e-01,-3.481306912447480750e-02,-1.585096811078226531e-01,-3.141810282944131755e-02,5.002549488289610713e-02,-7.288283347725370287e-02,-4.189942612968046431e-02,6.027936058108172152e-02,2.476315161820304145e-02,6.237209361940856261e-02,6.156699127927493971e-03,-1.341784681250372639e-02,-2.379362219618919583e-01,1.827829253463727349e-02,4.310174852872451084e-02,2.365707437885042688e-02,-6.863306132612498334e-02,3.171103422801976879e-02,-7.230824563683391215e-02
-5.877984652203373933e-02,2.911501973364134105e-02,-6.614058837447259198e-02,-1.891661969629993556e-01,2.094796724160868373e-01,2.058253589218523791e-02,5.872155639528527787e-02,1.488618834014694692e-01,2.847221873071774725e-02,-1.655930117771266252e-01,9.001161016495390702e-03,-4.053628955120110698e-03,-3.014248821417099891e-02,-1.099992882841892977e-01,-3.175750821554511327e-02,-8.287622973411939986e-02,-4.952273800721888192e-02,7.937340021518625444e-02,-7.219172876307861086e-02,-1.014608195709720689e-01,-1.727226560394714283e-01,7.472182532465727889e-02,-1.532835013403450464e-01,-4.062754406317331535e-02,-1.213227574179628031e-02,-6.696044502875822535e-02,2.304772997262072853e-01,1.524991466364424286e-01,-1.154845365128746165e-01,-7.214934622454229063e-02,8.373757147742039164e-02,3.705717844172284892e-02
5.781498302880355017e-02,1.001389165605043180e-01,-6.396409548988044036e-02,-2.256902675958392113e-01,2.269057692449265584e-01,-2.000453346793278908e-01,1.928435504761031871e-01,4.113469388203232213e-02,1.397182460246478852e-01,1.684337325669434809e-02,-8.238376315607699729e-02,-2.625424197709618976e-02,-1.485297634025290262e-02,3.432025458387908956e-01,2.041677876521151846e-01,-1.374369412329718987e-01,-1.101899990744070884e-01,-2.045738208336947417e-02,-7.661957981995923261e-02,-3.661342635974389192e-02,2.793703951537614139e-02,1.198799144926848553e-01,8.108691817756562281e-02,-1.762808750117414794e-02,-6.537499815138313186e-02,-2.139325993458940922e-01,-5.454437765339773675e-02,-8.765623205086300884e-02,-3.408408532413410574e-01,-5.965889631983084529e-02,6.077067132502644159e-02,1.032783354301816114e-01
-1.001133021672927781e-01,-1.112184796659891339e-01,-4.136987183308984961e-02,-1.009122647650250032e-01,1.354940115903641995e-01,7.866363924642889860e-02,9.614275273243517994e-02,1.319387444687597222e-01,9.886168328717076514e-02,-6.860867279102315919e-02,-1.324965141230562415e-01,-6.686293638032698994e-02,-5.641200744732378924e-02,9.772025199858301592e-02,7.194702313049547437e-02,4.901140199537748487e-02,-2.318450152679919773e-01,9.793561189718823223e-02,-1.685274183143196658e-01,-2.007952439925086985e-02,9.129959427834410945e-02,1.055243278565014681e-01,-9.307481955135060714e-02,-4.400331913721891586e-02,-3.782653219748322720e-02,-1.374833909415210664e-01,4.471314844333425936e-02,2.711961114153550387e-02,-1.647424341894273836e-01,-2.169442416407937890e-01,-3.088947044046144730e-02,1.140080541105261552e-01
-2.825963075129012472e-02,-7.907840686876664582e-02,1.103225945878299891e-01,-1.669582669293786237e-01,4.983870950921638343e-01,-4.899491693098943085e-02,-5.790265873174747085e-02,3.736940497973891689e-02,1.384255118396253426e-01,-2.039806141044087431e-02,-5.482553154961835595e-01,9.530433613795248615e-02,4.985973681718003370e-01,-2.082872761933649008e-01,-9.821922412030023586e-02,2.715876581749904761e-01,-2.904627220412347652e-02,-2.450980855957901883e-01,1.293462122258456394e-02,-1.897423286421641431e-01,-5.891140673192669236e-02,4.354412171983842450e-01,3.115226812392358005e-02,4.506542756099038427e-02,-1.466042650568363248e-01,8.394677351218786665e-01,1.602838574375249348e-01,-6.106778488617457118e-02,-5.243087891529168987e-01,-2.414078109465357669e-01,-1.808394360597133377e-02,-2.807058081981900211e-02
-6.151424814338684460e-02,1.811084151334279441e-02,3.716951828194732001e-03,-2.865783586937948324e-01,1.772506154789411648e-01,-5.037142482804795457e-02,9.657726550216574890e-02,5.749393500025981596e-02,2.201693352813341720e-01,-3.506157164874622312e-02,8.108636057540027919e-02,3.346319409292242836e-02,-1.217421563319673466e-01,1.525690040002333769e-01,4.087173368698912568e-02,-2.250646281636330404e-01,-3.360903630201262926e-01,-5.903834255532093567e-02,2.601426997760354978e-02,1.500401283326911750e-01,-3.774266283186765436e-02,1.654436984896107410e-01,-6.520364462224643998e-02,-1.358898275665189510e-02,-3.729690549462278543e-02,-4.021517769337670245e-01,4.514611330887716850e-02,7.725656809395231583e-02,-4.422532928383752227e-01,-2.773279257437423206e-01,-2.828310287005972659e-02,-1.245074738125543090e-01
3.842000004387794310e-03,1.168007585878713117e-01,-8.105802020587460355e-02,-7.967768219339868008e-01,-1.234856541060574270e-01,6.640535210953851797e-02,3.020264411932742088e-01,6.176272172398920846e-02,3.548408298110987125e-01,2.532582995277450622e-02,8.248976120836303272e-01,-1.108550606291188456e-01,-6.969225819566122748e-01,9.614784198811386906e-01,-1.873424221728878236e-02,-5.930429738441387322e-01,-2.562687860975960616e-02,-2.825623161158015151e-01,1.405833084971943800e-02,9.886751969888097832e-03,-9.015984192166530409e-03,-7.418027552207440145e-01,-3.851326334455699302e-02,-8.670011214842236053e-03,-1.096694854244723294e-01,-2.341397342903622503e-01,1.259010178816456493e-01,4.107659173533018820e-02,-3.658869599142509088e-01,-8.599666990848001680e-01,5.575616119938114207e-02,1.052344237330425786e-01
-7.080695403901688702e-03,9.231138939028113444e-02,8.140839410508968199e-02,-2.446898270840830447e-01,-1.930492231069610640e-02,-2.331943051540141462e-02,1.106020092077604627e-01,-5.041580044605567003e-03,5.374478409034494884e-03,1.168688274028304996e-01,6.873091336596079404e-02,-1.741584555287364333e-01,-1.289433906670238994e-01,1.549280046444174996e-01,1.721018341398397253e-02,-3.973849922528896461e-02,-5.910725421481159703e-02,-9.346820338642024273e-02,-2.767023840449285219e-02,-1.311163529260850613e-01,-7.046517304032957896e-02,-7.542334286711370461e-02,3.559228735996382981e-02,7.659361708982643374e-03,-8.364701942728390571e-02,-1.616992258241349290e-01,4.995907931384089423e-02,8.728692805723053949e-02,-1.944091186959310547e-01,-5.557140476926329675e-02,-4.756730814732777063e-02,-1.415294166084214711e-01
-1.467160010685290839e-01,-3.456335290522564996e-02,5.137801324445655238e-02,-1.040931460557768862e+00,3.305885764974855201e-01,7.438361635594273324e-02,-1.643597153220469342e-01,3.512483547901465442e-02,-3.720688040484433634e-02,8.281562953749478651e-02,6.521434079796604166e-01,6.635773878536926906e-02,-3.268612979691145060e-01,2.274447492370008650e-01,1.595350613610011514e-01,-4.051173860371126700e-01,-7.681669558918559071e-01,1.127504089784914926e-01,2.730468072039187247e-02,-4.673815976550834139e-01,-1.130532504606627658e-01,-2.472303810164124815e-01,-3.719819727933353082e-02,8.298603923020822504e-02,-4.584518922736701384e-03,-8.749274107671664025e-01,2.370302267512210681e-01,6.687282272849433273e-02,5.785329774424658594e-02,4.196969738102325764e-01,-2.057304459014885206e-02,8.355386173081409684e-02
1.780212127003504355e-02,1.297038458845725106e-01,6.902045489331595784e-02,-1.594881191401541498e-01,3.766189386925675175e-01,1.547898355096576258e-02,-6.566239103237393737e-02,5.345950196369890495e-02,-2.243479459509759022e-02,-2.202621572545521156e-02,1.157790872862506648e-01,-7.640900077511374004e-03,-1.152098235414233951e-02,3.462306066731189735e-02,7.951710046806899357e-02,-2.108022203634525860e-01,-1.731773231364448218e-01,-9.224189444140568073e-02,1.414524504544565665e-02,-2.553814933882688765e-01,-1.210477380748556236e-01,1.401808337595806739e-02,-7.495828138597317170e-02,9.308233250371429623e-02,-1.186721106576301386e-02,-5.399799230024854985e-02,7.890945360057000091e-02,-1.040530559275007483e-02,-2.012215748510796376e-01,5.852737030626889436e-02,1.969791206851701504e-01,-1.692464175317922870e-01
4.305096961279116646e-02,1.590067604333574858e-01,7.649997622842381884e-02,-7.005469379667025320e-01,1.190091772401509207e+00,-8.874152241664415297e-02,-2.680124672230336236e-01,2.676155440766011737e-02,-2.586643727557841679e-02,3.991965070187426107e-02,2.065220746890894521e-01,5.368763123930640063e-02,2.079333071578032821e-01,-1.466070343207470650e-01,6.130888572203429393e-02,3.416721195449178294e-01,-1.154050588647931974e+00,-1.036929786155162993e-02,4.058011901452638595e-04,-4.850832401097657232e-01,5.006125326147520954e-02,5.185871419392530379e-01,8.432881275913879995e-03,-1.176447265917825308e-01,2.236682633066524317e-01,-6.549235778301335520e-01,3.313852179496274974e-01,1.131617518109435255e-01,6.474747225512661464e-02,6.385272677946109976e-01,-5.404802129601067595e-02,3.899254638935300936e-04
1.387962653316186790e-01,-3.925764357088854135e-03,-2.546696027215033034e-02,-2.294102944053032778e-01,8.852710946039346607e-02,1.393201192410501929e-02,1.008287379045194054e-01,-1.410183437565649123e-01,2.007876391805334670e-01,-2.373137771033216603e-02,-4.465604744107765783e-02,-4.990281999939557428e-03,-8.837751176596094979e-03,2.712723563230314272e-01,4.771096929717283386e-02,-2.268415217954862784e-01,-6.943546527910328392e-02,-6.275133337295979441e-02,3.949354639094135311e-02,-8.219290808943421900e-02,-1.033884714350121053e-01,1.215664345906314892e-01,-5.384600212580994277e-02,-3.661300514880226273e-03,-1.154625664700539844e-01,-2.226582573055757575e-02,1.140949156429598710e-01,-1.366392128427251253e-02,-3.028161499405041535e-01,-2.108350423867687284e-01,-4.529430304639394528e-02,-6.240238328024039216e-02
9.329244337440824320e-02,2.223284755970290072e-01,1.939857485929561906e-02,1.370298706109802200e+00,9.581034899706976082e-01,2.787224621368037530e-02,1.364449714290215943e-01,3.608435671426954428e-02,9.480966300962007098e-02,-4.803931723230932607e-03,-1.351377462263513962e+00,4.630006700572010525e-02,1.940645384617871796e-02,3.654277932921622951e-01,2.963473612758400072e-02,5.248236829902970246e-01,-1.202392030190822858e+00,1.535665134835246581e+00,-6.658217568880459014e-02,1.408397483205940492e+00,-2.681809304726961996e-02,1.964147944645377120e+00,-4.996569653683791828e-02,-4.428659250056628943e-02,5.895237482919321592e-02,-1.049400601942886757e+00,-9.359269638853479067e-01,-4.326609194470457803e-02,-4.733713817400981849e-01,-2.093804497595960212e-01,-9.476125757059475352e-02,7.281698075445224017e-02
-5.780447373438772282e-03,3.191166119569456838e-01,1.313781772096111744e-01,1.581765909086962463e+00,-4.101756218249268116e-02,-2.640631918002007278e-02,7.664202212876038978e-01,4.395018222500656629e-02,1.187203541788337091e+00,-2.203296176714130902e-02,7.769225007344056355e-02,1.628849058762367741e-01,-1.683263806696177589e+00,2.692447660321076075e+00,4.363052319217666092e-02,-2.647694303203375621e-01,-1.548278655652913116e+00,1.476898345688489211e+00,-1.967863408212249809e-01,1.022811760784116064e+00,-4.006743524447725635e-02,5.074575705107140511e-01,-7.093042460819592998e-02,-3.307174993093952436e-02,-8.667094614879185949e-03,-2.753575230280626229e+00,-1.017338928922621788e+00,9.474407172944833422e-02,1.875375191074570569e-01,-1.394304473340216344e+00,-1.253577552499969272e-01,1.046561093229748073e-02
1.349582277950267875e-02,-9.530786720150448421e-02,4.656499994799589287e-02,1.325132759261038184e-01,-4.132882446657382830e-02,6.369455457383174646e-02,3.461225072740019004e-01,-3.933500456752566515e-02,6.719090543365606738e-01,-6.305476967476637828e-02,3.411240379133247402e-01,-7.726116059763839250e-02,-1.209500290897556285e+00,1.535293668127506006e+00,-1.245602032780796691e-03,-4.745594827354491230e-01,-4.765846618438369653e-01,4.751027193497253664e-01,4.743150048728601680e-03,-3.926040827200749095e-01,-6.331140463576125088e-02,2.524907255600190581e-01,7.867102839656235636e-02,-3.856996020255713808e-02,-1.072204794850079718e-01,-1.254971679069847523e+00,-1.001372014365114610e-01,9.373762900517523811e-02,1.568443004712655534e-02,-8.500506093746831304e-01,-1.425589204466147786e-01,1.521808735712234517e-01
-6.627003227679473252e-02,-1.160887240653233204e-01,2.449327287451455171e-01,-4.604287459529742832e-01,-2.680366319196315072e-01,-5.217901932531769649e-02,2.902030142047915540e-01,-1.831276214691776464e-03,6.806611159902485886e-01,1.386099155640477532e-01,4.488317262901377336e-01,-8.567823971033561303e-02,-1.090266299580843645e+00,2.112972079274009207e+00,-6.322526031986457073e-02,-8.453728474853337005e-01,-3.703956769700311735e-01,2.057010623460388821e-01,-9.099320069210009576e-02,-5.916152222058034260e-01,-5.497930207969775780e-03,-9.473761986146603253e-02,3.276470029370586595e-02,-1.082524113188145821e-02,-2.131681119994754126e-01,-1.042225318900753539e+00,3.577208222709390428e-01,3.278912996735318386e-02,-6.202433903570750973e-01,-5.006627050284221392e-01,-3.527423459269636574e-02,-1.729270010927785525e-02
2.880629002286618293e-02,7.368252128902087750e-02,7.293964051241463853e-02,3.308595033279966291e-01,8.792614505697758931e-01,-1.057954087624494999e-01,-5.193478948452882049e-01,-2.434213859212320391e-02,-2.564654395945673016e-01,1.265949799287245103e-01,1.174639780235499920e-01,-3.955223064459561372e-02,-1.026154984305419904e-01,1.764760057334949228e-01,3.817680659062545195e-02,-1.832819354536109960e-02,-7.155324433160491493e-01,2.997838443106792816e-01,2.386522989002629047e-02,-2.007288674357704528e-01,3.904042726551769371e-02,3.792524922642919183e-01,-7.484703122819011401e-02,1.884124857701133249e-02,-1.608244966951297983e-01,-5.603962596494977966e-01,-1.797783016398604439e-01,-1.100781143169958370e-01,1.485158106651276455e-01,8.304122277266058338e-01,2.173535803584336623e-01,-9.611521038479775569e-02
-2.905396151789318634e-02,4.993781911703443904e-02,4.118052884018367360e-02,3.232931248944935221e-01,2.738191954811477480e-01,-5.403604353570546324e-03,6.028004897542622864e-02,1.568565884275004985e-01,5.254371125483359162e-01,5.986364130503280673e-02,7.318558146143824272e-01,7.535047747195218470e-02,-6.110822628761783948e-01,1.389225288394450697e+00,1.423752594462289189e-01,-7.521630067049001056e-01,-7.525545112736919950e-01,-2.020632150166844221e-01,-9.611531132035406461e-03,-1.132700793789396254e+00,2.684108302298266607e-02,-1.946947000267640893e-01,-4.841873102164337417e-02,7.860793303281257693e-02,-1.497101117374465551e-01,-3.872174142710464451e-01,4.661177542170266141e-01,8.723844444173989299e-02,8.589610648277393179e-02,1.056262062573570526e-01,-1.262121780861578425e-02,1.443789437345190975e-02
-6.067663900054014875e-02,-6.821286498634658579e-02,1.902187103957382261e-02,-2.176365965137654068e-02,3.990013870729908207e-01,6.447981096836721999e-03,1.808263064294222955e-01,2.480405908142785561e-03,5.308905206110033914e-01,6.802604299099826446e-02,2.900018665056317002e-01,8.047678922099532964e-03,-8.224901374798162523e-01,3.951548753137651970e-01,3.757835722854654947e-02,-4.604228326374159574e-01,-5.795291452890407591e-01,-3.533371967024011295e-02,-7.606593853342749623e-02,-6.658470853101891573e-02,1.031543179643131837e-02,6.334038122593417253e-01,-6.619326333770374216e-02,-6.695505631508780198e-02,-1.613192235335667024e-02,-4.584859041834827842e-01,4.360133706402536946e-01,1.400910053375280517e-01,9.130335446263949939e-02,2.204911777945164630e-01,-9.140900533390101945e-02,-8.206533310372494949e-02
1.289299207094503630e-01,-9.287067564417547660e-02,-1.027008617922860328e-01,4.683636164319036621e-01,6.472597929316379339e-01,-4.057910151158132528e-02,-3.467115415972931158e-01,2.641613087983517988e-02,9.358712125317244362e-03,-5.012199031930646836e-02,-5.020821733864100356e-01,7.845565186455906448e-02,7.483500460182554437e-02,3.093249662381942766e-01,2.708823672958865156e-02,2.164341332279065555e-01,-4.921808684154094227e-01,3.312963580979754186e-01,4.550958348625830374e-02,-4.075921537297426123e-01,1.049628958753768410e-01,5.979549587410982747e-01,4.705834355685213632e-02,-4.606444579682281160e-02,-7.461422820747591611e-02,-2.031905867701906399e-01,-3.763779992493275217e-01,-1.840633295110160605e-01,6.371836448084784443e-01,3.895468516721927177e-01,1.926541802565021333e-01,1.475767221057596931e-02
-1.124808317622502107e-01,2.483019797381562921e-01,3.895985944594768796e-02,-7.966007938438532943e-01,2.595785108814687159e-01,-9.661387160892752346e-02,7.076958017394332501e-01,1.956478132591220678e-02,4.533284096601966073e-01,3.121475790498095745e-02,5.849127827566792392e-01,2.216556920140231972e-03,-7.228746446131882886e-01,1.668923021966495446e+00,-8.242568083758686215e-02,-1.402326706104728204e+00,1.832717704730872366e-01,-1.195528698441773729e-01,4.169105513617563617e-03,1.019896613359633220e+00,3.185317883053068871e-02,-6.857824408644290770e-01,-6.032724770268615283e-02,2.122726096350048899e-02,-1.793448151477272101e-01,3.278710798457873388e-02,-4.902053536488795715e-01,-8.237941253621181015e-02,-5.212014443397526842e-01,-1.504718149520560377e+00,-1.093081961696135002e-01,-6.078199065528075429e-02
4.776875862804832312e-02,1.070376142263098768e-01,-3.865160309383098430e-02,4.680514453739840763e-01,-2.531795275071295759e-01,-5.592029182052448560e-02,2.597428197123511362e-01,1.635517887551482877e-02,4.497596168934644423e-01,-2.481249251126264790e-03,1.828518151469460118e-01,5.158515296798638072e-02,-9.775826436093755234e-01,1.266226335724229601e+00,1.124019398390986441e-01,-2.236261916075968359e-01,-5.496746945650409222e-01,6.231784035588489035e-01,2.025217695069295165e-02,-1.397442373685244266e-01,9.139331493121490013e-02,9.802428933090415186e-02,3.333996052714332994e-03,9.502993851343621845e-02,1.275530126407981024e-01,-1.187753916107727070e+00,-1.236693348843949797e-01,8.749097681060707954e-02,4.881923729646940324e-01,-4.475087468323948325e-01,7.697705173477900620e-02,-1.082857473487780844e-02
5.242780690454818676e-02,9.263866761129065097e-02,-4.516281960937410661e-02,-4.192065600646197598e-01,-5.208190966742954897e-01,3.310739597740414153e-02,-2.585574165801318158e-01,-6.066834515931172032e-03,-5.503420652461324947e-01,-1.514049238781864648e-01,6.007842179737984400e-01,5.975892020560888938e-03,-3.417978823182599157e-01,-4.668664960356666005e-01,-1.328757282129142993e-02,5.234757664485018003e-01,4.326151078596413013e-02,1.527643304493977727e-01,1.082496478316960220e-01,-9.798789420505983616e-02,-1.080571212782718143e-01,-8.921463540012439797e-01,1.385942756828822120e-01,-8.592671336514422220e-02,1.111492105602792302e-03,-8.679030605750504002e-02,-5.311374257747367850e-02,-1.833609057182312985e-01,1.245846961592680158e+00,3.597279907180969682e-02,-4.174048356393980272e-04,-1.139178095467514307e-01
1.487609746517943449e-02,-1.002868244119646014e-02,2.986442137322766616e-02,-1.905406499150850141e-01,4.830370263111736888e-03,2.222330069468281613e-02,1.669209124750652973e-01,-1.134052587860372996e-01,1.908559441460684070e-01,1.075991212586342033e-01,5.050330022680464825e-01,5.263383506508943765e-02,-3.510522353343484836e-01,6.639690038360664959e-01,1.205314093139518566e-01,-2.653727321767019309e-01,-2.691107572388245495e-01,-2.684587550900602911e-03,1.558511230271934778e-02,-3.342251340071186738e-01,5.787752231796908925e-02,-1.040752957549506141e-01,1.385254111715952530e-01,-5.083769035273777957e-03,-4.610480652901290805e-02,-3.327788101680540511e-01,1.956974909366683835e-01,7.788797325145546679e-02,-8.054649701404471840e-02,-6.492390857588151154e-02,-2.033454282148561623e-02,-2.547525752406227390e-02
-1.408654071053812018e-01,-8.330836091356175199e-02,3.767338577855484927e-02,6.145242711366879496e-01,8.145091681999996336e-01,-3.442341043971209463e-02,-6.128015434110689608e-01,9.346497105332139677e-02,-5.217941076003848044e-01,-4.010570768639850486e-02,4.217839517603099719e-01,7.751814406989103456e-02,3.555881010277891496e-01,-5.123782531062751611e-01,-1.500544361402611215e-01,3.929388462902796975e-01,-1.156344309666841541e+00,1.319250310866240394e-01,1.212859937504466995e-01,-1.121148790058881239e+00,-8.518778811332747281e-02,3.861356958809896572e-02,4.281599781244174729e-02,-6.805812110787599900e-02,-2.920231288838434081e-01,-4.806907550051410793e-01,2.141564074274992791e-01,1.626656883146872790e-01,-4.378359873575661532e-02,1.435295318264948605e+00,-1.300067047163731273e-03,3.641125713580957175e-03
5.571896916793583204e-02,-4.389782404450019541e-03,-7.524312777972171074e-02,2.425621947012245316e-01,1.427049993144458573e-01,-3.074432828483264837e-02,1.429642151325784816e-01,-9.592474392004047418e-03,1.440127740930314260e-01,5.845835918836504719e-02,3.309102362386557306e-01,-9.661994275409679575e-03,-4.593985891612961669e-01,5.908518511431491982e-01,7.435373018172419801e-02,-1.948933599137591122e-01,-4.313683583272762689e-01,2.297029666587228347e-01,-1.081266628154586018e-01,-3.706043745519747579e-01,7.249808828575987629e-02,-2.934867158926765182e-02,-4.444225101251995241e-02,-8.240166913331303800e-02,1.144245501143924537e-01,-2.664510846668221578e-01,4.425100912421066346e-02,-5.275686736609146166e-02,3.497404893834926698e-01,5.080510061126328886e-02,2.901645771412800917e-02,-2.704177841440841626e-02
-2.057966389062934956e-02,-3.713800910783660036e-02,-7.173678720187746938e-02,-2.277356024188089967e-01,9.060368348578152764e-01,4.286995742435961015e-02,-2.964253771423930872e-01,-3.890127677030244535e-02,-2.679355440304833635e-01,8.481837435607261777e-02,3.188131097290003435e-02,-3.455006509610011878e-02,8.708637613879771644e-02,6.558229443713059492e-02,-2.929406816774158401e-02,4.813710024430483680e-01,-8.315547744062340429e-01,1.352750392400170198e-01,-1.188583935883635867e-01,-5.063089422131108464e-01,-1.072920284106296251e-01,5.652965273952625935e-01,-1.385646262547603202e-01,1.039461460981118829e-01,3.029364268238990965e-01,-5.237645951599654293e-01,1.538939648060014265e-01,-5.562747411695274230e-02,-6.942131395116776793e-03,3.913455601720547405e-01,-1.718899497345420246e-01,4.007494673433278226e-02
-7.218647639321993693e-03,-1.141590009183526683e-01,4.629467852375951376e-02,4.586442159185430412e-01,7.222325169840958237e-02,-9.090407318699335326e-02,3.651546874483007493e-02,-1.904977707995081371e-02,1.280612487054152704e-01,1.196069406601957819e-01,-3.599744180183375164e-01,-6.533679413867739261e-02,-4.136437084761247773e-02,3.188648196808004376e-01,1.180465511801506578e-01,-6.278389462549557138e-04,-2.735312400153121493e-01,3.319494624902641911e-01,1.119021672644214017e-02,-1.407440074111910855e-01,-1.120269533335984669e-01,4.168971267958634930e-01,3.267979141200005183e-02,-1.077011275404322205e-02,-1.393688436942573938e-01,-1.284381886745194767e-01,-2.092956641012351515e-01,-1.483497386467771129e-01,2.615146754021416102e-03,-1.573092375927694075e-01,-4.315527575729192176e-03,-4.472466503512622510e-02
-2.079847720526863467e-02,3.671133321525429580e-03,-4.412996833062680230e-02,-3.610110299121934152e-01,-1.363300387124018742e-01,-3.919357503135351140e-02,3.023280669122891395e-01,-8.549492079253309673e-02,2.777969830082673841e-01,-5.288979990435623002e-02,2.724273761615895184e-01,-3.352466563602209734e-03,-5.023519677133996275e-01,6.253715679286196982e-01,9.887907814627962255e-02,-3.375992290724788014e-01,1.016760268958735586e-01,-5.387230720660773041e-03,5.791691309847142588e-02,-1.467606101787129191e-01,6.277528110540580263e-03,-1.126632273092081776e-01,-4.444737736308959630e-02,-6.183318838843490650e-02,-2.194495273226760579e-01,-8.532178078128416221e-02,1.548767917870543520e-01,1.132904193979804575e-01,-4.143765174907386162e-01,-6.466321569188967500e-01,3.641282929940942853e-02,-4.668063120548625322e-02
4.142566619014056983e-02,-8.480351187979205674e-03,4.943221129903472427e-02,-2.165658592217789002e-01,-4.430133434023743322e-02,3.635586370054468691e-02,9.268690609018173654e-02,2.026144337088170433e-01,2.302257036488856989e-01,1.729273103442237891e-01,3.671133103940336651e-01,-1.306359312208593866e-02,-4.692384194194713642e-01,5.791646639628937887e-01,-1.382314305887306083e-01,-2.952032410568147247e-01,1.526835244289652350e-03,2.039762199112737651e-01,-5.798703288464865380e-02,-1.307426513108090327e-01,-9.501367652028573640e-02,-1.937857285848850752e-01,-2.955033571872753631e-02,2.813620233830804035e-02,-6.273467152574001282e-02,-2.198912356843120697e-01,1.310627051193848924e-01,-1.622765302460773065e-02,-6.654583101986631666e-02,-2.996487230954404390e-01,-4.660700847880076825e-02,5.926809310419604154e-02
-1.364960956658529678e-01,-9.557290179824713683e-03,-4.164070205964726101e-02,-6.135669208853582884e-02,7.826572338950130159e-02,1.194876857659927204e-02,2.745969662500517827e-02,1.147435322066736318e-01,5.346389867022785514e-02,8.798816593105769635e-02,2.526993086413081846e-01,3.593701965716646226e-04,-2.177086353418049569e-01,3.541340451019614477e-01,3.011079330391083081e-02,-1.756398358288311090e-01,-1.915030523371022142e-01,1.523389804524219737e-01,-2.179984826047593003e-03,-2.985491294532680029e-01,1.003992563685005175e-02,-2.514742235339980647e-01,6.303830034463048237e-02,-3.102520253848018925e-02,-3.817454525517837566e-02,-1.752115806000788256e-01,-4.344544824161900715e-02,1.078694090183974219e-01,-3.090221907106072748e-03,-7.498434446895221872e-02,8.552754104253754153e-02,5.391398711574435509e-02
1.836821829404899353e-01,-3.653493984709988568e-02,4.887102789762724775e-03,-4.320167585953555989e-01,3.907796660864044230e-02,-5.455441473953316633e-02,5.662503146795191261e-02,-1.289550237576243541e-01,3.518114505332254893e-01,-1.062313636194345545e-01,7.017544784606041808e-02,-8.847180771663532006e-02,-3.774065499508386101e-01,3.816657685048318593e-01,8.338700658271902544e-02,-3.183866620641779277e-01,-1.266700528202861498e-01,5.541390264617920836e-02,2.171815388400101174e-02,-1.075773618148641725e-01,-8.451854221033404391e-02,-6.882125095965649364e-02,5.108251569103614692e-02,-1.901362330117860600e-01,-1.348882933086867908e-01,-2.377075969333546923e-01,2.210181823567516357e-01,1.555934946321830270e-01,-4.176124810460721259e-01,-3.072986964651204800e-01,2.458165837482242586e-02,9.070512767950099364e-02
1.038438167754707903e-02,-9.991557189401960304e-02,7.879962609513428695e-02,-1.108811492258431342e-01,1.179307860756163145e-01,5.331541650201133964e-02,7.556973795941150651e-02,7.381731011306601198e-02,5.258376089570324652e-01,3.376467217056036002e-02,9.887128644052928239e-02,5.318945967163968974e-02,-3.808964892355052312e-01,8.259732363146139456e-01,1.425919711561756450e-03,-2.732973773633315395e-01,-1.073343324972594603e-01,9.027844956972284896e-02,-1.038986345521552973e-01,-2.614205900671547345e-01,1.304403822163828219e-01,2.197331417545059784e-01,-4.658123700228775782e-02,-2.951606149291536446e-02,-1.561160866262665259e-01,-3.671957397975119664e-01,2.467683339285577926e-01,9.118212163086118760e-02,-6.408453886755978157e-01,-5.497748210303401439e-01,3.049616392427978093e-02,-2.071143069290938901e-02
2.093710214966415517e-02,-6.463460511957143384e-02,1.976184882056253311e-03,4.313701124750897453e-02,-7.499092416030175845e-02,1.282978865207272216e-02,2.185590959915546250e-01,2.371655351364864925e-02,2.518991820380394042e-01,-5.470575136816580031e-02,6.616141555165868000e-03,3.192889166739920626e-02,-1.899154394313085636e-01,4.620181230533358940e-01,1.014103708615321786e-01,-2.004664774800186608e-02,1.296190498995432316e-01,1.515746917329850452e-01,-7.577720822478463403e-02,-1.313431945646617860e-01,-4.355069262048903017e-02,1.871833263079701049e-01,-1.620065407873862995e-01,9.932450518192560696e-02,-1.848073558994491605e-01,-1.501018198695583672e-01,6.575461089928057168e-02,-5.423702548502436216e-02,-3.809900865577114937e-01,-3.583274292280563267e-01,-5.412072672313978554e-04,-4.460979607231208705e-02
-6.776210787523961887e-02,-1.606134305566139092e-02,1.078398448722925861e-02,7.726195714520701918e-02,1.217385265821484680e-01,-7.687286827469248796e-02,6.098925846937107431e-02,1.127214341223939376e-01,4.155147631298519717e-02,-9.786931111968601160e-02,3.690294427029756213e-02,1.803644322580812837e-02,-9.202511700496125713e-02,3.906478007067245573e-01,1.630950835264530652e-03,-6.814989111081766471e-02,8.006001761423593710e-02,4.009171963487940388e-02,-1.270441665499232563e-02,-5.020135422701233613e-03,6.103616028895717275e-04,2.290165170026821628e-01,-4.414254930175691080e-03,1.024341626574708924e-01,-2.275617371720293491e-01,3.829174474084998114e-02,-3.690501668513793826e-02,2.950919266924590528e-02,-3.203931088164269636e-01,-3.013768493586724273e-01,-4.925711656333049693e-02,-8.692366078545965546e-02
-1.216604934739550087e-01,-4.911245885628211932e-02,1.313623410350591714e-01,-1.472383876542718573e-01,2.452105802675996205e-01,-4.960228977996296480e-03,2.114624645884896348e-01,-1.305968308347295326e-01,1.838706022124104167e-01,7.177200748954534748e-02,-5.312085280701991236e-02,-6.808466337424418265e-03,-1.809415918026038503e-02,2.999237790981985619e-01,2.308092013554919122e-02,-1.783686022255973752e-02,1.044778822578109646e-02,2.115937730449685486e-02,1.518365580524776333e-02,7.549869026654641713e-02,-6.605375345583921858e-03,2.376643110129692538e-01,-4.596539058124771843e-02,1.111502249887174991e-02,9.640748276017781226e-02,1.277535836973997356e-02,7.709923247499554655e-02,1.438221083579753756e-01,-3.990561930069797536e-01,-3.437386281478697070e-01,-2.810514854523399678e-02,5.747049609786628911e-03
6.236877295072285748e-02,-9.692696751775847774e-02,-7.999101017319333595e-02,-2.838055902366483640e-01,-4.511402999561719418e-01,-1.034404588822711440e-01,2.192091947303106136e-01,6.850241974503952502e-02,-2.262063137882869002e-01,9.220951578544180072e-02,2.306738521879792281e-01,-2.315932466444612509e-02,1.707180386512866521e-01,-3.128908348718841270e-01,3.910377490443806697e-02,-2.542127627839437243e-01,5.006222513335462088e-01,-3.008241144255577315e-01,-2.673589267639932612e-02,2.212817605530737197e-01,6.945073225968852182e-02,-5.581693090972659199e-01,-8.230686151216304314e-02,-2.607823972291651703e-03,-9.881885023456331296e-02,9.035121189470628478e-01,1.707834053647117878e-01,4.154414772866490968e-02,-1.414802904936941497e-01,-2.291624130820283933e-01,-8.432693871449511991e-02,-3.986381803514280064e-02
3.215955374047634041e-02,4.101903955941552798e-02,-6.762357689684217465e-02,-3.385787497408411229e-01,2.466096811124200358e-02,3.965412159191693264e-02,1.162358380836491234e-01,-6.061811269476051131e-03,1.639883062921212650e-02,-1.107321460424073173e-01,9.296995493572322855e-02,1.661518234437812935e-01,-1.573598608969085932e-01,-4.517061079889204966e-02,-5.105485132515944630e-02,-1.695236396209702512e-01,-5.819449746811753256e-04,5.738546889559438535e-02,7.596151277529655799e-02,1.683157713511065912e-02,-5.507509872266130868e-02,-6.438220655746448862e-02,-6.174897304518556229e-02,1.162823386684300464e-01,2.091890394808749304e-02,-8.677726131595812908e-02,6.239202125890147554e-02,8.867052437395697706e-02,-2.315273451437043217e-01,6.556994841652429018e-02,1.057690745542673623e-02,-1.652903373019322733e-02
3.279717523509759203e-02,-2.020813512384982483e-02,1.622657893428577913e-02,-1.557684494986620316e-01,-3.069397535383697750e-01,4.865204176259931707e-02,-3.200786391110733986e-02,-8.431346095387662332e-02,1.036231979134586423e-01,9.960808430120782209e-02,3.172598975350669481e-01,-4.502948984559455858e-02,-2.003501755576536647e-01,4.618225565451673509e-01,-1.099605379669535699e-01,7.537529125106250116e-02,-2.314160610524384765e-01,2.678117970571070594e-01,7.460811106646543511e-02,-1.763544699668785631e-01,-1.267803265308093952e-01,1.592922896986492462e-02,-6.060886024488919277e-02,-7.063139450262632957e-02,1.293832957381239324e-01,-4.950405153219355481e-01,1.677930767771070308e-01,2.938320300856180414e-02,-6.017584622058707797e-03,-1.120575487832160648e-02,-1.123994325595620014e-01,-1.333527054490363795e-01
1.565615895012179362e-02,5.323705098746640135e-02,1.479886435246788139e-02,-2.448653909838442444e-01,-2.162727845500975535e-02,-6.367019851531211666e-03,7.584853181083352214e-02,7.065417993210171277e-02,3.571314002002311944e-02,4.451538258312962709e-02,9.888623763037837633e-02,7.621814080563246718e-02,-2.529537192683526947e-01,3.205363912351343880e-01,1.642845481116963491e-01,-1.520868173467427309e-01,5.663684746363056161e-02,2.282893330155442643e-02,6.224023915978691736e-03,9.388465527811055977e-02,7.306601616523955567e-02,-4.193479303978823319e-02,1.783061201771629287e-02,-2.935651884184036636e-02,3.983494482834365469e-02,-1.916396367853268612e-01,-1.445357550077233481e-02,1.336770083182823310e-01,-1.153655550423410003e-01,-2.049398507798642632e-01,4.437963149005865436e-03,4.950694102577515854e-02
-4.816678625569818795e-02,1.212023834548421886e-01,4.815839695461618386e-02,7.541214795573687735e-02,2.542211801850669528e-01,-3.922165608310274054e-02,-1.892180312597530889e-01,-3.734981332571888496e-02,-1.275837624310988128e-01,1.527595666487790160e-01,2.070368240983081268e-02,-4.361706277530509601e-02,1.119175855605110265e-01,-1.698740711229453429e-02,5.353041800559702607e-02,5.398126532658032994e-01,-5.909167233438962219e-01,1.237134771764927116e-01,-6.228493249617574057e-02,-3.064536027636918791e-01,-7.350663448025792149e-03,1.788048233912968854e-01,2.069201181533371001e-02,4.570486192432263867e-02,1.162029603402098960e-01,-4.562999690683112730e-01,9.240509306466936079e-02,-3.798191283133276613e-02,-3.952247409395404608e-03,2.580443334903393948e-01,2.285370281978336970e-02,-1.995501831009207153e-02
3.441870396011888905e-02,8.067716697183415116e-04,-6.742822582199868575e-02,-7.316422620411737465e-02,3.404429235875597870e-01,1.272440033085331379e-01,2.307834598262002018e-02,1.358840712507650983e-01,4.475608149233333000e-02,-3.604748468809635537e-02,6.721894167365168558e-03,-7.337953673740575840e-03,1.182433771945778055e-02,-1.532253300471005386e-01,6.028480202180110104e-02,-1.516801151074639309e-01,1.456292006098899340e-02,-1.740835792804090176e-01,-1.594483261022287823e-01,-9.259812429468188000e-02,1.473324780420346980e-01,5.659151224706757827e-02,6.435587342670709941e-03,1.065703962763514534e-01,9.913355762535053239e-02,-1.286051873780092170e-01,1.103904892088348189e-01,5.861072205290377563e-02,-8.564415807974973260e-02,-3.022153955030665307e-02,8.968813956722965219e-02,-6.682240989186252755e-02
3.126492162319796653e-02,-2.012255532455125770e-02,-1.201060845947988370e-01,3.378847374364804534e-01,3.412793748330673893e-02,9.659320963097153823e-02,-1.061039645407609450e-01,5.778888653439104295e-02,-2.724653986469819378e-01,1.348097966599705599e-01,-3.365941198237166199e-01,-7.763988869200695586e-02,6.243045077609199467e-01,-6.368648013382235407e-01,2.276996833315586555e-03,4.595214257576468175e-01,3.676478624890168190e-01,-1.741932936877321203e-01,-6.578872923074877144e-02,1.009416911657556523e-02,2.168097862928989022e-03,1.710509032260776607e-01,-1.308735164636563308e-01,-1.100408222579103007e-02,4.925630182697607329e-02,9.591651796380951112e-01,-2.587423841494272403e-01,1.956711152820059807e-01,-1.476244310324528264e-03,-1.500773538066302870e-01,-4.687444850636223598e-02,4.462133562009017868e-02
-1.198648721692568142e-01,2.001884414362627498e-02,-7.228298504850325101e-02,-3.033883038049820513e-01,6.000975542147273661e-02,1.347813487813161876e-02,9.949974020669370700e-02,1.718650731323126402e-02,2.147847927929467937e-01,-2.086547460045809835e-02,1.512440587550169246e-01,1.099008358676379360e-01,-9.176248636458561592e-02,1.297386892676463122e-01,-1.242654359023906419e-01,-1.300541003191839351e-01,1.052396012640437889e-02,-1.545321920477052413e-02,-1.138333214610095512e-01,-3.984514326843098531e-02,7.164011263766283111e-02,-1.220486781351051882e-02,-5.739257508574642508e-02,-1.088546142245313542e-01,1.768689717683308293e-01,-6.760681637181614745e-02,5.120160685590497557e-02,-1.779334963184590543e-02,-3.395189502337556675e-01,-2.236977766623080288e-01,5.444039955966033933e-02,-2.251125323280106158e-02
-1.016076422762024339e-01,-1.834391238980847549e-01,-1.012909570786579838e-01,-1.401549156888653724e-01,-1.576611021268376489e-01,-2.957523479407512743e-02,5.623441284100032245e-02,-1.519380251667054316e-01,1.738322267699456830e-02,-3.545861011847228211e-02,1.883413058919453376e-01,-6.983984440231304214e-02,1.698844912475988289e-01,-2.923353146334414440e-02,-2.422874404468191786e-02,-3.019521279018497206e-02,2.149719953672718162e-02,-2.611094728241914950e-02,-6.177454687872787481e-02,-2.277168533920696236e-01,-1.290260625900638558e-01,-1.854689317691637918e-01,6.674116055903365824e-04,-1.031524958623218496e-01,1.031529128456982192e-01,2.005241505961871951e-01,3.888120083106751945e-01,-2.982038866906938646e-02,-5.628545039886790891e-01,3.814116545670642178e-01,6.317440200684695806e-02,-4.011383966591564737e-02
1.004138007195946730e-01,3.930562165530345209e-01,9.817768788520796208e-02,-2.105139512255115530e+00,6.952776858020146555e-01,-5.136530632935230878e-02,1.027036744172290739e+00,-9.700587714156076735e-02,1.046276786130171610e+00,-2.190619099258621361e-02,7.571529536889203271e-01,-5.196585100794560291e-02,-6.476545557798561725e-02,3.465218610923223030e-01,5.762109807006990381e-02,-3.824074227995348796e-01,-2.143829723628882800e-01,-3.886566934806907070e-01,1.800446383707303769e-02,-5.074722472122632499e-01,-1.996452090984532357e-02,4.450945969568769756e-01,8.498992420669788939e-02,4.250842734949069474e-02,3.293056864823330487e-01,-6.456974512212270145e-01,1.221726014292324747e+00,8.477270176282261094e-01,-2.182566635261293353e+00,-2.300858644495867189e+00,-2.030964229749284977e-01,1.034880637602033221e-01
-3.130356492250951916e-02,1.002440343849733406e-01,-1.304299319452086325e-01,1.801475710611272485e-01,6.545593469742511106e-02,3.957103742502630916e-02,2.843509530705124466e-01,-1.753204616722653722e-02,4.741743723106228159e-01,-1.233638276373321963e-01,1.597103333485489773e-01,6.773846332675308168e-02,5.642020688161849401e-02,-8.637543532881390707e-02,-9.166315093915916243e-03,1.688247133526226962e-01,-4.082119360582784351e-01,1.137471982045081542e-01,4.020925005549528565e-03,3.249334270112690937e-01,-4.275699192632711337e-02,4.119656078262705079e-01,9.803987450908636936e-02,-1.555496112689430110e-01,1.552158948433119377e-02,-2.888208984112762279e-01,4.030562660430043187e-01,1.761648418070702882e-01,-2.339410556057762436e-01,-5.597807404256460728e-01,1.259305828243399879e-02,2.006684039732907834e-02
1.031247245917229494e-01,-1.086950206122326984e-01,-2.085767207940805376e-02,-8.951704771552070061e-03,5.334761031609583370e-02,9.088120932349232073e-02,7.030151236075039833e-02,1.541619265247238801e-01,2.502066299675401173e-01,7.189361943396872789e-02,-3.509241014880611770e-02,-8.018815244101185069e-02,-1.520722813416426622e-01,4.308049545255450141e-01,5.148094404573293897e-02,-3.693473162024993317e-02,-1.586230552081468737e-01,4.851518883163033480e-02,6.420437269732037766e-02,-7.007887391940348376e-02,6.289517550445895833e-02,2.184630251356003416e-01,3.535882166873088872e-02,-2.711019106397719036e-02,2.281285198001913386e-02,-2.638371534413270769e-01,-2.022167913011621923e-02,1.331709667126693697e-01,-2.214597435174560369e-01,-2.624982241682086159e-01,-8.972938417295225899e-02,-4.428361915484563954e-02
-1.638054991274901784e-01,-4.590092166327275347e-02,-4.969235784584644100e-02,-3.333476409206938881e-03,3.213951967251031661e-02,-9.324055507314574220e-02,6.842954658127589629e-02,1.355366715874487260e-01,-1.264871799009394983e-03,1.183648528665862260e-01,3.050421618596834208e-02,1.495129142410399070e-01,7.251039869295476670e-02,-8.137493613264618064e-02,1.521990056809300294e-03,6.412559403728397556e-02,-5.609477726873253293e-03,-1.006082568642016443e-02,9.544004415058855717e-02,-8.223691605601467225e-02,1.231390990671507677e-03,2.035333275606985431e-02,-2.511137981903518654e-02,-1.501529296445210321e-03,5.218690931111263920e-02,3.283067783197324285e-02,-4.247932329146272140e-02,-8.455336620489974087e-02,-8.626729448852514526e-02,-1.066983634126508936e-02,-1.111586763579562945e-02,-6.253191277459238528e-02
-4.452733697534062840e-02,-5.757392081318175175e-02,5.780444672761812785e-02,3.155459068123244171e-01,-1.687415403402728678e-02,1.050923544916095584e-03,-8.537682965243808056e-03,-5.064504058417795135e-02,-7.125531136677872197e-03,-2.438075069568867645e-02,-1.511616426227876953e-01,6.505759602786079579e-03,3.015324186924862593e-01,-4.730611609015515917e-01,-8.434252901931436897e-02,3.136192634793468770e-01,-2.425103131642700194e-01,8.996701522793889086e-03,3.363523449056951553e-03,7.961416192381151613e-02,-6.922523998009711202e-03,2.738630073144527888e-01,-5.299423611632089748e-02,-3.546864325281407632e-02,2.048240290325778756e-01,6.044015687894426642e-02,-1.350093074744807831e-01,-1.736127810977819083e-02,2.312245231119185174e-01,1.503587044324773137e-01,2.814139544599665241e-02,-4.643823660601806985e-02
5.331621789250699101e-02,3.505056206490180654e-02,-2.344070597567059766e-01,4.856482287578354345e-02,-1.160344316199697634e-01,4.980597821452687618e-02,-2.571684568794223649e-02,8.991579191981022290e-02,1.282870110736923511e-03,-6.663217160613467416e-02,-6.090881623586853408e-04,7.965819622850262016e-02,-1.316051106008177653e-03,1.721736636418162367e-02,5.624848129764689619e-02,-3.739361766346587282e-04,-4.017286674408866026e-02,1.123589424819504551e-01,1.169338959755438917e-01,3.126791866116795243e-02,-2.152248821041197538e-02,1.356823732952027739e-01,8.966626345012895793e-02,5.406639327812004514e-02,-7.783664402035919694e-02,-2.784714437910933496e-02,-5.441236096732930683e-02,-1.129405453841378706e-02,1.128651239605845541e-02,3.059428771881301731e-02,-3.522428383253197598e-02,9.571136207055924716e-02
-1.280091469628659995e-01,4.898341119743998551e-02,-1.432873206758791818e-01,1.840862501140834162e-01,-1.999471529148487969e-01,6.562906582110804299e-02,1.975241544348626255e-01,1.891727494406525434e-02,1.682790929333039809e-01,-4.838208570699185224e-02,9.168452636353845164e-03,4.419226536675061739e-02,1.685265659017994369e-02,4.035329432744949041e-01,7.330073471257851636e-02,-1.041788563638616077e-01,-2.917106304881935674e-01,1.819191376160365081e-01,-9.061977328390588560e-02,2.790372044538262375e-01,-3.283384316295646921e-02,2.555040959962271985e-01,1.179837759884197756e-01,3.638556805613788608e-03,-8.271660071278251480e-02,-2.932068760172618083e-01,4.998382681951981515e-02,5.107013374578984327e-02,-2.927357550983251677e-01,-2.930633999127743583e-01,1.226103233977686585e-01,5.350531173258653295e-02
2.456955958385748096e-02,9.016670836670303418e-03,-7.580739134078533226e-02,-8.722485333181168032e-02,5.805487492612335793e-02,-1.030087896509797318e-01,-7.170258948174748626e-02,9.614808933352236853e-02,1.287038659040718458e-01,-1.252422184309692488e-01,1.069911249953737487e-01,-1.599001891863594677e-02,1.589490160958862211e-02,-7.254580006826184813e-02,8.129713292580068029e-02,-1.031326038374276166e-01,2.950296859844254993e-02,-8.414190250463750298e-02,4.293032875542372034e-02,1.374456801935080574e-01,-4.167978851562725525e-05,5.489056193673354928e-02,3.102466365320691311e-02,-6.007445917796217644e-02,1.177685435551697468e-01,1.437715540641670009e-01,5.631031369147459359e-02,1.258647459254561181e-02,-3.879822007374312404e-02,-2.086504961904767433e-02,1.305778672211695968e-01,1.062335264318046285e-01
-4.654907711587139701e-03,-1.163062123199093273e-01,-2.196508756785049421e-01,-7.107790508127991014e-02,1.941250301119929467e-01,1.042686747766392585e-01,-1.823926281372195701e-01,4.220754212582589204e-02,6.363868028329459914e-02,9.676251253279677042e-03,-4.852947588738966422e-02,-9.872986049281659571e-02,1.040188584811419792e-01,-2.381504242535426585e-01,-1.422103803010209278e-02,2.032276563178576356e-01,-6.559400247013560947e-02,3.566265108454667182e-02,-5.852516341634027980e-02,-5.943249368511703545e-02,1.422332927597627361e-01,1.789775793974362206e-01,-1.004913948369631597e-02,-4.405383375307053706e-02,1.035294340010188968e-01,1.600738631074060114e-01,8.055682455332170699e-02,2.767815137317946109e-02,3.441389807203931034e-02,9.207157599244934765e-02,-6.358079861834214919e-02,-2.902917120920242219e-02
-1.782367487574599563e-01,-1.005819075128684126e-01,-5.983541439307047544e-03,1.168873149256342003e-01,8.901113014892689940e-03,-8.261935420728487578e-02,-1.017134273228329083e-01,1.310124342472582942e-02,-1.156520346665752680e-01,8.019016719795118986e-02,-4.435619348542749370e-03,-1.208404200222072400e-01,-7.282726276314867297e-02,-5.401852824287806110e-02,-5.801366892961281468e-02,-8.291736422919293581e-02,-8.035495339277201610e-02,-2.189155696182839075e-02,-5.354113257442771195e-02,1.052347794779373708e-01,7.818129110392039310e-03,-4.629709389523290614e-02,-2.555882495270373964e-02,-6.606748174752766212e-02,-2.128239921168671375e-02,4.162510753235561245e-02,3.589018008617616846e-03,1.756444240958948133e-01,3.434558005201664155e-02,-8.490172908839828392e-02,6.057290577942967685e-02,8.110068270727664730e-02
8.194287676308509294e-02,-7.044193006993543227e-02,-8.030043546743168643e-05,9.011875139639984045e-02,-8.605456741481080918e-02,-3.769716702705930983e-02,-1.281847807662505889e-01,-7.138912908525592294e-02,-2.704851652510630727e-02,9.419941610363585793e-02,-4.896199262203181080e-02,-6.491290131206227387e-02,-1.583925981268653471e-01,1.975653166626192281e-01,-4.348431276239800932e-04,3.458964446347202737e-02,-2.894358970280480267e-02,-6.863489546558543264e-02,-4.725402299410372958e-02,-2.062537371862761815e-02,-4.765962531344873632e-02,1.395194992379945320e-01,-7.969103648208192281e-02,4.288240269683022549e-02,-6.499937413514349227e-02,-1.473211845472596204e-01,6.220602735599692346e-02,-1.029332556215701959e-02,9.456175569975479311e-02,-7.614971580870615389e-03,5.255525481683247929e-02,-6.658415478792487074e-02
-1.679743740853674450e-02,5.810593345719097108e-02,-5.814736425475437037e-02,1.385729179342745920e-01,-2.410662826381283763e-02,-2.290975449886628254e-02,-4.591306832314895336e-02,-1.620660533133805314e-01,2.373787236962381086e-01,-1.496901452609171804e-02,-3.080734188280979599e-02,-1.494221653584658013e-02,1.912747494355584651e-02,1.342489251198498712e-01,5.249475769593812957e-02,-1.154308924721275942e-01,-6.009064335523501416e-02,8.960562743065966784e-02,7.411270195185494514e-02,-1.157369064510713197e-01,-5.844223202437694858e-02,-2.483115593283611797e-02,8.085336477190385729e-02,-4.316936264289504555e-02,-1.587074810701013250e-01,-4.975731569621093080e-03,-7.832640528413904735e-02,6.986143386559959256e-02,-9.859679518197982107e-02,-1.161823319886658157e-01,-5.365122027999234822e-02,2.752605723193782272e-02
-1.251452809287288137e-01,1.091823380122230319e-01,1.235839610753518142e-01,1.406012666995690719e-01,-6.217870421110385099e-02,-7.444852144235011848e-02,-8.348145771711818972e-03,3.653338030711331813e-02,8.515594664397725666e-02,-3.670505059866858294e-02,-3.354905747203110189e-02,8.726855053624187064e-02,-1.257529817068879785e-01,1.574853914040809100e-01,-1.928074768957152296e-01,-7.275469640203560684e-02,-9.769948644993559084e-02,5.246544284220359955e-02,2.480429777477349482e-02,2.842418016794891200e-02,3.750337862441274761e-02,9.771473852996741261e-02,-1.126263735260165932e-01,4.199311818525498785e-02,-1.267425263850856521e-01,-1.078118596952237357e-01,-3.209090816665764734e-02,-5.767926235993347389e-02,-3.371607477457783109e-02,-8.045646499190210743e-02,-1.235482644595285728e-02,-6.532734808960567047e-03
3.172817950442566315e-02,1.020538102634597905e-01,3.833109829851626821e-02,7.333789727197609354e-02,1.135772151812724090e-01,1.210986844171404869e-01,-1.301415976464697613e-04,-4.147337610632228361e-02,-3.588413125611186749e-02,1.573976879294282025e-02,-1.059546621068918337e-01,-7.320970599803001966e-02,-7.631589188508243471e-02,3.320680481557119340e-02,-6.976516576546042125e-02,2.976348441265722500e-03,-9.687768585280462363e-02,5.586148081833193502e-02,-2.824163545182303836e-02,6.618874367375601796e-04,2.543818546928886329e-02,9.737860305365139690e-02,1.882713907661959507e-01,1.468235141554330610e-02,8.243205205910415778e-02,-2.046299676880446727e-01,-1.050352471064188720e-01,-3.838608966628294372e-02,1.446183565552408741e-02,-3.702822989939358322e-02,9.581676631155283674e-02,-9.211042794404253331e-03
3.502737950255529337e-02,2.876493066271709753e-02,-3.721398882041091621e-02,1.161852782073857365e-01,2.493465358897451745e-01,-5.816807421408904527e-02,-2.927575355829422840e-02,-7.799678139096347107e-02,-3.053469947045323735e-02,5.496453828362748073e-04,-6.421958633221558355e-02,1.112527962050025854e-01,-1.006118119594207744e-02,-2.130944997031006261e-02,4.888091260181982173e-02,2.209650822932343953e-02,-8.488465899767268230e-02,1.124879412920483795e-01,-1.460133009708529939e-01,-2.437569738344261619e-02,4.371046461093323204e-02,2.151853655594836434e-01,1.407922660626262368e-01,-8.983822488215531532e-02,5.723656274226211760e-02,-1.271789452489129890e-01,-1.044080301547699874e-01,3.405228770316360426e-02,1.622109289327510473e-01,-2.874436652729865996e-02,7.688032315483281018e-03,-6.926385182546411501e-02
-4.926346613881955883e-02,-1.442183811662729465e-01,-4.420664945042716842e-02,4.467189769014368733e-02,8.796505769902805694e-02,3.875683658077538391e-05,-9.745741925816350792e-02,6.514578503974657875e-02,9.790616385216953377e-02,3.711353221301529753e-02,7.781934994642296377e-02,1.070185603217104348e-01,8.438568035058796601e-02,2.323638002697200333e-01,2.306379043419442415e-02,-9.950186319756616771e-02,-5.778501183209078934e-02,3.345889785630497184e-03,-1.357477502270957870e-01,5.591988795329715795e-02,-3.968358485489541926e-02,1.278419726919295119e-01,3.292595296289599349e-02,-1.224808403616809427e-01,-2.392898885128782183e-01,-2.754850338926116415e-01,-1.064188619834330156e-02,-8.824248761126594898e-02,-1.378778749668101850e-02,-2.197467893817965923e-01,1.313584488066314206e-02,7.146769429739121757e-03
-3.635086729670785471e-02,8.649580872822647259e-02,1.148937587667843985e-01,1.759015330586623516e-01,-1.506093287297636807e-01,-8.315295645966981619e-02,5.923006940427670564e-02,-4.744718145241426377e-02,1.003930444430183207e-02,6.777346104689981054e-02,5.141882288563291714e-02,9.866389156955258921e-02,-3.628853647113490510e-02,1.007858451241470665e-01,-4.150485943468945615e-02,2.169355407042146411e-01,-6.751609412746252536e-02,-3.200658258079464719e-02,-1.226823866836009302e-01,-6.374925952013222631e-03,-1.951191539025957239e-02,1.670156804126456951e-01,-5.643211865201140306e-03,-3.231945903321925551e-02,8.293959519891275223e-02,-6.566376391956948999e-02,-1.423639432028239553e-02,5.342319414689217227e-02,2.408122522825193942e-02,8.976533130530359172e-03,-4.410086895494630399e-02,-1.685089296862074884e-02
1.176589382631135043e-02,-1.630305271765183223e-02,3.096188209780160409e-03,1.154990553599508363e-01,1.302836566731561119e-01,3.574035460093969579e-02,-1.102403646345422039e-01,6.282631480727783602e-02,4.759082535670206698e-02,7.563415453095195806e-02,-8.724624314118051283e-02,-1.325557567244968309e-02,7.340607534055575145e-02,-5.468995745706398126e-02,-1.618704739167920598e-02,1.731013386318011049e-01,7.558301314134904803e-02,1.101583317122390576e-01,7.052316038094950945e-02,-1.125776670562476794e-01,3.826237246206846271e-02,7.569919578993784814e-02,-7.917068949580670367e-02,-3.829960160396021773e-02,3.224618679690192252e-02,-8.318824377933919934e-02,-5.758524113349901968e-02,7.525740420772593364e-02,3.206976670559564396e-02,8.802535082260161403e-02,1.125691453281238430e-02,-5.099897321162489422e-02
-1.019089862923037437e-01,2.756054667557428228e-01,9.249798106704511594e-03,-3.852354488143615030e-01,5.027993843832567755e-01,-8.422313838337021352e-02,-4.040234998507137298e-01,4.564044657025115304e-02,-2.180094667492710192e-01,-5.229179369964198631e-02,-2.598384333517744782e-01,2.174492748858012497e-02,3.269020711884911279e-01,-5.323738036347845926e-01,7.109979588820380947e-02,-1.262731587028826097e-01,-4.194067143021489863e-01,-9.595568923013232665e-02,1.445080251197645715e-01,-6.354522939120602620e-01,6.749738531107861428e-02,-2.254537239087022263e-02,-4.574735349350619873e-02,-4.169480736184578984e-02,3.073884754023474830e-01,-1.292524913904277983e-01,-2.416858885864655859e-01,4.205104681811049766e-02,7.374753645715445005e-01,7.756586272445317176e-01,1.703912119899656658e-02,-9.421056373800391903e-02
9.185280572117411613e-02,-5.523789359894318296e-02,-4.201652730189524287e-02,1.593456223915661746e-02,5.909103679609686161e-02,2.560002907395070651e-02,-7.032387477300862388e-02,-2.646705518980978049e-03,-5.686771882080904165e-03,-6.308655409932073521e-02,-7.701428333235023349e-02,-3.020282227634772665e-02,-2.941251600460867976e-01,1.844840515030081451e-01,6.234474720996864561e-02,-2.225715849455578432e-01,-1.417473067307104539e-01,1.923015689839981113e-01,1.042539953558849729e-02,-2.642536284398370183e-01,-9.480287909887390174e-02,1.229849321097445380e-01,5.192764489284722867e-02,1.205380765765559810e-02,9.099312851895949295e-02,-2.650507133177378849e-01,5.826565032244632181e-02,6.441206702356658265e-02,9.056907325009067034e-02,8.980920909617680359e-02,-2.422999912594595018e-02,7.429789800529311428e-02
4.384517410674493992e-02,2.998671121692280117e-01,9.964355874590304085e-02,-1.658830226665422292e-01,3.361419296959855529e-01,4.050186654880860715e-02,-6.612308603883094993e-02,-3.959611935054285770e-02,5.301039087178428984e-03,-7.851290262442250922e-02,8.081962981776888433e-02,-1.738376618184679367e-01,-4.311075572166032099e-01,-3.389184532309955089e-01,-1.322044028796308520e-03,4.509292377587469786e-02,-4.941799612777530992e-01,1.357793674997211375e-01,-3.053597698452287582e-02,-2.576272591756292307e-01,-7.156882441073905698e-02,4.523648299578211240e-01,-1.285668545218708776e-02,-1.029720171867121309e-01,1.599236673335146519e-01,-2.999879584354950279e-01,-1.661356263714455495e-01,1.054445130886683540e-01,1.026792779754002877e-01,4.095521737687519703e-01,2.591621094234291406e-02,-3.021052768071685012e-03
-3.326747333823005387e-03,4.645713390650724889e-02,-1.995679020154895317e-03,7.006393576769613663e-02,4.500751932401220179e-02,-8.702379652811749466e-02,-1.375713351331586953e-01,4.697109191965950781e-02,1.644104030462250829e-02,7.858476881094700328e-02,-2.509884193869964253e-02,-8.584281306212722396e-02,4.833214625657048652e-02,7.500341411367413003e-02,9.664377625748794831e-02,4.942998447607648005e-02,6.944122669791205626e-02,8.071111822698821825e-02,6.803856993856528812e-02,1.653145431425592478e-03,-4.192191973944746353e-02,6.123951223016466106e-02,-1.050704822670287253e-01,-1.164047647222966747e-01,-1.434276848297384548e-02,-1.083856488648674010e-01,-2.366903382942359482e-02,3.414657171429839877e-02,2.818655718684163758e-01,1.587632486143229034e-03,-3.061628218804796769e-02,5.550991839305170067e-02
2.980872948090463118e-02,-5.459573951281498916e-02,7.906827591398363220e-02,-6.022637750990931377e-02,4.641264346303957122e-01,-2.350185770386097397e-02,-1.605728094141052609e-01,5.054080749990564302e-03,2.236784161513732383e-01,4.089242457377970097e-02,3.179648037188742560e-02,5.703287117461475902e-02,2.975376222291182746e-02,1.029678193739052450e+00,-6.909634582059359653e-02,4.809180693141779789e-02,-7.453526301682598110e-01,4.286807561238877851e-01,-9.342904610506175267e-02,-5.428201606931716272e-01,-1.119248351673856057e-01,3.691095522478451962e-01,6.611495847708158402e-02,6.265617089466064826e-02,-2.659969903640070910e-01,-8.047435408396431678e-01,-7.613039440513248712e-02,-8.666520583315454052e-02,5.672715702212336591e-02,1.429344452953924816e-01,1.650552971116450718e-02,-1.499560120244473049e-01
5.583456499529024925e-02,-1.205930292502420259e-01,-5.697824395176088325e-02,3.057394052630935805e-02,2.516902119595355869e-02,3.006561634184826137e-02,1.386966727658420495e-01,-8.842254980803354592e-02,1.341152869239379264e-01,-6.851179846549210282e-04,-3.914746435045554640e-02,-1.648215702061790189e-01,-1.119807283633103001e-01,1.125423462617086284e-01,-7.011742181400029694e-02,8.938694747928448148e-02,-3.270975223775227092e-01,1.011974067608683789e-02,-2.516564393953886827e-02,6.022449926574290346e-01,-6.798413285410756512e-02,1.883363458113459232e-01,1.050907876082723819e-01,-6.644201565688467870e-02,-1.639809995203377058e-01,-3.643212920138977906e-01,-1.929725419160044364e-01,4.887385782315956106e-02,6.535467999889592317e-02,-6.615533068022527718e-02,-7.042729602714369042e-02,1.009715363394413368e-01
9.895562242285355081e-02,-1.408962379250462563e-03,9.005299299481321629e-02,4.200424640676763688e-01,7.514264515221026342e-01,3.342097200761066228e-02,-6.619778679557685175e-01,-6.010391315359708136e-02,-3.413623072427912075e-01,7.690938233278991898e-02,-2.090066557963831950e-01,-6.007828487736676520e-02,2.550388626898416611e-01,-8.131289994876700344e-01,1.365631285374010323e-02,2.793913188195564223e-01,-3.008103168514396630e-01,1.667892783847680638e-01,3.567512049478981789e-02,5.890299323056617797e-02,-1.396900461331037624e-01,4.842311300959289411e-01,9.692825797084313189e-02,-6.509977752006350371e-02,9.980297591725159623e-02,-4.503343439801759107e-01,-3.219833685508401988e-01,7.303386327950431300e-02,1.321276427632431361e+00,1.162666237450883600e+00,-1.318224774876411431e-01,-6.262278827992209806e-02
6.175248730252040630e-02,4.354190888968358791e-02,5.096055482872563491e-02,1.345730009954759498e-01,6.769349108772901302e-02,-1.360706769557939837e-02,1.242775916793779772e-01,3.079600102887094029e-02,6.351438591673250200e-02,3.466762394247758367e-02,-7.166076528904594123e-02,-1.623033628082713731e-01,-7.589142452750781420e-02,3.604736685043439803e-01,-5.783995790607131260e-02,3.645743691489338606e-02,-1.145220791509764940e-01,1.230257290194550907e-01,8.037733922699616396e-02,-9.922991765279531862e-02,9.302920800743225138e-02,-1.004472697741086093e-02,-6.912064492556728446e-02,-4.488453321977032423e-02,8.197330104632322145e-02,-2.012803130919786632e-01,-1.751004936161499326e-01,-6.753362663011083485e-04,-2.486275984732642247e-02,8.559051157582712316e-03,-2.909749245342011306e-02,5.316152790211099884e-03
-3.186609504552494893e-02,1.160556385673037066e-01,-2.290547151571681664e-02,-6.135581974755182078e-01,-2.650986360333344449e-01,5.282137668082120124e-03,7.666346434415423072e-01,-3.056317337620418836e-02,8.004428301575704507e-01,5.529710924300965807e-02,9.108783584450390602e-01,9.344449497030433635e-03,-1.113897534758419461e+00,7.805002654482896540e-01,-1.146427727940814434e-01,-3.271331494118112637e-01,-8.575101428595057751e-01,3.742473136262781247e-02,-4.765097445772897150e-02,-4.018710771995657183e-01,3.933222801296738791e-02,2.659490934367393367e-01,-3.511643900867893187e-02,-3.775352342356310775e-04,-1.975196897014735442e-01,-9.467083361813093401e-01,4.448990042839834902e-01,8.244299952630471107e-02,1.193569982371546906e-01,-5.672466936679972926e-01,2.866327829219322831e-02,4.290263341974880074e-02
-8.309351178375792846e-02,1.335178733697099662e-01,7.981812889949391199e-02,-3.970151781301238247e-01,-7.664239985964101110e-02,-1.458394189998996754e-02,4.739520947963602460e-01,-1.560507573677403781e-01,3.659425129116340436e-01,1.688444292150286519e-01,6.759225259193990532e-01,2.048058859949855592e-02,-8.492673917546390561e-01,-4.731411369185983470e-03,-3.651186982463969829e-03,-1.825114465510838807e-02,-5.062059731015838837e-01,-3.031496787533278781e-01,8.774624920961146546e-02,-1.136140437667974984e-01,1.258118422677388937e-01,1.105838625948545734e-01,-7.957547902075211288e-02,1.502876691020835383e-02,-1.105051754539369407e-01,-1.625796994700564324e-01,4.645391200291735800e-01,1.851469437749492797e-01,-3.224671846965196931e-01,-2.053108984165243622e-01,-1.011696758073578201e-01,-1.448818858442080942e-02
2.610523531569300046e-02,-1.596009132885315707e-01,2.935084686159820586e-02,2.321587359718081389e-01,-5.536814604956418195e-01,-6.858333320526735499e-02,1.104783853070499866e+00,1.282860298531124377e-01,1.441045076681934267e+00,-3.577000809883868621e-02,1.112782108456602748e+00,9.564277803086279617e-02,-1.623452897784573690e+00,2.398233972818130777e+00,-8.829961347854159426e-02,-7.935259159909308080e-02,-7.706711735885189984e-01,8.051700457003067024e-01,8.077968601465659870e-02,-3.102889244078519196e-02,1.128197874853832834e-02,3.375684310521728237e-01,3.091824464896138908e-03,-6.857729833500410266e-02,-8.451603602890979117e-01,-1.337734851872233399e+00,5.491605193441267962e-01,1.396851398513760112e-01,-2.778283005642170900e-01,-1.550447692014284673e+00,-1.748995724004456451e-02,2.567257487955323589e-02
-5.966686197622897425e-02,-7.871576919338738737e-03,-9.927158696426846562e-02,1.138113860000479621e-01,1.131517065821283086e-01,1.162202031282260489e-01,3.995328291126418185e-01,-8.867523654757743234e-02,8.049119922586311926e-01,-4.951282067169313073e-02,8.668118641417758008e-01,-1.970589187941355902e-02,-1.108753134460565670e+00,1.772260248728915633e+00,-1.063016402206907324e-01,-4.455898590037715712e-02,-6.893126932830938580e-01,2.937258290624856216e-01,-2.244305181362063646e-03,-7.658907525195789434e-01,3.969303413306572714e-02,1.281517790833768267e-01,-1.554581649858402803e-01,-7.311797975933245763e-02,-3.481289658006001542e-01,-7.975164900405879997e-01,6.185491000142351314e-01,1.247295980001301152e-01,-2.964562169874770253e-02,-7.246967657828248255e-01,-1.557936497295461520e-01,-2.831494160656315706e-02
-6.306476696799909187e-02,-2.518867177998585644e-02,-6.719589179100360354e-02,6.132643455682067202e-02,-2.627955891494330141e-03,3.968361740646697555e-02,1.004526591931200086e+00,-3.280316999279385415e-02,9.382119171266073421e-01,-1.980934673476171179e-02,4.283190927787291491e-01,3.973107110769814876e-02,-7.452705286468978008e-01,2.155709285191441005e+00,-6.403310425214102375e-02,-1.764105187448757328e-01,-1.240026535981193279e+00,5.010012741853994145e-01,8.063580153091472191e-02,3.512650470081082332e-01,6.509944845816009740e-02,4.007480087124894452e-01,-6.520853197212315988e-02,-9.405761132264661359e-03,-5.246668991677585492e-01,-1.223016671445594339e+00,2.562843681962954645e-01,-8.520028081490384209e-02,-5.223530384185034459e-01,-1.063391057325939970e+00,1.535746577817932897e-02,5.528248266190025073e-02
-2.718724535011165025e-02,-4.736982940947971898e-01,1.224178740543796495e-01,1.042666630229357461e+00,-1.780472942815941317e-01,6.789518317657526614e-02,3.197399279297777897e-01,-8.371945652920946557e-02,1.384505320454400279e-01,5.896059149449770637e-03,2.250152235520921917e-01,-8.425215283135091549e-02,-4.080171128143586512e-01,3.497511520254206752e-01,-4.180008151816220346e-02,4.588354049834627579e-01,-8.230576632888380040e-01,8.443026779857537578e-02,-1.104520659275281952e-01,6.694054968330280797e-01,7.148000336735903237e-02,8.215747105219226021e-02,4.777753774618063998e-02,-3.450894265307531076e-03,-4.821626285998555916e-01,-2.934478040740173266e-01,-3.411449764395189099e-01,-1.677472240080240054e-02,1.471461181235299565e+00,1.883845422680422432e-01,-1.056287651118461013e-01,-1.318836455905774037e-02
-5.591602416086711297e-02,-2.929553303050086988e-01,2.719856677147158147e-02,-4.435814918126536610e-01,2.633445163660215749e-01,-2.669872063144316729e-02,3.735033002136750047e-01,-2.541063431807586304e-03,7.010029634175050095e-01,-4.234080845403149357e-02,4.472718324623956021e-01,1.095514887311277719e-01,-8.996014561830510958e-01,1.233809984217475231e+00,9.714763182584955359e-02,-6.567861303392443784e-01,-3.854035865887371348e-01,-2.145257223933389468e-01,-3.134466608775160479e-02,-5.517961667259230207e-01,-1.056793236780498996e-01,-2.065163396980688737e-01,-2.209348586545991852e-02,-1.271781504952787870e-02,8.340767653416591987e-02,-7.638414986085050318e-01,2.955101490183296709e-01,1.644629691717414410e-01,2.286501518675487510e-01,-1.785701536768900533e-01,-1.108473363581233967e-01,-2.807854004454261518e-02
-6.521040525583519931e-02,1.344713391345495335e-01,5.537622607624483745e-02,1.608257599641134683e-01,2.265197703465828827e-01,-9.037898785966791415e-02,3.903894564233642561e-01,8.781957046001402645e-02,4.662398822886640870e-01,-8.530363681457760194e-02,4.637405233424543027e-01,-2.918560680834402996e-02,-4.280791552303087055e-01,2.449754315862074372e-01,-4.808301864200966586e-02,-1.493510037028181470e-01,-4.607216775064657543e-01,-5.960775485953487274e-02,-2.422053891994479027e-02,-2.846648305011291735e-01,6.069542055975341022e-02,9.257979570412108727e-02,-1.103301873337416139e-01,-8.628120612521444910e-02,-1.449291439539568405e-01,-1.454778662443422244e-01,2.806760145835540121e-01,8.240273287705092431e-02,-3.086412519599891491e-01,-2.495307355947038452e-01,7.597548865798610385e-02,6.349050771728899367e-02
5.621848279632002919e-03,2.662715681213332908e-01,-2.053907823527389986e-02,-1.397597349000711198e+00,-5.455950900880462973e-01,2.799964119818696556e-02,4.347845740370448464e-01,2.643859064515705765e-02,-7.442016712700813552e-02,5.073573318330814458e-02,1.110523951027662520e-01,2.073096149868397173e-02,-1.323673466216851891e+00,-2.749580440100591328e-01,-2.093609429366786231e-03,-1.467978777923104827e+00,7.095598780775272951e-01,-5.689689616957368523e-01,2.292557623295226818e-02,-6.501612873103914669e-01,1.901210677782257802e-02,-8.421335476195709324e-01,1.112384100943621251e-01,-1.030438752871021268e-02,3.081716334196152873e-01,4.209409428414430665e-01,2.282952499780971090e-01,2.489213121962398183e-03,-5.345852569388798159e-01,3.712514203125280576e-01,1.193261367109562238e-01,1.431113779474884606e-01
4.182643483148942160e-02,3.409328572059056733e-02,-3.333330840102961129e-02,9.141325194464672288e-03,-2.241253327055149069e-01,6.382501270167285912e-02,3.226616545527245528e-01,-7.886076376880403471e-02,6.175054251804938943e-01,-1.590126751034688646e-02,6.291936696599905732e-01,3.537289678678994659e-02,-6.982687588728245798e-01,8.226303095965158407e-01,-2.444775985152577991e-02,-1.778334061942528910e-01,-3.806364906932807601e-01,2.580931175888577234e-01,2.296671623804457177e-02,1.093810718928038134e-01,-6.997778932449762179e-02,2.910615604311890259e-01,-9.177075608750190350e-02,-4.726139232763791609e-03,-1.057031649115250382e-01,-4.975931431513138103e-01,2.911245816548133636e-01,1.006682611299307278e-01,-4.224648344023147484e-01,-6.629381749723055606e-01,-3.755725988977043350e-02,8.338512889223045205e-03
-1.183760711738354315e-01,-6.743754729088446975e-02,3.005695475460539584e-02,-9.357012014867829852e-02,-1.545373943161648111e-01,-1.138941969040772051e-01,-2.347338068429239699e-01,2.496564521065310852e-03,4.988097321655760724e-02,-2.825777897361361345e-04,1.013004618479921959e+00,-1.010660562010921512e-02,-3.145661910833604247e-01,-2.255303362344872331e-01,-3.803717964581773692e-02,6.389994184492764351e-01,-1.070789800821920074e-01,-1.045525255380711088e-01,2.028677955379014006e-02,-2.565574468913605632e-01,-5.042769015603297544e-02,-2.641208064769410835e-01,1.221590782138231995e-01,1.842003596996780179e-02,-5.667874954534701804e-01,-1.555936381901606158e-01,2.923020085304605664e-01,1.458790791242825235e-01,1.442609201694151411e+00,-1.762973155685414739e-01,-1.495289619372572321e-01,1.258640201698084105e-01
-7.514688454298547836e-03,1.939260258087744104e-01,4.412779813317630612e-02,1.803104874073032521e-02,-2.901168826543657625e-02,7.426488288096022572e-02,3.069637136801606214e-01,1.555819399628614041e-01,6.561401078669300002e-01,-5.042702721158273671e-02,2.728931424865790878e-01,8.444105605778398638e-02,-7.142065224631434228e-01,1.712402502654868153e+00,-5.585974348933718525e-02,-3.042787129241977251e-01,-4.547024138986893171e-01,4.526163301431935237e-01,-8.306656870922987657e-02,-5.102205686046571431e-01,-3.065837888025710334e-02,8.797144659407694911e-02,-7.048661551783319545e-02,-9.050451029660634694e-02,-3.640404026541524951e-01,-7.584916831935817338e-01,1.253335488883473292e-01,-3.318074264424646092e-02,-2.263392523250162824e-01,-8.682389292895595911e-01,-1.204755352914529537e-01,2.073184695913608128e-02
-1.458632796394065678e-01,-1.717088139481988129e-01,-1.149050667807788445e-01,1.615850480192275174e-01,8.643830025138248274e-01,1.488111747577612054e-01,2.727071558902529613e-01,-4.822541157325096334e-02,3.796888809126710423e-02,-2.516277911872610851e-02,-3.117375572964612984e-01,-1.145429485603082082e-01,2.076691260197784106e-01,-3.251225790326837256e-02,-1.220985594944497092e-02,7.502886997930816593e-01,-1.371599215956462725e+00,6.218101025912997626e-01,-3.655928475288931605e-03,1.286612240371125759e+00,-3.139681692832783227e-02,1.159420943409930738e+00,-5.563502117336209529e-02,-9.963348725926576832e-02,-2.167786608026340267e-01,-9.754880548324035283e-01,1.921918077112843848e-01,1.575875740921501428e-02,6.217005621942494065e-01,6.655281397794481357e-01,-8.447618090513964867e-03,-1.365863246422645005e-01
2.853771158902690744e-02,6.637424249295835466e-02,-4.072090216443625954e-02,3.717574440671441716e-01,-1.718381203701044649e-02,9.384629047054452583e-03,-5.068293960425712674e-02,4.423519863375563466e-02,9.057861504938613528e-02,-6.038765411280945516e-02,-1.251995822528600456e-02,-2.452390669455252123e-02,-3.929652788788011719e-01,1.760529661861043038e-01,2.814651476791001916e-01,2.004119776567558076e-01,-2.936764614300700904e-01,3.045563797765973857e-01,-2.612380302257305640e-03,3.008453602975815280e-02,-1.480733566907624921e-01,1.327999844722932508e-03,-5.153512598057462951e-02,7.808611175989088778e-03,8.551432275393403698e-03,-4.333651699045023564e-01,-2.884856281118766130e-01,2.547744976261848149e-02,6.872832712222516349e-01,1.475961689306345137e-01,-4.858979041965709456e-02,-9.306742088778856281e-02
-2.676072238584457225e-02,-3.473104344141226402e-02,1.376625427047196149e-01,-6.249590469363485168e-01,1.488044811098250542e-01,3.007813583724208706e-02,5.235301683518406302e-01,-1.219705610699530623e-01,2.954569954053188341e-01,-6.900019311869633187e-02,-7.367240628908292011e-02,-4.066969160531692246e-02,1.093294748685223194e-01,5.369504550292649725e-01,-4.302063886802644233e-02,-3.441694345288038859e-01,9.952764619596592144e-02,1.130790588246984862e-01,2.735893190735616196e-02,-4.272633892647625942e-01,-3.455078725710414994e-02,1.363250703159276656e-01,2.888094628624438345e-02,-1.251115223598648187e-03,1.324898704295233709e-01,-4.645254345133426055e-01,7.040762390276888993e-02,6.121046044889854459e-02,1.015659537743041248e-02,-4.962266201858188119e-01,6.167403886633130577e-02,-7.131737847065379443e-02
-1.232370566315744292e-01,1.414147799448730453e-02,-7.341584482653140675e-02,-1.718027034656054719e-01,-2.465480899762302891e-01,-5.213605064010833762e-02,2.575116497151089257e-01,-1.376883674910820386e-02,3.905101801193006650e-01,4.555555139470751635e-02,4.461050609981482840e-01,-5.064656003811583707e-02,-5.494105557170745335e-01,7.363002047223807800e-01,6.961501385495576233e-02,-2.254741184391763631e-01,-1.293535980566273558e-01,-1.479427979830077317e-02,-8.723996023311642034e-02,-1.208333078974961894e-01,-3.003230515943578968e-02,2.356478546087296955e-01,5.528294943294098651e-02,-1.353426094804666135e-02,-1.529593787519501480e-01,-2.214369303323720506e-01,2.571780238422901044e-01,8.940100937778477919e-02,-2.923299712421983942e-01,-4.619353463893325906e-01,-1.134805738232432882e-03,-6.492272785954184000e-02
-1.009956267477785941e-01,2.292992520326847181e-02,-7.180395693825369907e-02,-2.274913441621125021e-01,-2.504102669909235579e-01,2.428339830449163447e-02,2.969250898590662935e-01,9.342038124630734630e-02,3.964204780984887377e-01,-5.671750987111846831e-02,8.304655426561283194e-02,-1.074226512303438769e-01,-3.739778765561337925e-01,5.343082333165106723e-01,-6.714467043829630555e-02,-1.747178987912317571e-01,5.534041526400901995e-02,2.190217469138781847e-02,-6.903364424532858201e-02,-1.239142696206265992e-01,8.296996832121293630e-02,1.793792282914124514e-01,-1.030825394148240709e-03,-1.169132892700385923e-01,-1.731350840714235284e-01,-1.933731180519638049e-01,2.294341546094877393e-01,1.258418992721594964e-01,-5.003819353455885022e-01,-4.897985790678861528e-01,1.999404159812461501e-01,-4.469875433027419714e-02
-5.787212513029966338e-02,1.073305563240601057e-01,3.067965377045207831e-02,1.563235625599140866e-01,-7.400856225584397097e-02,-4.971249760505484089e-02,1.330342447585625976e-01,-6.196584201503790856e-02,3.717262143105038996e-01,-1.069133153981027262e-01,1.390696690217966547e-01,-4.118147209738320935e-02,-3.872900443567453554e-01,6.044342824190340746e-01,6.389393377484287040e-02,-4.264034451060772640e-02,-1.166850961599566194e-01,3.655369821526409657e-01,9.791222465916446516e-02,-8.652750152890542959e-03,-5.222512209265587832e-04,2.988743669434850703e-01,8.042688107616298432e-02,-1.864342316166097378e-03,-2.019753829109561805e-01,-3.152748777061858410e-01,1.061663682226033079e-01,8.798310820813604050e-02,-4.251676031450807858e-01,-4.845425684058526916e-01,4.473015786258215803e-02,-1.131656692888055593e-01
-7.949996394126670292e-04,-1.136784528220509682e-01,6.901090047872040015e-03,-1.950181525089585144e-02,1.610681132018325634e-01,-4.704368107931207466e-02,-1.662711315770332154e-01,1.098080466108127956e-01,1.335164917574572507e-01,-2.881064793179826874e-02,-1.992870388557740069e-01,-1.766646032062749519e-02,-1.820088835744126665e-01,5.972270485559758590e-01,1.500968074280135678e-01,3.817539332496273918e-02,-1.590414528081906809e-01,2.936875281971719764e-01,-3.004835326647180282e-02,-1.229395634360981177e-01,-4.524313001267562390e-02,3.586190821962542685e-01,-6.302566148890240139e-02,-2.265907863336565770e-02,-2.363225778904786967e-01,-4.177925154948274877e-01,-2.356222142112779083e-01,7.849324698011095336e-02,1.183346262211898148e-01,1.872947305357999109e-03,-3.281738017770549545e-03,-8.184588467257218614e-02
8.228546185024786935e-03,1.524815951311875584e-01,-1.899463386846386020e-02,4.382427438552066040e-02,-7.744806640056674241e-02,-5.453060362977815712e-02,-6.335136652314188321e-02,7.002946255625779048e-02,3.276687436349404181e-01,-6.389276469183528817e-02,8.128681338237750756e-03,-4.253463896568910468e-02,-3.365698555006836901e-01,1.011580742701684743e+00,-3.464716160265035594e-02,-1.617428322675361907e-01,-2.708796967235416187e-01,3.730941267922160964e-01,-2.563659274281738197e-03,-3.617905987049808703e-01,-1.384534522427339209e-01,-4.798300915548817797e-02,4.515379781277201188e-02,8.866464727706432555e-03,-1.658450151046186871e-01,-6.402655524371363427e-01,2.074816683675143741e-02,-2.138550866967445230e-02,-1.245033498639486376e-02,-2.381275745698317459e-01,-2.127093646056885112e-02,-1.326670385327245183e-01
-1.232154972454946457e-01,-7.253215000253148553e-03,-2.175937427939710067e-02,5.587436224271142837e-01,-1.241601124021825819e-01,1.953388836798399322e-02,1.817575877460164968e-01,1.108597983402916237e-01,-1.500100848307512821e-02,2.921201660191267632e-02,-4.321658109642805001e-02,5.716415205521165749e-02,-1.222409296973142462e-01,1.498890119703336354e-01,-1.685781472221132334e-03,1.802707867630068961e-01,2.172932248668711097e-01,3.860317005008298552e-01,-1.540397338081229972e-02,-3.310784533274852698e-02,-1.282540223074087396e-02,2.305277968066855865e-01,8.149025589826119909e-02,4.285939166424306696e-02,-4.601140331507962838e-02,-1.159389207092023089e-01,1.758707778264479533e-03,-2.373411017944512466e-02,4.092606194838378508e-01,-1.365135337566071028e-01,-1.189377984996842080e-01,-2.187463765520500890e-03
-5.687154977444174725e-02,5.173868213277870061e-03,8.807396776265621896e-02,2.797733185622491292e-01,-8.823205985797979989e-02,-6.476228062523986528e-02,-9.405467028775295335e-02,1.051493078108354379e-01,-2.666001785157864901e-02,-6.937232323960430824e-02,-2.737729084714768946e-01,-2.379700320471996380e-02,-1.493198492333527305e-01,2.018758211057818663e-01,-4.846070965778789472e-03,-1.942812916410591173e-02,-5.353901828788635436e-02,3.696113855257147085e-01,-2.518082922636562249e-02,4.462423816957390016e-02,-6.613251780742628039e-02,2.956624219004541643e-01,1.240374456822408156e-01,1.711544271499125178e-02,-1.658046321155680625e-01,-1.893078969447616888e-01,-4.170040599425578476e-02,1.896109244631402624e-02,5.818125091917450593e-03,-2.987385536057308721e-01,-2.895815697806528640e-03,-1.066680427658428390e-03
-4.853799274109399028e-04,1.010165285827014231e-01,-1.030461047777343764e-01,1.722704501358021667e-01,-5.815586752451392533e-02,-3.005894638320951232e-02,4.654362885304143271e-02,3.867876420582664308e-03,-9.719851607696159074e-04,-4.225964168755078770e-02,-8.919369471184353249e-02,9.510295750001322712e-02,-1.563779705113837737e-01,3.837806996874469356e-01,2.923414461381394942e-03,-2.299692136470524451e-01,7.872667487362418337e-02,5.491136739970391839e-02,-3.988776209998113470e-02,-1.620481174442482408e-01,6.940940702537354290e-02,9.240200313622949635e-02,1.159232120430890717e-01,-4.308528523053570258e-02,-1.498580233859467259e-02,-1.481062542125199943e-01,9.912273041923355676e-02,2.385692773748029644e-03,-3.748947228058567283e-01,-1.849354514936932259e-01,-2.200456028312470363e-02,-4.163090510039368919e-02
9.134283597860369530e-02,-1.179159923706155425e-02,4.657282458194771796e-02,1.730398017175057146e-01,-2.496152945763925046e-01,1.358083304228518695e-01,9.355570018230037477e-02,-4.710949339691283128e-02,6.297323284496769702e-02,1.230773048544744758e-01,5.296884669824984682e-02,1.829740027193107327e-02,-1.121695923005384399e-01,2.967426123286379669e-01,-3.862849363367985844e-02,-6.878958606625923400e-02,-1.670229129395227885e-01,2.762579132837156837e-01,-1.931530553170777292e-03,-2.095368857665939333e-01,1.684125678270370630e-02,5.139567327600618601e-02,-8.828856921841112719e-04,2.580562566355272813e-01,-3.082854667451207994e-02,-4.995610383926766401e-02,2.312534426803109638e-02,-8.770092002473539594e-02,-1.630988734749115598e-01,-4.084372092081025030e-01,-1.768854195963941445e-01,5.473362776453112588e-02
4.768517786221970062e-02,1.650399164682089803e-01,2.372682436760507191e-02,4.277634997248578874e-01,-2.689080789967818741e-01,-4.219663633714838824e-02,-2.009997141088812889e-01,6.194326003940751370e-03,-8.460118442048329690e-02,1.647329711742656080e-04,-1.780963391098533757e-03,1.719979769428371386e-01,1.251107605185086680e-01,-5.880071534132065292e-01,-1.165829539077013477e-01,3.380733080361914555e-01,2.852023070272740046e-01,2.168165710674417254e-02,-1.298515229202941955e-02,3.149628128911829972e-01,-2.453817437589420405e-02,3.442510316523214597e-02,-9.976980313356711982e-03,-8.610500340266459551e-02,1.027369956084168423e-01,4.363647069171124881e-01,-9.270265200643183767e-02,1.780398835934174709e-02,-3.234999050539934529e-01,-1.557856510790346927e-01,-8.457653716324599336e-02,6.930254562298433785e-02
-5.490733134202988031e-02,-2.161962618103422176e-02,-1.478011135531848846e-02,1.044889349208210153e-02,1.255036099676638539e-01,9.818611739676708083e-02,-1.747335682307016302e-02,1.359150942616329898e-02,-4.105592702146031170e-02,8.844444054488882767e-02,1.834124001806538423e-02,3.080675438067226758e-03,1.249635554519413355e-01,1.240683026672277992e-02,-1.526347621212067844e-02,1.596446973518448886e-01,-1.470742092113813682e-01,-1.587677574552598392e-02,1.510058116758168922e-01,-9.863686329707258005e-02,1.802962146643054958e-02,1.839333060356142246e-01,-8.527705434846408888e-03,-1.126614008938252171e-01,-9.581894514054963008e-02,2.465945926369477945e-02,1.541204271223026723e-01,1.247614528323629651e-01,-4.954693373372694165e-02,1.853838680897943597e-02,8.881056490451908272e-03,-1.147831387432419470e-01
2.405863356260079522e-02,1.770347494802092594e-02,-5.947629982772407314e-02,2.820187436871786080e-01,-2.572969671036681727e-02,5.524666936409938778e-02,-1.964884910480778624e-01,1.650483795384700969e-01,6.520849012730896288e-02,1.142428797840889521e-01,-2.126636920126729613e-01,4.833767460413666145e-02,7.971308591126334553e-02,3.785660163670493544e-02,1.374856115525660283e-01,3.530128175443088268e-02,-1.877049891797899148e-02,1.056206121507106271e-01,1.092813690421670370e-01,-1.845267144282066452e-01,1.153289328141352543e-01,2.430350941689543298e-01,-1.493897324253066865e-02,9.582889206678836536e-02,1.423302876995242820e-02,-1.754209015835840602e-01,-1.611149404788862413e-02,-2.974739543890632734e-02,3.102528072449332874e-02,1.531708256125593748e-01,-1.102866924837914327e-02,-3.077962971448884935e-02
1.587873318084064012e-02,-8.336281792072382582e-03,-4.934568226499227994e-02,4.732963754781736171e-02,1.112052992855333718e-02,2.158087958507044421e-02,4.621484929679080950e-02,2.614568751115673578e-02,1.715944414078237612e-01,1.201317566030136036e-01,7.443989757582550326e-02,4.037224663781385781e-02,-5.502985552715725093e-02,-2.490499655491589664e-02,-1.422269294603444034e-02,-3.105581841433863871e-02,-6.171229486162418260e-02,4.532643153025045502e-02,-3.677006434306967497e-02,3.022153928236862366e-02,-1.003324255172697715e-01,8.073955367902466151e-02,7.637031411028728789e-02,-4.117118252605939110e-02,2.849269870798361998e-02,1.625971659522435497e-01,6.243315066958111947e-02,4.680483011280228006e-02,-7.743642834271829978e-02,-1.010534161860173474e-01,-1.260144503010578454e-01,-7.979170085453815564e-02
9.741891724011703807e-03,4.483026060248740396e-02,2.236190121359610261e-02,1.587222560606151023e-02,7.615858801466419969e-02,-6.076015918768311319e-02,-9.433561316968899768e-02,-5.394663164032361541e-02,-7.352139507549677877e-02,8.206900607617166610e-02,-1.258838660968261414e-01,-3.149549934827690356e-02,1.263776619790152878e-01,-2.310530526130886442e-01,1.373409254390512910e-02,2.179297441953512993e-01,1.973862564057185798e-01,1.788810103391513806e-01,-2.903401065087214336e-02,2.683984587566700525e-02,-1.588450006925441402e-02,1.989795008317902791e-01,1.231917300434011431e-01,4.226397161583208412e-02,1.061071016347816393e-01,-8.300785833913366940e-02,-4.493901485257456585e-02,4.483190878803858248e-02,-5.294819416857235450e-02,1.839376317616544798e-01,-7.692962538254766169e-02,1.548981756082036809e-01
8.548321430346425553e-02,5.802423332613421830e-02,-3.144033742563240134e-03,-6.989089024011249651e-02,-2.449629472628927704e-02,1.149516372176394435e-01,3.365557274444547914e-02,5.679061823290895011e-02,1.687285257053378063e-01,-9.887912621437408914e-03,-3.232251833251860440e-02,9.171884190401642656e-02,1.024373342090646455e-01,3.909868105874205607e-02,-1.264747196827746001e-01,-1.208039926384694013e-01,-8.997166247079962931e-02,-1.258563504597348948e-01,2.030641534117329922e-02,-9.580398133496964563e-02,8.996068792642336609e-02,1.460129891404331748e-01,-3.234859050613853471e-03,1.262676497477473736e-01,-4.303895728079260019e-02,-8.909626960138881946e-02,9.303227446305323278e-02,9.993832619224327085e-02,-2.372499246658570926e-01,-1.205988382061990022e-01,1.849844627720086468e-02,2.720751019802673115e-02
-2.793153092049152630e-02,8.825112207779449436e-02,3.531294523344155611e-02,-1.650783509797582871e-01,8.258936641890551877e-02,3.282410038139878250e-02,-1.445962493865484144e-01,-3.920309968359807912e-02,-7.152590133417294216e-02,6.759805756032822091e-03,-1.222381458858797509e-01,-3.355162482535185842e-02,2.328405638909546993e-01,-2.108019106487663830e-01,1.473921464636425080e-02,-2.327516837930074523e-01,2.421672821502667827e-01,-1.279054196482686534e-01,-2.779977281595789190e-02,-7.605854835030508021e-02,-1.015950408391546600e-01,-1.167177003697404819e-01,-4.064504144557397336e-02,-7.785416868539640767e-02,3.953992405711220098e-02,3.129045837970910182e-01,-1.429933844693869194e-01,7.360576691163067502e-03,-7.872440991845117142e-02,6.253366500196508304e-02,-9.455621400700113532e-02,-2.558609796365559630e-01
1.175762502089925179e-02,1.658943901561338030e-01,4.487393207310914900e-02,2.846157797073286741e-02,-1.133822940039921033e-02,-8.853058233478351691e-02,-1.148294515728318088e-02,-3.228736018050166329e-02,-2.891662614729708508e-02,3.068836495235532924e-02,1.858694802765339660e-01,1.251166218010151543e-01,-5.224610605780848765e-02,9.683670101720545653e-02,6.538222780803164269e-02,-3.719201971930004291e-02,8.504339956138812218e-02,-7.757265520976931727e-02,-6.071527087280325502e-02,1.185148771246166514e-02,-3.149876684492962375e-02,1.393868534176598284e-01,4.624195244396180071e-02,-2.864876492861843579e-02,8.167782344137518996e-03,5.353433657879775286e-03,-9.032160609454832623e-02,5.838987798555696912e-02,-1.113141431666214431e-01,-4.736148170675648882e-03,-8.811428425236404738e-03,3.098352901374197901e-02
-1.110635426680219029e-01,-5.112200899640602370e-02,1.324881866117561535e-01,1.822916991542697374e-01,2.683773354656425192e-01,7.625500716387814681e-02,-2.672009824025220470e-01,1.761335118483790124e-02,-1.370568136147316540e-01,-9.704330085955682750e-02,-2.983022661872019587e-01,-3.417426549100559263e-02,4.854022484755428080e-01,-3.865804904139787390e-01,-5.931940283780832296e-02,3.663440721904141495e-01,4.320743083194397705e-01,1.772892133439891160e-01,-3.492014335993142565e-02,2.272539645494639493e-01,5.518305088972249445e-02,1.895329979641333373e-01,-7.640626647591622356e-02,-1.685532444310420541e-01,9.102016783002227218e-02,1.450424154614718408e-01,-2.156085237450227621e-01,-7.076388164103040697e-04,-3.095445828117998066e-01,3.374639519709290436e-01,6.159046303144152107e-02,-1.515313907835435514e-01
-9.487817471756952725e-02,3.450904037079224884e-01,8.952877124207685167e-02,7.756169051883117227e-01,-7.121484695347748972e-03,7.478658422033836184e-02,-2.814513969012013769e-02,6.219463061568943074e-02,-1.939475802067458232e-01,7.450028668227182127e-02,-4.989948354069475012e-01,-8.756528033715230142e-02,7.233098910417953276e-01,-1.099104115338908283e+00,-2.532101671840289274e-03,1.145308634864533381e+00,-1.479584991422140117e-01,4.085627634219017867e-01,-2.510288444153142146e-02,7.753744505325659286e-01,-8.699084404764652334e-02,6.129733247688307074e-01,5.401584289522876753e-02,4.095167429543616899e-02,3.192140117821287704e-01,3.977718539873908443e-01,-8.397983372799157353e-03,2.207278472250460977e-01,-6.488314155860484822e-02,-6.721193222545180923e-01,3.979592350907671522e-02,2.296660796436637147e-02
8.428250745754513329e-02,1.621202959812830802e-01,-2.276953446030647796e-02,-2.984509296384412758e-01,4.868268162250792841e-01,1.400644919394500587e-01,-3.567479833030455239e-01,2.563693305933239033e-02,-3.417732410041829372e-01,-1.156501674844921113e-01,-1.231493100112928119e-01,-9.264511112282446809e-03,-7.781604465205631087e-04,-5.309017716747774784e-01,-6.779971508101599598e-02,2.100157489194756366e-01,-1.417308575782459112e-01,2.248894280385329569e-01,5.554122711992155736e-02,3.004227740808803060e-01,-6.264134018410195438e-03,2.847021877237435050e-01,-1.043677120431799055e-01,8.120826084168092374e-02,1.181611299045507713e-01,-2.126130806137069562e-01,-5.113588972697800106e-01,3.157329670273135991e-02,4.433867986948547002e-01,1.772323043508075291e-01,-2.345630835928543684e-02,-3.337469944264458838e-02
6.688762648745590067e-02,2.071660366188448482e-02,9.511215955931812127e-02,4.321953632853735988e-02,-4.539039162292855811e-02,-4.330707906435964961e-03,-2.875420284127257198e-02,-5.436792218142946602e-03,-1.628643867278518620e-01,-5.356368380978332455e-02,-1.743607755664313419e-01,-6.745670419758335867e-02,7.484967122116877036e-02,-1.860968057186474650e-02,1.124285414129263805e-01,1.145779387888837819e-01,-1.643558768027096051e-01,7.851698528192191384e-02,1.951275128909251422e-01,6.700971813146756884e-02,5.496213467110939305e-02,3.256712938829046111e-01,-4.568861931096832724e-02,-9.993622306025340407e-02,-5.953875740154989521e-02,-1.728174643969717372e-01,-1.360607285331603133e-01,3.860288441263384470e-04,1.483774810874673167e-01,4.929648556134830217e-02,4.103914092360341076e-02,-1.099676521442662369e-01
1.049065409150801986e-01,8.154928378984253878e-02,-8.553439058805470396e-02,2.244009040337916969e-02,-5.792074728800785527e-02,-5.617320600979304468e-02,2.937102246100907130e-02,1.305526299720256300e-01,1.116580718991029564e-01,4.556456754766501083e-02,-7.795422735729760910e-02,1.920323597340192201e-01,3.893519486748648478e-02,-1.079131319833539354e-01,3.012508133771811189e-02,-5.548685618273539732e-02,3.223494275115225405e-02,4.651086818551131846e-02,-6.914666316129597368e-02,1.405970816033978721e-01,1.482558455184521118e-02,9.080064118730508949e-02,1.018863165837450568e-01,-5.548540003115675495e-02,-1.011794283473158168e-01,6.425913070403370397e-02,1.177584910842792987e-01,-1.021156599566861861e-01,9.959411106720475471e-02,-5.612603246969764814e-02,5.062137032187925823e-02,4.245897167503668440e-02
-7.287457409095887684e-02,-8.554519887453469751e-02,-1.594842595280898112e-01,-5.209263153701758631e-01,3.336466249814549756e-01,1.574794909668063118e-03,1.166206027212357207e-02,-6.078660549169462128e-03,2.301410176917253331e-02,5.774127277702566230e-02,2.944812098838354292e-02,-2.968205878376868959e-02,4.458929626039730143e-02,-1.497529085345152555e-01,4.564768907578305342e-03,1.637375098134074072e-02,-1.089674623142792287e-01,-1.153762731709593037e-01,4.687915236311362976e-02,-8.330509836318708561e-02,-6.985275318836470237e-02,4.481363333292895934e-01,1.479096093317723917e-02,4.135810733775097114e-02,-1.714505679394007498e-01,-4.552723230199836463e-02,1.227755099337813627e-01,1.465770536851580264e-01,-2.639245819080425215e-01,-9.308449899757796631e-02,-1.592857662826535278e-02,-1.148186539330280920e-01
