# Architecture: 354,32,32,8
# Learning Rate: 0.001
# Momentum: 0.9
# Layer weights below: layer1, layer2, layer3
3.025615527600664656e-01,4.891026685319919687e-01,-6.058896181244226575e-01,2.968400204398955605e-02,5.478112757913188302e-01,3.192832680558532754e-01,1.508142830556205571e-01,8.695924711145780472e-02,3.292026879210593893e-01,1.485483260846150455e-01,-3.426610160766221935e-02,2.538953913290017406e-01,1.155552206235928581e-01,2.839091968626345497e-01,2.360472604300454524e-01,-1.185767627829291820e-01,2.576376821061859279e-01,1.688835143588277576e-01,-3.340990758121623050e-01,1.105718572569565489e-01,-3.731579343415838412e-01,7.603977771375208805e-01,4.898992469098552571e-01,-1.246529974990689543e-01,-1.694043158547021144e-01,-4.712172951698598844e-01,3.657210617298740640e-01,3.271416429224625055e-01,-4.497526713052311109e-01,-1.000931168289637685e-01,-2.279409004979019160e-01,6.044554904441264143e-02
-5.530726031724551850e-02,5.011747882053102510e-02,-2.639818972045460677e-01,-5.056598305703163126e-02,3.472294935654010595e-01,2.012666740987737179e-01,-5.873392503021938188e-02,2.742452718126766123e-02,1.450172151068553905e-01,-5.096772737041195545e-02,-1.441498516934854868e-01,2.224262137877452139e-01,-1.765750444884298456e-02,1.730009058155403401e-01,-8.660592652547835502e-02,-5.987532883249215010e-02,-1.037116938895101120e-01,-3.434471442616716247e-02,-1.624306389379936433e-01,1.475110412511410896e-01,-1.567086150399861211e-01,1.750297672595764464e-01,1.322382524351290722e-01,-1.149648223491338411e-01,-5.635746838462000335e-02,-2.303927695238911222e-01,3.577959811309753407e-02,1.800664230113016018e-01,-2.538816350116121501e-01,-1.978510181291481818e-01,-1.581627212189644638e-01,-5.786951083747630953e-02
1.280989854271829403e-02,-1.001960627307487556e-02,-1.398646393780244024e-01,2.064808890115852127e-02,-6.567167450465619116e-02,2.074550789289460184e-02,6.306295893616474524e-02,-4.777058911970155468e-03,1.197325088630989270e-01,-6.910753053024275283e-02,2.369465647010466497e-02,-3.816041142584474660e-02,-6.989720458022981309e-02,-3.563245364172265561e-02,-2.055399882741814829e-02,1.176714434006872860e-02,-7.186990681942134751e-02,7.060983357503682056e-02,6.871888310825200255e-03,-1.201148635681319882e-01,1.045583154447615459e-01,1.645622290077140837e-01,1.107629068537640399e-01,9.855176983503771693e-03,-1.009060981718022804e-01,7.870301940997057044e-02,3.923463461448450929e-03,1.061802515596315805e-01,-1.666420423564673667e-02,5.179369551199668187e-02,2.290907036250879047e-02,5.812417823121812654e-02
-1.236615847105406729e-01,2.026990145808751642e-01,1.343125286432629573e-01,-9.649946081175324319e-02,-4.926380702300836578e-02,-1.181755834388515947e-01,1.251261623558570920e-03,-4.681696850064791075e-03,3.937840263050419731e-02,2.282107680547020567e-01,-5.518100309328621139e-02,4.961483344685720803e-02,8.549564513379730168e-02,-6.684954510002642791e-02,6.147297121466262226e-02,1.041576948331360691e-01,2.618356087048129624e-02,5.649965468277926006e-02,-2.828985504086677788e-02,-7.592504583437420691e-03,4.945512641930371878e-02,-5.446388056220650975e-02,-3.619000912365347806e-04,2.660578728452115405e-01,-1.683169819706527640e-02,9.829689210023877244e-02,2.449764587203511201e-01,7.606622906210944168e-02,-1.820349838081103955e-01,-1.603794931158000481e-01,7.616680490152806515e-02,1.919476681159013320e-01
4.840233697292807558e-02,6.243583265464608401e-02,-8.176812294583306329e-02,3.958544002382814730e-02,-3.658850536269633857e-02,6.464577837774830409e-03,-4.818615999670486372e-02,4.641165489133862454e-02,6.931188278680841530e-02,2.067935121380884075e-02,3.270658077694209298e-02,-5.529644023436983830e-02,-1.353742947230248406e-01,6.817978335838335846e-02,4.175825022257386235e-03,3.954663604395320525e-02,1.876750596601814425e-01,5.862915763316098317e-02,-7.389419901982857697e-02,7.009451968793663224e-02,-1.121875407477828102e-01,-3.380459440985940367e-02,1.318886657410479370e-02,1.202607957397686250e-01,-7.602061977674458293e-02,-8.460728303456849231e-02,1.644897497864877475e-02,-4.167052759155626118e-02,5.126038542818069782e-02,-1.054384137169745300e-01,-8.070118846275657620e-02,-1.990703129815430197e-02
-1.519162832883905745e-01,3.929266825995577084e-01,-1.202992241242975963e-01,-1.233522301723770920e-01,1.439831485585895132e-01,1.337545368729745332e-01,-4.706438032045068970e-02,-1.974293937446257308e-02,3.529767935211690078e-01,2.411492258924817153e-02,8.276320521145508202e-02,1.848952085088357566e-01,6.808960256246990826e-03,-7.735412935908004411e-03,-1.132980083551290429e-01,-2.045736924837381621e-01,-9.433858810913544474e-03,-1.258884456746279801e-01,5.031820859112194622e-02,3.678812563150458265e-02,-1.460964447716688319e-01,2.349551453293185488e-01,-1.799932003401455774e-02,-2.614037457575887347e-01,2.464835773203059854e-02,-3.089860799910363331e-01,7.878055552612814316e-02,1.752086328192480058e-01,-2.527572932273436379e-01,-4.344833985742770077e-02,-1.472989394628845261e-01,1.022698901510347425e-01
-7.122751338421206885e-05,-7.724220957374282326e-02,3.595050859168080759e-02,-1.726040563176137882e-02,6.395976280898685307e-02,6.874898465304001005e-02,1.577056157318244278e-01,9.724816532038438321e-02,-1.808129669174420723e-02,-8.164040841025345732e-03,7.165466231977821177e-02,5.853388300980914144e-02,4.836301490834578332e-02,-1.245667275610265190e-01,-4.311297493281743970e-03,-6.044144415002494081e-02,2.195931729646621866e-02,-9.306905833629941852e-03,6.528176664151714992e-02,2.189783976813336475e-02,4.783498648276893889e-02,-3.453960791472962533e-02,-6.536932769992954972e-02,-3.536164897286632469e-02,-6.076365166327864047e-03,2.321612246707832616e-02,1.773705129189224461e-01,-1.780016913069139978e-03,-9.748637804795295958e-02,-2.991190621085127940e-02,-3.268296347746732500e-02,3.936984552363295697e-02
-4.530095575223602039e-02,2.504620007711115259e-01,-2.548897065914631499e-01,-8.441969571127673488e-02,4.754622159510530494e-02,1.478833580647529178e-01,-3.358979186016422536e-02,-6.048847434299411963e-02,1.528682999553939437e-01,1.843540602047027133e-01,-1.384721199767892374e-01,1.954304888828352627e-01,2.612537477381247225e-02,-4.519133749918034793e-02,8.101370988456030320e-02,3.593032814239520423e-02,4.400554979734722094e-02,1.867913907068010151e-02,-1.739560527598454365e-01,-9.259256212890981663e-02,-1.294293590903097257e-01,1.601545678468229983e-01,3.177658800029225517e-01,1.914835576369731396e-01,-2.784352247133894953e-01,-2.054638192131013064e-01,3.399508074846107619e-01,1.043011591508106878e-01,-3.047626644892337811e-01,-1.802462553876186258e-01,7.062946120724827338e-03,8.412687905354702955e-02
-5.158073725598158465e-02,-8.514307069707265085e-02,-1.429629003144338162e-01,4.378025062917693944e-02,-8.653931103726357488e-02,-2.524009293653451877e-02,-3.924862725110087741e-02,-7.040809131296154808e-03,-1.343656596105269885e-01,3.480023392244947777e-02,4.493949130108337159e-02,2.049127213231095868e-02,-4.159664388108191835e-02,3.331269735597044979e-02,3.341777779438788454e-02,-2.051694203511867376e-01,1.570806212085652520e-01,3.262584657331216859e-02,-6.473640868714694574e-02,-4.236256040583839810e-02,3.477777161685598889e-02,2.338128895262278888e-03,-1.309501041743764416e-01,1.668963256443676546e-01,-3.063995165783668650e-02,6.679398905037857437e-02,-2.784829626725111862e-02,1.198300717563540035e-01,8.243302247654285628e-04,3.813174880306646058e-02,-8.035212464799922072e-02,9.405041798393319608e-02
1.785702270320698587e-02,2.506539563841720386e-01,-1.261327011269124387e-01,-1.007214467947310232e-01,2.041425714121952173e-01,-2.508120120052783827e-02,1.619349083857151914e-02,3.452112332454269211e-02,1.688451304083982973e-01,1.817867293543079521e-01,-5.040426303568121963e-02,1.661890217952878557e-01,-1.727281824251160613e-01,1.736346995715319919e-01,-3.080859448415368060e-02,-1.083642381475184158e-01,1.133256563704620051e-01,-1.041650132083822844e-01,-1.346411063668351282e-01,-1.539684601929122987e-01,-7.077375957496804398e-03,3.606138505905150116e-02,8.003977264197596753e-02,1.047109540544505918e-01,-1.817534665663112503e-01,-1.043738511683767328e-01,1.297939909121364199e-01,5.332960051456540201e-02,-2.127862594152864495e-01,-1.299555668078289650e-01,1.983727470688543409e-02,4.308496573458168305e-02
-7.316228357362519752e-02,1.279294916498465162e-01,-1.159361802882773324e-01,-5.641310477640985865e-02,4.993162456107225547e-03,-2.000341666945751329e-02,-3.364127036791607350e-02,1.522412102960730984e-01,7.488845963899971869e-02,2.773035760064355704e-01,7.004087778714146451e-02,7.885959229125949488e-02,-1.257051211426296888e-01,1.100846187209315319e-01,-2.644913316001941128e-01,-4.788203634455254903e-02,-9.291886557219829201e-02,-4.311001303016415154e-02,-3.377469800332549149e-02,-1.626023765017445754e-03,8.056925167887162009e-03,-4.572600889540939795e-02,3.473669692326497582e-02,-1.460886063450796968e-01,-1.243637266613328990e-01,-1.412203897716120815e-01,8.811927256305643330e-02,2.040338983632628000e-02,-1.515722484622780142e-01,-7.333238990405036017e-02,-8.406163918101325350e-03,-3.298083730697423666e-02
6.897272347312558005e-02,6.785130152287544014e-02,-1.242703603698918774e-01,-1.146141857739869790e-01,-5.793121312293180586e-02,2.909223460877715522e-02,-1.722138821950539370e-02,2.629090418030614190e-02,2.439459192044901581e-01,7.474407785426817608e-02,3.233075692002577300e-02,1.251090320755260665e-01,1.631977458235294928e-02,2.012749458050017495e-02,-2.876889485122581872e-02,-8.284094849418308093e-02,2.903341815601142087e-02,-1.524496169331200635e-01,-1.711253718226895051e-02,-2.421084156760521661e-02,-1.800598238113158139e-02,9.114639051169411144e-02,5.353922021361761513e-02,1.079948285363300543e-02,-1.269206933609269387e-02,-1.944920449813009322e-01,1.064151825641609789e-01,1.544625666597254365e-01,-3.183708306328256743e-01,-7.311591067480699424e-02,-1.830907695914995026e-01,-1.691384681383489505e-02
-1.457520174223042413e-02,-4.951726446920646368e-02,-1.022368361790305796e-01,-1.775773605565721391e-01,1.569810261447565913e-01,8.113297336341425414e-02,7.243328954299448064e-02,-4.158992600745254481e-02,1.116869246191202897e-01,-9.582526379519762383e-02,-6.263756856973395903e-02,3.111568153484925783e-02,8.281711581800829669e-02,2.568683207220066878e-02,9.883174085059667768e-02,1.710118895563356514e-02,-2.092017801527679827e-02,-1.421598844278797458e-01,4.301508460697373026e-02,6.366483472516143438e-02,-1.967174801004274165e-01,1.072702906827510544e-01,8.184857582233821816e-02,6.632030631741925829e-03,-6.081414494097558965e-02,-9.845664757003468048e-02,-1.662033400659867696e-02,1.135756502693346104e-01,-1.763199114858727545e-01,-7.510018362504775058e-02,1.250425367776688002e-01,9.501837375798247165e-02
5.510745264569353458e-03,1.023367125244035586e-01,7.929352667047931402e-03,1.236809121368081382e-01,1.345361177293553645e-01,6.801945304715460716e-02,-1.624654567552861750e-01,1.635409591972241533e-02,6.796188383479669082e-02,1.114892551835079959e-01,1.150323987334229692e-01,-8.871495565242558390e-02,-2.038123223522435301e-01,1.889661848547688761e-01,-1.059270021523148614e-01,-1.563129338818038672e-01,4.602010498381607639e-02,4.331735973408001525e-03,-4.031790738158937820e-02,-7.647303697432673852e-02,5.251555803852023946e-02,2.595339961560842387e-02,1.047241467809863075e-01,-5.016079064957277948e-03,-7.425934231900406524e-02,-2.018640377885367321e-01,7.152718589644359304e-02,4.774853151208319907e-02,7.702826772257376393e-03,-8.705907390617237396e-02,4.966412957011556717e-02,-1.933213986001381529e-02
-1.100388071616309887e-01,1.071489689023857050e-01,-9.197017653585470853e-02,-5.122742219076142911e-02,7.833161367939783792e-02,1.050556432259113770e-01,4.859836978898267323e-02,1.211835745588356605e-01,1.472992506572822491e-01,-1.272505088148369323e-01,-5.668748469525604350e-02,1.103040776849152915e-01,-1.696127024136017541e-02,-1.927262889936180446e-01,-4.179060359074469877e-02,-6.727978210788949920e-02,2.610754103644016486e-02,1.123097333052932301e-01,-8.578497996711964557e-02,-3.369709967605682283e-02,-2.590875657703717305e-01,1.274105378771965835e-01,-1.280836490273615236e-01,-1.113058184773993951e-02,-7.950088902698794480e-02,-5.181147141664016464e-02,2.784229109177071004e-01,1.347491790490754904e-01,-1.407406706008692276e-01,-1.362014625494006037e-01,8.876618189922109992e-02,7.283075000942378086e-02
6.123172671672011402e-02,2.672747268524275910e-01,-2.417417729116356495e-01,-4.229217635104105810e-02,1.729051452437280756e-01,-1.421923575756302849e-01,1.131407622084786013e-01,3.921485321621104303e-02,1.258545651154211187e-01,1.681857568141631454e-01,-7.646005601262061135e-02,1.257823029636496726e-01,-6.842832351514305245e-02,2.619066178748597484e-01,1.989037994243330609e-01,-1.053801244054851094e-01,1.247388138948299190e-02,-7.928684405572740401e-02,-9.398464554057284204e-02,-1.060683794334049967e-01,-5.634845641326901439e-02,7.960044907527324964e-02,2.125024474484829562e-01,-3.983796851153040275e-02,-1.597177666401657092e-01,-1.488113606198453731e-01,2.275190173288837991e-02,-8.241838867877557262e-02,-3.293755341518408986e-01,3.604359554518044018e-02,7.926096231437981809e-02,1.478830591970068942e-01
-7.892133655564403938e-02,-2.286859861173895156e-02,-1.922056709101108152e-01,1.149720940540394087e-02,1.308751758635279261e-01,1.264794116471198993e-01,1.532786180220496210e-02,1.239586599576110310e-01,6.467303422661097034e-02,3.921857056515363343e-02,-1.204202359800506106e-01,-3.617006738806049192e-03,-4.349304603854235729e-02,6.971465671976939671e-02,1.001025560599146380e-01,8.345546092570182983e-02,-1.202638854387798606e-01,6.219910573358192196e-02,-2.379196649626356408e-01,1.121867224186467917e-03,5.549711577525730244e-02,9.602089154454802877e-02,2.065499488050951543e-02,-4.986531448346986223e-02,-1.177165471869063007e-01,-8.756415015970758775e-02,8.462237007043614534e-02,4.238135313021144934e-02,-1.349079174764083455e-01,-1.550640594696061914e-01,-4.033984585790795219e-02,1.276360899306306362e-01
3.146178112588454527e-03,8.933108933102595905e-02,-2.480636876703955496e-01,-5.619719892027948138e-02,2.944471957145155527e-01,1.995144799891256093e-01,-5.758148715374120791e-02,-1.069710751367021068e-01,4.746802553807864533e-01,-2.421123085835988065e-01,-8.714397793245635959e-02,4.247504699290410857e-02,2.366746013195768772e-01,-1.077260284828428644e-01,4.966136512945373838e-01,-1.700007808371889195e-01,5.750588415986382929e-01,-3.693796398473108700e-01,-3.037496718448780553e-01,3.062778804081193740e-01,-3.088327525951656966e-02,5.204474611431092468e-01,2.516674373634641970e-01,1.839785580806767573e-01,-6.234762986721271993e-02,3.086607946331361152e-01,1.449249910891664272e-01,-3.465912748124315435e-02,-3.674745372106887897e-01,3.545073328901538479e-01,-2.342804733216285185e-01,2.596973038923070659e-02
-2.846621352528236684e-02,1.903656311095454357e-01,-3.120325853336061162e-01,3.670314844568655505e-02,1.091766713599161970e-01,1.246171100766654966e-01,-8.753487934396496362e-02,4.472012552651275646e-02,2.940507634176688923e-01,1.566820840631777956e-01,-2.942978098826080219e-02,2.135038764758492580e-01,1.569180638005685663e-02,-2.839348485371453665e-02,1.042105365308751003e-01,-3.343365375170978537e-02,9.766852098184047870e-02,-1.788015635865186637e-01,-1.560701563083379262e-01,1.762557424489741009e-01,-1.831717444362551128e-01,2.365932065157131114e-01,1.050047230379535096e-01,-1.248282822876553427e-01,-3.078646177107220439e-01,-2.105570984988669181e-01,1.496018010660385145e-01,2.162397949059561564e-01,-5.063425995047284855e-01,-2.242076692829582940e-01,-1.111686233911501342e-01,9.584149988749178159e-03
-3.130717438946555853e-01,3.804609350294216874e-01,-6.167778280398873714e-02,-2.915113015827016651e-01,-1.675704513363278914e-01,-2.759623793006886205e-01,1.307982537688160696e-01,-1.408021182505776736e-01,4.916104230200242231e-01,8.672334253986028196e-01,1.882165168887302009e-01,3.329362471892385877e-01,-3.981613218345080862e-01,4.861366356380663611e-01,-6.827620773543570110e-01,1.585585998021875054e-01,-2.535607448299854322e-02,-4.454685709422249729e-01,1.237150858153018562e-01,-2.070131861645541083e-01,-1.205287173261608280e-01,-5.637767972298405317e-01,-1.005097218659000563e-01,-6.062848086851679169e-02,-1.104285887336260881e-02,-2.687680115506526080e-01,4.845739763605095285e-01,1.090049092568183969e-01,4.845372199905195396e-03,-9.285233127101423234e-01,4.905400718844386554e-01,5.393796169218514347e-01
-3.375937553784029432e-02,1.609063802432017243e-01,6.318812441462413887e-02,-1.445320191048661274e-01,-9.387066653714665199e-02,2.938052202333211321e-02,9.217380720740452060e-02,-3.583938335318371388e-02,1.993896871573684615e-02,1.747396927986561987e-01,1.098642315557770387e-02,-3.565646256030749472e-02,-9.101248866020407446e-02,1.411113905530308804e-03,-5.292193069740213501e-02,-8.550219162855608734e-03,-3.668365718380751234e-02,-1.181930161250851485e-01,2.943419534307194219e-02,-1.591136252689006325e-01,-7.920598368453146687e-02,-8.267982388413008810e-02,5.386915411117498831e-02,5.298249949864510672e-02,-7.033480094197319676e-02,-9.778533955246497544e-02,9.150717323597296060e-02,7.083428127453872403e-02,-2.599758509330024614e-01,-1.341840335795450000e-02,-5.400761629682488893e-03,-1.030313214098452362e-01
-3.771603309489470202e-01,4.598102664742777235e-02,-2.227464854213585810e-01,-1.814394289861450960e-01,4.556577350718519770e-01,2.529559158423556608e-01,7.432831711024262544e-02,2.008371801676824275e-01,4.211712273553327446e-01,-1.444911304348037683e-02,7.169824244557120030e-02,5.693464361235195392e-01,-4.391610011032569538e-01,-5.727276929479444001e-02,-2.485539567068689726e-01,-7.167909786409805140e-01,-3.857999762660882515e-01,1.215890447126550394e-01,5.053018059041546328e-01,-2.455067577273471052e-02,-2.710629194936383102e-01,4.175642490823709418e-01,-1.530612833377042459e-01,-2.203591631001759754e-01,3.308615057262864756e-02,-7.638493750761878864e-01,-1.175262623707427380e-02,3.636022537989087033e-01,-2.473254870570775754e-01,-1.834099676869278550e-01,-1.440163035781817924e-01,2.639947384352452908e-01
-4.837708499345461099e-02,2.390010962463935129e-01,3.110878756785217907e-03,-8.989302634685135407e-02,2.085445122405640561e-01,1.926409343173278721e-01,-6.020297362608828529e-02,4.873799724853689758e-02,1.727825098029754369e-01,-7.093390933096245521e-02,5.072448185089869360e-02,2.330704437011110186e-01,-2.254530958544866126e-01,-1.540158168381849935e-01,2.468740537552762543e-02,-2.808872255463432110e-01,-6.200447109391971773e-02,-1.127847878397114645e-01,1.193824317289781251e-01,-1.341815902700933261e-01,-1.733622255328043094e-01,1.215557683065605771e-01,-7.674804527049049196e-02,1.442931797692253437e-01,2.273262984995491967e-02,-9.016874155990766554e-03,8.791379196621018632e-02,-1.369636425354649537e-02,-2.791323018852324700e-01,-2.465635093591153973e-02,1.870855974768605434e-01,-1.268250417528242746e-01
2.459552600285728752e-01,-1.182242266434590655e-01,-7.726527556894963178e-01,-1.020227755346181375e-01,8.830395918606397387e-01,5.355282785884482033e-01,2.216915277411437082e-02,2.542332523457813132e-01,4.921627734203663507e-01,-5.226280853327334164e-01,-5.703208459076361536e-02,1.721607959719074488e-01,4.422899806060241745e-02,1.942594027054821981e-01,4.501888863563459631e-01,-5.836880866347603503e-01,-2.252345972707948951e-01,2.501471352859375163e-01,3.594257405431134506e-02,4.767853130666279138e-01,-8.172668187544790408e-02,1.306292272117145714e+00,3.163903322026033749e-01,-3.206859107580389834e-01,-1.198180357511815231e-01,-6.799529243246323906e-01,-2.238745506903691909e-02,5.334680324515967964e-01,-3.390823404576483457e-01,2.493213138957253161e-01,-6.192851839841049255e-01,-1.726199555621165879e-02
1.020466206984366880e-01,1.560245693109976739e-01,-1.773348683663870662e-01,-7.992992664214638998e-02,-8.180696403001608968e-03,1.239243967555195280e-01,7.530693312489762127e-03,-2.008209197520351708e-01,2.243162328423119745e-01,1.150646573117311000e-01,-1.303997774257038833e-01,1.976020858255383150e-01,-9.789796682819694798e-03,9.165502289047283702e-02,5.133314083035614428e-02,-1.729108221584974292e-01,1.058089314224535671e-01,-7.734872008837694046e-02,1.296918780137175375e-02,-4.070352659857014860e-02,-1.447790592759258255e-01,1.210214834527715416e-01,7.960720171254699606e-02,7.371046347955888256e-02,-2.059256739253590707e-01,2.956251050535147265e-02,1.523940638043645990e-01,-5.077182051498917506e-03,-2.873231094707713318e-01,-1.770296386838614289e-01,-3.024080660694891329e-02,-1.177205697557597583e-03
1.125726784862727925e+00,2.444944928936543527e-01,-1.670901122247543835e+00,9.442825771086201803e-01,1.007768142142502210e+00,4.707979925642982733e-01,-4.223397155390269941e-01,3.914813836244571688e-01,-8.403236920260432896e-01,-1.218842433754808718e-01,1.689442000824610823e-01,-5.335576967754668276e-01,2.731050381495526147e-01,1.691831131096511065e+00,1.013185205217045581e+00,3.215507453770212742e-01,6.347984363099068439e-02,8.353329121745458608e-01,-1.009665716841122718e+00,3.490100480282802287e-01,8.905735982296832109e-02,7.459995469699115533e-01,9.072511567871965887e-01,-6.841120523389426777e-01,-4.110461089365326504e-01,-7.051827590522465883e-01,-5.587993162852652462e-01,2.077172479288057483e-01,4.099261888592937303e-02,7.918609131296630022e-01,-7.538833068574635199e-01,-1.691060182510534804e-01
5.362841973851659727e-01,4.105841415402378680e-01,-1.639151550801866808e+00,1.298622034572612050e+00,7.344228032199405787e-01,-2.215199889641086273e-01,-4.400626323943189200e-01,4.960520985038670005e-01,-5.386802291831639389e-01,1.242581258852991422e+00,8.554383747791212134e-01,1.622981264594442474e-01,-1.113885736922197278e+00,3.345506628682201278e+00,-1.201887590383766691e-01,5.550011271162200721e-01,-1.071700415649819021e-01,5.400989012280942303e-01,-9.310027486261939211e-01,-8.526503229463580080e-01,3.526955784074612965e-01,-2.458414396126353818e-01,8.008492904250847921e-01,-6.143177400137870281e-01,-7.126869750150497396e-01,-1.268845058743026222e+00,-1.417638675748087718e-01,1.452704990480163105e-01,6.707624940081480247e-01,-3.187838998425090997e-01,-3.043266293530487165e-01,-1.576656994088727892e-02
6.871747360071063515e-02,4.976993652737636276e-01,-8.673103297350356344e-01,2.552521112593512664e-01,2.810753072538915709e-01,7.455150410951216777e-02,4.207038662735577104e-03,-1.204123617332171579e-03,7.044783957952251152e-02,8.485432572772505511e-01,3.132068162544948131e-01,5.620334341648753895e-01,-1.269475811722780012e+00,1.468995061209157793e+00,-3.861079215367961837e-01,-3.399236804817664104e-01,-3.945050486894549624e-02,1.844403223644593970e-01,6.548378278255440055e-03,-9.768730481087435358e-01,-2.075299199286443838e-02,-6.079452617188345342e-02,6.162305008151678365e-01,-1.382011757266603247e-01,-3.472262245636359990e-01,-7.743063124699690603e-01,2.124791486021356812e-01,9.180600917960489438e-03,-2.980145857289765443e-01,-4.202821856496241626e-01,4.621525439055739620e-02,2.402707495705296292e-01
-3.188741588701553553e-01,5.978406573223258302e-01,-5.048496651793713541e-01,-7.260604343318904919e-02,1.951798526281474933e-01,-1.685993939142567954e-01,1.134507231386872594e-01,1.863632103490551681e-02,2.943567323709974648e-01,1.260042737561396287e+00,3.505694726167937758e-01,8.198145270782006833e-01,-1.300359426634392745e+00,1.541996565368770611e+00,-8.236459201402241970e-01,-4.100700032897870995e-01,-1.086772639365969489e-01,-7.019139954391075131e-02,1.470695274409268283e-01,-8.537596401426764681e-01,-1.189500270645875088e-02,-1.475332719578986707e-01,3.838821460125013130e-01,-2.149642917420695742e-01,-5.009262829751339741e-01,-8.529171815610250285e-01,5.370543334168484950e-01,1.209776974697441276e-01,-2.369648705865133598e-01,-6.353850235104014921e-01,2.632115504090882241e-01,3.285182328372439065e-01
-1.353288499750956164e-01,5.174020805069117802e-03,-1.646520761073478056e-01,-6.030559818162940094e-02,4.578190805669301588e-01,3.100845011323846712e-01,-1.222836330418471118e-01,1.892815623571514616e-01,2.037724791884744091e-01,-5.331470626921808176e-01,9.779115690104199163e-03,2.445898059860825979e-01,-4.281713692025749252e-01,-9.402734994301358007e-02,-1.100109431729764248e-01,-4.898277911952217956e-01,-2.325235659826468404e-01,7.916562648997832463e-02,4.564699549981042215e-01,-6.079178285928178715e-02,1.089946830943467476e-01,6.940051823149180343e-01,-2.744411686747125767e-01,2.901176121995205359e-02,3.228537867513949222e-01,-2.733129091576421699e-01,-9.758493534879938980e-02,1.011765892433188208e-01,1.839048473650502780e-01,4.729708737071778302e-01,1.942423874857349478e-02,-7.758732272673876662e-02
-3.962483669213472948e-01,3.984711626989414501e-01,-6.052718638702547782e-01,-5.140270818050952234e-02,4.441678244014445887e-01,2.976527561649281450e-01,-6.886237998045254861e-03,8.085931182578080800e-02,8.905600639808520791e-01,6.193209894683233685e-01,2.091308352816679261e-01,1.012853508242161915e+00,-1.057642777486579089e+00,1.002350475241963634e+00,-2.970003273390538490e-01,-5.319566257942072163e-01,-2.339069638948721441e-01,-1.317245087965104866e-01,2.572138572955259828e-01,-7.780804930832506683e-01,2.790319186180328370e-01,2.889436221339258815e-01,1.505029227588262908e-01,2.158998785322984448e-01,-2.100847522840157411e-01,-5.264215289283584731e-01,4.327162559948239950e-01,3.792792916082784460e-01,-1.384037813632658098e-01,-4.952397989840648940e-01,7.577068645999339436e-02,2.649772386228100296e-01
-2.668680988630323103e-01,3.535181702886823485e-02,-3.533213215450355937e-01,7.858895629913766057e-02,1.129629888366334572e-01,1.962678365274298786e-01,-1.216416520261130868e-01,-4.127740976545837825e-02,1.980818028868648328e-01,5.669436028407530415e-02,3.347549142638874264e-01,2.767275427226398299e-01,-5.508545596658415144e-01,5.138206511517642294e-01,1.484898117254148942e-01,-1.796872488407292023e-01,1.337661935581643258e-01,3.736452312675074550e-02,-1.393375575933164696e-02,-2.521141167409150508e-01,4.578623504612306383e-01,3.661190368913365689e-01,1.606835260968222656e-01,3.515932567312801682e-01,-9.282173325819563503e-02,-1.068327027297074766e-01,2.511199748076524685e-01,-1.122077738677249199e-02,1.348671819337434186e-01,1.952446892725617222e-01,-1.269182784099788797e-01,-1.685720839258447457e-01
2.476452514195352228e-01,-3.839089875368055793e-01,-6.538491384136675411e-01,4.130396487400818661e-01,6.914283999265250502e-01,1.735622195946897595e-01,-4.208198558142029477e-01,1.574271565394642636e-01,-1.132411995231239477e-01,-4.729671513889094903e-01,2.654578004637105360e-01,1.110719290269418374e-01,-1.737536847881800961e-01,6.369475372272118685e-01,3.704064014976741204e-01,-5.778829123220368125e-01,-9.727858312741077818e-02,7.396447877767824142e-02,2.426668828603367745e-01,1.441887690676622001e-02,5.532583893953887388e-01,5.471894468378496468e-01,2.077997517397159044e-01,-1.625916552164269613e-01,2.318913454079204461e-01,-2.755311651091684744e-01,-6.994621587647887884e-01,-1.647528230342993061e-01,8.231592556254899162e-02,9.458079002407137059e-01,-1.403160827987323389e-01,-1.483691206645829097e-01
-7.342381926176366758e-01,9.264385209035256308e-01,1.530377983046213031e-01,5.450635093788325225e-02,-1.499429757913570416e-01,-1.248909848190717709e+00,1.232289758769264526e-01,1.089249116774921450e-01,3.296699186631872336e-01,1.199599279712431965e+00,4.345223686069146218e-01,2.280163293815865022e-01,-1.892496750298878760e-01,8.030757559045783589e-01,-6.248287814414972274e-01,5.699262939003247458e-02,6.668692046477894264e-01,-8.803911171760393506e-01,5.004664601374873845e-02,-3.439920994296264550e-02,-2.916024413365652102e-01,-9.310939044806805232e-01,-3.670182285674629674e-01,-4.019233423133894423e-01,-4.061164833723240886e-02,7.866025389663784673e-02,5.187368555969248396e-01,-2.435410374075801798e-01,-1.435869810822074377e-01,-1.198917246080215104e+00,4.317584394336219100e-01,5.116816146599246773e-01
1.938210448704179856e-01,1.327639118094542658e-01,-6.741126822547561792e-01,3.883539238446427344e-01,1.795666956176797113e-01,-1.654406024235101913e-01,-1.515294340844757989e-02,1.453760497113675276e-01,-1.951081141610771785e-01,5.219762551219614410e-01,3.148235700380167534e-01,2.437045302857221152e-01,-8.800136961625614207e-01,1.359932045664759226e+00,-1.788575152306503824e-01,-3.145248465544872585e-02,-2.927021299262650977e-01,2.680695427807408548e-01,-4.126752653488195005e-03,-5.775679903561532491e-01,2.954764875181893902e-01,-1.199021150493372184e-01,2.960714443148644293e-01,-1.185686694490118709e-01,-4.165845777247115245e-02,-6.822894929289001764e-01,4.952628528124621704e-02,8.676326286747418348e-02,2.262197019101197526e-01,-7.856287638261734430e-02,1.206458143989715265e-01,-2.706901500569822844e-02
1.628152395536196922e-02,-5.776194815028589113e-01,4.507898334454157330e-01,-3.949297076842526732e-01,-1.531330133508998770e-01,-1.638473749823901315e-01,7.680980414152399627e-02,9.380250153143200598e-02,-5.663601755715133024e-01,-4.702807631276208489e-01,-1.453569096582025821e-01,-7.919234874051170325e-02,-1.068161375619763875e-01,-3.867593192468736785e-01,-6.124737218225073665e-01,1.648238829042507902e-01,-8.967738819353860968e-01,5.385855355332717087e-01,7.817336422258664985e-01,-1.594087392392130320e-01,2.256267703396579449e-01,-3.798122077660144869e-01,-3.160706010954461020e-01,-1.063959080755965403e-01,5.851390944044239095e-01,-3.411924311050676395e-01,-4.755480080509348340e-01,-7.692772971801699333e-02,1.048224082727645445e+00,-1.988424293854465230e-01,1.669224540226558751e-01,-1.948081680814456040e-01
-1.529528802837375190e-01,2.382579845663556073e-01,-2.250779639727413239e-01,3.943854775256608325e-02,5.293413779065440916e-02,3.317565152056817235e-02,2.286612620607467727e-01,-1.222360740414710489e-01,2.100106424654173964e-01,3.968210907512582653e-01,2.684503192591393694e-01,4.806044552364874267e-01,-5.291545343762049658e-01,4.741735441109309335e-01,-2.144271244896865936e-01,-1.498981564098373631e-01,-1.080280005650993830e-01,-3.492253337805484997e-02,2.413957986181215765e-01,-4.701547250420826107e-01,1.293370576148846485e-01,-2.925426936265970376e-02,1.868391985670835587e-01,1.003445217534037516e-02,-5.085692558039606875e-02,-3.230858202301085114e-01,1.564583843598626733e-01,1.194563837265206624e-01,1.879310661720129394e-01,-2.566756970913855462e-01,1.065920200679191382e-01,1.662661075323405568e-01
6.155811589122602012e-02,-4.869624541912516147e-01,-2.746088657836192604e-01,-1.371688725553030924e-02,5.480736329450002220e-01,6.086058104811472580e-01,-6.869112746839473038e-02,3.896234064516106432e-01,6.517595745466424340e-02,-9.227187246887073035e-01,-3.526857721197487056e-02,2.147731126368860322e-01,-2.945888323102847095e-01,-4.891918015089821714e-01,-1.497599043597624136e-01,-4.317875998903963342e-01,-6.530739751939932392e-01,3.515785383644463025e-01,4.381726876359564038e-01,-3.022264877654396442e-01,4.222597655593048754e-02,8.836808594311311715e-01,2.220667570016770717e-02,2.934630853453490396e-01,1.927451490975651271e-01,-1.449983104124263622e-01,-5.350100009645700899e-02,2.900452855926432538e-01,1.435809603818531954e-01,7.457526607200000157e-01,-4.194716627887566940e-01,-2.566425564760713152e-01
-5.283017904445519441e-03,8.360016336771958212e-02,-3.985136411249388111e-01,9.162832427744170560e-02,2.498958293308170819e-01,-7.388093086772601348e-02,7.297258053816096934e-02,4.732397877134664893e-02,4.898319984415787365e-02,2.218009287118236084e-01,2.915636450819524828e-01,2.366166702739528893e-01,-5.817080406016351679e-01,6.343787561234447425e-01,-5.588454861088123365e-02,-1.237096403436277609e-01,-2.097685974961113198e-01,1.833015638835269467e-01,1.042534151167864992e-01,-4.625846487125661599e-01,2.778126755290047378e-01,2.790388088596054000e-02,2.681851756952865345e-02,-1.229486547277403585e-01,1.848564236932904170e-01,-2.862078798218834486e-01,2.176231419417239479e-02,8.987203095086005941e-03,2.312913395294709240e-01,-1.511861311567859164e-03,7.527864937185080318e-02,2.721634046201693719e-02
2.224825191802460786e-02,-1.629590753542228265e-01,-6.551394313277224546e-01,4.449613765149073273e-03,7.564749683682843173e-01,2.765559976854634061e-01,-3.091947142480752087e-01,-2.280925542515630997e-02,2.075401609472287967e-01,6.862988445077576778e-03,-1.345259266603785787e-02,2.196175459056679824e-01,-2.401512577060505027e-01,5.233301162536199147e-01,8.154092707822530040e-02,-8.554346759223327434e-02,-3.653950727520764996e-01,-8.082386576846542492e-02,1.677151297671219676e-01,1.880245606560585758e-01,6.239350389737425423e-02,7.279087078245957132e-01,2.751210719203474042e-01,-1.130066648617409492e-01,2.794759498706413936e-01,-7.671686032258331345e-01,-6.283558789796475641e-02,4.394408475337536202e-01,-2.896018716300669538e-01,-1.894076027400634632e-01,-3.499029588224392695e-01,6.662557787910831919e-02
2.068967246214200306e-01,5.839980650553647928e-02,-5.292360286394587332e-01,3.568477159402605459e-01,2.223440087337697491e-01,-1.855677932512669187e-02,-5.781816216866444286e-02,6.337585570545878344e-02,-1.437910496592197385e-01,1.798492958363944183e-01,2.166632528023012538e-01,-7.613508205646740690e-02,-1.709715845144909874e-01,6.033468328007706161e-01,3.356603737843080748e-01,-8.785941714140203807e-02,-1.178198743781340430e-02,1.848789858441846623e-01,-1.456669605974698634e-01,-1.990106974302212894e-01,6.552698933428308115e-02,2.037495684383245353e-01,3.093447200833346344e-01,-1.729261207464177219e-01,-1.615481009407966351e-01,-3.768360150380259399e-01,-1.893875817411125595e-01,-2.640337350940425917e-02,1.203454454474394558e-01,1.387541908843185068e-01,-1.348231199218252740e-01,-5.699342175755737344e-02
-1.406565697516687086e-01,4.205749400178527830e-01,-2.598049835916509953e-01,-7.782270948642375230e-02,-1.311707001099472192e-01,-7.961063422001919687e-02,1.147071571571271903e-01,-2.341697143688756255e-01,2.901514843539762523e-01,5.984632009494977867e-01,3.292244323959642172e-02,4.256913516597732872e-01,-5.423401007442931743e-01,4.139047698069212022e-01,-1.929000857792361467e-01,1.738079034148419522e-02,1.942804001257321389e-01,-1.175663809867720372e-01,7.182579697620993658e-03,-4.456823847530388960e-01,-9.806613458168672581e-02,-1.575697475448041840e-01,1.654482914355565049e-01,1.866312538321935818e-02,-4.031690804445076104e-01,-6.808349177165835819e-02,4.354669785059441245e-01,1.568372427084874510e-01,-3.693887589431035789e-01,-5.762007617486885058e-01,2.819336551938107505e-01,1.730818094425922438e-01
-3.497526446254715232e-02,2.132650589463667423e-01,-7.069274668850449028e-02,-1.183727080167405049e-01,3.123834063641834149e-02,-7.289312728416248721e-02,-1.413365917952474904e-02,1.382420342332193741e-01,1.491031754272187648e-01,6.113433112717798767e-01,2.016027485038526246e-01,2.871856876124282421e-01,-4.885960065950850084e-01,3.259234000145439514e-01,-4.300208339587969220e-01,-8.554137100852024500e-02,-4.324238760628301009e-02,7.312632601676331834e-02,3.286084040025404052e-02,-2.986712582837127150e-01,-1.164478941991247130e-01,-2.403220405728162534e-01,5.882837514661426459e-02,2.899063646415103723e-02,-8.145065425633855882e-02,-1.297169285699087404e-01,2.840849531797166039e-01,-7.536151128292293937e-03,-5.026523562573950027e-02,-2.092003915956590632e-01,1.537793394498386812e-01,2.002987396594583802e-01
-1.862218858016461698e-01,1.416371849502129632e-01,-2.043045362327578218e-01,-6.947198217822700764e-03,1.463791705072396143e-01,-1.856687369435951196e-02,9.745438092648603390e-02,1.159967624129465136e-01,9.891190131989008316e-02,3.259210779145110815e-01,9.746507263445323976e-02,2.650813620363834944e-01,-4.975172279456730462e-01,4.512604415115170631e-01,-1.962308352869518713e-01,-1.291270154193220610e-01,-1.410958136176696798e-01,1.249485660854570135e-01,1.485703391595244449e-01,-4.109193405770064089e-01,5.936120117899335025e-02,-1.798312446057443170e-01,1.229089683467757405e-01,-2.064876576662274740e-02,-1.046451671666976946e-01,-1.956298422198254894e-01,6.736687393929727263e-03,1.708316179409490598e-01,1.010012802931818492e-02,-2.250421220797600153e-01,1.591643817563694052e-01,1.362352258200528465e-01
5.990879405340721747e-02,3.213246301219930823e-01,-2.271359964378512897e-01,-2.193854055161286454e-01,1.006163104564398447e-01,-3.213442413994097198e-03,-4.014272017951436822e-04,-1.788609869189631274e-01,4.562611555448031209e-01,2.468318371115723331e-01,-1.752957706435539220e-01,3.198179563682539972e-01,-5.352271113429255545e-01,2.308088167281600045e-01,-1.352842530701630352e-01,-2.274470718264093028e-01,2.579981412348762021e-02,-2.903436902270249004e-02,1.184258230983028931e-01,-3.097355591571895883e-01,-1.750374974231974634e-01,2.770127277019624606e-02,1.890864756421165860e-01,-1.377566863202814018e-01,-2.723635589813468427e-01,-1.729444033842883754e-01,3.040257952766876048e-01,1.514922061406973053e-01,-2.497049529831075476e-01,-3.542722687072085708e-01,1.509536262811483065e-01,2.195668045827458559e-01
-9.393502708194712697e-03,3.905091900327245513e-01,-3.069820506357439638e-01,3.115620580401025699e-02,1.390310658654102249e-01,8.171350176685959754e-02,-2.204962171681767724e-01,-2.160593756675828481e-02,3.631677520871690046e-01,6.229995616545241921e-01,6.965029969070596350e-02,4.266660475423535992e-01,-5.525192745014534390e-01,6.497425081633736443e-01,-9.623191069793454733e-02,-1.395055777475203707e-01,7.828513502957462622e-02,-9.182628306391295292e-02,-1.850363953831061226e-01,-5.943266389593917509e-01,3.972161150359668907e-02,1.800879420957524069e-02,3.479719423156896196e-01,7.864486108041991719e-02,-3.390813539376193453e-01,-2.246967828714629134e-01,4.633807310403214585e-01,7.402190568169435270e-02,-4.411459225990441158e-01,-2.731037104682208505e-01,2.078249659251663051e-01,5.234328249484324069e-02
6.087787829082728919e-02,2.067164363585266562e-01,-3.305474880031974427e-01,1.463364257396199131e-02,-2.156415075676589195e-03,5.742418922737250325e-02,6.249674433792996170e-02,-4.034926184883760175e-02,1.073968394586125863e-01,2.935741207201412184e-01,-8.584426186935398620e-03,2.525569033288456167e-01,-3.810339385754489827e-01,4.837377313474566232e-01,7.973516957224383028e-02,8.713164886921058450e-02,2.487145636531752357e-01,5.429186999601309793e-02,-1.526538398756838721e-01,-4.429956699959232691e-01,-1.224284328859145086e-02,5.237547737593976904e-02,1.594286515969915163e-01,2.441813343546156423e-01,-2.649146440098394950e-01,-1.508841062049916526e-01,1.982505762174308350e-01,-1.209603482008304864e-02,-2.302386667114912355e-01,-1.431879369978341643e-01,7.212379737949276004e-02,-3.130360545046745324e-02
-1.126736406938348423e-01,2.743608274146218662e-01,-2.822533265772728672e-01,9.327199866965064923e-02,1.686494697209300897e-01,-1.048001890551806953e-01,-9.118893069269606855e-02,5.588804489702903222e-02,-2.494947881345938728e-02,2.014433539877416302e-01,1.691444358934393322e-01,2.178184848535845708e-01,-3.643494518042565411e-01,4.364318466412383524e-01,-1.729930619235463610e-02,-8.558849223602706113e-02,1.984081028676520364e-01,-8.772348960859364941e-02,-3.659053416908052830e-02,-1.584155645956151770e-01,5.567202173234011425e-02,1.663226379740802008e-01,2.301996237911609344e-01,1.427894476990893280e-01,-2.592187375251559511e-01,-1.067951195399617359e-01,6.346525851069093060e-02,5.553087946804917407e-02,-2.638344397883372605e-01,-7.771018088234353527e-02,3.809363778714112969e-02,-5.290182016679302601e-02
-9.587641194216045548e-02,2.270842051973131770e-01,-1.097273388369117975e-01,-2.763803533048084585e-02,1.428057288755664178e-01,9.202185598219798923e-02,5.613445968056731544e-02,-1.955996537963335113e-01,1.507534513895550099e-01,2.989094878299700109e-01,-4.313854789484389968e-02,1.587394394734114311e-01,-1.342490620442129134e-01,2.728022075602407059e-01,9.623325013208249012e-02,-1.812706364803238698e-02,2.097112399453609222e-01,-4.894632017484527864e-02,-1.327128123507127777e-01,4.352565497193161548e-02,-7.686902236664211463e-02,1.195318417948571660e-01,1.723045728412701538e-01,3.338233005642409629e-02,-5.821448872471265273e-02,-9.997778489585074091e-02,1.781747469412516272e-01,1.340637550224848540e-01,-3.547083348918667611e-01,-1.184652948227351982e-01,9.776716070151684340e-03,7.079198029663703873e-02
-1.879641339429537206e-01,-6.508015794544237675e-02,5.075641006548121670e-01,-2.566394931843150040e-01,-6.660720116233225241e-01,-4.670793520549235689e-01,3.755426772517649336e-01,-1.117877744899246351e-01,-1.342187584950175518e-02,2.329763768667124368e-01,-1.723250038395337802e-01,-6.166764120906875757e-02,1.607540373781052578e-01,-4.799759477542854258e-01,-2.239399935965399324e-01,-6.888732886451849266e-03,3.957350859730451864e-02,-1.304683410188488268e-01,1.142645173567055084e-01,1.306911167497166737e-01,5.241295635847539533e-03,-4.354440610526266742e-01,-3.918761618181341166e-01,2.139751037481739671e-01,1.220679195971927922e-01,5.412860635924369168e-01,2.894494313409526343e-01,-7.596047534800294543e-02,9.721120086033153973e-02,-2.875582004429204086e-01,2.328143015026750140e-01,3.393859789710009650e-02
-5.648109068692844931e-02,1.210737738250405038e-01,-8.503066429979364016e-02,-1.771111595419828100e-01,-7.086231149895595716e-02,8.587114767288550610e-02,1.237929423133780071e-01,-1.791687179298788457e-02,1.610208131036768575e-01,-5.448139605832742760e-02,2.898235900179687088e-02,2.981878635123219046e-01,-1.489276041625714198e-01,-1.492215648236742687e-01,-1.166464545705116346e-01,-1.609514919574627778e-01,5.541733080274967999e-02,2.983204462544033347e-02,1.180254570840357231e-01,5.476639567922943902e-02,-1.546318336570434715e-01,-6.668719205617660087e-03,-6.951588234437439118e-02,9.386164576313330010e-02,-3.555293730915116968e-02,-8.314113273853369901e-02,1.079852146957196030e-01,1.193075938698232863e-01,-2.893328533780663014e-01,-9.408219296465389998e-04,4.081472579906413045e-02,5.143160266634677624e-02
6.104787787882426375e-02,1.131813797030801205e-01,-2.993666420011883988e-01,-1.024120791906155646e-02,1.390569307568700896e-01,7.947466769971683886e-02,-4.772998450253743835e-02,-8.424798776902870864e-03,3.827117375239791341e-02,2.775968917383335732e-01,5.350458886988783413e-02,8.765639266604621782e-02,-2.318061879049972129e-01,6.124445259534047059e-01,-2.259911787395739724e-01,-2.438633050733509874e-02,-1.263598804940602727e-01,2.592761503765383391e-01,6.303345654573963563e-02,-2.018047293068565562e-01,-1.462320209500427848e-01,2.486131260882988858e-01,1.484778291873397604e-01,-1.587172473347195079e-01,-5.502930799871444401e-02,-4.581762105856707623e-01,1.302593395038425250e-01,1.671770719712019626e-01,-9.296465688350621578e-03,-1.074586805269900774e-01,-1.975423115050708167e-01,-1.531315250822653518e-01
-5.258668147643093260e-02,2.848086252401053620e-01,-8.296895287637788552e-02,-1.138064538694652378e-01,-2.458119993693958297e-02,-4.298182614704734034e-02,-3.294884950651346539e-02,1.990015811617445660e-02,-3.818179490197200210e-03,3.748773157600334693e-01,5.054039409883910594e-02,2.836382845380813755e-01,-3.354483663933052751e-01,2.125676730844694162e-01,3.928383973730179696e-02,1.132746831930063827e-02,9.266919557849774558e-02,-1.001948360827131096e-02,-5.399296390333574100e-03,-7.530047920130020223e-02,2.685158436965619927e-03,-1.052119796474688951e-01,1.298716895684384753e-01,1.367238167928847350e-02,-6.496292204148719496e-02,-1.537905856015658324e-01,1.243551183641063013e-01,9.985509805190961874e-02,-4.849958528694234272e-02,-1.846914756243221434e-01,1.334015903274411718e-01,1.216862323182415218e-01
1.899602911351070678e-01,-1.874161902985309325e-01,-2.992929480426106403e-01,1.476515415059277969e-01,2.750138834737225202e-01,2.010284821519321696e-01,-1.396722071510711656e-02,1.358674414721686707e-01,-6.624577696669914362e-02,-2.657981720258575931e-01,-5.529287495712370548e-02,-2.483355786981047975e-01,1.101433650234885930e-01,1.015252578909684456e-01,2.934382938623885106e-01,-8.131285600662552238e-02,-2.981603881235623255e-01,2.104436644014253677e-01,-1.114523410968727979e-01,1.905842402382519063e-01,-5.315346246171697570e-02,5.252643779410277602e-01,1.521856065137217051e-01,-7.629315093889352251e-02,-4.633841986442097799e-02,-3.977425615892112853e-01,-1.063915553855614010e-01,1.398634104416287272e-01,6.284596363071322071e-03,2.982740126614010223e-01,-3.010146410401902672e-01,-1.290017116668728536e-01
6.712315613473983367e-02,-1.897999192972327394e-03,-7.459965656154031455e-02,2.869194086788069004e-02,2.172642285177599775e-01,2.285905214342713876e-01,1.561438217053408815e-02,1.109336479732079966e-01,1.429054169575550981e-01,-7.680973606298434342e-02,-5.579707703232664184e-02,1.799829670622297637e-02,6.888030851095154616e-02,-2.274181666393254309e-01,9.312445250050435663e-02,-1.511763157741056463e-01,4.782735339937519564e-02,-1.549949305937422528e-01,-2.060937760224225701e-01,-1.071812657589425039e-02,8.058945140554311937e-02,7.193087018551388989e-02,1.992731828069620528e-02,8.883278054681187363e-02,5.547908321906203782e-02,-1.210838187545197897e-01,1.177633657725765948e-01,7.039637446336360904e-02,-1.704195152863143548e-01,-2.433654831274690081e-02,6.129190901349939463e-02,-3.691793901711810932e-02
-8.227361158849103018e-02,-2.214464531509730549e-01,1.262084330954326705e-01,5.525089177473003349e-02,-1.137289785535326031e-01,4.796425457355366767e-02,-1.403473522346635610e-02,8.842839618471876051e-03,-1.130750704627543346e-01,-1.919112525956006565e-01,-4.720776390814024337e-02,-3.359919795203781812e-01,3.363474732338017636e-01,-3.259933360116253898e-01,2.842406205820926512e-01,7.832980723958522795e-02,3.426173102099256962e-01,-1.648457184956834132e-01,-1.466664696854876604e-01,2.198414148619899644e-01,1.005127966528504280e-01,1.656409894201702204e-01,-2.773372044776022949e-01,1.972678048139033802e-01,1.389280954883932162e-01,5.900147298843090304e-01,-2.910663945467673597e-01,-1.043593401888259949e-02,5.941147827756726452e-02,1.791705801416325627e-01,-9.816764001779243465e-02,-8.305183170488991684e-02
-1.802506235858301886e-01,1.793489047107514056e-01,-1.379692673286859461e-01,-1.400752226521580213e-01,-1.400040212505569356e-02,6.373991038246132335e-02,2.444409863574340674e-02,-5.612949009813666262e-02,2.473529034819753336e-01,1.712950579344245383e-01,7.607255353569979117e-02,2.765263777791163724e-01,-1.175020018366526170e-01,-3.265935414785304386e-02,-1.633938676752808294e-01,-4.169942662044248682e-02,7.347810798088404149e-02,-1.950440225207356743e-02,-1.641531597792461883e-01,-9.752719786101607391e-02,3.102239194003086941e-04,-2.129521127703914996e-02,3.451190258021791246e-02,-3.174555331204925029e-02,6.482465610708938730e-02,-5.659308066160479572e-02,1.223606713262047480e-01,-2.221514205973343023e-02,-3.435083729558401355e-01,-1.723932884812486854e-01,1.092342813888056152e-01,3.244971079304317246e-02
1.183280115015902453e-02,-5.312840343950049615e-02,-3.841058515563724324e-02,-1.379312871508630856e-01,1.160762789899773134e-01,5.693784850155814842e-02,1.094552042925769769e-01,-6.609821237651537784e-02,1.494797070461669885e-03,-2.437588727468573968e-01,-1.686557764098157164e-01,-2.234853029474400954e-01,4.051105599622341069e-01,-2.647721403239788884e-01,1.262913205860496102e-01,-1.378077936630227873e-01,-2.665217096311067735e-02,1.728752557577774018e-01,-1.138585653808036613e-01,4.280216834463351216e-01,-3.603502922283175480e-01,3.133474854251491748e-01,1.279944208894337118e-02,-2.332903887281490563e-01,-1.536499371991625895e-01,-1.796295471485029049e-01,-6.675003311991616062e-02,1.159280053642605807e-01,-8.137380543343973593e-02,1.131536721027146149e-02,-1.488424727043452800e-01,4.453193385023826445e-02
-2.606551279395085130e-01,1.127587365414150389e+00,-4.271351002024786347e-01,-1.139873372510662453e+00,-9.349964702179675013e-02,5.984605974207894974e-01,4.796936273519729621e-01,-3.229892746793741609e-01,1.437839874155037778e+00,5.462421310517531214e-01,-2.868724145945796278e-01,9.358545868349095187e-01,-1.525114459219917840e-01,-6.505861466041016339e-01,-2.787475008670621257e-01,-2.543494381652537384e-01,2.913303238231614856e-01,-3.709095600272248050e-01,-3.020124230562976075e-01,-1.202336846400888781e-01,-4.989280862310206954e-01,9.441307010750619177e-01,5.065274072394552185e-01,6.160456911541341007e-01,-6.094469255650678541e-01,-2.392335459207757253e-01,1.690334909825778720e+00,8.141261545991477222e-01,-1.512568223135559276e+00,-1.272502135537227241e+00,-2.505274206434542072e-02,5.228228262945048277e-01
1.640183690658856275e-01,1.769687019382269189e-01,-5.258347987568596782e-01,6.150397316707480883e-02,-6.733858358151624535e-02,4.331033590992460769e-01,1.954261287078770115e-01,-2.605743228774443088e-02,3.659806490979428673e-01,-1.423583757629660329e-01,1.070406714087247801e-01,9.064796783199052799e-02,1.432248633992513065e-01,7.771797963810064824e-02,1.839645579147245469e-01,3.108196374605185497e-01,1.413414069119990346e-01,6.406561186057634083e-02,-4.388106908803421913e-01,2.478209312259162245e-01,3.560049533887710976e-02,4.281460016599331064e-01,3.672102863194692812e-01,1.204431457633497599e-01,-3.072134375487628466e-01,-1.158106385808048283e-01,5.971761320582761323e-01,3.270031591232300805e-01,1.894784808504665005e-02,-3.687177135592966115e-01,-1.636295044245154318e-01,1.477835304034282315e-01
7.364852151554480975e-02,1.447230028336573548e-01,-2.968008323909764878e-01,6.190764951342894729e-02,1.275757515826254074e-01,4.612077106473040644e-02,-5.751306284215941533e-02,2.139641806960947135e-01,2.494072198538314078e-01,3.295167873763693023e-01,1.817867055670515375e-01,9.796017925184986874e-02,-2.777235396101225828e-01,5.221299448322304082e-01,-1.685011546018328268e-02,5.897985959070500134e-02,1.546675174571056875e-02,-1.788913680293737207e-01,6.018054818645449805e-02,-1.402779182007125314e-01,3.560762395877901942e-02,1.134973563684088388e-01,2.185030124135781682e-01,-1.779080453288192087e-01,-1.066616854576401680e-01,-2.423667025870629987e-01,1.459318934261854550e-01,2.661134073662538846e-01,-1.496993822437507893e-01,-2.876968893776890579e-01,-5.076110493754447395e-02,1.012862795451286296e-01
-1.836930469918252873e-01,-2.960259684173741426e-02,-5.784808688551499462e-02,-2.613649824315851262e-03,3.929762349472030319e-02,-9.071865999866438046e-02,7.246619299057878438e-02,1.345025264378850727e-01,2.190875532445888188e-02,1.332177298865865889e-01,2.315942662981244557e-02,1.803379136931046456e-01,5.870197940222265237e-02,-9.929700792920902186e-02,-1.410439156534741556e-02,6.442964229331821224e-02,3.988385768164631404e-03,-2.441903196075763394e-02,1.078037006056549729e-01,-6.250244050493465597e-02,-3.274375799939660461e-03,3.406350651501249827e-02,-2.557012720514340032e-02,-4.435978276865609467e-04,5.349586891086340751e-02,1.498999663015449825e-02,-4.055387795981933718e-02,-6.885317170533229725e-02,-7.576166670806212811e-02,-2.358182494040426957e-02,-7.297939771245530796e-03,-4.408785037099257481e-02
1.281083170131432913e-01,-3.545230873114332271e-01,8.968820941795793700e-02,2.319084916174343064e-02,-1.504662423279562455e-01,1.671711465113476791e-01,5.991354817766832846e-02,-3.298506926803922851e-02,-6.281135927648659467e-02,-3.894387970838837920e-01,-1.019447143287202234e-01,-2.325260035173575823e-01,3.773211788715637449e-01,-2.408368151446981242e-01,1.250238326362668184e-01,8.813510830057361134e-02,-1.495544802692316821e-01,4.827758181091604088e-03,-1.632667035917249043e-01,1.142369938539443547e-01,5.518063282124362895e-02,1.357010086995707188e-01,-1.803057055557485619e-02,9.329713869893249689e-02,1.022526231089639498e-01,2.122204473773981470e-01,-6.633049656700827634e-02,-3.268812599025758270e-02,1.325114956878347128e-01,2.741585469044705570e-01,-1.331832749904389990e-01,-1.961220671359352741e-01
5.273832883828120238e-02,4.644111376688921794e-02,-2.631451323386248542e-01,5.142397800439878208e-02,-1.204327431264152343e-01,6.139710200318056199e-02,-1.173358972988402735e-02,9.289611462716407253e-02,1.873074784494085238e-02,-5.706143440793021854e-02,-1.604160895074595045e-03,1.015750413991265561e-01,-1.768788884157900670e-02,2.550097995927397276e-02,5.299187522986877064e-02,3.254961384687537259e-03,-4.794643596034222320e-03,9.344802766733126265e-02,1.196574457817391329e-01,4.400098993990708002e-02,-2.577154744981450737e-02,1.338489166932654295e-01,1.008795746789702685e-01,4.369325959988621527e-02,-9.891771508954014247e-02,-2.293767761824405324e-02,-4.853593584044006704e-02,5.010526470664793987e-03,4.478721347857391941e-03,-2.265046701540564950e-03,-4.257221428690291520e-02,1.094910797307614148e-01
-4.506137219807297006e-02,2.624708140746666030e-01,-4.480172444672850252e-01,1.930450748540000760e-01,-7.119145598424665711e-02,1.965786984910674468e-02,8.100440935823625607e-03,3.944297568019680678e-02,-1.315216505284640403e-01,2.689740655906102673e-01,2.141366904433499307e-01,1.024769152320215149e-01,-4.747987708881331453e-02,5.874115658417226049e-01,3.556571247094598986e-02,6.297418979536710537e-02,1.124595950090367426e-02,-5.407792190039313607e-02,-2.512619811369258271e-01,-5.077922097955864938e-02,4.544163812428538701e-02,-2.218482154529365438e-02,3.143737025623009607e-01,-2.670436399587684979e-03,-1.424961488648360530e-01,-1.501173142451847353e-01,2.302839350748389913e-01,4.896198899263100313e-02,9.549247942919368570e-02,-1.300850898444524117e-01,1.733472247248211973e-01,1.527217789162492179e-01
3.208592677757678147e-02,-6.041279771449773080e-03,-6.400805420128262424e-02,-9.202228075022568510e-02,2.904516071153968870e-02,-7.926478331292476087e-02,-5.674572398839327486e-02,9.662358352208678947e-02,1.514982698555237817e-01,-1.721320075448606046e-01,1.018842696035337919e-01,-2.891086355543360728e-02,4.776790515624234484e-02,-7.291860714471162797e-02,1.037364792895253407e-01,-1.262351434616088286e-01,3.415643136579359085e-02,-7.259395418786808440e-02,3.928297496785379539e-02,1.591448800792704121e-01,-6.378122615220064955e-03,5.916090711403550889e-02,2.146718217082829380e-02,-5.971478632008643539e-02,1.231075583993115063e-01,1.413298413333899661e-01,4.523086046699090895e-02,1.306293208337891941e-02,-4.935861263817312855e-02,-2.036661244338706239e-02,1.119680971335773878e-01,1.019930896713626134e-01
6.140274899685387033e-02,-3.392967223526571763e-01,-1.644990885449055529e-01,-1.571435377060182992e-01,7.917486058931154369e-02,3.023405271930574845e-01,-5.832988820014878978e-02,7.725790027685866534e-02,1.078946635987493019e-01,-4.141251810381192944e-01,-1.487946184626417478e-01,-1.684336754052738194e-01,8.650982079464043795e-02,-3.502729817271573731e-01,9.565927291183116965e-02,-7.505699933432156967e-02,-1.264306375374754099e-01,1.173691653739191154e-01,-8.060831653664370100e-03,1.340443300351209788e-01,1.718404146508149266e-01,3.135995061833322661e-01,-1.057456487036623899e-01,4.606368272252620022e-02,1.544765562779257528e-01,1.300327898939855897e-01,-1.364578739256847584e-01,5.819410604541574300e-02,-8.963257384080468293e-02,2.829996000112126597e-01,-2.009147861135119895e-01,-1.364172912968212859e-01
-1.518230392108605442e-01,-1.075136059028914542e-01,-3.441128267735422963e-02,8.242226528975978017e-02,2.508737895431864193e-02,-6.266868001740470706e-02,-1.069799368217938529e-01,9.830787738480348606e-03,-1.350604816434978206e-01,8.538340490234687385e-02,2.055027746547177011e-03,-1.286575701730360566e-01,-7.826882279427042899e-02,-2.589540687624765011e-02,-3.820791575423201913e-02,-8.623664424393415184e-02,-6.252323697505574041e-02,-3.224197503358049860e-02,-8.842796614150534584e-02,7.517524082496869486e-02,1.302641768138883098e-02,-5.998770864855981072e-02,1.033143354476654535e-02,-4.910432956901386592e-02,-4.688480767045713482e-02,6.262571972818943566e-02,2.952565453537926710e-02,1.758659317659128640e-01,1.195755363892120858e-02,-5.528126529288589219e-02,4.591666146795506803e-02,6.677605489957101625e-02
9.272363207828397680e-02,-4.812027451045954030e-02,-1.138921612733658079e-01,1.451889266364151387e-01,-7.347830840366146969e-03,-4.216168993347703398e-02,-1.502668313110133713e-01,-3.656056214583320446e-02,-3.368070564248010906e-02,1.458662589198360393e-01,1.423712838779080114e-02,-3.911834129987243509e-03,-1.707035796691945828e-01,1.828721668964571057e-01,-3.120041881516414511e-02,4.473329284682392437e-02,-9.775023117015994856e-03,-1.361283559917425556e-01,-1.204542896935962074e-02,4.327994253221283810e-02,-4.140671961074066099e-02,1.749878819668428676e-01,-4.583506066989303379e-02,-3.762493341657264373e-02,-6.382487684792322036e-02,-1.688509134995859196e-01,4.887012402069137312e-02,1.928288522788430825e-02,4.722330120991989622e-02,2.901479881531112553e-02,4.021815710607138522e-02,-4.009864124080804448e-02
-1.113385266725293657e-02,1.314376530005380017e-01,-1.685980623771093923e-01,1.515791349107397379e-01,4.197996612582838988e-02,3.010780390443516287e-03,-1.141852066081280592e-01,-1.542523768821346397e-01,2.054575018600260650e-01,7.314674122806277823e-02,-3.884049416932897764e-02,4.882421290111899764e-02,4.877274041455111758e-02,7.048211872114233667e-02,6.804002081703998395e-02,-7.692074373390941910e-02,7.629475364069355538e-03,1.297158860021221244e-02,3.068883378581428734e-02,-7.411928485602992112e-02,-1.058180577883323231e-01,-3.512429250753045656e-02,1.704871666831374311e-01,-8.746950706567375999e-02,-2.045930591037613544e-01,4.137048738696202932e-02,-5.267310407805513017e-02,9.701410210798802614e-02,-1.478700982006610765e-01,-5.565657673589604129e-03,-6.122175325824405490e-02,3.317220546017449201e-02
-9.870619773317158840e-02,7.952197771080023181e-02,1.548217337454652759e-02,1.137822406378279777e-01,-6.297115706136340030e-02,-1.985511839868084327e-02,-6.191817110042299732e-02,4.791245405000074675e-02,1.153624918112123275e-02,-1.761364526358095289e-02,4.156812546866323066e-02,1.159507393024262617e-01,-6.012490292750770349e-02,1.435770853039292638e-01,-1.613790289800164923e-01,-9.866989617370616750e-02,6.562604576606184768e-04,-2.578286946794390924e-02,-2.364642802133255090e-02,4.886459907176145256e-02,4.344640386834189294e-02,2.494184505692298784e-02,-5.099891455727384448e-02,3.824052819368541078e-02,-1.665242059649128248e-01,1.848215075348986006e-02,-3.519191035644919380e-03,-6.979285763380711771e-02,-5.133845771732972046e-02,4.730620187138069588e-02,-3.925541874374586376e-02,-2.675658743009439941e-02
5.790629324819610013e-02,7.694364667433317706e-02,-2.992861554785452433e-02,9.971129904901937513e-02,1.047960616174596904e-01,1.649392893500123691e-01,4.416007839597186485e-03,-3.877687481549219658e-03,-6.370145214355259211e-02,-2.696741105778747635e-02,-9.737575107262325114e-02,-4.544454178891434853e-02,-6.843449745185141604e-03,-9.330889440604721308e-03,-6.585729744311213940e-02,-5.923144687856510271e-02,-3.119323797384506922e-02,-3.294874036691516211e-02,6.569225972980402561e-03,9.165818668268749247e-02,1.657917648546373968e-02,6.273484385245059469e-02,1.957859363795040331e-01,-5.069840237647370990e-02,9.412687566059356470e-02,-1.348734335627821412e-01,-1.372932682457574660e-01,-3.648017325284261259e-02,-5.698969591636206256e-02,1.678647263936125164e-02,6.510972854250629549e-02,1.661388739356607375e-03
8.127966610641892964e-02,-4.549639917845883785e-02,-1.133695267023398789e-01,6.561666423611368926e-02,2.640119111431507570e-01,7.895283475069840790e-04,-1.623384305019935636e-02,-1.950681511660034423e-02,-7.430652441315484247e-02,-1.084044074868658059e-01,1.784086285642571060e-02,8.393387041681855953e-02,-5.111221603052011966e-03,-3.524850991707993014e-02,1.054301138659891335e-01,-1.070811764650330400e-01,-1.802800673579499358e-02,2.221634755400975561e-02,-1.316788903041128111e-01,6.517254799003473209e-02,5.757500957336572633e-02,1.881235459787701236e-01,1.684232800390625395e-01,-1.480400636241104850e-01,6.711342329716903088e-02,-3.211308866786308919e-02,-1.293641532342130196e-01,3.348189351887819604e-02,1.668105832149888515e-02,6.874528207809095515e-02,-5.477378461267744941e-02,-1.141194768768161727e-01
-7.295390039710831533e-03,-5.905702494328909924e-02,-1.698760274585248975e-01,3.613578942460864835e-02,1.483642726682318780e-01,1.640006740648708439e-02,-1.357338756710587402e-01,8.889294402419965768e-02,3.225381066900272903e-02,1.079315533533619920e-01,1.078190218894402863e-01,1.812166671634050652e-01,5.033922923425129814e-02,1.881023467602691013e-01,1.414285729229905128e-02,-1.195666030930147700e-01,6.391668756038973442e-02,-1.053524552450930407e-01,-1.243992108059947116e-01,2.063536623434700928e-02,-5.752872254647596606e-02,1.058725992089661616e-01,9.379439523343008345e-02,-1.829344797552354684e-01,-2.502733478214375640e-01,-2.125939315640878180e-01,1.335797665906082905e-02,-6.524230831601009195e-02,-1.225499529083521333e-01,-1.266927678603353147e-01,-6.747589946774012505e-03,4.876275575241868776e-02
2.032796353306096093e-02,9.727379014197748419e-02,1.673034245857751151e-02,7.991745206981813732e-02,-1.034821410954475801e-01,-5.003238238606072530e-02,2.967439067439958320e-02,-4.625102053027090737e-02,-4.929213505668976480e-02,5.722301228643656562e-02,6.605134186696093312e-02,9.554019018519116502e-02,-5.171314573023621380e-02,1.950785952860295824e-01,-6.381660511338794160e-03,1.506705292308395949e-01,-4.120952003615688253e-03,-5.657888026718167068e-02,-1.468281106445275264e-01,-1.372377095484827135e-02,1.875343962672923470e-02,1.102058049826977748e-01,5.679815856506397614e-02,-2.460393038391978093e-02,7.017905999583298748e-02,-6.626233987027492500e-02,-4.674830252466516400e-02,5.676138343153160071e-02,-2.288286292852785217e-02,8.638009670367566284e-02,-8.209423307212886101e-02,-5.558398371656177173e-03
4.638723946527584241e-02,-4.953420663707368971e-02,-4.642671740205370906e-02,8.035582777488360640e-02,1.037342368746481530e-01,8.321639679171985438e-02,-7.465231439895628207e-02,8.058469354137101637e-02,8.970522939923394889e-02,2.504040580380804959e-02,-8.368351426399123216e-02,-1.634547068836395001e-02,8.180604688412930481e-02,-4.812213831355582200e-02,1.328131211352989380e-02,1.273394381530816855e-01,1.179592797809718707e-01,8.254270815329656230e-02,6.832441651822381001e-02,-2.586181870067601543e-02,3.440802344863126000e-02,5.144822563224102363e-02,-6.202315473309042565e-02,-7.087758302774134489e-02,2.917684489076137477e-02,-8.760795891539355229e-02,-6.766585747307705956e-02,9.439510003959107609e-02,-8.763972564454020064e-03,6.126263057751567959e-02,-3.315509425218383238e-02,-4.964356936740736692e-02
-2.266354498649576221e-01,-1.873891317494163766e-01,-2.585154359306122626e-02,-4.450452146806903320e-02,4.341061598841157720e-01,-1.036802552128858745e-01,-2.382162243490289211e-01,2.718027013574078055e-01,1.248892627888843893e-01,-6.332913646734146251e-01,8.109270255856433629e-02,-9.849862252904321991e-02,3.086431565255615683e-01,-1.507572005236813284e-01,1.055153434992216754e-01,-4.603980462516549799e-01,-1.725038764014101000e-01,-1.219305784162142969e-01,4.314155315605809893e-01,6.242851358107328608e-01,1.363328321117062425e-01,2.900046503914420759e-01,-3.400153177210679112e-01,-4.637722025225021194e-01,5.947691389266445139e-01,-2.306499947636837522e-01,-5.748218896240574471e-01,1.766721571369843091e-01,1.875073328696688080e-01,2.815955081065359411e-01,-2.631681823124382147e-01,-5.867554988076889577e-02
1.109296564574137889e-01,3.917234905953777269e-02,-3.295837231160666514e-01,9.736864510559284369e-02,1.396292355729485957e-01,1.122083233176517370e-01,-1.409258165603929081e-01,-1.615305326653133922e-02,1.076566079481790054e-02,1.121480764626023308e-01,-7.480153894778569790e-02,1.120553754261361529e-01,-1.934921725527451453e-01,2.923411005560505038e-01,1.043564794829526660e-01,-1.279982872234561031e-01,1.065377323826947331e-01,1.042704659341146950e-01,-7.758343888192514859e-02,-1.456276226790318151e-01,-1.375215955663993683e-01,1.240660665021071085e-01,2.480750413759442996e-01,-1.968591080117768413e-02,-4.106981801672865418e-02,-1.432313919102718991e-01,1.305462985875049664e-01,1.487813609982092111e-01,-7.822852858926312991e-02,5.680917481260914538e-03,-8.410126056782525616e-02,1.264973965548592816e-01
5.509720016988619434e-02,4.035978852950179024e-02,-2.209342056509884800e-01,-5.771747483480684643e-02,2.311827398547777468e-01,2.659998989026547411e-01,1.012873014667876465e-01,1.030256017214144504e-01,4.603429464570275159e-02,-5.249238153623955183e-01,1.755329807488340277e-01,-3.561485281708892114e-01,2.221353323038055827e-01,-1.294907303979905278e-01,2.221405187114103563e-01,-1.427120784124454866e-01,5.724164812030721472e-02,3.343277321752269327e-02,-1.290670245510289471e-01,4.386395664462436894e-01,2.254004222056885109e-02,7.171306653899670591e-01,-8.343055614447479618e-02,-2.437299041399633714e-01,8.539865075325146770e-02,-4.904117145767651620e-02,-4.259289958589746947e-03,2.585991326081507613e-01,1.048931346812384258e-01,2.522599591858900592e-01,-2.595374133591328847e-01,-5.556350121472489884e-02
4.020620514422040478e-03,-3.514745437212426354e-02,1.442955504420923366e-02,5.511509110282812596e-02,1.177909395410905308e-02,-8.188149228848633221e-02,-1.446430969357380414e-01,9.353264516388132277e-02,-5.514930423081831901e-02,2.238894208419329492e-03,-2.469883905832009202e-02,-8.682004872019068176e-02,2.767485720822408790e-02,8.898997352457161183e-03,5.529624214141388994e-02,-3.960377958397491571e-02,9.337450685413400953e-02,-2.629279531238997662e-03,1.544406052961686537e-01,3.400240489947976841e-02,-3.909007369591546016e-02,-1.831496717512308067e-02,-1.171232996755364048e-01,-2.034114045991416986e-01,4.818954927445786435e-02,-8.750731815911214767e-03,-6.232111647624749562e-02,-1.479460016915217987e-02,6.588242670378312293e-02,8.215366799474715931e-02,-3.288199724041243610e-02,9.285457781502842040e-03
2.624443609823476908e-01,2.426679344414227335e-01,-7.695866896127988577e-01,2.795185753365869163e-01,7.213247470652714988e-01,6.925073865786116056e-02,-1.772411345924574666e-01,2.000719155265699711e-01,-1.501078918929193429e-01,1.168750614993540327e-01,3.458050939961655468e-01,3.251744271562548860e-01,-6.500339039583502565e-01,1.004063411407946083e+00,1.332707855288788740e-02,-4.889093708408351890e-01,-1.389218426821839103e-01,4.549499443433771551e-02,1.297472270574249742e-01,-3.792874002645095777e-01,-3.322148019621329329e-02,2.906714476796824487e-01,5.198690141277290122e-01,-3.665344218584713487e-01,-1.557922193270700750e-01,-7.655040235294358064e-01,-3.415314802517562254e-01,6.465522960125857921e-02,-1.955899214200755576e-01,5.607436882508540776e-01,-1.237789801549862706e-01,-1.621667973155148101e-01
2.072943356281065352e-01,-1.525554492720313307e-02,-2.197070076363445146e-01,8.866252599191845607e-02,3.579520672590301260e-03,6.475215888968860641e-03,-3.223021416010292406e-02,-7.801330660988145538e-02,7.206016415145397036e-02,1.154916928982375884e-01,1.548722249153590969e-01,-1.832352526963100525e-01,6.974925712143506540e-02,2.193394339603612908e-01,-3.938714403219863158e-02,3.088244797093880889e-01,-1.827835785972774241e-02,-2.425508794572907856e-01,-1.278661600266947085e-01,2.126110577232091514e-01,-6.743426256649182049e-02,-3.231560007224074105e-02,1.812590343297269535e-01,-1.704435091538942793e-01,-1.189220819501972393e-01,-2.094905369346467816e-01,-2.303342023063551305e-02,6.603268598678109502e-02,1.546187412692664465e-01,4.079120475690878322e-02,-9.808075500900867438e-02,2.997799753704159520e-01
1.869670215321587448e-01,-1.003339142363416814e+00,3.650704341520105145e-01,9.311301712396892472e-02,6.090371520173721853e-01,2.329220767071600584e-01,-3.645870661437823901e-01,2.205582368116228154e-01,-2.863872423154200653e-01,-1.223424263850759974e+00,-2.633158721407386493e-01,-4.917980499528180061e-01,6.647817172538732500e-01,-7.188655630577921452e-01,1.090651433404138532e-01,-3.197552446168245299e-01,-5.973582970213717758e-01,2.659040564632899062e-01,3.615294411570445510e-01,6.437630506835314570e-01,1.202418776823812874e-01,6.073297728849513799e-01,-2.461656011910503261e-01,-4.529804513176436398e-01,5.569689293247441775e-01,-3.630150806222081084e-01,-9.410400347578146141e-01,1.371332651129781310e-01,4.494596109519214955e-01,9.395483322553241923e-01,-6.056172585084499405e-01,-4.468089010675582728e-01
1.719050611560567210e-01,3.719670889205216324e-02,-1.412855773941844306e-01,1.497460549712376354e-01,1.519055073003162670e-01,1.789383443936477108e-02,5.535147329926085047e-02,6.885384986183992750e-02,-1.367580611793424092e-02,1.139348429744560937e-01,5.072244173208536114e-03,-1.508220471918065575e-01,-2.085735204591976713e-02,4.208961984976115067e-01,-3.353827659546710499e-02,1.206042656611766573e-01,-7.428191908208194028e-02,8.411372933902570848e-02,-1.663880626359031875e-03,-8.807547513767181868e-02,7.118283843809274092e-02,-2.349198893761599710e-02,8.326887486091649748e-02,-1.467339321180112233e-01,-1.200652335085541055e-02,-1.984321850160864209e-01,-1.637185985771290042e-01,2.453093685193672227e-02,-1.402392766141877245e-01,7.954288746165819046e-02,-9.071985145116094607e-02,-9.288133282724765974e-03
5.402563885068691757e-02,3.899327732191972817e-01,-8.646059157789215410e-01,1.138783722344452985e-02,-3.928004074824146402e-02,3.595550262816061826e-01,1.871248402446853143e-01,-2.211101162415171351e-01,6.643451462920977324e-01,6.667528081298782494e-01,5.872315158268531787e-01,5.042757334390626234e-01,-5.429946442539750340e-01,8.735451907004032623e-01,-2.243217329525520054e-01,4.111524463450340061e-01,-3.305714866964808152e-02,8.389008580786481289e-03,-5.304544450227053343e-01,-1.174504611494241700e-02,3.229834396459174695e-01,3.086049240094732582e-01,4.290108821466756539e-01,1.614461458201517374e-01,-3.591823873673177792e-01,-7.151307597305653907e-01,4.439425528510855812e-01,4.057784559269351776e-01,7.135676441850971607e-02,-7.471186108027284556e-01,-1.033333374625601264e-01,5.624609434266670815e-01
-2.574280256163185010e-01,2.978560092697339623e-02,-2.522495127997713138e-01,-2.983332315341432617e-01,-1.569109826982681768e-02,4.567207636395239634e-01,2.680328281046545080e-01,-2.068302993360021658e-01,5.672511851327385335e-01,-2.522975874330598070e-02,2.124516602244662378e-01,2.633812584280938451e-01,4.408517015684918633e-02,-2.094203308537629926e-01,-5.400689986230239152e-03,2.688075716574360730e-01,8.023517260802850992e-02,-2.169967713642078355e-01,-9.542276619993576847e-02,3.124302388510643014e-01,2.810537968860198355e-01,6.426862386446564601e-01,-7.146957554274457891e-02,3.451845268685523882e-01,-5.176794658687172007e-02,-8.328966134706107527e-02,5.005718175897159172e-01,4.444750939635359610e-01,-4.580237405964087891e-03,-3.865927698780931565e-01,-2.724536419491891959e-01,2.081517395705161921e-01
2.908304300332558920e-02,5.342785343385352270e-01,-1.127281918458058918e+00,1.712584252178062649e-01,7.890833340315112077e-02,1.294169181139007974e-01,2.478033907544996417e-01,2.010921947613744567e-03,1.320065898546484429e-01,1.279468357284459179e+00,7.137586783573736104e-01,8.052107426616083030e-01,-1.717586119040162007e+00,2.050374857421383812e+00,-5.648908685624287607e-01,4.533784212219127419e-01,2.957793804369690180e-02,3.604200078945823393e-01,-3.927638067018374701e-01,-1.216506430067514355e+00,4.485186085035561265e-01,-3.152910393963996583e-02,9.347171577737595216e-01,3.935857087792294373e-01,-1.069845155514703494e+00,-7.011123621361978753e-01,9.723995098160387318e-01,1.820391029747464307e-01,-2.037622092516300221e-01,-6.186346188897672294e-01,1.156888765631148008e-01,2.002207679832008203e-01
-2.803350384847650978e-01,3.561013570609264933e-01,-6.333328210944062509e-01,4.695297772056011322e-03,2.107500682825096672e-01,1.614426183706514917e-01,1.713379462557824140e-01,-1.009527558800569769e-01,1.146920026588283681e-01,5.367101072109339288e-01,4.867480842856808931e-01,9.053440445081233356e-01,-1.743944381303860647e+00,1.162108977419642919e+00,-8.833981098123655507e-01,-2.730083991318831282e-01,-4.620827802011199248e-01,6.677460838359861039e-02,4.079144111593642763e-01,-1.136167546675853846e+00,2.555936974438723919e-01,1.885834076860603004e-01,1.291885100895561744e-01,1.301870473522189764e-01,-4.928448141330578069e-01,-7.621749742723575860e-01,4.122960120134250839e-01,1.089536658676126119e-01,-1.996763691934321794e-01,-2.805866448435594407e-01,1.083427663753312870e-01,1.245214485918982594e-01
2.716770261308478970e-02,8.598180877367311847e-01,-1.235038336831808969e+00,2.582005914818805703e-01,1.787960341624171001e-01,-8.892054013481989760e-03,3.309519882471074759e-01,-6.806437010597073123e-02,2.170640784732836281e-01,1.106725584560277031e+00,7.764202596973621695e-01,7.084849459738791211e-01,-1.045212300190601962e+00,2.028296424118349872e+00,-3.263886822415127398e-01,3.717361355208033680e-01,1.841356865760473138e-01,-1.513711291409269577e-01,-2.039099300423199701e-01,-5.708788687917587534e-01,2.299916231722927418e-01,-1.496232648450918079e-01,6.130309260970018270e-01,3.102063783127764762e-02,-7.596871984818226453e-01,-9.476108862548905387e-01,7.298591450892227828e-01,6.145158103259078242e-02,-1.780975132990647580e-01,-6.909902629750116487e-01,1.199204714344321160e-01,6.150414618407115119e-01
8.645447924602731038e-02,-4.101167459337626275e-01,-3.104837855117915102e-01,1.892506126418763979e-01,1.325810007690081949e-01,-6.953753972360612878e-02,2.930903759229838146e-01,4.500803864852101488e-02,6.926676806074799631e-02,-1.612889556038269168e-01,4.589443531058350345e-01,-1.699190915236982735e-01,1.799940029785550011e-01,7.834123554947273194e-01,1.082665488575416113e-01,3.638447792511217416e-01,-8.822344045154006942e-02,-1.240744106295075914e-02,-1.815300346046204161e-01,3.408170347140568879e-01,5.319964472733063054e-01,4.064102415012502689e-01,1.871307429723581550e-01,-7.639234038229761325e-02,-1.780791944013280781e-01,-5.547574317456703819e-01,-6.182378134321207114e-02,1.064276380260563148e-01,7.026991136535040150e-01,-3.991755668512346478e-02,-3.957014542434465487e-01,1.742268784801679626e-01
-1.775600075840505498e-01,-1.855383166096288283e-01,-2.949119518123894390e-01,-1.243329941285599982e-01,4.823038252495045475e-01,4.928750110876226748e-02,-1.525439415965012813e-01,-5.272223228043087379e-02,6.405860759876258470e-01,4.445538341573937458e-01,1.216779824888295780e-01,7.555411641578175796e-01,-6.512267096549385625e-01,1.082593065148333755e+00,-6.370387700771168449e-01,1.017001212946913591e-01,-5.248327642009003036e-01,5.266203740335999306e-02,1.562972500495135864e-01,-5.320781153238648420e-01,-7.083565321072465837e-02,9.116300222860312594e-03,1.514084341437255121e-01,-2.957981247181150075e-01,-5.996365083551722513e-02,-1.127937765210609733e+00,2.726929357579681908e-03,3.223642455510633553e-01,-2.012556928250069377e-01,-5.694823347030121274e-01,-2.678974023572438384e-02,2.758206282389054631e-01
-2.712899328386906284e-01,2.205936076962085601e-01,-3.483299924119720448e-01,-1.177025512070341839e-01,4.236853083896569699e-02,6.919823475891043185e-02,2.173227117227732874e-01,9.488939590102191124e-02,4.716779400337673400e-01,7.715674081001018536e-02,3.349130992230082149e-01,4.415501189509782320e-01,-5.558618173775154991e-01,4.068631117952206666e-01,-2.806840071957648064e-01,-4.410086082735732715e-02,-8.728490135417002471e-02,-3.036725670653817738e-02,-4.051244695278970534e-03,-1.974875304211417826e-01,2.990448190272514961e-01,3.079070915883876935e-01,7.577308095072260441e-02,1.758557732423632891e-01,-1.823430398422111465e-01,-4.162474235569160741e-01,2.424334659229280819e-01,2.548336965655313979e-01,1.212743230496895058e-01,-3.821642142390634933e-01,8.085500972852270596e-02,3.066829635509488727e-01
-4.966679901413499909e-01,4.760349622059664165e-01,5.507841859183703059e-01,-7.202243707583476651e-01,-6.664541195031931098e-01,-2.773016769218568101e-01,3.907998006598659840e-02,-3.600470397068776252e-01,3.135545411435946561e-01,5.215488210528503865e-01,-3.371347470911866817e-01,3.506801905256174412e-01,-7.971959427050794023e-02,-4.353702811030210063e-01,-4.522620366910330980e-01,3.014498224284707997e-02,1.824012027936180169e-01,-1.998364098631619512e-01,1.003241544538562430e-01,-3.194278153847310286e-01,-2.549763195718318110e-01,-5.201055416482922578e-01,-1.929652398928515811e-01,2.290365493120723184e-01,1.512002821332597280e-01,3.723358145166349442e-01,4.245124619111235731e-01,1.981100944275609177e-01,-3.775857292767409445e-01,-1.306099251201249922e+00,4.283714597496616761e-01,2.986667246785087992e-01
9.830658065252194378e-02,3.709044325814566667e-01,-6.871274392172895817e-01,5.847124412836111895e-02,7.379818844611100992e-02,3.122914231233651638e-01,-5.151728923234492191e-02,-1.678877670742863759e-01,2.619596076980874044e-01,5.053927080747726563e-01,4.743698319712702505e-01,4.266209457705979480e-01,-6.772703198704457250e-01,7.673433711583583783e-01,-8.839519356270274242e-02,1.328645798793325616e-01,1.192797730172393822e-01,7.401120560042039054e-02,-2.853122503486550388e-01,-2.280581877033063254e-01,1.202997771584302100e-01,1.802117890408763967e-01,3.579897096672930989e-01,2.628637354603565734e-01,-3.574330879949104145e-01,-3.179890918594603932e-01,5.135327639510414155e-01,2.293856992075511969e-01,-2.511892727007286052e-01,-3.242888174341915786e-01,-5.770167331860939081e-02,1.335543717750216075e-01
-4.015208928223359397e-01,-3.446112772411689118e-01,4.157262505917013184e-01,-2.384650813865600294e-01,-4.583452670664362461e-01,-9.017490521098329992e-02,-8.766178128159762828e-02,-8.522389202904334660e-02,-4.455120176741300675e-01,-2.790559372672566374e-01,1.846440347564347051e-01,-4.493897249524896054e-02,-7.420585606620646590e-01,-2.587341153446496844e-01,-5.260321500666860217e-01,-4.351260244977073373e-03,-5.830937471428476737e-02,-2.902746693845674117e-02,3.458884172861043660e-01,-3.367196263173390935e-01,3.613908960186748565e-01,-2.510248074456592482e-01,-1.883756075751339132e-01,3.940743314712562562e-01,6.694485624176825522e-02,2.718295655274631795e-01,1.655653813056635615e-01,-2.402285828609395102e-01,5.574782177295246610e-01,1.883201559089814070e-01,1.176796619015165746e-01,-1.693047339591380318e-02
-8.513505568402958412e-02,7.325879132973783792e-01,-6.189467530068880619e-01,1.705912013293869045e-01,3.169520873780443115e-01,-6.662572629225001208e-02,-4.725290589141987324e-02,1.714536268230504035e-01,1.289525753694822086e-01,7.395468626601737760e-01,3.839489886994730261e-01,6.633634119548424968e-01,-1.154339068607698415e+00,1.323104388199489501e+00,-4.382766463652109645e-01,-2.478333849029334401e-01,-6.164547559440151231e-02,2.364576237242807868e-02,3.934781033096079739e-02,-7.293382080075768714e-01,8.149752871575707130e-03,-1.218551313445099399e-01,3.752021169381363208e-01,-2.314732014834341989e-01,-5.082151324040492524e-01,-6.276108669990231315e-01,2.814578884001921466e-01,1.586747806810603553e-02,-1.610065636770902364e-01,-4.895867573308538834e-01,9.892665166896705276e-02,2.050577509101743356e-01
7.050771443277180639e-01,-1.803277646348077357e-01,-9.130682336780073793e-01,4.057072149364828184e-01,6.604709146759679683e-01,3.721039388114820157e-01,1.923266606561137015e-01,2.573298233714857441e-01,-3.246473179886880112e-01,-5.674110855213904125e-01,5.471823797043701143e-01,-4.409247420351986024e-01,7.601424569070075465e-01,7.711559707550633691e-01,6.253403103770072136e-01,5.373988578595604304e-01,-1.680023111694639026e-01,1.112062131967240658e-01,-2.572892279410646799e-01,9.203189947681731375e-01,-6.010182603583323624e-02,7.583048013742484939e-01,1.301786690170053662e-01,-6.846843984701798114e-01,-8.580465465332162700e-02,-9.593055074778719105e-01,-3.501256949900015680e-01,3.133270706694434860e-01,1.124516047918096423e-01,2.141749349874532693e-01,-7.890092485731680094e-01,1.734178011413823606e-01
6.038947482185564458e-02,-2.346191370862067971e-01,-4.608899534192988784e-02,9.111835242292339043e-02,1.068293598740027162e-01,-7.898898998904160806e-02,-1.322246742957950694e-01,1.650534841013189813e-01,-1.275607515194026598e-01,-2.492114706668782653e-01,9.031114154901298541e-02,-3.134194508033844723e-02,-1.916772100629031972e-01,2.548433397348784935e-01,8.579164996388170816e-02,2.100581861528497685e-01,-4.120364514883004259e-01,2.629260920473655561e-01,1.768194301803067692e-01,2.557398663713234335e-02,4.716967225919563300e-02,-7.456413434420326725e-02,-1.305707538705837001e-01,-2.536858071490454281e-01,2.126302904370842850e-01,-4.570045963337511230e-01,-4.426449544490042576e-01,-1.093557931151124124e-02,2.498304282686352185e-01,1.156961441326232187e-01,-1.232838813727203942e-01,-1.304168653507051245e-01
2.992918994462150789e-02,-3.842189773704212871e-03,1.259903772026792490e-01,-2.130791770992177814e-01,1.442327135984921849e-01,9.557219255778423572e-02,-2.741238861321362297e-01,-1.311786763186072735e-01,1.100774840167427319e-02,2.441544366198435123e-01,-4.493409024803086127e-01,1.744540816453851451e-01,-1.516469406431365796e-01,2.736259816922418930e-01,-5.019924656334864288e-01,4.375003012455036533e-02,-3.099938550608943855e-01,8.034277373729975524e-02,3.149363910224359242e-02,-1.782721887795562787e-01,-2.729731634356151182e-01,-9.053116107010932001e-02,4.155731195561340185e-01,-3.558011229959151533e-01,6.276087991319079240e-02,-4.278899474979864226e-01,-1.225325455400962799e-01,2.571890662619375489e-01,-5.672315807199652671e-01,-3.834595937333540872e-01,1.296856586806720835e-01,-9.533900853090415684e-02
-1.650983386939224862e-01,2.920582824126207733e-01,-4.914798046994272029e-01,-3.534550332395425265e-02,-5.992200280093333553e-02,8.700905958926519190e-02,2.608549539217477203e-02,-1.171339524422999323e-01,2.355753417163732322e-01,4.690251856545507581e-01,2.609747226986804947e-01,3.322367048546221446e-01,-5.098690679943544968e-01,7.281001589723297140e-01,-7.434697309265791976e-02,1.161447569010049113e-01,2.089931506050879129e-01,-6.720922431748724279e-02,-2.619762002036572501e-01,-1.921446097026532907e-01,1.528651028699179737e-01,1.922865738746799280e-01,3.554468199648077031e-01,2.253175681548307274e-01,-1.839936886336165089e-01,-2.454873419298007620e-01,3.150598013945959397e-01,1.993216885537016647e-01,-1.536605318307113568e-02,-3.388090177958290594e-01,3.448189358541429300e-02,1.932878388841399175e-01
-9.103044398262975789e-02,3.848798847031788539e-01,-3.397368822884459516e-01,-2.120098119637925382e-01,-1.067750411440306219e-01,1.288024242079645332e-02,3.474136938685928183e-02,1.146945287777241702e-02,1.391242148822525726e-01,3.982220307514823254e-01,-1.545861654023927140e-02,7.327426429304265132e-02,-1.591273440280741025e-01,2.361629890431465872e-01,-1.192736657281864843e-01,7.549809285783297408e-02,1.867899605658528139e-01,-1.494660978292656484e-01,-2.510119673452502753e-01,-2.202626708441290382e-01,2.095916504498115257e-02,-1.448876103870900926e-02,2.701261119631824248e-01,-2.221242064864051985e-02,-2.886966684801804961e-01,1.083623002318709512e-02,4.543497387718196112e-01,1.132732616549076698e-01,-2.487492501040287907e-01,-2.034500386581579168e-01,3.388457138467436680e-01,2.879871859775684842e-02
-2.502291392867934602e-02,3.318252363251330550e-01,-1.967675795389553228e-01,4.948334567345558099e-02,5.404531746167728912e-03,-7.396335352911193040e-02,-6.704792698745233592e-02,-9.384793497946489205e-02,6.424268083793460704e-02,2.402264132191063717e-01,1.248980686824841119e-01,9.757269422495384870e-02,-3.592632516079783400e-01,4.765304922482132000e-01,-3.635161212030671440e-02,1.185610995002368412e-01,-7.319518734625417300e-02,1.556625125518591446e-01,-8.718944608392625514e-03,-2.625201799937129654e-01,1.837479903636303827e-02,2.357344238069597128e-02,3.032829779312228302e-01,3.358168025178621952e-02,-2.222613320948312599e-01,-1.329909428313554298e-01,3.089355411945171603e-01,6.305579297205041178e-02,-2.261047082001428066e-01,-1.395117058085467154e-01,1.551238376940748676e-01,-8.033995381446486228e-02
9.789656354641386449e-02,-4.551408680506228294e-02,-3.017379763099891643e-01,3.046963596863865378e-02,2.630886165376001284e-01,-3.670099587377169403e-02,-2.181175237601586103e-01,2.066982717037768591e-01,-1.087661770539899569e-01,3.126981986077363024e-02,-8.783661596817761777e-03,2.305722116288892731e-02,-3.774512387376486866e-01,5.311556932069848580e-01,1.637064464046143475e-01,-1.468287310294641712e-01,-1.030211260231183451e-02,6.913599461730268736e-02,2.565906512683912774e-02,-7.200405180556913864e-02,-2.902792891711005602e-02,2.277743998591001406e-01,1.397073909561523108e-01,-2.173861670852322570e-01,-1.810792589036080702e-01,-2.373034298889855065e-01,-2.527834604158684662e-01,4.729377275502353456e-02,-1.013777234047305298e-01,2.986781362914567306e-01,-4.118095910414389799e-02,-1.756795903623999400e-01
2.581036373765457914e-02,4.294108173665354689e-01,-4.011652266451834481e-01,9.952272971887979325e-02,1.800320585382812755e-01,-1.465274236937149921e-01,-2.597766321467591677e-01,1.349891573469015893e-01,4.947465845655246025e-02,3.363912000381319989e-01,1.975116443598314009e-01,2.431460836066289544e-01,-6.217622103587738813e-01,8.514812025020070951e-01,-2.359077326015178722e-01,-2.106687586336718210e-01,-1.848945643403259176e-01,-1.679608470170216791e-02,1.402573422313854457e-01,-5.889936851005469487e-01,-1.639006748190794949e-01,-2.060982991195519087e-01,3.018132722589039751e-01,-2.535456370608820675e-01,-1.209409619186297413e-01,-5.513890897674479374e-01,8.990715398348793352e-02,3.048129673899467942e-02,-2.576597685797628601e-01,4.546976130937345484e-02,6.057415371927128700e-02,-7.007438766455452439e-02
-5.175776271286353092e-02,-1.276560723492410621e-01,4.872963044693988388e-02,1.660056271361515789e-01,-6.166118614090430189e-02,-8.177992206679146614e-02,4.253207742870161040e-02,1.408593057129415294e-01,-3.611173317202132638e-01,1.878217080788562726e-02,2.771491309868237204e-02,-3.969550256278842754e-02,-1.355708447754208346e-01,1.729569189161449527e-01,-1.047273024620906517e-01,1.023039853415049355e-01,-2.927301805668486301e-02,2.419281706618298666e-01,1.659460676921623024e-02,-1.261273354865631580e-01,1.007449700719779684e-01,-1.054428883415635260e-01,1.464263365910999093e-01,-2.008778129415722535e-02,1.441227817459039273e-01,-2.230899302190658684e-02,-9.866668961706923091e-02,-7.647335929533700949e-02,1.474383149733508036e-01,7.178545315480511224e-02,-9.302644359316061817e-02,-1.156482800974733410e-01
1.809425584333688303e-02,-7.739363692748733869e-02,2.871256541753270872e-02,1.369520956923310218e-01,-1.337996055982189694e-02,-1.051036996039310528e-01,-2.417235093825005898e-01,1.210457631749332214e-01,-2.944212885639496680e-01,-7.291637250881607274e-03,-1.675870529499330075e-01,-5.114810163498956924e-02,-2.116955720397686314e-01,2.590755278951737406e-01,-9.016569776541782932e-02,4.464697007387850164e-02,-1.736309968592655018e-01,2.017375558048020712e-01,-3.295987389755272029e-02,-9.676279154050899944e-02,1.888179526303760195e-02,-1.946390320971350119e-02,2.463680748263318010e-01,-3.994118289260393390e-02,-4.520188161938067800e-02,-1.137452026598263777e-01,-9.215470072802083024e-02,-3.924986081043309316e-02,1.152459348017165729e-02,-3.923234993550150929e-02,2.900786887172119785e-02,-5.011307861251369095e-02
1.124676067629649077e-02,2.101643954691465865e-01,-2.269381434833951661e-01,1.365947981040766257e-01,-2.573017378508289654e-02,-8.892808971673435425e-02,-1.118648204670598389e-01,-3.529136640068376873e-04,-1.475845203606086786e-01,1.840639483931040821e-01,-1.384212867066676213e-02,2.085508517390051719e-01,-2.144369295824341271e-01,3.449001667174010355e-01,-8.440298917891810027e-02,-7.514632923891922944e-02,4.613881117393909409e-02,-6.899197546737458053e-02,-5.393102244981546473e-02,-1.684742637942600874e-01,6.430809910080904912e-02,-1.185065331633295554e-01,2.588718991571196115e-01,-8.442838426093023096e-02,-2.623156491639988541e-02,-1.205395418166782529e-01,1.807047520775005578e-01,3.982527054708232873e-04,-2.099805423789168068e-01,-4.784956714891998308e-02,5.745957572780820144e-02,-1.148677513067416188e-02
1.329995478970928124e-01,1.051800373135156341e-01,-1.058483755309064939e-01,3.571159518382900806e-03,-1.058995452182761865e-01,1.541693617943530881e-01,-8.262340845041517279e-02,-1.127975104880624135e-01,-1.349226945296662372e-01,3.908061676071863388e-01,6.764094123366012901e-02,1.313681561273007115e-01,-1.999573982781456816e-01,2.743390578873344809e-01,-7.143560986924235578e-02,9.586090843470893019e-02,-7.201856481623046535e-02,1.560543227505681585e-01,-1.483276092909915911e-01,-3.017888455697707584e-01,4.420659292649851968e-02,-1.551332795899189876e-01,2.375141585831847257e-01,3.658819533033956795e-01,-1.170229576671603239e-01,7.665977701832550617e-02,1.268691277575950682e-01,-5.385899127129041564e-02,-1.157305780387128530e-01,-2.331340783600773514e-01,-1.376675430352770069e-01,3.884593177138035563e-02
6.496137152725907360e-02,-5.940089689343912294e-02,2.413340261287476030e-01,1.294610093930951555e-01,-4.200182735010677959e-01,-8.048505130479775838e-02,-1.192419368745991637e-01,-7.753124619409060281e-02,-2.357333908355886687e-01,-1.357918831338352506e-01,2.386641940041926008e-02,-1.792233569383996361e-01,2.615991493199462115e-01,-2.507805193390513221e-01,3.537410473066736338e-02,3.904942987763228568e-01,2.510969520516457276e-01,1.115891515231281633e-01,-2.707974100309327725e-01,3.484817083718708131e-02,5.269393751792704472e-02,-9.229167360947122811e-02,-7.881766206892915072e-02,2.565279668689317005e-01,2.052390228905953684e-02,5.169361754617006754e-01,1.901348988214127123e-01,-8.862114561293603365e-02,2.276069967744655254e-01,-1.267016192013195874e-01,-6.919970617590182060e-02,-1.192459426262119371e-01
-7.042900824378554858e-02,-4.062706417257234276e-02,-4.118790839167527085e-02,5.388173054646540339e-02,5.552810843126893686e-02,1.953545243822938926e-01,-7.168999845384756674e-03,1.688178929477365461e-02,4.387136566622883843e-03,5.245791445797247723e-03,-5.573716030130512061e-03,4.431732367045876364e-02,6.865119904681379892e-02,-9.625250126385426555e-03,1.974526536100575450e-02,1.021295620351837241e-01,-4.209976582130672829e-02,-2.016454329939719112e-02,1.465703827260828040e-01,2.959953435340203012e-02,2.481119859926801674e-02,1.977985443463339266e-01,-1.662544110490203619e-02,-6.274721242685138423e-02,-8.468302746040889950e-02,5.522842588185337270e-02,1.373358430931856666e-01,1.115086557325258021e-01,2.782047788003361860e-02,3.367463033246152759e-02,-2.345816163674044330e-02,-9.324473605748978544e-02
1.922274771011350247e-01,-2.526818519819234651e-02,-1.895005973810374167e-01,2.699301217122468954e-01,4.140285295560834633e-02,6.078518759099092728e-02,-1.673573306887159440e-01,2.632477722859940528e-01,-2.247126803564833408e-01,-3.457978081846745794e-02,3.260586596398959425e-02,-1.631178577411355746e-01,-7.905430087042501774e-02,1.968988388503438158e-01,3.168455784684821031e-01,-1.944928280103956353e-01,-3.174618091416167749e-03,2.818900821548430205e-02,7.792127582466427949e-02,-9.522035091506375615e-02,1.374293204881781860e-01,5.519326401743015337e-02,1.145595982642592658e-01,-4.629623703810824970e-02,7.275712619925214786e-02,-2.132270559434818191e-01,-2.094718011926488821e-01,-7.724878342515523189e-02,1.309534727771832080e-02,3.527605729663091383e-01,-1.200407238178991115e-01,-2.208579919861979046e-01
1.119227796838309502e-01,4.680953716389311264e-02,-1.686534783442980856e-01,5.207803788524285361e-03,7.257569047745537905e-02,9.762120666824189441e-02,-1.232119853586552578e-02,-1.574263879819311207e-02,1.131010523549715874e-01,2.026387454344522054e-01,4.921477409351205506e-02,4.862776558616581368e-02,-7.596586118225749640e-02,-3.217383947550059298e-02,3.598776738798063757e-02,-2.203896795234567760e-02,-2.862596686821846856e-02,4.882894723158780204e-02,-1.787809727170961427e-01,-4.077091758314980302e-02,-1.256110571250907415e-01,1.018334170164500729e-01,2.195419838575726479e-01,1.345475914575484759e-02,-5.220419810671728111e-02,1.716962240981729226e-01,1.016623734968940124e-01,1.016317587514393994e-01,-1.136072289550684872e-01,2.103826248611318644e-02,-1.614266126266098167e-01,-8.521629673709216202e-02
-1.698516617894429634e-02,1.754495571865535494e-02,6.240425145430560788e-02,-1.262232381443369467e-01,5.756313284280288600e-02,-6.061728159223373630e-02,-1.315903830659777562e-01,3.715943489217311130e-02,-1.934683471413017053e-01,-2.535195512696275522e-02,-2.931943628558866810e-02,-3.406152681962123369e-02,-8.788697976132082978e-02,-8.145956959892471094e-02,-5.200157798697410683e-02,-7.906697055781367056e-02,-6.278568650711360832e-02,1.354037545324268677e-01,8.299696624997593419e-02,-2.063520036708909045e-01,-1.037570154202158978e-01,-4.737912647520965692e-02,1.623277058410434737e-01,-7.533147243763739509e-02,5.018252482229729194e-02,-1.536973494568829868e-01,-1.570606834872941837e-01,2.891406368004800775e-02,-1.433915528975707454e-01,8.138538400417963392e-02,-1.027311934998142995e-01,1.251760925080678752e-02
1.103994229807192667e-01,1.613740622420692938e-01,-1.167945293675388546e-01,6.956057952418623347e-02,-2.179168620405379231e-02,1.321431424710059754e-01,-5.948821950269971839e-04,5.061309557459354319e-02,1.693664412385437745e-01,9.603466492339750304e-02,-2.392215918839090891e-02,1.721514250041601413e-01,6.315299154604557541e-02,-2.873723184679328677e-02,-1.158444372881450718e-01,-8.881149462528288574e-02,-3.799888061587879812e-02,-1.494960125144751129e-01,-9.848718812321907018e-03,-1.414933690406370605e-02,3.416732681452838011e-02,1.496379118906973060e-01,8.119452505833762990e-02,6.956975682680163753e-02,-6.198820250856192787e-02,-1.213855035468442284e-01,8.066062442469691673e-02,1.129404777394821258e-01,-2.500531151064163127e-01,-8.564110160590998611e-02,2.403430742854542612e-02,9.411884873843967547e-02
-1.671037785599231718e-01,5.928691696578940878e-02,2.787961001912252490e-01,-7.340429540777776429e-02,4.199937269057970463e-02,-1.401364640790492277e-01,-8.666803010691906395e-02,-2.589646037985485899e-02,7.650233734316613798e-02,-2.173550377117886012e-02,1.246687983234046060e-01,-8.593405904557625818e-02,5.052346961536435116e-02,-1.589031969075905548e-01,-2.990732904503918405e-02,-2.184264303238113436e-01,4.473158621678443442e-02,-2.098894270884119340e-01,9.436809319678007846e-02,9.240508656231074397e-03,-1.775368606964302376e-01,-1.180589015438356509e-01,-1.960792695192032364e-01,-1.486738030839644120e-01,9.878834592036021822e-02,1.484013514582021576e-01,-6.079668812886222795e-02,1.353761606185185581e-02,-7.822892081626013627e-02,-1.514427686392093020e-01,-2.718731738254951194e-02,-2.283833576169095880e-01
2.695624357307433230e-02,6.720326929172500130e-02,7.829777053909611761e-02,-5.632411849699815731e-02,3.505331794268705045e-03,-3.421302097962942990e-02,-3.087484865798162045e-02,-3.981165005969602294e-02,-6.069547879565565657e-02,-4.557757094842765366e-02,1.224951660221915151e-01,9.110791091905966199e-02,6.723999218075683848e-02,-3.581159632705824963e-02,9.919647635878951764e-02,-3.805143576510051223e-02,5.749806410227395470e-02,-9.558737986949099319e-02,-1.019641835612984382e-01,4.421312892741726536e-02,-3.735207574811130055e-02,1.879225528302643222e-01,4.297770652622940474e-02,1.088727813659837867e-02,-6.622011369199739921e-03,8.878614241497485848e-02,-7.724405569625003576e-02,6.477958598222952058e-02,-1.543917973706928903e-01,9.689310786493278427e-02,-3.884027644182930922e-02,-1.831446440988024685e-02
3.980133879328459634e-02,4.390061943415048823e-02,9.962901243315677724e-02,-1.128324441591214110e-02,3.504139359027672040e-01,3.224166654357324968e-01,-1.694803268495806148e-01,8.237003296210076986e-02,1.646591660383773734e-02,-4.493188886298441487e-01,-2.050467480339958071e-01,-3.576862326385198965e-01,5.206360603950722643e-01,-3.846820758263951867e-01,5.220874251889606743e-01,-2.023283733448348332e-01,2.937990260587245439e-01,8.066581406997373055e-03,-2.144424655482708164e-01,5.083257811065440279e-01,-1.210908080868218495e-01,3.119720254527600378e-01,-1.322193785287269045e-02,-2.974428316127020189e-01,-8.108775363779645307e-02,1.067597171759728514e-01,-7.498443050590693215e-02,6.504593728068763792e-02,-3.178823623007936416e-01,4.182020655845998247e-01,-2.536095322406241026e-01,-1.987048724773972097e-01
4.042243559106623030e-01,-4.717963230096967053e-01,5.793159916733290477e-02,4.419155870013530100e-03,-3.382367170203863793e-01,5.229484589392440208e-01,-1.594108159877278830e-01,1.510971155162114665e-01,-6.918448538051330532e-01,-6.325586520758943454e-01,-1.139367254860886858e-01,-6.720271799980601646e-01,5.630004189137480797e-01,-3.236634025848776908e-01,2.584068387991959037e-01,9.885806512888234421e-01,-1.804053417431780715e-01,3.402210120744667554e-01,-6.279246601443968512e-01,4.086337912514236836e-01,2.670851457270148610e-01,1.845141633913683910e-01,2.497242048567526462e-01,5.349013773905507696e-01,1.572926824732810425e-01,4.214121524287771092e-01,1.284586468322498620e-01,2.187196589974543803e-01,4.551056398514865542e-01,1.891107439312096350e-01,-2.464209619367951076e-01,-1.828821749467579028e-01
2.666685115506281512e-01,3.637136339463181711e-02,-6.111224323543674314e-02,-1.436727143157700559e-01,3.639091686045533569e-01,1.162950593191389159e-01,-1.263505976203192493e-01,3.193218865034656018e-01,-2.018506634133468147e-01,-7.841626975305492353e-01,-1.486736777532201847e-01,-5.728566148633822408e-01,8.631611005885273524e-01,-3.935907563519941421e-01,2.383533881520733533e-01,-2.175269605867500011e-01,9.365809260628628341e-02,5.170467360987626715e-02,1.983497694263868048e-03,9.699426887792680363e-01,-2.734939683463163962e-01,4.651454349176006309e-01,-2.848495650208392460e-01,-4.816853684168192484e-01,2.465430995686175852e-01,-4.953709352115436698e-02,-5.956901701728698484e-01,1.941672960856001273e-01,-3.189419350948322768e-02,1.393478963962748729e-01,-3.327000565584997682e-01,-1.049833267417028121e-01
1.739294890199220012e-01,1.863252466405493912e-01,-1.674605083719519771e-01,-4.200961449314772472e-02,1.169258023409554259e-01,-2.630166986456402775e-02,-5.400840251108137390e-03,6.418445405297615314e-02,-7.571559806697471251e-02,-4.976970842676914364e-02,-4.634193305011147235e-02,-1.688818279081543139e-01,2.285671273813414117e-01,2.201916772830001534e-01,3.056876608854263155e-01,-4.302353694739270706e-02,9.927584779101109036e-02,-1.116291596923109086e-01,6.818909799733728627e-02,2.288159197996042782e-01,-6.497483717495230516e-05,1.708023389694692806e-01,9.802839168037333351e-02,-2.917125298676915834e-01,-1.164417901702518091e-02,-2.011496195122978725e-01,-5.931229196203242904e-02,1.315869762779668939e-01,1.585548138361108847e-02,-1.623746431917306998e-02,-9.396350279631036917e-02,-3.311626299189004280e-02
1.024207775334403936e-01,1.342583874907117003e-01,-1.109512757664368326e-01,4.185224086402042354e-02,-5.161697926925711694e-02,-7.137557617342157879e-02,4.128516141487982398e-03,1.212372706156362445e-01,8.854541797979545437e-02,1.100502908944004793e-01,-7.741460558328752684e-02,2.152450260091914036e-01,2.892709932536281781e-02,-1.235226170192387368e-01,2.271995921302369381e-02,-3.608343645317890064e-02,5.544119854956820748e-02,2.034750110835248024e-02,-8.092190274959744356e-02,1.036161853230966878e-01,7.190593183106350726e-03,4.879575673308916145e-02,1.342800292426926112e-01,-5.462392975292842956e-02,-9.827383147461619950e-02,7.998271662664695192e-02,1.372590380262368737e-01,-1.105556013935673210e-01,1.132021902801664953e-01,-4.930124512370324258e-02,7.046734325882207661e-02,4.983325203996323560e-02
-9.748214441832191157e-02,8.991361238836836911e-02,-2.859859360817924023e-01,-1.851653639009283314e-01,6.885948491653723358e-02,5.231140338013990504e-02,1.715063688797588970e-01,8.314850601865976520e-02,2.083973349680250386e-01,-4.875838027214476900e-02,1.547539926106548773e-02,-2.357421562882575095e-02,9.920552545694932833e-02,-1.610630088606544164e-01,1.366175842597239232e-01,-2.229818051953842695e-01,1.189822134701956080e-01,-1.307866285763695513e-01,8.328984412080266131e-02,2.246313329964596539e-01,-2.192070059775468038e-01,4.992110890869984607e-01,3.091763963841276039e-02,-7.227854901467788140e-02,-1.379844378471053457e-01,-8.361362004094015365e-02,9.935392191323706712e-02,2.439936237332501479e-01,-3.089409666721859571e-01,-9.425595899891482665e-02,-9.272026314298459360e-02,-6.278844102571738695e-02
